Label,dim_0,dim_1,dim_2,dim_3,dim_4,dim_5,dim_6,dim_7,dim_8,dim_9,dim_10,dim_11,dim_12,dim_13,dim_14,dim_15,dim_16,dim_17,dim_18,dim_19,dim_20,dim_21,dim_22,dim_23,dim_24,dim_25,dim_26,dim_27,dim_28,dim_29,dim_30,dim_31,dim_32,dim_33,dim_34,dim_35,dim_36,dim_37,dim_38,dim_39,dim_40,dim_41,dim_42,dim_43,dim_44,dim_45,dim_46,dim_47,dim_48,dim_49,dim_50,dim_51,dim_52,dim_53,dim_54,dim_55,dim_56,dim_57,dim_58,dim_59,dim_60,dim_61,dim_62,dim_63,dim_64,dim_65,dim_66,dim_67,dim_68,dim_69,dim_70,dim_71,dim_72,dim_73,dim_74,dim_75,dim_76,dim_77,dim_78,dim_79,dim_80,dim_81,dim_82,dim_83,dim_84,dim_85,dim_86,dim_87,dim_88,dim_89,dim_90,dim_91,dim_92,dim_93,dim_94,dim_95,dim_96,dim_97,dim_98,dim_99,dim_100,dim_101,dim_102,dim_103,dim_104,dim_105,dim_106,dim_107,dim_108,dim_109,dim_110,dim_111,dim_112,dim_113,dim_114,dim_115,dim_116,dim_117,dim_118,dim_119,dim_120,dim_121,dim_122,dim_123,dim_124,dim_125,dim_126,dim_127,dim_128,dim_129,dim_130,dim_131,dim_132,dim_133,dim_134,dim_135,dim_136,dim_137,dim_138,dim_139,dim_140,dim_141,dim_142,dim_143,dim_144,dim_145,dim_146,dim_147,dim_148,dim_149,dim_150,dim_151,dim_152,dim_153,dim_154,dim_155,dim_156,dim_157,dim_158,dim_159,dim_160,dim_161,dim_162,dim_163,dim_164,dim_165,dim_166,dim_167,dim_168,dim_169,dim_170,dim_171,dim_172,dim_173,dim_174,dim_175,dim_176,dim_177,dim_178,dim_179,dim_180,dim_181,dim_182,dim_183,dim_184,dim_185,dim_186,dim_187,dim_188,dim_189,dim_190,dim_191,dim_192,dim_193,dim_194,dim_195,dim_196,dim_197,dim_198,dim_199,dim_200,dim_201,dim_202,dim_203,dim_204,dim_205,dim_206,dim_207,dim_208,dim_209,dim_210,dim_211,dim_212,dim_213,dim_214,dim_215,dim_216,dim_217,dim_218,dim_219,dim_220,dim_221,dim_222,dim_223,dim_224,dim_225,dim_226,dim_227,dim_228,dim_229,dim_230,dim_231,dim_232,dim_233,dim_234,dim_235,dim_236,dim_237,dim_238,dim_239,dim_240,dim_241,dim_242,dim_243,dim_244,dim_245,dim_246,dim_247,dim_248,dim_249,dim_250,dim_251,dim_252,dim_253,dim_254,dim_255,dim_256,dim_257,dim_258,dim_259,dim_260,dim_261,dim_262,dim_263,dim_264,dim_265,dim_266,dim_267,dim_268,dim_269,dim_270,dim_271,dim_272,dim_273,dim_274,dim_275,dim_276,dim_277,dim_278,dim_279,dim_280,dim_281,dim_282,dim_283,dim_284,dim_285,dim_286,dim_287,dim_288,dim_289,dim_290,dim_291,dim_292,dim_293,dim_294,dim_295,dim_296,dim_297,dim_298,dim_299,dim_300,dim_301,dim_302,dim_303,dim_304,dim_305,dim_306,dim_307,dim_308,dim_309,dim_310,dim_311,dim_312,dim_313,dim_314,dim_315,dim_316,dim_317,dim_318,dim_319,dim_320,dim_321,dim_322,dim_323,dim_324,dim_325,dim_326,dim_327,dim_328,dim_329,dim_330,dim_331,dim_332,dim_333,dim_334,dim_335,dim_336,dim_337,dim_338,dim_339,dim_340,dim_341,dim_342,dim_343,dim_344,dim_345,dim_346,dim_347,dim_348,dim_349,dim_350,dim_351,dim_352,dim_353,dim_354,dim_355,dim_356,dim_357,dim_358,dim_359,dim_360,dim_361,dim_362,dim_363,dim_364,dim_365,dim_366,dim_367,dim_368,dim_369,dim_370,dim_371,dim_372,dim_373,dim_374,dim_375,dim_376,dim_377,dim_378,dim_379,dim_380,dim_381,dim_382,dim_383,dim_384,dim_385,dim_386,dim_387,dim_388,dim_389,dim_390,dim_391,dim_392,dim_393,dim_394,dim_395,dim_396,dim_397,dim_398,dim_399,dim_400,dim_401,dim_402,dim_403,dim_404,dim_405,dim_406,dim_407,dim_408,dim_409,dim_410,dim_411,dim_412,dim_413,dim_414,dim_415,dim_416,dim_417,dim_418,dim_419,dim_420,dim_421,dim_422,dim_423,dim_424,dim_425,dim_426,dim_427,dim_428,dim_429,dim_430,dim_431,dim_432,dim_433,dim_434,dim_435,dim_436,dim_437,dim_438,dim_439,dim_440,dim_441,dim_442,dim_443,dim_444,dim_445,dim_446,dim_447,dim_448,dim_449,dim_450,dim_451,dim_452,dim_453,dim_454,dim_455,dim_456,dim_457,dim_458,dim_459,dim_460,dim_461,dim_462,dim_463,dim_464,dim_465,dim_466,dim_467,dim_468,dim_469,dim_470,dim_471,dim_472,dim_473,dim_474,dim_475,dim_476,dim_477,dim_478,dim_479,dim_480,dim_481,dim_482,dim_483,dim_484,dim_485,dim_486,dim_487,dim_488,dim_489,dim_490,dim_491,dim_492,dim_493,dim_494,dim_495,dim_496,dim_497,dim_498,dim_499,dim_500,dim_501,dim_502,dim_503,dim_504,dim_505,dim_506,dim_507,dim_508,dim_509,dim_510,dim_511
tulip,-0.19171414,-0.17324391,-0.13688174,0.18942098,-0.37854481,-0.18634053,-0.30092332,-0.34540629,-0.36806142,-0.07838196,-0.44720882,-0.11217828,-0.08970743,-0.47476199,0.49995479,0.25640532,0.19666007,-0.00048430,-0.46255001,-0.15763706,0.34385526,0.54400593,0.27735683,0.56667536,-0.64881724,0.28840527,-0.11402468,0.55782789,-0.08801952,-0.10240614,-0.03391604,0.51952648,-0.03863122,-0.12771061,0.04157015,0.57790625,0.11855419,-0.20594864,-0.34345579,0.15520154,-0.14838368,-0.32870638,0.10900313,0.30453911,0.29589748,0.05273420,-0.09923072,0.18081638,0.34896958,-0.19052532,-0.33525386,-0.27844253,0.33875382,-0.28924757,-0.30246219,-0.21772268,0.08411798,0.15456758,0.17170598,0.09943475,0.23510164,0.06207585,-0.12237846,0.07197000,0.20768735,-0.03992003,-0.53995389,-0.10852455,-0.21005225,-0.23807117,0.11847096,-0.20569292,-0.09973291,0.44433132,-0.02152898,-0.01632058,0.09983652,0.34570748,0.12690167,0.08994737,-0.05659084,-0.05500204,-0.31895092,0.29092693,0.21509586,-0.04568323,0.20884623,-0.22577026,0.24488552,0.25601131,-0.24016394,0.09138809,-1.22722173,0.30775642,-0.15223911,0.00458841,0.49477613,-0.25114676,-0.16041088,0.06820654,0.38775668,0.09267922,-0.15898828,-0.05367944,-0.10427833,-0.20890132,0.05272227,0.07534602,-0.05448443,0.46549052,0.45968387,-0.13039428,0.39236355,-0.18742168,0.22640982,-0.14151382,0.07665110,0.34389117,0.05400120,0.44648769,0.13519692,-0.73077554,0.35683331,-0.20426133,0.08771440,-0.18560053,-0.07039442,-0.23844112,-0.08204263,0.29505017,0.74526000,-0.17519322,-0.39729553,4.36319208,0.41525403,0.41702202,-0.30660370,-0.45130378,0.06352581,-0.15787460,0.17389132,-0.04031170,-0.09975301,-0.07388072,-0.36974168,0.01983323,0.43155724,0.19456115,0.27025312,-0.14734131,-0.16952042,-0.19088642,0.05812904,0.20605573,0.07901110,-0.36932951,0.19931175,-0.00645763,0.32188720,-0.30948433,0.16520278,0.00175399,-0.22126171,-0.09915972,0.09925895,-0.34068111,0.16272949,-0.11270455,0.13859704,-0.14718512,-0.05113519,-0.04510061,0.02079188,0.05802623,-0.09025327,-0.30046773,-0.27199420,0.05292721,0.42996329,-0.05178846,0.09345621,-0.25147465,0.10137880,-0.36959279,0.07385600,0.38628864,-0.27907142,-0.06178507,0.33870709,-0.01484502,0.35530651,0.22628187,0.16538207,-0.24113257,0.06190233,0.40296614,-0.10391346,-0.32060716,-0.04883477,-0.31236711,-0.30540279,-0.19066116,0.13705654,0.01667039,0.27757198,0.15807281,0.47071072,0.08854169,0.04006273,-0.47975799,0.81212264,0.62523437,0.34600672,-0.19685563,-0.19193408,0.30849102,0.13278046,-0.56178576,0.16923967,-0.44069976,0.15382184,-0.26118946,-0.35430494,0.41586936,0.06442351,0.20748048,0.14437628,0.18871728,0.10464169,-0.08654360,0.22370183,0.10040674,0.17435460,-0.21126807,0.09597836,0.13363710,-0.27385819,0.15750913,-0.47402129,-0.26605254,-0.12211838,0.16523719,0.05657622,-0.01374896,-0.19127302,-0.21948552,-0.49661601,-0.19986966,0.11965971,-0.08976954,-0.43018067,-0.04290893,-0.05202831,0.02288509,0.23475893,0.25796375,0.19809747,-0.22497845,-0.06592254,0.40912217,-0.23588490,0.34414503,0.11854955,-0.15022968,0.19692723,-0.48944077,-0.15106356,0.07971427,-0.24519671,0.20062035,-0.07892580,-0.15840517,0.17920968,-0.03058993,0.01659614,-0.20667820,0.02983998,0.26477733,-0.22272147,-0.05863603,0.02428121,-0.43130913,0.14991094,0.48011965,0.04564547,-0.35280880,-0.04107842,-0.52397829,-0.15721288,-0.46992511,0.09825423,-0.07996684,0.12401114,0.01684825,-0.15526754,-0.34654275,-0.50985181,0.07891662,-0.16239786,-0.17517726,-0.00442539,-0.25667849,-0.34166050,0.09859255,-0.08879157,0.04956907,0.12525856,-0.40961492,-0.02925546,0.45809484,0.04871878,0.05256036,4.36044312,0.53671759,0.13977660,-0.28940615,-0.21372733,0.35623655,0.15777926,0.15122837,0.24785087,0.53225309,0.07850321,0.29934379,0.28770131,-0.08316641,-0.41578010,-0.03468160,-0.18691310,-1.21221673,-0.30298185,0.06361184,-0.34946939,0.24265626,-0.16619816,-0.14990629,0.20755996,-0.30107436,0.65636307,-0.06458152,-0.31819880,-0.14665170,0.27631336,0.03885326,0.04917083,0.12540784,0.40863526,0.09359669,-0.21022467,0.04222930,0.06112086,0.01271403,0.16381170,-0.37556368,-0.00365893,0.10591961,-0.13289922,-0.09380550,-0.26099947,0.25758678,0.09747147,0.23921822,-0.33363092,0.23463441,-0.19173555,0.16441871,0.29344103,0.04855691,0.19690807,0.26449981,-0.15413021,-0.41756278,-0.32741049,0.57013917,-0.22169340,-0.13469535,0.05062000,0.19839923,-0.14760485,-0.03411004,-0.18745868,-0.33266243,0.08557796,-0.03430479,0.11636493,0.29220313,-0.01977043,0.35163054,-0.13494462,0.09892776,-0.28670269,-0.12339059,-0.37377378,-0.09231666,-0.04640966,-0.02171370,-0.17915952,0.24855426,-0.26888832,0.63807833,0.26267162,0.10266742,-0.03558370,-0.06646767,-0.04809262,-0.32310906,0.35217986,0.28163704,0.06958739,-0.42629886,-0.06359755,-0.13395934,0.12770465,0.12406782,0.22093351,-0.35952315,0.11663600,-0.17968930,-0.19565888,-0.03515459,0.34867445,0.05112469,-0.13074817,-0.11514936,-0.28948843,0.12522125,-0.33710212,-0.17295022,0.05905516,0.20266387,0.24727313,-0.27224436,0.05462504,0.42786849,0.24209075,-0.42116007,-0.22897951,-0.43296963,0.41115066,0.20935336,0.35536346,0.16036551,0.29834494,0.06868767,0.15183617,0.10537669,-0.22391148,-0.31151563,-0.26026666,0.13506378,0.02720638,-0.31278157,-0.11016459,0.07145758,0.26981214,0.28689876,0.18578562,0.26493266,0.50451553,-0.26394522,-0.03319028,-0.05899142,-0.38116989,-0.08040470,0.23516339,-0.24951862,0.63486952,-0.36056125,-0.06008006,-0.37725642,0.11030764,-0.24856378,0.39687335,-0.09046301,-0.29468486,0.06337346,-0.07138902,0.78887570,0.10351652,0.42504054,0.19729444,-0.61468667,0.29238546,0.14350012,-0.24605414,-0.03368695,0.06015297,-0.04017016,-0.11714140,-0.26014742,-0.00162903,-0.62252933,-0.02186990,0.79959142,0.02175494,0.05602493,-0.04782293,0.33504933,-0.36057392,-0.10692138,-0.00358893,0.10739055,0.06219847,0.66467446,0.27466005,0.03930989,0.04216211,0.09777385,0.19743137,-0.42431068,0.05411146,0.04733649
power,-0.05785585,0.19962303,0.22558448,0.22150597,-0.08452209,-0.23704992,0.05181376,-1.65219140,-0.04586375,0.22878252,0.25256255,-0.12428091,-0.03558144,-0.07168846,-0.05444615,0.04879668,0.30155766,-0.16078800,0.20674977,-0.30230075,0.05756852,-0.05247159,0.31079340,0.28430393,-0.15898269,0.12511562,0.14905849,0.12646383,-0.03570047,0.15497380,-0.08076842,-0.05464312,-0.01556458,0.35033676,0.20113692,0.42235497,-0.09808285,-0.11093958,-0.08960497,-0.16254050,0.05264520,-0.25057909,0.27719420,0.00586938,0.06308454,0.33933097,0.12238027,0.18266098,0.28695676,0.24008873,0.22945870,0.01099266,-0.05966542,-0.35434893,-0.09588125,0.07262515,-0.06263901,0.03072748,-0.30136326,-0.01751363,0.24928914,0.15025893,0.10168967,-0.16648321,0.04252161,-0.32142720,-0.17960064,-0.45026323,0.02817312,-0.05718152,0.21486177,-0.06214951,-0.15096660,0.08742125,-0.14898565,-0.27042109,0.23292501,-0.02044458,-0.00998815,-0.11196182,-0.27446559,-0.23805895,-0.04760075,0.07492296,-0.15395764,0.16586332,-0.16374750,-0.27048767,0.34750021,0.13913067,0.12859677,0.07426170,-2.10682201,-0.08983853,0.07076840,-0.03616166,-0.30725029,-0.01222677,-0.32386243,0.02118338,0.28372315,-0.02436270,0.16782612,-0.01637461,0.01313716,0.02087644,-0.03288201,-0.10123006,-0.09392341,-0.05866929,0.17662142,0.32354975,0.12326212,0.14311236,-0.14526190,-0.08750893,-0.12379307,0.22102754,0.02618588,0.26733628,0.15194939,0.00314118,-0.06580138,0.43393508,-0.04384931,-0.11660042,-0.04224148,0.04747047,0.15516362,0.38479015,0.05492973,0.09486621,-0.35554680,7.79002047,0.09955256,-0.01289504,0.16678296,-0.19927122,-0.12890281,0.16111779,0.01155158,-0.27018651,0.15014304,0.01427922,-0.14477850,0.16558266,0.13871680,0.10208811,-0.18947981,0.14271790,0.00851053,-0.22746329,-0.26502508,0.17021087,-0.15507120,0.15171014,0.20892446,-0.09625000,-0.31003770,-0.08383755,0.00588172,0.20827878,0.10986731,-0.22131132,-0.27811319,0.16402218,-0.25651464,0.09779092,0.04731247,-0.09298500,-0.19041269,0.26489267,-0.06698760,-0.18754661,-0.41689026,0.13493101,-0.60114652,0.04917797,0.20031789,0.11707439,0.29196811,0.43443292,0.09232150,0.04207488,-0.42118040,-0.10067011,0.33942312,-0.00165121,0.14548454,-0.09121940,0.07781711,-0.23812565,0.05520578,0.08243971,-0.17415401,-0.03672734,-0.20711911,0.09335120,0.37697962,-0.08907072,0.22044805,-0.10755166,0.14300577,0.05580030,0.12864269,0.01437157,-0.15397352,0.03628897,-0.17455822,0.16045867,0.35236555,-0.05963693,0.04891463,0.01526161,-0.05778679,-0.22482690,0.10960712,0.18526877,-0.50697404,0.09091549,-0.32431924,-0.36449498,-0.13680825,-0.16387936,-0.03585881,-0.00628771,0.33137596,0.39189106,0.03561553,-0.00008615,0.11861034,0.07416605,0.22423522,0.03312613,0.28203836,0.02429877,0.25404072,0.29449448,-0.02752083,-0.17930464,0.13088177,0.25534391,0.10062090,0.04474827,-0.34862328,0.24658942,-0.04752211,-0.02692719,0.08601269,0.18202159,-0.01854963,-0.00560653,0.39026684,0.30496019,-0.01627808,-0.06828612,0.04449514,-0.09079043,0.07600372,-0.14165272,0.00178517,0.00484013,-0.10864912,-0.05115728,0.26699358,0.19566609,0.09039624,-0.08797059,-0.24813755,0.03151950,0.13657901,-0.12969430,0.20082101,-0.29749703,0.42526972,-0.08317530,0.05375512,0.12110113,-0.01954061,0.15860990,0.31705123,-0.01121152,0.08263078,0.02071840,0.08260230,0.27782470,0.40268946,-0.00050971,-0.26367894,0.04565110,0.01537747,-0.01881712,0.07797456,0.04232402,-0.26969308,-0.18505499,-0.11125509,-0.19258031,0.40118062,-0.13148850,0.23764788,-0.04612884,0.11997350,-0.04371313,-0.21068299,0.20893644,-0.26738444,-0.06961757,0.40028694,0.05975834,-0.09199588,-0.35733140,7.77848864,-0.12435602,0.17565180,0.14384319,-0.18186378,-0.17191584,0.23493785,0.17173879,0.49715713,0.29497665,0.12390007,0.18472654,0.04889510,0.00431940,-0.06363020,-0.11956333,-0.07829574,-3.50848246,-0.07194250,0.05586014,-0.11528843,0.03153636,-0.17475925,-0.10470817,-0.16449651,0.50081027,0.00337150,-0.09969349,-0.03175580,-0.08484030,-0.07895049,0.05869212,-0.00437219,-0.09903301,-0.07597747,0.17791516,-0.08514439,0.03423810,0.01516333,0.07434614,-0.44685695,-0.19714898,-0.04080977,-0.02258222,-0.40500331,-0.10433340,0.08228150,0.16377437,-0.12231075,0.10968070,0.05003140,0.15227115,0.25312293,-0.12782253,-0.01812136,0.28275353,0.16464628,-0.15576792,0.04987747,-0.09118862,-0.00116693,0.33156762,-0.15986635,0.46529502,-0.24110399,0.26265243,-0.04639104,0.05889631,-0.29805312,0.12635142,-0.23452571,0.01358379,-0.03088987,-0.19257198,0.24376521,-0.01226327,0.19237301,0.11569874,0.00366613,-0.14196053,0.17203425,-0.00212185,0.06538320,0.38550171,0.29156059,0.10524593,0.14696150,0.70580328,-0.05327792,-0.10915150,0.12731628,0.20171818,-0.09488248,-0.02561991,-0.11370620,-0.14548865,-0.01120887,-0.06669868,0.10726825,0.04944313,-0.00082368,0.29945165,-0.22517550,0.02069674,0.09097961,0.26749766,0.34846708,-0.12621960,-0.12813285,0.10063540,-0.02253136,0.31919551,-0.03282738,0.11795882,-0.10803619,-0.24612695,-0.01559859,0.10949495,-0.01365528,-0.15492199,-0.32080886,0.14362168,0.10434057,0.23521423,-0.13802940,0.04125124,0.08657880,-0.07752429,-0.12928817,-0.01109902,0.08728053,0.14025506,0.09817751,0.11341269,-0.19381650,-0.38223749,-0.15234670,0.03457338,0.30505794,0.09405832,0.12292645,0.13913125,0.17586471,0.13789017,0.05901125,0.02962313,-0.28832462,-0.15940832,0.33626834,0.12633216,0.19802998,-0.05185375,0.23223098,0.23077747,0.05333722,0.05517544,-0.12080627,-0.10508262,0.17698729,-0.23927975,0.14474612,-0.11398645,0.25407833,-0.16703805,0.15271685,0.36604878,0.01244616,-0.08139109,0.07321530,-0.60498595,0.15856858,0.21827848,-0.14487816,-0.01902190,0.17389312,0.13445953,0.33585367,-0.04101832,-0.12517963,0.13962169,-0.09397212,0.30202106,-0.28414220,0.17685539,0.35828093,-0.12965129,-0.16672210,-0.11398880,-0.23063819,-0.44435254,0.06243636,0.16056299,-0.10790484,-0.10608376,0.09801245,-0.01210096,-0.12905999,-0.54898560,0.00911545,0.15907067
shark,-0.01512961,-0.25468504,0.09918761,-0.24881916,-0.12230658,-0.15912533,0.03470669,-1.23464060,-0.29975024,0.52620232,-0.03608193,-0.19903231,0.04114223,0.02438352,0.26060063,-0.05539083,0.53807288,0.41114599,0.06059993,-0.10070360,0.13404454,0.24137187,0.09914406,0.52454311,-0.12995009,0.15007973,0.15850355,0.19608867,-0.11964073,0.65666765,0.32721555,-0.19228737,0.13925543,0.37262580,0.06568719,0.02563961,-0.10076119,0.16308309,-0.14493458,0.13097155,-0.37357393,0.05345347,0.03002974,0.26443902,-0.07840126,0.23228467,0.19488408,-0.16755898,0.03837723,-0.06291967,-0.05645003,0.17519753,0.06478283,-0.30013967,0.19000354,0.40339109,-0.35220438,0.11387358,-0.30848587,0.24593584,0.33445176,-0.49619505,0.22911921,-0.01286948,0.12000761,0.13954258,-0.15371454,0.08677946,0.43519124,-0.16036445,0.36111733,-0.01857592,-0.27218401,0.30361962,-0.24235784,-0.51899123,-0.02070385,-0.05151284,-0.15215011,-0.42826954,-0.26785091,0.02058914,0.04328861,0.09821363,0.14310949,-0.34275439,-0.04672910,-0.15803207,-0.10699802,-0.26218870,-0.06317777,0.20258909,-1.49861026,0.58147138,0.04866380,-0.10856182,0.15892915,-0.02416330,0.24728216,-0.07699037,0.24107283,-0.11009136,0.03810119,-0.42401493,-0.11118823,0.05762830,0.08757585,-0.14408371,-0.35446846,-0.18668510,0.31204933,-0.32350767,-0.02447507,-0.25877789,0.16267358,-0.01275260,-0.13849449,0.27086174,0.06033149,-0.17468150,0.23488151,-0.64291209,-0.14613055,0.18902658,-0.21563181,-0.06035135,-0.22357661,0.04514976,0.22395863,0.37580895,-0.00756122,0.01594036,0.01005133,5.95718956,-0.27835715,-0.17320633,-0.27514279,-0.13990383,-0.10665073,-0.05065119,0.24327455,-0.02590821,-0.16413690,-0.19414720,-0.14473513,0.01736335,-0.09746950,0.00325600,0.05330378,-0.15843299,0.28788429,-0.13420887,-0.43892208,-0.09088432,-0.17588210,-0.06542815,0.31407902,-0.10948707,-0.12975426,0.14857626,0.25508863,-0.15303327,-0.06004126,0.16585419,0.19304568,-0.25022030,0.06520686,-0.04711722,-0.05088445,0.26467243,0.05121248,0.21113124,0.23088145,-0.05349743,-0.27647150,0.07636335,-0.41526228,0.13397029,-0.37303254,-0.09945023,0.45909885,0.10088469,0.05512308,0.11604054,0.03484442,-0.05256150,0.48990136,-0.41078341,-0.04861065,0.09210174,-0.23473972,-0.25825760,-0.05993398,0.16264494,0.04295501,0.15795605,-0.39197892,0.50686336,-0.06428213,-0.26978779,0.06715079,-0.28972295,0.01093849,0.18172750,-0.11143103,0.40912357,-0.12991780,0.08099750,-0.29411188,-0.00817589,0.71316034,0.70586675,-0.03632601,0.34186912,0.34208870,0.23439190,-0.04733920,-0.25302771,-0.20723419,0.03692438,-0.09659036,-0.33352408,-0.54090631,0.09620132,0.30090249,-0.13320851,0.46701851,0.22212903,-0.31342325,0.11761837,0.24128523,-0.03083357,0.04753311,0.20292075,0.25072390,-0.35104302,-0.03733664,-0.21923980,-0.19479102,0.07047318,0.42783773,0.51920104,0.26482272,-0.01093890,-0.03241545,-0.27736583,-0.03585045,-0.00032357,-0.00636644,-0.00824327,-0.13229567,0.21039496,-0.02867272,0.27890694,-0.13689746,0.45401767,0.08703902,-0.26645306,0.01717466,0.31116423,0.32213548,-0.13651499,-0.40602177,-0.17339784,0.17183220,0.08307815,0.18735619,-0.53833395,-0.10416125,0.03473654,-0.08112561,-0.08326942,0.35629797,0.34773323,0.17896132,-0.10828765,0.07855599,-0.17475536,-0.00384078,0.29716548,0.03757366,0.01868542,0.28088138,0.30498713,-0.31364161,0.04532292,0.37165946,-0.10636425,-0.03666170,-0.07323332,-0.05591384,-0.18120390,-0.04645536,0.21806984,-0.09771702,0.08066808,-0.21517986,0.07776799,-0.16099472,-0.11352666,-0.00596890,-0.14196096,-0.25558129,0.16756001,-0.03755456,-0.06911838,-0.00040008,-0.24294469,-0.15379004,-0.14946720,0.56860870,-0.14471915,5.95030594,0.80561882,-0.16075861,0.03806417,0.23095775,-0.06409824,0.30076191,-0.01212870,0.34367725,0.32626581,0.31225240,0.37673894,0.41212317,0.23204055,-0.12239939,0.05620851,0.19798903,-1.93752933,-0.06761853,-0.13875595,0.28334969,-0.02976244,0.30729571,-0.14457551,-0.16001798,-0.15048438,-0.24782963,-0.00686093,-0.05852218,-0.09620303,0.08331659,0.00196133,-0.05713504,-0.36401299,-0.17384461,0.03504637,0.11246070,0.22964557,0.40534630,-0.11934455,-0.30944270,0.26285344,0.22552706,0.13071120,0.23939991,0.35625362,0.13188006,0.03615697,0.10277912,-0.10864988,-0.01873832,0.30233467,0.32370639,0.02735600,0.38268444,-0.20347223,-0.17164217,-0.21021940,-0.01361312,-0.26527438,0.22777729,0.16869850,-0.06422892,0.03382602,-0.33678970,0.09852837,-0.12477335,0.13147844,-0.33148143,0.04186913,0.00914656,-0.02759311,0.33541572,-0.01961204,0.03545102,0.17879979,0.08158240,-0.04737447,-0.23897387,0.43833458,-0.26725882,0.10228521,0.01581410,-0.18859729,-0.07328264,-0.01183201,-0.06509224,0.83884609,-0.04621454,-0.17726718,-0.07659957,-0.26476246,-0.39741400,-0.10023636,0.41117087,-0.15829802,0.24791285,-0.20307253,0.56693578,-0.33270139,0.10589629,0.07262976,0.02447552,0.31325924,0.16135187,0.13784476,-0.07287737,0.03584084,-0.08959704,-0.33914661,0.31493101,-0.51715124,0.11721573,0.36143669,-0.28934890,-0.07462354,0.14113167,0.14770530,-0.06418175,-0.37570488,-0.11862426,-0.07672246,0.38643277,0.07952232,-0.09724665,0.06100430,-0.41520026,0.09244717,0.02412667,0.06946176,0.17934245,0.32434490,-0.03613532,0.32132760,0.06348068,-0.09033075,0.08081877,0.06881362,-0.27727899,-0.10458375,0.13446057,0.14100021,-0.19479820,0.26919949,0.13089080,0.44072255,0.26011911,-0.02281357,0.23747768,-0.27201405,-0.15127274,-0.11483194,0.20720235,-0.03361635,0.26441187,0.13029736,-0.03096406,-0.10773718,-0.42848644,-0.43772453,0.00017800,-0.55403662,0.06742422,-0.00133697,0.12117499,0.28529006,0.03093542,0.19055395,0.01444940,-0.48348573,-0.11649708,0.15958273,-0.08288150,-0.47680414,0.02183385,-0.09907016,0.13481636,-0.04778881,0.00957620,0.56028128,0.19194934,0.99135703,0.16508201,0.00321374,-0.08235540,0.22486447,0.02042692,-0.15516958,0.13473792,-0.06048179,0.12808038,0.23633103,-0.28424475,-0.01676091,-0.11813151,0.22878921,-0.20685357,-0.19324110,-0.31579173,0.19006962
table,-0.09457438,0.20885842,-0.23600185,0.11640920,-0.04563036,-0.07531846,-0.10878621,-1.29368269,-0.09499104,0.23578434,-0.03587694,-0.03800398,-0.19200459,-0.08549724,-0.05786514,-0.28326648,0.25901759,0.26221153,-0.50924897,-0.18124107,0.22798720,0.14883180,0.30032551,-0.18945321,-0.22608784,0.10764954,-0.07921931,0.16764070,0.07061587,0.12714076,-0.06482245,0.04161258,-0.30781949,-0.18010528,-0.27559230,-0.31896469,-0.01173232,0.13336073,-0.04362839,-0.36359864,0.02031849,-0.02589040,-0.12317652,0.35255229,0.24706307,0.04119813,0.10444678,0.35653734,-0.12080544,0.16400243,-0.26007909,0.02068571,0.17642298,-0.28240940,-0.38543522,0.00114064,-0.24433932,0.29125160,-0.38738874,0.13433616,-0.20547131,0.13561843,0.08803193,-0.00165787,-0.10838375,-0.03412905,-0.08991416,-0.17216675,-0.36359695,0.02460938,-0.00661136,-0.17286269,-0.16486122,-0.00347168,-0.18940090,-0.05929880,0.02493197,0.23757277,-0.17625646,-0.05876350,-0.68537986,0.23680031,-0.05772837,0.39434662,-0.39470446,-0.12225288,-0.02271852,-0.24995509,0.00333995,0.27342522,0.11371022,-0.39583650,-1.65348923,0.52532643,-0.04613749,0.27357104,0.11058947,-0.04749934,0.20388359,0.03326734,0.06856919,0.43360668,0.25525525,-0.14061467,-0.00468178,0.03887450,0.03241830,-0.14472097,-0.66728866,-0.16301203,-0.21681216,0.16746618,0.07250948,0.02337595,-0.22474189,-0.23918903,0.14538290,0.57240218,-0.47662583,0.25720868,0.47060376,-0.41970935,-0.24593633,-0.01398237,0.01392640,-0.04486854,-0.11748847,-0.14991528,-0.02699731,0.45855948,0.02209307,-0.09028325,0.00569494,5.78539133,-0.19598970,0.12185907,-0.21551239,-0.51201373,0.45237619,-0.24015377,0.16601044,0.20194656,-0.01717872,0.52018994,-0.31107372,-0.17454088,-0.15901724,-0.26433730,0.18555917,-0.04803019,-0.05752918,-0.43872505,-0.21339324,-0.11581675,0.22611584,-0.23337281,-0.18514438,-0.23014022,-0.20951867,-0.19212544,0.12130243,-0.21772917,-0.21989688,-0.02964887,-0.24052565,-0.19859537,0.02385791,-0.13044123,0.20325716,-0.08827873,0.01448072,0.07092346,0.34081483,0.35705766,-0.30468020,0.09902942,-0.14864346,0.13816284,0.31228089,-0.35411048,0.14903463,0.02773618,-0.19224194,0.21151240,-0.33456448,0.04291543,0.03055874,0.15433002,0.34886774,-0.12027230,-0.05521853,0.33996338,0.06092724,0.04876317,-0.01255436,0.07292716,-0.13192956,0.19388404,0.12531485,-0.06376687,0.01650691,0.21004879,-0.21845795,0.19211608,0.02023289,0.13725561,0.09868255,-0.21898952,-0.11524668,-0.28407547,0.31160623,0.38600302,-0.17739898,-0.20483553,0.29132697,-0.24363369,0.18060672,0.01727429,0.17002875,-0.10770080,0.20689477,0.13122934,-0.57226354,-0.28217372,0.47778866,-0.23466295,0.10509626,0.26257047,-0.13002473,-0.26494849,0.03731435,-0.06653570,-0.05779396,-0.26465419,0.06643322,-0.28106567,0.34590974,-0.02592788,-0.35129076,-0.03368817,-0.15792477,0.34078771,0.27741113,-0.25446677,-0.25770891,0.37847534,-0.19671293,0.10121507,0.07797936,0.26150978,-0.71669090,0.14373930,-0.38443574,-0.10958508,0.02879634,-0.07150747,-0.00475576,-0.15308501,0.06442858,0.04915997,0.27137443,-0.01317981,-0.27921385,0.14122470,0.16195013,0.12494119,0.00027411,-0.21776435,0.03685336,-0.18281664,-0.07289708,-0.11189311,0.39424539,-0.13195004,-0.00753632,-0.30785838,-0.43657848,0.06153466,-0.13305339,-0.03329767,0.49891675,-0.11907089,0.16171011,0.04926579,0.03589832,0.14420214,0.25627643,-0.18937041,0.29113337,-0.04883868,0.42096704,-0.45444888,0.11593497,0.31675708,0.05638233,0.10045705,-0.49418789,-0.67458379,0.09885122,0.39878908,0.11805560,0.22265819,-0.01439086,0.22116426,0.08104527,0.00565405,0.01057869,0.20574048,-0.30017728,0.15740515,0.06343623,0.42313844,5.77710152,0.05136652,-0.23043360,-0.08247416,0.56444353,0.36989278,0.27573240,0.10663644,0.34926954,0.39819717,0.19066676,0.14791334,0.00775061,-0.00848792,0.02868994,0.13023674,0.25754511,-2.33868670,-0.02779792,0.46561101,-0.01206855,-0.40310648,0.08309074,0.03618450,0.22358249,0.03672509,0.28475299,-0.11551850,-0.13636817,0.20646675,0.21158986,-0.43792033,0.09689789,0.24030350,0.18439020,0.33534715,0.05018193,0.19363526,-0.11864580,0.01323077,-0.06089141,-0.12323226,-0.30503273,-0.12698123,-0.17946222,-0.21767932,-0.32490629,0.14202695,-0.66723961,-0.23630840,0.13778883,0.19769450,0.03550158,-0.36221898,0.13692242,0.43767744,-0.06426981,-0.05350206,0.02840868,-0.06698050,-0.00646690,0.45521057,-0.32816443,0.05969340,-0.07280489,-0.24476101,-0.21578330,-0.28632426,0.12271120,-0.18863249,0.34496665,-0.33553085,0.24562058,-0.38963088,0.10063826,-0.14609721,-0.16653867,0.15614747,-0.11176846,0.31801492,-0.04354189,-0.06127270,-0.10072090,0.26845029,0.02635331,-0.53758746,0.00823372,0.57484239,0.40596208,0.22493379,0.31007671,-0.19688331,-0.44458702,-0.11881011,0.11546138,-0.13796921,-0.07031567,-0.33620024,0.05626762,-0.21047251,0.21210083,0.23666665,0.04953334,-0.09073702,-0.25072020,-0.28980309,0.59760004,-0.00403983,-0.12399501,-0.11914364,-0.06082000,-0.04498213,0.00328272,-0.11325822,-0.27262786,-0.03622392,-0.05731803,0.38522771,0.16864270,-0.03599730,0.15903527,-0.19377960,0.10999651,-0.27892330,-0.06891616,-0.02934769,-0.30641955,0.05667425,-0.31326523,-0.37842843,-0.21463645,0.13503109,0.15048197,-0.25924349,-0.41098559,-0.29344320,0.04835577,0.53503913,-0.02275806,0.08427642,0.12219797,0.06500978,0.10535738,0.26403227,0.52971810,0.04733566,0.12703028,-0.30053598,0.16323206,0.39186433,0.25524297,0.11221280,0.43277928,0.30256718,-0.08337940,-0.18512419,0.06668986,0.14854726,-0.02756869,-0.05678136,0.26914859,-0.12586661,0.34418762,0.00970524,0.11365978,0.37131560,0.13813280,0.33234239,0.26329061,-0.55439264,0.31684148,0.13760670,0.01330853,-0.19482662,-0.09619039,-0.00352512,0.69427872,0.01734343,0.09893922,-0.08658577,0.38424042,0.57062072,0.43338799,-0.42819101,0.49046108,-0.09933533,0.09327107,-0.14552015,-0.38412178,-0.15036975,0.29988056,0.25337225,-0.10145368,0.09766500,-0.01127617,0.13570011,-0.25889242,-0.15401605,0.03357554,-0.11882333
wave,-0.15069658,0.25034443,-0.11994133,0.09081523,-0.00027659,-0.02750425,0.00873770,-1.27166605,0.08893754,0.04783396,0.06660678,-0.02379023,-0.22386365,-0.23443440,0.16998135,0.25617895,-0.11061398,0.07483856,0.24673910,0.13231146,0.05786158,0.02406340,0.15888369,0.04042576,-0.07821337,0.25452819,-0.06382973,0.09197336,-0.07715977,0.19785663,0.11197798,-0.09690378,-0.04595535,-0.12937617,0.22662042,0.26251638,0.01222746,0.04604940,0.01081564,0.22791864,-0.11938636,0.21868855,-0.21403073,-0.22575912,-0.30390486,0.17226151,0.03955153,-0.10674570,0.39920518,0.21349329,-0.16574845,0.12563711,0.27462751,-0.03850998,0.00648810,0.08266274,-0.15130237,0.11846907,0.04716295,-0.05173338,0.28935313,-0.16946024,0.16622902,-0.41747591,0.03831429,-0.20651902,0.27320802,-0.06504040,-0.04346482,0.07782222,0.27617618,0.10632477,-0.05197396,0.45791006,0.11418042,-0.11510175,0.23746106,-0.11782595,0.16401955,-0.35299084,-0.11712274,-0.30907223,0.02984244,0.08705344,0.02515426,-0.47386080,-0.00594797,-0.14130799,-0.56724715,0.18075800,0.09201764,-0.21360344,-1.63533854,0.25824147,-0.11245443,0.00024672,0.04056018,-0.14959979,0.13746673,-0.54784513,0.17530698,-0.09944624,0.04684293,0.05677057,-0.14227292,-0.19666979,0.18159096,0.18949887,-0.40178126,-0.01513278,0.04055068,0.04374285,0.19599801,-0.23479532,0.03105520,-0.11652362,-0.26544839,0.22808020,0.01774460,0.23377386,0.23125251,-0.10334177,0.15539046,0.38598862,0.12520003,0.10224167,0.06923992,-0.00095566,-0.18700585,0.24988720,0.23857649,-0.03182930,-0.10953882,6.61577225,0.09803537,0.33111820,0.17165548,-0.48061696,-0.24234602,-0.00970770,0.00102752,-0.44866136,-0.09941633,0.30708268,-0.25424862,0.02116443,0.02836563,0.12970136,-0.24299902,-0.18837276,0.13089560,0.06796523,-0.04121375,0.21022904,-0.22315258,-0.44234794,0.35359657,-0.10610678,-0.23846003,-0.19031616,-0.14312911,0.13028374,0.08889683,0.06371403,0.05812723,-0.10009575,-0.02077726,0.01309559,0.17758419,0.11122389,-0.50669301,0.10621314,-0.06617589,0.14856362,-0.30976433,0.06430313,-0.44651249,-0.04444806,-0.18015091,0.27969697,0.32915506,0.35836664,0.08516336,-0.18478937,-0.12711768,-0.12947090,0.28282818,-0.04281241,0.32823649,-0.42930236,0.09954339,0.05393134,0.15404601,0.14614277,-0.07847783,0.38902563,-0.11207457,0.27690941,0.34704137,-0.22930159,0.00226265,-0.30867419,0.06508560,-0.28916809,0.01333565,0.03516434,0.08591186,-0.11123214,0.00741258,0.37050337,0.79134607,0.52939713,-0.09587590,-0.01753961,0.36206198,-0.05494002,-0.04815210,-0.15177009,-0.26445895,0.20441173,-0.21575710,-0.42429450,0.27516931,-0.09075633,0.61347282,-0.04940728,-0.00457291,0.14237843,-0.22568280,0.10595541,-0.00122628,0.24978457,0.19354551,-0.08545440,-0.08560763,-0.02975212,-0.00122416,-0.06423790,0.07364297,-0.31171560,-0.24995057,0.06179134,0.21813731,-0.03061962,-0.19594322,-0.15276492,0.25723743,-0.09054487,-0.02017117,0.00461072,-0.01712899,0.07222009,0.40138811,0.46901515,-0.24404761,0.04166663,0.00005274,-0.05805462,0.18635929,0.15583359,-0.04154478,-0.39012042,0.18042181,-0.10873867,0.07824183,-0.12769067,0.15388262,-0.49648523,-0.24898845,-0.09040216,0.18325056,-0.13567066,0.03250880,-0.19770303,0.00324098,-0.34375057,-0.06738632,-0.28002131,0.00643561,0.16208714,0.21075548,0.05940100,0.54239577,-0.19253252,-0.25032341,0.25558648,0.35986912,-0.10673403,-0.39802191,-0.18111752,0.12158950,-0.00380719,0.12313160,0.14170620,-0.07145724,0.47089037,-0.29866201,-0.16453749,-0.02678188,0.03750353,-0.24311572,-0.10127527,-0.02090281,-0.10267622,0.15819991,0.12078696,-0.00791896,-0.13494205,0.34343576,-0.09647145,0.29301229,0.00607088,6.60973644,0.44846877,0.00167896,-0.41619042,0.20083418,0.00116584,-0.02625499,0.06780294,0.19192770,0.48872948,0.00500004,0.25892773,0.25972825,0.05190197,-0.06656893,0.29985833,0.14345497,-2.29958677,0.16921459,0.01144017,0.08717299,0.08929249,-0.25559062,-0.11162366,0.07506401,-0.07337650,-0.38007632,0.18378925,-0.00927629,-0.08631650,-0.01194631,-0.17511503,-0.20462230,-0.25509548,-0.04235961,0.30359745,-0.07888135,0.07600760,0.13844085,-0.21166147,0.05720779,0.03661461,0.31225857,0.08962487,0.09935270,0.26927379,-0.01379513,0.08058719,-0.07829674,-0.11611886,0.10200148,-0.04727415,0.41211590,-0.18740959,0.23165271,0.15333992,0.16722949,0.04936642,0.25973982,0.12561029,-0.09174281,-0.01760488,0.10104305,-0.05832628,-0.42753574,0.00167385,-0.07844293,-0.12232497,-0.36526832,0.11565522,0.05845851,-0.26575309,0.06492770,-0.02607213,0.16223024,-0.13453156,0.18483512,0.16050303,-0.40194243,-0.20930035,-0.38361800,0.01620128,0.38068572,0.13531864,-0.32302156,0.08929884,-0.05407058,0.52876234,-0.14145517,-0.40342492,0.11849421,0.00917517,-0.28321782,-0.12033698,-0.22151837,-0.31169841,-0.14310755,-0.16601811,0.59182084,0.28941062,0.18957435,0.28860068,0.29175809,0.43198287,-0.14796184,0.06953721,-0.22380196,0.35553280,-0.00986355,0.14084144,-0.05458730,-0.35489973,0.21658674,0.17384885,-0.24982074,-0.16261810,0.06656415,-0.22511062,0.21538378,-0.24814855,-0.09672551,0.25172561,0.25399289,0.16966133,-0.17724559,-0.28548890,-0.37221414,0.10716224,-0.40680414,-0.29057306,-0.12799063,0.01028646,0.34343246,0.34945729,-0.20884237,-0.21357735,-0.06243768,0.22529970,-0.02627504,-0.33589789,0.32079768,0.28957975,0.09226279,0.36961555,-0.10205124,0.35736358,-0.08636390,-0.21833028,0.19235909,0.36762664,0.10974063,-0.09124932,0.16601236,0.16016921,0.17207298,-0.19597611,-0.12063538,-0.19686720,0.03204463,-0.20434262,0.01183574,-0.02450598,0.05814946,0.01074008,0.37297374,0.11111894,0.07709929,-0.09292048,-0.10809375,-0.62480921,0.09850483,-0.31060135,-0.17615214,-0.43366885,0.20382394,0.07703738,0.15176447,-0.02552405,-0.03421125,0.21270625,-0.05111426,0.77264482,-0.19937095,0.04171253,-0.05667627,-0.02373394,-0.36931753,-0.23691593,0.10444494,-0.01240876,0.31677717,0.02787238,0.00438728,0.02034300,-0.00127310,0.09860126,-0.37643147,-0.44378215,0.14235759,0.33741757
heel,-0.12636307,-0.07973888,0.09371878,0.16278885,-0.33326560,0.27924430,0.28335664,-0.86577046,-0.28515184,0.47583011,0.36968228,-0.12943158,-0.12407072,-0.04818149,0.26279202,0.49406734,0.34477264,-0.03587168,-0.20609127,-0.30088300,0.18102810,0.18206395,0.19857737,0.23349175,-0.23000127,-0.08284750,0.32862532,0.47987789,-0.12679534,0.15562798,-0.07624026,-0.33153912,-0.00820468,-0.48930544,0.11141561,-0.01079179,0.47499987,0.02981543,0.20382825,0.06035825,-0.19445090,-0.39758509,0.11063542,0.07710745,0.18902841,0.27312499,-0.02550687,-0.15105268,-0.00410395,0.32348317,-0.15973663,-0.15006514,-0.25816748,-0.73154891,-0.47529709,-0.04589198,0.34283209,-0.11105944,-0.30048388,-0.32556766,0.28599089,0.07220651,0.08155885,-0.19127437,0.02403193,0.10697693,-0.01564148,-0.08943816,0.30178824,-0.25879356,-0.18311211,-0.46549860,0.15222119,0.28739262,0.32402328,-0.08088956,0.26090738,0.16801395,0.20252907,-0.09420440,0.00792166,-0.20184445,0.14707410,0.25018513,-0.15495118,0.35515010,-0.01413848,-0.29461902,0.05149375,-0.24925593,-0.03346231,-0.31108797,-1.69656098,0.63572985,0.08006431,-0.16171864,0.26801243,0.19029205,0.09228783,0.07103003,0.00847597,0.10613414,0.13462803,0.27903774,-0.14134182,0.18356791,-0.10860100,-0.24507667,-0.35758400,0.19203752,-0.32275140,-0.01066748,-0.07923052,0.02814174,0.09343905,-0.21513942,-0.03739350,0.27554119,0.05057318,0.02770705,-0.17665130,-0.31518531,-0.21523468,0.13454007,0.11940663,-0.31894416,-0.38122785,-0.15486011,0.13605006,0.49689403,0.26072484,0.27787012,-0.33617610,5.98845768,-0.15343840,-0.18259878,0.14288901,-0.53213960,0.06061184,-0.01508676,-0.02164177,0.09414664,-0.38163114,0.18079616,-0.26302859,0.17161241,-0.22036836,-0.22743574,0.16054383,-0.12254562,0.49007761,0.34717739,0.26202911,0.32374024,0.08701032,-0.28422257,0.02531574,0.13930342,-0.00606538,0.12223035,-0.25837779,0.18891618,0.22575082,0.07811765,-0.05452652,-0.20347305,0.12223876,-0.30171913,0.04266592,0.11561202,-0.07797098,-0.23624927,-0.03305805,0.41056317,-0.62121379,0.25030404,-0.30806366,-0.11837467,0.20886301,-0.13934460,0.06934375,0.30533272,-0.05089714,-0.18096772,-0.15980917,0.33738154,0.29651141,0.12370963,0.12628661,0.00926917,-0.01503057,-0.31773868,0.27192855,0.01148587,-0.24762373,0.04775171,0.07264459,0.10214768,-0.10113705,-0.15605496,0.03435521,0.09988964,0.12081457,-0.13054836,0.06607264,0.15389505,-0.10520884,-0.39619726,-0.15680678,-0.15695377,0.56477153,0.21623686,-0.15889977,0.29340714,0.06358641,0.30580232,0.02087329,-0.38134420,-0.08561666,-0.23113516,0.10058478,-0.15789740,-0.09556465,-0.20248622,-0.04735437,-0.27066416,0.10685507,0.54258823,0.16404161,0.04180410,-0.15502872,0.28836507,0.14935322,-0.24381840,0.24972762,-0.12719873,-0.17698561,0.03571964,0.02536375,-0.07127555,-0.04234070,0.08920638,0.28791088,0.43276599,0.13221580,0.02777600,0.01146195,-0.15427710,-0.42266914,0.07736441,-0.46470892,-0.05315985,0.18502955,0.24209820,-0.16783102,-0.41395503,-0.08450894,0.01856644,0.01018444,0.37789720,0.00978570,-0.26748624,0.00383946,-0.05353889,-0.56691337,-0.01239736,-0.13091785,-0.10250079,0.23163928,0.43516317,-0.43986806,-0.29127046,-0.01103328,0.05887306,0.36966294,-0.17232417,-0.09443513,0.19883622,-0.09145142,0.30112952,0.34231916,-0.15643784,-0.04426236,-0.06228224,-0.19540857,0.16625702,0.26001990,0.06756545,-0.24360575,-0.18227939,0.37054417,-0.16767330,0.11696374,0.35876805,-0.15552928,-0.16950768,-0.34041840,-0.55453146,0.04706767,-0.03406090,0.11653116,-0.02584293,0.36036170,0.45691398,0.08674768,-0.17747574,0.19444777,0.18705153,0.13325752,0.21141453,-0.07419555,0.14197832,5.98390961,0.30863950,-0.04437321,-0.02559595,-0.19963853,0.32809663,0.31082150,0.27926487,0.40271127,0.31790963,0.07035417,-0.01798942,-0.25264922,0.40026271,-0.65567684,0.41381243,-0.02107123,-2.40438938,-0.13646622,0.46263713,-0.23911999,-0.22083950,-0.20367691,-0.40737489,-0.06483879,-0.02352449,0.24655926,0.09808058,-0.06157052,0.37636065,0.14398292,-0.18134719,0.18606974,0.06339537,0.19599192,0.06576151,0.11667541,-0.13216016,0.49667668,-0.22199537,0.04273427,0.21952331,-0.24387027,-0.10553732,-0.26492563,-0.23144010,0.23417440,0.39122775,0.20169716,-0.07678776,0.11928198,0.05009865,0.04964743,-0.36313447,0.37914678,0.09368669,-0.07142499,0.09509988,-0.13386188,0.33120602,0.00205424,0.23707154,-0.47965786,0.10230368,-0.10223543,0.21687672,-0.24201183,0.12921456,-0.29413986,0.07870126,-0.16758801,-0.37340668,0.26320693,0.01437400,-0.23165886,0.03358907,-0.49851072,-0.06600334,-0.18148720,0.06324047,-0.38836852,-0.11068595,-0.15059857,0.25993568,0.26388949,-0.24260655,-0.08374508,0.35475847,0.11391310,0.19560319,0.32889065,-0.28746846,0.09997208,-0.17956464,0.19061074,0.00117716,-0.02379967,-0.19761795,0.19880146,0.16876695,-0.03302159,0.44306684,-0.18273367,0.00388613,-0.26339942,0.28124449,-0.26032424,0.13634647,0.37465250,-0.07492041,0.10382379,-0.23880635,-0.15398210,0.14480965,-0.33305579,-0.22906633,0.10387759,0.79773694,-0.08519875,-0.31394976,-0.05983767,0.06893311,-0.22192399,-0.33754277,-0.07993218,-0.31304359,-0.48753110,0.13978660,0.16892366,0.00739623,-0.13392572,0.12727612,0.21716277,0.29898322,-0.16520436,-0.12672898,0.11136373,0.44752866,-0.19788785,-0.04158339,-0.01307745,0.22041829,-0.00658021,0.11940574,0.36134070,0.22915897,-0.05517874,-0.27678671,0.14552012,0.23793751,0.04674452,-0.04477075,0.28079075,-0.27398473,0.31695661,-0.15970524,-0.18372634,-0.36710292,-0.40802202,-0.00513102,-0.19848283,-0.34931114,0.16049501,0.50575984,0.39708692,0.05113337,-0.15300439,0.07756332,0.25065878,-0.81711477,0.11440743,-0.07531788,-0.12748100,0.01833254,0.05456788,-0.09998325,-0.12051203,-0.05604586,-0.00050069,0.03236706,0.13693844,0.68848920,0.04819795,-0.19701652,0.34976858,-0.05395015,-0.17580096,-0.04526754,-0.38233119,0.10719020,-0.02893996,0.59614998,-0.21274897,-0.46101692,-0.32931116,0.08435744,-0.08356640,-0.30956003,0.31012854,-0.03181449
toucan,0.25471380,0.14540258,0.13400887,0.04019287,0.13992548,-0.07832345,-0.30130044,-0.79474157,-0.46188778,0.49276307,-0.17770083,0.08285117,-0.18010990,0.08115297,0.24015056,0.01905223,0.12085634,0.38151410,-0.23745851,-0.15982786,0.45272136,0.45413265,-0.16198161,0.57887942,-0.20990321,0.27501631,0.16577075,0.63109165,-0.23006612,0.11756220,-0.09591528,0.11622420,-0.11160649,0.48470488,-0.16666357,-0.46643993,-0.18429029,0.15173598,-0.07066043,-0.07033803,0.22088929,0.21043988,0.05683659,-0.03884810,0.43922889,0.17073007,-0.27823132,0.29017174,0.21042824,-0.06592982,-0.23029342,-0.36005655,-0.00727899,-0.02096454,-0.03188739,-0.14522879,-0.03844357,0.24946377,0.24847145,0.27394480,0.34242952,-0.02913075,0.00769384,-0.29908165,0.16019145,-0.11847383,-0.19768332,0.30266523,-0.17919190,0.00685190,-0.43329105,-0.04516948,-0.38745493,0.58212197,0.21643421,0.05041467,0.27207062,-0.21115053,0.02070177,-0.64340782,-0.19044043,0.53020281,-0.85210729,0.31936261,0.01464400,-0.36441615,0.17231891,-0.21387757,0.10572399,-0.33288622,0.10558230,-0.26648515,-1.23455131,0.22939081,0.16956641,-0.33753577,0.24331398,-0.07499142,-0.12604290,0.02434470,-0.13988000,0.23088683,0.10289659,0.05083258,0.09695113,-0.30737033,0.08168318,0.31053755,0.15184362,0.32534078,-0.11676455,0.35171822,-0.04357993,-0.34540427,0.04597251,-0.26279050,0.25755566,-0.15468974,-0.04390379,0.21928568,0.33378282,-0.83577204,-0.41913357,0.04033612,-0.04706428,-0.22240677,0.06106335,0.04519423,0.26869920,0.25296700,-0.37600860,0.23369566,0.24227063,4.01507664,0.15508804,0.08820082,-0.27269906,-0.34947628,0.08718722,0.30171692,-0.32395312,-0.02163933,0.09627454,-0.16062312,-0.36215395,-0.37936789,0.08750121,0.08618106,0.29640836,-0.43231502,0.23576847,0.52203184,-0.00658874,-0.16543739,-0.23649812,-0.01117598,0.36865455,-0.23465210,-0.37273729,-0.05091013,0.41537160,-0.28572303,-0.04971173,-0.10957115,0.13701755,0.10791316,0.31051308,-0.25826454,0.61248404,-0.17362450,-0.02264092,-0.01715778,0.36647615,0.26336882,-0.21295695,0.21542323,-0.14042887,-0.17762196,0.01182183,0.01533735,0.37178910,0.05413939,0.12171738,-0.04606327,-0.07775366,-0.13558906,0.23960875,0.05052676,0.23921457,-0.20115329,-0.01598329,-0.12220307,-0.04273120,-0.13179567,0.09487008,0.10258550,-0.56384057,0.05518366,0.16954418,-0.35673708,-0.18498461,-0.03830903,0.34782612,0.17587009,0.24458297,0.40206018,0.56151742,-0.00954329,-0.64481205,0.13002124,0.15336597,0.21741199,0.06355301,-0.18316613,-0.06832534,-0.08689085,-0.33035377,-0.47571462,0.04158619,-0.24048088,0.06946937,-0.01215110,-0.22410138,0.57234120,0.31657779,-0.06734764,-0.24620950,0.11036726,0.05468691,-0.04386519,0.33686116,-0.01185055,0.60058933,-0.24143708,-0.02499177,-0.11532293,0.57416451,0.16703884,-0.14782161,-0.22092079,0.31877208,0.09786352,0.00014566,-0.13778043,0.10044277,-0.34561685,-0.36845076,-0.03870272,-0.08115826,-0.04552818,-0.44496745,0.05910401,0.35021636,0.22806133,0.00000814,-0.10609186,-0.11557242,-0.01202506,-0.04567997,-0.07490984,-0.00448526,0.34689814,-0.03556763,-0.10012464,0.22203907,-0.03155291,0.08642580,-0.10684216,0.18987300,0.07455160,-0.00831574,0.10332603,-0.29828283,0.03661183,-0.14377475,0.27176732,0.01057849,-0.03669215,-0.15131016,0.00958735,0.14453091,-0.02595790,0.04539966,0.51687503,-0.30586207,-0.19950908,0.26276675,0.02038433,-0.01961947,-0.15557361,0.03890697,0.48264113,-0.23392223,0.22451553,0.03163540,-0.06558693,-0.24432003,0.06282927,0.23573768,-0.50450408,-0.37404746,0.14187127,-0.00404551,0.09044862,-0.09960859,0.00167021,-0.23487362,0.00658593,-0.26604083,0.18645538,0.00133800,0.24469274,4.01028585,0.50719547,0.04327327,0.22972111,0.27630872,-0.04283521,0.50879091,0.16357020,0.42631155,0.28341359,0.18524343,0.37585834,0.04795596,0.25690663,-0.10086257,-0.32479599,-0.05784909,-1.48011363,0.02851659,0.16730231,-0.19970149,0.12626582,-0.01009011,0.41985470,0.24356177,0.04562764,0.00938095,-0.02102979,0.19196154,0.08303210,-0.29634023,-0.17353046,0.26415676,-0.17777139,-0.00115940,-0.06068449,0.15655422,0.50773382,0.28004649,0.52024096,0.16011384,0.08641492,-0.18922935,0.03540137,-0.38412949,0.31462747,0.17835458,0.33342102,0.28949335,-0.00785116,-0.22093898,0.34506139,0.06054385,-0.11277881,-0.42065746,-0.04141097,-0.08213025,0.18713622,-0.23043500,-0.44831416,0.19263217,0.51286024,-0.54792976,0.34526178,-0.02123630,-0.02780594,-0.22532898,0.18478855,-0.12238877,-0.24565843,-0.29038197,-0.40580034,-0.41978949,0.11209997,0.04290069,0.28832650,0.04953286,-0.14938413,-0.50967097,0.07744741,-0.01136248,0.31723133,-0.16518947,-0.12003846,0.06193389,0.05404416,-0.17713574,0.30771354,0.03229183,0.03571149,0.00448032,-0.23271793,0.06735476,-0.26260537,0.63314116,-0.01925933,0.30611655,-0.27281633,0.09976419,0.03995463,0.02899105,0.11571862,0.04268759,0.26697239,-0.17818896,-0.40299740,-0.10261852,0.08350069,0.09757752,0.05411679,0.00142260,-0.35942081,-0.20183782,0.61096156,-0.22562458,-0.13274689,0.15873010,-0.14708331,0.56338751,-0.21988122,0.02348910,0.08835663,0.23657560,-0.38878050,-0.25742781,-0.09491447,-0.46565369,0.08337767,0.38123131,0.11847921,0.07123221,-0.25576535,0.12735280,0.46876124,-0.06498379,0.25593680,0.09893735,-0.01789381,0.17295969,-0.45396307,-0.01467137,0.06399868,-0.09542368,0.32632670,0.18963067,0.20847413,0.49250305,-0.25666928,0.36639234,-0.08237611,-0.19995087,0.68077725,-0.29069263,-0.26306760,0.30546188,0.01489926,-0.19218090,-0.59968233,0.07117509,-0.05515649,0.40005651,-0.23315842,-0.17501535,-0.14337325,-0.18500863,0.20686249,0.14401624,0.79016733,-0.28948286,-0.29523849,-0.15583029,0.24445613,-0.23737067,-0.19913207,-0.26846611,0.01522619,-0.45895919,-0.53020895,0.27867240,-0.13096735,-0.04773825,0.60023385,-0.17623319,0.33260271,0.45007291,0.36018658,-0.35058928,0.04377759,0.48196852,-0.12929504,0.16717759,0.38425043,0.12813641,-0.05339214,-0.31818345,0.10255646,0.27290124,0.18329699,-0.14156590,-0.19641888
spine,-0.17961793,-0.07593642,-0.38856214,-0.00197062,-0.40304333,0.03136178,-0.16505371,-1.45321178,-0.07834554,0.19816954,0.07409309,0.21534093,-0.05028366,-0.06273028,-0.17289652,-0.49547231,0.08221063,0.10879955,-0.29383418,-0.07400475,0.10377577,0.04908968,0.28178373,-0.00107752,-0.04725065,0.35172760,-0.08222620,0.02707653,0.09617469,0.40648159,-0.12873451,0.06041259,0.18541214,0.14579298,0.00144257,0.33493185,0.06701712,-0.11336545,-0.00474426,-0.17529553,-0.28493348,-0.25394595,-0.21645828,-0.02005745,0.10584900,0.16011487,-0.10305113,0.09896377,0.05504791,-0.02161231,-0.11439124,-0.32379442,0.13795300,0.17139868,0.02699885,0.06113447,-0.08751778,-0.13641317,-0.29709089,0.14097205,0.28822556,-0.08814399,-0.28644741,0.16067119,-0.01313335,-0.09279977,-0.31926647,-0.29604101,0.06004528,0.21810657,0.01342861,-0.33169255,0.24889520,0.15241314,0.33881250,-0.23954964,0.24089964,-0.27459311,-0.09824660,0.02515209,0.18089728,0.19643769,0.03559926,0.34675908,-0.39832962,0.28675720,0.10921339,0.19048326,0.17547342,-0.03393584,-0.02554702,0.11037529,-1.72089720,0.54363310,-0.16432054,0.51979113,0.38756350,-0.02002721,-0.05730073,-0.18515643,0.33394837,-0.03062414,0.05885005,0.06006200,0.16079369,0.06677568,-0.08816531,0.04704143,-0.21454619,0.04684663,0.36735067,0.16300963,0.14525662,-0.31122386,-0.16119935,-0.36045691,0.21550801,0.16302653,-0.29234681,0.14014743,-0.13394456,-0.18073203,-0.14942832,0.22700462,0.38404641,0.00763578,0.01848856,-0.02507200,-0.08150361,0.29727185,-0.26638016,0.45869222,0.06986843,5.90069103,-0.02342963,0.08529911,-0.07402191,-0.58639264,-0.03402021,-0.47516629,0.15284218,0.03494669,-0.49541536,0.17245153,-0.02221236,-0.16147386,-0.06670780,-0.21325283,0.05691415,-0.12001763,-0.05069417,-0.57733613,0.01116075,-0.02497308,0.18515396,-0.41589248,0.16997120,-0.07869357,0.17396480,0.30138302,-0.12908264,0.46753892,-0.27100679,-0.17239368,-0.02982592,-0.08026227,-0.24610175,-0.01724776,-0.11484710,0.23609193,0.53799695,0.20053585,0.13432816,0.04503169,-0.47065714,0.13573880,-0.14741667,0.07393058,-0.16319726,-0.14812236,0.01945549,-0.15986513,0.08323330,-0.31946880,-0.19019529,-0.50087124,0.24056277,-0.22271067,0.06630264,-0.20821075,0.14958957,-0.31352970,-0.40717205,0.01197239,-0.06639101,0.20503624,-0.70444828,-0.01317156,0.15657938,-0.32072383,0.00241588,-0.12054155,-0.27582434,0.37504122,-0.01258313,-0.04886412,0.21453917,-0.15452132,-0.15886554,0.05492134,0.35408175,0.50738788,-0.30109999,-0.15934615,0.09891227,0.20974955,-0.23108193,0.01629938,-0.31438899,-0.20955738,-0.31603032,-0.13621143,-0.18255132,-0.16861661,-0.14547598,0.06343862,0.15827933,-0.06027821,-0.11861648,-0.23764358,0.08664075,-0.08575215,-0.05420132,-0.35096955,0.15947995,-0.00332337,0.04279286,0.05184925,-0.14183511,0.19848840,0.04658066,0.49704745,-0.06886584,0.10955299,0.10909439,-0.05596935,0.14825222,-0.05550658,-0.36057258,0.10150459,-0.12844019,0.42317435,0.24495113,0.27481097,-0.13941698,0.24425831,-0.26684451,-0.06980526,-0.06062720,0.17109163,0.09238108,0.18631652,0.18696763,-0.21412644,0.26952970,-0.25634059,0.36075771,-0.26518807,-0.15910529,-0.10774004,0.18626566,-0.17403966,-0.21386793,-0.24221998,0.09775484,-0.16834292,-0.23468567,-0.24149323,0.03777996,0.07766781,0.18633015,-0.18441004,0.00546024,0.20792954,-0.03311121,0.21551116,0.21841666,-0.08225823,0.23223048,-0.41183299,0.22391151,-0.13538861,0.24749644,0.34917358,-0.45397419,-0.27009529,-0.17835200,-0.22151639,-0.02777972,-0.00916426,0.19499126,0.26461422,0.16547871,0.01567510,0.01151652,-0.01561786,-0.31598976,-0.29005539,0.09284064,0.14134000,-0.11803110,0.30388886,5.88671684,0.51875573,0.10585269,0.28159994,0.08201738,0.21062937,-0.04520656,-0.12613904,0.33629665,0.48777863,0.10486266,0.06060584,-0.12117828,-0.05362041,0.04203662,0.38424310,0.25857788,-2.72903371,-0.01450373,0.04149685,0.26240486,-0.03970548,-0.04219282,-0.27484602,0.00558757,-0.10342474,-0.07768021,0.13853820,-0.22734581,-0.08164059,-0.24262026,0.29778650,-0.03497051,0.14203301,0.07456196,0.18679622,-0.46747550,-0.02568904,0.20971885,-0.09810978,0.36571997,-0.25026238,0.12796156,-0.05200936,0.02340372,-0.15589470,-0.25440741,0.20915608,-0.09330473,0.01622453,-0.07074209,-0.00722940,0.10467625,-0.65895116,0.00756673,-0.07785638,-0.02978371,-0.15381905,-0.12221799,-0.03078059,0.15583175,0.16118030,0.00873882,0.01703112,-0.24580999,0.08733243,-0.01476032,-0.02205586,-0.01809563,0.07482086,-0.08574783,-0.16768430,0.33632812,-0.19666594,-0.21037537,0.20668714,0.22156921,0.11332159,-0.15557969,0.04961886,0.32115591,-0.21638142,-0.20387858,0.57923132,0.24275498,-0.13355534,-0.25956517,0.62663877,-0.03242398,-0.00475557,0.13001098,0.09858786,0.12003537,-0.33636275,0.19172733,-0.40905574,0.01047880,-0.10669941,0.46957785,0.07729618,0.12689771,0.51815653,-0.31488040,0.31408283,-0.15053949,-0.03841153,0.25326386,-0.10371069,-0.14809531,-0.07530712,-0.56098378,0.10673418,0.02737603,0.18067829,-0.31502312,-0.36078772,0.13562612,-0.08471999,0.24284750,-0.36802515,-0.03858314,0.30781248,0.43957162,0.11536970,-0.03078628,0.25291741,-0.71201044,0.13956833,-0.33545026,-0.40075138,-0.17332545,-0.24830610,0.34031963,0.40819806,0.21193728,-0.31011465,-0.25733498,0.10076012,0.09226451,0.32556164,0.33503357,0.23148850,0.59623003,0.25809902,0.08465601,0.01510529,-0.02235634,0.03132333,0.08562263,0.22129501,-0.00609229,-0.02281579,0.31902555,-0.46304190,-0.10232018,-0.00597465,0.23997824,-0.16953965,-0.03229738,-0.01899310,0.11253303,-0.08666308,-0.19052364,0.16730578,0.13638467,0.13050722,0.39884794,-0.04478027,0.23940378,-0.58854622,0.44831854,0.02309168,0.21066625,-0.30646965,0.01881954,0.17934345,0.26322690,-0.28646338,-0.02052166,0.24051699,0.03659509,0.43529516,-0.09532580,-0.05856361,0.14066654,0.61213595,-0.19264688,-0.20504001,-0.06263309,-0.14160740,0.33108810,0.10407467,0.12474366,-0.10245909,0.11934625,-0.02107805,-0.07727408,-0.32388064,-0.24463423,0.12024381
key,0.29443458,-0.00047375,-0.28949982,-0.00223725,-0.11754555,-0.21861167,-0.77884269,-1.38403583,-0.27079147,0.05244730,-0.31818706,-0.06610519,-0.26734552,0.03867757,0.31536022,-0.12392316,0.22503637,-0.08446624,-0.05222340,-0.33369857,0.32779148,0.08925775,0.38511726,0.00202882,-0.24131279,-0.01528749,-0.03129476,0.06395915,0.18338101,0.02614413,0.10358163,-0.08178301,-0.47572589,0.31915700,-0.10583189,0.21519266,0.06820291,0.40168461,0.20127361,-0.12298200,0.00007141,-0.29338369,0.06476733,-0.37625924,-0.02371721,0.26323470,-0.29099530,0.11274160,0.28158358,0.48386666,-0.22041115,0.11801527,0.09154882,-0.13580070,-0.09983891,0.21558793,-0.00579951,-0.12913497,0.05761201,-0.32910874,0.52442694,-0.38413149,0.35243014,0.01759488,-0.05459752,-0.30056426,-0.12527020,-0.36038682,-0.19774696,-0.29059029,-0.40108535,-0.17488162,-0.24349147,0.23466268,0.13794212,-0.52796304,0.07942250,0.08311667,0.05636459,0.01039089,-0.28550881,-0.52723634,0.22347285,0.27174222,-0.04999994,-0.01667349,-0.00102261,-0.04824940,0.46055138,0.08942410,0.21028458,-0.05384358,-1.73079121,0.29300603,0.18505494,-0.03453368,0.28453055,0.12027424,0.24941579,-0.10092600,0.28672221,0.51005077,0.39299271,-0.09632151,0.18773662,0.01266443,0.06086074,0.00250355,0.14463118,-0.09147642,0.31839603,0.43168381,0.10356577,0.53034294,0.22370298,-0.25938407,0.36089551,0.08867376,-0.17246141,0.21000728,-0.28708264,-0.05077270,-0.20657468,0.20237672,0.04845886,-0.07623715,0.32113078,0.00236100,0.41138095,0.49767339,-0.03103398,-0.23563203,-0.22109394,6.36975908,-0.01324311,-0.14088622,-0.36882120,-0.09860992,0.13981795,-0.06097510,0.52473420,0.16095142,-0.42302188,0.17688300,-0.11903682,0.11522839,0.25778601,0.14132205,-0.31857875,-0.09996973,0.23436296,0.19772896,-0.02482999,-0.15801586,-0.01949015,-0.06223232,0.06851017,0.00365797,-0.18425797,0.20658541,-0.33928540,-0.02850875,-0.08947641,0.28255266,-0.05307136,0.21867895,0.06998733,0.18986915,0.29436648,0.49381256,0.23140205,-0.19716839,-0.31323975,-0.09646098,-0.52651554,-0.22152460,0.01281629,0.23459017,0.17323671,-0.06212596,0.12741764,0.57799476,0.01406090,-0.07588439,-0.34450838,-0.06623203,0.40421602,-0.09772437,0.28232244,0.01852522,-0.01906514,-0.20881116,-0.16846786,-0.10825962,-0.15874541,-0.00950333,-0.01909547,0.35806951,-0.08318956,-0.37467757,0.24039096,0.27380371,0.14730255,-0.18916172,0.04630167,-0.23932759,-0.12846781,-0.30479053,0.23034216,0.26021275,0.12137912,-0.01753248,0.29748932,0.33970898,-0.02163943,0.24338347,0.25896257,-0.03251379,-0.22457862,-0.10580716,0.24707435,-0.26152858,-0.14724182,0.17284644,-0.04525427,0.13193916,-0.12237436,-0.10348620,0.13384183,-0.22409387,0.38676357,0.20507154,-0.06471454,-0.09561212,-0.00944023,0.29727992,0.02664702,0.32741484,-0.27170348,0.09429940,0.16548581,-0.24524795,0.27099016,0.02375893,0.08337399,0.03900009,-0.04582424,0.01805717,0.14597675,-0.01258751,-0.03215762,0.26837373,0.19167627,0.40679222,0.02432444,-0.13033174,0.30093238,-0.36448106,0.03833875,0.30917513,0.26476008,-0.27928796,0.12095493,0.02596607,-0.03343208,0.10404498,-0.09556952,-0.35017043,0.09890755,0.03096993,0.22827165,0.05318596,0.04576063,-0.08977414,-0.03197997,-0.61924231,-0.08745244,-0.08297221,0.05348853,0.03343548,0.43135667,-0.04802131,0.00814562,0.31351852,-0.16166908,0.10656190,0.28580582,-0.07263963,0.45722371,-0.23547865,0.09830737,-0.17889683,0.37429830,0.16402373,-0.37054783,0.03648031,-0.15942007,-0.47382590,0.19869111,-0.14063971,0.23290838,-0.10858641,-0.14197685,-0.06887773,-0.17923939,-0.18114267,-0.39245570,-0.22272627,0.09694484,0.27883524,0.06244163,0.47094613,6.36012506,0.03695144,-0.32974890,0.17984743,0.08172144,0.02402434,-0.09909088,0.15852089,0.17521013,0.57202917,-0.17395537,0.15607825,-0.16536567,-0.17252959,-0.02629211,0.18632527,-0.25627467,-2.52303839,0.23331758,0.25096470,-0.12972020,0.36649966,0.15666662,-0.26910889,-0.05212071,-0.03131132,-0.05423425,-0.13674553,0.31556204,0.18264724,0.06094195,-0.13938005,0.14810535,-0.35724473,0.18967727,0.05558831,0.21091916,-0.09831709,0.01423832,0.10929088,-0.26278064,0.03438041,0.08778235,0.31259170,0.10437655,0.06486017,0.02931031,0.08225208,-0.11522198,0.01235877,0.21829017,0.31190023,-0.00550544,-0.50291222,0.33099729,0.25625807,-0.24775025,0.23349909,0.07129709,0.01026607,0.06686568,0.24784100,0.02483675,0.11783485,-0.22062896,0.05760242,-0.30433849,0.12331606,-0.10476568,-0.11662042,-0.24433234,-0.16309199,-0.11346387,0.03321633,0.28073919,0.25102386,-0.16436023,0.17256981,-0.15902616,-0.28242341,-0.15354523,-0.02979282,0.31397030,0.26807380,0.05711092,0.26866615,0.00832868,0.76659048,0.15569726,0.24427468,-0.11744922,0.01746714,0.14191401,-0.24558404,0.75143850,-0.09146239,0.37262940,-0.08736424,0.15360123,-0.25414228,-0.08168661,0.17594254,0.04793360,0.10838491,-0.09750462,-0.24167189,-0.19669269,0.17970605,0.03679061,0.33407494,0.32084781,-0.19120359,-0.21206392,-0.02905325,0.04628740,-0.63129145,-0.07112376,0.10393460,-0.09697498,-0.24074392,0.16373907,-0.11905492,0.00612764,-0.30935207,-0.61714858,0.26946786,0.30499786,0.04655754,-0.15719615,-0.37521797,-0.06677295,-0.11736331,-0.19304205,-0.12196426,0.05295297,0.00847411,-0.11390999,-0.02382308,-0.13807820,0.09554175,-0.24726738,0.31985447,-0.02708341,0.49244058,0.33459640,-0.37961218,-0.00276801,-0.35424444,0.30143547,-0.07538296,0.37630779,-0.15195048,0.11868709,0.19440065,-0.12991729,-0.06959934,0.10920533,-0.05047562,-0.12695412,-0.31582043,-0.17653684,-0.33010063,0.18508486,0.21262427,0.02708094,0.55858284,-0.23775801,-0.05609852,0.17552035,-0.55430090,0.06895062,-0.04435035,0.30525425,-0.02634291,-0.06974675,-0.15520576,0.10421930,-0.19366014,-0.17443638,0.45962811,-0.22517642,0.07592913,-0.18726423,-0.16500255,0.24510443,-0.14136443,-0.17298727,0.35830721,-0.04672628,-0.04299009,0.29425991,-0.43489620,-0.18823975,0.25521472,0.02227639,-0.27377641,-0.27611330,0.06417138,-0.37805653,0.01134337
fox,-0.16093796,0.11448661,0.11343499,0.02403485,-0.44080484,0.44723693,-0.30460638,-0.20119911,-0.31962138,0.21123716,-0.33076221,-0.33810970,-0.16746274,-0.32465494,0.29326153,0.45538816,0.44240987,0.12316283,0.02880867,-0.16112646,0.53211087,-0.14810728,0.38360199,0.27514613,-0.10099800,0.14980909,0.24789524,0.38442808,-0.03345993,0.06041849,-0.21165904,-0.34325573,0.22534950,-0.08256750,-0.12230168,-0.08530176,0.01294284,0.53627753,0.00731802,0.17515834,-0.48969895,0.17767774,0.07583300,-0.12371428,0.30797085,0.11094087,0.15277232,-0.10553683,-0.12104324,0.30056340,0.35479045,-0.22086790,-0.33737898,-0.10402045,-0.07075151,-0.47818747,0.03131671,-0.10602347,0.19484732,0.09860324,0.21733207,-0.30208951,0.27313241,0.12065037,-0.00493318,-0.21548286,-0.23937584,-0.12634067,-0.18069467,-0.30692121,0.08813980,0.01145319,-0.21380715,0.44159481,-0.27028179,-0.25982463,-0.18969265,0.14311345,-0.16114306,-0.22442487,0.08794761,0.21096309,0.02211535,0.48329499,-0.13446152,-0.21632728,0.05361848,0.24545969,0.44985896,0.05921436,-0.13574865,-0.15032177,-1.20619965,0.75930202,0.05561773,0.33812365,0.32021034,0.17838030,-0.10008302,0.01710293,0.30625096,0.23064438,0.15681650,0.21281728,0.00046061,0.06203852,-0.12109218,0.11184093,0.41568324,0.43489546,-0.14415608,-0.09566803,-0.26636162,-0.25797346,0.22285534,-0.18970004,-0.15210037,0.34661174,0.06750824,-0.19495352,0.32907963,-0.71835202,0.09201130,-0.14725220,-0.20331387,-0.42066735,-0.27508461,-0.47424027,0.23772445,0.70213288,0.17084862,-0.11908595,0.04381843,5.27090740,-0.38787651,-0.46093026,-0.19234304,-0.28340632,-0.33720925,-0.20008589,0.06912116,-0.09257071,-0.35477728,-0.27955508,-0.51245421,-0.08500351,-0.00321099,-0.17757799,-0.34452468,0.03048667,0.07730827,-0.20753220,-0.03835749,0.21281803,-0.01826711,-0.28954193,0.53860641,-0.38644215,0.13127288,0.07329277,0.07044902,0.33508307,0.22201684,-0.10204072,0.23949644,-0.05356091,0.36794379,-0.00253299,-0.09575349,-0.07928950,-0.26763049,-0.31426468,-0.08572974,0.01328401,-0.38378930,-0.01233075,-0.29739773,0.07899909,0.20550449,-0.01142148,0.16044238,0.25847122,-0.08836601,-0.13435920,-0.19891359,0.24176440,0.16663329,-0.12529133,-0.00242717,-0.19153847,-0.14676002,-0.21495253,0.02660337,-0.41736454,-0.23198906,0.00365048,-0.04723984,-0.07772313,-0.08323921,-0.10135962,-0.01531062,-0.27610481,0.27518156,-0.02709914,0.08422567,0.23892874,-0.06056660,-0.42275041,0.08758428,-0.27976841,0.54160321,0.56794071,-0.08881587,-0.32158697,0.10943631,0.18251194,0.35137916,-0.17154445,0.42139089,0.01623444,0.03677001,-0.19622116,-0.28382120,-0.10672712,0.19018923,-0.09567855,0.34885100,0.54750711,-0.17829415,-0.03849660,0.24440727,-0.02527614,0.60273522,0.21730196,0.34757268,0.23853888,0.44566852,-0.10959703,-0.49176168,-0.27515021,0.19728988,0.35149881,0.07408153,-0.04248169,-0.07355425,-0.18311080,-0.78726703,-0.17296591,-0.11770846,0.03557981,-0.37258652,-0.08137095,0.08154644,0.39106277,0.03184025,0.22839013,-0.36364663,-0.23424378,-0.12447983,0.15586203,0.21892539,0.05634216,-0.03579642,-0.19475606,-0.19568127,-0.08414953,-0.02915994,-0.33113307,-0.22266398,0.13238536,-0.21336715,0.12527995,0.03491066,0.02229974,0.03646262,-0.26330492,0.09290329,0.38910812,-0.05140308,0.50102443,-0.10565672,-0.06341440,0.31597757,0.38367602,-0.16741739,0.33378628,0.07013024,0.19434451,0.06913624,0.21258333,-0.41281077,-0.04386117,-0.09329017,-0.06995922,-0.16420361,-0.18333472,-0.71902722,0.23305553,-0.08313043,-0.29708016,-0.08135675,-0.02646956,-0.10333307,0.04050590,0.14940597,-0.43387949,0.10656483,-0.15569456,-0.10897549,0.29525509,0.46803781,0.01981185,5.26804304,0.29862839,0.15793002,0.16393200,-0.05899786,0.38748279,0.43766129,0.07930043,0.22570069,0.50693464,0.14312047,0.09394678,0.34875128,-0.15508880,-0.01808640,-0.36367947,0.32098988,-1.40794098,0.24577789,-0.06436863,0.35993168,0.27845606,0.36791113,-0.21141015,0.58919257,-0.24156305,-0.05827971,-0.36304885,-0.25753790,0.29523653,-0.02292037,-0.16864879,0.18882762,-0.12272453,-0.31475168,0.34863785,-0.07314884,0.07634319,0.01048659,-0.21203473,0.09763859,0.24283260,0.28240785,0.20273781,-0.06906949,-0.12804127,-0.13638824,0.07869059,0.33569276,-0.42183259,-0.10046779,0.65372747,0.05791635,-0.32873222,-0.09274298,0.14100230,0.17715503,-0.07537657,-0.17320728,-0.23514429,0.03198825,0.22134605,-0.42095783,-0.29986846,-0.15296440,-0.34714115,-0.39598206,0.17575201,-0.51986337,-0.09852809,-0.34209847,-0.21500514,-0.33672196,-0.15929280,-0.35533613,0.31917426,0.15824546,-0.06510461,-0.55272555,0.07165794,-0.13217154,-0.15892737,0.06185222,0.06839789,-0.17788917,-0.12457845,-0.16659908,0.62739414,0.15052605,0.25548026,0.10351314,0.10641539,-0.22578697,0.16886200,-0.11793447,-0.13341781,0.46246138,-0.31781653,0.25976121,0.20309407,-0.01652104,-0.00005971,0.07360853,-0.01974436,-0.13132608,-0.44211966,-0.01378966,-0.29478395,-0.15990900,-0.15689619,-0.07400453,-0.22423986,0.04326491,0.20402777,-0.22390309,-0.07058427,0.05020837,0.26576307,0.08141007,0.26566318,-0.14619428,-0.10249268,-0.02063015,-0.15380640,0.15131831,-0.14417419,-0.21944490,0.29285726,0.08471838,0.00436468,0.43670452,-0.06937378,-0.14074314,0.25628582,-0.11672627,-0.06005479,0.26881292,-0.31430122,0.16030008,-0.38654035,-0.01511396,0.10731356,0.21336985,0.14384389,0.11037781,0.25299761,0.30627078,-0.07956465,0.46431497,-0.05445401,0.22850311,-0.00431718,0.37745085,0.35579467,-0.19113353,-0.45381865,-0.06332071,-0.30761361,0.09181147,-0.27242458,0.34069955,-0.19116230,-0.28205386,0.22163500,-0.26029807,0.60561121,-0.00914814,0.47573054,0.20558392,-0.74053729,0.04048225,0.17846388,-0.48666781,-0.08425410,-0.00587036,-0.29601088,-0.03331730,-0.05429528,0.20618720,-0.10975168,0.35283053,0.94402164,0.18106572,0.02212549,0.49339601,0.30926085,-0.27943686,0.08500145,0.38083822,0.14018376,0.41906109,0.10866899,-0.04191334,0.08738739,-0.27226809,-0.24952331,0.20605586,-0.57186317,-0.51505196,0.25529861
curiosity,0.19670038,-0.26123556,0.17446916,0.07421283,-0.12113300,0.00659438,0.13517144,-1.36705494,-0.11290213,-0.05674544,0.21529822,-0.19183797,-0.05150531,-0.16182764,0.48027742,-0.24276929,-0.23784074,-0.15487009,-0.29262224,0.09004142,0.49851158,-0.06186940,-0.07225842,-0.18270047,-0.15387489,0.32707602,-0.15298352,0.07250529,-0.14919965,-0.13236864,0.34394798,-0.21241583,0.26057887,0.20290107,-0.29188809,0.12072060,0.04498506,-0.25578213,0.03802171,-0.24186754,0.47071034,-0.04189948,-0.06003447,-0.16826037,-0.02287505,0.11445002,-0.01195733,-0.29472470,0.25818589,0.03603438,0.08095653,-0.33060780,-0.06796090,-0.23767358,0.30329856,-0.03088263,-0.24360496,-0.00247285,0.05788761,0.11023390,0.35563460,-0.17140330,0.07729285,-0.06764802,0.04815150,-0.34357512,-0.08440474,0.19133817,-0.04352292,0.18158016,0.03700276,-0.39944449,0.24743813,-0.25978795,-0.16820890,-0.54990304,-0.24952003,-0.09514397,-0.28874001,-0.49519858,-0.18122545,0.14908262,-0.38289860,0.37270632,0.03980630,0.01130820,0.01403571,-0.40901414,0.13236433,0.08146550,0.30482638,0.09137078,-1.68381619,0.36249891,0.19020364,0.49912208,0.17926623,-0.11743391,-0.26687732,-0.08400408,0.31814507,0.33201525,0.22060792,0.07834938,-0.41745430,-0.05637960,0.00843427,0.02043840,-0.09143481,-0.01994553,0.36214721,0.07054425,-0.17674665,-0.18421955,-0.18013363,-0.18135628,-0.03456917,0.06723726,0.00876275,0.29878703,0.21005712,-0.42858768,0.07126983,0.24367701,-0.05257054,-0.19875835,0.29888809,-0.11205178,0.04478805,0.09360905,-0.04480052,0.09227318,0.05645824,6.63606119,-0.28003532,0.08964626,-0.27535504,-0.19128820,-0.05337275,-0.20564263,-0.24996214,-0.35516346,-0.06517424,0.27931845,-0.07894202,-0.27507767,-0.03541186,0.17656395,-0.42168593,-0.36280552,-0.07517001,-0.13306712,0.03383689,0.00923413,0.04935374,0.11537062,0.07862049,-0.00283022,-0.11016826,-0.31929731,-0.18099150,-0.11240242,-0.14244059,-0.22372004,0.28293687,0.24418959,-0.13682905,-0.30632928,0.36064065,-0.32801178,0.34699616,0.30418974,-0.26979566,-0.17798285,-0.10437852,-0.04503794,-0.39274853,-0.10636546,0.14177720,-0.01948539,0.28738502,-0.34361279,0.17026915,0.32679385,0.31751946,-0.02287617,0.03322969,0.05519984,0.30318463,-0.11676167,0.06391798,-0.35383582,-0.00624892,-0.08152691,-0.29053354,0.30652505,-0.30271015,-0.13404620,-0.10136643,-0.30595767,0.23438315,-0.01778425,0.06333614,0.20838840,0.24309580,-0.32196167,-0.16294402,-0.01012486,0.03376889,0.03515429,0.17501420,-0.00180137,0.14764600,0.16000597,0.31031477,0.19917384,-0.04811297,-0.14567187,0.04704118,-0.40291649,0.09327877,-0.27978474,0.11690345,-0.05002778,0.23595078,0.21183349,-0.13884822,-0.15105218,-0.10519841,0.30196097,0.33902261,-0.08793243,-0.00625354,0.17465243,0.25161529,-0.09386779,-0.10485490,0.13934207,-0.28392830,-0.18532090,0.26880968,0.08061595,0.10806798,0.08342142,-0.16127603,0.37243444,-0.16309109,0.28902158,0.22706100,0.00695406,-0.29385602,-0.17792219,0.33923721,-0.16534492,0.00699470,0.43163770,0.02104050,-0.24390717,0.02111012,0.19610097,-0.14688581,-0.04071561,-0.27887857,-0.11362502,-0.05746853,-0.18044919,0.20574345,-0.19877799,0.27219546,0.12513086,-0.18752344,-0.10093445,0.35747463,0.08670706,-0.13613184,-0.09330548,-0.38209638,0.19696052,-0.19266132,-0.08348889,0.62215090,-0.03711187,0.19602190,-0.08789465,-0.20590110,-0.00279879,-0.06285787,0.11305527,-0.23997480,0.27080098,0.03205390,-0.26216605,-0.21564421,0.21647410,-0.02869033,-0.24260116,-0.10327735,-0.18640357,0.19516389,-0.13856712,0.08194547,0.23747507,-0.24802411,-0.13954675,0.37729633,0.01212970,-0.09366144,-0.04524392,-0.13156180,-0.17608514,0.13570286,0.06184065,6.62824869,0.10494746,-0.17062537,-0.20284033,-0.22540244,0.08924522,-0.36662787,0.01789521,0.23546112,0.56056792,-0.03391156,-0.12208939,0.10962867,0.20687547,-0.15318085,0.16607149,-0.20204234,-2.53029537,0.15043654,-0.09441744,-0.25125870,0.33537492,0.25847682,-0.19555523,0.18597077,-0.07977835,0.03980483,-0.23823829,-0.20259124,0.01169606,0.00572571,0.34435260,-0.12863237,0.34847194,-0.05675353,0.28188333,-0.19497457,0.29783475,-0.32141623,-0.18815424,0.20164233,0.26548350,-0.04084469,-0.07610814,0.23463741,-0.23041514,0.20562840,0.03554721,0.06949803,-0.00783149,0.46144128,0.50089514,0.28694105,-0.39752722,0.01886795,0.21692139,-0.02206117,0.38850802,-0.15679626,0.12906781,-0.26725310,0.22816941,0.12768166,0.13946547,0.15927878,0.15572250,-0.20320483,-0.17272687,0.14779562,-0.08963723,-0.11048908,-0.01754867,0.48704067,-0.21971756,-0.31647116,-0.20062064,-0.20785671,0.02120848,0.16794899,-0.46529353,-0.00581043,0.17489950,0.07578576,-0.00752798,-0.25687379,-0.17426743,-0.33123812,0.09896477,0.13252890,0.07868228,-0.11152352,0.75567389,-0.37626475,-0.19876634,0.49670193,-0.26658580,0.18745753,-0.36044815,-0.12131091,0.00977934,0.06760147,-0.02406926,-0.18237653,0.35550401,0.08318041,-0.15180415,-0.02933551,0.25940943,-0.08338258,0.23572949,0.27925041,-0.13030937,-0.04563579,0.11003604,-0.37588850,-0.01171606,0.26767436,0.09503356,0.25280014,0.17789449,-0.25611389,-0.28287560,0.21814179,0.04286903,-0.09991038,0.17943636,0.07890411,0.11408452,-0.19957961,-0.44351667,0.19803962,-0.51200575,0.28008223,0.17294227,-0.17525207,-0.34622884,0.21273042,0.00800111,-0.09813403,-0.08009004,0.08629824,0.29026127,-0.10225990,-0.03210490,0.04604213,0.45173657,-0.13441928,-0.06101667,0.12583782,0.18840732,0.18850189,0.14685702,-0.03744719,0.04154677,-0.06552496,-0.36857915,0.03171041,0.11108264,0.12021760,-0.18203086,0.08724420,0.07935606,0.01821157,0.23634496,0.06928242,0.10174430,0.15130982,0.34026834,0.14869706,-0.50768632,0.13056925,-0.36889291,-0.28532082,-0.05953383,0.30379283,-0.14765862,-0.15322101,-0.06132915,-0.02228023,0.26287925,-0.25749254,0.50959069,0.22320215,0.20658070,0.32082468,0.16891614,-0.13119072,0.10183286,0.25078422,-0.25099543,0.09832489,0.04898775,0.24479370,0.20924678,0.21130005,-0.20886452,-0.09926002,-0.54351377,-0.17071627,-0.14937295
attachment,0.08788963,0.07680738,-0.32359371,0.11352345,0.44701388,-0.40638512,-0.13267817,-1.14718258,-0.04176678,0.19831288,0.27549049,0.48380738,-0.52401370,-0.09825855,-0.35401019,0.15640484,-0.17897570,-0.01516315,0.06733852,-0.03696696,0.34434044,0.00201413,0.05258460,0.44133267,-0.14742739,0.24400270,0.11967441,-0.03418108,-0.16384089,-0.04154940,-0.42626038,0.29459220,-0.04721387,0.18295351,-0.07804543,0.21737233,0.29662773,0.12540630,-0.03225959,-0.20774339,-0.36838922,-0.16748054,-0.10923287,0.04351376,0.27642018,0.22924201,-0.08504651,0.08776093,-0.26343217,-0.27597964,0.27140310,-0.06859200,0.44389305,0.07667710,-0.00399838,0.04890957,-0.12227195,-0.39983600,0.27365199,0.03217370,0.24012250,-0.18075249,-0.24579635,-0.32150960,-0.12873793,-0.04327901,-0.14973065,0.07633301,-0.20316444,-0.29108238,-0.23017044,-0.00960686,0.10404810,0.33810967,-0.04261356,0.10335517,0.17230728,-0.23772284,-0.10896248,-0.21251519,-0.00038991,-0.28934431,0.15645599,0.46556300,-0.25958952,-0.31930071,0.33583611,-0.09421208,0.18336801,-0.00098871,0.01731283,0.41037810,-1.68514800,0.08601794,-0.07770937,0.46242005,0.34277928,0.35866913,-0.18570754,-0.11006514,0.50724483,0.01422739,-0.09896101,-0.20092328,-0.10097466,-0.39287567,0.34232172,-0.00269793,-0.04169846,0.23622657,0.50965214,0.08196628,0.05456047,0.17418709,-0.10337131,-0.46175352,0.11740769,0.32020888,-0.08310520,0.14164580,0.19005258,-0.17345090,-0.35506764,0.14861615,0.06743765,-0.11988676,-0.19090581,0.13275054,-0.06408588,0.57194579,0.34156114,-0.06289399,0.26949719,6.27640963,0.28490660,0.03167757,-0.37260681,-0.42162606,0.07601202,-0.00580196,-0.01468946,-0.09343721,0.13980456,0.13819255,-0.13106544,0.43481049,-0.03365317,0.26760247,0.07053595,0.23533152,0.14681599,-0.16160080,-0.16049860,0.39114085,-0.01069171,0.26262987,-0.29383549,0.14947556,-0.47923088,0.31557283,-0.13008174,0.07633037,0.35760695,-0.23054801,0.12033073,-0.17045857,-0.15302069,-0.10757287,0.05732061,0.03494360,-0.22214298,0.29608715,-0.06716025,0.01775818,0.26171049,-0.05611642,-0.22722356,-0.11191572,-0.08448587,0.11018904,0.15411130,-0.06269178,-0.00554501,-0.18681997,-0.27527487,0.04670207,0.46840534,0.22510792,-0.02948272,-0.47447744,0.04642329,-0.19270693,-0.36515865,-0.07532970,0.17582798,-0.11813398,-0.19998629,0.20068382,-0.08837405,-0.19186191,0.18534280,-0.00352291,-0.15607658,0.20425008,-0.05754809,-0.26363388,-0.08085801,-0.20296107,-0.19205171,-0.05514197,0.37622920,0.10740123,0.27528778,0.07881449,-0.04559379,0.17025431,-0.39324784,-0.04256713,-0.20356888,-0.42682141,-0.49047482,-0.36103770,0.13663013,0.13375011,0.19225763,-0.06597155,0.17790072,-0.25952387,-0.16412388,0.24438046,0.08328893,0.05082468,0.31402284,0.05839073,0.36061409,0.29861191,0.10582986,-0.27508134,-0.16043006,-0.10891139,0.21899520,-0.36125383,0.29856992,-0.33086219,-0.19332594,-0.19557819,0.51428980,0.16178706,0.05494840,0.22416946,0.40084422,0.14530885,0.25858185,-0.31921741,-0.10787317,0.25937134,-0.20708017,-0.28071982,0.12758678,0.04540418,-0.20090920,0.17044997,-0.18296531,-0.22216742,-0.23660819,0.00499624,0.10684946,0.10144717,-0.01210606,0.09464035,0.16673568,-0.26662600,-0.02554752,0.06378998,0.16339232,-0.22582804,-0.03028688,0.25544140,0.04385173,-0.07286105,0.31585294,-0.29874688,0.17583418,0.02724945,-0.10213760,0.30409160,-0.01881089,0.17941788,0.06730049,-0.06480861,0.02169653,0.01471017,-0.17575797,-0.42188781,-0.43951428,-0.49984026,0.23797315,-0.19210982,0.08484127,0.39581642,0.40086883,-0.30307958,0.00461738,-0.08992770,-0.20113955,0.20614429,0.07204853,-0.33442599,-0.19303410,0.06396169,-0.07006707,-0.57454801,6.27332973,0.33723846,-0.52236259,-0.03188599,-0.13030006,-0.07765047,0.03636808,-0.02395187,0.04876385,0.61117572,-0.01859991,0.09160633,0.48939630,-0.08737124,-0.28367025,-0.23796412,0.12636523,-2.01554275,-0.27513805,0.33735979,-0.06931248,0.01331139,-0.16381665,-0.23398025,0.10600744,-0.07970669,-0.48751590,-0.25000352,0.14437433,-0.17481698,-0.01749442,-0.19448094,0.03475932,-0.22152996,0.10027127,-0.19864352,-0.00806810,-0.00997993,-0.36868495,-0.53182209,0.47825709,-0.09697329,-0.24293630,0.31637692,0.03371380,-0.33013138,0.12658091,0.15566173,0.36845163,0.07771607,0.17357716,0.18560229,0.21508501,-0.03144683,-0.09698664,0.02321436,-0.13671744,0.30284345,-0.57716024,-0.31838331,-0.12092428,0.01041153,0.01727344,-0.06051658,0.06827325,0.14896682,-0.15358157,0.06607699,0.22635829,-0.04873333,-0.19898491,-0.00846321,-0.21592088,-0.46889001,0.29019907,-0.13345668,-0.03284359,-0.01287712,0.38169006,0.15359613,-0.00270419,0.15091801,0.09249400,0.41433415,0.09486909,-0.10989898,-0.34622705,0.16575812,0.00672495,-0.16088001,0.16408679,-0.01454133,-0.38361704,-0.21716118,0.12720488,-0.15558362,-0.05941444,-0.27972120,0.18313736,0.38144729,0.17452548,0.14308305,-0.31842417,0.07175031,-0.31347594,-0.34572133,-0.25619113,-0.00736088,-0.07960963,0.03301044,-0.20843515,-0.05957550,0.25089568,-0.16339383,0.00073392,-0.11952060,0.15684386,-0.31436011,-0.09560161,0.29543108,-0.12797344,0.33205587,-0.19175765,0.12019721,-0.10058084,0.11801741,-0.22977477,0.03331884,0.04444238,-0.11629959,-0.36920309,0.01756102,0.13926688,-0.17098360,0.29917955,-0.34885710,0.15429965,-0.04127559,0.18729965,0.01063281,0.17132764,0.14891271,-0.15546924,0.10106350,0.00547925,0.02190323,0.02429902,-0.17049246,0.16555811,0.00989552,0.35964695,0.24669938,-0.16988465,0.33785751,0.21699210,-0.20933138,-0.21133177,-0.16313322,-0.24683845,-0.12853974,-0.16110934,0.12165783,-0.23382221,-0.11995380,-0.52410465,-0.23753662,-0.02799020,0.05298474,0.01181896,-0.13894397,-0.31098145,-0.14317836,0.10356590,0.12107529,-0.16106002,0.34097916,-0.05949592,-0.18704057,0.15342762,-0.07754280,-0.07724939,0.65567452,-0.18274431,-0.33668920,0.19939770,0.04960428,-0.07913428,-0.22366318,-0.10259213,-0.01211150,0.05629027,0.07747885,0.06192534,-0.14381751,0.25952795,-0.10686897,-0.15331131,-0.28552771,-0.09845508,0.00994515
maple,-0.07830683,-0.20416893,0.19556852,0.19730756,-0.19680159,0.37622201,0.17604901,-1.00370967,-0.22709952,0.13991304,-0.20311093,0.20348468,-0.42120928,0.21536943,0.52760816,-0.21861367,0.31655008,-0.31549811,0.07860497,0.09336124,0.23956674,-0.15505156,0.39275208,0.13738608,-0.35575500,0.11377851,-0.12627590,0.29235193,-0.27685386,-0.01029281,-0.00515342,0.10254987,-0.20915480,0.20831861,0.27841899,0.29549605,-0.03519075,0.14904049,-0.22887976,0.09765774,-0.22313187,-0.33197516,-0.00652578,0.00977301,0.08407763,-0.07726743,-0.02833316,0.49291328,0.21333492,0.39456522,-0.34124723,-0.31667751,-0.34752905,-0.13680650,-0.03224236,-0.06829652,0.34592643,0.04115953,-0.17722937,0.37305173,0.36765462,-0.08407100,0.48440620,-0.07605100,0.08597480,-0.14885525,-0.01971499,-0.18821512,-0.29884294,-0.35573703,-0.24528971,0.39040056,0.03484944,0.46329433,-0.28587183,0.13001569,-0.17478523,0.00909155,0.05280160,-0.06916206,-0.05134020,-0.14017828,-0.06601016,0.19959120,0.07762618,-0.07011118,0.03596596,0.30172294,0.27849278,0.21406566,-0.31644550,-0.09375235,-1.48649311,0.48670369,-0.22164798,-0.11870514,0.29334837,-0.45598823,-0.10047748,0.01040110,-0.07724531,0.15467212,0.07430096,-0.05899901,-0.19273064,0.01362398,0.10802478,-0.10828365,-0.48345813,0.06359537,-0.03047525,0.01286429,-0.15272389,0.10452932,-0.06288712,-0.27898034,-0.16247159,0.18785924,-0.45508644,0.04911898,0.21806957,-0.11340716,0.38020363,-0.06121809,0.02488918,-0.26247588,-0.30426371,-0.02895844,-0.12855044,0.29183927,0.08318028,-0.03753195,0.17924708,5.24175072,-0.01120790,0.68021423,-0.11945685,-0.13663848,-0.06348313,-0.07045267,0.48732969,0.21202317,-0.13993728,-0.03159099,-0.46338764,0.05269824,0.31034520,0.36451358,-0.03073385,-0.12551077,0.21593079,-0.01523648,-0.13842046,-0.29828650,0.08473589,-0.23825428,0.28369349,0.29632074,0.17925292,0.34723052,-0.73137367,0.34156674,-0.16667750,0.31343892,-0.03630890,-0.25178179,-0.06622644,-0.20551501,0.18964481,0.04715582,-0.11012699,0.02934861,-0.07002496,0.19870140,-0.02505483,0.10364693,-0.33265194,-0.28978783,0.47213358,0.08904109,0.05611855,0.04745328,0.13253811,-0.30139896,0.08750893,-0.02258864,0.18233788,-0.06078590,0.00639992,0.02175079,-0.12571168,-0.16595650,0.12416435,0.22755080,-0.05499490,0.15941308,-0.14522673,0.11307549,-0.08878552,-0.25712684,0.21066900,-0.12472658,-0.26953271,0.05066795,0.18013854,-0.03823220,0.07076152,-0.00175661,-0.28274941,-0.18138011,0.41588259,0.09224351,-0.07334632,-0.40087679,0.08740971,-0.01563473,-0.03896478,-0.42946094,0.31312165,0.01678435,-0.01187474,0.10583598,-0.20018320,0.05316979,0.57146770,0.10105904,0.46121421,0.18484499,0.33489516,0.35148016,0.00466019,-0.20803981,0.13365692,-0.29721615,0.31278682,0.21534862,0.03593759,0.40388146,-0.39369845,-0.45351872,-0.13533665,0.24129924,-0.07805450,-0.28475574,0.18801394,-0.24824387,0.02822943,-0.05410754,-0.22059420,0.16122727,0.18497919,0.14466918,-0.02588089,0.26181433,0.00184210,0.40991855,-0.22765663,-0.16903530,0.04287895,0.39736703,0.12636793,0.53147924,0.18925102,-0.08552865,0.01715467,-0.15704547,0.16202551,-0.31893736,-0.18141297,0.31090835,-0.30893856,-0.04033506,-0.39278570,-0.32454336,0.08434525,-0.07373765,0.25043240,-0.20048070,-0.21585366,-0.21000932,0.18185604,0.00507918,0.12101385,0.28812519,0.13360256,-0.16807857,0.30134410,0.12240947,0.16633816,-0.46261862,0.05023505,-0.30055878,0.19478945,0.40716293,-0.04591398,0.18949401,-0.47598329,-0.25265378,-0.07306593,-0.63953739,0.09725533,0.40867427,-0.49019164,0.32494104,0.05681188,0.13728911,-0.00685811,-0.25306267,0.22785373,0.22871700,0.08119221,0.11510044,5.23490000,-0.00980013,0.11186980,-0.08231372,-0.23572227,0.42745116,0.15752959,0.21737562,0.39650819,0.53525138,0.07736523,0.15427452,-0.01036293,-0.09293576,-0.14914186,0.26740089,0.10987640,-1.73795986,0.34700671,0.35463551,-0.17155224,0.16385210,0.16489249,0.23822099,0.06284737,0.27286714,-0.12366753,-0.34398159,0.02251334,0.11652005,0.28459278,-0.25357524,0.17421791,0.21652080,0.00045239,0.25456235,-0.33187932,0.30965903,-0.31479785,-0.20766665,0.16217062,0.03711341,-0.04873074,0.26232573,-0.18240121,-0.13254884,0.26768371,0.13184443,-0.24805416,0.22905305,-0.11873288,0.61608624,0.06395783,-0.03713272,0.10852233,0.13188317,-0.08182185,-0.17066048,-0.09584364,0.03151447,-0.14203832,0.22307770,-0.24848896,-0.20256707,-0.23062225,0.27906710,0.00179493,0.00297749,-0.18676229,-0.17725353,0.14989357,-0.06195396,-0.17259608,-0.25199717,-0.27839774,-0.08271030,0.40636984,-0.18045489,-0.24295583,0.07758991,0.14699197,0.20632574,0.35345373,0.06257699,-0.17617780,-0.24814828,-0.29729956,0.57594603,0.08023217,0.02006277,0.33189222,-0.34999168,-0.17064196,0.06962036,-0.00877832,-0.15147366,0.47483033,-0.37995252,0.45191169,0.16482310,-0.05546657,0.18718234,-0.05188008,-0.03994223,-0.08622184,-0.01875060,-0.08408038,0.42978379,0.71490330,-0.04072012,0.25538611,-0.29181108,0.08653118,0.05764172,-0.22391365,0.02392837,0.03363710,0.32898647,0.23602289,-0.10743844,0.20285626,0.19738697,-0.13967146,-0.08638334,0.39717099,-0.00642546,-0.31046432,0.14267313,-0.08954230,0.16256367,0.02092216,-0.06837908,0.15654239,0.23595290,-0.10335951,-0.51762503,-0.29018009,0.13417730,-0.17165481,-0.02026570,-0.06163090,0.23578835,0.34490782,0.22757122,0.58835328,-0.00403319,0.41195256,-0.42677969,0.08215598,-0.00555956,-0.13299200,-0.14819704,0.22087587,-0.00269231,0.00433570,-0.12520109,0.07975107,-0.44395217,-0.04567276,0.01377654,0.19064622,-0.11056841,-0.00388357,0.26082110,0.38662201,0.19306654,-0.02822124,-0.06038628,0.21563721,-0.41393277,0.21795584,-0.12559648,0.31392193,-0.23235649,0.21413040,0.07709068,0.17411539,0.02744463,0.16807096,0.37820506,0.17736445,0.34955579,-0.21153361,-0.11228884,0.55835509,-0.30524358,0.06265561,-0.35792068,0.02506679,-0.31776229,0.00818577,0.04492713,0.17572336,-0.22191781,-0.72219509,-0.32275715,0.18796326,-0.33190534,0.07252736,0.37361369
mirror,0.09351136,0.14361843,-0.24807669,0.26148570,0.27508634,0.10788435,-0.18462861,-0.75646484,-0.30401012,0.06391785,-0.11999643,-0.10012162,0.00912461,-0.16614734,0.03193947,0.09813520,0.20653437,-0.00854097,0.22553544,-0.51193553,0.37112162,0.26696309,0.30999938,-0.27763188,-0.27167025,-0.22445463,-0.18450126,-0.20987122,-0.19802766,-0.07307950,-0.03865350,-0.23220374,0.17024727,0.00424884,-0.49110225,-0.04375973,-0.28339177,-0.06931722,0.14165859,0.08202229,0.04944623,0.04839520,-0.10958564,0.35065934,0.49984407,0.22527513,0.08676230,0.31076565,0.20455360,-0.19700532,-0.16645044,0.07992964,0.03744198,-0.36124122,0.20840360,-0.22075613,-0.46125478,0.00918318,-0.42074645,0.49281511,0.15704331,-0.04486743,-0.21542156,-0.04656859,-0.00723935,-0.11404300,-0.21246305,-0.07403707,0.34518984,-0.26563314,-0.02481676,-0.01780988,-0.09453419,-0.07189048,-0.05522699,0.02211917,0.02700914,-0.12827954,0.03606176,-0.48086882,0.02119509,0.14667889,-0.00356519,0.54850942,0.11514996,0.26770890,0.00162707,0.16310060,0.24207273,0.26590639,0.15149483,0.15702257,-1.34664941,0.42023447,-0.39734551,0.06353680,-0.07596345,0.53770703,0.31072757,0.02032982,0.03255291,0.21855609,0.12060491,-0.19044857,-0.14415948,-0.21214248,0.13647631,-0.63150555,-0.27134824,0.04144335,-0.39575338,-0.25439438,-0.13805883,-0.36487886,0.02872580,-0.30059949,-0.14829905,0.25974664,-0.32243538,0.00227669,0.11483112,-0.51583785,-0.02749747,0.24756619,-0.08633079,-0.10423474,-0.11007689,0.05021763,-0.58072460,-0.04543076,0.07443503,0.28880730,-0.50236392,5.08543730,0.17370227,-0.04435356,-0.17460187,-0.47336912,0.09412351,-0.14053445,0.08602218,-0.10771982,0.06387256,0.15271227,-0.08960474,-0.18721633,-0.09672973,0.26772285,-0.28860870,-0.47017172,-0.11790817,-0.35638216,0.07737973,0.37626177,-0.24360885,-0.25986388,0.02884307,-0.06553023,0.33610418,-0.34652320,-0.19847107,0.10287724,-0.13031766,-0.38751811,-0.22801362,0.12785438,-0.01520924,-0.53957075,0.89628410,-0.03005976,-0.15421286,-0.19053267,-0.18390746,-0.38368258,-0.32106221,0.30379114,-0.36672178,0.24826410,0.15391405,-0.01718259,0.21948840,0.08866172,-0.42899069,0.07258652,-0.01983572,0.19722523,0.01269179,-0.16884091,0.22115207,0.00136922,0.10142751,-0.07835834,0.12559481,0.18279597,-0.10210878,0.43099046,0.11020760,0.00970863,0.05663487,0.03492464,0.13050567,-0.12724636,-0.12359152,-0.01206228,0.01047407,-0.23297150,-0.19705915,-0.09343712,0.37304243,0.28185773,0.51465386,0.38685849,0.15201138,0.14785476,0.36313364,0.02423063,0.42015025,-0.35043490,-0.10083988,-0.03354212,-0.16174260,-0.35444444,-0.17813711,-0.17760205,0.09170634,-0.10900947,0.04770276,-0.18767649,0.22755304,0.16251995,0.02255952,0.32732582,0.11071207,0.11768254,0.11012600,0.14693485,-0.13224445,0.15381895,-0.02885176,-0.53779042,-0.24397576,0.11330128,0.18035133,-0.24580511,-0.13993947,0.54193103,0.01630156,-0.01561009,0.14218420,0.06619683,-0.05053379,0.32114819,-0.20357367,-0.06276269,-0.24645537,-0.07884414,-0.04805619,-0.31402194,0.08526266,0.13918808,0.02602779,-0.39944085,-0.22356014,-0.13447247,0.08223340,-0.19898748,-0.44375622,-0.02217471,-0.27882105,-0.11601656,-0.11064676,-0.15101252,0.20346035,-0.25777957,-0.45715979,-0.18460459,-0.10868068,0.31041747,-0.08033329,0.09742639,0.48756701,0.13914786,-0.11277467,-0.03156876,-0.10200190,-0.21941547,0.06108572,0.18695241,0.42782837,-0.29597095,0.31324175,0.06084070,0.40657714,0.38066018,0.17025737,-0.16731693,-0.30266881,0.08168250,0.01124893,0.22412343,-0.15153067,-0.02150421,0.15997045,0.14370480,0.33608931,-0.02661588,0.03618693,0.02759665,0.17805135,-0.14272705,-0.34342220,0.43241709,5.08382797,-0.03757693,-0.04463257,0.25694177,-0.42637894,0.38359201,0.11510336,0.06255393,0.04577006,0.42986664,0.45812950,0.35330516,-0.21063058,-0.00900123,0.03871896,0.04105518,0.02499605,-1.50543463,0.24563585,0.15716599,-0.18972354,0.25452015,0.21491683,-0.41739410,0.42633224,0.32455203,-0.04143769,0.25324267,0.00724260,0.36029384,0.31004211,0.08506147,-0.10589582,-0.45576185,0.12517142,0.93872708,-0.08558667,-0.02687093,0.17604612,-0.16464476,-0.39785230,0.19960937,-0.60712332,-0.15669660,0.06734769,0.04119603,0.19733606,-0.34230146,0.09144443,0.03051347,0.02807719,0.03136097,0.28807619,-0.39628071,0.03772447,-0.16205694,-0.26383382,0.38475743,-0.08355101,0.17234635,-0.02912751,0.37547281,-0.12668093,0.15268341,0.14613181,-0.14201453,-0.23606367,0.02319873,-0.00257713,0.07520635,0.21968411,-0.02779059,0.01450481,0.28320971,-0.43417445,0.04083059,-0.13911064,0.33302280,-0.14621995,0.13954070,-0.05271247,0.01794403,0.27436972,0.32296333,-0.20305935,-0.19664241,0.10734504,0.42683321,0.21077038,0.26711205,0.07932040,-0.00782169,-0.11359544,0.28200215,-0.14311762,-0.08956581,0.19725780,-0.09331176,-0.07304847,0.04207378,-0.15417846,0.34156340,-0.02138362,0.11403027,0.09152558,-0.43267056,-0.27582923,-0.02668476,-0.07638615,-0.00757769,0.34848809,-0.26504120,0.04202456,-0.19960666,-0.20298086,-0.17270821,0.18358757,-0.27523363,-0.00786113,0.09644867,-0.07817624,0.18936203,0.70802414,-0.10396195,0.31229931,0.69952732,-0.13737211,-0.16749293,-0.65137869,-0.30527839,0.07526489,-0.39931852,0.28527528,0.25543842,-0.14857112,-0.02498406,0.26621798,0.74523759,0.11925771,-0.33330652,0.20664749,0.12371227,-0.12787327,0.33174673,-0.06815840,0.31317231,0.22172099,-0.32320872,-0.00687663,-0.22958313,0.12472357,0.16581699,0.13361700,-0.03036542,0.32600600,0.00163420,-0.06347280,0.33923048,-0.04418715,0.08493614,0.39276731,-0.38507628,-0.11240385,0.02714784,-0.21123239,0.15410642,-0.04560760,0.23186475,0.17366369,-0.69482601,0.18127301,-0.23675881,0.11087667,-0.26058999,-0.00422835,-0.06853466,-0.41437247,-0.06295957,0.03748614,0.05117741,0.12340094,0.88477618,0.41799352,0.13645653,0.08419625,-0.08722326,0.08069400,-0.19008069,0.07261779,0.03667149,-0.08015002,0.02173227,0.60679805,0.47085315,0.06343266,-0.52375293,-0.18582879,-0.56964582,-0.12319749,0.00167240
aspen,-0.07638726,0.10969231,0.61236435,0.26184151,-0.04603946,-0.37331387,0.02839064,0.05084633,-0.34157965,-0.02308060,-0.33108422,0.09994943,-0.17465675,-0.43799043,0.09439483,0.29612488,0.32817566,-0.14330518,-0.69822472,-0.12528899,0.40208957,0.25853145,0.36678055,-0.18812841,-0.70108175,0.47947410,0.19747722,0.03467646,0.04891573,0.15872385,-0.16733703,0.27419153,0.34500638,-0.16540839,-0.01996250,0.13567145,0.03751393,0.03841689,-0.29569918,0.18563130,-0.34046686,-0.20080264,-0.37048855,-0.07979758,0.10016706,-0.00926715,-0.10724038,0.38146454,-0.02290839,-0.05729590,0.27569190,-0.12656693,-0.05692928,0.20336904,0.11513217,-0.24339515,0.05252863,0.14680585,-0.28620785,0.71334410,-0.23293409,-0.05162569,0.12472454,-0.21482123,-0.15282203,-0.71183670,-0.04948157,-0.20844679,0.20259146,-0.22204499,-0.04166250,0.27393976,-0.27153236,-0.00925600,0.06019909,0.26791304,0.20915572,0.12535785,-0.20470636,-0.17077807,-0.37588269,0.09596405,-0.08125936,0.29696593,-0.52277815,-0.32128489,0.11005208,-0.19000530,0.31997702,-0.26862288,-0.11312688,-0.11339001,-1.15002739,0.33430675,-0.18318094,0.37849563,0.42024437,-0.03448672,-0.09471792,-0.09671323,0.36202270,0.16021511,0.16137679,0.03408182,-0.67500407,-0.22170666,0.01833747,-0.18706533,-0.21418506,0.50081986,-0.01259213,0.20721957,-0.09891545,0.05379304,0.55873370,-0.33567157,-0.18474685,-0.00130053,-0.35669500,0.28921306,0.27471095,-0.33494169,-0.13483034,-0.06369101,-0.11857870,-0.48661754,-0.48692417,-0.14521787,0.24170280,0.48868752,-0.04415508,-0.05820257,0.10519632,4.15761280,0.23419772,-0.26122761,0.11908583,-0.48130146,0.05768714,-0.12870170,0.23779927,0.03820558,-0.22571754,0.19286026,-0.32580835,0.09862223,-0.06345592,-0.02918083,-0.05903944,-0.25335655,0.06901629,-0.08802777,0.14485443,0.11051252,0.15527518,-0.14579169,0.37380877,-0.46955386,0.15923096,-0.08492780,0.15771447,0.41703558,0.17135434,-0.20807266,0.18759044,-0.08335089,0.00334369,-0.30812877,0.30823812,0.22587782,0.35422602,0.12054937,-0.20558174,0.09773999,-0.00778427,-0.05674987,-0.37307492,0.13136709,0.53805119,0.20835607,0.14937113,0.25296444,-0.25830510,-0.53912389,0.33645636,0.35793170,0.08795211,-0.49701935,-0.02704642,-0.06134542,0.12346026,-0.19773631,0.13629046,-0.39727053,-0.20061937,0.47252193,-0.28995287,0.29364190,0.18000600,-0.12179638,-0.07657717,-0.07440727,-0.10681385,0.53120291,-0.28501332,-0.63595998,0.37999526,-0.40397310,-0.21836632,-0.26168904,0.26598975,0.18290018,0.54808557,-0.15747324,-0.16754368,-0.05169215,-0.25945514,-0.53416431,0.10969375,-0.23940340,-0.03157496,0.01794685,-0.22261050,-0.32502490,0.29151464,0.01901490,-0.09579837,-0.15064961,0.28215125,0.26375270,0.30925199,0.30479199,0.32311466,0.03652165,0.45022604,0.08805085,0.06483673,0.35326290,0.08588426,-0.49189526,0.43734223,0.24000371,-0.09664173,0.13309534,0.06792814,-0.15336667,0.03552157,-0.61269915,0.11082062,0.18481807,-0.18624306,0.39351669,0.12324487,0.26764026,-0.00038043,0.19323903,0.06901963,-0.17488220,-0.04082378,0.26032814,-0.22322650,0.14039548,0.13423477,-0.44300660,-0.05368947,-0.31170672,0.23133442,-0.16990493,-0.36697185,0.28723499,0.28139538,0.12042551,0.69764894,-0.10568990,-0.05803823,-0.02898942,0.42291084,0.24689481,0.32099411,-0.52885306,0.11736221,0.05510220,0.50463361,-0.11555929,-0.12500393,-0.15140341,0.17010674,0.05448621,0.31091613,-0.67116922,0.13579772,-0.01526963,-0.19348341,-0.06357278,-0.27236566,-0.11496442,-0.89164662,0.03249485,0.13093057,0.00306865,-0.01819802,-0.06509876,-0.30212057,0.37668547,-0.53638196,0.19906263,0.05622759,-0.19634809,0.33127990,-0.12290169,0.01145333,0.00169986,4.15538549,0.36489922,-0.06742764,0.09049660,-0.20617169,0.60761154,0.34972775,0.11567266,-0.11311111,0.37305096,0.34993255,-0.13768500,-0.25248185,-0.02900275,0.08183367,-0.01816731,-0.12734216,-0.98691428,-0.05300597,0.28181332,-0.08013184,0.01170546,0.08017241,0.00793247,-0.07940343,0.06295841,0.10759533,0.05468576,0.16119854,0.22911315,0.03491148,-0.11362623,0.18685883,-0.08361107,-0.05304874,-0.07376674,0.38537359,-0.23829760,-0.21002622,-0.33514911,0.28159359,0.23594436,-0.37330478,0.27487773,0.22526491,-0.12954037,0.08114514,-0.19084214,0.26345041,-0.30298650,-0.23310815,0.20131078,0.14823619,0.08133068,-0.09550798,0.07325066,0.21270129,-0.11058557,-0.11901604,0.00384791,-0.05744465,0.00087303,0.19296752,-0.10663026,-0.02256386,0.49776918,-0.52796578,-0.01481344,0.21409562,0.06294042,0.11497992,-0.59017450,0.29780978,0.24419139,-0.53500295,0.14282326,-0.00277046,-0.14123677,-0.52286547,0.18143836,0.04680263,-0.61351967,-0.06388058,0.35748526,-0.28176796,-0.03113989,-0.03864406,0.81636435,0.18773307,-0.31178159,0.35898444,0.05602736,0.11678660,-0.00137480,-0.02222895,-0.19231594,0.12996985,-0.09383146,0.18033868,0.29240075,0.27995917,0.14568870,-0.37305602,-0.06200859,0.13299507,-0.54742992,-0.42345563,0.09312800,0.33313000,-0.43645304,0.15061796,-0.49567524,0.06877019,-0.10969129,-0.22981477,0.32197163,0.05291253,0.04122958,0.08366434,-0.33048922,0.20367603,0.31513083,0.45434213,-0.16268463,0.04903240,-0.08067565,-0.05528883,0.12020433,-0.00284116,0.07172811,0.18640283,-0.39882141,0.11778609,0.25135818,0.28244686,-0.38327587,-0.21785818,0.09902798,0.06260493,0.14907776,-0.35358003,0.28094423,0.19363242,0.23493291,-0.03071999,0.09112947,0.35006225,-0.03970809,0.16056459,-0.25759566,-0.59043133,-0.01651774,0.41237432,-0.16975628,-0.02056398,-0.29019079,-0.10833007,-0.28946927,-0.16448587,-0.00290964,0.17233448,0.39543724,0.16937417,0.41399413,0.21077731,-0.38032252,0.04948540,0.25515243,0.30465031,-0.35926786,0.28599718,-0.18468998,-0.02582653,0.19027588,0.16631187,0.32559037,-0.20532902,-0.18599355,0.16210693,-0.47987416,-0.24784565,-0.00804081,0.08017021,-0.12624919,0.46962970,0.16472863,-0.44203445,-0.18304220,0.11806459,0.02137571,0.10159190,0.09193892,0.39796582,-0.11771224,-0.10486592,-0.32407483,-0.06405474,-0.27604321,0.51410711,0.13872243
memory,-0.15641876,-0.14455213,0.03493818,-0.05816243,-0.11493807,-0.16831413,-0.16034742,-1.55569148,-0.10931471,0.22488117,-0.20254399,-0.35265926,0.03923524,-0.08365695,-0.09004337,-0.01788875,0.07316330,0.30266619,-0.06087437,-0.48915496,0.22922695,0.06434670,0.21225172,-0.11103574,-0.07055496,-0.13584256,-0.08378570,-0.22064804,-0.27174425,0.29865977,-0.15170443,-0.22024950,-0.00113032,0.25699770,-0.12312352,0.22410092,-0.13944316,-0.01534793,-0.16294323,-0.25418058,-0.07825606,-0.30842260,0.12845610,-0.13935751,0.07511277,0.23192380,-0.09505399,-0.04853485,0.43876106,-0.01200674,-0.02986584,0.09962132,0.11931985,-0.17612772,0.29908955,0.13411532,-0.20837103,0.07430939,-0.10330446,0.08145101,0.45346761,-0.00045093,0.32072377,-0.38784221,-0.38577318,-0.19068412,-0.02386571,0.00525868,-0.04760406,-0.12416852,-0.01538578,-0.16071589,0.10661623,0.39446887,-0.11373165,0.03967637,0.11923842,-0.16432936,-0.03614645,0.07629827,-0.19264516,0.01133806,0.05659519,0.00926737,-0.08081419,0.20015211,-0.12857023,-0.21769938,0.26850837,-0.09139495,0.09932055,-0.17118900,-1.93386042,0.06966813,0.51472408,0.11886498,0.38209385,0.22514279,0.20448868,-0.31487364,0.18470411,0.11899596,0.13803734,-0.16413869,-0.04317859,-0.12944882,0.10553651,-0.09372826,-0.00014416,-0.30942926,0.14836435,0.19222972,-0.15955761,-0.01948025,-0.13031128,-0.09517941,0.11717547,0.05965654,0.11290053,0.04820093,0.29143375,-0.03763228,-0.25774750,0.32204169,-0.00001907,-0.28763744,0.01473157,0.18044093,0.19475798,0.24928434,0.04005360,0.12766363,-0.18796226,7.62977648,-0.18290327,0.17900530,0.02628035,-0.21050748,-0.10237992,0.05862012,0.20220150,-0.19625805,0.03739161,0.18510525,-0.13487872,0.10297532,0.11293728,0.06307108,0.01939446,0.02799211,-0.04646305,-0.21619399,-0.53038883,-0.13257857,-0.07196199,-0.10206529,-0.07339878,0.43525007,-0.33267698,-0.12689756,-0.19263433,-0.10439669,0.01777321,-0.06134281,-0.30956611,-0.09838101,-0.00188542,-0.31304905,0.13349575,-0.24272725,0.31652725,-0.03080793,-0.02790175,0.20833798,0.11232214,0.03292377,-0.22479403,0.27820659,0.10149867,-0.02789907,-0.07646741,0.27360365,-0.12084383,-0.06261776,-0.19316387,-0.26998195,-0.10129443,0.11052078,-0.09079783,0.00334124,-0.08466543,-0.27458322,0.01953570,-0.02894548,-0.24581958,-0.17158946,-0.16089661,0.19191234,-0.04082165,-0.18665771,0.42760301,-0.05568689,-0.07226773,0.04848839,-0.15219966,-0.13196591,-0.17487663,-0.12379034,-0.01398591,0.12295542,0.22308622,0.03851233,0.02853830,0.13793139,0.08818653,0.19670509,0.25928763,-0.00319017,-0.45208299,-0.06938830,-0.49001110,-0.29023442,0.11286927,-0.11357376,-0.14894956,0.20025057,0.25350052,-0.24524803,0.02470615,-0.00333033,0.33222231,0.10835030,-0.04060864,-0.05537215,0.15885477,0.34928247,0.28211316,0.22342484,-0.16554093,0.09136669,0.18016857,0.05957907,-0.30254287,0.09107427,0.04447420,-0.00970297,-0.11854504,0.27929112,0.02916341,-0.05159419,-0.25301510,0.23261923,-0.21179584,0.38111478,-0.12403662,0.22284529,-0.01627942,-0.00414837,0.28559890,-0.29771668,0.27415708,-0.04573631,-0.06406828,0.02046545,-0.13664016,-0.28103182,-0.03119239,-0.14746952,-0.25441343,0.05538382,0.05251049,-0.37957418,-0.22020142,-0.24970205,0.22132552,-0.31299034,-0.36298209,-0.05055334,0.02073869,-0.21023731,0.18206902,-0.04016820,0.01822834,-0.30810151,0.06186955,0.36436966,0.31179395,-0.07175475,0.00601251,-0.06284558,0.07070223,0.16508348,0.21599320,0.25535515,-0.16619056,-0.26389229,0.06801432,-0.09250563,-0.05943929,0.20783336,0.09206396,-0.00488435,-0.28931019,0.09461066,0.11883823,0.41314888,0.16526146,-0.14545965,0.07715952,0.27388442,0.11435108,-0.08212156,7.62152529,-0.06502382,-0.23069422,0.05824589,-0.05647119,0.20810498,-0.04755497,0.51783764,0.33141944,0.44786990,0.07674703,0.05209942,0.05327975,-0.20088303,-0.19042484,0.14334279,0.00302786,-2.66499090,0.07477105,0.20279415,0.16346154,0.01487003,0.04095086,-0.12544477,0.23989420,-0.19297212,-0.07810035,-0.29744709,0.12034622,-0.12557013,0.00864961,0.01680566,-0.24290134,0.06231103,-0.03157355,0.38128030,-0.01339661,-0.09616037,-0.10481573,0.07936543,-0.20907749,0.22127672,0.13383360,0.37244594,-0.15157966,0.01812618,0.13653514,0.14083041,-0.38741365,-0.35793149,0.00217861,0.33281925,-0.32253513,-0.21199670,0.01515349,0.32970786,-0.16360088,0.01947911,-0.41854289,0.14992353,0.16004819,0.21920361,0.00954540,0.05006783,0.00663541,0.39523026,-0.26829654,-0.14191659,-0.22089681,0.37045214,0.22031610,0.23406112,0.03171149,-0.12225836,0.02930799,-0.26427898,-0.00056521,0.33010897,0.03718904,-0.04443026,-0.00894231,0.46007535,0.31922358,0.30153525,0.28896224,-0.05601496,0.04201334,0.62688583,0.03742060,-0.02715094,0.15136404,0.10468120,-0.16376920,0.02878905,-0.17696592,-0.05814558,0.09241597,-0.10824314,0.27045867,-0.19457029,0.23789935,0.00503878,0.16640259,0.06592831,0.22803101,-0.07948430,0.10689499,0.24014609,-0.01781446,-0.10547397,-0.15481375,0.15786318,-0.33759323,0.11160553,-0.01032910,-0.12298551,0.24286550,0.19368368,0.02043842,-0.30796483,-0.09385961,-0.32675812,0.03449616,0.10843231,-0.14583583,0.06961166,0.11051682,0.12845622,-0.13915288,-0.38058245,0.11276543,-0.01770365,0.02999401,-0.18061696,0.11845136,0.00261030,0.22810295,0.29264072,-0.20839310,-0.05776069,0.05713684,0.18941934,0.02880184,0.15653230,0.27524948,0.11284310,0.06200114,0.12108924,0.03235465,-0.00543625,0.24538432,0.00225766,0.21459509,0.05723079,-0.32245377,-0.28575224,0.01144313,0.08918159,0.16148432,-0.01778200,-0.01812626,-0.25690755,0.19341752,0.44299507,0.00068696,0.03911690,0.25615469,0.06232251,-0.18892290,-0.52108574,-0.06601559,-0.11174235,0.05575775,-0.29869622,-0.24865893,0.17228708,0.09591790,0.22466108,0.10670853,0.47744781,0.13728383,0.06573188,-0.29091680,0.17828833,-0.00021081,-0.16637659,0.00802507,-0.09390114,-0.21133079,-0.22402143,0.16913599,0.06300329,0.22371523,0.08685464,0.14447349,-0.21286733,-0.14789031,-0.49333644,0.04220862,0.11871944
