,dim_0,dim_1,dim_2,dim_3,dim_4,dim_5,dim_6,dim_7,dim_8,dim_9,dim_10,dim_11,dim_12,dim_13,dim_14,dim_15,dim_16,dim_17,dim_18,dim_19,dim_20,dim_21,dim_22,dim_23,dim_24,dim_25,dim_26,dim_27,dim_28,dim_29,dim_30,dim_31,dim_32,dim_33,dim_34,dim_35,dim_36,dim_37,dim_38,dim_39,dim_40,dim_41,dim_42,dim_43,dim_44,dim_45,dim_46,dim_47,dim_48,dim_49,dim_50,dim_51,dim_52,dim_53,dim_54,dim_55,dim_56,dim_57,dim_58,dim_59,dim_60,dim_61,dim_62,dim_63,dim_64,dim_65,dim_66,dim_67,dim_68,dim_69,dim_70,dim_71,dim_72,dim_73,dim_74,dim_75,dim_76,dim_77,dim_78,dim_79,dim_80,dim_81,dim_82,dim_83,dim_84,dim_85,dim_86,dim_87,dim_88,dim_89,dim_90,dim_91,dim_92,dim_93,dim_94,dim_95,dim_96,dim_97,dim_98,dim_99,dim_100,dim_101,dim_102,dim_103,dim_104,dim_105,dim_106,dim_107,dim_108,dim_109,dim_110,dim_111,dim_112,dim_113,dim_114,dim_115,dim_116,dim_117,dim_118,dim_119,dim_120,dim_121,dim_122,dim_123,dim_124,dim_125,dim_126,dim_127,dim_128,dim_129,dim_130,dim_131,dim_132,dim_133,dim_134,dim_135,dim_136,dim_137,dim_138,dim_139,dim_140,dim_141,dim_142,dim_143,dim_144,dim_145,dim_146,dim_147,dim_148,dim_149,dim_150,dim_151,dim_152,dim_153,dim_154,dim_155,dim_156,dim_157,dim_158,dim_159,dim_160,dim_161,dim_162,dim_163,dim_164,dim_165,dim_166,dim_167,dim_168,dim_169,dim_170,dim_171,dim_172,dim_173,dim_174,dim_175,dim_176,dim_177,dim_178,dim_179,dim_180,dim_181,dim_182,dim_183,dim_184,dim_185,dim_186,dim_187,dim_188,dim_189,dim_190,dim_191,dim_192,dim_193,dim_194,dim_195,dim_196,dim_197,dim_198,dim_199,dim_200,dim_201,dim_202,dim_203,dim_204,dim_205,dim_206,dim_207,dim_208,dim_209,dim_210,dim_211,dim_212,dim_213,dim_214,dim_215,dim_216,dim_217,dim_218,dim_219,dim_220,dim_221,dim_222,dim_223,dim_224,dim_225,dim_226,dim_227,dim_228,dim_229,dim_230,dim_231,dim_232,dim_233,dim_234,dim_235,dim_236,dim_237,dim_238,dim_239,dim_240,dim_241,dim_242,dim_243,dim_244,dim_245,dim_246,dim_247,dim_248,dim_249,dim_250,dim_251,dim_252,dim_253,dim_254,dim_255,dim_256,dim_257,dim_258,dim_259,dim_260,dim_261,dim_262,dim_263,dim_264,dim_265,dim_266,dim_267,dim_268,dim_269,dim_270,dim_271,dim_272,dim_273,dim_274,dim_275,dim_276,dim_277,dim_278,dim_279,dim_280,dim_281,dim_282,dim_283,dim_284,dim_285,dim_286,dim_287,dim_288,dim_289,dim_290,dim_291,dim_292,dim_293,dim_294,dim_295,dim_296,dim_297,dim_298,dim_299,dim_300,dim_301,dim_302,dim_303,dim_304,dim_305,dim_306,dim_307,dim_308,dim_309,dim_310,dim_311,dim_312,dim_313,dim_314,dim_315,dim_316,dim_317,dim_318,dim_319,dim_320,dim_321,dim_322,dim_323,dim_324,dim_325,dim_326,dim_327,dim_328,dim_329,dim_330,dim_331,dim_332,dim_333,dim_334,dim_335,dim_336,dim_337,dim_338,dim_339,dim_340,dim_341,dim_342,dim_343,dim_344,dim_345,dim_346,dim_347,dim_348,dim_349,dim_350,dim_351,dim_352,dim_353,dim_354,dim_355,dim_356,dim_357,dim_358,dim_359,dim_360,dim_361,dim_362,dim_363,dim_364,dim_365,dim_366,dim_367,dim_368,dim_369,dim_370,dim_371,dim_372,dim_373,dim_374,dim_375,dim_376,dim_377,dim_378,dim_379,dim_380,dim_381,dim_382,dim_383,dim_384,dim_385,dim_386,dim_387,dim_388,dim_389,dim_390,dim_391,dim_392,dim_393,dim_394,dim_395,dim_396,dim_397,dim_398,dim_399,dim_400,dim_401,dim_402,dim_403,dim_404,dim_405,dim_406,dim_407,dim_408,dim_409,dim_410,dim_411,dim_412,dim_413,dim_414,dim_415,dim_416,dim_417,dim_418,dim_419,dim_420,dim_421,dim_422,dim_423,dim_424,dim_425,dim_426,dim_427,dim_428,dim_429,dim_430,dim_431,dim_432,dim_433,dim_434,dim_435,dim_436,dim_437,dim_438,dim_439,dim_440,dim_441,dim_442,dim_443,dim_444,dim_445,dim_446,dim_447,dim_448,dim_449,dim_450,dim_451,dim_452,dim_453,dim_454,dim_455,dim_456,dim_457,dim_458,dim_459,dim_460,dim_461,dim_462,dim_463,dim_464,dim_465,dim_466,dim_467,dim_468,dim_469,dim_470,dim_471,dim_472,dim_473,dim_474,dim_475,dim_476,dim_477,dim_478,dim_479,dim_480,dim_481,dim_482,dim_483,dim_484,dim_485,dim_486,dim_487,dim_488,dim_489,dim_490,dim_491,dim_492,dim_493,dim_494,dim_495,dim_496,dim_497,dim_498,dim_499,dim_500,dim_501,dim_502,dim_503,dim_504,dim_505,dim_506,dim_507,dim_508,dim_509,dim_510,dim_511
BAG,0.29171544,0.39760095,0.09577741,0.50913692,0.76000321,0.34834069,0.22233956,-0.79269260,0.13555793,0.47584471,0.37426192,0.43543929,0.11705062,0.09838127,0.47785249,0.29617772,0.49911833,0.21396920,0.16412252,0.25475889,0.44571215,0.29180142,0.47837743,0.31768388,0.20497811,0.35525298,0.21128602,0.35455906,0.49299568,0.54011363,0.19103934,0.21587129,0.48612005,0.43724912,0.34646556,0.47329947,0.15645456,0.31832683,0.21459414,0.18491837,0.51841748,0.23796780,0.36633953,0.22368090,0.39282537,0.35814700,0.28537136,0.40614247,0.32806808,0.38877884,0.40605742,0.00995943,0.30495241,0.06846508,0.44492280,0.29555631,0.22730485,0.25260282,0.44093227,0.34536222,0.40007028,0.16012622,0.47146273,-0.05493500,0.24806161,0.05008152,0.46325287,0.45999163,0.51489192,0.26095456,0.43081927,0.26929361,0.15033877,0.45337996,0.23865914,0.02116221,0.39436877,0.32031405,0.17039724,0.19779927,0.07202231,0.19259156,0.31498945,0.62475550,0.21390037,0.31977838,0.35915506,0.37143871,0.55952418,0.22250932,0.35674012,0.29357624,-1.42854738,0.61913770,0.09292603,0.39581978,0.48402870,0.62244916,0.31436542,0.35930055,0.48323107,0.38942796,0.59927964,0.23698720,0.47373220,0.46581516,0.35108173,0.22514385,0.35967183,0.30495179,0.47034103,0.95421457,0.20691234,0.87827456,0.22207357,0.11687049,0.23054458,0.57411778,0.21369672,0.13738132,0.36192802,0.59873122,0.24451137,0.55032527,0.52020526,0.14414135,0.23116258,0.24957749,0.50541896,0.51715714,0.47646990,0.55008423,0.15795438,7.57882118,0.40849447,0.34121689,0.17721859,-0.00329052,0.41067040,0.29906502,0.51596624,0.36310104,0.32334340,0.41679117,0.07648352,0.57592779,0.26153439,0.10827644,0.25630739,0.34911418,0.36983752,0.13183486,0.26007295,0.51329565,0.17201197,0.17179024,0.18301074,0.22401553,0.15762192,0.43965313,0.24552915,0.32008320,0.34012893,0.27051187,0.26709872,0.45959449,0.39840567,0.41064376,0.28108433,0.29839951,0.52048659,0.40616819,0.12779900,0.52011937,0.18695089,0.29516536,0.30946296,0.34099782,0.44990057,0.26820785,0.66736281,0.26332486,0.58038086,0.17748436,0.13447945,0.32197893,0.60498774,0.28863153,0.34906653,0.23318645,0.52810764,0.35432988,0.08521823,0.33023679,0.43941191,0.30048424,0.15900020,0.46591887,0.41705218,0.31071365,0.36275691,0.15770562,0.45195341,0.42287105,0.40803802,0.28146809,0.26461154,0.05401486,0.42377767,0.34921229,0.73026735,0.44926488,0.07488230,0.46099451,0.59129274,0.39547044,0.34006304,0.32364458,0.45589414,0.44938251,0.53768861,0.42767504,0.37623978,0.06851046,0.55471492,0.35725307,0.32723397,0.55330205,0.32945108,0.19978163,0.56269401,0.42885113,0.43014133,0.40509745,0.41985008,0.66540146,0.60541058,0.45640129,0.21965368,0.26692984,0.31947884,0.51148295,0.30720520,0.31433502,0.15904997,0.45060372,0.31514108,0.30996454,0.37948179,0.25083515,0.25933474,0.38457581,0.37102437,0.36492336,0.15009746,0.48946476,0.32982463,0.16414127,0.37290889,0.29678822,0.44715601,0.16082813,0.32712835,0.35245422,0.42378375,0.24111824,0.34770346,0.25609958,0.21589434,0.16217208,0.59440196,0.15414967,0.22315380,0.19325203,0.22646663,0.48139405,0.22258383,0.26883516,0.21611546,0.32474017,0.51521420,0.24585876,0.52573651,0.23657957,0.28357384,0.67740005,0.44276747,0.28559816,0.43100390,0.14092892,0.70858413,0.50724310,0.41039783,0.26002088,0.21850729,0.17230925,0.29577577,0.48441705,0.35561636,0.31603029,0.41100207,0.18036716,0.18422022,0.25903907,0.40410310,0.59871751,0.19996345,0.34488434,0.21369880,0.30551130,0.07791108,0.45019829,7.57624674,0.43936723,0.32906011,0.18805519,0.14036934,0.29623842,0.40755370,0.42803517,0.63964117,0.66600734,0.49838245,0.36466444,0.43481353,0.46521741,0.17837220,0.49173260,0.38487488,-1.99157476,0.82941175,0.43782744,0.46856463,0.31329712,0.52163494,0.40881485,0.42751503,0.43317991,0.32361728,0.10215784,0.55145806,0.29503968,0.50858206,0.31769168,0.15770316,0.31685737,0.37895143,0.59472275,0.49773860,0.24780852,0.29862663,0.20051008,0.42322665,0.34306943,0.11766070,0.39020962,0.51037037,0.52353102,0.27732199,0.50887716,0.38005286,0.24793851,0.29790893,0.31820649,0.41789687,0.03010170,0.33572575,0.47408271,0.16343129,0.39789081,0.09182490,0.24596146,0.28842172,0.39833227,0.24555507,0.34182706,0.30667493,0.31147772,0.44519073,0.17767768,-0.00470245,0.30239895,0.10146420,0.11960810,0.39860049,0.52454710,0.39410114,0.52860129,0.29301998,0.38008901,0.30609721,0.27764633,0.50157475,0.38160366,0.40101939,0.53603286,0.39196026,0.08110213,0.13909441,0.80310738,0.17541398,0.34443048,0.54285169,0.34610328,0.11726610,0.16565818,0.38450947,0.38246375,0.50184816,0.13938516,0.42673653,0.50502372,0.35614169,0.55183291,0.46371922,0.36437806,0.23913603,0.25688329,0.31260270,0.48186463,0.40421140,0.39396530,0.35686442,0.53958750,0.32515091,0.51757717,0.18836147,0.14558516,0.37271228,0.35438949,0.43455833,0.27368888,0.48758996,0.28101289,0.38482022,0.19761592,0.14269908,0.32305279,0.29014641,0.19063582,0.13888013,0.28170681,0.28753376,0.27923679,0.47021005,0.02764523,0.14885929,0.04552563,0.37124020,0.48456603,0.16860868,0.43272084,0.50794721,0.65250260,0.53515095,0.41611540,0.39915559,0.21216358,0.30680484,0.29881933,0.38582024,0.37919611,0.30794641,0.51432467,0.67981637,0.42202663,0.51905710,0.19225760,0.15812431,0.11878806,0.34541488,0.11717566,0.13434468,0.16584101,0.32758656,0.43214589,0.24817875,0.31819487,0.71832621,0.58744335,0.52398199,-0.22359100,0.25643772,0.06221658,0.40977678,0.42003116,0.50037253,0.56935245,0.35462749,0.20222557,0.41662744,0.30532539,0.25937918,0.82679433,0.31357002,0.37595341,0.73873508,0.31472161,0.29024488,0.37405759,0.22341293,0.10571641,0.46051931,0.51782274,0.40523437,0.47710353,0.30783734,0.10636834,0.20707873,0.29441857,0.29947424,0.31333023
CLOUDS,0.18968117,0.35251451,0.10350896,0.46897766,0.41452271,0.41074690,0.05885229,0.29532188,0.23738730,0.49308524,0.40546861,0.53328902,0.18811007,0.04203478,0.16004777,0.66932809,0.27624840,0.29564482,0.13616812,0.36209407,0.58914769,0.26669699,0.35381591,0.33248389,0.34589267,0.42884982,0.24681862,0.51636785,0.09487452,0.26657963,0.46140254,0.30986232,0.33482236,0.37269637,0.17943437,0.42912534,0.29298282,0.29159173,0.66688347,0.17952132,0.58119732,0.12900034,0.65254855,0.42368895,0.56531680,0.42232028,0.12793306,0.23927642,0.50651997,0.25370693,0.35485855,0.17001730,0.20296958,0.11066148,0.12123892,0.27529174,0.07550315,0.26178598,0.18950832,0.26982754,0.23487233,0.24606957,0.48583826,0.01153997,0.21128425,0.18799238,0.37073573,0.33795920,0.18644829,0.16884327,0.61152220,0.09137586,0.25696602,0.51742619,0.34261984,0.12289213,0.44032541,0.03706452,0.03747093,0.15231848,0.37267861,0.39832613,0.26399535,0.44357973,0.75241941,0.46909714,0.11673556,0.19244182,0.52387446,0.34745267,0.14415886,0.61021519,-1.29642463,0.33924443,0.39832300,0.45331645,0.25552464,0.57018340,0.29487938,-0.19837047,0.26349926,0.24436714,0.47321838,0.28245342,0.09505901,0.16974850,0.23652726,0.31981009,0.00426298,0.19699839,0.63036865,0.63858545,0.40502137,0.21306428,0.35324121,0.44271654,0.11202763,0.47575524,0.21962363,0.23870063,0.52143484,0.00494467,0.34543234,0.06438920,0.54931939,0.11976176,0.24295206,0.33222955,0.41983449,0.56972939,0.21139164,0.39864028,0.26439109,8.02845669,0.31264761,0.34158719,-0.02329978,0.12112579,0.49373943,0.38131091,0.25847521,0.26542729,0.59303498,0.44781953,0.12270448,0.43128058,0.21064624,0.35546577,0.28063360,0.27903414,0.34482044,0.14926195,0.31414244,0.44274217,0.10603970,0.28817290,0.27591047,0.44684798,0.20475920,0.30923358,0.37620872,0.39848509,0.17389584,0.19675697,0.31814981,0.51581395,0.47383323,0.72625387,0.37188971,0.17274725,0.42395934,0.37202293,0.16734621,0.15513913,0.22739571,0.22559899,-0.07182167,0.32014504,0.16711845,0.25539434,0.49800980,0.24897344,0.13021985,0.04998785,0.25133568,0.31431940,0.48912555,0.56978673,0.26959693,0.08706433,0.25893378,0.16104668,0.16470963,0.14216891,0.41984791,0.55247051,0.22415334,0.24183407,0.34096965,0.05954529,0.35597205,0.33353147,0.18734407,0.68464994,0.59413159,-0.02972782,0.49504891,0.12395176,0.20047560,0.52034384,0.38748881,0.52717215,0.06829435,0.34743261,0.32186028,0.33891219,0.05004849,0.33484286,0.40395612,0.10154153,0.13241655,-0.05277297,0.25368387,0.13322273,0.22017288,0.39393014,0.54398674,0.29446447,0.37128130,0.15485655,0.39185327,0.20946923,0.28795439,0.22317287,0.57168365,0.56289250,0.21635257,0.27244192,0.32084641,0.07568088,0.37109935,0.60315937,0.26482853,0.26873276,0.15802279,0.64367115,0.32418299,0.28978035,0.35233721,0.22950490,0.27378577,0.23186174,0.21048319,0.42182145,0.10070774,0.66052592,0.22704549,0.21453896,0.25200939,0.50673425,0.61137211,0.44081894,-0.05480735,0.36435127,0.22714895,0.32083336,0.43048230,0.34443933,0.09109066,0.20339483,0.55715501,0.27970180,0.41044691,0.15048046,0.36955374,0.21868423,0.23209037,0.33050174,0.57969117,0.39417702,0.35661143,0.14965877,0.34759074,0.22709259,0.13517661,0.34441298,0.32548159,0.39620614,0.21890748,0.07204942,0.29636335,0.23677444,0.33221257,0.17269501,0.11760563,0.16818663,0.35728714,0.39017463,0.40123323,0.16452934,0.34928730,0.38279614,0.16546588,0.38157085,0.32012245,0.63480073,0.21256210,0.28927317,0.33011159,0.30022314,0.20832047,0.19914421,8.02071857,0.19731393,0.10031077,0.26659420,0.21757719,0.36272320,0.51700854,0.18663886,0.45441654,0.66853178,0.88109982,0.44986147,0.31335375,0.24963766,0.25100088,0.24636067,0.18016012,-1.38374233,0.17600650,0.43559921,0.37287784,0.29167247,0.26115459,0.39217949,0.41968721,0.21921277,0.21509749,0.21261233,0.24286501,0.17805539,0.49162662,0.36973956,0.31077960,0.31631964,0.48263651,0.41741323,0.32766724,0.32925445,0.10539876,0.24646430,0.28874701,0.24648233,0.13052770,0.39318150,0.62319493,0.12629965,0.25522512,0.49413198,0.30167669,0.39658740,0.45748401,0.28825113,0.42836881,-0.07861479,0.26667589,0.46657443,0.37242454,0.41477734,0.33804506,0.39630821,0.29212174,0.52778649,0.02927411,0.29572794,0.11166086,0.42585322,0.18290043,0.35017055,0.02654208,0.27491957,0.17944944,0.14525069,0.40456682,0.29451972,0.29110014,0.30801055,0.30769801,0.27715284,0.50232410,0.26979649,0.15509461,0.14830729,0.28017879,0.45381942,0.08835472,0.19431220,0.31233257,0.78819466,0.36764887,0.27335960,0.22822349,0.29247361,0.26477289,0.32293975,0.29634774,0.15995824,0.34322068,0.14605260,0.60274553,0.32026392,0.39486057,0.44862735,0.42128205,0.25723410,-0.00135306,-0.11014254,0.31972668,0.49559763,0.34063312,0.50102955,0.34978354,0.26974866,0.26788568,0.27675653,0.03147917,0.31917995,0.34682381,0.40373307,0.27564913,0.16344194,0.20709616,0.33652490,0.45531374,0.49722272,0.22549145,0.39436615,0.38475817,0.46487159,0.06133348,0.18292353,0.29024836,-0.01152192,0.32192516,0.31173304,0.21665268,0.12094232,0.09767585,0.25814897,0.48229092,0.49986246,0.26263174,0.41748333,0.34613937,0.32737249,0.36233547,0.27913445,0.17713383,0.03137029,0.30131409,0.43114492,0.16868770,0.27841309,0.48944598,0.25954777,0.51188517,0.09945936,0.12498353,0.25007612,0.30929336,0.38617292,0.28015727,0.15105155,0.22873966,0.43999064,0.33653319,0.31181484,0.26791140,0.40855080,0.51254594,-0.30094466,0.25824571,0.28520733,0.31351718,0.23779353,0.47774553,0.11284086,0.48906982,0.33822918,0.33115703,0.31197861,0.42322436,1.04409409,0.43736029,0.59306806,0.48460680,0.27695978,0.19699576,0.24403189,0.24418372,0.25762111,0.37673831,0.41900390,0.59966201,0.14165045,0.12021276,0.02251073,0.02823985,0.19667773,0.13251284,0.06614698
DRAGONFLY,0.26350564,0.22415742,0.11779726,0.52851433,0.16387200,0.13588524,0.26353171,-0.40257192,0.18667401,0.46152425,0.56417638,0.75554776,0.37105334,0.13451880,0.43138763,0.41272092,0.35519946,0.15303791,0.18784145,0.31921539,0.59794617,0.38972670,0.50309360,0.82021040,0.26621091,0.38835445,0.06346575,0.32574940,0.16925442,0.34898448,0.24849781,0.19716230,0.45550853,0.48851553,0.15979978,0.41895062,0.49524325,0.27955532,0.20988877,0.03576137,0.48742312,0.16496859,0.38203853,0.20808230,0.28882834,0.40870073,0.23086962,0.27979934,0.35228133,0.34330082,0.18632743,0.37883919,0.17136835,0.15083182,0.55875564,0.29612792,0.27734634,0.29156533,0.20490065,0.52510107,0.30345976,0.18002166,0.26345676,0.04969148,0.36934045,-0.02426398,0.10969687,0.52035618,0.45765871,0.27311984,0.37294778,-0.02343498,0.32859495,0.71431971,0.20940942,0.16903470,0.31255725,0.18956211,0.08983572,0.17507567,0.30241230,0.43696132,0.43719175,0.59141529,0.11223368,0.19023493,0.20367117,0.06019834,0.59302127,0.28595591,0.17173266,0.55289561,-1.27638853,0.75159538,0.18032335,0.36064759,0.34989807,0.52542543,0.40887275,-0.00893313,0.41054589,0.35159516,0.54025239,0.08602872,0.27541953,0.14177690,0.58373791,0.45382744,0.30691457,0.42114350,0.50538057,0.83912897,0.32594973,0.21008009,0.22068106,0.19814165,0.02170503,0.52385682,0.31302881,0.35269386,0.50420308,0.22974101,0.16080917,0.41071737,0.36899087,0.28515840,0.30946037,0.11911557,0.46858048,0.49065191,0.34802347,0.44181424,0.21546838,8.11844254,0.45416862,0.39403379,0.13107213,0.09709292,0.36396575,0.38138863,0.39688417,0.75267053,0.31963593,0.27545077,0.05030173,0.40830663,0.16461354,0.21380980,0.39873326,0.43595633,0.27030215,0.27200744,0.16530949,0.51807308,0.22647399,0.34032750,0.43998224,0.23487744,0.38401005,0.18868406,0.19792402,0.37583292,0.33616102,0.24410880,0.30169427,0.22750995,0.29719359,0.23789576,0.28980339,0.16052648,0.34689841,0.27518320,0.28779340,0.24043849,0.44581929,0.16974330,0.09311146,0.28812522,0.09824485,0.10342839,0.46890450,0.56214982,0.08104828,0.68918103,0.30605039,0.17937320,0.50086713,0.23914570,0.31655845,0.03690359,0.21081695,0.28775895,0.06327230,0.24211362,0.43344468,0.30692509,0.16302758,0.54352307,0.38965118,0.20756663,0.15772896,0.23072676,0.52476007,0.42127320,0.26478714,-0.02673977,0.32060847,0.08289544,0.25735956,0.30145705,0.43778148,0.33823550,0.36641207,0.45483214,0.34953278,0.14964861,0.16187680,0.20147991,0.10846396,0.26990348,0.23245168,0.15621521,0.12569879,0.23287304,0.51203746,0.46065533,0.50690889,0.44645774,0.36202911,0.29670790,0.33515286,0.23501967,0.38665846,0.15371951,0.41183156,0.54481441,0.54761374,0.26550770,0.22350414,0.47138035,0.19584349,0.20517015,0.37285697,0.24078090,0.10277902,0.20122661,0.11322795,0.44379807,0.33016023,0.24920803,0.06718127,0.32946169,0.41658741,0.38887632,0.08965469,0.29709795,0.47794694,0.31680170,0.40761417,0.22288385,0.15533184,0.26492113,-0.01492207,0.06360216,0.34910884,0.19549096,0.47786891,0.30158198,0.13576512,0.30975387,0.49021810,0.31409433,0.24561830,0.31220269,0.26226425,0.36229861,0.03720275,0.23681188,0.18803988,0.31549305,0.46905273,0.30085772,0.42527100,0.05957845,0.20193565,0.34883791,0.51692510,0.18064426,0.20380586,0.19161202,0.20320624,0.25244766,0.38478583,0.48012576,0.21424958,0.09671442,0.53526163,0.39125419,0.35569087,0.59383017,0.35343489,0.09798459,0.23361279,0.28683710,0.20251431,0.67931962,0.27851731,0.36837187,0.23465909,0.23310383,0.25815332,0.12483235,8.11034107,0.36169657,0.31930855,0.11760939,0.33516160,0.19434807,0.34636942,0.49247587,0.48067582,0.66492856,0.25669470,0.25495967,0.38755590,0.40249413,0.24213836,0.17648403,0.42573294,-1.59181321,0.18841894,0.45924729,0.30346474,0.53534651,0.35030171,0.36775231,0.30481783,0.31510335,0.25684178,0.14800492,0.21852128,0.10248950,0.57134044,0.40307173,0.42738247,0.21601498,0.41016653,0.37807649,0.23892304,0.41709924,0.24720104,0.06631546,0.32741493,0.49987882,0.14292957,0.42196357,0.48727536,0.08532606,0.48930004,0.50797576,0.57485485,0.25294042,0.40815115,0.53517199,0.28552383,0.16045395,0.26075697,0.69012767,0.22322856,0.26111671,0.27099425,0.32355756,0.18602113,0.41472340,0.17768334,0.35067314,0.03627761,0.19105968,0.46952167,0.33939856,0.11782029,0.19571823,0.14569297,0.24927354,0.44138840,0.26014373,0.31098467,0.32226384,0.28995252,0.32366630,0.43798700,0.29112661,0.23347844,0.55718541,0.35045588,0.54861093,0.27438620,0.14587826,0.14844826,0.62680823,0.33435100,0.31717280,0.38624486,0.60126472,0.08898406,0.21524918,0.37470376,0.29366720,0.48850483,0.12540755,0.57820165,0.25136587,0.35774916,0.50092387,0.35710734,0.31896442,0.29832023,0.24939887,0.35426515,0.57234085,0.60715115,0.55752182,0.21517330,0.27905706,0.31019682,0.21324295,0.05909152,0.40088511,0.33384365,0.36413112,0.35663962,0.38579977,0.33373728,0.31678519,0.46433800,0.38407475,0.36053556,0.41359866,0.24821885,0.05161302,0.37472773,0.17017353,0.33169001,0.12232699,0.35129517,0.32822570,0.43537134,0.15475214,0.32680088,0.34193650,0.17619443,0.36446971,0.32288122,0.49888110,0.26039624,0.23322386,0.46803278,0.29275864,0.31859761,0.19524503,0.27480024,0.23579827,0.64328951,0.48247015,0.38267669,0.22497211,0.44325477,0.21599713,0.46960530,0.26385209,0.41381755,0.29276145,0.28699487,0.19425133,0.28670257,0.23992382,0.39876473,0.44157612,0.19728303,0.21400288,0.58639014,-0.23574586,0.22884509,0.21704371,0.46499756,0.23688424,0.43943670,0.46044171,0.20334601,0.27948266,0.23446158,0.37017232,0.25017494,0.80013114,0.24238431,0.25432622,0.33451760,0.21881346,0.25865853,0.31393847,0.34610221,0.27890930,0.29595956,0.46403494,0.51777548,0.34462291,0.24180980,0.19429898,0.17238487,0.36301443,0.35366151,0.06455857
EARTH,0.45030385,0.44305542,0.35582566,0.23105259,0.17416513,0.25124598,0.12518787,-0.61266756,0.25847018,0.56352490,0.62794292,0.42894894,0.35131651,0.13301000,0.46360776,0.37917671,0.36814135,0.36240837,0.03227819,0.50274545,0.75387955,0.28750154,0.63364029,0.31283551,0.27117109,0.38522843,0.17406988,0.32648912,0.19315690,0.39842331,0.46410567,0.17398275,0.11250824,0.47912094,0.34122685,0.50187492,0.38303500,0.41476563,0.35118967,0.08795020,0.22543913,0.24111089,0.32672995,0.26806083,0.28809461,0.44616023,0.41317356,0.34158334,0.53184068,0.55683213,0.29260406,0.15714374,0.26816636,0.20241408,0.26231119,0.39002323,0.18835218,0.41084695,0.20670842,0.38241342,0.29482403,0.13032171,0.32416633,0.11518090,0.29785877,-0.01243159,0.28111973,0.22582269,0.15910953,0.12576711,0.59596777,0.20039947,0.45077974,0.34703636,0.35049531,0.13376547,0.50969464,0.29197973,0.11996630,0.01448147,0.29679909,0.47578451,0.42774564,0.65248007,0.34865427,0.41121846,0.29484230,0.20953041,0.41962719,0.43140861,0.27573848,0.39313191,-1.44873524,0.59863555,0.14418098,0.30915532,0.51695102,0.47871822,0.25060460,0.04616071,0.56478298,0.45418170,0.60929573,0.10791191,0.27343065,0.24954802,0.56879318,0.36549935,0.35094738,0.32729948,0.50569260,0.63504291,0.19919300,0.58252764,0.26346850,0.11039655,0.36086106,0.49291569,0.21484889,0.11095872,0.49385071,0.01304005,0.20104079,0.36772811,0.43528458,0.12126885,0.43881238,0.42581436,0.50462943,0.64285755,0.49821609,0.57370114,0.25613180,8.64844799,0.44425634,0.48759004,0.14016883,0.12360784,0.61897326,0.20705701,0.23906511,0.23335782,0.43188083,0.29697609,-0.04207964,0.42283440,0.19450578,0.37604603,0.16320534,0.21180047,0.40767935,0.26577044,0.56746060,0.49914119,0.33825868,0.25215745,0.26136240,0.46041685,0.21248960,0.58769906,0.25763839,0.19237044,0.19740051,0.22544128,0.45769665,0.45531797,0.22378321,0.39097866,0.36283702,0.34017134,0.34806603,0.29216170,0.33583516,0.31796619,0.20943014,0.67896914,0.04251285,0.39457515,0.30852598,0.26187795,0.52243453,0.32240933,0.37751675,0.24639407,0.24870116,0.29828101,0.47970700,0.38835073,0.26297367,0.17769584,0.36181974,0.30180785,0.24348865,0.56008875,0.07728389,0.44820392,0.16568735,0.39403754,0.48514691,0.23082314,0.42973959,0.22032292,0.39408460,0.40993500,0.43138385,0.26000378,0.22496963,0.24673021,0.30346450,0.40685999,0.75114852,0.57669723,0.67515409,0.30584204,0.45997304,0.36395788,0.16691767,0.59051615,0.26193446,0.14109416,0.48594189,0.18261927,0.27916873,0.33095807,0.37537152,0.14413914,0.41569930,0.37102184,0.63626587,0.24862361,0.40832514,0.36477751,0.35694036,0.10219042,0.56048727,0.70097089,0.81791365,0.49466488,0.30687949,0.02516820,0.65374154,0.51831400,0.49596953,0.20975180,0.35189852,0.41192812,0.23267391,0.57435864,0.30345583,0.21336451,0.23041968,0.22407103,0.43934295,0.48389858,0.32769063,0.48133942,0.29139906,0.25414008,0.43162653,0.59535909,0.51961946,0.33817047,0.27050787,0.60360426,0.50146723,0.37968999,0.35451654,0.26098859,0.33735698,0.25525743,0.45134053,0.17491691,0.50014734,0.18704537,0.35825843,0.40611112,0.33403158,0.37753287,0.45619613,0.28731132,0.60678607,0.34187838,0.41034278,0.44671223,0.17691341,0.29976815,0.33998391,0.20008497,0.13899934,0.10940295,0.51178062,0.17782849,0.37372586,0.41065651,0.37525582,0.22563940,0.34395552,0.29440108,0.33766863,0.39051673,0.40462071,0.27570680,0.07561891,0.31997630,0.20971477,0.49322492,0.23689371,0.24976641,0.27282667,0.52931511,0.37289879,0.27324611,8.64289856,0.50764668,0.42159513,0.40219775,0.26750350,0.50747973,0.48455876,0.54623353,0.45230770,0.64149308,0.62187386,0.47590566,0.35839990,0.40604028,0.29511049,0.31572908,0.36803526,-1.90774667,0.28350672,0.46900260,0.33243251,0.20853716,0.26186046,0.33455262,0.48618895,0.55177075,0.43632570,0.20661548,0.11806201,0.41523188,0.35709998,0.38950714,0.18504296,0.34996840,0.28645051,0.47343197,0.23809582,0.39424753,0.35778171,0.19686097,0.17187008,0.25557297,0.19254446,0.66799736,0.09906206,0.25111100,0.62053394,0.46459743,0.50372183,0.22618920,0.41562098,0.28819025,0.43109110,0.02420475,0.27933607,0.64024061,0.27661204,0.23045458,0.38588902,0.45518425,0.32094142,0.54665321,0.20482126,0.57108110,0.35950136,0.35959908,0.24323761,0.43987575,0.33579326,0.27665937,0.44357985,0.15560256,0.53571600,0.39426267,0.40996873,0.24406505,0.33441073,0.27573729,0.20874438,0.32289046,0.42146888,0.23571208,0.41043186,0.47960156,0.26318476,0.11819693,0.24899891,0.85357946,0.44175449,0.25621107,0.51636076,0.46057945,0.07774347,0.27398020,0.40639877,0.35059837,0.27943364,0.16722032,0.67279065,0.33220792,0.36831471,0.38815624,0.50564778,0.34754300,0.21929164,0.15587781,0.48577911,0.41239572,0.33299038,0.24757680,0.24237648,0.53970331,0.49196821,0.28074634,0.22886500,0.29880738,0.44270992,0.51683193,0.34576920,0.17257904,0.33012778,0.21252233,0.42800921,0.23760855,0.29628283,0.44186264,0.22114369,0.48183322,0.26014876,0.38805479,0.44095361,0.33742258,0.33975813,0.36243194,0.26792634,0.08935043,0.36998898,0.37618941,0.07982162,0.42289519,0.34229356,0.34102699,0.28464440,0.36310706,0.51977414,0.31557661,0.36150461,0.08935473,0.41641146,0.34030628,0.33434978,0.23703223,0.56184286,0.43332410,0.48451671,0.41125545,0.36177820,0.28755859,0.55328178,0.13356209,0.27344763,0.14241748,0.44607842,0.33113566,0.28487843,0.37814134,0.53080255,0.54519403,0.50997174,-0.16325973,0.39859289,0.36914831,0.33862889,0.29474279,0.38935512,0.46183974,0.27598628,0.46471721,0.55968380,0.35070315,0.35206166,0.86611915,0.39062750,0.36897802,0.58155787,0.23604302,0.36854199,0.39394343,0.15375970,0.14404972,0.47605491,0.55713296,0.58971065,0.25892377,0.26045373,0.28494120,0.20598987,-0.00277519,0.21748766,0.32128662
FEATHER,0.23121944,0.28035149,0.33788061,0.37862471,0.20726113,0.10958622,0.11681735,-0.52615714,0.04566234,0.47679615,0.26717156,0.32269877,0.39735287,0.34454778,0.40187955,0.45042631,0.42805824,0.31449580,0.10728155,0.27927348,0.54609460,0.33048111,0.24569742,0.64954174,0.21224749,0.53399068,0.30230507,0.40671238,0.17411968,0.38389316,0.62491226,0.44113582,0.36774373,0.50573540,0.19453682,0.48832345,0.41315520,0.38510695,0.30186653,0.13055471,0.30743217,0.43861294,0.30238515,0.28156373,0.58112001,0.45335430,0.51320809,0.15823351,0.44278610,0.39625373,0.16045146,0.09688718,0.38613266,0.16356549,0.36457226,0.52867866,0.18326823,0.54652238,0.08629285,0.44559062,0.46433946,0.19073758,0.30369949,0.23934294,0.15208027,0.02866112,0.22954954,0.14893833,0.34030280,0.36514461,0.30816281,0.18525916,0.24910004,0.60193706,0.26515353,0.17051432,0.65495503,0.45914024,0.43617225,0.07768427,0.26335657,0.34921426,0.33250904,0.50572664,0.23379326,0.34885332,0.02606229,0.07307793,0.62249172,0.37834394,0.33526736,0.37554529,-1.42380476,0.74942625,0.31254861,0.36501032,0.38376963,0.41147250,0.16998518,0.30666509,0.68048924,0.29990956,0.59110492,0.08789884,0.21502496,0.30688310,0.41566306,0.36365429,0.41440606,0.29097831,0.46250898,0.59956998,0.30061474,0.47912887,0.33847970,0.18776721,0.23656853,0.56383634,0.30566531,0.47303671,0.39528257,0.21729261,0.60883367,0.45508954,0.39323303,0.19088060,0.63817590,0.29829711,0.30922583,0.51837867,0.66287857,0.48574755,0.09691373,7.71605635,0.50800270,0.41217858,0.23925319,0.23250112,0.53952408,0.44203115,0.51738358,0.32844481,0.57009304,0.35706472,0.05479132,0.50690866,0.31439531,0.31310076,0.17168574,0.16037582,0.40038615,0.14049667,0.26270914,0.50413352,0.34730509,0.22347702,0.53602278,0.45778984,0.35159439,0.36940679,0.15261616,0.35572940,0.38260812,0.11752993,0.37982169,0.32930368,0.58920914,0.45695877,0.58843809,0.26422155,0.41443086,0.71246642,0.26407900,0.13266861,0.21257192,0.48147288,0.25008255,0.67106247,0.14653215,0.15868986,0.54851955,0.28949553,0.26761094,0.34145874,0.28655231,0.06016670,0.51496494,0.21601561,0.59898728,0.29569429,0.37143189,0.14806175,0.19279338,0.22748013,0.26272422,0.59331155,0.16449469,0.24344240,0.38389993,0.08948855,0.37286347,0.15602854,0.20884421,0.55050218,0.41956413,0.25737906,0.33028308,0.18318370,0.26303527,0.25494608,0.54183888,0.63059533,0.18309633,0.14836679,0.32526758,0.37964037,0.26257843,0.41213956,0.28828430,0.34583548,0.29675925,0.22502011,0.31150800,0.34042737,0.22157395,0.31162933,0.40146539,0.32626933,0.30474681,0.17711028,0.43279886,0.41337290,0.36040223,0.07514603,0.49700302,0.70871621,0.34613860,0.25806811,0.05891947,0.08546464,0.39697722,0.30310762,0.52214998,0.28175485,0.12756445,0.26795012,0.27235609,0.56268716,0.14335290,0.15458599,0.24347006,0.55125213,0.32560790,0.84433341,0.34979385,0.35209420,0.29323298,0.01010392,0.41324130,0.41957316,0.31637734,0.32284349,0.16391224,0.28749079,0.46616933,0.19789687,0.60767090,0.27329743,0.58326119,0.35562348,0.25087225,0.19864605,0.62810111,0.30242497,0.48975861,0.15045665,0.27446222,0.20394924,0.06953681,0.11833082,0.45518094,0.40493488,0.28363845,0.14821510,0.39654803,0.44930974,0.36856735,0.44202989,0.28822857,0.35729918,0.28596792,0.31207472,0.42096171,0.52688074,0.19520293,0.11268046,0.25786507,0.12331188,0.47200069,0.49754980,0.47660798,0.24394363,0.11192090,0.58092928,0.39718753,0.48630229,0.26887095,0.09936216,0.43779606,0.32780415,0.14159018,0.25081402,7.70794010,0.50988793,0.37147835,0.31318980,0.29596487,0.26612413,0.33235502,0.43150145,0.71437037,0.60654789,0.60302687,0.70420629,0.39911881,0.67760891,0.08610409,0.49922594,0.44556546,-1.94162321,0.23263939,0.50369930,0.17469770,0.30819014,0.44855064,0.42929438,0.68415684,0.25820661,0.48379350,0.28711307,0.33154756,0.12227274,0.26690903,0.27713674,0.11749884,0.40271720,0.39453334,0.48701376,0.23867704,0.36872840,0.32355413,0.38085449,0.22798721,0.38538742,0.31076786,0.28849623,0.29765093,0.08326443,0.24494138,0.64911073,0.38312650,0.22792384,0.39232212,0.43976876,0.13194437,0.03593141,0.17514746,0.47477391,0.34453171,0.32862616,0.16017868,0.46860510,0.21195555,0.30589575,0.15236624,0.45164758,0.18139321,0.18416950,0.09725310,0.37893906,0.35741782,0.22415835,0.49854246,0.15716502,0.62363714,0.20574585,0.31340021,0.36660814,0.13154112,0.24487117,0.34520617,0.16595690,0.27806607,0.71842378,0.31098631,0.51981014,0.31253991,0.26465937,0.10279274,0.70680273,0.20914666,0.24560690,0.60313076,0.56422716,0.08427264,0.13832659,0.49442536,0.29068327,0.35179996,0.21479130,0.42800036,0.32470316,0.35793546,0.43406531,0.36500621,0.42623106,0.30377892,0.25237614,0.41958505,0.34255981,0.50371951,0.34026062,0.30191129,0.40892196,0.47703791,0.37565702,0.17033306,0.21241391,0.30515882,0.32050955,0.30846825,0.17096356,0.42158371,0.38128707,0.55751014,0.44633958,0.23588023,0.30751503,0.46603894,0.33265808,-0.00861678,0.37848926,0.14065729,0.18913577,0.40539721,0.48163712,0.22254010,0.17768627,0.28574944,0.41301712,0.14144370,0.25157046,0.56635547,0.52686179,0.23318785,0.29008314,0.38686937,0.42353737,0.36998063,0.14065459,0.26772514,0.38606313,0.42492315,0.25222057,0.40316406,0.22006765,0.48835325,0.19893137,0.13400549,0.24791412,0.24124791,0.14821501,0.61299932,0.11874808,0.34443113,0.67985582,0.45811999,0.58769250,0.38740021,0.50298434,0.46343794,-0.15136218,0.45228314,0.38174734,0.23863895,0.19444327,0.38720205,0.27173054,0.28710365,0.43019781,0.50373173,0.44142431,0.31782636,0.86523873,0.28119496,0.27332318,0.63024271,0.29565009,0.13833915,0.30487004,0.17387459,0.23378484,0.38690835,0.41701931,0.50971889,0.11843860,0.50910246,0.21314201,0.18233743,0.09375817,0.13679516,0.45740762
HORSE TRACK,0.20604007,0.11181151,0.19518775,0.39777303,0.10524687,0.23165491,0.24069774,-0.97663563,0.27560121,0.48413214,0.40771177,0.21036494,0.12761945,0.12234194,0.31125429,0.30856851,0.46611327,0.10629709,0.19451758,0.10298797,0.60064960,0.23849849,0.24846813,0.48095843,0.24792698,0.33879271,0.19314583,0.39942068,0.29198995,0.44294888,0.32544312,0.16265631,0.15622504,0.25966215,0.24494889,0.57813692,0.33528876,0.39402470,0.42410856,0.29614407,0.43290779,0.25496346,0.44989952,0.34875503,0.59878755,0.39732161,0.00728292,0.20386893,0.53101999,0.25847983,0.30805394,0.21032929,0.27025625,0.56668317,0.17527179,0.34651738,0.33211842,0.20868236,0.16868386,0.14068499,0.44635808,0.24805798,0.54994869,0.13759062,0.41227323,0.14862806,0.21411154,0.41438755,0.30711553,0.26692218,0.32600766,0.11757844,0.26501802,0.73428392,0.25263759,0.19329575,0.39699033,0.43331105,0.12501383,0.02512428,0.38841182,0.09525020,0.41308883,0.64972579,0.15055960,0.47408986,0.24544075,0.36980686,0.46894902,0.31385234,0.35100275,0.58109707,-1.45476639,0.74239385,0.24524547,0.27926075,0.53709769,0.52687669,0.44405228,0.32324508,0.52343136,0.39270508,0.71090293,0.08784616,0.15854418,0.08264130,0.50906569,0.31661335,0.13002615,-0.00195312,0.50473917,0.60886884,0.16832577,0.44735670,0.33891293,0.12178958,0.11008833,0.49565983,0.32104486,0.29413867,0.22071925,0.12527475,0.20738669,0.31409672,0.44767505,0.09312656,0.63887018,0.25626364,0.35058624,0.67579222,0.50153410,0.68612683,0.18214142,7.54339170,0.27694064,0.37385669,0.16290390,0.08703860,0.74851948,0.19418721,0.52648664,0.41179720,0.16901679,0.42605305,0.11123813,0.33291882,0.25167352,0.21979722,0.07820094,0.39167610,0.37173861,0.01189871,0.27620089,0.58864200,0.20401692,0.40197048,0.25490981,0.51015323,0.28182098,0.33435580,-0.06326114,0.43520001,0.34212932,0.14244032,0.31950188,0.47661123,0.36808223,0.40003487,0.35613772,0.16932087,0.33828336,0.59907508,0.12846665,0.38181862,0.35964984,0.44618985,-0.01462229,0.43534148,0.43194854,0.27987832,0.32151872,0.42613459,0.34192666,0.20596716,0.14572679,0.22929589,0.60498774,0.37317786,0.35726297,0.18831363,0.45676789,0.56861722,0.26121074,0.23369287,-0.04218101,0.35036331,0.37361813,0.59560126,0.51562279,-0.00572161,0.33085984,0.28421807,0.35332045,0.28283137,0.35170388,0.09991700,0.24182847,0.00586100,0.13768944,0.34921229,0.67330939,0.44926488,0.24113315,0.51776636,0.21092550,0.30032820,0.26256856,0.33361796,0.22279625,0.12508169,0.10861328,0.25346172,0.44076934,0.21048868,0.72177863,0.22562265,0.32723397,0.29578200,0.10306381,0.25044012,0.37477687,0.20854756,0.20250779,0.21608110,0.39195469,0.61327237,0.46067053,0.29897726,0.07437807,0.23123839,0.40387213,0.33842313,0.16433896,0.32578838,0.22058658,0.40609142,0.20000860,0.16571224,0.16669074,0.28498361,0.15292382,0.54424036,0.33171019,0.30854693,0.18757464,0.37625262,0.52440178,0.10473362,0.50821942,0.37998822,0.29098916,0.34125245,0.19526333,0.50058579,0.16965009,0.32340401,0.33857509,0.19223589,0.12759818,0.23571199,0.27815717,0.22839518,0.53509420,0.23809664,0.43819484,0.21717334,0.19204059,0.29110861,0.27776837,0.25184393,0.48885605,0.22704224,0.50320679,0.19137278,0.29517296,0.48772299,0.47953060,0.16669500,0.13336343,0.32059523,0.40166491,0.37632230,0.41084141,0.44545069,0.33831266,0.20966733,0.27568242,0.08760235,0.20804322,0.31603029,0.35245815,0.18036716,0.09100199,0.36831570,0.14767769,0.77717263,0.61678731,0.57031155,0.42649442,0.50601834,0.31981462,0.36969805,7.53446150,0.17916092,0.03372050,0.27845201,0.23328812,0.68232268,0.37509248,0.55361629,0.60630214,0.71079552,0.35918278,0.27837786,0.31460398,0.23660097,0.15175009,0.39640507,0.25134373,-1.80899072,0.22201911,0.45125210,0.24703380,0.34892917,0.16023630,0.41633034,0.35443872,0.40474212,0.15779087,0.14037347,0.28222960,0.21330479,0.47660300,0.17866363,0.37755448,0.28243229,0.32125118,0.40755767,0.21175113,0.34730989,0.13370828,0.32952607,0.32321501,0.29923120,0.27333641,0.45128667,0.03655490,0.26425979,0.20748462,0.52565432,0.33159146,0.35544074,0.59295309,0.70118845,0.49247575,0.15921828,0.35537460,0.61269635,0.31652930,0.38704264,0.23174055,0.27121928,0.18413466,0.47588968,0.09436770,0.43429595,0.25964031,0.42114857,0.43653333,0.29243654,0.13755019,0.43678644,0.29011995,0.05857798,0.28177601,0.35164618,0.39410114,0.21889159,0.09100660,0.28464264,0.47575319,0.24329406,0.31035665,0.32562780,0.30198950,0.47893897,0.26504299,0.39915460,0.13846998,0.68654895,0.29031280,0.26159346,0.35484481,0.43347639,0.27025697,0.10839903,0.32753748,0.26580256,0.23564318,0.15961708,0.41868052,0.55913615,0.27270430,0.42801321,0.28978044,0.44268575,0.15870301,0.28771275,0.31280515,0.36883521,0.42696968,0.19648038,0.19122697,0.15190800,0.28890043,0.36909664,0.16614622,0.07492224,0.33330825,0.37421942,0.47358534,0.28508508,0.40602389,0.21138901,0.41165680,0.45170933,0.13834274,0.27774930,0.23208158,0.43129125,0.16958331,0.27826649,0.17060952,0.31410661,0.42753351,0.22158839,0.45732021,0.06682935,0.38991877,0.63216382,0.14345166,0.34790662,0.50794721,0.48097765,0.25794864,0.40874845,0.35464793,0.39674258,0.18529640,0.42783940,0.38582024,0.57195747,0.44542903,0.41554070,0.43754256,0.42952263,0.52063638,0.09032537,0.25412351,0.29729915,0.41965738,0.16313358,0.14894386,0.25862354,0.33115110,0.41874021,0.52809346,0.40477684,0.38541648,0.51944852,0.41299379,-0.22193830,0.35143411,0.28454414,0.37850827,0.32942507,0.27716199,0.30372721,0.33592850,0.12522316,0.39515755,0.44140723,0.38353685,0.78433859,0.12160573,0.37489420,0.38271165,0.21303269,0.16053738,0.29363245,0.07040787,0.14250511,0.33849978,0.58827806,0.56321251,0.22999358,0.42401940,0.26253900,0.24407101,0.59906393,0.32976249,0.32512668
HOUSE,0.31470299,0.26085883,0.16761658,0.35417509,0.36839774,0.09812684,0.23314860,-0.48476323,0.40386128,0.44513389,0.33561456,0.50713265,0.24088401,0.13546148,0.46335423,0.12981038,0.36000824,0.20905478,0.03747925,0.23091382,0.72931480,0.36141801,0.24133360,0.43433148,0.26761821,0.38228542,0.13962431,0.21016070,0.20655391,0.50987035,0.25444451,0.12772889,0.43847176,0.41004336,-0.10496847,0.32150528,0.63189673,0.25960732,0.31053084,0.20623776,0.36285186,0.32443830,0.36453509,0.30208069,0.28201416,0.33609429,-0.00276454,0.31763864,0.35145879,0.39367661,0.49207988,0.26750284,0.19470885,0.12319185,0.52964789,0.26061186,0.15902780,0.25983799,0.31121728,0.39941043,0.38437909,0.15379050,0.28276414,0.19098337,0.14601125,0.06492942,0.30678946,0.16486356,0.29325637,0.17536886,0.16986389,-0.02281576,0.19692767,0.35589266,0.24269763,0.16200235,0.34007505,0.23335668,0.18076281,0.11055575,0.25051248,0.04111090,0.22916190,0.61667037,0.33548743,0.24765435,0.20716836,0.12674019,0.34636268,0.26060897,0.48753068,0.31878227,-1.53271973,0.44037309,0.17553565,0.37479550,0.43770248,0.62575281,0.20853913,0.67365688,0.29253393,0.32654202,0.48547050,0.25718436,0.24262139,0.39270520,0.42207366,0.34671941,0.05524446,0.16768269,0.35704583,0.49436414,0.17494403,0.34615791,0.29096293,0.01997721,0.19605826,0.69072568,0.34915912,0.40223211,0.45907378,0.23315105,0.27272862,0.32844952,0.31837717,0.13180839,0.37426066,0.34853286,0.38216668,0.70847917,0.65284544,0.50109142,0.12035300,7.61407375,0.44969350,0.45874655,0.12604329,-0.00225250,0.19470935,0.29383227,0.41294956,0.27876791,0.38156351,0.31380883,0.04058349,0.38353321,0.29640123,0.20677009,0.33821934,0.05224695,0.14950146,0.18229979,0.28594708,0.54467970,0.16143309,0.15439020,0.18889078,0.46773374,0.07474891,0.37767544,0.05567141,0.31820995,0.38910753,0.05681293,0.14001618,0.25120229,0.26071554,0.26678336,0.49113292,0.22623567,0.49241775,0.39515924,0.34024879,0.40755057,0.09829389,0.25465950,-0.11921471,0.11695494,0.50878370,0.36905283,0.31645855,0.37818125,0.22836667,0.08194513,0.19491653,0.15527187,0.31375596,0.44332823,0.19899212,0.17220135,0.39629927,0.28102702,0.09569450,0.12891637,0.30154115,0.30300960,0.22708386,0.44658121,0.43199039,-0.07409784,0.35489839,0.24395669,0.23981626,0.44066110,0.42561138,0.26419914,0.32088909,0.22406444,0.23258440,0.06052711,0.66080290,0.41573629,0.21821676,0.48747978,0.32516691,0.37064022,0.32626829,0.15125850,0.36903274,0.30561721,0.09815741,0.31285530,0.24149269,0.29009905,0.43289354,0.43688852,0.49513835,0.40337002,-0.00124674,0.33604443,0.32890287,0.29612035,0.29479182,0.08639984,0.50712955,0.59880793,0.33943686,0.37066573,0.02312176,0.15392353,0.41775501,0.28887215,0.38144374,0.11874674,0.23231453,0.54115605,0.11880261,0.45044026,0.08787014,0.20777926,0.34599102,0.30540028,0.31243289,0.51378179,0.28841883,0.42025369,0.52489275,0.29459429,0.48178709,0.27597427,0.61666024,0.38440984,0.24249840,0.36403948,0.25156257,0.16979368,0.48466858,0.13602555,0.21826944,0.34945619,0.50509274,-0.08753455,0.56796992,0.12177552,0.40404674,0.39643103,0.13992079,0.30288324,0.19712660,0.29548341,0.45584306,0.26762336,0.34043595,0.25661474,0.27091616,0.40864262,0.46456385,0.21981385,0.30146551,0.14711264,0.37855893,0.27636021,0.28188103,0.39616305,0.09612592,0.05205587,0.43209061,0.23853870,0.27940094,0.29184097,0.21607527,0.00704063,0.09216005,0.28397316,0.12251502,0.41446713,0.31882298,0.18852898,0.41395533,0.29424077,0.37784624,0.32666320,7.60208035,0.25099039,0.36985761,0.38316542,0.33659446,0.42438897,0.41776535,1.03920031,0.57521236,0.70862174,0.56757730,0.29610494,0.37137613,0.30347961,0.22011855,0.28465199,0.20037454,-1.69368470,0.32803965,0.45028055,0.30678168,0.15017688,0.34573168,0.35799533,0.27147958,0.22548872,0.11848667,0.10659765,0.34824049,0.37395829,0.30831504,0.35935706,0.06110685,0.31202230,0.37306297,0.41049442,0.16953932,0.21903917,0.32232237,0.19852540,0.45047158,0.17068209,0.11046113,0.59982789,0.19527370,0.26105511,0.42839754,0.40968856,0.41282007,0.34990370,0.53319514,0.30214286,0.46285284,-0.02957350,0.23025297,0.70588958,0.30182594,0.42411986,0.38545740,0.11731395,0.04147906,0.23270543,0.18365331,0.58454382,0.59782624,0.23967180,0.04055008,0.27826485,0.26782870,0.32854727,0.22930825,0.30741549,0.41415074,0.19446129,0.30026841,0.20913467,0.29409939,0.16303705,0.33262986,0.34432364,0.26507601,0.40334830,0.40229344,0.45950508,0.20588024,0.10872401,0.15865196,0.63595521,0.37815213,0.34567991,0.18805261,0.35432005,-0.12025309,0.32589376,0.30091023,0.42149651,0.23684511,-0.05286869,0.44819465,0.34818032,0.42826518,0.46015522,0.21373507,0.22897255,0.24216054,0.41958597,0.36157531,0.44198048,0.38115132,0.56723201,0.03136858,0.46644181,0.57297182,0.16768283,0.07859704,0.11865270,0.29244536,0.14683178,0.28457564,0.14958403,0.28638721,0.22042581,0.07293446,0.61784953,0.14212251,0.23464754,0.12782121,0.41952351,0.05572104,0.10362086,0.31680319,0.24909827,0.23902893,0.23435788,0.27393505,0.05912403,0.40014762,0.52623504,0.13243054,0.22386645,0.48579535,0.57078934,0.27064601,0.42293793,0.45112318,0.20438147,0.35264647,0.44795564,0.47451463,0.44745094,0.37227494,0.35483757,0.34975225,0.27958405,0.46741533,0.12060615,0.10175839,0.17603883,0.41441217,0.06658550,0.34184438,0.25450027,0.37964451,0.22155704,0.40513051,0.51055998,0.47478923,0.36670354,0.49414939,0.01087785,0.56731403,0.12770522,0.49487433,0.27557665,0.40582097,0.36719343,0.40831703,0.19410767,0.17411664,0.25283876,0.41087565,0.78798324,0.19314244,0.11468232,0.44636089,0.17801553,0.07298473,0.52104235,0.21499045,0.21415627,0.36814135,0.48065227,0.23539795,0.20425481,0.35340643,0.10933569,0.13072276,-0.10247338,0.06700848,0.19157001
LIGHTNING,0.15114798,0.30226552,0.24715082,0.29742298,0.11833988,0.04719720,0.14461453,0.29532188,0.10430033,0.75009775,0.40546861,0.48738152,0.26701257,0.14947779,0.27667868,0.40758559,0.56213725,0.11799464,0.20674950,0.33162826,0.61639524,0.65464532,0.31079316,0.48777011,0.19267316,0.30040768,0.24911684,0.40706205,0.11142709,0.36731780,0.12555733,0.30986232,0.24710642,0.35033658,0.24494889,0.50993651,0.31871405,0.54947257,0.17982414,0.29614407,0.22739907,0.30966264,0.31784543,0.48977545,0.49583358,0.44645616,0.62146574,0.18266079,0.40408891,0.30501083,0.23063004,0.17001730,0.26300573,0.29322129,0.31574300,0.41128510,0.27240580,0.27022177,0.21176422,0.66288733,0.41859844,0.31226277,0.54994869,0.13641278,0.56530005,0.10327515,0.26636890,0.54381794,0.42897391,0.18696395,0.52399188,0.38806280,0.53068399,0.35563710,0.23536947,-0.06339421,0.60229969,0.24386877,0.28062487,0.15231848,0.23207170,0.28223166,0.41308883,0.52954102,0.43941364,0.29854664,0.28003293,0.26340342,0.34750003,0.22099945,0.19208436,0.49849087,-1.39497018,0.40956059,0.22705184,0.45331645,0.43185931,0.40523475,0.28651085,0.23890354,0.32227081,0.17086357,0.37617600,0.40547466,0.19046752,0.30574560,0.35504025,0.33156487,0.49631006,0.39645776,0.75946999,0.65732777,0.27845979,0.30972186,0.41302729,0.04351927,0.29621816,0.47263283,0.21962363,0.36687145,0.52448797,0.09189746,0.38272947,0.43393555,0.37256396,0.35729772,0.33792764,0.40889555,0.43063441,0.67579222,0.43033904,0.27142268,0.08585618,7.79002380,0.21006846,0.34158719,0.24375221,0.15141842,0.34019077,0.28302717,0.52648664,0.24491224,0.21720213,0.28038400,-0.02586609,0.43615341,0.25290865,0.21355039,0.20249055,0.21002920,0.26488653,0.25312454,0.23537371,0.42869371,0.28085023,0.28817290,0.35295764,0.29522189,0.10060383,0.33435580,0.67917037,0.28287888,0.35791391,0.29179054,0.11139293,0.40973771,0.33336478,0.18286136,0.32879126,0.41393915,0.32794470,0.51355350,0.37027001,0.14028797,0.22739571,0.34299311,-0.17760789,0.43534148,0.41606045,0.27097794,0.51550585,0.43443322,0.21670286,0.15434213,0.18745489,0.25639474,0.43069556,0.56978673,0.14548418,0.29432017,0.41740811,0.20064513,0.34625515,0.72357500,0.41984791,0.42210725,0.25189430,0.30583107,0.37697971,0.06392516,0.25343570,0.21673566,0.47410554,0.68464994,0.20707935,0.31095362,0.20555554,0.15689547,0.09275246,0.33584353,0.53922039,0.67859453,0.30203000,0.34122595,0.32182255,0.34037200,0.21811673,0.33484286,-0.02671713,0.18794060,0.05341381,0.07726724,0.07278745,0.31292993,0.32296813,0.22186458,0.37892535,0.39189067,0.29033393,0.33476555,0.37925327,0.31427196,0.32416436,0.05126191,0.69301641,0.61452579,0.25648391,0.29449439,0.17137901,0.07025906,0.38664165,0.70261586,0.13647096,0.10859199,0.09596957,0.29619431,0.42278886,0.27917939,0.35616148,0.37575901,0.27378577,0.47411716,0.39026672,0.49298748,0.11332032,0.42123473,0.37630421,0.16017649,0.33579448,0.40132999,0.30886254,0.44081894,0.19526333,0.03984974,0.28693387,0.26742223,0.47504818,0.34443933,0.13029477,0.30360594,0.55715501,0.21876712,0.49766481,0.41590753,0.59929800,0.24793994,0.28995374,0.33904421,0.44000179,0.37860689,0.31705117,0.27440879,0.31663781,0.34549442,0.53581113,0.48772299,0.44233385,0.32991716,0.13033731,0.24423632,0.18914180,0.29527557,0.37644303,0.27665222,-0.06636995,0.26562226,0.10255028,0.18982360,0.40118057,0.24650621,0.28696018,0.23420036,0.11997367,0.20955481,0.35518599,0.63480073,0.29772133,0.28790355,0.56158787,0.50601834,0.27289984,0.36969805,7.77849388,0.31815845,0.21019778,0.52402294,0.23328812,0.29253426,0.45463863,0.27553257,0.49715662,0.59521270,0.50893092,0.44986147,0.46255112,0.34767950,0.34437340,0.42991355,0.35147890,-1.96932733,0.35967442,0.38392287,0.19862631,0.29587466,0.51742649,0.40521431,0.34762827,0.50081027,0.30895087,0.15866767,0.35187376,0.23904446,0.18371494,0.36973956,0.29662922,0.17413454,0.08793025,0.30009082,0.14319383,0.38011190,0.24167921,0.26518366,0.07998662,0.16930370,0.18631798,0.56460762,0.62319493,0.28293216,0.56879723,0.49413198,0.51156616,0.22346765,0.45484507,0.38296849,0.25312299,0.12579030,0.22771230,0.42851013,0.38876429,0.24798106,0.40390438,0.45298386,0.18218622,0.59250987,0.15215385,0.46529478,0.18242067,0.39488342,0.23622042,0.54555774,0.24049586,0.23750825,0.24471222,0.12324996,0.36037460,0.29451972,0.28888911,0.24141318,0.20395395,0.23468292,0.35782915,0.41689900,0.17203414,0.54602808,0.32172859,0.42270571,0.39416066,0.16670305,0.30846798,0.94163609,0.05308005,0.39203942,0.36773345,0.33465302,0.18314290,0.29145095,0.35793182,0.25728783,0.28432637,0.24350330,0.53707039,0.30082116,0.30368865,0.43531558,0.28191948,0.24901228,0.31884059,0.26749778,0.34846735,0.36623374,0.32878041,0.50102955,0.38255373,0.31919596,0.39753643,0.27171108,0.15281022,0.31917995,0.43377441,0.37421942,0.24848439,0.20069012,0.23747128,0.30707994,0.57037377,0.57373333,0.43746191,0.29851314,0.12245106,0.43129125,0.42099315,0.26927784,0.39134338,0.31186718,0.26960209,0.21700408,0.29273862,-0.00036495,0.34663394,0.11660734,0.31832063,0.32612556,0.21760008,0.42258665,0.34613937,0.63509607,0.37372011,0.23140654,0.31429014,0.22648072,0.33626834,0.31770784,0.61007488,0.17990971,0.57137299,0.28406295,0.47921261,0.05984426,0.19878477,0.29778796,0.29670954,0.19560979,0.33165646,0.13213725,0.33837369,0.41874021,0.52809346,0.55977416,0.30168426,0.36215732,1.00329792,-0.47412646,0.40223217,0.74930084,0.15529850,0.28326023,0.35355851,0.27487001,0.43522567,0.07627003,0.25051951,0.35311782,0.36959532,1.05818903,0.15592839,0.42446890,0.45251787,0.34261054,0.16676135,0.23265913,0.37472039,0.30806553,0.53289491,0.47328123,0.34990430,0.31784278,0.29539385,0.19589597,-0.00057287,0.04406053,0.29251426,0.32440761
STAR,0.45030385,0.53227264,0.46232778,0.45383644,0.32762602,0.41551888,0.18747947,-0.24771811,0.11891846,0.40805182,0.62794292,0.56668758,0.24312475,0.45936501,0.32211539,0.47982672,0.54404163,0.14918150,0.09976880,0.48900253,0.55230820,0.43164456,0.25311011,0.23769423,0.18711992,0.52704638,0.15602769,0.33658686,0.28418627,0.39842331,0.22221386,0.13566339,0.23247951,0.41910845,0.22070518,0.53877133,0.37213457,0.51097554,0.35163918,0.16836403,0.16135141,0.16338828,0.27251294,0.30544770,0.47358817,0.30934834,0.41317356,0.32512087,0.46711987,0.61876094,0.80303639,0.29265147,0.26823437,0.30757540,0.31969690,0.34545210,0.21577963,0.60501099,0.25948685,0.20650730,0.34899107,0.27741501,0.26830718,0.18439111,0.33396131,0.09164096,0.14364110,0.22582269,0.25593758,0.16730553,0.39499041,0.37129617,0.19990194,0.44672665,0.31796101,0.24375856,0.31866100,0.48155969,0.23779067,0.10525566,0.29679909,0.18333897,0.34848267,0.58689421,0.10488367,0.37206906,0.33525324,0.01131564,0.41962719,0.43140861,0.13299729,0.39313191,-1.35640705,0.62528658,0.34658083,0.37789530,0.54969120,0.48892373,0.19272889,0.29302692,0.42422515,0.26097149,0.34514782,-0.08725607,0.11518018,0.30171543,0.52347833,0.61577070,0.09841105,0.48338735,0.60727167,0.60087413,0.32453775,0.12626538,0.19132027,0.39570850,0.12010667,0.52629459,0.43834576,0.50075614,0.43897867,0.16056518,0.26791382,0.44781554,0.43528458,0.43551809,0.34382313,0.19752689,0.32881227,0.61139661,0.41536927,0.44969642,0.05425448,7.67928505,0.44425634,0.18454075,0.19155085,0.18192157,0.34572527,0.43813580,0.41597044,0.25564229,0.17858964,0.33697614,0.14571913,0.48137939,0.56045020,0.34050071,0.23469332,0.16179669,0.23549986,0.61215353,0.32514215,0.63993454,0.26694834,0.15093237,0.29915720,0.20978656,0.04966021,0.32203299,0.40342480,0.23471181,0.45704585,0.23141624,0.24929143,0.18733865,0.15127350,0.10216742,0.43231612,0.34017134,0.20611435,0.21696755,0.32592624,0.47718480,0.32331222,0.58252627,-0.08163343,0.44349617,0.24068326,0.24509166,0.52243453,0.23077400,0.48083857,0.24639407,0.13278633,0.33611622,0.58100265,0.27674514,0.35660839,0.18540196,0.35360232,0.29511809,0.25555873,0.35438159,0.29726824,0.26157418,0.11111342,0.46204448,0.61819774,0.08870649,0.29764676,0.35986501,0.39523008,0.34343782,0.27541158,0.24119954,0.34092036,0.25478211,0.37005505,0.37312955,0.57092333,0.56177026,0.58714890,0.19920865,0.34077400,0.29078069,0.23783246,0.31311983,-0.05578103,0.13198206,0.10910149,0.16232125,0.08248939,0.22061253,0.37750694,0.36872202,0.29073709,0.48723429,0.28367245,0.20401481,0.31419006,0.31003043,0.41415679,0.21784271,0.56335902,0.65042192,0.81791365,0.24823286,0.22706251,0.11375649,0.43891519,0.74842763,0.60731292,0.26865178,0.07166192,0.41192812,0.10733627,0.37252107,0.22196519,0.36881793,0.24342898,0.30110431,0.27194911,0.33667162,0.27461791,0.28218740,0.16988832,0.32171103,0.38372394,0.42795166,0.31728631,0.30639604,0.41127655,0.08493780,0.25740975,0.24467781,0.32033998,0.25621969,0.22218792,0.14041825,0.44085559,0.48388740,0.42865252,0.18461546,0.46443504,0.52857208,0.28226811,0.42591614,0.51189804,0.59188920,0.70494187,0.23187748,0.42888403,0.66947603,0.32973620,0.39247182,0.39365005,0.21525066,0.30790997,0.08033991,0.51178062,0.29866233,0.38090622,0.34819180,0.18487713,0.50803971,0.40652487,0.23299733,0.48582661,0.50516665,0.40752417,0.34419945,0.11707264,0.43232787,0.18213065,0.46322480,0.18068293,0.37104982,0.41661045,0.24824826,0.31957209,0.33141166,7.66645336,0.35792530,0.33898625,0.45076743,0.26030055,0.26961252,0.41718918,0.85246098,0.69687545,0.68873948,0.55428112,0.26385224,0.27710244,0.60867262,0.27952906,0.42009744,0.65467721,-1.50209713,0.17116165,0.66408771,0.47653452,0.37321055,0.33040437,0.21803689,0.53955901,0.34362265,0.25713223,0.33276087,0.09355485,0.51595610,0.47373167,0.53247833,0.16701110,0.09820932,0.29856071,0.39438105,0.11536562,0.44694546,0.26258031,0.12278857,0.33695379,0.31408346,0.32651821,0.54247475,0.42047441,0.38409480,0.60166961,0.51879460,0.66601682,0.22476347,0.41562098,0.37353033,0.28278565,0.23244770,0.16859795,0.28209543,0.19061929,0.49298733,0.13228604,0.54186112,0.39076170,0.36238477,0.19156529,0.21029493,0.02395017,0.44706967,0.29512611,0.18279356,0.14331593,0.18030567,0.28065607,0.17757747,0.36205101,0.24725828,0.21320392,0.31605661,0.35728633,0.41147116,0.11767804,0.38983402,0.50348425,0.25702152,0.43792087,0.48670256,0.40686327,0.25232854,0.36845943,0.94684696,0.49309322,0.37301737,0.22318135,0.43646085,0.14217009,0.45941031,0.52459282,0.28156489,0.22140177,-0.00973348,0.66746199,0.35295337,0.45207858,0.62724072,0.45809075,0.28283632,0.19461124,0.11757709,0.33462629,0.41081941,0.72161174,0.55059934,0.32278091,0.16049162,0.47809827,0.26554751,0.23707186,0.36083168,0.34831649,0.40284446,0.29493594,0.19957399,0.19425666,0.22923130,0.27616802,0.45889875,0.41634059,0.37053353,0.14822109,0.46392891,0.15626614,0.10663436,0.18650886,0.42819548,0.63862991,0.37585407,0.26437563,0.09045629,0.24142417,0.43957308,0.56852895,0.42104238,0.37291378,0.27320829,0.22198227,0.32300889,0.30634183,0.20217662,0.33886772,-0.05474284,0.38904995,0.21809539,0.36805937,0.47330433,0.41163111,0.21877243,0.39296502,0.09371425,0.16755269,0.16862145,0.32664087,0.30231008,0.27680832,0.19933479,0.24200352,0.48702067,0.60458797,0.55944431,0.46378672,0.45793325,0.30101368,-0.02699372,0.66970003,0.29509974,0.45033750,0.05870681,0.34700131,0.28197807,0.38398838,0.20710687,0.47178787,0.53436118,0.39468437,0.68950695,0.40814242,0.38079375,0.39695185,0.27121347,0.12780671,0.24602373,0.36575288,0.14404972,0.38200939,0.46076530,0.28299314,0.35904938,0.27785331,0.20459341,0.14997336,0.25771698,0.24778569,0.31460491
THUNDER,0.24849480,0.17616136,0.16484094,0.35100347,0.51122332,0.12129736,0.24616699,-0.43838215,0.16441113,0.55316585,0.53232104,0.43515098,0.30728349,0.30211216,0.46199107,0.30723396,0.38307017,0.30715889,0.15924659,0.35980842,0.47727856,0.26178843,0.35083148,0.23082906,0.34589267,0.33184770,0.24911684,0.31384695,0.22846697,0.20032960,0.17215011,0.16834927,0.23022445,0.37608066,0.19076474,0.44158459,0.19996355,0.22435783,0.24881703,0.21307041,0.35404173,0.59432006,0.25249022,0.42368895,0.36983785,0.65089905,0.30263713,0.18878670,0.50651997,0.22122686,0.21777156,0.08439314,0.37849197,0.11574665,0.37700266,0.37504134,0.21717325,0.28978014,0.22342286,0.18916331,0.43527082,0.20296501,0.35951337,0.01153997,0.19476695,0.09069547,0.37073573,0.30715257,0.25952071,0.38124514,0.61152220,0.23675942,0.39976755,0.35278368,0.26439559,0.12822133,0.32145876,0.18991385,0.28062487,0.02878756,0.13688278,0.52880484,0.22696412,0.48067844,0.75241941,0.14373378,0.23225263,0.05282621,0.19352901,0.34745267,0.37412858,0.27100584,-1.46560025,0.50702608,0.39832300,0.23943262,0.25552464,0.32668728,0.18583390,0.12834656,0.17717174,0.27805412,0.37617600,0.40547466,0.15807098,0.28817722,0.37891990,0.17834876,0.44186130,0.43510413,0.51184487,1.14208150,0.17964444,0.28511655,0.31315833,0.26467773,0.30410963,0.79492337,0.04230601,0.33791429,0.79643863,-0.13262704,0.28656709,0.24348065,0.56122828,0.34226909,0.54119241,0.40889555,0.24954063,0.52955037,0.40171859,0.39864028,0.15136723,8.25083542,0.24817993,0.42514628,0.03515008,-0.02358715,0.49373943,0.38131091,0.29670888,0.33502600,0.19703457,0.41315633,-0.02708817,0.48460883,0.18368684,0.30025899,0.07340473,0.17289795,0.31769815,0.22811678,0.21463971,0.47797838,0.28487858,0.14870724,0.36568898,0.40190345,0.06797161,0.22672887,0.67917037,0.23050204,0.24222271,0.42344242,0.33838567,0.15674871,0.24648187,0.40425643,0.41020691,0.41393915,0.22864506,0.38562572,0.24491228,0.26440758,0.15140732,0.10793078,0.36804527,0.48695412,0.23635361,0.28173035,0.51261085,0.28926367,0.46008646,0.12836926,0.11603940,0.06585094,0.57687968,0.50493354,0.46162158,0.23542735,0.42297161,0.13707048,0.09629645,0.14433275,0.13479272,0.23290089,0.22415334,0.39643264,0.38140252,0.06226180,0.28116107,0.48700613,0.24544394,0.54521149,0.27028656,0.52942991,0.20555554,-0.00874910,0.17727709,0.39690849,0.53390175,0.67859453,0.12530026,0.30604228,0.24643217,0.17196074,0.13352475,0.24819410,0.14400057,0.05940488,0.26772594,-0.02621149,0.23903193,0.51548183,0.30467182,0.27835461,0.18149114,0.38148639,0.44645804,0.31832281,0.55649161,0.31693718,0.38580301,0.17862163,0.43924090,0.82144147,0.17598186,0.16039631,0.18556592,0.28469813,0.34963667,0.38474914,0.32074052,0.19939774,0.11089972,0.25600368,0.24884179,0.28042147,0.17138766,0.36311141,0.12894745,0.09273262,0.38888022,0.45906097,0.24205160,0.45906401,0.38474518,0.21453896,0.28242713,0.35302252,0.61137211,0.17863649,0.10156332,0.40989035,0.28084108,0.25904006,0.65498525,0.16720539,0.47180974,0.21618561,0.47118300,0.26091006,0.44173419,0.37038472,0.44028530,0.22468886,0.28995374,0.37851241,0.57969117,0.37860689,0.28464007,0.28850257,0.22457115,0.12520385,0.48253405,0.34441298,0.50082010,0.36694315,0.08602839,0.07030816,0.16735515,0.37368509,0.31474441,0.40609431,0.16610803,0.18977085,0.26247311,0.32737097,0.33263859,0.16761523,0.24865651,0.27745104,0.10782287,0.19469510,0.19704434,0.42378107,0.31243894,0.13091888,0.47494936,0.30022314,0.19666725,0.25989094,8.23770809,0.31815845,0.21019778,0.31995520,0.02375698,0.22372261,0.22694291,0.51139069,0.44685489,0.66367650,0.44369185,0.39818788,0.40269005,0.45991179,0.15883815,0.30622447,0.10263006,-1.72513759,0.19336322,0.46059638,0.19059235,0.38946837,0.26075751,0.14430791,0.41968721,0.35103562,0.55375230,0.24852610,0.35187376,0.19147222,0.27411693,0.24055327,0.11088650,0.10684730,0.26548901,0.46206054,0.10640201,0.34164396,0.13634606,0.34780794,0.28933948,0.42670262,0.22208324,0.47626472,0.30445018,0.10768443,0.14746389,0.58730733,0.39915356,0.24766827,0.45484507,0.41691869,0.36178201,-0.04692039,0.31778333,0.42915401,0.38876429,0.41477734,0.22375385,0.38830596,0.15269423,0.62494558,-0.01616518,0.22273521,0.08404333,0.49953496,0.40093923,0.45651212,0.19123197,0.28905144,0.14124769,0.14955461,0.40732527,0.22388135,0.29110014,0.27659500,0.33773205,0.20725349,0.44710249,0.28560951,0.35740757,0.35109109,0.14457735,0.44279605,0.29360291,0.16670305,0.31233257,0.56907851,0.25201488,0.59557462,0.67125142,0.39596888,0.00874780,0.10383581,0.29832426,0.13422377,0.25080112,0.14682779,0.54864603,0.12776744,0.31488138,0.43531558,0.20627418,0.40060422,0.35224926,0.25548315,0.22004251,0.27690923,0.34063312,0.17528230,0.31325936,0.41001531,0.45652223,0.24055837,0.15281022,0.32844362,0.45001468,0.26833308,0.22129072,0.10358777,0.02311512,0.23120262,0.50603259,0.42943722,0.42700636,0.26966682,0.30389437,0.36174843,0.50559992,0.38611081,0.38371384,0.11137511,0.31116188,0.31173304,0.53270084,0.15159777,0.33935153,0.33445728,0.29114935,0.24150848,0.38857004,0.36487132,0.33410570,0.32737249,0.42808875,0.43233782,0.20031989,0.16590717,0.23606779,0.40135545,0.25422102,0.34634447,0.46741450,0.15192434,0.47921261,0.09129000,0.13990228,0.34934521,0.27219522,0.25570941,0.37599301,0.14483850,0.22873966,0.28615266,0.46717462,0.57588148,0.28121865,0.55763799,0.63092381,-0.16340119,0.45877373,0.51037806,0.23160881,0.21247111,0.17459165,0.18457839,0.40621832,0.26881126,0.22432005,0.42860749,0.41384336,1.04409409,0.38256603,0.59306806,0.25530291,0.41267407,0.28138939,0.27845442,0.26380664,0.48265147,0.36054656,0.57312351,0.39821982,0.29816639,0.35484511,0.10237683,0.15235922,0.21155657,0.37262243,0.32732958
