,dim_0,dim_1,dim_2,dim_3,dim_4,dim_5,dim_6,dim_7,dim_8,dim_9,dim_10,dim_11,dim_12,dim_13,dim_14,dim_15,dim_16,dim_17,dim_18,dim_19,dim_20,dim_21,dim_22,dim_23,dim_24,dim_25,dim_26,dim_27,dim_28,dim_29,dim_30,dim_31,dim_32,dim_33,dim_34,dim_35,dim_36,dim_37,dim_38,dim_39,dim_40,dim_41,dim_42,dim_43,dim_44,dim_45,dim_46,dim_47,dim_48,dim_49,dim_50,dim_51,dim_52,dim_53,dim_54,dim_55,dim_56,dim_57,dim_58,dim_59,dim_60,dim_61,dim_62,dim_63,dim_64,dim_65,dim_66,dim_67,dim_68,dim_69,dim_70,dim_71,dim_72,dim_73,dim_74,dim_75,dim_76,dim_77,dim_78,dim_79,dim_80,dim_81,dim_82,dim_83,dim_84,dim_85,dim_86,dim_87,dim_88,dim_89,dim_90,dim_91,dim_92,dim_93,dim_94,dim_95,dim_96,dim_97,dim_98,dim_99,dim_100,dim_101,dim_102,dim_103,dim_104,dim_105,dim_106,dim_107,dim_108,dim_109,dim_110,dim_111,dim_112,dim_113,dim_114,dim_115,dim_116,dim_117,dim_118,dim_119,dim_120,dim_121,dim_122,dim_123,dim_124,dim_125,dim_126,dim_127,dim_128,dim_129,dim_130,dim_131,dim_132,dim_133,dim_134,dim_135,dim_136,dim_137,dim_138,dim_139,dim_140,dim_141,dim_142,dim_143,dim_144,dim_145,dim_146,dim_147,dim_148,dim_149,dim_150,dim_151,dim_152,dim_153,dim_154,dim_155,dim_156,dim_157,dim_158,dim_159,dim_160,dim_161,dim_162,dim_163,dim_164,dim_165,dim_166,dim_167,dim_168,dim_169,dim_170,dim_171,dim_172,dim_173,dim_174,dim_175,dim_176,dim_177,dim_178,dim_179,dim_180,dim_181,dim_182,dim_183,dim_184,dim_185,dim_186,dim_187,dim_188,dim_189,dim_190,dim_191,dim_192,dim_193,dim_194,dim_195,dim_196,dim_197,dim_198,dim_199,dim_200,dim_201,dim_202,dim_203,dim_204,dim_205,dim_206,dim_207,dim_208,dim_209,dim_210,dim_211,dim_212,dim_213,dim_214,dim_215,dim_216,dim_217,dim_218,dim_219,dim_220,dim_221,dim_222,dim_223,dim_224,dim_225,dim_226,dim_227,dim_228,dim_229,dim_230,dim_231,dim_232,dim_233,dim_234,dim_235,dim_236,dim_237,dim_238,dim_239,dim_240,dim_241,dim_242,dim_243,dim_244,dim_245,dim_246,dim_247,dim_248,dim_249,dim_250,dim_251,dim_252,dim_253,dim_254,dim_255,dim_256,dim_257,dim_258,dim_259,dim_260,dim_261,dim_262,dim_263,dim_264,dim_265,dim_266,dim_267,dim_268,dim_269,dim_270,dim_271,dim_272,dim_273,dim_274,dim_275,dim_276,dim_277,dim_278,dim_279,dim_280,dim_281,dim_282,dim_283,dim_284,dim_285,dim_286,dim_287,dim_288,dim_289,dim_290,dim_291,dim_292,dim_293,dim_294,dim_295,dim_296,dim_297,dim_298,dim_299,dim_300,dim_301,dim_302,dim_303,dim_304,dim_305,dim_306,dim_307,dim_308,dim_309,dim_310,dim_311,dim_312,dim_313,dim_314,dim_315,dim_316,dim_317,dim_318,dim_319,dim_320,dim_321,dim_322,dim_323,dim_324,dim_325,dim_326,dim_327,dim_328,dim_329,dim_330,dim_331,dim_332,dim_333,dim_334,dim_335,dim_336,dim_337,dim_338,dim_339,dim_340,dim_341,dim_342,dim_343,dim_344,dim_345,dim_346,dim_347,dim_348,dim_349,dim_350,dim_351,dim_352,dim_353,dim_354,dim_355,dim_356,dim_357,dim_358,dim_359,dim_360,dim_361,dim_362,dim_363,dim_364,dim_365,dim_366,dim_367,dim_368,dim_369,dim_370,dim_371,dim_372,dim_373,dim_374,dim_375,dim_376,dim_377,dim_378,dim_379,dim_380,dim_381,dim_382,dim_383,dim_384,dim_385,dim_386,dim_387,dim_388,dim_389,dim_390,dim_391,dim_392,dim_393,dim_394,dim_395,dim_396,dim_397,dim_398,dim_399,dim_400,dim_401,dim_402,dim_403,dim_404,dim_405,dim_406,dim_407,dim_408,dim_409,dim_410,dim_411,dim_412,dim_413,dim_414,dim_415,dim_416,dim_417,dim_418,dim_419,dim_420,dim_421,dim_422,dim_423,dim_424,dim_425,dim_426,dim_427,dim_428,dim_429,dim_430,dim_431,dim_432,dim_433,dim_434,dim_435,dim_436,dim_437,dim_438,dim_439,dim_440,dim_441,dim_442,dim_443,dim_444,dim_445,dim_446,dim_447,dim_448,dim_449,dim_450,dim_451,dim_452,dim_453,dim_454,dim_455,dim_456,dim_457,dim_458,dim_459,dim_460,dim_461,dim_462,dim_463,dim_464,dim_465,dim_466,dim_467,dim_468,dim_469,dim_470,dim_471,dim_472,dim_473,dim_474,dim_475,dim_476,dim_477,dim_478,dim_479,dim_480,dim_481,dim_482,dim_483,dim_484,dim_485,dim_486,dim_487,dim_488,dim_489,dim_490,dim_491,dim_492,dim_493,dim_494,dim_495,dim_496,dim_497,dim_498,dim_499,dim_500,dim_501,dim_502,dim_503,dim_504,dim_505,dim_506,dim_507,dim_508,dim_509,dim_510,dim_511,dim_512,dim_513,dim_514,dim_515,dim_516,dim_517,dim_518,dim_519,dim_520,dim_521,dim_522,dim_523,dim_524,dim_525,dim_526,dim_527,dim_528,dim_529,dim_530,dim_531,dim_532,dim_533,dim_534,dim_535,dim_536,dim_537,dim_538,dim_539,dim_540,dim_541,dim_542,dim_543,dim_544,dim_545,dim_546,dim_547,dim_548,dim_549,dim_550,dim_551,dim_552,dim_553,dim_554,dim_555,dim_556,dim_557,dim_558,dim_559,dim_560,dim_561,dim_562,dim_563,dim_564,dim_565,dim_566,dim_567,dim_568,dim_569,dim_570,dim_571,dim_572,dim_573,dim_574,dim_575,dim_576,dim_577,dim_578,dim_579,dim_580,dim_581,dim_582,dim_583,dim_584,dim_585,dim_586,dim_587,dim_588,dim_589,dim_590,dim_591,dim_592,dim_593,dim_594,dim_595,dim_596,dim_597,dim_598,dim_599,dim_600,dim_601,dim_602,dim_603,dim_604,dim_605,dim_606,dim_607,dim_608,dim_609,dim_610,dim_611,dim_612,dim_613,dim_614,dim_615,dim_616,dim_617,dim_618,dim_619,dim_620,dim_621,dim_622,dim_623,dim_624,dim_625,dim_626,dim_627,dim_628,dim_629,dim_630,dim_631,dim_632,dim_633,dim_634,dim_635,dim_636,dim_637,dim_638,dim_639,dim_640,dim_641,dim_642,dim_643,dim_644,dim_645,dim_646,dim_647,dim_648,dim_649,dim_650,dim_651,dim_652,dim_653,dim_654,dim_655,dim_656,dim_657,dim_658,dim_659,dim_660,dim_661,dim_662,dim_663,dim_664,dim_665,dim_666,dim_667,dim_668,dim_669,dim_670,dim_671,dim_672,dim_673,dim_674,dim_675,dim_676,dim_677,dim_678,dim_679,dim_680,dim_681,dim_682,dim_683,dim_684,dim_685,dim_686,dim_687,dim_688,dim_689,dim_690,dim_691,dim_692,dim_693,dim_694,dim_695,dim_696,dim_697,dim_698,dim_699,dim_700,dim_701,dim_702,dim_703,dim_704,dim_705,dim_706,dim_707,dim_708,dim_709,dim_710,dim_711,dim_712,dim_713,dim_714,dim_715,dim_716,dim_717,dim_718,dim_719,dim_720,dim_721,dim_722,dim_723,dim_724,dim_725,dim_726,dim_727,dim_728,dim_729,dim_730,dim_731,dim_732,dim_733,dim_734,dim_735,dim_736,dim_737,dim_738,dim_739,dim_740,dim_741,dim_742,dim_743,dim_744,dim_745,dim_746,dim_747,dim_748,dim_749,dim_750,dim_751,dim_752,dim_753,dim_754,dim_755,dim_756,dim_757,dim_758,dim_759,dim_760,dim_761,dim_762,dim_763,dim_764,dim_765,dim_766,dim_767,dim_768,dim_769,dim_770,dim_771,dim_772,dim_773,dim_774,dim_775,dim_776,dim_777,dim_778,dim_779,dim_780,dim_781,dim_782,dim_783,dim_784,dim_785,dim_786,dim_787,dim_788,dim_789,dim_790,dim_791,dim_792,dim_793,dim_794,dim_795,dim_796,dim_797,dim_798,dim_799,dim_800,dim_801,dim_802,dim_803,dim_804,dim_805,dim_806,dim_807,dim_808,dim_809,dim_810,dim_811,dim_812,dim_813,dim_814,dim_815,dim_816,dim_817,dim_818,dim_819,dim_820,dim_821,dim_822,dim_823,dim_824,dim_825,dim_826,dim_827,dim_828,dim_829,dim_830,dim_831,dim_832,dim_833,dim_834,dim_835,dim_836,dim_837,dim_838,dim_839,dim_840,dim_841,dim_842,dim_843,dim_844,dim_845,dim_846,dim_847,dim_848,dim_849,dim_850,dim_851,dim_852,dim_853,dim_854,dim_855,dim_856,dim_857,dim_858,dim_859,dim_860,dim_861,dim_862,dim_863,dim_864,dim_865,dim_866,dim_867,dim_868,dim_869,dim_870,dim_871,dim_872,dim_873,dim_874,dim_875,dim_876,dim_877,dim_878,dim_879,dim_880,dim_881,dim_882,dim_883,dim_884,dim_885,dim_886,dim_887,dim_888,dim_889,dim_890,dim_891,dim_892,dim_893,dim_894,dim_895,dim_896,dim_897,dim_898,dim_899,dim_900,dim_901,dim_902,dim_903,dim_904,dim_905,dim_906,dim_907,dim_908,dim_909,dim_910,dim_911,dim_912,dim_913,dim_914,dim_915,dim_916,dim_917,dim_918,dim_919,dim_920,dim_921,dim_922,dim_923,dim_924,dim_925,dim_926,dim_927,dim_928,dim_929,dim_930,dim_931,dim_932,dim_933,dim_934,dim_935,dim_936,dim_937,dim_938,dim_939,dim_940,dim_941,dim_942,dim_943,dim_944,dim_945,dim_946,dim_947,dim_948,dim_949,dim_950,dim_951,dim_952,dim_953,dim_954,dim_955,dim_956,dim_957,dim_958,dim_959,dim_960,dim_961,dim_962,dim_963,dim_964,dim_965,dim_966,dim_967,dim_968,dim_969,dim_970,dim_971,dim_972,dim_973,dim_974,dim_975,dim_976,dim_977,dim_978,dim_979,dim_980,dim_981,dim_982,dim_983,dim_984,dim_985,dim_986,dim_987,dim_988,dim_989,dim_990,dim_991,dim_992,dim_993,dim_994,dim_995,dim_996,dim_997,dim_998,dim_999,dim_1000,dim_1001,dim_1002,dim_1003,dim_1004,dim_1005,dim_1006,dim_1007,dim_1008,dim_1009,dim_1010,dim_1011,dim_1012,dim_1013,dim_1014,dim_1015,dim_1016,dim_1017,dim_1018,dim_1019,dim_1020,dim_1021,dim_1022,dim_1023
BAG,0.41326296,0.82224983,0.95001596,0.75405562,1.11529112,0.44119984,0.81880254,0.61003625,0.45216298,0.40370500,0.59853607,0.47851694,0.71952152,0.56496948,0.72257602,0.16630779,0.98350698,0.77819109,0.89282215,0.89090800,0.85932148,1.27313757,0.76461697,0.18519275,0.70624304,0.81624115,0.47010359,0.32079464,0.66619200,0.37730765,0.92862010,0.70635295,0.34933311,0.38875300,0.40707052,0.83910382,0.27508909,0.20998590,0.80392522,0.60798955,0.27056527,0.19147527,0.56502622,0.42407680,0.22831306,0.63443470,0.85667217,0.33590591,0.55111653,0.34356600,0.72639805,1.17076635,0.31881931,1.11665654,0.79893148,0.38434336,0.56788647,0.31265515,0.65626645,0.70692980,0.21962643,1.18638158,0.69670612,0.39628845,0.17369100,0.69614351,0.68113828,0.57347149,0.55280131,0.58956057,0.94801980,0.10891068,0.64839298,0.30717015,1.19453287,1.03627825,0.22136229,0.61504710,0.80234253,0.91163796,0.70557112,0.75840020,0.78009868,0.72819960,0.81201565,0.44971368,0.70728230,0.42807323,1.11150002,0.45213175,0.85365832,0.53762472,0.48765862,0.67288864,0.41221458,0.59289986,0.38952988,0.75814831,0.56390655,0.76574820,0.39114326,0.28449902,0.48427883,0.64476001,0.32831293,0.47152811,0.69011164,0.75644690,0.56674284,0.81608886,0.81700301,0.57460809,0.88600308,0.39461434,0.37670991,0.50254309,0.34783724,0.34521675,0.61662650,0.16617309,0.25430912,0.64526176,0.80239367,0.92448151,0.41500613,0.48488554,0.63481772,0.75868732,0.64911509,0.83883464,0.41372931,1.11074007,0.27271974,0.43628716,0.78531891,0.50388509,0.88971519,0.71371692,0.27745911,0.48293597,0.28120899,1.19390786,0.67099953,1.03742456,0.67628121,0.57188356,0.51072073,1.02987981,0.45543665,0.61802220,0.94386387,0.59056550,0.50769627,0.39038244,0.74784708,0.55888218,0.97813672,1.61470175,0.42581043,0.66837144,0.04212607,0.62658989,1.03851676,0.51974714,0.56617606,0.45689559,0.74612385,0.73902339,0.66725850,1.27141571,0.72794807,0.52082908,0.97762328,0.41574252,0.13237259,0.68002498,0.70448399,0.36225668,0.70377356,0.58646035,1.11756015,0.65284806,0.55221140,0.42154008,0.28543118,0.20888960,0.74995905,0.66152167,0.75428605,0.61282140,0.56656790,0.73894054,0.83740127,0.70028853,0.59789389,1.05539751,0.40928483,0.39036697,0.82829446,0.39510801,0.43727276,0.82102412,0.46607715,0.73222142,0.58690882,0.90934640,1.35514641,0.92957687,0.93094850,0.75117195,0.46618983,0.56026161,0.67674208,1.27841926,0.71042514,0.71412426,0.64403856,0.36522686,0.34685698,-0.09201700,0.31789970,0.44921497,0.77739215,0.67182130,0.60639966,0.55814606,0.63424718,0.81129599,0.59405172,0.43560863,0.58353096,0.64040256,0.12389204,0.62589931,0.91928363,0.41405740,0.90344381,0.85579741,0.85401076,0.91830641,0.29800317,0.50105536,0.46808797,0.94921756,0.56463772,0.87149364,0.74181700,0.29035443,0.70261085,0.74873817,2.42962837,0.47409129,0.41975579,0.52039778,0.48504144,0.55067682,0.84937894,0.69069248,0.70792162,0.86172158,0.73427403,1.07948601,1.04647064,0.27846003,0.48196903,0.49496505,0.56153941,0.68464136,1.24389958,0.43901616,1.30105662,0.48150700,0.72771221,0.53414136,0.44536105,0.68561441,0.29458523,0.81153107,0.90152121,0.88970292,1.23405838,0.75991964,0.77359641,0.67842650,0.47319138,0.86486542,0.60035205,0.88898724,0.55359077,0.81497860,0.98130655,0.50925350,0.63686395,0.84698880,0.93883628,0.75109315,0.91528928,0.30969352,0.72767127,0.42808869,0.17485341,0.72213191,0.55030930,0.57595104,0.48926869,1.00584900,0.54486990,0.28781509,0.53428364,0.44147256,0.74391395,0.70313752,0.58062023,0.48858640,0.32277584,1.26938653,0.95282525,0.50009298,1.00837362,0.49627277,0.43457299,0.71697348,0.60166329,0.98379362,0.38973409,0.54850197,0.55542803,0.71339107,0.60391557,0.36494455,0.55362308,0.60997534,1.26454842,0.64031649,1.04641700,0.48149180,1.04195714,0.68226445,0.62910992,0.41042650,0.67003119,0.76533496,0.84565276,0.87246656,0.87302852,0.50002968,0.78366673,0.60110104,1.03737330,0.27087063,0.79209268,0.23001170,0.88199753,1.07015944,0.39049485,0.77499747,0.77874094,0.82865012,0.63839215,0.38533160,0.49934125,0.64620215,0.96509308,0.65731478,0.76172787,0.84754300,0.64185822,0.55313098,1.10736692,0.52581370,0.38416991,0.62411916,0.35505840,0.58206195,0.20833406,0.36035925,0.78444499,0.32562420,0.48800251,0.45097750,0.63365126,1.24162674,0.16850933,0.40708357,0.59623873,0.55693889,0.56346524,0.30423164,0.33639866,0.27430061,0.53651857,0.58177263,0.30403793,0.59794992,0.31507328,0.60415876,0.90936244,0.79706270,10.22715092,0.51447040,0.92062491,0.71478033,0.53713286,0.90003836,0.58505702,0.61625051,0.27099121,0.97605753,0.54016697,0.52811676,0.40497947,0.68213403,0.80422628,0.78435010,0.65615964,0.41609588,0.38414159,0.59604734,0.32970759,0.66878641,0.56368273,0.73832560,0.37216607,0.12785178,0.98416811,1.06221032,0.55642122,0.36846286,0.63379973,0.74151409,0.55440629,0.99518454,0.42217547,0.25499511,0.35370773,0.85522747,1.43011653,0.37837049,1.31158996,0.28747791,1.05669427,0.93791389,0.70937598,0.96190935,0.73936462,0.88576591,-2.67005110,0.93209642,0.33450365,0.81632185,0.56720388,0.77541071,0.57899690,0.45302537,0.30170372,0.54198539,0.57750803,2.11985755,0.45760965,1.02072978,0.80914932,0.66658604,0.35109118,0.58137780,1.25126553,0.57306600,0.48096764,0.46698871,0.26111805,0.52041751,0.16946474,0.58205998,0.48002967,0.60330039,0.42967319,0.32132339,0.47020626,-0.14743383,0.85944992,0.37162554,0.48866707,1.00234914,0.20451288,0.51897442,0.63895690,0.51256943,0.62469184,0.87183774,0.99330181,0.72059268,0.29448009,0.48621333,1.20168352,0.48017132,0.62848985,0.55799598,1.03020537,0.53995359,0.58646333,0.50834101,0.62822354,0.81505835,0.67119151,0.46702862,0.40946457,0.55417931,0.46115512,0.51530206,0.27572492,0.85557270,0.44012451,0.36747420,0.45030397,0.69127709,0.51414502,0.73034728,0.65297812,0.72485763,0.63743430,0.42711884,1.10603929,0.68307436,0.72932976,1.11904740,0.53038454,0.68541741,0.30925253,0.41162717,0.36764330,1.07381296,1.22293842,0.64432055,1.00343060,0.79018104,0.54500252,0.61146009,0.70737457,0.42993900,0.39943436,0.64346409,0.16572255,0.96199310,0.44684801,0.62074387,0.41026273,0.98530734,0.57875937,0.62474132,0.52076095,1.02333045,0.79022896,0.44038442,0.88265324,0.66084504,0.18163371,0.34135753,0.92858517,0.41496691,0.53445190,0.82405126,1.01515007,1.17142868,0.54094648,0.88124061,1.44112098,0.73246568,0.44676411,0.55121458,0.81896812,0.64395612,0.63190478,0.57021213,0.39392155,0.27297291,0.62044013,0.52695572,0.36647922,0.73982239,0.71724272,0.47331595,0.61325657,0.76585197,0.53516233,2.63571978,0.31161028,0.71437198,0.37574500,0.64198542,1.08986425,0.42773288,1.05929220,0.25770408,0.54433125,0.48728859,0.52568662,0.94351453,0.31733036,0.41006094,0.62091142,0.61148190,1.05782747,0.88057041,0.57105941,0.71214163,0.86203766,0.27072921,0.53923619,0.76802319,0.71363890,0.72278643,0.44690052,0.98777819,0.55794716,0.62542951,0.21464548,0.48561254,0.37019384,0.56792539,0.75135565,0.43098721,0.56515622,0.40135935,0.64538920,0.95039213,0.42014262,0.90126216,-0.02708140,0.28730738,-0.00033511,0.93789816,0.29885232,1.35272408,0.73729718,0.97495258,0.82707047,0.70405263,0.71579200,0.91138536,0.54693139,1.04728830,0.99462295,0.80381513,0.89925671,0.59524447,0.79402423,0.65724170,1.98777223,0.63738650,0.34454501,0.77232820,0.66963196,0.93756998,0.40947717,0.54213446,0.76586270,0.97003019,0.41840363,0.61429369,0.76174277,0.22504798,1.17351985,0.89486265,0.71149755,0.72524858,0.92403209,0.91152090,1.07451379,0.81225002,0.40520430,0.90814286,0.70789218,0.81627965,1.33874798,0.24096128,0.54775548,1.02126408,0.85699165,0.63274395,0.62990415,0.74193966,0.65412009,0.55630630,0.77052116,0.50527114,0.34648266,0.62617528,0.38097823,0.50946915,0.31505844,1.15962911,0.95520461,0.45366386,0.90376830,0.66951823,0.52626145,0.42313403,0.20194976,0.48010120,0.53148878,0.27049848,0.41595149,0.14960884,0.76436037,0.77323931,0.45203447,0.46919945,0.95782024,0.37273896,0.94303113,0.22092819,0.39943641,0.03566092,0.81675899,0.32563296,0.50228196,0.36812368,0.53547549,0.59276772,0.23828942,0.21310830,0.90411210,0.72606456,0.70144260,0.92047435,0.58964413,0.53295624,0.63233542,0.32670313,0.43162763,0.08730948,0.47190529,0.35206288,1.44632578,0.76822776,0.64707255,0.53711915,0.32143393,0.75485903,0.58803320,0.48014554,1.56398702,0.38814592,0.43942153,0.59429681,0.70847476,0.90847796,0.84822536,1.22259235,0.75664353,0.71455216,0.36671486,0.71558702,0.55288631,1.25589216,0.39807695,-0.80765784,1.14026797,0.41728270,0.59805167,0.80940056,0.90383315,0.53647375,1.34853697,0.66518813,0.75889283,0.43649095,0.61996418,1.10121560,0.53775430,0.74358565,0.33141690,0.91595888,0.91254467,0.98885554,0.77892309,0.69652259,0.71787655,0.51587915,0.59695262,0.72757792,0.14109656,0.65186548,0.36631203,0.72301579,0.36011183,1.17197096,0.63947910,0.49820724,0.99816239,0.49233562,1.58127809,0.48483858,0.45798159,1.34019542,0.47204572,0.65777516,0.57171881,0.60047245,1.02967882,0.97285783,0.54125279,0.40049541,0.59411150,0.66221285,0.45429367,0.69754970,0.68757361,0.72084802,0.47019452,0.40372628,0.85916364,0.79430348,0.64517272,0.42925131,0.90677583,0.57253045,0.16899207,0.19700986,0.37677193,0.43122247,0.55979508,0.58300388,0.74619931,0.34351701,0.16912699,1.04430699,0.77666521,0.61542022,0.52100760,0.65038353,0.68860614,1.05208373,0.46222612,0.75930625,0.28585505,0.32604903,0.94804299,1.26860976,0.74139774,0.86379915,0.60472828,0.62472826,1.12504196,0.67216361,0.16331097,0.57348144,0.42330903,0.41041341,0.87640548,1.06738555,0.64991230,0.61366749,0.75441068,0.34082893,1.06506157,1.04524612,0.60638523,0.11522567,0.49857321,0.60843819,0.51464897,0.68692720,0.88569504,1.01180768,0.96114421,0.61397851,0.85551876,0.61353642,0.79648125,1.57560420,0.92202514,0.60850370,0.77108753,0.53710741,0.32080811,0.71771920,0.51368076,0.77583545,0.29006982,0.41763762,0.38257158,0.54027724,0.45200473,0.98783910,0.62458301,0.50098091,0.44177824,1.49007893,0.51404130,0.34221196,0.41569692,0.60092241,0.56924206,1.00701499,0.66475153,0.74750996,0.56017804,0.66786391,0.38255465,1.15814257,0.64605689,0.79085010,0.95544308,0.68563950,0.47476351,0.67825311,0.31467909,1.06748009,0.67442620,0.67013633,0.43781176,0.33078513,0.93116069,0.69568264,0.58127385,0.79422641,0.84873402,0.41658652,0.85234118,0.29781941,0.39249066,0.46386811,0.72501647,1.18288195,1.08602583,0.70853525,0.47223073,0.65712845,0.69006747,0.53584456,0.73720527,0.70225555,0.85305876,1.51341558,0.88471079,0.81827629,0.51195121,0.59090626,0.52866733,0.56684506,0.66270512,0.65836585,0.73905969,0.62384236,0.68335348,0.76082957,0.40173209,0.60255390,0.73879135,0.70677996,0.73668808,0.57165641,0.20330849,0.68897778,0.56400937,0.61451727,0.24824966,1.60145581,0.41832811,0.54404426,0.48958945,0.77464360,0.69973040,0.98971879,0.41469133,0.65319443,0.41504443,0.75651807,0.50382107,0.54988754,0.45658150,0.76614273,0.23382807,0.63377357,0.49647278,1.46725082,0.44241506,0.47107419,1.10231900,0.66488755,1.01835358,0.58323896,0.33680949,0.57178491,0.12031505,0.62541693,0.44788402,0.84440339,0.99782586,0.33801758,0.48062834,0.42427349,0.60101438,0.86749649,0.10591196,0.69982237,0.63570428,0.44358203,0.59891880,0.77180380,0.70127583,0.38417387,0.69354832,1.07980537,0.43912870,-0.50599456,0.62469482,0.61425161,0.76843089,0.47070491,0.65151870,0.58197355,0.51392061,0.90328878,0.51687813,0.53870106,0.63160086,0.72341132,0.33156732,0.59773469,0.43602076,0.48307312,0.66383582,0.80164427
CLOUDS,0.26854226,1.21830106,1.12453330,0.66489661,0.25198567,0.77233100,1.26401520,0.56184596,0.98983800,0.66212469,0.46803597,0.53897005,0.72906297,0.39349303,0.42496240,0.75559944,0.88847506,0.30435240,0.89227498,1.00234735,0.00392690,1.06709647,0.70200419,0.72698694,0.68644726,1.26126873,0.69321227,0.29926741,0.21540406,0.33550265,0.88761753,0.44795641,0.38598707,0.60045505,0.64422125,0.72878700,0.32999432,0.36454761,0.75663555,0.72155929,0.39202595,0.22616297,0.89885628,0.04383324,0.58486480,0.44827142,0.72533733,0.33016926,1.11685967,0.45764896,0.99927586,0.64409727,1.15359735,0.61448544,0.57378227,0.46091324,0.24813411,0.41739810,0.64361197,0.36160815,0.50735366,0.62054658,0.43882167,0.35343722,0.55714130,0.38222140,1.38718176,0.60840237,0.62910020,0.62763405,0.98089027,0.15179074,0.62393242,0.91596919,0.96672195,0.72989941,0.30502224,0.64967382,0.64596236,0.88669491,0.66653472,0.69876289,0.49022427,0.56868660,0.37471434,0.23831642,0.48935366,0.52999139,0.43368649,0.76072079,0.67557859,0.70163345,0.61903560,1.31800210,0.56762338,0.26933855,0.11321092,0.40033513,1.21593404,0.92649567,0.73861682,0.66831565,0.65716720,0.62179244,0.49855608,0.19115698,0.97898251,0.82852280,0.67520607,0.84632611,0.57706696,0.33277121,1.10512805,0.49125338,0.38953462,0.77063257,0.65747911,0.49237514,0.46504211,0.31024265,0.78586471,0.67743129,0.45464492,1.33124113,1.16490340,0.45751098,0.83554524,0.57436121,0.63108444,0.89457345,0.60727930,0.77288008,0.38074937,0.49281043,0.71240509,0.60169774,0.23375323,0.58835936,0.27732402,0.88293552,0.86172104,0.74675155,0.88621205,0.69866025,0.82895803,0.74062920,0.70280135,0.77407473,0.67801476,0.37865669,0.59870625,0.32916942,0.45572281,0.35731941,0.73328722,0.47746396,0.80801129,0.91387713,0.36750197,0.32804066,0.56049871,0.57351643,0.78745985,1.28976071,0.69523567,0.54010206,0.75563002,0.74390018,0.70197088,0.32974118,0.40080151,0.93943548,0.77714646,0.56751430,0.54343438,0.65383655,0.54098272,0.64056253,0.84147584,0.85706151,0.85211468,0.79996878,0.69644165,0.72400767,0.80293053,0.27157339,0.86242938,0.92836928,0.42167735,1.08156133,0.87024873,0.81181180,0.51168191,0.86134642,0.41229773,0.59265655,0.89600033,1.01424730,0.73076928,0.85930139,0.55903208,0.57356918,0.51877183,0.77985889,0.26915440,0.83324206,0.63348091,0.80669999,0.49004564,0.82713342,0.18246251,0.68231440,0.69980782,0.97943997,0.78548872,0.66065967,0.68170148,0.89408100,0.66927999,0.45987159,1.07909942,0.50995898,0.77382123,0.22609919,0.37584615,0.62180781,0.68812060,0.84931874,0.63758123,0.59342968,0.73434079,0.68787450,0.36796099,0.82631731,0.72156054,0.73375303,0.54288089,1.00487542,0.68846965,0.69219154,0.78556693,0.23929468,0.65448475,0.48040462,0.56560320,0.53285229,0.54030049,0.54171908,0.90316808,1.18820298,2.52506781,0.77331495,0.68390250,0.48150384,0.53365183,0.74046683,0.39160305,0.78680301,0.68851614,0.64821792,0.55400383,0.69809592,0.54883623,0.39379832,0.43157458,0.74595994,0.57846743,0.77338415,0.23449215,0.80973530,0.80030024,0.37798142,1.39851952,0.97946256,0.40430507,0.29458886,0.61910951,0.57016343,0.22642532,0.61767346,0.18962067,0.47761312,0.86165929,0.65515149,0.68832612,0.48808983,0.24409983,0.77790964,0.66485947,0.49936613,0.77764750,0.79327518,0.72075373,1.27525878,0.65964115,0.56468171,0.45392662,0.06622043,0.36112744,0.90765470,0.68330592,0.95069760,0.88134986,1.08699822,0.54335785,0.99875510,0.73350239,0.48351860,1.14807701,0.75096583,0.91508293,0.30405480,0.92685544,0.74385244,1.00277042,1.02685988,0.92588359,0.28713039,0.81349218,0.47687304,0.85132986,0.88841385,0.61645383,0.94969833,0.96297067,0.76002073,0.59315217,0.10267740,1.01952410,0.53940201,0.70530009,0.53382552,0.08055305,0.41452157,0.67210639,0.75269568,0.49284470,1.04660451,0.80855799,0.24296322,0.09642518,0.95145965,1.14486504,0.23698564,0.82437712,0.53063482,-0.01027585,0.55452371,0.64428723,0.65922689,0.52548975,0.37543839,0.54802036,0.49355659,0.59590590,0.67194790,0.68256456,1.12879181,0.66788495,0.29154927,0.35663635,0.80026984,0.32928750,0.66488940,0.69104338,0.54630679,0.60262501,0.83335495,0.33247149,0.55294305,0.63092679,0.69674510,0.72842681,0.36377096,0.31667930,0.86550546,0.73252678,0.74783057,0.59205395,1.12694395,0.57612693,0.77593309,0.56175715,0.23924035,0.54771280,0.46845376,0.61829412,1.02565753,0.57026219,0.40497881,0.52021617,0.34612930,0.58759660,0.51120484,0.49541676,0.51492214,0.46029055,0.48874891,8.49937820,0.62313288,0.94557434,0.50265437,0.91075325,0.78533083,0.84555244,0.60393411,0.22110540,0.46261072,0.61605239,0.57863253,0.66831207,0.97339815,0.13659155,0.54882306,0.58688402,0.54326546,0.50942141,1.11208940,0.48322970,0.69714934,0.39967239,0.48984513,0.68711925,0.42574614,1.01284647,1.08122659,0.82219082,0.63723093,0.67284125,0.48948222,0.67803568,0.29513827,0.74043846,0.54766428,0.49955389,1.07719243,0.82972771,0.24508455,0.50302255,0.49547258,0.70646769,0.53932273,0.77531731,1.30282831,0.43515345,1.25854063,-2.26163244,0.68958819,0.66414654,0.64917737,0.99629134,0.75015771,0.50393474,0.62555552,0.62396026,0.36214408,0.94794369,2.19091702,0.39617503,0.90796989,0.54964590,0.63983321,0.50647461,0.44715524,0.70131952,0.83826029,0.33747032,0.61787224,0.30395892,0.79215896,0.42974937,0.82254964,0.66306579,0.98856872,0.20220572,0.60223013,0.51083064,0.10327395,0.96112931,0.69374132,0.43186313,0.54478389,0.56353694,0.07930830,0.71335745,0.55867493,0.22907761,1.04587805,0.64284968,1.05566013,0.32041642,0.39624900,0.63584030,0.32785052,0.63739288,0.73933399,0.93789864,0.69866800,0.72267067,0.40911710,0.89229965,0.68033361,0.61500782,0.81331408,0.56411403,0.75787908,0.43757087,0.54834831,0.71521151,0.73134768,0.65216058,0.78766423,0.14802018,0.47242719,0.72528017,0.34921080,0.70117009,0.61260313,1.16520774,0.92191708,0.65437531,0.70252556,0.86661339,0.76587409,0.77056348,0.83475786,0.68371117,0.68083441,0.50917101,1.98333597,1.98397517,0.82459724,0.74816895,0.61852098,0.65588439,0.44770688,0.51799822,0.18697305,0.51075321,0.32777348,0.57376289,0.73069328,0.44570592,0.51517713,0.17385846,0.73528063,0.40078765,0.43538982,0.87778831,0.43536764,0.69071263,0.71260941,1.23452020,1.02479863,-0.00661930,0.75584155,1.19794571,-0.24981874,0.74875736,0.53261501,0.56512570,0.69177592,0.80118972,0.35941023,0.23251146,0.56001258,0.87822169,0.70176470,0.48089337,0.65489900,0.64929414,0.98833215,0.26487923,0.57441270,0.62523139,0.48836088,0.61522365,0.53679180,0.60957253,0.56374252,0.86876142,0.73790288,0.51165980,2.80160856,0.57217544,0.72559983,0.38784134,0.47291252,0.62966526,0.47347713,1.10155988,0.31679568,1.01561737,0.67876267,0.80610275,0.60562992,0.31081611,0.56924868,0.45528275,0.56005740,0.55254489,0.78561109,0.62469560,0.94233572,0.55919933,0.74745476,0.25193581,0.30243239,0.71740139,0.87699705,0.38139954,0.84531248,0.46584600,0.60877866,0.35560316,0.48301530,0.58686340,0.52826029,0.32586485,0.71879929,0.93938637,1.09880757,0.39789551,0.85008341,0.79727745,0.76919496,-0.54556400,0.43749887,0.44810101,1.02326071,0.50823718,0.98854560,0.48445129,0.91685432,0.78437686,0.99093276,0.10007799,0.81302297,0.58028865,0.36806512,0.88864028,0.99579406,0.98083580,0.48770076,0.87334585,0.51591176,2.05124378,1.01543832,1.06951213,1.02457905,0.90372390,0.47390807,0.36306500,0.81575102,0.33834562,0.68911070,0.43290979,0.48826510,0.82056898,0.46169963,0.67170745,0.71963382,0.40226233,1.00250745,1.03294158,0.80399346,0.83478904,0.86146700,0.42175722,0.70943534,1.28718901,1.00082755,1.05664623,0.09512353,0.38104337,0.28812528,0.46752858,0.51692772,0.20503271,0.78110552,0.49134091,0.28424752,0.50302601,0.59776717,0.16606940,0.87201846,0.71612298,0.23114432,0.43705195,0.94445932,0.44759485,0.59157562,0.81889105,0.86306185,0.54053801,0.38812649,1.01970541,0.43079054,0.81939304,0.58843660,0.87483180,0.17500255,0.76178896,0.70018286,0.70751143,0.83028674,0.94891077,0.19977620,0.40844589,0.25775558,0.62655145,0.39242372,0.47501618,0.32729411,0.61114091,0.48558068,1.00163221,0.38361698,0.23469196,0.45697999,0.83186114,0.21967971,0.60228777,0.36615461,0.57217848,0.42440540,0.66909772,0.29531008,0.37176165,0.67988241,1.30853319,-0.06965429,0.27816671,0.56518006,0.49698612,0.38210839,0.32774019,0.96320719,0.43440256,0.46672979,2.30944395,0.78438753,0.64525306,1.20460534,0.60019439,0.36784649,0.43898994,0.93325603,0.62519217,0.43439469,0.62864453,0.56687683,0.64709806,0.51172441,0.68145657,-0.88044930,1.03780723,0.50433123,0.90226674,0.87962866,0.57154185,0.58333886,1.50443006,0.34361088,0.78988636,0.72521257,0.83569765,1.16800225,0.99595290,0.77829504,0.33525336,0.60979772,0.77791476,0.36890250,0.91672027,0.44029641,0.88036680,0.81371576,0.55850625,0.88498950,0.35752529,0.96800959,0.41083503,0.22265437,0.64700580,0.87994450,0.30564660,0.32221830,0.87487721,0.42526084,0.55015397,0.73536545,0.45962387,0.74479222,1.08757830,0.70890379,0.84759593,0.82890409,0.48443842,0.55543363,0.54421461,0.57896078,0.54642457,0.52205157,0.40534139,0.56661260,0.71138716,0.80291641,0.35983360,0.92576253,0.94647646,0.90591002,0.56636214,0.38763535,1.04004145,0.37910962,0.73367047,0.26938131,0.25151232,1.05304325,0.45644695,0.87951082,0.75879371,0.75669467,0.88150793,0.83308876,0.76743996,0.34842446,0.86525202,0.46469545,0.79974663,0.59231430,1.08354735,0.62997323,0.34930313,0.62453771,1.09048462,0.39111578,0.48219979,0.71665323,0.76759934,0.70726687,0.41502559,0.72896206,0.24981731,0.32688925,0.23889041,0.42641878,0.82285786,0.57541013,0.91769278,0.49510211,0.85283554,0.86007190,0.56920135,1.05700922,0.52349073,0.48786739,0.96278453,0.58035654,0.73152328,0.71987671,1.08970869,0.10422489,0.67651403,0.12594770,0.35841772,0.48960343,1.25174260,0.91442525,0.78847909,0.66298741,0.31968617,0.80106515,0.75383228,0.63635242,0.75256836,0.95408022,0.37429276,0.66845381,0.30095023,0.55741787,0.42382550,0.59614938,0.72299534,0.56754631,0.78621870,1.16282034,0.77411824,0.57041943,0.56074381,0.55864888,0.96674109,1.27156615,0.67440236,0.66044253,0.81706160,0.63878661,0.30115962,0.72954333,0.64152926,0.58561516,0.81330788,0.83691120,0.63547206,0.59820974,0.60059291,0.65425390,0.70695055,0.70422107,0.73824304,0.53135628,0.65361911,0.62525183,1.41179550,0.85446215,0.92967212,0.47627872,0.86618477,0.88800704,0.69301623,0.15698798,0.57527292,0.58914900,0.51537776,0.45902115,0.46264690,0.71845418,0.93608594,0.18519609,0.76465750,0.91488218,0.64748442,0.74417114,0.58643734,0.69827098,0.36467373,0.48965940,0.72899556,0.78631306,0.67009830,0.41576931,0.69430780,0.43959865,0.46610337,0.56295890,0.55564380,1.43211091,0.71340156,0.76817894,1.06821871,0.42948312,0.49125859,0.64330119,0.48094070,0.54857761,0.36790353,2.24178982,1.19302654,0.38805315,0.09251063,0.67711002,0.83988786,0.30655146,0.80784345,0.40898174,0.82887262,0.66834962,0.13892700,0.43590927,0.25619951,0.91294265,1.08148885,0.65095949,0.99981284,0.79906851,1.08607602,0.38894695,0.25115401,0.57561243,0.62437934,0.51550198,0.63623607,0.41207892,0.59773958,1.22008860,0.37348503,0.71803296,0.65691811,0.72608531,0.26841402,0.59375250,1.04243422,0.54536259,0.33205169,0.75182617,0.50570703,0.55020159,0.67835891,0.89790523,0.59219348,0.70062256,0.42957032,0.52775574,1.00111413,-0.41156900,0.19646943,0.75031412,1.03623247,0.24589431,0.98832190,0.54409003,0.62040138,0.77298975,0.41356331,0.59231174,0.45683825,0.56678283,0.07423615,0.81361926,0.88526607,0.48949862,0.55370200,0.91917950
DRAGONFLY,0.73390293,0.63182616,0.71630836,0.82196391,0.58657563,0.66590041,1.02825832,0.59698117,0.61611557,0.16705950,0.79000676,0.79242873,1.04192328,0.30028918,0.43770075,0.26476744,0.56701308,0.78280103,0.49790674,0.97249997,0.58956027,1.44088829,0.45639324,0.36566308,0.44348136,1.02089500,0.53815675,0.22026229,0.56825554,0.10868812,0.64465165,0.51814240,0.35045052,1.02405286,0.56148690,0.27926889,0.09625146,0.52744579,1.07601357,0.42414975,0.34925213,0.31776398,0.25617337,0.53491807,0.73691130,0.54740483,0.75636744,0.26751009,0.97209740,0.53382158,0.62394452,0.75832796,0.84092915,0.70181596,0.97122288,0.72100103,0.46184725,0.29508996,0.66000611,0.54212886,0.09665191,0.85828722,0.50998116,0.14933698,0.21887930,0.60651493,0.86418462,0.74534941,0.72441208,0.24247643,0.40520242,0.11308178,0.62278831,0.19029418,1.00685358,0.79689348,0.70782876,0.14361227,0.39703763,0.82248479,0.57984668,0.77291614,1.32625806,0.42341489,0.70007122,0.79094082,0.55527437,0.81854510,1.00316119,0.59019363,0.91773790,0.49105313,0.51728898,0.60619467,1.00083876,0.33374739,0.16992791,0.69778264,0.86576843,0.27957672,0.50705916,0.51901412,0.78880990,0.52690846,0.87700826,0.65129256,0.72360104,0.73323965,0.56243992,0.53257161,0.66225445,0.35846221,0.86687356,0.41203493,0.49259940,0.60084367,0.84386086,0.32404411,0.24809745,0.73536050,0.43632922,0.29129159,0.79752904,1.06182897,0.84106469,0.41605860,0.82661098,0.30840179,0.61488748,0.53360188,0.35651264,1.34919715,0.61512691,0.64857364,0.78615040,0.85434633,0.55333048,0.88889694,0.41972819,0.39531392,0.75911266,0.78817952,0.59094381,0.67043722,0.69461268,0.67466927,0.70893449,0.79432720,0.37732530,0.39458591,0.89100409,0.83810884,0.33721539,0.28345180,0.48167336,0.49975780,0.95242459,1.62864041,0.46127227,0.95572144,0.49966601,0.98459363,0.78494465,0.87289917,0.81958449,0.90275443,0.87423766,0.58901811,0.86941290,0.98642498,0.73289317,0.63816822,0.91202986,1.14126456,1.02170885,0.70554608,0.98142874,0.53546309,0.78171319,0.75678653,1.10586107,0.98561358,0.79885018,0.47386494,0.24018815,0.40005493,0.90786153,1.07059979,0.32760972,0.92792320,1.00061750,0.81577456,0.69598681,1.08482122,0.54125881,0.98293197,0.61910951,0.42557812,1.02714968,0.17727500,0.58301008,0.30717623,0.47198322,0.53663749,0.82509553,1.15179372,0.67802453,0.38353777,0.68266451,0.62553334,0.66870433,0.21041995,0.34528983,1.36952484,0.46497682,0.44709182,0.42987496,0.83310133,0.27313468,0.15222706,0.76866645,0.84855086,0.80806679,0.27502310,0.50293493,0.36142617,0.59674889,0.78922975,0.79185176,0.53982151,0.99467385,0.85950518,0.21189049,0.46948397,0.63538945,0.05351587,0.62978709,0.73749441,0.67778111,0.50745881,0.95353746,0.30735302,0.54824758,0.33294687,0.40887180,0.57884538,0.43077916,0.01185785,0.95241594,1.23539495,2.45981026,0.35139799,0.33177394,0.21918586,0.32155055,0.83780563,0.76032805,1.03915095,0.75735706,0.72919786,1.15962148,0.78056604,0.83592558,0.61110783,0.71923172,0.74353868,0.51825494,0.76185524,0.45564201,0.59527081,0.47739682,0.62450242,1.53157067,0.60716474,0.51830578,0.75825667,0.34422314,0.62557280,0.56093454,0.65306967,0.66882825,0.39124402,0.80045062,0.71247607,0.69790012,0.61750841,0.90900761,0.62203485,0.81511247,0.41585511,0.56731045,0.44455636,0.68265140,0.46213508,0.78172696,0.83467776,-0.10313109,0.42050669,0.46035480,0.64354002,0.57828891,0.50271398,0.49045449,0.33978894,0.89344645,0.89186746,0.78763783,0.96869117,0.70282948,0.44575965,0.40672696,0.36569202,0.68529224,0.10601690,0.51979876,1.41711533,0.54064697,0.55072308,0.85008645,0.35763317,0.78327465,0.82814038,0.21129227,0.75020683,0.73282683,0.48982632,0.20297396,0.60051811,0.81457740,0.61172831,0.33946639,0.31350264,1.05394256,0.69526923,0.74190974,0.35773945,0.41530219,0.78203887,0.92256600,0.50908011,0.22360167,0.74925071,1.04439986,0.95409822,0.77296841,0.33420134,0.41918844,0.63088179,0.77328193,0.41174972,0.37890130,0.37800890,0.88457036,0.58853674,0.31297863,0.53650004,0.39544672,0.76813012,0.51544744,0.60878724,0.61814427,0.60380083,0.53633428,0.85289711,0.66823089,0.60867083,0.39636606,0.79849225,1.07207644,0.60764146,1.01101482,0.55635148,0.45766044,0.44832456,0.31977627,0.33354071,0.86197013,0.53180760,0.69073516,0.85055929,0.23073125,1.64964640,0.17857781,0.55546010,0.22914836,0.87484682,1.02880168,0.62981951,0.88863885,0.54608595,0.72582614,0.53686970,0.61291486,0.59446150,0.39308137,0.56328291,0.45645776,0.28585014,11.24416161,0.67559171,0.92314792,0.68897700,0.53249794,0.67679679,0.75418687,0.52398145,0.10294659,0.64571589,0.87387145,0.45776838,1.23281574,0.78785098,0.41280931,0.86440122,0.45156303,0.58404946,0.54536015,0.60456544,0.36201867,0.42498288,0.65528971,0.21703112,0.37830430,0.74653178,1.10068226,0.91371310,0.61963081,0.52683324,0.43281448,0.60806745,0.57413238,0.53440058,0.92356205,0.73284054,0.83290339,1.04531789,0.64878786,1.05594027,0.41052428,0.38170874,0.71632016,0.81844038,0.70860142,0.73156673,0.34571019,0.76224774,-2.08758473,0.63842976,0.57494915,0.56430024,1.02452087,0.42103386,0.49876365,0.77808630,0.95237988,0.66648412,0.61904722,2.11271191,0.10473805,0.80553901,0.24318694,0.37409884,0.27377570,0.30575165,0.73609537,0.74971992,0.32539392,0.37636444,0.39334145,0.70835257,0.26120171,1.06804156,0.49890745,0.38924319,0.44696623,0.24170205,0.79922611,0.42117053,0.40137029,0.66801655,0.29621387,0.99974287,0.45618120,0.98691332,0.49410805,0.39761204,0.30499458,0.71237022,0.96286279,1.14970565,0.25952756,0.43302223,0.80596483,0.43953487,0.45175818,0.65319252,0.91433579,0.27222574,0.37982804,0.60903305,0.62870133,0.41428861,0.74407196,0.16007307,0.60953808,0.46834588,0.58072174,0.15431018,0.61240762,0.63141859,0.29642892,0.84932554,0.18936360,0.78509498,0.89941192,0.55886579,0.79621625,1.05895758,0.40669999,0.49190512,1.20974994,0.74787664,0.71397454,0.71428019,0.55549502,0.94351631,0.19604267,0.41884631,0.53984576,1.21618044,2.27292490,0.74943864,0.92275667,0.99526608,0.38220668,0.53081429,0.58717746,0.55547351,0.44075054,0.37253451,0.34966400,0.18437059,0.44999450,0.76480621,0.27724421,0.84552038,0.46374685,0.64313143,0.56393147,0.74960989,0.56800675,0.78444541,0.89791578,0.59724158,0.18527436,0.39618024,0.69440055,-0.03271735,0.30678523,0.60396111,0.55260956,0.63341951,0.37168571,0.50022370,0.16464640,0.47741255,1.05925846,0.63016897,0.47331667,0.69187117,1.00280571,0.79448915,1.16492248,0.58469450,0.38586557,0.25342494,0.66718948,0.60622764,0.69611031,1.03449714,0.74563247,0.50742245,0.29447895,2.63075089,0.40784508,0.74031395,0.39104694,0.57070988,1.04804814,0.39346313,0.83271223,0.38626355,0.88585877,1.00003958,0.48533764,0.65212512,0.37083077,0.52507317,0.31304330,0.56930649,0.72086793,0.35920879,0.56962335,0.55374509,1.17634273,0.61195755,0.66991949,0.72732615,1.02252889,0.62819773,0.52530462,1.17978048,0.42885903,0.59182656,0.22474708,0.58361799,0.60897529,0.63040191,0.31011260,0.32907292,0.61292470,0.46706644,0.71008855,0.55927122,0.77811933,0.90131432,0.49808863,0.31958279,0.11728483,1.04038286,0.23860484,0.97249264,0.73886955,1.36094642,0.52967006,0.72022331,0.09197253,0.41396987,0.31368792,0.59558648,0.61048162,1.20118427,0.77852607,0.61173809,1.03784549,0.45578864,2.04346251,0.65769851,0.79729766,0.63023996,0.52172363,0.87379241,0.55151176,0.70826513,0.73132575,0.58702946,0.78398520,0.33384073,0.76152700,0.29290628,0.70425141,0.87484109,0.70559365,0.66343087,0.92367160,0.81991470,1.12517929,0.66073942,0.51852095,1.00494373,0.70104122,0.54848117,0.45709866,0.53345263,0.39905086,0.65825832,0.50401932,0.42713642,0.51874179,0.84431362,0.57343245,0.54992986,0.46381828,0.57114846,0.84539562,0.35239261,0.40601540,0.75612682,0.21645409,1.55637121,0.42555347,0.67645824,0.71276402,0.08352218,0.70067990,0.32177883,0.53419077,0.56733268,0.66710925,0.50620806,0.42309597,1.09964466,0.24755272,0.87912798,0.65029347,0.69898361,0.75327998,0.29236096,0.72137046,0.57912648,1.06519651,0.22543187,0.58342367,0.45153207,0.69464558,0.40980488,0.69415104,0.53708315,0.26549900,0.27319178,0.62272727,0.86169314,0.42117381,0.48959017,0.58964801,1.01555264,0.31019855,0.30093372,0.39332047,0.33052331,1.61897933,0.13903792,-0.31250903,0.70304137,0.70627427,0.61962986,0.47357869,0.69613332,0.36886948,0.77181220,3.05280805,0.48841545,0.31743461,0.64683127,0.94755936,0.72869968,0.40554494,1.04987037,0.99683237,0.34762859,0.64914560,0.73138022,0.71250290,0.68061757,0.40728277,-0.72380584,0.66802800,0.67773938,0.50815773,0.41306955,0.27876067,0.55707860,0.81595385,0.90356231,0.70272279,0.66614723,0.34274140,0.67162919,0.22423604,0.62147260,0.53030896,0.34754267,0.54625934,0.52345443,0.84504211,0.93436325,0.98429251,0.83303553,0.51190853,1.26181948,0.28221512,0.82025582,0.35405609,0.26982886,0.39761478,0.94686472,0.36693510,0.48503286,0.81174386,0.46650779,0.78317982,0.73283416,0.42682788,0.64495671,1.18572390,0.61263484,0.94585526,0.98526764,0.45871833,0.36163804,0.42485392,0.89610720,0.79865241,0.94261169,0.79251111,0.84220886,0.78280377,0.41440934,0.43147531,0.35478038,0.58949775,0.77569860,0.51255596,0.26087591,0.51167750,0.88568461,0.52813196,0.25079018,0.51985890,0.86119109,0.54766804,0.75943196,0.41957605,0.09372641,0.31151545,0.92418426,1.22250712,0.38063678,0.21406567,0.55405176,0.61016965,-0.04650760,0.93490994,0.38808209,0.68315321,0.85158080,0.46757680,0.64513111,0.64368069,0.82048994,0.51792341,0.61481553,0.71722752,0.57938445,0.24398096,0.76539522,0.45653278,0.51199776,0.61581725,0.50204402,0.80405569,0.83831060,1.36924434,0.48764798,0.93545634,0.35265440,0.49085599,0.52702552,0.39780745,0.47621638,0.61018246,0.51649755,1.17841172,0.06452154,0.52205700,0.47217712,0.53452581,0.70922238,1.62804008,1.32443786,0.35349423,0.71266949,0.44110534,0.52801621,0.71591520,0.67342246,0.55369312,1.06184399,0.40711200,0.55434310,0.41692138,0.56500041,0.46375537,0.57373035,0.42626712,0.93822002,0.73858953,2.09979343,0.52218592,0.74522883,0.45855612,0.54540932,0.55942202,0.75657928,1.23499942,0.65366244,0.66290718,0.55780101,0.29460281,0.65943909,0.42948756,0.57702672,1.12533045,0.99018049,1.06956434,1.18607748,0.29583573,0.68836701,0.98249501,0.59068012,0.62560129,0.59955525,0.79054314,0.71028656,0.72079170,0.57793236,0.48579404,0.63168609,0.44815439,0.33388630,0.39173061,0.48888353,0.53489071,0.83420789,0.67654920,0.64536911,0.81088483,0.58536184,0.91860545,0.44243988,0.55879319,0.58354974,0.68843490,0.57353806,0.91362453,0.64863861,0.53473353,1.09501159,0.68767333,0.61344862,0.91104496,0.95162642,0.87373972,0.54284269,0.30522710,0.70500147,0.78337634,0.88850391,0.75556356,0.71731037,0.43247658,0.28987736,0.68948722,0.56881523,0.40160957,0.63276529,0.58746028,1.73837781,0.73119903,0.55823076,0.15811875,0.61823636,0.70700228,0.42232263,0.14414391,0.76808619,0.51122653,0.55575013,0.07978679,0.89253068,0.33110780,0.89630413,0.27218741,0.94895422,0.53582382,0.35809565,0.45843855,0.49156314,0.37495086,0.42718071,0.91594040,0.50393420,0.63677990,0.47620022,0.43338218,0.89346761,0.07245397,0.53562927,0.51582479,0.28171581,0.42504859,0.65458429,0.64118004,0.48784837,0.35519698,0.40906328,0.68723339,0.54613805,0.55291092,1.03395760,1.22126567,0.29532176,0.42100739,0.68151969,0.71373904,-0.58541042,0.33174083,0.52259672,0.43725085,0.47748214,0.95995849,0.28954861,0.31261179,0.43710941,0.74302876,0.63976121,0.47092950,0.62325722,0.39052016,0.65175140,0.52143538,0.71300393,0.40761107,0.70877981
EARTH,0.15597557,0.82312167,0.47812471,0.70548439,0.62127262,0.72102666,0.40707198,0.76194471,0.57235098,0.52249366,0.76707971,0.75184989,0.67272186,0.70967889,1.03176427,0.65176028,0.26018196,1.04852462,0.54369557,0.84544075,1.00580800,0.83799624,0.91464013,0.37070650,0.39277270,0.62880325,0.56855679,0.12282133,0.64989579,0.61653334,0.77271867,0.58537531,0.41194972,0.68797219,0.45559257,0.43323579,0.23875576,0.47837412,0.55832160,0.25439262,0.60939193,0.52698183,0.28801715,0.06022494,0.43931729,0.30797273,0.87078595,0.18326430,0.83030802,0.57842010,0.66266739,0.50419784,0.52940154,1.08858991,0.64687318,0.65670705,0.14590946,0.54195595,0.85215873,0.80464739,0.53589851,0.50190872,0.92154193,0.26039529,0.79799980,0.37925696,0.79418534,0.69240022,0.57398188,0.91761208,0.25133765,0.24012224,0.31445968,0.31130534,0.72167951,0.19550641,0.34005761,0.47866178,0.26027143,0.67787552,0.86835682,0.59539735,0.08773121,0.30408618,0.58758062,0.73466504,1.00110173,0.58002025,0.72273910,0.96358764,0.91203505,0.52535284,0.78260046,0.60097861,0.45594740,0.32165188,0.06660594,0.51209730,0.46262380,0.21573693,0.21332209,0.24551289,0.55262840,0.40230954,0.78520679,0.64917207,1.10561371,0.39738601,0.73255569,0.59879315,0.88991749,0.50412130,0.44369012,0.60013622,0.87490004,0.94325066,0.59255522,0.19908780,0.29815587,0.41175723,0.39322305,0.40436894,1.05407190,0.83839345,0.42684937,0.39018434,0.56262827,0.82254398,0.73474562,0.77816272,0.97129536,0.61826849,0.28048506,0.62774146,0.51628333,0.67491543,0.65101480,0.44420275,0.39196795,0.58700615,0.73146623,0.88753837,0.70819288,0.65522468,0.44874179,0.76099956,0.61313456,0.86313486,0.71645135,0.57736230,0.67572182,0.73711395,0.52534097,0.63592374,0.70590156,0.71960306,0.25312865,1.18026304,0.45223844,0.72427630,0.81479645,0.61580998,1.07939506,0.82490206,0.68639529,0.81630927,0.72115910,0.91557097,0.72828186,0.68858552,0.33058816,0.52767193,0.53436279,0.78892505,1.02853262,0.68090177,0.29579473,0.76949626,1.05284905,0.74515498,1.20892453,0.76029480,0.58605492,0.72080135,0.21794529,1.11561179,1.03821683,0.85024452,0.46438277,0.65415710,0.28510422,0.75954938,0.41525212,0.62475526,1.00658846,0.50589854,0.34151545,0.67005920,0.56976438,0.59130359,0.45447451,0.43214789,0.41105741,0.46632043,0.44850498,0.92663753,0.56573647,0.99285412,1.05970657,0.57810390,0.11645169,0.36369956,0.88042539,1.59808826,0.84703100,0.42235023,0.44783008,0.87169588,0.12546507,0.22255939,0.49725425,0.72370005,0.56478345,0.41130102,0.48900425,0.56815350,0.74532592,0.81246507,0.92751092,0.47970742,0.49957862,0.81503904,0.29686314,0.59935802,0.34767932,0.64920282,0.47980130,0.81473017,0.68134600,1.15399992,0.62956131,0.55730438,0.38947833,0.22689949,0.49472710,0.30295509,0.58029294,0.34497613,0.48617733,0.51519263,2.36323357,0.49237111,0.79496181,0.49881467,0.52276629,0.60259211,0.74349552,0.74562758,0.82967067,0.34827480,0.58187580,0.89905256,0.98037225,0.77051985,0.64361310,0.55315578,0.51111698,0.59208578,0.78096211,0.78711140,0.25854114,0.57317370,0.96641862,0.68697262,0.38045534,0.83071244,0.25229287,0.28579777,0.45849016,0.62369561,0.41259539,0.14536721,0.51082385,0.76647532,0.43164706,0.27381423,0.58454996,0.52113414,0.47398385,0.40934420,0.45504528,0.54930377,0.51116556,0.68936849,0.70274353,0.67720211,0.21307795,0.35714945,0.51563317,0.47273046,0.68901908,1.08304226,1.01148963,0.88940126,0.68736380,0.85651356,0.55180025,0.35818708,0.89236951,0.32994291,0.59524524,0.67362469,0.59612101,-0.21798781,0.61928850,1.01628554,0.73085952,0.35728633,0.24890155,0.67836797,0.32624024,0.28179020,0.24696505,0.82545185,0.84334648,0.47274750,0.50028634,0.18212983,0.76852161,0.70462251,0.35326591,0.79725528,0.47038370,0.60524893,0.94547200,0.47464889,0.67713284,1.16222894,0.98859954,0.34263557,0.41306552,0.97386307,1.08428192,0.57674658,0.70654976,0.64524770,0.28702515,0.20177816,0.80259335,0.58786857,0.46417749,0.31664109,0.95839894,0.74245656,0.29250097,0.40316272,0.47650075,0.82399404,1.10358393,0.60377884,0.54368579,0.45888028,0.57426655,0.71995229,0.72414076,0.68257225,0.21864921,0.93156719,0.28472969,0.45934141,0.80017889,0.41327053,0.51517653,0.73186845,0.59380293,0.51704788,0.57549191,0.58216131,0.58081919,0.68593210,0.54967219,0.89425826,0.73943770,0.52835441,0.65295893,0.72415161,0.63342798,0.67704636,0.38177606,0.56068790,0.96493518,0.66050321,0.37184471,0.56478769,0.36238915,0.75450051,0.39790097,0.33150500,11.19054890,0.38570103,0.92283720,0.62406641,0.82174051,0.39807445,0.80978715,0.92668873,0.15024272,0.56657386,0.88024127,0.60315174,0.62114823,1.07930505,0.58698308,0.56192058,0.38201296,0.57783031,0.42394742,0.41605651,0.58443338,0.71151674,0.72464830,0.63008451,0.73221421,0.22290751,0.81481469,0.32934058,0.71239519,0.58566153,0.40131456,0.45661423,0.57752657,0.32293144,0.52970898,0.34234151,0.41393250,0.92355567,0.51764065,0.65988618,0.75154567,0.47700626,0.88196915,0.66465986,0.68172526,0.67272580,0.18983173,0.62222618,-1.58206439,0.93443871,0.82108122,1.12762594,0.54661638,0.86336637,0.29510972,0.52845836,0.52971292,0.88653409,0.37026659,2.23194361,0.42755693,1.10445619,1.26803398,1.01403010,0.26066631,0.46872625,0.89093393,0.75891107,0.30447555,0.60894418,0.31217247,0.67904323,0.49643743,0.47861084,0.65478396,0.91093904,0.39380363,-0.01138446,0.34995443,0.25345168,0.37954175,1.03038657,0.26115376,0.77423280,0.34818062,0.81596941,0.42011204,0.97917438,0.51058459,1.26934159,1.56386185,0.95371264,0.64184785,0.52251518,0.36155683,0.37218171,0.39461100,0.52391994,0.71198708,0.41075405,0.72689635,0.58405089,0.41372928,0.67602783,0.51065868,0.82796907,0.54896498,1.02151430,0.06479675,0.35698491,0.31584388,0.32407182,0.46658882,0.20298725,0.30861643,0.68946201,0.76474023,0.65437192,0.66866648,0.82800847,0.70858425,0.67969525,1.03441608,0.62333369,0.19482994,0.84862709,0.54980516,1.01283300,0.36864763,0.60783136,0.65403414,1.57500052,1.12195849,0.74789041,0.89898819,0.68480814,0.55802876,0.71675104,0.54069090,0.49924418,0.39370191,0.59169281,0.84487212,0.26279193,0.48452243,0.39966542,0.23264366,0.65974033,0.53640032,0.74292374,0.65125966,0.53339785,0.60168314,0.56664830,0.62741303,0.76851475,0.32954243,0.40529615,0.97438145,-0.02321289,0.44192913,0.75415957,0.47140175,1.01285768,0.75597340,0.39029157,0.25034887,0.61315858,0.42638054,0.41922319,0.54986167,0.90004975,0.84687626,0.99857247,0.60140622,0.57346672,0.39827356,0.49426991,0.70131159,1.00000727,0.59104681,0.72689444,0.47447041,0.18435016,0.39336157,2.49830532,0.30885583,0.96650898,0.46480328,0.23197781,0.67981875,0.70855707,0.72098994,0.25483462,0.42928192,0.64701593,0.23953387,0.68899274,0.10961859,0.72824532,0.53055251,0.35708347,0.50366008,0.35503954,0.40505144,1.14091587,0.67209345,0.35010982,0.26756874,0.70744419,0.18232822,0.76512504,0.46106008,1.20619059,0.92476469,0.52411443,0.16564198,0.46737134,0.33499175,0.78203237,0.51682061,0.89773744,1.12604690,0.81093287,0.69933814,0.51745993,0.73541188,1.27987802,-1.14837551,0.43494081,0.12475441,0.58359140,0.45294940,1.28866720,0.91498864,0.52139843,0.55113471,0.58089870,0.25345305,0.30914235,0.24174246,0.66604960,1.37995410,0.87346840,0.56831861,0.26840201,0.83783066,0.89946842,1.80433965,0.85651392,0.91192299,0.61284691,0.62956029,1.04647374,0.29190683,0.71215355,0.84074914,0.56406319,0.65211916,0.90767121,0.77212989,0.43184352,1.00922894,0.66984022,0.04014491,0.70316726,0.59301883,0.81773078,0.99764067,0.31583199,0.74034518,0.56033325,0.90034467,0.50565910,0.75771487,0.33162034,0.66366678,0.77852303,0.53784633,0.39856386,0.05274756,0.57042980,0.53232586,0.57331395,0.27162457,0.58049691,0.35673475,0.75148141,0.29568875,0.46797255,0.03574758,0.76108980,0.63490593,0.87365454,0.78737724,0.11958937,0.45333445,0.51632822,0.31530380,0.39447042,0.63313526,0.66807568,0.33416224,-0.68771344,0.10045435,0.56117982,0.47920337,0.46190587,0.62705028,0.33106846,0.72454596,0.12663260,0.78065848,0.36715913,0.56560469,0.64014143,0.35172108,0.49962369,0.52733642,0.43488395,0.20087254,0.31015724,0.63874215,0.52272010,0.94479269,0.90504324,0.74319398,0.67428875,0.49030426,0.49008739,0.38128844,0.05829161,0.68692791,0.08605297,-0.08189160,0.42379686,0.68570197,0.23984495,0.16288497,0.64765185,0.78166187,0.52969229,1.59487391,0.32511753,0.48595122,0.97041744,0.93527287,0.51116216,0.51932919,1.07062304,1.04741144,0.99100375,0.58242607,0.89175725,0.56039685,0.38518679,0.54481369,-0.87413943,1.10211229,0.43466559,0.71050465,0.63838059,0.37384900,0.12526046,1.27496195,0.62969518,0.69015658,0.52256006,0.60105979,0.99789500,0.28728682,0.50622690,0.39845407,0.55404162,0.64262122,0.64618278,0.86584485,0.47614104,0.68973207,0.88154483,0.46088460,1.20989311,0.32135624,0.72670537,0.25649077,0.28921652,0.25070074,1.20611238,0.41214725,0.29951689,0.40691200,0.68305671,0.78200501,0.63630325,0.74162662,0.75718856,0.40405244,0.88227367,0.53512287,0.83855385,0.54906714,0.17781267,0.76040924,0.87054169,0.65871024,0.67478502,0.41342387,0.70604151,0.42709661,0.40886110,0.57348084,0.95500988,0.81982422,0.69832987,0.44518024,0.40384299,0.79063988,0.40041423,0.71064609,0.13683844,0.36487210,0.84508479,0.82945484,0.97395432,0.75086308,0.66693079,0.11267217,0.84593070,0.84247690,0.31201261,0.12778187,0.44057602,1.21953392,0.50347960,0.53465599,1.04542983,0.50203431,0.82491410,0.71931100,0.48612100,0.84959751,0.80471623,0.75341415,0.33355343,1.01510274,0.39561167,0.67901766,0.82370877,0.37258071,0.46087742,0.70061195,0.50808394,0.74024498,0.90144360,0.60081619,0.23214965,0.83493727,0.97044545,0.56823105,0.25932610,0.53408861,0.39740306,0.57826775,0.76873374,0.88342649,0.20968050,0.66586590,0.41613084,0.21374866,0.77431905,0.65199655,1.14438164,0.21929438,0.75293499,0.37199527,0.73866951,0.47497374,0.71142864,0.88048995,1.05598474,0.39289978,0.39041248,0.60535133,0.95988077,0.38075346,0.64206254,0.73196805,0.63688785,0.42944592,1.66047931,0.55744779,0.31512788,0.56536269,0.66154945,0.63117158,0.69050395,0.47363049,0.60161710,0.74683118,0.48233774,0.66575199,1.01400065,0.72356105,0.40648216,0.50765991,0.81446087,0.32321024,0.57775992,0.44668692,0.63048804,0.77664524,0.46420413,0.44518438,0.74294305,1.23766112,0.63461208,0.73017144,0.91876918,0.42155835,0.83456898,0.92726564,0.47187257,0.53656000,0.62771994,0.99995804,0.48909652,0.69710428,0.82950139,0.56693470,0.52510542,0.51956093,0.25391349,0.51046497,0.74203467,0.52489835,1.01218677,0.98125809,0.89945054,0.54867220,0.59482229,0.59450966,0.85003579,0.50240767,0.43011558,0.36934391,0.85752726,0.93407935,0.51557064,0.59394407,0.51747942,0.37290210,0.74053991,0.92482913,0.41096517,0.44518802,0.28694168,0.67767692,0.71310496,0.25213653,1.61273980,0.58328927,0.46006474,0.29114163,0.61191511,0.55455178,0.84263784,0.41402319,0.57362950,0.53720272,0.38371187,0.27005669,0.62485272,0.58984733,0.85252529,0.25932640,0.49096757,0.88609117,0.64615691,0.98959523,0.49186352,0.93519986,0.91195893,0.55788314,0.67628157,0.32963318,0.79073477,0.40971717,0.45861959,0.35694388,0.76531702,0.46828333,0.59387362,0.55436110,0.45444825,0.60132921,0.57327986,0.19788513,0.87065279,0.62115812,0.58775204,0.53044260,0.71604097,0.59336549,0.51035601,0.32624701,0.18381569,1.05421388,-0.15168661,0.64884150,0.43572959,0.61418426,0.35449749,1.18453670,0.57326669,0.33477721,0.71226317,0.61821866,0.92946470,0.94473135,0.87847990,0.30549529,0.73054922,0.36526456,0.65431190,0.55901700,0.44977155
FEATHER,0.48740348,0.63458031,0.74358052,0.81647050,0.32146600,0.22950479,0.87757647,0.98781514,0.62633699,0.77756506,0.57360095,1.05632985,0.65319014,0.22389019,0.50725073,0.31112611,0.44232693,0.58558524,0.96765453,1.32928693,0.70747900,0.83513099,1.24586535,0.61394882,0.54113346,1.33081400,0.64272511,0.40504366,0.61138183,0.40927908,0.60030478,1.20855403,0.29364765,0.43757293,0.75247693,0.37080121,0.09625278,0.68125838,0.61646426,0.64947021,0.23044455,0.45414910,0.53312671,0.53781432,0.36152500,0.44485903,0.68891352,-0.56329787,0.79537976,0.63532835,0.45109779,0.45853627,0.77759409,0.52927864,0.46443334,0.34815741,0.26817840,0.70822179,0.75305092,0.53894126,0.32521170,0.76570278,0.95246935,0.28776756,0.50727510,0.61940813,0.65644944,0.38442361,0.61641610,0.77185404,0.59983432,0.66191399,1.03108752,0.50888890,1.23128605,0.86143267,0.27511579,0.50316036,0.94694465,0.60508144,0.72462463,0.54050601,0.49677777,0.74236798,0.31520975,0.70952237,0.80323672,0.27976954,0.58169836,0.33406386,0.92849082,0.52131969,0.29304162,1.04895794,0.51097310,0.29485682,-0.07143989,0.70611238,0.65304506,0.31463999,0.52066827,0.57989836,0.63533133,0.54823643,0.39744475,0.54740083,0.63275719,0.56238604,0.51552892,0.61212039,0.78967154,0.33063039,1.08759642,0.33932519,0.72184771,0.74190354,0.34652042,0.29324648,0.61539453,0.52231216,0.89170772,0.76596594,0.60817194,0.75515920,0.28815243,0.55524051,0.20504028,0.44770589,0.56572855,0.58591610,0.45607835,0.66726255,0.46071342,0.79460460,1.21594715,0.50672972,0.50237840,0.33763671,0.32755992,0.71837020,0.93935901,0.80932528,0.67557418,0.90185475,0.60727155,0.26178476,0.66652918,0.43959367,0.58008659,1.01155627,0.88727379,0.84596598,0.36185646,0.32626924,0.62446588,0.49965060,0.61848485,1.33501315,0.33880037,0.58296162,0.47991139,0.63098127,0.79798764,0.49434474,0.51556814,0.59165645,0.97114855,0.84937179,0.70761305,0.64450991,0.42895174,0.53982186,0.78435779,0.71226692,0.27458614,0.46766418,0.93326646,0.53321147,0.77855659,0.83001697,0.56777167,0.60890639,0.81132621,0.26867595,0.57922745,0.21066807,0.75061935,0.55786872,0.54949546,0.95840418,0.97141302,0.43362340,0.62000704,0.69682562,0.78285217,0.76476669,0.44819173,0.41411692,0.69119108,0.51561558,0.73272485,0.24691918,0.84816301,0.92507899,0.34196889,0.77920741,0.51039994,0.48670635,0.72927642,0.76253390,-0.02235627,0.62543428,0.62401223,1.34491420,0.89862841,0.77021170,0.75644779,0.93081862,0.32742450,0.26432106,0.62559831,0.80007994,0.67338568,0.46597928,0.54615021,0.70274365,0.60168004,1.08317387,0.83626902,0.42556417,0.87646306,0.77023458,0.94694239,0.28647947,0.54592288,0.74842119,0.56120396,0.74486047,0.87673110,0.70994556,0.48223051,0.38847321,0.92622644,0.46420002,0.36021730,0.85151929,0.75957561,0.24976170,0.80198544,0.35186660,2.49243426,0.48476583,0.90859056,0.45160607,0.69849622,0.67998552,0.82767099,1.02353585,0.70233810,0.19300240,0.76086330,0.85258895,1.13262653,0.18914419,0.44025910,0.62474459,0.36683995,0.30951506,0.88146466,0.56783551,0.22972813,0.60231733,1.02385724,1.16148269,0.66908050,0.68968058,0.36842072,0.70947659,0.39114320,0.29953516,0.26143673,0.34301418,0.73898304,0.41344944,0.58999681,0.31031182,0.50999099,0.78481483,0.58353186,1.01678443,0.37067828,0.55676639,0.99275529,0.45753032,0.80981725,0.51309842,0.24047606,0.48664528,0.59754425,0.55223083,0.66175544,0.77720004,0.61224145,0.07157519,0.67304420,0.80360377,0.96424675,0.71695876,1.28440213,0.50185829,0.47796091,1.12292075,0.77053845,-0.00728235,0.21802145,1.01799977,1.02124548,0.53500336,0.55359381,0.52673304,0.88601828,0.68631834,0.22103029,1.70250845,0.89883095,0.53274524,0.60633600,0.47444502,1.27717626,0.61228263,0.66896677,0.23471865,0.54112971,0.58074152,0.47481728,0.40388250,0.48485309,0.85333550,0.80538321,0.40587273,-0.00078629,0.75902534,1.06408048,0.58211899,0.56121659,0.91643739,0.15724283,0.50804341,0.84616768,0.11407755,0.84793627,0.43329072,0.30895278,1.11869097,0.32414788,0.49838054,0.49815053,0.75097990,0.93785316,0.41911471,0.83574688,0.77441192,0.48441517,0.59037256,0.50526470,0.90673417,0.64075738,0.64073753,0.64946008,0.48207805,0.66226876,0.49525428,0.64586449,0.39286008,0.31236193,0.56536287,0.69006097,1.00896800,0.51266217,0.51229846,0.27976847,0.85330504,0.66225958,0.75565928,0.52047765,1.30091321,0.67184156,0.62006903,0.48077998,0.63666576,0.40810466,0.57027763,0.54335380,0.46761879,0.41617811,0.53066766,0.61587679,0.29022911,11.22357273,0.43800864,0.78974009,0.72152179,0.85468858,0.50453228,0.91553748,0.55657887,0.39379880,0.40519029,0.44816720,0.38294178,0.95682657,0.79538739,0.91963887,0.74198115,0.96130353,0.40646356,0.45421338,0.65340316,0.55669057,0.48653281,0.98949802,0.51162833,0.55394155,0.61659122,0.83401579,0.54172802,0.37414455,0.75134945,0.62611759,0.81221431,0.55398637,0.07519293,0.59371877,0.61425507,0.91239935,1.12183905,0.65078926,0.78833193,0.40519625,0.70354617,0.89928627,0.49939167,0.75039685,0.57990265,0.89051259,0.59182924,-3.05257297,0.87108517,0.41118386,0.83482999,0.26671740,0.62418747,0.51097214,1.05540729,0.47482479,0.47810805,0.62879360,2.27622128,0.49188322,0.87677741,0.69954938,1.10539198,0.48589554,0.73064977,1.07684779,0.60448158,0.31088865,0.44619039,0.31089073,0.83727258,0.26194268,0.93662381,0.45006692,0.65982664,0.25577182,0.61068034,0.62289166,-0.12871686,0.94254053,0.64616787,0.32275337,0.57290810,0.76358670,0.67092878,0.48228759,0.56037021,0.22550695,0.61019075,1.79710174,0.80871701,0.72975338,0.50637245,0.49780357,0.73849314,0.19005574,0.64381701,0.88032728,0.31147766,0.49117798,1.12825322,0.44528073,0.35102323,0.45620978,0.59929860,0.61538017,0.78137839,0.25826135,0.28462237,0.17194690,0.89586389,0.29471338,0.13079989,0.19928457,0.61443228,0.64671791,0.85540956,0.69419295,0.94604194,0.62307554,0.92544639,1.06488371,0.44304317,0.90793049,1.03645015,0.69610763,0.76601779,0.80518007,0.55696207,0.63661009,1.61895752,1.71971953,0.86791337,1.01441276,1.08324313,0.66995060,0.56528330,0.57604879,0.06457844,0.49620122,0.73599541,0.52768314,0.37532341,0.37353322,0.87467480,0.44253033,0.55336380,0.47339106,0.37296045,0.47647667,0.81549144,1.14841366,0.60826188,0.48797622,0.49036521,0.14940089,0.62208897,1.07445383,0.10167980,0.96994817,0.77316046,0.52022845,1.22017002,0.75467694,0.65064055,0.54183990,0.88627583,0.32008007,0.56237864,1.10357451,0.48061556,0.56067115,0.84469372,0.76998532,0.41407496,0.29376513,0.92422336,0.74410248,0.63395399,0.62568027,0.94846964,0.62431777,0.44189054,0.16774935,2.82032847,0.50594223,0.76539201,0.41671357,0.26004526,0.95053792,0.19789189,1.19259095,0.27197617,0.36612165,0.34796873,0.79656827,0.56400633,0.40205917,0.50492954,0.36132765,0.30972993,0.79320931,0.73477948,0.67820132,0.93394333,1.00051153,0.73670238,0.38547161,0.62657142,0.81057608,0.75864220,0.40469572,1.22810543,0.67520046,0.51221156,0.10191950,0.25532246,0.14445749,0.91340178,0.41463378,0.55959564,0.79869556,0.36603576,0.32718205,0.88284260,0.67293298,0.85661989,-1.08677530,0.56297481,0.32215455,0.61134505,0.38648662,1.22623289,0.71031129,0.77899230,0.55572975,0.72313607,0.10211518,0.89990383,0.73286700,0.37659228,0.86266780,1.34611535,0.60709977,0.43755871,0.52710658,0.83517647,1.95927572,0.89117581,0.58695030,1.02588773,0.71671891,1.07437706,0.20720801,0.70712936,0.65096688,0.60377252,0.46805274,0.43837744,0.80581546,0.35126805,0.77527118,0.49736142,0.77548420,0.51908576,1.07156610,0.61147130,0.81467426,0.63041174,0.67234236,0.90521753,0.99537402,1.02930641,0.93154222,0.20038638,0.38025349,0.62469590,0.64986467,0.80405474,0.19603933,0.76895928,0.32615060,0.17769164,0.09406593,0.73315156,0.86739343,0.77913249,0.31368741,0.66352952,0.39416891,0.35663152,0.60021311,0.18471925,1.15747893,0.57176393,0.57257420,0.42241383,0.36060762,0.82373410,0.40422121,0.44138676,0.51006120,0.46894455,0.56581515,0.56047767,0.71677870,0.58205020,0.65121394,0.61475652,0.62281668,0.52754623,0.59805846,-0.05838221,0.49455312,0.85338670,0.36155134,0.55447149,0.60449958,0.55255878,0.19876499,0.13521205,0.37505004,0.38796711,0.38155308,0.40360457,0.54260176,0.70489073,0.16574095,0.37032235,0.69464815,0.49807674,0.75083482,0.07453278,0.45078576,0.45293519,0.38775682,0.46632391,0.22877620,0.90739828,0.70124412,0.67339724,1.93577051,0.28740215,0.70956135,0.57754350,0.88692844,0.54839414,0.44797325,0.76315522,0.71929884,0.78050625,0.51680076,0.37516701,0.61680603,0.66154844,0.46886909,-0.77625495,0.99189579,0.46565732,0.87500924,0.57877326,0.82917702,0.62338108,0.97478569,0.83544081,0.67777699,0.59532309,0.48828369,1.04310989,0.52558935,0.29402494,0.47378570,0.61151028,0.83203256,0.59495401,0.47817621,0.52049160,0.76410592,0.83018035,0.69816560,0.70730746,0.47842324,0.82333463,0.41773021,0.74136293,0.29017046,0.77230549,0.69710803,0.33580172,0.47572434,0.54179639,0.40404063,0.32348672,0.46274209,0.55625069,0.32355243,0.68814981,0.52818424,0.79953551,0.54435551,0.34225583,0.40874815,0.66883695,1.22144055,0.84180486,0.24539007,0.48332068,0.54713708,0.32962784,0.53740513,1.04540038,0.73766840,1.20313621,0.45597029,0.70351386,0.77486199,0.73944932,0.81173253,0.46367508,0.41751343,0.84281659,0.36424780,0.63003194,0.83070552,0.28713602,0.25971523,0.72125584,0.70474553,0.54635650,0.31995207,0.55029047,0.74469954,0.33923635,0.99991870,0.57193089,0.71381593,0.41788650,0.37825727,0.44041404,0.70518637,0.70136034,0.63765788,0.75861287,0.40811214,0.80718476,0.50663137,0.50342822,0.49685317,0.73214161,0.81969416,0.75399750,0.65055513,0.83339012,0.71343756,0.03647551,0.86323255,0.54935175,0.74371505,0.33917201,0.88258970,0.67086267,0.77355480,0.55811983,0.89305913,0.51041937,0.96398628,0.68759602,0.21897659,0.78900707,0.90183777,1.49980092,0.53728080,0.61328709,0.72095776,0.38311711,0.79624778,0.93416601,0.68206328,1.05687368,0.47907966,0.78132188,0.47415465,0.42622948,0.23735431,0.63382232,0.31917265,0.47352380,0.15585205,0.96245170,0.43128502,0.58681357,0.69185328,0.72290999,0.60117888,0.72200727,0.62125564,0.67497957,0.58024591,0.48006237,0.45316261,0.69242549,0.78031832,0.43346930,0.86104572,0.57947773,0.27278042,0.50139505,0.53715360,0.54640949,0.48316938,0.82525516,0.66095865,0.70862365,0.53127992,0.89105552,0.75009501,0.37705296,0.68476093,0.57228637,0.74452978,0.43717200,0.60675383,1.21170759,0.60564643,0.70521867,0.60494399,0.72385836,0.43177223,0.43435064,0.42273998,0.80266011,0.53870797,0.55023444,0.50532019,1.02852821,0.49386007,0.55240339,0.40425056,0.68877649,1.01573670,0.41699848,0.72062248,0.92015541,0.51645654,0.56706160,1.05268145,0.67536211,0.98471135,0.80867732,0.32180130,0.52522635,0.56761360,0.58680791,0.57779586,0.50381178,0.73314703,0.49065590,0.84568071,1.50255620,0.97055274,0.51214617,0.39669710,0.60901338,0.80314201,0.68801087,0.63269818,0.74126071,0.78503352,0.30800849,0.58903706,0.49847692,0.83644199,1.23031080,0.48549411,0.64961565,0.32478321,0.81808722,0.87406194,0.44062355,0.76681888,1.03473425,0.52779585,0.39774027,0.43111759,0.75438499,0.67896372,1.30799031,0.24397014,0.46319821,0.60609871,0.22943814,0.65054864,0.52250576,0.70301878,0.19886456,-0.17298661,0.65105653,0.91671073,0.46804923,0.39899853,0.46572667,0.65136415,0.21843955,0.23223820,0.40327781,0.83233494,-0.33220279,0.45550421,0.64439315,0.80757958,0.58683765,0.66527832,0.39399725,0.17024016,0.61328489,0.79181504,0.77943909,0.67897815,0.54501301,0.94742626,0.45634037,0.48580021,0.29944560,0.39216369,0.58142942
HORSE TRACK,0.54161739,0.50252205,0.41009861,0.59054458,0.47000709,0.84570646,0.65274590,0.47463834,0.51696038,0.67865515,0.75585902,0.49449754,0.71003973,0.12387259,0.58511180,0.41848925,0.30656970,0.58293343,0.55457199,0.35694233,0.63956463,1.01131034,0.53931010,0.51404482,0.15993688,0.81682098,0.68639004,0.07975707,0.69914776,0.31955457,0.58670825,0.62195599,0.53014684,0.46925294,0.33875322,0.78309119,0.81107998,0.17461967,0.73641771,0.05941421,0.71271271,0.61111754,0.53685951,0.91144669,0.42921746,0.39506194,0.64925444,0.43754619,0.77793550,0.85808325,0.65188968,0.48279321,0.51188415,0.60282218,0.85008365,0.37771064,0.44230139,0.28079614,0.54187363,0.49350414,0.55093181,0.56268650,0.81258392,0.53816497,0.24951503,0.71102440,0.84201539,0.87199724,0.61179125,0.68008745,0.48112720,0.27665341,0.32063973,0.43017137,1.09189630,0.65221155,0.60514247,0.34531370,0.48354888,1.01571977,0.84082764,0.66063011,0.60690856,0.49484050,0.50565672,0.90888023,0.66738719,0.62696457,0.55355096,0.65689111,1.05171955,0.71157998,1.27865422,0.49224252,0.46816510,0.51579332,0.21917942,0.71106219,1.09086335,0.42267698,0.31788164,0.98668945,0.60453588,0.77889216,0.44745517,0.69978046,0.40467823,0.54187846,0.64427179,0.58783019,0.95184946,0.75034910,1.33442295,0.19816814,0.42807442,0.79862821,0.74255610,0.32805535,0.52270353,0.55353010,0.69359672,0.55347514,0.99544120,0.89158642,1.03366280,0.23088829,0.65131092,1.01616967,0.31232241,0.55210036,0.56706333,1.56023622,0.74279916,0.68559480,0.63742959,0.60027087,0.59177822,0.49905711,0.57707310,0.66804981,0.46507812,0.85571730,0.73457861,0.74847043,0.42181909,0.57128245,0.98927557,0.51475358,0.77183199,0.82142007,0.69398510,0.51269734,0.34045196,0.33458707,0.78006721,0.70055550,0.63512182,1.28574920,0.67507398,0.80148858,0.33243662,0.64465708,0.74805439,0.62929535,0.45745629,0.44455057,1.22206151,0.92042792,0.69554079,1.13035548,0.21196622,0.69738805,0.34738424,0.49540770,0.54141492,0.42114088,0.41823322,0.62778932,1.11474240,0.57038677,1.01988554,1.10220933,0.65056384,0.69258356,0.60989708,0.55017501,0.66898024,0.70374244,0.72712576,0.50521982,0.63334227,0.57020938,0.31881714,0.89469236,0.49909845,0.61652666,0.49848506,1.03301585,0.58763498,0.50725549,1.08798218,0.46665668,0.39631394,0.77316773,0.54651439,0.57339728,0.63890088,0.88940316,0.91128510,0.32844350,0.15509397,0.49469161,0.56889099,1.17608428,0.66405642,0.61385590,0.73101956,0.79096365,0.07421161,0.49668267,0.50459754,0.37870932,0.51205242,0.68438423,0.54837102,1.14041686,0.43330655,1.23755109,0.76618773,0.56103206,0.77510726,0.33706826,0.33496493,0.52562821,0.54082286,0.74245936,0.69284320,0.77584690,0.71284181,1.34394968,0.35754019,0.52073836,0.61605763,0.18341427,0.41073179,0.41894737,0.95224959,0.31750256,0.45793653,0.72689390,2.44434166,0.90353382,0.58244056,0.75910151,0.33435911,0.63593763,0.67644048,0.54518062,0.80234408,0.67543924,0.70093554,1.28365278,0.68409204,0.98179102,0.45797580,0.94668114,0.67585051,0.45616990,0.51196158,0.61902255,0.53722870,0.52490407,0.49250293,0.69413215,0.47491705,0.69745767,0.24673364,1.04821897,0.90010810,0.51840472,0.47170499,0.54363322,0.69406867,0.90585065,0.65650177,0.63625878,0.42775667,0.86735308,0.60923886,0.41776502,0.76856112,1.05651653,0.65733379,0.71420640,1.27743256,0.62723601,-0.10476397,0.41146055,0.68850422,0.77378893,0.59665710,0.96179527,1.01594472,0.26613545,0.68217856,0.72729027,0.65495694,0.76972640,1.06312156,0.59996933,0.43384433,0.58590031,0.81879205,0.14365342,0.92479306,0.87972689,0.70724261,0.36583057,0.59555733,0.86103141,0.92895275,1.29153442,0.84661674,0.69524676,0.72615212,0.42687535,0.39809495,0.19516489,0.56877172,0.44067654,0.59762728,0.75831741,1.29246449,0.41108358,0.63484395,0.63168716,0.53108656,1.06332219,0.81972861,0.26314363,0.25585407,1.00738358,0.34168786,0.38804615,0.65849459,0.62449056,0.03959964,0.47737974,0.78377199,0.36324242,0.69849247,0.62021571,0.63365209,0.75415891,0.56537229,0.61211735,0.58248544,0.63526815,0.61659044,0.28168818,0.58296722,0.38719893,0.82904494,0.83212805,1.02984357,1.01372707,0.50907224,0.36491898,0.83596420,0.26192492,0.65515852,0.93112767,0.90677190,0.46073002,0.85247976,0.59539390,0.57872725,0.68865108,0.56361747,0.81750572,0.33949226,0.80657327,0.44332683,0.67297709,0.36996078,0.50750613,0.50418985,0.71915007,0.56569272,0.75582445,0.32623327,1.04856634,0.80082244,0.37475523,0.38026455,0.23188682,0.66983235,0.25769931,10.33915710,0.64014262,0.45858058,0.60696727,0.62789363,0.44047123,0.52914065,0.57182825,0.19459864,0.89574361,0.48846364,0.50483578,0.59658360,0.81229866,0.31027609,0.67022669,0.44709706,0.49655831,0.76101542,0.45308733,0.34516352,0.90648007,0.95710140,0.36453426,0.26843029,0.41196343,1.60633302,0.62208796,0.34200066,0.58920950,0.30260086,0.52464306,0.61574489,0.88847959,0.89561224,0.48796201,0.60115325,0.79165781,0.49471068,0.62653518,0.60811466,0.37875962,0.76073730,0.88591897,0.59495175,1.05147779,0.38782084,0.78560597,-3.49193406,0.97779274,0.28175163,0.90422785,1.08537221,0.96055686,0.45425627,0.78496552,0.48701376,0.33476561,0.44166410,2.13707733,0.49638951,0.66080356,1.14275861,0.84350216,0.68867821,0.75891387,0.56309909,0.52120417,0.16860422,0.64275444,0.93270242,0.85860658,0.73571825,0.79711014,1.02461791,0.92966938,0.44465461,0.17969382,0.28671634,0.36604798,0.73455930,0.97412676,0.49180877,0.58784562,0.30171859,0.56478840,0.53554416,0.59134847,0.39023697,0.84445894,0.67933750,1.36240411,0.95726216,0.37341702,0.51406288,0.16065481,0.34467766,1.02855635,1.01063859,0.39395446,0.30477667,0.39334914,0.75687075,0.20248592,1.26284528,0.24394372,0.62878525,0.93098342,0.84311223,0.38707936,0.46866098,0.70907629,0.45857161,0.09741539,0.21962601,0.59865350,0.41342551,0.93142140,0.73259997,1.30965137,0.44257832,0.61979520,0.83228838,0.99425089,0.90957427,0.80196291,0.49188438,0.89862794,0.71283966,0.52223974,0.61104846,1.52461970,1.92737579,0.66548324,0.87810254,0.77472508,0.61663002,0.39944685,0.73769301,-0.05644219,0.55434614,0.72600925,0.49948433,0.48448992,0.88744521,0.72566533,0.40885898,0.57206458,0.12833446,0.77538985,0.80152595,0.43771914,0.39411238,0.54595435,0.87977862,1.28843975,0.46733397,0.45697728,0.71007144,0.21897647,0.31419602,0.81019413,0.74189985,0.91993326,0.60477185,0.84697551,1.07059622,0.40493768,0.61492515,0.07770707,1.01019597,0.60372478,0.90207142,0.34905717,0.55612576,0.55155611,0.24767950,0.51766002,0.80755186,0.85586298,0.55028087,0.96053398,0.74934024,0.50434381,0.38319746,2.76777148,0.47020349,0.43524882,0.40904176,0.21008471,1.80434871,0.52873099,0.90107739,0.13798346,0.63936543,0.51999331,0.31294024,0.92701244,0.95785940,0.59772468,0.52937728,0.49599051,0.92031682,0.49045479,0.61955440,0.56396234,0.75903976,0.10257713,0.48417920,0.40765256,0.85230404,0.68211263,0.72236383,1.47149682,0.50937980,0.39064631,0.30448675,0.33864525,0.72689068,0.61284339,0.66198277,0.53685355,0.80116194,0.19025072,0.35854799,0.57960677,0.66341251,0.76673210,-1.07223940,0.53419393,0.49158311,0.70431715,0.47253650,1.98681474,1.12740636,0.54888636,0.56496143,0.52432263,0.52899432,0.54441357,0.45145330,0.71707994,1.08654463,1.11638689,0.78573871,0.36639410,1.07661998,0.67422360,1.93168116,1.08010614,0.45761308,0.51028693,0.48018000,0.49025774,0.69452739,0.63830799,0.72208762,0.66809404,0.51344121,0.55688363,0.60390478,0.33611977,0.77661633,0.70993567,0.29482022,0.51062417,0.73429304,0.75750780,0.85483456,0.60180712,0.70078593,0.26108268,0.47549343,0.59186089,0.71184850,0.29514217,0.03169200,0.71612376,0.86174119,0.56126148,0.31123328,0.59063065,0.63456106,0.29520252,0.62172484,0.76727879,0.90261018,0.96625495,0.35269868,0.48966098,0.75746775,0.93342304,0.86530167,0.61962748,0.55989206,0.32294178,0.63276553,0.59507495,0.16158298,0.72192574,0.35616273,0.72990578,0.27698106,-0.04794953,0.53952754,0.74911427,0.70231891,0.56336969,0.98759735,0.90693057,0.54694247,0.48050618,0.68645525,0.37162626,0.52378619,0.76147538,0.55414701,0.60227597,0.68008906,0.51037151,0.23708461,0.51441121,0.86734092,0.43382648,0.39663887,0.54183286,0.56304765,0.61492574,0.47814557,0.44165111,0.51887256,0.86976635,0.74927568,0.24563593,0.79470068,0.63196003,0.38086593,0.51804554,0.23947817,0.81668144,0.43191612,0.44897825,1.85007203,0.43173307,0.30305430,1.13734066,0.53596419,0.61285603,0.39893460,1.12602973,0.77116442,0.52673888,0.53356576,0.64504766,0.64354384,0.67158931,0.50735641,-0.92722017,0.71047962,0.19208331,0.53129458,0.66994822,0.18040925,0.39922693,0.77167165,1.06760168,0.73139459,0.63851708,0.63184428,1.06994772,0.65057015,0.83478886,0.46279761,0.34533820,0.60026592,0.94034368,0.35054711,0.63470799,1.02470624,0.69290519,0.36234206,0.82604969,0.03471261,0.96100843,0.57187194,0.23924673,0.25314540,1.22877216,0.26017314,0.38016003,0.48762172,0.55293649,1.31679749,0.61720669,0.61482656,0.75421786,0.58633888,0.67526841,0.77403784,0.85084248,0.72299463,0.30993450,0.56779885,0.75275940,0.86867326,0.47325259,0.45842034,0.92607141,0.77709925,0.68003136,0.73299062,0.70480204,0.54008645,0.86030489,0.51622653,0.38133097,0.69551396,0.44483134,0.54993713,0.58251292,0.35014969,0.78034157,0.63505328,0.89463502,0.46159735,0.66320932,0.60471195,1.03616858,1.15869737,0.49973559,0.56485337,0.48736918,0.67063260,0.48753038,0.84509724,0.87563008,0.42518291,1.16765106,0.13172805,0.67985159,0.72625768,0.45881712,0.74203658,1.26342261,0.85381210,0.46487302,0.55040342,0.96052730,0.39900705,0.78352332,0.45876014,0.53174770,0.95726120,0.47983739,0.85421169,0.47583699,0.79431558,0.89636576,0.53141606,0.29292479,0.79126829,0.48562169,0.64772528,0.84031051,0.75847679,0.62626374,0.59931397,0.68411946,0.08540778,0.79155678,0.88978863,1.31211865,0.48299921,0.29861593,0.74925369,0.59273988,0.50828969,0.57313633,0.45261621,0.88166827,0.69397527,0.59000266,0.35426262,0.66150731,0.19424139,0.71804482,0.51053745,0.58625776,0.61465895,0.85527420,0.45249772,0.30400673,0.50303078,0.79255158,1.23075771,0.53264743,0.59299356,0.89893425,0.70768344,1.26264524,0.59900963,0.68641776,0.71785504,0.31403345,0.19667603,0.68061036,0.55671299,0.64606345,0.46953911,0.52623922,0.75306600,0.29080683,0.69770849,0.52986753,0.49047315,0.79823732,0.48034850,0.77702820,0.84861803,1.17784774,0.60220897,0.45648348,0.48132393,0.62181509,0.47328699,0.47264087,0.62160289,0.68362892,0.81341207,0.62424195,0.31970558,0.74224079,0.70675677,0.82370478,0.93975472,0.74546087,1.03169537,0.72738135,0.53413284,0.34934193,0.49293226,0.55845845,0.84531081,0.76240188,0.49859387,0.45700142,1.00337267,0.55849463,0.85934293,0.76595122,0.72863227,0.96837795,0.46436775,0.33357233,0.39155555,0.48663762,0.51063919,0.65522981,0.90953833,1.69288850,0.66740626,0.48295033,0.26435262,0.49765956,0.64033586,0.57639074,0.81599295,0.57148325,0.47957876,0.16570821,0.14667225,0.37781182,0.37965322,1.24720931,0.68469942,0.76752234,0.43473455,1.08914542,0.65069616,0.14188345,0.61628878,0.84832126,0.56930637,0.30469978,0.20029816,0.87910569,0.25512734,0.58529389,0.43452150,0.95404017,0.52362430,0.39771622,0.44004014,0.51211983,0.85128194,0.69391990,0.25964367,0.81162971,0.66927153,0.50546491,0.44161487,0.73367220,0.66827953,0.73623323,0.77126229,0.66460812,0.67862248,-0.56938612,0.56098282,0.32282066,0.58036172,0.44878358,0.90061486,0.44883466,0.03023928,0.29810047,0.67875266,0.93061018,0.75461626,0.47302467,0.22389589,0.59139419,0.38196170,0.58447230,0.26536638,0.76991832
HOUSE,0.55955124,0.70678049,0.62877464,0.54853719,0.48499775,0.29802203,0.32110232,0.45381150,0.41864860,0.77193129,0.44836193,0.26488453,1.02753782,0.18481731,0.29904148,0.37580627,0.48905215,0.60069281,0.61063850,0.67723465,0.31886229,0.88843083,0.58564717,0.33014309,0.30214587,0.66615915,0.59829724,0.16365546,0.49628469,0.26397941,0.91954398,0.53304923,0.26267856,0.54250085,0.46272799,0.36197510,0.16088369,0.26984406,0.70806283,0.50679022,0.31059688,0.70997679,0.69564116,0.18084806,0.23524997,0.32032129,0.78424454,-0.27382451,0.63016772,0.95849168,0.57361448,0.52345645,0.44816616,0.80217886,0.71842730,0.83163273,0.00969148,0.44475269,0.38623911,0.45095065,0.85705358,0.73781979,0.71400714,0.32316259,0.27050304,0.86897618,0.84441936,0.38889426,0.67491734,0.61652040,0.26038486,0.09259781,0.49394870,0.50183094,0.27737409,0.26489776,0.69914371,0.22308536,0.53184777,1.11550832,0.47974974,0.47231331,0.93267655,0.82665634,0.99301308,0.59062207,0.91730911,0.84452093,0.39225721,0.49954450,0.87810385,0.53524745,0.51907855,0.93942708,0.30793351,0.45035258,-0.01489610,0.42362005,0.99144769,0.14411715,0.67315936,0.36070940,0.50013685,0.52456999,0.50824690,0.32218730,0.50377131,0.31740752,0.76957464,0.74599695,0.64514005,0.36571902,0.69340646,0.43866622,0.18610708,0.70921540,0.54917037,0.30240503,0.18361853,0.75052238,0.45166677,0.59692252,0.68684220,0.92511928,0.64444220,0.59783494,0.46751121,0.45075083,0.48120522,0.69360840,0.50294155,0.86801302,0.67041731,0.61302000,0.77286589,0.62656724,0.52058131,0.37774730,0.73178887,0.96050525,0.77449721,0.88535035,0.56532383,0.77883381,0.70000154,0.45214668,0.56545222,0.50153637,0.69983900,0.40060085,0.60795158,0.59808958,0.33467728,0.37182769,0.56879300,0.30841762,0.46050048,1.28521323,0.55183315,0.53993678,0.58530223,0.55060542,0.38142285,0.68735623,0.71190828,0.74821520,0.61808139,0.69104797,0.46426019,0.74764132,0.26457813,0.73561394,0.27029705,0.48428857,0.37725681,0.64119017,0.42065015,0.45606580,0.79250509,0.76555890,0.78383416,0.69918704,0.63694733,0.34916544,0.28709909,0.50319248,1.05572701,0.73190773,0.42257166,0.71421295,0.41769654,1.07049882,0.33682480,0.97976768,0.52821624,0.91280031,0.21759574,0.35979033,1.32934999,0.47608951,0.50936633,0.08375473,0.62533081,0.80759466,0.60172898,0.65202028,0.54549700,1.42666411,0.85798049,0.37415439,0.02031282,0.24321565,0.69700354,1.83443809,0.67942780,0.50094312,0.79160500,0.53301233,0.33359164,0.17283434,0.15171193,0.74799448,0.73051554,0.34807462,0.70607007,1.09077370,0.41947445,0.79861581,0.67995155,0.41158253,0.33527029,0.77997530,0.52465487,0.22525834,0.33226037,0.69600737,0.79217058,0.50004417,0.71980810,0.33453313,0.37307572,0.53278452,0.49247843,0.33751053,0.24962775,0.64157021,0.71668613,0.21909918,0.58458173,0.53867602,2.37148762,0.25063780,0.42980340,0.48523006,0.56549513,0.69909954,0.74118125,0.78151214,0.78058827,0.27989337,0.40760446,1.06441820,1.00788641,0.44724104,0.65690523,0.33117288,0.48197466,0.56908762,0.60553461,0.49369597,0.43535447,0.50116634,0.52250034,0.81400424,0.86716056,0.43242896,0.42756093,0.39360803,0.34969130,0.47244498,0.47010824,0.72166526,0.58637476,0.85635614,0.30920547,0.33980903,0.39058229,0.37216198,0.46731001,0.32002988,0.71257889,0.48524809,0.68821347,0.68334150,0.74081975,0.63327390,0.93649042,0.24459773,0.61171734,0.26639843,0.29913068,0.73301148,0.54352844,0.17906064,0.72497785,1.09781146,1.08264983,0.79033458,0.48306853,0.53674144,0.42449644,0.48299024,0.57074940,0.28284228,0.36518580,0.86241460,0.77703702,0.20167720,0.42807636,0.36495966,0.56922323,0.61391878,0.55020809,0.80305266,1.23197675,0.55115128,0.61843765,0.31727147,0.72627866,0.58356988,0.42676854,0.31735015,0.17718570,0.48804444,0.54855531,0.36619374,0.42905098,1.01936996,0.92540371,0.22498876,0.20373172,0.78741515,0.66996187,0.33791038,0.95908880,0.42138803,0.53218389,0.44869387,0.57548821,0.28958881,0.67863727,0.49707946,0.62382561,0.71693724,0.40715757,0.42380857,0.28516483,0.52503914,1.02522933,0.26968652,0.45823938,0.84281284,0.51441699,0.66859895,0.61511147,0.91690922,0.26552117,0.30385137,0.37174150,0.70787632,0.57547772,0.32500181,0.62464118,0.62674057,0.09546623,0.56061864,0.65267920,0.48918161,1.03424001,0.84558761,0.20562096,0.78320187,0.31728804,0.04219061,0.29275382,0.77036673,0.53764480,0.77432698,0.65048766,0.85804176,0.47224575,0.56231004,0.41729119,0.33339426,0.29912627,0.67213172,0.57026970,0.61428291,10.07664204,0.36296037,0.85481524,0.69594669,0.71408933,0.47837669,0.79840702,0.82854956,0.25577101,0.53703916,0.73809898,0.58555293,0.51631629,1.04875767,0.37880749,0.87547946,0.25900817,0.49045265,0.03062320,0.63985372,0.59328288,0.38616285,0.67730725,0.44425392,0.47592533,0.57929987,1.03708720,0.54860282,0.60038459,0.42684639,0.50294918,0.68635666,0.73504782,0.57292241,0.45482218,0.33183825,0.54756367,0.77888417,1.33829808,0.88979006,0.71106946,0.32691824,0.71508980,0.64947754,0.49384269,0.91726065,0.27099109,0.71850133,-1.48605275,0.81121993,0.31406114,0.48313895,0.17581767,0.78548008,0.44740534,0.72239625,1.16194820,0.38012466,0.11054191,2.12153196,0.49830100,0.94717258,0.25092569,0.86859304,0.42553726,0.86118954,0.71379900,0.52308732,0.36960509,0.59570265,0.36120737,0.81134206,0.44045952,0.45943114,0.68760884,0.61042404,0.52806294,-0.24905416,0.14049320,0.05896190,0.42222291,0.49152130,0.25309375,0.29922110,0.42375398,0.73326457,0.77777922,0.63033497,0.24584906,0.66981238,0.81938231,1.08570755,0.30414903,0.37565249,0.53721136,0.31931818,0.54436940,0.43443146,0.73375279,0.19207053,0.39050335,0.56821597,0.55134428,0.39575654,0.84843433,0.47413030,0.29808086,0.98996687,0.37919086,0.53572631,0.59019887,0.63907981,0.58052510,0.29504779,0.38561085,0.86416590,0.90370929,0.71474141,0.56083542,1.01821196,0.56009573,0.47924775,0.79094845,0.95410150,0.46574542,0.52148515,1.02222204,0.78177464,0.27909917,0.25602660,0.50604975,1.20066118,1.10471249,0.81277794,0.86010969,0.83392632,0.50521523,0.71285844,0.71190548,0.35542819,0.42973343,0.62769282,0.55706275,0.62039864,0.16730067,0.69414979,0.54789829,0.85826606,0.40843406,0.56046736,0.58605325,0.37796971,0.50518364,0.63405406,0.69610894,0.87663591,0.32421425,0.51092052,0.88494295,-0.10570905,0.21802969,0.82257068,0.74227107,0.88889760,0.77792549,0.51994509,0.50744820,0.61415267,0.40926558,0.47860691,0.55834353,0.84207773,0.23679778,0.50299823,0.53690875,0.81015241,0.46299881,0.39285761,0.61776125,0.75159264,0.38874179,0.81076252,0.68569410,0.29671755,0.31841701,2.50422382,0.89021063,0.87686682,0.75251549,0.40192038,0.81833649,0.50097549,0.80191326,0.52744383,0.67374265,0.12210966,0.12329197,0.70740515,0.20428330,0.20279416,0.45141298,0.52086711,0.39041302,0.58825982,0.43339664,0.71271408,0.58993095,0.21643706,0.20443827,0.54462463,0.53108978,0.62605429,0.46835971,1.21952271,0.66045648,0.48524264,0.07526539,0.78069997,0.30491346,0.60521996,0.11533912,0.50914961,0.72242308,0.34894842,0.60909426,0.63097292,0.43938896,0.79780072,-1.00038695,0.56100923,0.43905440,0.49690852,0.60139579,1.04497278,0.68225145,0.11108173,0.74747682,0.46749187,0.41808707,1.37484765,0.32818234,0.92765778,0.68838656,0.96874428,0.30700386,0.62070781,0.86361212,0.58527756,1.86924839,0.50456452,0.64098132,0.75843823,0.39712569,0.78875774,0.25198117,0.71293366,0.60546124,0.48200530,0.49543136,0.52467698,0.56162643,0.27410880,0.67824745,0.75403959,0.58395851,0.65944338,0.81442434,0.63725305,1.16062069,0.62800622,0.58284092,0.86584103,1.07817781,0.69253248,0.63242239,0.29085875,0.30802763,0.65569830,0.54475504,0.49672493,0.18884340,0.46403924,0.37610155,0.85557443,0.39775503,0.53260267,0.29377741,0.35895169,0.44392353,0.47902793,0.62343860,0.93826729,0.68770981,0.45174268,0.61355007,0.31669718,0.16883281,0.27510124,0.22578992,0.25007117,0.50033718,0.73698688,0.23492649,-0.31151444,0.31770286,0.70012319,0.36430812,0.62092113,0.71285677,0.61907429,0.88822991,0.58226925,0.47362411,0.08513090,0.64745641,0.31198186,0.41249847,0.30515921,0.48348093,0.57012278,0.16026402,0.24264213,0.70390099,0.37126088,1.02157879,1.03217757,0.42956159,0.39365155,0.33571982,0.54658067,0.38837451,0.24317056,0.94013274,0.17266774,0.56866723,0.97981447,0.63591695,0.12961832,0.50647712,1.14427280,0.41096947,0.25748196,1.70565271,0.17211471,0.82732487,0.86873615,0.93639457,0.55007929,0.18899541,0.61388850,0.69574726,0.64642668,0.21977320,0.71954751,0.13547525,0.50571144,0.38467020,-1.18907273,0.78441489,0.36135390,0.69732618,0.55528498,0.25324658,0.63053775,0.81888974,0.94695354,0.47688976,0.80038869,0.34872764,0.78484797,0.44720814,0.58218217,0.36116084,0.34117010,0.55326545,0.44006610,0.60719651,0.74923205,0.51063585,0.86880964,0.46662050,0.73550928,0.30874848,0.45689866,0.22243021,0.58411318,0.26996711,0.62780708,0.41723838,0.54735667,0.39821699,0.46563286,0.97311062,0.31362689,0.70676738,0.42509907,0.26840273,0.81351554,0.60508329,0.71446264,0.59949088,0.33686024,0.42730725,0.57858503,0.43218431,0.44990319,0.57434094,0.54477239,0.75588208,0.59862471,0.48103473,0.54562050,0.77899313,0.55671859,0.47389582,0.70902705,0.82691044,0.44470000,0.40878913,0.08099967,0.43713957,0.61869264,0.50048554,0.79573500,0.35312471,0.35720444,0.51748943,1.20259213,0.75847590,0.04984093,0.13981465,0.43627578,0.39569402,0.43931091,0.83580250,0.45172319,0.26247942,0.30286813,0.31587434,0.35695523,0.56100070,0.51451021,0.42045185,0.39626396,0.34501070,0.08026379,0.35823077,0.82019991,0.15961510,0.22232676,0.64904237,0.44571382,0.92790377,0.83500898,0.77274489,0.57105112,0.93574840,0.61739779,0.53627902,0.19986653,0.44972086,0.54992211,0.75084269,0.64618754,0.75991738,0.30141550,0.72662807,0.71762812,0.18840894,0.73017579,0.72180665,0.96046317,0.40618348,0.47481444,0.35988185,0.58091366,0.70294803,1.03246498,0.68672687,1.25686669,0.51295590,0.22204235,0.31207365,0.78256774,0.17424831,0.55368924,0.73751545,0.63712382,0.27930981,1.22134745,0.52489150,0.92976230,0.70571446,0.75336683,0.58507949,0.29057631,0.36178708,0.54437953,0.54133725,0.62210059,0.67119724,0.49249655,0.50364661,0.33334523,0.60767889,0.49585050,0.45129210,0.96847057,0.68323338,0.28893268,0.60048467,0.45353785,0.57399762,0.54573405,0.99784762,0.51043242,0.68601131,0.50349057,0.34185067,0.29834765,0.66335112,0.47666126,0.54430020,0.36925775,0.77619839,0.28059861,0.80373389,0.62647438,0.29842150,0.73505908,0.14518461,0.71432000,0.52959991,0.44344583,0.58188069,0.71760863,1.10389066,0.52913123,0.47590017,0.85742754,0.51260889,1.05438828,0.69954079,0.36804903,0.39425814,0.64934850,0.86037505,0.49919870,0.71464932,0.80027062,0.70337218,0.70596254,0.68872678,0.51501238,0.62056065,0.48772323,0.45668805,0.70192909,0.42000180,1.47316098,0.63081485,0.51576453,0.67150241,0.69541728,0.60535967,0.51137710,0.24315938,0.34922105,0.77974182,0.71466857,0.45386317,0.48650938,0.55663079,0.86988044,0.28273112,0.47828841,0.57157528,0.28934661,0.98193085,-0.17551270,0.55100572,0.71679389,0.17813700,0.13802697,0.22129670,0.90240717,0.42160642,0.60069615,0.19977970,0.79241478,0.82323682,0.25321463,0.62459558,0.27131674,0.68065983,0.67634392,0.10033632,0.37895957,0.44814563,0.35504374,0.48510876,0.89412946,0.64059442,0.59502995,0.40116948,0.58775616,0.47454876,-0.57071722,0.43164396,0.44392908,0.91305172,0.70894998,0.67462295,0.81536245,0.14832821,0.46881098,0.37722567,1.27645004,0.52508181,0.74755406,0.36070871,0.37656617,0.57254368,0.34070846,0.56241596,0.51480228
LIGHTNING,0.56728899,0.59559584,0.39583176,0.78909457,0.39256516,0.75160313,1.13342261,0.45699555,0.51394254,0.45227176,0.78654873,0.41090351,0.91079652,0.40400207,0.60164994,0.29767391,0.44859666,0.67275375,0.70549941,0.98648036,0.23269264,0.67217445,0.77159822,0.13214196,0.42562979,0.65575695,0.57670271,0.42430332,0.56553340,0.19191472,1.36082315,0.41195327,0.69683385,0.73298705,0.90422857,0.38507053,-0.01321980,0.10151356,0.87488335,0.57327050,0.26070726,0.71256542,0.26562747,0.33008352,0.48301086,0.31660259,0.68216276,0.06682368,0.78096288,0.43157578,0.50869632,0.68580037,0.46770471,0.87047350,0.65909249,0.62729871,0.44307366,0.40137249,0.42072153,0.45901114,0.40374023,0.35114396,0.50694603,0.20824766,0.27195334,0.59436172,1.14144528,0.75631398,0.47492778,0.41740543,0.06494288,0.49521273,0.74788648,0.83999437,0.76430631,0.69427603,0.56300831,0.67802471,0.50422132,0.55677485,0.60107732,0.74974406,0.42143863,0.26509383,0.26879328,0.77693462,0.98373425,0.56413543,0.44527113,0.88388938,0.81493312,0.61150157,0.30952173,0.65078580,0.46972573,0.99101031,0.00594082,0.36923975,0.89415342,0.70018703,0.38446242,0.40958562,0.70658362,0.83201355,0.44178501,0.31884891,0.50253761,0.18062180,0.75919998,0.40491539,0.58017969,0.49600098,0.29394454,0.40630993,0.14525262,0.74612093,0.56785536,0.30097824,0.71977866,0.32076746,0.33455765,0.55810261,0.65081036,1.04152083,0.52081585,0.51742804,0.71585715,0.15891393,0.61897504,0.77339470,0.68646008,0.63817555,0.43226990,0.42213851,0.86922705,0.27738193,0.35692593,0.50222671,0.41963899,0.78947908,1.15825999,0.58767611,0.75683963,0.88900155,0.76991844,0.70380414,0.84428567,0.60642099,0.51198065,0.80595303,0.81370890,1.00203800,0.69808054,0.16504692,0.91992468,0.73950291,0.92969948,1.05126977,0.22767550,0.60019112,0.58968544,0.67624468,1.10663283,0.74290764,0.95504999,0.48519742,1.24679279,0.81038654,0.58818662,0.97046715,0.60516566,0.59082580,0.52298701,1.03603399,0.48552418,0.63220441,0.84257340,0.89575386,0.81998897,0.54147661,0.87845314,0.55980599,1.40507293,0.80119884,0.51240516,0.49236107,0.62142503,0.65747941,0.53954309,0.45573407,0.46275097,0.38239154,0.48710012,0.67488152,0.49326894,0.48900437,0.41562200,0.33883849,0.50153619,0.49653000,0.76497257,0.17609426,0.23575303,0.63655335,0.57248932,1.23650694,0.47683018,0.72700548,0.93439835,0.61460817,0.34410974,0.41360426,0.52951914,0.85210311,0.74397337,0.60976350,0.74134374,0.84687591,0.47457626,0.66461748,0.41442552,0.54658175,0.88019216,0.48811218,1.00362396,0.53797930,0.64866793,0.67854744,0.84368283,0.62553215,0.96080387,0.78012991,0.44615233,0.78754747,0.51780879,0.76474214,0.56401002,0.76415312,0.72225308,0.27968261,0.48855811,0.81159854,0.49667221,0.44888312,0.31465083,0.80613387,0.71709043,0.08353648,0.81892240,0.61451894,2.36508751,0.76385486,0.66884261,0.71611613,0.51599866,0.55219811,0.55701470,0.64697963,0.78910899,0.37534565,0.74117112,1.48097825,0.55395287,0.44153935,0.41099471,0.69316906,0.70475203,0.39317846,0.24496606,0.49250379,0.29939768,0.42569524,1.29262364,0.66835022,0.68716693,0.74787909,0.55039537,0.37221313,0.26609993,0.69337869,0.84907293,0.43290874,0.71606195,0.66047734,0.36479539,0.77933520,0.70115900,0.39688021,0.73589253,0.61251760,0.29200760,0.62427509,0.57326090,0.88589120,0.80133867,1.24835777,0.19822821,0.20413382,0.44422132,0.33101434,0.10464825,0.66667509,0.58247262,0.15526900,0.44521949,0.93459803,0.92553848,0.69747961,0.96519887,0.52942991,0.69005835,0.48828062,0.74156636,0.35204914,0.33566356,0.82797337,0.91365933,0.60694444,0.76225680,0.53056371,0.41037196,0.69218731,0.49466607,0.78859025,1.11206627,0.55887914,0.01801661,-0.00469929,0.83137178,0.48602539,0.51098597,0.14974575,0.37532350,0.66258818,0.59750640,0.52026135,0.60061556,0.92179805,0.65686029,0.23750253,0.22470298,0.83268499,0.36994714,0.49334115,0.50083244,0.58494258,0.47104940,0.46269274,0.75793290,0.20156032,0.69069898,0.32426074,0.82534581,0.88672692,0.61531842,0.15120971,0.61454767,0.82874972,1.01854789,0.46564874,0.86408961,-0.18955567,0.73021185,0.91464347,0.57038194,0.59300351,0.63470322,0.91381025,0.60950661,0.40934268,0.67863536,1.01351810,0.85367996,0.79587311,0.53455508,0.41093272,0.54615819,0.60053599,0.90984344,0.26242203,0.66299045,1.14010525,0.16224593,0.66721815,0.32545680,0.74988669,1.01864743,0.68495560,0.70086944,0.76267260,0.59625435,0.48757225,0.41058362,0.65781260,0.63628268,0.42980897,0.77981830,0.57612550,9.65534782,0.81603813,0.86141837,0.29658127,0.87137079,0.59379315,0.54332298,0.55324668,0.57875770,0.54630595,0.50049549,0.01848142,0.87872851,0.75775731,0.79616725,0.42674911,0.73179287,0.52049184,0.41175854,0.75506693,0.45353639,0.41001168,0.59114397,0.43713593,0.59150076,0.47641405,0.73109186,0.68649626,0.65632999,0.63037181,0.32168835,0.92242450,0.38725433,0.37797493,0.87922621,0.48125526,0.65997571,1.18756616,1.13734674,0.25346756,0.49829572,0.17571369,0.67140532,0.68783045,0.62757456,0.81211895,0.99405229,0.53825337,-2.40784049,1.10965562,0.78450447,0.67848736,0.82173437,0.41808963,0.78836811,0.90393513,0.57823122,0.46287709,0.25300789,2.18288422,0.23328066,0.71731132,0.49236405,0.78671861,0.42812181,0.47813332,0.80173647,0.91780269,0.29299545,0.73869628,0.47862157,0.99737620,0.43900439,0.74782693,0.52149945,0.98247075,0.37762418,0.93413579,0.66805065,0.01299581,0.86827278,0.65573007,0.26838201,0.79415321,0.46455711,0.79115653,0.66139436,0.59002799,0.54764694,0.55205578,0.75631690,1.25436544,0.34817636,0.57412672,0.65297478,0.51280004,0.50505990,0.22878486,0.79005766,0.40687275,0.62593043,0.91200370,0.76028550,0.62563968,0.58154041,0.91541350,0.48885179,0.88399833,0.92472529,0.27940845,0.47083485,0.75325072,0.53562826,0.25192410,0.10329138,0.57751358,0.60040486,1.02426636,0.47618794,0.79308546,0.49997073,0.48960719,0.71588522,1.15468001,0.49864256,0.79755211,0.30374521,0.92707586,0.85896015,0.57025516,0.63789141,1.31590390,1.50798094,1.02273417,0.73600841,0.71087128,0.41888106,0.85358548,0.29850784,0.15174639,0.84286302,0.59967923,0.43665388,0.46198997,0.34810096,0.60339868,0.29786277,0.71675062,0.60326672,0.57548636,0.52060002,0.66484588,0.34842414,0.63573468,0.65448916,0.78588569,0.57128900,0.58322108,0.86712509,-0.01052186,0.40242308,0.57384706,0.73228061,0.89233029,0.59509724,0.40723789,0.54451096,0.37246174,0.43856174,0.38393021,0.47194874,0.42509323,0.46554691,0.42869040,0.62738669,0.48031586,0.81220472,0.40859151,0.26718566,0.47843236,0.47425568,0.56374371,0.93648809,0.39298597,0.18791854,2.74716687,0.53954720,0.28467381,0.45683244,0.42085147,0.88027859,0.32503766,1.34999728,0.35305655,1.02828908,0.43636307,0.78762555,0.55575424,0.50188422,0.58965516,0.23465864,0.76714116,0.84887832,0.70245838,0.40754482,0.69388866,0.83964300,0.22217776,0.39365661,0.73371589,0.70905733,0.45458591,0.42335287,1.04084969,0.50769150,0.45812905,0.62669355,0.52657431,0.26422885,0.42441344,0.28639323,0.42322707,0.63688874,0.47267509,0.51796526,0.85888135,0.44595107,0.83862185,-0.71148407,0.16935842,0.26863828,0.96425903,0.92653060,1.87494934,0.66281307,0.81908256,0.69389743,0.94613642,0.03835385,0.96749783,0.86377615,0.34981057,0.53423929,0.82342339,0.90716767,1.01877534,0.65235901,0.47861540,1.88973141,0.67892623,0.36707720,0.64117348,0.83959806,0.85301745,0.46057323,0.86393601,0.73641080,0.56083155,0.63731235,0.41131914,0.80626357,0.33422217,0.59192508,0.62644023,0.67844945,0.29684383,0.88724363,0.86715996,0.86348432,0.71556330,0.84351635,0.77121019,0.76647520,0.80881810,0.46198061,0.18271229,0.22572613,0.87636250,0.67049569,0.80746031,0.04725833,0.75452739,0.72471267,0.36952937,0.45164508,0.45026681,0.53710645,0.78932703,0.53469455,0.16776967,0.27755451,1.09151149,0.66746479,0.52481687,0.77505302,0.26399633,0.76068288,0.73823297,0.55716938,0.69163555,0.78927219,0.37692633,0.69723988,-0.01285201,0.48109317,0.95672154,0.78936541,0.97016013,0.49161205,0.34178731,0.52062827,0.50514627,0.56200802,0.13476968,1.57198179,0.35564083,0.33867854,0.27941611,0.79772925,0.51279718,0.16430309,0.40860286,0.97735786,0.38924360,0.50832951,0.68356961,1.13293099,0.50131369,0.21021962,0.18010584,0.39296004,0.64645553,1.79170287,0.13466731,0.45317063,0.63759679,0.49403834,0.11270362,0.22383016,1.15344477,0.79759586,0.83528614,1.80088103,0.33060056,0.93513560,0.71516925,0.77285385,0.25986797,0.57953745,0.78224397,0.44357508,0.51542443,0.44848526,0.36867642,0.40624562,0.85006690,0.49732953,-0.40577778,0.52764279,0.51879346,0.69771051,0.49217075,0.44146925,0.71843010,1.22890854,0.73857021,0.64523917,0.62218946,0.57050461,0.82290012,0.29997319,0.79069084,0.79252458,0.47398955,0.51750827,0.24702185,1.10776412,0.25681630,0.99615604,0.81117910,0.43598843,1.01727796,0.14462909,0.92559552,0.49613988,0.49072176,0.58637977,0.68727624,0.22142820,0.64377046,1.59329093,0.41059297,0.90518361,0.50455660,0.68046808,0.75590688,0.07053553,0.58212852,0.56796539,0.82368886,0.55111492,0.49524140,0.51504135,0.52145517,0.28033966,0.31655064,0.20177415,0.43265706,0.72018307,0.54658109,0.56295943,0.77926958,0.58978784,1.18899727,0.78917438,0.12801453,1.08378243,0.15772665,0.57250959,0.41516751,0.32758510,0.71771538,0.62691897,0.49448901,0.51507115,0.46823207,0.76328552,0.62761164,0.83486658,0.72906530,0.52004480,0.59690177,0.56495082,0.33867288,0.70144582,1.02992427,0.57460016,0.79925305,0.29803282,0.42561945,0.75717032,0.71481574,0.90609676,0.68609858,0.92673218,0.51648140,0.63428295,0.60453504,0.47323656,0.64372355,0.59568578,0.61168349,1.01469326,0.76375699,0.72855419,0.19031766,0.86611742,0.71999705,0.82374382,0.49838206,1.01075423,0.48141286,0.65973562,0.89894259,0.63691890,0.04259579,0.97856796,0.62176859,0.19813219,0.84537214,0.79407346,0.91809237,0.74658883,0.43018484,0.29683900,0.67881811,0.72068137,0.81812024,0.61770046,0.75704455,0.87805504,0.46915147,0.18125236,0.82550716,0.06470417,0.66688073,0.25672153,0.51041621,0.53956908,0.74555904,0.42889959,0.63514435,0.54213756,0.76558650,0.53650808,0.71390355,0.92326200,0.53401065,0.66798097,0.59507507,0.35148299,0.72984576,1.10107756,0.73181295,0.89248002,0.67323530,0.56775498,0.47780091,0.65572739,0.56755376,0.57359242,0.45428351,0.37972552,0.85116583,0.81402802,0.74728477,0.43743384,0.42323989,1.07072186,0.71191645,0.77925503,0.45067757,0.73757678,0.33216733,0.49921981,0.43460429,0.88301796,0.69112062,0.52313578,0.27088034,0.55436921,0.20085372,0.97977090,0.67175210,0.86639017,0.83354414,1.23508763,0.73373961,0.56885219,0.75225413,0.75088763,0.73128903,1.04143858,0.40261245,0.60533720,0.72843122,0.62664425,0.96263695,0.48449206,0.70181626,0.75751185,0.77056855,0.81633943,0.37677443,1.27700424,0.42411214,0.38822535,0.90976661,0.85451114,1.73311639,0.67025429,0.44588548,0.58421397,0.52862477,0.76118392,0.73306370,0.84387368,0.87801546,0.80073655,0.75015748,0.40786952,0.48732793,0.41051310,1.01098561,-0.02294060,0.63520765,0.64009601,0.53182471,0.74394768,0.56311655,0.33412784,0.67513454,1.14163291,0.22862117,0.27570477,0.90865523,0.61083019,0.57915348,0.43467909,0.59767526,0.73000050,0.30198520,0.52328992,0.36513507,0.53665924,0.60314560,-0.28786796,0.54385793,0.50838041,0.97956598,0.65427500,0.61862540,0.55571342,0.50555384,0.67469132,0.48002139,0.86709237,-0.27359459,0.81793338,0.67699432,0.73248130,0.67815465,0.77689195,0.55034363,0.39996678,0.42543137,0.48701948,0.96322703,0.62439263,0.56401533,0.07719339,0.76625109,1.15889823,0.30756578,0.72571921,0.54220855
