,dim_0,dim_1,dim_2,dim_3,dim_4,dim_5,dim_6,dim_7,dim_8,dim_9,dim_10,dim_11,dim_12,dim_13,dim_14,dim_15,dim_16,dim_17,dim_18,dim_19,dim_20,dim_21,dim_22,dim_23,dim_24,dim_25,dim_26,dim_27,dim_28,dim_29,dim_30,dim_31,dim_32,dim_33,dim_34,dim_35,dim_36,dim_37,dim_38,dim_39,dim_40,dim_41,dim_42,dim_43,dim_44,dim_45,dim_46,dim_47,dim_48,dim_49,dim_50,dim_51,dim_52,dim_53,dim_54,dim_55,dim_56,dim_57,dim_58,dim_59,dim_60,dim_61,dim_62,dim_63,dim_64,dim_65,dim_66,dim_67,dim_68,dim_69,dim_70,dim_71,dim_72,dim_73,dim_74,dim_75,dim_76,dim_77,dim_78,dim_79,dim_80,dim_81,dim_82,dim_83,dim_84,dim_85,dim_86,dim_87,dim_88,dim_89,dim_90,dim_91,dim_92,dim_93,dim_94,dim_95,dim_96,dim_97,dim_98,dim_99,dim_100,dim_101,dim_102,dim_103,dim_104,dim_105,dim_106,dim_107,dim_108,dim_109,dim_110,dim_111,dim_112,dim_113,dim_114,dim_115,dim_116,dim_117,dim_118,dim_119,dim_120,dim_121,dim_122,dim_123,dim_124,dim_125,dim_126,dim_127,dim_128,dim_129,dim_130,dim_131,dim_132,dim_133,dim_134,dim_135,dim_136,dim_137,dim_138,dim_139,dim_140,dim_141,dim_142,dim_143,dim_144,dim_145,dim_146,dim_147,dim_148,dim_149,dim_150,dim_151,dim_152,dim_153,dim_154,dim_155,dim_156,dim_157,dim_158,dim_159,dim_160,dim_161,dim_162,dim_163,dim_164,dim_165,dim_166,dim_167,dim_168,dim_169,dim_170,dim_171,dim_172,dim_173,dim_174,dim_175,dim_176,dim_177,dim_178,dim_179,dim_180,dim_181,dim_182,dim_183,dim_184,dim_185,dim_186,dim_187,dim_188,dim_189,dim_190,dim_191,dim_192,dim_193,dim_194,dim_195,dim_196,dim_197,dim_198,dim_199,dim_200,dim_201,dim_202,dim_203,dim_204,dim_205,dim_206,dim_207,dim_208,dim_209,dim_210,dim_211,dim_212,dim_213,dim_214,dim_215,dim_216,dim_217,dim_218,dim_219,dim_220,dim_221,dim_222,dim_223,dim_224,dim_225,dim_226,dim_227,dim_228,dim_229,dim_230,dim_231,dim_232,dim_233,dim_234,dim_235,dim_236,dim_237,dim_238,dim_239,dim_240,dim_241,dim_242,dim_243,dim_244,dim_245,dim_246,dim_247,dim_248,dim_249,dim_250,dim_251,dim_252,dim_253,dim_254,dim_255,dim_256,dim_257,dim_258,dim_259,dim_260,dim_261,dim_262,dim_263,dim_264,dim_265,dim_266,dim_267,dim_268,dim_269,dim_270,dim_271,dim_272,dim_273,dim_274,dim_275,dim_276,dim_277,dim_278,dim_279,dim_280,dim_281,dim_282,dim_283,dim_284,dim_285,dim_286,dim_287,dim_288,dim_289,dim_290,dim_291,dim_292,dim_293,dim_294,dim_295,dim_296,dim_297,dim_298,dim_299,dim_300,dim_301,dim_302,dim_303,dim_304,dim_305,dim_306,dim_307,dim_308,dim_309,dim_310,dim_311,dim_312,dim_313,dim_314,dim_315,dim_316,dim_317,dim_318,dim_319,dim_320,dim_321,dim_322,dim_323,dim_324,dim_325,dim_326,dim_327,dim_328,dim_329,dim_330,dim_331,dim_332,dim_333,dim_334,dim_335,dim_336,dim_337,dim_338,dim_339,dim_340,dim_341,dim_342,dim_343,dim_344,dim_345,dim_346,dim_347,dim_348,dim_349,dim_350,dim_351,dim_352,dim_353,dim_354,dim_355,dim_356,dim_357,dim_358,dim_359,dim_360,dim_361,dim_362,dim_363,dim_364,dim_365,dim_366,dim_367,dim_368,dim_369,dim_370,dim_371,dim_372,dim_373,dim_374,dim_375,dim_376,dim_377,dim_378,dim_379,dim_380,dim_381,dim_382,dim_383,dim_384,dim_385,dim_386,dim_387,dim_388,dim_389,dim_390,dim_391,dim_392,dim_393,dim_394,dim_395,dim_396,dim_397,dim_398,dim_399,dim_400,dim_401,dim_402,dim_403,dim_404,dim_405,dim_406,dim_407,dim_408,dim_409,dim_410,dim_411,dim_412,dim_413,dim_414,dim_415,dim_416,dim_417,dim_418,dim_419,dim_420,dim_421,dim_422,dim_423,dim_424,dim_425,dim_426,dim_427,dim_428,dim_429,dim_430,dim_431,dim_432,dim_433,dim_434,dim_435,dim_436,dim_437,dim_438,dim_439,dim_440,dim_441,dim_442,dim_443,dim_444,dim_445,dim_446,dim_447,dim_448,dim_449,dim_450,dim_451,dim_452,dim_453,dim_454,dim_455,dim_456,dim_457,dim_458,dim_459,dim_460,dim_461,dim_462,dim_463,dim_464,dim_465,dim_466,dim_467,dim_468,dim_469,dim_470,dim_471,dim_472,dim_473,dim_474,dim_475,dim_476,dim_477,dim_478,dim_479,dim_480,dim_481,dim_482,dim_483,dim_484,dim_485,dim_486,dim_487,dim_488,dim_489,dim_490,dim_491,dim_492,dim_493,dim_494,dim_495,dim_496,dim_497,dim_498,dim_499,dim_500,dim_501,dim_502,dim_503,dim_504,dim_505,dim_506,dim_507,dim_508,dim_509,dim_510,dim_511
BAG,0.29171535,0.39760107,0.14234456,0.41233349,0.76000345,0.34834087,0.22233963,-0.79269218,0.10075571,0.47584456,0.37426201,0.43543926,0.22848246,0.25206080,0.58169001,0.45143762,0.40400663,0.21396911,0.18476483,0.25475895,0.44571206,0.48499846,0.53778523,0.31768373,0.26972863,0.35525313,0.21128601,0.36672792,0.49299553,0.54011357,0.54923612,0.21587086,0.48611972,0.43724912,0.34646550,0.60208452,0.25822777,0.42860982,0.21459426,0.18491834,0.51841742,0.23796812,0.36633968,0.22474942,0.39282599,0.35814664,0.18294530,0.40614262,0.34082592,0.29235205,0.51976049,0.13551882,0.30495244,0.24427722,0.44492230,0.25404286,0.22730492,0.33477432,0.44093245,0.34536225,0.40007025,0.03271709,0.47146267,-0.00619632,0.24806164,0.05008123,0.46325281,0.45999163,0.51489204,0.26095441,0.34534198,0.26929364,0.55229938,0.39340511,0.33803216,0.04196063,0.39436862,0.32031408,0.27621365,0.19779919,0.28649813,0.14258020,0.33181557,0.50358427,0.21390037,0.31694788,0.35915521,0.37143907,0.55952400,0.23690628,0.31598607,0.49965265,-1.28234446,0.62389368,-0.00199193,0.39581960,0.48402894,0.62244946,0.25032532,0.44616777,0.60761482,0.29362807,0.59354389,0.23698722,0.47373220,0.46581513,0.35108155,0.14922297,0.35967162,0.46744508,0.47034141,0.95421451,0.67754227,0.87827390,0.25313643,0.16515072,0.48287502,0.41305351,0.13505970,0.16960381,0.36192784,0.59873080,0.29979947,0.55032468,0.52020520,0.18433851,0.23116215,0.24957754,0.50541890,0.51715732,0.47647017,0.55008417,0.15795434,7.57882118,0.40849438,0.34121713,0.17721863,0.27503383,0.44749197,0.29906502,0.51596618,0.48326054,0.32334331,0.38842914,0.06152666,0.57592738,0.27789086,0.17216778,0.25630727,0.38407481,0.51406956,0.39798033,0.26007316,0.51329583,0.38746050,0.11791372,0.18301076,0.25814274,0.04639793,0.58213413,0.27132508,0.41178328,0.34012890,0.27051193,0.13173912,0.41255125,0.39840555,0.41064376,0.52495754,0.29839942,0.52048653,0.44917643,0.28105581,0.52011985,0.18695064,0.29516548,0.30946270,0.47893065,0.42369157,0.26881394,0.66736317,0.38622937,0.58038098,0.39998668,0.13447934,0.32197902,0.35095784,0.33970174,0.34906670,0.23318639,0.52810770,0.35433006,0.03095013,0.33023667,0.43941173,0.20342764,0.15900037,0.46591905,0.45739388,0.06721424,0.36275697,0.25071204,0.34110150,0.42287120,0.45108485,0.28146818,0.30409113,0.19968162,0.51518857,0.13589869,0.73026693,0.43370366,0.17870097,0.33514950,0.59129339,0.39547047,0.34006283,0.32364455,0.20620367,0.44938239,0.53768802,0.42767492,0.38449281,0.06851060,0.55471456,0.35725296,0.27057680,0.53995389,0.25043029,0.19978189,0.29012993,0.42885110,0.37436214,0.25149116,0.54865080,0.77399212,0.60541004,0.29694474,0.03059496,0.26692995,0.27699763,0.51148272,0.30720538,0.58259070,0.15905033,0.45060420,0.31514111,0.64119458,0.34022111,0.19666252,0.25933456,0.38457581,0.37102443,0.36492309,0.29811829,0.51895213,0.34981704,0.24390680,0.38752854,0.36877054,0.44715592,0.46038035,0.32712832,0.35245427,0.42378375,0.24111825,0.34344828,0.25609952,0.21653558,0.16217238,0.64431059,0.11166540,0.34635848,0.26372796,0.24889328,0.48139399,0.22258376,0.39410618,0.23612802,0.47523785,0.51521415,0.28572050,0.20615861,0.31035125,0.28357372,0.67740005,0.35016119,0.55664569,0.36422944,0.12549095,0.74151909,0.50724328,0.41039777,0.25441247,0.17320158,0.23403536,0.29577586,0.48441714,0.35561693,0.35827261,0.41805771,0.14336738,0.18421988,0.32773530,0.40908274,0.59409398,0.19996330,0.32522583,0.38715973,0.30551139,0.06067772,0.45019835,7.57624912,0.43936726,0.36483648,0.43577215,0.14036945,0.29623824,0.40755361,0.42803529,0.71350300,0.66600770,0.49838254,0.42963973,0.43481350,0.28841984,0.17837237,0.49173295,0.38487470,-1.91790724,0.82941157,0.46235076,0.46856445,0.31329706,0.53755480,0.40881473,0.42842844,0.43318006,0.25372127,0.14778091,0.55145800,0.29503983,0.46127737,0.36632824,0.26624858,0.31685743,0.24787527,0.59472263,0.49773827,0.24780856,0.29862648,0.29244310,0.50949854,0.42803743,0.25664160,0.33151984,0.51037043,0.52353138,0.27732176,0.49879435,0.38005313,0.24793829,0.54033929,0.31820652,0.62129200,0.22552215,0.58064240,0.49659276,0.24016857,0.54835933,0.16820578,0.24596141,0.14764549,0.38796511,0.45194539,0.34182715,0.30667493,0.30791828,0.40211535,0.17928450,0.15167011,0.30239901,0.22954027,0.11960807,0.44564286,0.52454740,0.33890125,0.52860093,0.29301971,0.16949742,0.30609706,0.27764645,0.50157493,0.37211239,0.40101951,0.53603292,0.39196032,0.08110202,0.13909441,0.80310738,0.18770993,0.34443027,0.54285151,0.34610313,0.11726597,0.26082233,0.26085505,0.38246387,0.50184822,0.10650570,0.33749464,0.50502360,0.35614154,0.55183268,0.46371934,0.33495083,0.23913598,0.25688335,0.35363653,0.48186499,0.40421131,0.42612439,0.36540002,0.53958750,0.34615836,0.51757675,0.18836139,0.16387521,0.37271237,0.29157582,0.43455851,0.27368873,0.48758999,0.41933754,0.38482025,0.34955984,0.14009041,0.44251409,0.29014635,0.19063570,0.13888037,0.28170690,0.28753376,0.27923664,0.47020993,0.02764526,0.19770607,0.04552575,0.37124023,0.44926435,0.16860856,0.43272078,0.43112504,0.65250260,0.53515118,0.48863035,0.26942462,0.16563892,0.41282943,0.29881933,0.27227941,0.65281147,0.31440324,0.51432502,0.67981642,0.38811964,0.51905721,0.19225734,0.24002078,0.24086490,0.34541461,0.24655589,0.34638628,0.16967821,0.32758656,0.43214595,0.24817871,0.35178810,0.71832627,0.58744341,0.29885298,-0.22359093,0.18010537,0.27619156,0.41787332,0.42003068,0.50037271,0.56935215,0.41141894,0.19988672,0.41662729,0.39302215,0.25937891,0.82679445,0.31357011,0.30017969,0.73873538,0.33740357,0.29024473,0.45943171,0.22341278,0.10571650,0.26588908,0.68917185,0.52733916,0.47710383,0.27690360,0.17316690,0.31747481,0.29441866,0.26660436,0.31333050
CLOUDS,0.46709296,0.39756936,0.10350931,0.59734410,0.41452271,0.41074720,0.18322627,0.29532143,0.23834385,0.49308529,0.40546817,0.47064048,0.28289655,0.21353430,0.18165585,0.66932803,0.27624854,0.29564455,0.36492667,0.42261735,0.58914745,0.29443133,0.35381585,0.35992098,0.34589279,0.64830673,0.24681851,0.51636857,0.26765853,0.30326155,0.50509143,0.30986235,0.38233557,0.43027860,0.30215430,0.45220008,0.29806241,0.30208135,0.66688299,0.51252735,0.58119738,0.23688118,0.27812490,0.42368910,0.63590765,0.42232049,0.12793289,0.24390417,0.61588079,0.25370708,0.35485837,0.17001686,0.36080164,0.26083529,0.42116877,0.43531916,0.07550333,0.44790560,0.34429610,0.26982754,0.40723568,0.24606967,0.49171841,0.01154001,0.21128416,0.06760931,0.37073576,0.33795935,0.31828746,0.42460456,0.61152238,0.27859578,0.25696620,0.51742637,0.34261975,0.25005507,0.51922393,0.23786221,0.27406281,0.15231818,0.37267864,0.39832601,0.66014022,0.74047446,0.75241935,0.46909696,0.23212638,0.28029117,0.52387428,0.34745267,0.17870285,0.61021507,-1.29642463,0.65623540,0.41462487,0.47842187,0.40661854,0.67849779,0.29487938,-0.03811638,0.38936827,0.39292327,0.49815780,0.28245327,0.28233260,0.16974863,0.55402631,0.31980988,0.36033201,0.36130527,0.63036859,0.63858533,0.27845985,0.31696746,0.35324112,0.44271648,0.11202762,0.58855617,0.28496692,0.23870081,0.52143455,0.00494494,0.34543258,0.68928397,0.54931962,0.40910402,0.30009633,0.33222985,0.43894103,0.56972921,0.21139160,0.60758132,0.26439109,8.02845478,0.48075673,0.34918183,0.06209113,0.12112603,0.49373934,0.38131094,0.31848142,0.41995439,0.59303516,0.44781905,0.03511013,0.30217889,0.43700171,0.35546571,0.28063360,0.46772480,0.34482062,0.57677746,0.31414264,0.44274229,0.12177897,0.28817281,0.27591029,0.44684789,0.31877932,0.30923370,0.38632184,0.39848536,0.26703194,0.38637400,0.62406522,0.51581389,0.47383353,0.72625399,0.64280343,0.28606534,0.43514988,0.24674556,0.16734624,0.23539892,0.42457604,0.55328906,-0.07182173,0.30805850,0.16711858,0.27734479,0.62448919,0.34285292,0.28366059,0.14210889,0.57139915,0.31431970,0.50092095,0.56978691,0.45265257,0.13325259,0.25104544,0.28167292,0.37214589,0.30154634,0.41984797,0.55247068,0.22415344,0.69738722,0.33851853,0.21705298,0.62466592,0.33353153,0.35440737,0.69921952,0.59413159,0.16449146,0.49504879,0.42855561,0.45288894,0.52034378,0.57090598,0.52717203,0.11433451,0.52706099,0.54638731,0.33891228,0.28305221,0.41652539,0.40395609,0.10154151,0.13241644,0.00441247,0.25368369,0.31946561,0.31088814,0.46070898,0.42807385,0.34753588,0.51051086,0.35338524,0.56889766,0.27995425,0.28795424,0.39608184,0.60162908,0.56289208,0.31538773,0.34498918,0.32084674,0.07025903,0.36133876,0.32556728,0.34544271,0.26873285,0.15802287,0.64367133,0.32418293,0.40461579,0.31371999,0.32504249,0.27378550,0.39689907,0.30721298,0.42182124,0.24470598,0.58494645,0.28946972,0.21453911,0.25909811,0.50673431,0.61137211,0.44081864,0.12862046,0.36435127,0.28218919,0.32083338,0.43048236,0.34443921,0.30698949,0.20339476,0.55715513,0.26090994,0.41044736,0.40331882,0.45323518,0.20544496,0.23209040,0.33050177,0.57969147,0.39417687,0.41747695,0.26523885,0.40166402,0.22709239,0.20951676,0.34441286,0.32548153,0.39620656,0.25674415,0.09314734,0.39812270,0.23677458,0.39687157,0.23404266,0.13970661,0.24054523,0.31648022,0.39055422,0.31348878,0.21624561,0.34928718,0.27745113,0.21754025,0.39375699,0.48890457,0.63480097,0.21256146,0.62602699,0.41719723,0.30022332,0.33972344,0.19914439,8.02071476,0.19731383,0.23551884,0.47236714,0.27555132,0.36272353,0.51700836,0.55576372,0.52712727,0.82087922,0.88110006,0.52867240,0.34807396,0.46481386,0.35546401,0.37779403,0.21332486,-1.38374162,0.18600403,0.45081618,0.39621177,0.29167208,0.37841746,0.42782739,0.66807795,0.25127488,0.44334167,0.21261203,0.25910431,0.36393645,0.60783929,0.61539185,0.31077948,0.31631982,0.48263624,0.76168907,0.32766750,0.32925439,0.10539877,0.24646418,0.37603697,0.24966682,0.31254283,0.39318135,0.62319493,0.18038510,0.46228242,0.62347394,0.30167648,0.39658752,0.45748371,0.35305601,0.42836922,0.17476632,0.29182726,0.46657431,0.37242466,0.59266704,0.37439489,0.25631392,0.29212183,0.52778631,0.24781601,0.29363355,0.14796026,0.27677888,0.42097026,0.39421579,0.40111011,0.27491960,0.33016756,0.18594170,0.46220571,0.29451990,0.29110008,0.32378757,0.23998168,0.45903349,0.50232410,0.48508686,0.22043937,0.44785371,0.28017870,0.64973980,0.48324594,0.22322634,0.31233269,0.78819484,0.36764890,0.49712157,0.46172053,0.29247361,0.26477286,0.34134993,0.29634789,0.19367827,0.47093201,0.14605285,0.60274577,0.47392452,0.54603106,0.44862738,0.42128173,0.38794366,0.22882979,0.05620962,0.24317618,0.49559760,0.45466962,0.50102967,0.34978369,0.15711118,0.58556128,0.31612763,0.04945758,0.31917974,0.65652251,0.30460203,0.47140208,0.45587513,0.04763866,0.37296501,0.52317137,0.54727882,0.36711380,0.68211961,0.38475814,0.46487144,0.24596311,0.18292376,0.29024822,0.11012920,0.37527922,0.45719707,0.30462110,0.16104573,0.48994550,0.45905793,0.48229104,0.49986222,0.34279636,0.41748339,0.34613901,0.49418634,0.51076919,0.27913436,0.23748440,0.33091497,0.30131420,0.43114513,0.36211309,0.51002043,0.48944601,0.29031706,0.51188517,0.14805444,0.25267130,0.32496408,0.30929312,0.38617271,0.64374107,0.38806683,0.22873974,0.29512399,0.33653331,0.35671449,0.20496847,0.40855074,0.51254594,-0.30094469,0.39260525,0.16603132,0.35216144,0.23779365,0.47774559,0.22847506,0.48907074,0.33822927,0.61712152,0.63530427,0.34581295,1.04409432,0.43736038,0.59306830,0.48460671,0.52520007,0.38595530,0.29437307,0.28020927,0.28284904,0.38833502,0.28766739,0.63065767,0.30488119,0.12021245,0.16686730,0.01224874,0.10034640,0.30804703,0.22363055
DRAGONFLY,0.17092486,0.25861666,0.27392945,0.52851415,0.46480125,0.29351801,0.24738565,-0.94779217,0.34191442,0.46152389,0.56417620,0.75554842,0.26616859,0.23518263,0.43138772,0.43166289,0.35519961,0.18116295,0.21074896,0.29077643,0.53891391,0.28123611,0.46413615,0.61999059,0.28214675,0.38835439,0.26662603,0.40596238,0.38421732,0.38850015,0.28120339,0.34820253,0.15101096,0.56285948,0.29444802,0.33191514,0.23579377,0.24131045,0.57954460,0.17287017,0.48742297,0.38826787,0.38203838,0.47377497,0.28882825,0.40870091,0.27222529,0.24295965,0.35228157,0.30561426,0.14056978,0.10987163,0.26170054,0.25496545,0.49650547,0.29612768,0.27734619,0.30299491,0.32893980,0.52510077,0.47507682,0.19779012,0.26345652,0.00803579,0.33596447,0.13961756,0.13233393,0.52035582,0.47166574,0.24909115,0.35645911,0.23579042,0.31257114,0.71431899,0.20940951,0.16903470,0.39913547,0.27134061,0.20221476,0.30854902,0.13678272,0.43696123,0.42052758,0.57131636,0.24694945,0.38781184,0.20367116,0.29185390,0.48415291,0.35409674,0.16114442,0.44884545,-1.21813118,0.56253266,0.22137032,0.36064762,0.34989834,0.52542526,0.40887257,0.09950553,0.41877696,0.26013306,0.60737795,0.13714908,0.44532174,0.14177731,0.58373797,0.55864322,0.30691457,0.50430429,0.61965209,0.83912933,0.32594994,0.28579742,0.07327076,0.19814152,0.09008558,0.63801330,0.31302866,0.22689085,0.50420338,0.09684519,0.16080916,0.46808207,0.42616788,0.28515777,0.46994317,0.29515055,0.33714956,0.49065152,0.34802333,0.86447966,0.21546862,8.11844254,0.48520252,0.39403382,0.06729467,0.03617020,0.67257559,0.38138855,0.30750099,0.75267029,0.30322111,0.27545074,0.02074990,0.40830648,0.31726024,0.42616469,0.30946574,0.45788336,0.28394261,0.38177493,0.32095796,0.42725518,0.23629817,0.34032756,0.22654681,0.28000227,0.38400969,0.37922224,0.20062980,0.37583271,0.25917074,0.27244237,0.16261327,0.22750989,0.42865568,0.30538362,0.63650775,0.16052642,0.36739281,0.40580913,0.28779364,0.31346115,0.23849429,0.36059487,0.09311156,0.22770526,0.18197885,0.19555604,0.57376611,0.56214970,0.17326923,0.38962963,0.30605030,0.28594807,0.37014228,0.54318291,0.31655848,0.08533581,0.21081690,0.48039651,0.23780119,0.24211365,0.09130199,0.34709260,0.16490427,0.54352313,0.50004625,0.13478689,0.18662700,0.21844906,0.39680505,0.42127329,0.16367720,0.17450242,0.52232993,0.13611749,0.25735974,0.37269562,0.77448463,0.75326234,0.38396117,0.39751860,0.16575384,0.21191949,0.28988570,0.20147982,0.10846382,0.26990339,0.23245172,-0.04652544,0.39786577,0.34239247,0.51203781,0.33369854,0.33962390,0.43480784,0.36202931,0.31635833,0.42861515,0.41013598,0.30862391,0.15371954,0.42951775,0.44772524,0.33093205,0.26550770,0.12601016,0.47138008,0.27790442,0.35326576,0.21330947,0.22229743,0.10277925,0.28749436,0.26099026,0.26364210,0.14265069,0.45495427,0.33494619,0.24221957,0.57003677,0.40639585,0.49127826,0.29709792,0.47794691,0.15129577,0.40761417,0.40858370,0.15533182,0.26492101,0.07527769,0.19350360,0.40293416,0.24188446,0.47786847,0.27731797,0.30743223,0.33128104,0.49021810,0.31409422,0.54294956,0.39474905,0.33841547,0.26509607,0.10003649,0.27250460,0.18804008,0.17450655,0.49258903,0.30085716,0.34320417,0.26189464,0.40918985,0.34883788,0.51692533,0.15611829,0.24827519,0.27113077,0.60397327,0.25244758,0.30022863,0.48012558,0.21424958,0.12951380,0.40012062,0.39484489,0.31838271,0.59383011,0.35343489,0.17546928,0.23361279,0.28683683,0.49900720,0.67931968,0.27851737,0.36837193,0.40479505,0.25645223,0.47617123,0.15703188,8.11034107,0.36169657,0.13408032,0.11760933,0.52103412,0.29155773,0.34636939,0.36437201,0.45480359,0.72618425,0.69654644,0.40032756,0.43872443,0.40249446,0.37735581,0.33439609,0.41270512,-1.39421380,0.30565372,0.45924738,0.25738236,0.53534740,0.35030201,0.39045230,0.29459590,0.22884612,0.28703338,0.51184428,0.21522430,0.33374730,0.57134050,0.40307185,0.42738247,0.23605472,0.41016647,0.42482591,0.23435186,0.41709939,0.30374619,0.21564581,0.35974854,0.49987856,0.19685291,0.61946774,0.41120964,0.16574435,0.59919548,0.49165806,0.52245432,0.25294045,0.51263559,0.53517193,0.51058233,0.16045402,0.26075658,0.69012737,0.22322874,0.44514206,0.25816381,0.48127452,0.16188452,0.37089112,0.21543662,0.38797936,0.19236638,0.47389874,0.56013966,0.57427853,0.13826470,0.30561498,0.35062501,0.24927361,0.44138849,0.47955066,0.16015545,0.34670779,0.28995246,0.32366633,0.49946910,0.24119915,0.17200388,0.55718571,0.47990856,0.54861075,0.27438617,0.22565807,0.36795166,0.69474554,0.33435097,0.63077348,0.44605166,0.45925400,0.08303017,0.21524908,0.38466677,0.30248380,0.48850480,0.12540731,0.58948189,0.34008732,0.35774878,0.59623015,0.35710701,0.28901458,0.25951993,0.07610873,0.41789159,0.39226097,0.39542571,0.66475362,0.20760606,0.22914436,0.38141030,0.21324302,0.18270980,0.40088511,0.29684064,0.40148914,0.35663953,0.35316095,0.13959086,0.41901883,0.51268178,0.63202822,0.36053538,0.41359866,0.25296095,0.22906558,0.37816295,0.38252532,0.35554430,0.12232720,0.35129541,0.37893036,0.59295881,0.15475203,0.41110060,0.48138663,0.21780661,0.36446965,0.49641576,0.49888062,0.39238396,0.19826747,0.24846525,0.43413219,0.31859758,0.65208143,0.22917975,0.32598442,0.31056556,0.22744888,0.61079878,0.50430918,0.49517876,0.19586022,0.46960524,0.45182490,0.41381767,0.18197870,0.33683360,0.09427454,0.27666986,0.53485483,0.30891421,0.49844548,0.38123438,0.42799062,0.58639026,-0.23574591,0.50213623,0.19633682,0.40048230,0.29757190,0.43943679,0.46044168,0.45072466,0.29496506,0.39324296,0.48674899,0.35659081,0.96871799,0.17369926,0.32091081,0.33451784,0.30085424,0.25865877,0.26526996,0.34610224,0.27890906,0.29595950,0.35993591,0.51777548,0.34462300,0.37266329,0.19429867,0.17238490,0.36301425,0.44278267,0.26079121
EARTH,0.45030385,0.44305545,0.35582560,0.23105264,0.06711903,0.22931255,0.12518802,-0.61266726,0.25847027,0.56352526,0.62794280,0.27781260,0.35131645,0.13300996,0.46360782,0.37917659,0.36814135,0.36240819,0.03227816,0.25939667,0.75387955,0.28921029,0.63364017,0.31283554,0.07905100,0.44848132,0.17406985,0.32648924,0.19315696,0.39842314,0.46410567,0.17398293,0.45604396,0.47912115,0.34122685,0.50187469,0.38303500,0.41476560,0.41067508,0.08795020,0.22543925,0.24111106,0.32672969,0.26806086,0.34795842,0.44616023,0.41317329,0.34158370,0.53184056,0.55683208,0.29260409,0.15714367,0.26816645,0.20241430,0.26231143,0.39002326,0.18835236,0.41084689,0.36067811,0.38241354,0.29482412,0.00885076,0.46340981,0.11518083,0.29785863,-0.01243130,0.27324894,0.22582287,0.22808482,0.12576723,0.59596825,0.20039944,0.29910991,0.42498016,0.35049546,0.11783618,0.50969493,0.29197952,0.17323902,0.01448145,0.29679912,0.47578460,0.42774546,0.65248019,0.34865439,0.41121832,0.12193638,0.20953047,0.41962725,0.43140846,0.27573857,0.39313167,-1.44873464,0.59863585,0.14418082,0.42863202,0.51695114,0.48441005,0.25060463,0.04616058,0.56478292,0.45418212,0.60929585,0.10791184,0.27343073,0.24954796,0.56879312,0.55613476,0.35094738,0.32729957,0.38192952,0.63504332,0.19919303,0.58252800,0.26346847,0.11039645,0.36086074,0.49291599,0.21004514,0.42740718,0.49385113,0.03511811,0.20104091,0.33325163,0.43528491,0.12126889,0.43881255,0.42581433,0.50462973,0.64285737,0.60345930,0.57370150,0.14143787,8.64844513,0.44425640,0.48758975,0.14016902,0.14011350,0.61897308,0.20705692,0.23906495,0.23410107,0.43188056,0.29697612,0.02696092,0.42283434,0.28776756,0.37604615,0.16320519,0.21180059,0.40767923,0.24980548,0.56746072,0.49914095,0.41022387,0.25215751,0.26136246,0.46041688,0.21248975,0.58769906,0.29427299,0.33785170,0.19740042,0.22544135,0.18552160,0.45531797,0.22378288,0.37212089,0.36283681,0.34017134,0.52496368,0.29216161,0.33583477,0.31796604,0.36967692,0.67896897,-0.03712342,0.31567025,0.30852580,0.26187813,0.52243453,0.32240933,0.35028818,0.24639402,0.20389119,0.29828078,0.47970670,0.38835120,0.26297361,0.17769572,0.36181974,0.32131159,0.24348879,0.56008863,0.06482606,0.44820371,0.16568732,0.39403760,0.53393912,0.23082300,0.42973965,0.22032295,0.39408445,0.40993503,0.30449113,0.26000404,0.22496949,0.11791987,0.18990153,0.40685999,0.75114852,0.57669693,0.67515373,0.32997113,0.45997274,0.36395761,0.27721685,0.59051639,0.26193452,0.15657018,0.48594201,0.18261950,0.27916855,0.33095807,0.37537161,0.14037637,0.41569939,0.28230098,0.63626629,0.32076502,0.40832499,0.36477777,0.35694039,0.10219034,0.56048715,0.66293001,0.81791365,0.49466532,0.21780574,0.07639549,0.65374148,0.51831383,0.49596971,0.20975164,0.35189864,0.41192821,0.23267382,0.57435900,0.30345589,0.19530722,0.23041959,0.22407076,0.43934298,0.48389852,0.32769039,0.48133895,0.29139906,0.25027978,0.42695549,0.59535897,0.51961952,0.33817044,0.27050787,0.60360390,0.25513744,0.37968984,0.35451648,0.26098868,0.33735713,0.18507552,0.45134106,0.00563384,0.50014770,0.18704526,0.35825849,0.57120770,0.33403149,0.37242275,0.45619619,0.28731138,0.43036857,0.34187862,0.54635185,0.44671220,0.17691290,0.53058809,0.33998418,0.20008484,0.13899940,0.33231041,0.51178050,0.29290754,0.37372607,0.41065666,0.14205553,0.29734844,0.30195874,0.42317116,0.33766875,0.39051676,0.40462062,0.22288522,0.07561913,0.31997621,0.20971483,0.64851499,0.23689395,0.28997454,0.25314862,0.52931470,0.37289858,0.27324605,8.64289570,0.50764686,0.42159510,0.40219757,0.26750344,0.50747991,0.48455840,0.54623365,0.54285342,0.69728720,0.62187409,0.40547785,0.35839993,0.38619873,0.24438745,0.31572920,0.36803505,-1.90774632,0.28350693,0.46900266,0.33243275,0.24027769,0.20866778,0.33455259,0.48618889,0.55177057,0.43632606,0.20661549,0.11806209,0.41523176,0.34163666,0.31217620,0.17456254,0.34996840,0.28645045,0.47343183,0.23809582,0.51643574,0.35778168,0.19686082,0.39443517,0.25557294,0.19254443,0.66799790,0.28844422,0.25111121,0.62053382,0.46459749,0.45369598,0.22618906,0.41562113,0.28819031,0.24863301,0.02420485,0.27933604,0.64024043,0.19061933,0.38928896,0.38588893,0.28287575,0.32094127,0.54665363,0.20482126,0.57108128,0.35950133,0.35959905,0.24323790,0.43987545,0.33579347,0.27665925,0.44358015,0.15560241,0.53571612,0.39426270,0.40996876,0.24406524,0.33441055,0.27573720,0.29488096,0.32289064,0.42146894,0.23571208,0.41043186,0.47960120,0.26318488,0.14106545,0.24899888,0.85357946,0.44175440,0.43750915,0.51636076,0.46057951,0.07774342,0.27398023,0.40639848,0.35059816,0.27058586,0.17063546,0.67279077,0.33220768,0.36831459,0.40510371,0.50564760,0.34754273,0.28838882,0.15587802,0.48577926,0.41239572,0.33299041,0.65358692,0.24237645,0.53970295,0.49196830,0.28074646,0.22886504,0.22357333,0.44271010,0.51683152,0.34576941,0.17257914,0.47953156,0.21252233,0.42800924,0.23760824,0.29628271,0.44186279,0.23131321,0.48183328,0.26014850,0.38805485,0.44009030,0.33742267,0.44019863,0.36243191,0.26792613,0.08935038,0.36998859,0.37618941,0.36046362,0.41029167,0.27112907,0.34102711,0.43224025,0.36310709,0.51977396,0.31557679,0.40229803,0.08935481,0.41641155,0.48405036,0.60656643,0.35075292,0.56184286,0.43332425,0.48451686,0.41125545,0.32877189,0.28755847,0.55328190,0.13356195,0.27344748,0.42183873,0.44607854,0.33113536,0.16494671,0.37814170,0.53080261,0.54519445,0.44545692,-0.16325995,0.31579432,0.36914843,0.33862892,0.31031907,0.38935503,0.46183977,0.40479624,0.46471706,0.55968386,0.38773391,0.44211343,0.86611921,0.39062715,0.36897773,0.58155793,0.23966515,0.36854222,0.39394361,0.15375987,0.14404961,0.47605506,0.48144025,0.58971107,0.25892401,0.59687638,0.28494117,0.24352551,0.04813087,0.21748763,0.32128632
FEATHER,0.31048197,0.18246116,0.14359236,0.44733322,0.20966341,0.10958639,0.11681712,-0.29224002,0.10044874,0.46650621,0.61107224,0.35902944,0.39735287,0.34454757,0.40187955,0.24885274,0.36406913,0.48164847,0.10853724,0.19913937,0.54609483,0.62456769,0.27055043,0.38047662,0.21224761,0.64484882,0.30230537,0.49622533,0.16047435,0.38389325,0.62491250,0.44113579,0.36774400,0.50573540,0.19453681,0.48832363,0.41315544,0.39158592,0.30186626,0.26399979,0.33839929,0.33360398,0.30238524,0.39174110,0.30309972,0.35767815,0.51320791,0.28734961,0.44278607,0.39625394,0.13343260,0.19648705,0.38613272,0.16356573,0.38551253,0.52867848,0.18326846,0.54652244,0.20116751,0.44559044,0.46433949,0.19073744,0.14745829,0.23934288,0.15208003,0.21835415,0.22954966,0.27652562,0.34030297,0.36514437,0.30816290,0.18525930,0.22909424,0.61797339,0.18066913,0.27318257,0.47052705,0.34014317,0.43617210,0.07768441,0.17734045,0.40697199,0.27189338,0.66707599,0.23379350,0.34885350,0.19005044,0.07307805,0.40873733,0.24400890,0.33526763,0.42195755,-1.42380428,0.71494311,0.31254852,0.39615846,0.38376957,0.53377217,0.16998516,0.30666560,0.68048936,0.29499823,0.50022966,0.08789901,0.24069010,0.30688304,0.56550735,0.36991921,0.41440597,0.29097846,0.47196922,0.61161733,0.49930555,0.47912887,0.33847976,0.13585109,0.23656878,0.56383663,0.30566564,0.47303665,0.44607785,0.21729252,0.60883385,0.45508933,0.55699140,0.21859811,0.63817626,0.29829714,0.30922565,0.51837832,0.66287857,0.48574775,0.07301093,7.52988863,0.50800270,0.41217849,0.23925333,0.23250112,0.53952420,0.44203141,0.26897779,0.32844496,0.57009315,0.35706496,0.03312248,0.50690866,0.36563605,0.31310070,0.17168587,0.37974188,0.48251179,0.14049660,0.26270893,0.50413340,0.39908078,0.22347713,0.53602290,0.45778978,0.35159433,0.36940679,0.25097919,0.35572973,0.38260818,0.20196651,0.35992539,0.32930425,0.58920884,0.45695883,0.58843809,0.26422152,0.41443104,0.71246654,0.26407915,0.13238952,0.12949893,0.48147294,0.25008243,0.35040456,0.16661528,0.15868992,0.54851961,0.28949556,0.16001812,0.34145862,0.32198414,0.11581795,0.51496494,0.38071662,0.59898716,0.18143460,0.37143144,0.21907763,0.10400571,0.22302899,0.26272425,0.59331185,0.16449450,0.39069706,0.38389966,0.04274615,0.37286341,0.15602845,0.38645294,0.55050224,0.41956434,0.24197841,0.39792413,0.18318360,0.26303500,0.38557610,0.54183871,0.63059521,0.18309630,0.28532693,0.32526779,0.37964049,0.20143773,0.41213965,0.11003798,0.34583542,0.10239126,0.22502017,0.31150818,0.42515895,0.34386653,0.31162950,0.40146530,0.35678548,0.41491926,0.20211512,0.53591371,0.41337293,0.46670279,0.05690146,0.49700275,0.70871609,0.34613883,0.25806791,0.30758744,0.33876586,0.39697734,0.31280407,0.52214986,0.28175503,0.15174454,0.26611623,0.27235624,0.56268710,0.68300450,0.15458572,0.24347009,0.53690976,0.44106531,0.72828919,0.34979412,0.41820261,0.23457088,0.09747251,0.41324139,0.41957358,0.31637701,0.43895701,0.08722541,0.28749052,0.46616903,0.21825972,0.60767072,0.30569714,0.11707807,0.34381050,0.33921754,0.21533912,0.62810105,0.30242503,0.41798314,0.41992986,0.15330644,0.38815856,0.25228307,0.19480574,0.45518109,0.40493476,0.38976008,0.14821504,0.43354118,0.44930977,0.36856759,0.44202986,0.42408383,0.35729915,0.29309887,0.24986377,0.42096195,0.51114863,0.20565951,0.22092433,0.08385380,0.24280554,0.47200090,0.49755046,0.52421784,0.29090276,0.23329082,0.63514733,0.39718780,0.56020814,0.17329364,0.28451407,0.43779609,0.32780415,0.26649299,0.25081426,7.51710606,0.31920534,0.36574566,0.31318983,0.30634138,0.26612368,0.38425747,0.43150133,0.71437079,0.60042667,0.60302675,0.70420635,0.39911878,0.67760891,0.26138034,0.49922585,0.44556555,-2.09984875,0.20138311,0.50369924,0.27140117,0.48437586,0.44855076,0.42292821,0.68415725,0.25820678,0.25904793,0.28711286,0.33154783,0.12227262,0.62444520,0.38238597,0.16608067,0.40271717,0.39453331,0.48701376,0.30341345,0.33878270,0.32355437,0.38085452,0.22798744,0.35560393,0.31076765,0.28849623,0.29765111,0.05199425,0.23437667,0.64911109,0.71075845,0.22792362,0.39232221,0.43976852,0.13766012,0.03593138,0.30014136,0.47477406,0.22348458,0.32862625,0.24486844,0.35414910,0.31343606,0.40147150,0.20849511,0.45164770,0.18139321,0.24628158,0.24433713,0.37893894,0.35741776,0.22415851,0.49854261,0.30748820,0.62363780,0.38378179,0.41537538,0.36660811,0.46757719,0.32841891,0.22035332,0.26105839,0.40734178,0.71842438,0.56815082,0.36816096,0.31284565,0.26465955,0.10279281,0.74472451,0.20914650,0.44191355,0.57481593,0.57025707,0.17632039,0.09193281,0.50791693,0.40294281,0.35179979,0.46649951,0.43600902,0.32470325,0.35793564,0.45717159,0.36500624,0.38755885,0.30377892,0.25237608,0.41958523,0.34255955,0.40801087,0.34026071,0.38716283,0.32865810,0.47703829,0.37079847,0.17033306,0.28431311,0.30515879,0.32050973,0.36421105,0.24576215,0.42158371,0.38128737,0.55751002,0.44633961,0.23588005,0.31661159,0.46603864,0.33265805,0.09412437,0.37848949,0.14065742,0.18913624,0.43798280,0.43341017,0.43210679,0.17768639,0.29248303,0.41301709,0.41092479,0.26577383,0.56635553,0.52686197,0.28602830,0.35880888,0.38686937,0.42353714,0.25043461,0.14065458,0.26772538,0.38606298,0.42492324,0.25222042,0.40316391,0.29681268,0.48835328,0.19893149,0.13400556,0.22483164,0.31371024,0.43306428,0.61299992,0.22014359,0.34443113,0.67985559,0.45811999,0.55860513,0.38740045,0.50298458,0.47037649,-0.15136215,0.45228332,0.20170511,0.62494409,0.24565095,0.38720146,0.27173039,0.28710380,0.43019778,0.50373185,0.44142413,0.31782645,0.85651660,0.37948859,0.27332327,0.63024265,0.42381793,0.13833910,0.21813820,0.30453032,0.26587796,0.35632661,0.41701928,0.55597198,0.11843852,0.50910252,0.16659804,0.18289672,0.12437022,0.24504171,0.45740795
HORSE TRACK,0.20604019,0.19015008,0.08212969,0.60578626,0.36971408,0.16792129,0.24069788,-0.79782295,0.27560121,0.55644125,0.33095604,0.69784242,0.39892951,0.13433740,0.31125420,0.30856836,0.52501494,0.13639557,0.19451755,0.32935271,0.60139906,0.38093939,0.39571348,0.48095846,0.37546927,0.33879265,0.32094076,0.36877939,0.29199016,0.44294897,0.32544333,0.29709703,0.24424903,0.25966221,0.35775796,0.67879069,0.33528864,0.39402476,0.42410871,0.21411037,0.43290758,0.54888040,0.44989994,0.34875536,0.59878820,0.39732152,0.26065028,0.23653437,0.51075590,0.22151183,0.30805406,0.21032944,0.30081835,0.56668317,0.21124138,0.33160457,0.33230367,0.31992418,0.16868348,0.14068487,0.34471127,0.24805799,0.32378396,0.13759083,0.52396935,0.14862834,0.23301411,0.56754291,0.30711529,0.22825015,0.32600781,0.11757841,0.26501778,0.62277240,0.57869101,0.19329572,0.50684053,0.43331093,0.06166114,0.18331474,0.38841179,0.15104578,0.31543174,0.64972603,0.24757002,0.41048321,0.24544065,0.36980680,0.47629228,0.31385231,0.35100299,0.58109707,-1.40427685,0.74239379,0.26291880,0.48037723,0.59840047,0.56172734,0.44405234,0.32324508,0.52343106,0.39270511,0.71090287,0.26326632,0.26070890,0.07379372,0.50906515,0.31661293,0.33792019,0.29077950,0.50473928,0.60886878,0.26724562,0.44735664,0.33891299,0.12178960,0.12000515,0.49565998,0.29481605,0.17101249,0.35361224,0.12527475,0.38138106,0.31579003,0.44767469,0.09312629,0.63887018,0.26205212,0.47616515,0.35070783,0.50153399,0.68612695,0.18214171,7.54339123,0.46890035,0.32755205,0.16538437,0.04394280,0.74851936,0.31775191,0.52762067,0.41179746,0.43124619,0.42605332,0.11123783,0.39486030,0.25167355,0.21979702,0.45423272,0.39167589,0.40349159,0.27285883,0.27620083,0.58864254,0.25428894,0.10902602,0.25490963,0.51015306,0.28182116,0.35048842,0.24319939,0.43520004,0.24678510,0.15148039,0.31950185,0.38244548,0.47980106,0.40003452,0.35613826,0.37557867,0.33828336,0.59907502,0.21006767,0.38181853,0.35964975,0.53219503,-0.01462253,0.78223056,0.43194863,0.37169728,0.45729125,0.42613447,0.34192652,0.18426916,0.14572671,0.22929576,0.44381472,0.37317798,0.20888452,0.20853896,0.45676789,0.56861758,0.23639454,0.23369327,0.08660555,0.28450373,0.37361807,0.59560102,0.52569038,0.18475159,0.33085993,0.28421816,0.35332045,0.33431965,0.35170418,0.31434119,0.41809329,0.08857693,0.29383299,0.41936308,0.67330950,0.62843573,0.35785884,0.51776665,0.29243854,0.31885317,0.25277135,0.33361804,0.31615338,0.08051065,0.10861342,0.25346151,0.44076934,0.21048875,0.72177815,0.22562277,0.32281834,0.34027061,0.32015952,0.24160564,0.54008740,0.23412682,0.31232005,0.21608125,0.39195469,0.61327243,0.46067068,0.29897735,0.13264951,0.23123848,0.40387207,0.61146736,0.38460359,0.32578844,0.23081854,0.40609118,0.36502531,0.35560164,0.16669096,0.34497300,0.17388874,0.54424030,0.33171019,0.46864843,0.20419946,0.38022244,0.52440196,0.10476013,0.52098167,0.39307091,0.41300529,0.35689312,0.11237249,0.50058591,0.24482529,0.32340401,0.50923526,0.23235677,0.17449385,0.18371665,0.34208760,0.14439753,0.53509444,0.23809664,0.43819484,0.31422853,0.22896262,0.29110864,0.31696564,0.25184396,0.48885620,0.22704217,0.34186369,0.46036640,0.29517272,0.48777896,0.63307899,0.20850885,0.42198828,0.29474753,0.43576455,0.42000777,0.28892758,0.44545034,0.15301529,0.20966731,0.53036505,0.29968861,0.30836204,0.26808122,0.35781303,0.13073456,0.09100232,0.41589451,0.25050142,0.77717280,0.16578519,0.57031131,0.41939488,0.36329269,0.31981471,0.29513612,7.53445339,0.33011556,0.29842296,0.42404100,0.22485761,0.20323414,0.44456273,0.55361599,0.61173314,0.71079552,0.47637394,0.39179865,0.31460404,0.59374690,0.26714483,0.39640546,0.35791233,-1.81462455,0.22079864,0.60537523,0.34035864,0.34892893,0.15873013,0.43693355,0.35138866,0.40474221,0.15779118,0.14037332,0.36998823,0.21330473,0.47660330,0.36144686,0.37755451,0.28243247,0.35204059,0.41231275,0.25999859,0.34730971,0.23893452,0.35875916,0.32321537,0.29923099,0.27333641,0.53483784,0.22691020,0.26425946,0.33951882,0.52565420,0.47227854,0.35544091,0.59295285,0.32112840,0.34934247,0.15921836,0.34774873,0.61269647,0.46458277,0.39099503,0.27992082,0.39644754,0.17488374,0.47588965,0.09436761,0.43429598,0.47345412,0.23167127,0.53718191,0.32420543,0.22559713,0.43678668,0.29011992,0.18761410,0.62140566,0.68848115,0.30573079,0.27236506,0.16803047,0.28464249,0.54095656,0.24329427,0.31035674,0.38961083,0.53186965,0.47893888,0.55167073,0.39915407,0.23586273,0.68654925,0.29031307,0.28692737,0.48288900,0.43347675,0.27025667,0.30433097,0.32753742,0.26580274,0.23564301,0.36539653,0.43686482,0.55913621,0.39671302,0.42801279,0.28978062,0.44268546,0.13638031,0.18941569,0.42695826,0.54657578,0.20294316,0.29375622,0.19122718,0.27140367,0.40167221,0.36909679,0.16614605,0.31797308,0.52369589,0.34940526,0.47358507,0.28508553,0.57720631,0.28449878,0.60389221,0.47256711,0.38379723,0.27774921,0.24394548,0.21025220,0.16958334,0.27826643,0.29787937,0.31410667,0.42753321,0.37293261,0.45732024,0.31419227,0.19621080,0.55504483,0.19092944,0.37271339,0.27973226,0.48097759,0.49593776,0.40874824,0.38372013,0.39674291,0.24640903,0.42783943,0.42463627,0.57195777,0.44542918,0.50220746,0.34747183,0.42952266,0.31852731,0.10936164,0.25412393,0.30203843,0.45749030,0.16313358,0.28196007,0.25862390,0.33115104,0.63668656,0.42338207,0.44409767,0.38541672,0.51944828,0.54119712,-0.12038492,0.40449372,0.33212635,0.37850866,0.32942483,0.27716190,0.30372757,0.33592856,0.29156539,0.39515743,0.44140735,0.44826719,0.78433710,0.12995067,0.37489420,0.51330984,0.21303274,0.16053738,0.32615036,0.07040792,0.14250514,0.45438477,0.58827835,0.34294835,0.28024819,0.31342643,0.36076608,0.24407122,0.59906411,0.32976258,0.31875226
HOUSE,0.31470293,0.27948308,0.37961376,0.51390177,0.88602513,0.09812663,0.23314849,-0.48476347,0.40386140,0.61884779,0.40532500,0.50713307,0.24088389,0.29100353,0.46335435,0.32221907,0.36000779,0.21393907,0.03747940,0.43113565,0.72931498,0.36141819,0.53499281,0.43433163,0.26761812,0.44736835,0.13962477,0.26473585,0.22987469,0.50986975,0.25444442,0.29330701,0.43847188,0.45715562,0.02995048,0.50052905,0.63189691,0.37921584,0.31053099,0.20623760,0.36285174,0.32443845,0.47679967,0.30208069,0.28201407,0.33609450,0.12388095,0.41172302,0.40792215,0.39367712,0.49207976,0.26750281,0.33528322,0.24913229,0.52964753,0.26061192,0.15902798,0.25983781,0.31121719,0.39941046,0.38437888,0.15379061,0.28276396,0.19098334,0.30680776,0.06492950,0.30678952,0.33833370,0.29325640,0.17536883,0.46055880,-0.02281603,0.19692779,0.42622563,0.42583707,0.21525337,0.34007505,0.23335657,0.34743613,0.11055571,0.25051233,0.27323213,0.22916172,0.61667031,0.40639028,0.25700590,0.20716807,0.39978281,0.54640085,0.26060867,0.48753059,0.34893233,-1.53271949,0.45954135,0.17553568,0.37479559,0.43770254,0.62575281,0.20853934,0.67365664,0.37499958,0.32654223,0.48547038,0.25718427,0.24262133,0.39270514,0.42207363,0.34671959,0.10300658,0.18524186,0.35704571,0.49436414,0.17494436,0.34615812,0.32439494,0.08930408,0.19676048,0.69072604,0.34915885,0.41455510,0.45907360,0.23315105,0.27272853,0.47488201,0.31837702,0.30679232,0.37426072,0.34853351,0.49885380,0.70847976,0.65284526,0.50109136,0.31936482,7.61407518,0.44969323,0.45874667,0.12604335,-0.00225252,0.65997148,0.34506565,0.41294977,0.27876806,0.38156334,0.31427035,0.07534350,0.42280594,0.38604075,0.21354482,0.33821926,0.19446751,0.28452972,0.18229941,0.28594735,0.54467946,0.22863157,0.15439032,0.18889058,0.48891503,0.26659352,0.59172827,0.05567140,0.35851726,0.38910750,0.05681306,0.14001605,0.46505579,0.26071557,0.26770613,0.49756083,0.30592722,0.49241760,0.39515916,0.34024870,0.40755033,0.33801270,0.25465956,0.03463050,0.52446240,0.50878376,0.36905310,0.31645861,0.37818134,0.37578365,0.08194511,0.19491638,0.23305543,0.40238008,0.44332847,0.44296536,0.31162107,0.39629903,0.28102693,0.09569445,0.13650131,0.30154157,0.30887499,0.26688409,0.44658101,0.43199027,0.05949030,0.35489851,0.35515940,0.23981629,0.44066116,0.44378725,0.30067584,0.36716941,0.29395735,0.33691728,0.27640936,0.69825929,0.48735264,0.23215032,0.48748013,0.32516691,0.37064028,0.32626805,0.28924102,0.39717937,0.30561745,0.09815733,0.31285515,0.24149255,0.29009926,0.43289381,0.43688861,0.49513796,0.40337005,0.08594989,0.35815677,0.41030577,0.29612026,0.29479173,0.10143627,0.50712955,0.59880775,0.33943683,0.37066558,0.42621064,0.29782602,0.41775513,0.30640841,0.38144365,0.11874682,0.24575529,0.54115587,0.26224172,0.45044020,0.08787032,0.20777954,0.34599075,0.41211548,0.33494169,0.51378185,0.32325521,0.42025375,0.52489275,0.29459408,0.54379946,0.62332648,0.61666065,0.38441005,0.24249823,0.36403936,0.25156263,0.17233922,0.48466849,0.30158472,0.21826938,0.34945598,0.50509286,0.01990144,0.56796986,0.33144397,0.54044795,0.47032365,0.16286169,0.45679623,0.32079279,0.66560465,0.45584312,0.26762334,0.34043580,0.25661492,0.27091596,0.40864247,0.46456376,0.49449822,0.30146545,0.14711253,0.37855896,0.27636036,0.28632632,0.39616278,0.17195950,0.20433767,0.43209070,0.23853861,0.33465090,0.30469051,0.53298956,0.13771266,0.20176078,0.28557670,0.37897089,0.45119289,0.35327908,0.20752533,0.41395548,0.39023510,0.37784648,0.32666320,7.60208321,0.25099072,0.36985770,0.59309387,0.33659461,0.42438877,0.45345587,1.03919959,0.77946019,0.70862162,0.56757724,0.30352092,0.58294100,0.47880816,0.22011854,0.28465188,0.39991233,-1.69368446,0.32803974,0.45028058,0.30678171,0.16678835,0.34573153,0.35799548,0.36022660,0.23446970,0.25910869,0.10659770,0.34824082,0.37395862,0.47415107,0.35935727,0.25683013,0.31202224,0.37306297,0.66215593,0.16953954,0.44277552,0.32232222,0.19852544,0.45047164,0.17068215,0.11046109,0.59982789,0.19527373,0.26105487,0.42839754,0.44803363,0.45597175,0.34990385,0.55120468,0.47752866,0.46285293,0.05884924,0.28823221,0.70589012,0.30182630,0.42411986,0.38545761,0.22572348,0.05800631,0.32498476,0.18365318,0.58454424,0.59782606,0.23967199,0.22359566,0.34728956,0.26782849,0.32854739,0.40597621,0.30741587,0.45078120,0.19446114,0.30026826,0.20913473,0.29409930,0.22659138,0.52682972,0.41116312,0.27760127,0.40334833,0.40229353,0.45950532,0.22337736,0.10872414,0.21997662,0.63595563,0.37815249,0.36332479,0.31954411,0.42613846,0.14016943,0.32589379,0.44562113,0.42149624,0.27111587,-0.05286859,0.44819441,0.34818035,0.42826539,0.69153768,0.21373540,0.63375425,0.24216057,0.41958594,0.36157522,0.44198096,0.38115132,0.56723112,0.11536984,0.46644175,0.57297188,0.37420696,0.07859702,0.11865248,0.39194578,0.58538711,0.28457552,0.14958408,0.28638721,0.22042577,0.19295293,0.61784977,0.14212270,0.32419875,0.21726482,0.41952404,0.35363606,0.18727529,0.31680322,0.24909830,0.31581116,0.23435824,0.27393532,0.23737490,0.40014726,0.52623492,0.21970558,0.22386675,0.48579577,0.57078934,0.38819376,0.42293805,0.49350685,0.22332698,0.35264656,0.44795573,0.47451478,0.44745117,0.37227473,0.35483751,0.34975246,0.27958378,0.46741536,0.18126506,0.23022422,0.18145870,0.41441223,0.06658524,0.34184429,0.25450012,0.44583669,0.45110223,0.40513062,0.56776899,0.47478914,0.57385606,0.49414954,0.01087788,0.56731439,0.12770529,0.49487436,0.32067004,0.40582126,0.36719304,0.47642165,0.19410774,0.23654878,0.25283885,0.41087577,0.78798348,0.27085492,0.16444005,0.72169513,0.17801563,0.18896045,0.52104229,0.21499011,0.21415611,0.37714052,0.55144984,0.23539791,0.24747741,0.35340670,0.10933573,0.13072275,-0.08719978,0.06700854,0.19157034
LIGHTNING,0.15114813,0.30226555,0.24967150,0.32803282,0.22781436,0.04719681,0.17931522,-0.28844056,0.28700069,0.75009799,0.57722557,0.48738164,0.48225963,0.14947791,0.28091893,0.58378237,0.56213808,0.30314460,0.20674977,0.22162575,0.61639506,0.65464526,0.31079340,0.48777011,0.27952117,0.48693359,0.17768408,0.40706173,0.33251473,0.36731797,0.15220103,0.28924963,0.40514457,0.45166185,0.28654999,0.49502563,0.31871408,0.54947257,0.34204379,0.18792312,0.40593866,0.20342861,0.31784549,0.48977515,0.49583316,0.44645610,0.62146580,0.18266098,0.34591380,0.30501103,0.23062995,0.15068394,0.36128706,0.39478639,0.31574288,0.41128504,0.23925318,0.36109620,0.33772388,0.66288692,0.51816714,0.34254551,0.30112210,0.13641255,0.56530017,0.10327518,0.07412225,0.54381782,0.42897388,0.18696412,0.52399153,0.38806316,0.53068417,0.62054628,0.34323579,0.04062003,0.60229999,0.25219813,0.20963082,0.10661154,0.13044037,0.19187199,0.30159974,0.52954108,0.30531082,0.29854679,0.39810219,0.26703015,0.34750021,0.36535078,0.19208452,0.42011747,-1.38770199,0.40956062,0.15562247,0.46256089,0.43185961,0.45349219,0.28650886,0.23890345,0.50601536,0.29484022,0.51675737,0.20431699,0.19046767,0.25846809,0.16411556,0.33156493,0.49631009,0.39645782,0.75946993,0.42090887,0.39524248,0.30972189,0.41302732,0.14970069,0.29621795,0.55635947,0.24657665,0.36687139,0.43504387,0.00314118,0.38272968,0.43393508,0.37256411,0.35729766,0.49058938,0.51911557,0.43063423,0.52446198,0.43033895,0.38961804,0.23313348,7.79002047,0.32433578,0.21969759,0.24375224,0.15141849,0.53502792,0.44506985,0.33693647,0.24491204,0.36165971,0.30689549,0.14786318,0.31420106,0.57729143,0.23091736,0.20249061,0.30501217,0.30793649,0.25312456,0.18665771,0.54187655,0.28085038,0.25567681,0.42349675,0.41062629,0.15161951,0.15356043,0.39322904,0.23795460,0.32859537,0.31023347,0.31336945,0.48145416,0.33336449,0.19892494,0.47462523,0.19103272,0.43820643,0.51355356,0.37026972,0.24281755,0.13786940,0.39323342,-0.16260546,0.25235999,0.54224020,0.27097803,0.51550567,0.43443292,0.25234973,0.21951889,0.30235004,0.25639519,0.54310161,0.28089345,0.14548454,0.29431996,0.31068751,0.24647579,0.34625530,0.72357565,0.25378951,0.42210704,0.28654021,0.52377659,0.40732977,0.16930762,0.41925442,0.20352767,0.47410563,0.55167609,0.20707931,0.21954650,0.26021871,0.18603556,0.19267969,0.45542115,0.53922045,0.52017736,0.30203006,0.34122598,0.49028459,0.34037215,0.21811655,0.31397012,0.01746688,0.26512843,0.05341375,0.04991899,0.05102639,0.31292981,0.58037990,0.26714960,0.37892535,0.39189106,0.47003284,0.25658956,0.37925342,0.31427202,0.32416433,0.11606404,0.69301635,0.62592781,0.27829576,0.36378604,0.17137896,0.21169451,0.36471179,0.70261574,0.21736367,0.20683460,0.09596967,0.35145521,0.42278895,0.09389142,0.73556983,0.37575880,0.07143233,0.53027874,0.47616631,0.51240915,0.11332034,0.44399238,0.37630409,0.16017646,0.17143632,0.40133038,0.26750118,0.32774445,0.27017918,0.05340632,0.67361778,0.26742229,0.47504860,0.19951265,0.45846695,0.30360600,0.46115941,0.25524318,0.49766493,0.62287301,0.59929806,0.27237788,0.18431504,0.53548288,0.44000182,0.36479101,0.44319308,0.27440900,0.31022397,0.34549397,0.53581119,0.37470499,0.41986784,0.32991695,0.18043742,0.25257134,0.29064819,0.39675769,0.53955525,0.27665198,0.07219198,0.26562232,0.08819357,0.22629946,0.40118062,0.17120428,0.43501201,0.20841043,0.28485712,0.31232053,0.35518605,0.41616189,0.29772145,0.18937576,0.61861497,0.21615203,0.27289984,0.20696497,7.77848864,0.21423258,0.17565180,0.52402288,0.32002616,0.29253420,0.54410958,0.32830659,0.49715713,0.64843833,0.72057915,0.37001362,0.46255103,0.34767976,0.31532371,0.42991385,0.35147882,-1.66936839,0.35967454,0.49917653,0.37078613,0.49253300,0.51742667,0.47725841,0.46584880,0.50081027,0.44579577,0.22042872,0.33848140,0.23904431,0.41013473,0.33342752,0.29662931,0.19234611,0.23668404,0.30395171,0.24049093,0.38011175,0.24167921,0.21503021,0.25450483,0.30828857,0.29627720,0.56460732,0.37113082,0.28293225,0.56879687,0.45474669,0.51156658,0.22346739,0.48470294,0.48734730,0.58904529,0.01682068,0.32161474,0.42851016,0.16866691,0.41241524,0.40390426,0.29521042,0.20148905,0.59250993,0.18238553,0.46529502,0.18242042,0.56032854,0.37237176,0.54555827,0.19517738,0.27020237,0.45499188,0.23051105,0.36037469,0.18799771,0.28888908,0.24141328,0.43149576,0.26215747,0.35782912,0.38800678,0.26279542,0.54602838,0.32172856,0.44532079,0.51529962,0.29044202,0.30846819,0.94163626,0.31899169,0.55376506,0.42914045,0.43397915,0.18314295,0.29145125,0.41706288,0.25728783,0.35281658,0.11963714,0.35391667,0.49368936,0.30961716,0.40406966,0.32770026,0.46127105,0.31884044,0.26749766,0.34846708,0.36623374,0.40310171,0.33475733,0.38255367,0.31919551,0.45517507,0.34778264,0.13552131,0.18420278,0.43377435,0.45697284,0.22809604,0.32338133,-0.00329310,0.35924765,0.61502278,0.44998530,0.43746209,0.41278255,0.31395999,0.30179876,0.42099288,0.26927790,0.39134380,0.31186709,0.39073101,0.28438470,0.12948948,-0.00036515,0.34663403,0.35653341,0.54892683,0.31889114,0.39426672,0.42258656,0.31959486,0.58504963,0.43573216,0.38097942,0.31429020,0.29185659,0.34794086,0.35778123,0.61007446,0.18890010,0.57137311,0.47388390,0.42805782,0.05517544,0.22534764,0.23639369,0.33457321,0.23427556,0.35863298,0.24913417,0.33837387,0.37803680,0.36643198,0.55977470,0.37917832,0.55452359,1.00329804,-0.39251754,0.48285389,0.64264876,0.38302153,0.13084896,0.37946546,0.27487019,0.43522555,0.12210400,0.35287458,0.60713565,0.41102666,1.05818975,0.31109434,0.32444093,0.45251775,0.34261072,0.26892954,0.30917996,0.37471992,0.30806553,0.53289467,0.47328120,0.38934684,0.31784278,0.35124493,0.31183633,0.36022887,0.08741610,0.29251412,0.34392741
STAR,0.24667969,0.53227252,0.46232769,0.48150393,0.05535519,0.41551873,0.18747984,-0.24771796,0.11891855,0.46505651,0.28133991,0.37247556,0.24312469,0.45936480,0.32211533,0.36897504,0.75790232,0.31503057,0.19284958,0.48900211,0.55230856,0.43164471,0.25311038,0.24451992,0.18712024,0.52704662,0.15602773,0.33658671,0.28418633,0.31593871,0.25844863,0.13630024,0.23247992,0.41673589,0.28655323,0.54345876,0.37213433,0.51097560,0.44530654,0.24631178,0.45876050,0.16338852,0.29533401,0.21859001,0.53282207,0.30934817,0.32452655,0.32512102,0.46711975,0.57625264,0.80303681,0.39823633,0.27764881,0.31778440,0.37392291,0.34545264,0.21577971,0.60501111,0.25948700,0.23467301,0.51386827,0.30430287,0.31839719,0.18439096,0.33396131,0.09164084,0.14364086,0.18172899,0.25593749,0.24096356,0.39499027,0.37129593,0.20351160,0.44672668,0.35489479,0.24375860,0.31866118,0.48155993,0.29943553,0.28088924,0.29091227,0.18333919,0.34848297,0.69068480,0.26219171,0.37206918,0.33525336,0.26197377,0.55576807,0.23767027,0.18241718,0.45898885,-1.35640752,0.62528664,0.34658098,0.37089130,0.49411520,0.52975190,0.19272867,0.29302707,0.59116417,0.30101314,0.54295117,0.21058159,0.11518017,0.30171543,0.52347851,0.61577034,0.20079419,0.48338744,0.60727167,0.60087383,0.34005684,0.31355774,0.30699173,0.24879509,0.41545692,0.52629453,0.31331369,0.50075626,0.43897864,0.16056506,0.26791385,0.48008418,0.54734218,0.43551823,0.34382293,0.27926818,0.32881218,0.61139709,0.41536918,0.49467382,0.14500549,7.67928696,0.40503153,0.24893427,0.21375772,0.18192138,0.49919614,0.43813610,0.41597080,0.25564256,0.74997067,0.33697623,0.14571929,0.48137987,0.40451014,0.34050041,0.23469318,0.20842569,0.38069275,0.61215353,0.32514235,0.63993424,0.26694828,0.15093210,0.29915705,0.34651700,0.11198828,0.32203290,0.40342450,0.23570503,0.31454059,0.23141643,0.35124046,0.18733871,0.63160688,0.14519441,0.43231604,0.25626168,0.32736522,0.38485584,0.32592642,0.47718468,0.32331222,0.39786428,-0.08163312,0.44635898,1.19057214,0.24509159,0.51255560,0.23077370,0.52238411,0.27662650,0.37919709,0.33611643,0.64215010,0.27674526,0.29293844,0.17498457,0.35360232,0.27413392,0.25555843,0.27524722,0.31255883,0.26157418,0.18354325,0.36534533,0.61819780,0.09121674,0.31879860,0.34840962,0.39523044,0.34343770,0.50856119,0.28938964,0.21338305,0.25211880,0.37005493,0.37312937,0.57092309,0.56177014,0.58714873,0.30090085,0.60038871,0.29078093,0.23783237,0.34652337,0.18850240,0.31013706,0.10910140,0.25280017,0.21213795,0.09098648,0.60070753,0.39146170,0.29073685,0.48723423,0.45276293,0.20401478,0.35605788,0.31003073,0.41415685,0.21784282,0.56335902,0.65042233,0.48077947,0.38349506,0.22706237,0.11375647,0.43891528,0.74842787,0.60731298,0.26865178,0.12977898,0.13052930,0.22566558,0.37252128,0.36086282,0.36881784,0.51063532,0.55540907,0.27194944,0.37581828,0.27461767,0.28218764,0.16988812,0.32171121,0.38372374,0.42795128,0.31728601,0.30639589,0.48880115,0.15138113,0.29576802,0.24467774,0.40312138,0.25621980,0.22218812,0.26902083,0.44085565,0.48388720,0.42865282,0.06542985,0.50685275,0.52857184,0.28226796,0.42591631,0.51189786,0.45854083,0.70494193,0.23187767,0.62364537,0.66947645,0.32973650,0.39247212,0.39364970,0.21525058,0.46385008,0.14037722,0.25764403,0.29866242,0.38090619,0.34819233,0.18487702,0.50803977,0.40652469,0.31885242,0.39962104,0.50516725,0.54765034,0.34419939,0.11707242,0.46581197,0.18213065,0.52568585,0.18068275,0.31671745,0.55447775,0.24824817,0.31957236,0.39195958,7.66645050,0.35792506,0.33898690,0.45076749,0.19007571,1.64333105,0.41718897,0.85246086,0.69687539,0.73535943,0.55428129,0.26385224,0.31286657,0.60867298,0.25524545,0.48193470,0.65467697,-1.19515753,0.17116182,0.66408819,0.44092911,0.46369612,0.33040452,0.21803704,0.53955871,0.34362248,0.38302171,0.43264088,0.16702943,0.51595598,0.47373155,0.53247851,0.35767427,0.09820943,0.29856062,0.42805019,0.16638871,0.33185664,0.44330221,0.12278844,0.21023226,0.36433676,0.32651806,0.54247504,0.42047450,0.19147937,0.60166931,0.51879436,0.66601646,0.43296090,0.34351021,0.37353051,0.26420918,0.26098531,0.16859789,0.44628844,0.16199365,0.49298745,0.47018465,0.37932390,0.39076155,0.36238462,0.19156559,0.22274150,0.14931557,0.44706947,0.33643618,0.31273115,0.09326333,0.18030547,0.30233213,0.23174497,0.36205104,0.24725841,0.21320392,0.31605667,0.35728636,0.41316521,0.45315871,0.46614999,0.50348443,0.31174749,0.43792060,0.48670265,0.40686312,0.29626250,0.28349876,1.17493284,0.52009451,0.37301737,0.28027603,0.43646082,0.14217015,0.45941040,0.52459246,0.46244639,0.29693326,-0.00973355,0.66746163,0.35295328,0.45868865,0.62724060,0.38458577,0.27359369,0.19461134,0.11757679,0.41731703,0.41081914,0.72161138,0.55059981,0.32278094,0.22595508,0.47809801,0.34143287,0.16959210,0.36083183,0.34831676,0.43724868,0.29493600,0.38536933,0.19425681,0.25058624,0.27616790,0.45889843,0.41634029,0.37053356,0.10630529,0.46392876,0.39578959,0.10663436,0.24987333,0.42819560,0.63862997,0.37585437,0.14114684,0.09045634,0.24142356,0.43957368,0.56852895,0.34453943,0.37291390,0.54642606,0.36409581,0.45542720,0.30634144,0.32198039,0.65014935,0.15239461,0.38905016,0.49536765,0.66358238,0.47330397,0.41163164,0.44848418,0.39296502,0.09371419,0.16755266,0.22935544,0.32664070,0.30231026,0.33729097,0.19933464,0.32996702,0.48702067,0.60458815,0.55944377,0.46378654,0.45793322,0.45049146,-0.02699413,0.66970003,0.29509991,0.45033744,0.18858032,0.34700108,0.28740647,0.39112625,0.22300258,0.47178778,0.53436142,0.39468426,0.78297663,0.40814224,0.38079369,0.35692871,0.34176874,0.14232609,0.24602392,0.45423374,0.19511759,0.36339375,0.54345196,0.50795114,0.24180156,0.30822450,0.26659930,0.31996268,0.25771689,0.24778581,0.31460515
THUNDER,0.01611737,0.17673706,0.25252298,0.29069445,0.26837531,0.19863136,0.17814691,-0.47947225,0.09710749,0.43613499,0.22625455,0.40321392,0.32041365,0.12462838,0.46199128,0.42755410,0.38307035,0.33913600,0.34134430,0.35980842,0.63030773,0.29293084,0.29720369,0.29776111,0.09653624,0.37129211,0.35634327,0.31384686,0.22846687,0.40715870,0.13295707,0.16834930,0.36394683,0.37608060,0.64505678,0.45060059,0.33068588,0.17656237,0.29165772,0.14142953,0.35404167,0.59432012,0.30488205,0.56756216,0.53078002,0.65089869,0.46368262,0.26284257,0.43090302,0.36930826,0.21777149,0.14104664,0.23041855,0.41208684,0.37700281,0.33243945,0.33936477,0.61036789,0.30973232,0.24293157,0.92286706,0.27061829,0.45172882,0.00464651,0.15665394,0.09069529,0.30289850,0.48840630,0.20599906,0.38124552,0.55113471,0.17131050,0.14453439,0.44446841,0.48143348,0.28406960,0.60059279,0.24585588,0.26454917,0.02878740,0.20610072,0.29541773,0.33403322,0.46342298,0.22497715,0.44904423,0.28135028,0.17773606,0.28858286,0.31397578,0.37412852,0.28606403,-1.41467035,0.26403010,0.61102664,0.34270161,0.59672326,0.59741676,0.53315580,0.07251029,0.47382998,0.27805403,0.35621873,0.32391322,0.26544538,0.37647831,0.27867815,0.19108544,0.22587506,0.29606485,0.66866440,1.14208066,0.21815281,0.28511652,0.25819215,0.26467758,0.30410969,0.33967984,0.30377913,0.18891384,0.40115455,0.29747322,0.35327381,0.40114278,0.56122804,0.36766282,0.37390608,0.19647424,0.42684180,0.52161634,0.25518212,0.52217889,0.33825812,8.25083637,0.36300436,0.50726360,0.24299298,-0.02358723,0.30225968,0.21818690,0.29668301,0.33502570,0.53316951,0.29972214,0.24654789,0.48460850,0.29661304,0.37033644,0.09066898,0.28472957,0.37585807,0.27002612,0.34617388,0.57088792,0.28487864,0.14870740,0.19474950,0.43677834,0.08882629,0.21994366,0.40157798,0.26613566,0.40365419,0.35765627,0.34908131,0.22796792,0.07625077,0.43064275,0.54052407,0.23976839,0.23451902,0.61514837,0.13374244,0.41980147,0.46067950,0.30717906,0.36804503,0.48695397,0.31104264,0.25405848,0.36366275,0.46420354,0.54821253,0.18824853,0.19084693,0.00860610,0.57687968,0.32886836,0.43972060,0.27544996,0.42297173,0.32025233,0.15933850,0.26795959,0.19926219,0.25544062,0.21091941,0.55343193,0.48666012,0.08759477,0.32211512,0.48700616,0.48520347,0.54521126,0.40534231,0.09795742,0.08798944,0.21560301,0.23887944,0.39690861,0.73577011,0.57618541,0.31340459,0.28608268,0.38279217,0.27050033,0.36746049,0.37036338,0.23219988,0.29539126,0.27650398,0.04390116,0.23903205,0.24654421,0.45667413,0.27835467,0.16425999,0.38148639,0.44645798,0.31832278,0.28265920,0.35767308,0.38756928,0.20788275,0.45725256,0.82144129,0.35394138,0.25379199,0.18556611,0.29766324,0.34963652,0.60702550,0.33576003,0.28393137,0.14373697,0.35730353,0.36054322,0.44668701,0.19958001,0.27663651,0.35902864,0.43223515,0.38888004,0.45906097,0.21183945,0.45906392,0.38474533,0.36523786,0.47123492,0.47647950,0.45157483,0.17897165,0.13893025,0.40988985,0.29608709,0.29823166,0.65498561,0.16720532,0.47180972,0.32847077,0.59924906,0.31771687,0.44173449,0.26841956,0.44028515,0.29621619,0.19004223,0.46011055,0.38487074,0.30341220,0.48255122,0.37222138,0.30764306,0.15915339,0.48253402,0.39071175,0.50353277,0.28400427,0.19509330,0.18991429,0.47602350,0.46976060,0.37139627,0.40609410,0.16610804,0.28493565,0.26247293,0.16932794,0.39011413,0.20174535,0.29595965,0.23902553,0.27100095,0.13651851,0.27348372,0.43001020,0.31243929,0.28691176,0.48608816,0.27340162,0.23061982,0.53755563,8.23770237,0.29739133,0.15134509,0.64007616,0.45351031,0.82084990,0.59496319,0.51139045,0.74837476,0.66456670,0.40707231,0.39818785,0.12775600,0.45991179,0.41011983,0.36219460,0.26162684,-1.07785416,0.26484993,0.66467512,0.34203890,0.16844282,0.33960301,0.14430790,0.50861967,0.35103545,0.55375195,0.24852608,0.16340147,0.23405047,0.32838854,0.26384386,0.46341559,0.25598970,0.26548892,0.37693578,0.36005658,0.19932114,0.17851534,0.42980161,0.15800124,0.58030027,0.22208335,0.52196085,0.54792058,0.36329389,0.32119122,0.62239021,0.39915338,0.47299665,0.52916318,0.40483350,0.36189002,0.19209227,0.45788282,0.42915413,0.37567157,0.39382616,0.34017989,0.38830596,0.24566250,0.62494546,0.24400800,0.19633906,0.13033837,0.49953502,0.40093955,0.35805023,0.35513452,0.28905159,0.38790518,0.14955452,0.49139822,0.02527199,0.18038429,0.23764707,0.46335632,0.37528110,0.33394173,0.17357545,0.35740790,0.35109121,0.42072505,0.27647969,0.32509202,0.13077362,0.15865918,0.56907862,0.24351066,0.38576031,0.67125195,0.39596897,0.00874786,0.35664994,0.38341939,0.46113232,0.25080097,0.21399844,0.54864603,0.39970165,0.34805503,0.32145590,0.33431542,0.40060440,0.24984863,0.25548306,0.29582578,0.49074548,0.47489697,0.47403431,0.19164206,0.41001529,0.44103932,0.32153916,0.05482638,0.32844391,0.58940417,0.44603711,0.27499700,0.25686565,0.04236427,0.26761878,0.50603265,0.42923483,0.12730682,0.23142162,0.30389428,0.48347685,0.18805733,0.38611066,0.38371396,0.12001298,0.34249294,0.26452303,0.27733099,0.15159765,0.29593882,0.48358464,0.37231913,0.24150869,0.46589881,0.32818159,0.39497489,0.30574825,0.42808893,0.34726915,0.27161270,0.33276704,0.22691637,0.49950492,0.39015999,0.43207106,0.43001282,0.43063393,0.44485125,0.28748149,0.30132776,0.54426587,0.29844353,0.20872492,0.40499821,0.32881787,0.43694729,0.21910620,0.46717459,0.67370689,0.29073843,0.73513585,0.38800862,-0.40494573,0.31806126,0.19503467,0.56235009,0.29570818,0.17459163,0.25108007,0.37884924,0.26881120,0.22431992,0.39102203,0.26469433,0.75503522,0.45269123,0.28112054,0.53705728,0.41267380,0.25176525,0.27845442,0.27217442,0.48265132,0.43660751,0.57312340,0.42449227,0.41291967,0.28733790,0.06715030,0.32765126,0.49473736,0.24392368,0.38629687
