,dim_0,dim_1,dim_2,dim_3,dim_4,dim_5,dim_6,dim_7,dim_8,dim_9,dim_10,dim_11,dim_12,dim_13,dim_14,dim_15,dim_16,dim_17,dim_18,dim_19,dim_20,dim_21,dim_22,dim_23,dim_24,dim_25,dim_26,dim_27,dim_28,dim_29,dim_30,dim_31,dim_32,dim_33,dim_34,dim_35,dim_36,dim_37,dim_38,dim_39,dim_40,dim_41,dim_42,dim_43,dim_44,dim_45,dim_46,dim_47,dim_48,dim_49,dim_50,dim_51,dim_52,dim_53,dim_54,dim_55,dim_56,dim_57,dim_58,dim_59,dim_60,dim_61,dim_62,dim_63,dim_64,dim_65,dim_66,dim_67,dim_68,dim_69,dim_70,dim_71,dim_72,dim_73,dim_74,dim_75,dim_76,dim_77,dim_78,dim_79,dim_80,dim_81,dim_82,dim_83,dim_84,dim_85,dim_86,dim_87,dim_88,dim_89,dim_90,dim_91,dim_92,dim_93,dim_94,dim_95,dim_96,dim_97,dim_98,dim_99,dim_100,dim_101,dim_102,dim_103,dim_104,dim_105,dim_106,dim_107,dim_108,dim_109,dim_110,dim_111,dim_112,dim_113,dim_114,dim_115,dim_116,dim_117,dim_118,dim_119,dim_120,dim_121,dim_122,dim_123,dim_124,dim_125,dim_126,dim_127,dim_128,dim_129,dim_130,dim_131,dim_132,dim_133,dim_134,dim_135,dim_136,dim_137,dim_138,dim_139,dim_140,dim_141,dim_142,dim_143,dim_144,dim_145,dim_146,dim_147,dim_148,dim_149,dim_150,dim_151,dim_152,dim_153,dim_154,dim_155,dim_156,dim_157,dim_158,dim_159,dim_160,dim_161,dim_162,dim_163,dim_164,dim_165,dim_166,dim_167,dim_168,dim_169,dim_170,dim_171,dim_172,dim_173,dim_174,dim_175,dim_176,dim_177,dim_178,dim_179,dim_180,dim_181,dim_182,dim_183,dim_184,dim_185,dim_186,dim_187,dim_188,dim_189,dim_190,dim_191,dim_192,dim_193,dim_194,dim_195,dim_196,dim_197,dim_198,dim_199,dim_200,dim_201,dim_202,dim_203,dim_204,dim_205,dim_206,dim_207,dim_208,dim_209,dim_210,dim_211,dim_212,dim_213,dim_214,dim_215,dim_216,dim_217,dim_218,dim_219,dim_220,dim_221,dim_222,dim_223,dim_224,dim_225,dim_226,dim_227,dim_228,dim_229,dim_230,dim_231,dim_232,dim_233,dim_234,dim_235,dim_236,dim_237,dim_238,dim_239,dim_240,dim_241,dim_242,dim_243,dim_244,dim_245,dim_246,dim_247,dim_248,dim_249,dim_250,dim_251,dim_252,dim_253,dim_254,dim_255,dim_256,dim_257,dim_258,dim_259,dim_260,dim_261,dim_262,dim_263,dim_264,dim_265,dim_266,dim_267,dim_268,dim_269,dim_270,dim_271,dim_272,dim_273,dim_274,dim_275,dim_276,dim_277,dim_278,dim_279,dim_280,dim_281,dim_282,dim_283,dim_284,dim_285,dim_286,dim_287,dim_288,dim_289,dim_290,dim_291,dim_292,dim_293,dim_294,dim_295,dim_296,dim_297,dim_298,dim_299,dim_300,dim_301,dim_302,dim_303,dim_304,dim_305,dim_306,dim_307,dim_308,dim_309,dim_310,dim_311,dim_312,dim_313,dim_314,dim_315,dim_316,dim_317,dim_318,dim_319,dim_320,dim_321,dim_322,dim_323,dim_324,dim_325,dim_326,dim_327,dim_328,dim_329,dim_330,dim_331,dim_332,dim_333,dim_334,dim_335,dim_336,dim_337,dim_338,dim_339,dim_340,dim_341,dim_342,dim_343,dim_344,dim_345,dim_346,dim_347,dim_348,dim_349,dim_350,dim_351,dim_352,dim_353,dim_354,dim_355,dim_356,dim_357,dim_358,dim_359,dim_360,dim_361,dim_362,dim_363,dim_364,dim_365,dim_366,dim_367,dim_368,dim_369,dim_370,dim_371,dim_372,dim_373,dim_374,dim_375,dim_376,dim_377,dim_378,dim_379,dim_380,dim_381,dim_382,dim_383,dim_384,dim_385,dim_386,dim_387,dim_388,dim_389,dim_390,dim_391,dim_392,dim_393,dim_394,dim_395,dim_396,dim_397,dim_398,dim_399,dim_400,dim_401,dim_402,dim_403,dim_404,dim_405,dim_406,dim_407,dim_408,dim_409,dim_410,dim_411,dim_412,dim_413,dim_414,dim_415,dim_416,dim_417,dim_418,dim_419,dim_420,dim_421,dim_422,dim_423,dim_424,dim_425,dim_426,dim_427,dim_428,dim_429,dim_430,dim_431,dim_432,dim_433,dim_434,dim_435,dim_436,dim_437,dim_438,dim_439,dim_440,dim_441,dim_442,dim_443,dim_444,dim_445,dim_446,dim_447,dim_448,dim_449,dim_450,dim_451,dim_452,dim_453,dim_454,dim_455,dim_456,dim_457,dim_458,dim_459,dim_460,dim_461,dim_462,dim_463,dim_464,dim_465,dim_466,dim_467,dim_468,dim_469,dim_470,dim_471,dim_472,dim_473,dim_474,dim_475,dim_476,dim_477,dim_478,dim_479,dim_480,dim_481,dim_482,dim_483,dim_484,dim_485,dim_486,dim_487,dim_488,dim_489,dim_490,dim_491,dim_492,dim_493,dim_494,dim_495,dim_496,dim_497,dim_498,dim_499,dim_500,dim_501,dim_502,dim_503,dim_504,dim_505,dim_506,dim_507,dim_508,dim_509,dim_510,dim_511,dim_512,dim_513,dim_514,dim_515,dim_516,dim_517,dim_518,dim_519,dim_520,dim_521,dim_522,dim_523,dim_524,dim_525,dim_526,dim_527,dim_528,dim_529,dim_530,dim_531,dim_532,dim_533,dim_534,dim_535,dim_536,dim_537,dim_538,dim_539,dim_540,dim_541,dim_542,dim_543,dim_544,dim_545,dim_546,dim_547,dim_548,dim_549,dim_550,dim_551,dim_552,dim_553,dim_554,dim_555,dim_556,dim_557,dim_558,dim_559,dim_560,dim_561,dim_562,dim_563,dim_564,dim_565,dim_566,dim_567,dim_568,dim_569,dim_570,dim_571,dim_572,dim_573,dim_574,dim_575,dim_576,dim_577,dim_578,dim_579,dim_580,dim_581,dim_582,dim_583,dim_584,dim_585,dim_586,dim_587,dim_588,dim_589,dim_590,dim_591,dim_592,dim_593,dim_594,dim_595,dim_596,dim_597,dim_598,dim_599,dim_600,dim_601,dim_602,dim_603,dim_604,dim_605,dim_606,dim_607,dim_608,dim_609,dim_610,dim_611,dim_612,dim_613,dim_614,dim_615,dim_616,dim_617,dim_618,dim_619,dim_620,dim_621,dim_622,dim_623,dim_624,dim_625,dim_626,dim_627,dim_628,dim_629,dim_630,dim_631,dim_632,dim_633,dim_634,dim_635,dim_636,dim_637,dim_638,dim_639,dim_640,dim_641,dim_642,dim_643,dim_644,dim_645,dim_646,dim_647,dim_648,dim_649,dim_650,dim_651,dim_652,dim_653,dim_654,dim_655,dim_656,dim_657,dim_658,dim_659,dim_660,dim_661,dim_662,dim_663,dim_664,dim_665,dim_666,dim_667,dim_668,dim_669,dim_670,dim_671,dim_672,dim_673,dim_674,dim_675,dim_676,dim_677,dim_678,dim_679,dim_680,dim_681,dim_682,dim_683,dim_684,dim_685,dim_686,dim_687,dim_688,dim_689,dim_690,dim_691,dim_692,dim_693,dim_694,dim_695,dim_696,dim_697,dim_698,dim_699,dim_700,dim_701,dim_702,dim_703,dim_704,dim_705,dim_706,dim_707,dim_708,dim_709,dim_710,dim_711,dim_712,dim_713,dim_714,dim_715,dim_716,dim_717,dim_718,dim_719,dim_720,dim_721,dim_722,dim_723,dim_724,dim_725,dim_726,dim_727,dim_728,dim_729,dim_730,dim_731,dim_732,dim_733,dim_734,dim_735,dim_736,dim_737,dim_738,dim_739,dim_740,dim_741,dim_742,dim_743,dim_744,dim_745,dim_746,dim_747,dim_748,dim_749,dim_750,dim_751,dim_752,dim_753,dim_754,dim_755,dim_756,dim_757,dim_758,dim_759,dim_760,dim_761,dim_762,dim_763,dim_764,dim_765,dim_766,dim_767
BAG,0.70985889,0.72654653,0.84344876,0.18759049,0.42135656,0.46906924,0.89557111,0.44933450,0.88704908,1.01200545,0.20415612,0.56879455,0.27420634,0.87008399,0.12040666,0.70695144,0.24822566,0.25684512,0.31644255,0.63051397,1.25680804,0.75902796,0.84353447,0.85128331,0.93384558,0.65140474,0.88692015,0.83033383,0.41012508,0.53532243,0.67170048,0.46210346,0.26853514,0.37028658,0.79742676,0.30062157,0.35364851,0.71942163,0.51474440,0.27022010,0.47811472,0.32413551,0.55913532,0.46464950,0.46168917,0.34062040,0.73507023,0.59520829,0.61201012,0.67840195,0.52178407,1.07148135,0.43744299,0.53644133,0.57801569,0.42199755,0.53936785,0.53108358,0.61944699,0.56610608,0.40804821,0.91046816,0.63244325,0.91015297,0.41734618,0.80719805,0.36740127,0.39934629,0.52833086,0.07547468,0.55727410,1.17190933,1.01367497,0.83328420,0.80166668,0.26309425,0.55947161,0.95429051,0.60210514,0.80035186,0.48218682,0.29172662,0.73170638,0.57829577,0.44889033,0.55187410,0.33970714,1.02177048,0.03137499,0.68769407,0.37843460,0.52420592,0.83866000,0.61753196,0.37199408,0.42050400,0.81294072,0.71187305,0.88705736,0.45642555,1.04312563,0.65087938,0.98474264,1.28948212,0.82700086,0.46401864,0.76358998,0.50975877,0.66750300,0.29060763,0.67328459,0.76231462,0.38902548,0.53615499,0.54273462,0.33054274,0.55909038,0.74734730,0.76866198,0.50624788,0.50962925,0.44075999,0.38215908,0.66652560,0.87522769,0.68366253,0.62828302,0.71232533,0.41843608,0.58178759,0.42921811,0.27913457,0.42771646,0.39028415,0.52563941,0.91277373,0.12127125,0.88657862,0.57526904,0.47630060,0.56097114,0.33584130,0.75150907,0.67987156,0.77409399,0.63716888,0.78532922,0.52093863,0.45438376,0.95330083,0.44853157,0.34055090,0.61827779,0.70322996,0.73946232,0.82525527,0.56936693,0.46637297,0.38005295,0.28793359,0.49844128,0.19089912,0.85231662,0.47679651,0.62356597,0.82342625,0.56559956,0.43668664,0.15210888,0.49910632,0.80425227,0.74752760,0.65693116,1.03922796,0.34818789,0.70246124,0.43108296,-0.02681585,1.14340997,0.83887196,0.52991802,0.32842582,0.54592973,0.58540213,0.59265155,0.41411766,0.15736198,0.63992077,0.54095364,0.47239554,0.33742607,0.36335528,1.12214756,0.25642172,1.02112865,-1.43608654,0.71537042,0.74962878,0.55956364,0.64322728,0.42746198,1.41876936,0.31931353,0.61708397,0.67907673,0.84010583,0.95909911,0.64047194,0.39037606,0.12371103,0.22098033,0.73916316,0.64291447,0.82959008,0.48717865,0.58060086,0.57534420,0.54813290,0.62339908,1.03967297,0.51154310,0.75272346,0.37656137,0.71944827,0.58606863,0.49777007,0.12251598,0.57561398,0.50712991,0.71998191,0.12532854,0.91615868,0.71717572,0.74889064,0.54460108,0.39912868,0.56652933,0.71541971,1.04804635,0.54611081,0.61611903,0.69250172,0.63440865,0.83263463,0.52683103,1.04416001,0.46569818,0.49081433,0.31122535,0.72496891,0.51377702,0.61329567,0.47063822,0.60543346,0.43868005,0.73008156,0.42467836,0.47729629,0.55291855,0.97988307,0.44414240,0.38739818,0.80305743,0.40287799,0.42604998,0.23064131,0.46482211,0.82620662,0.48369658,0.75249457,0.71847606,0.56378531,0.33871165,0.32785350,0.49044600,0.56187797,0.43503967,0.21259813,0.28636849,0.30781659,0.61365980,0.87958002,0.41973138,0.65897924,0.57652843,0.21721774,0.59545052,0.58345872,-0.51716435,0.61578679,0.74212533,0.36161184,0.17776853,0.59367758,0.46615171,0.93408960,0.32474610,0.64605761,0.73738402,0.56515789,0.32092369,0.71652055,0.36131066,0.92340529,0.54547882,0.89688003,0.39382216,0.87866658,0.63955259,0.56530583,0.73626482,0.61086917,0.46994945,0.93608189,0.65394765,0.24090548,-7.70294762,0.52060616,0.78762037,0.51113236,0.49885663,0.47473162,0.64425176,0.50676095,0.97889143,0.73531002,0.93984389,0.35451734,0.66976786,0.15230519,0.45780557,0.22813129,0.32122281,0.12524176,0.87408328,0.71535397,0.78621256,0.39882645,0.39091942,0.51048803,0.61295998,0.43169421,0.57052660,0.77440035,0.47174299,0.83011717,0.52310461,0.74836338,0.85935140,0.80062670,0.15481694,0.51919961,0.64729100,0.50108701,0.66975093,0.58101732,0.80514193,0.65343547,0.91617352,0.85400116,0.61836678,0.35395718,1.01381493,0.02652673,0.26900053,0.69441080,0.87136507,0.25505060,0.61965698,0.30352134,0.58513409,0.35232121,0.50619495,0.57257348,0.51717269,1.05903494,0.25034925,0.65994108,0.58834803,0.17217891,1.30887067,0.03351820,0.53917861,0.87966681,0.64500052,1.31129062,0.86350441,0.61984247,0.31792605,0.37888131,1.41111946,0.49993569,0.52698344,0.65960240,0.78311694,0.76019627,0.63472515,0.73912400,0.54834396,0.47070944,0.55418146,0.96820903,0.79477441,0.47993642,1.00264931,1.03992140,0.85941327,0.41293216,0.52525204,0.50411010,0.67695725,0.57106841,0.46468085,-0.92956960,0.39089912,0.55010831,0.80505329,0.38681954,0.65794265,0.34986866,0.75374985,0.35207021,0.62146127,0.88469416,0.74917847,0.54721105,0.59324151,0.76054668,0.90180540,0.67968869,0.82177085,0.47409081,0.49094141,0.46011674,0.87460625,0.72288597,0.43186605,0.51652789,0.56210268,0.75897473,11.80160522,0.72794330,0.71572667,0.64921534,0.69952130,0.88766068,0.51340145,0.88136739,0.42788076,0.58136767,-0.20013630,0.24000034,1.30797577,0.43574327,0.71768355,0.47410202,0.40043935,0.64106512,0.48513439,0.47356015,0.27197403,0.20238671,0.38141280,1.18182254,0.66465664,0.56127244,0.69946337,0.39774147,0.42864597,0.51944745,0.83175373,0.53809142,0.65300977,0.68233943,0.56716746,0.65711528,0.79585588,0.61584580,0.65181935,0.78251004,0.36934453,0.69699800,0.75226241,0.39781818,1.03320289,0.84668863,0.42735603,0.52204096,0.54792285,0.83558524,0.49032342,0.66366088,0.19418707,0.67111480,0.70391309,0.25923246,0.36298755,0.50630975,0.76558661,0.45690662,0.82280934,0.42828596,0.19160222,0.98561323,0.36297834,0.68793052,0.44639486,0.47870439,1.15430450,0.81104308,0.08864366,0.16180673,0.71090996,0.68117213,0.84920859,0.53432065,1.08267474,0.38817957,0.69502205,0.57448173,0.36282989,0.63293254,0.50238371,0.58786178,0.30140758,0.75983340,0.69834697,0.30589828,0.08766265,0.50624013,0.24312392,0.44005370,0.59813619,0.42044085,0.24252862,0.69074702,0.65497142,0.58316743,0.81182039,0.82801712,0.63300467,0.67520392,0.76221502,0.77117789,0.72811127,0.38031319,0.54686999,0.69070327,0.70745993,0.43488628,1.04973483,0.54774344,0.62631893,0.57410240,0.59467733,0.78667241,1.39333725,0.99336153,0.09825560,0.41944823,0.21950561,0.69020832,0.39168015,0.71544385,0.58095378,0.48673177,1.13412678,0.61676598,0.65153933,0.35314816,0.69639379,0.70895290,0.63648593,0.46961105,0.39429617,0.13546975,0.64244938,0.34175682,0.50150973,0.10655475,0.64759177,0.74208593,0.08105266,0.37099013,0.56549799,0.42359525,0.79004025,0.67734677,1.65823960,0.78008473,0.32252091,0.63222772,0.87320936,1.08762002,0.71155363,0.09424092,0.38101226,0.74539709,0.47425744,0.32973576,0.43245822,0.21314406,0.83625335,0.42579448,0.62784815,2.09355426,0.50528228,0.40489197,0.39389890,0.14815621,0.63139778,0.52970541,0.82343876,0.30245629,0.30204800,0.71615481,0.63962436,0.22368154,0.52445602,0.83741617,0.87093925,0.43498957,0.62742120,0.35160378,0.50049657,0.51419145,0.70701301,0.11933689,0.93648273,0.38287789,0.51265603,0.24072707,0.61696470,0.44482285,0.56591260,1.32672000,0.32290173,0.20268306,0.75309080,0.47344223,0.49012512,0.37561601,0.30726025,0.63323551,1.74333966,0.35618815,0.59836173,0.53671443,0.64961457,0.34352303,0.37179634,0.31875163,1.01196718,0.06330264,0.99683118,0.36850947,0.61778057,0.76672620,0.76668036,0.98977298,0.28107685,0.44021881,0.39090401,0.88129216,1.06953239,0.90578490,0.41916448,0.77724516,0.49189544,0.62075603,0.78111649,0.55329585,0.54108804,0.51340520,0.54403466,0.66552150,0.89191878,0.94525015,0.22500020,0.83790511,0.67657298,0.25201905,0.60770023,0.52618670,0.90778506,0.84501505,0.48484495,0.16119225,0.77928829,0.39374804,0.75891650,0.90431267,0.27602911,0.33485967,0.68388367,0.48462147,0.49710268,0.58357978,0.81663144,0.65459013,0.83924645,0.66730815,0.69040185,-0.07686621,0.49525654,0.70607805,0.74954903,0.71471369,0.75305450,0.26406312,0.51123577,0.70944995,0.11710896,1.03664207,0.78930259,0.64999175,0.61720604,0.60191506,0.69560266,0.01215069,0.62483346,0.46728939,0.86527932,0.69281411,1.04939079,1.28754950,0.69755393,0.37465656,0.63641900,0.83225799,0.77010775,0.46729925,1.04443431,0.56153256,0.46048257,1.04503536,0.49949372,0.54866749,0.49613145,0.40952721,0.92648470,0.62321079,0.56752449,0.75329125,0.35772073,0.91572785,0.86097658,0.79141247,0.40015525,0.53097010,0.53896439,0.32603055,0.06277230,0.68285012,0.55681169,0.91159517,0.67518103,0.35216540,0.93767655,0.94791365,0.38671321,0.54082173,0.49424213,0.66363072,0.22667578,0.37252319,0.64790100,0.84392679
CLOUDS,0.82617033,0.49953902,0.93247885,0.59996343,0.25077280,0.82561994,0.70796311,0.48695499,0.87846982,0.62277305,0.80919302,0.32373065,0.28037506,1.28463316,0.41840601,0.64242274,0.52023411,0.68373817,0.56917155,0.50176352,0.54959899,0.58442706,1.01868749,0.68764216,0.92802894,0.73678732,0.64653528,0.53576869,0.83687770,0.53206766,0.60979164,0.58333719,0.43867597,0.39337057,0.54084027,0.48768151,0.13801791,0.55799466,0.48099682,0.71441478,0.45726258,0.68372864,0.67348015,0.36655161,0.38073602,0.39769769,0.25815648,0.59924632,0.90267646,0.48213792,0.79202116,0.50877613,0.44943914,0.80057919,0.81967163,0.24334703,0.52457488,1.03143919,0.58376443,0.78019595,0.67301762,0.71832061,0.42778426,0.48423287,0.87540591,0.97401333,0.67871433,0.56861281,0.97299516,0.30768651,0.64600015,0.92584622,0.67771685,0.77879959,0.61159736,0.54944444,0.71946412,0.41005182,0.54187715,0.24963441,0.48813787,0.52783132,0.68729568,0.56701910,0.82821566,0.61361486,0.46361479,0.63875723,0.32503349,0.74626327,0.57962680,0.34832877,0.76261926,0.52180815,0.54122162,0.66566825,0.60513198,0.37618768,0.66902471,0.88125080,0.95826310,0.99272776,0.71839523,0.52363598,0.51726037,0.32315212,0.78003275,0.73320377,0.37112969,0.01684859,0.33278370,0.39366502,0.67496383,0.49424511,0.69078702,0.22184190,0.83608907,0.69447136,1.35875988,0.78037769,0.70256078,0.74014401,0.35249296,0.59055275,0.58338177,0.73826283,0.74437428,0.40797150,0.33346027,0.49311060,0.59847790,0.81997287,0.51864690,0.44548190,1.01877570,0.68933314,0.28295457,0.83831608,0.76531708,0.33628953,0.45046052,0.43052834,0.30096531,0.50952804,0.86030400,0.52519840,0.91591048,0.27259463,0.87752926,0.82601583,0.49642521,0.34204453,0.52289742,0.50836849,0.89339405,0.61208576,0.35389808,0.61160767,0.33045673,0.15758559,0.43453699,0.51339066,0.56681812,0.66049510,0.33529928,0.52631891,0.54908544,0.43687278,0.75471801,0.43717909,0.49618739,0.29849839,0.73443782,1.11210835,0.48736894,0.80339205,0.45621574,-0.18111092,1.26690722,0.75327039,0.46935722,0.55640185,0.31051809,0.50915432,0.45179224,0.83236432,0.69886398,0.38761202,0.28279603,0.13130008,0.52824223,0.74518973,0.63362640,0.38008967,0.65508163,-1.26485085,0.73511636,0.94896162,0.55980730,1.10043764,0.67825562,1.75165391,0.27171743,0.51009607,0.62299937,0.40213233,0.88649535,0.78557813,0.38037363,0.83455282,0.34049833,0.12443210,0.69972372,0.71306920,0.32581148,0.30357897,0.65300143,0.66351968,0.60546148,0.73139548,0.52135003,0.58336639,0.57598406,0.53126270,0.85466915,0.35850245,0.38143504,0.81856155,0.58803594,0.62491047,0.44355434,0.61645454,0.47748429,0.54763615,0.57503021,0.44511515,0.65793169,0.80515629,0.77263236,0.86044770,0.76994872,0.69930017,0.42176661,1.13457680,0.89158696,0.87294698,0.73621869,0.80656004,0.89526558,1.00055408,0.53005946,0.64307159,0.63929713,0.54981273,0.45308959,0.77647400,-0.06679071,0.75930882,0.66543198,1.26325655,0.51844466,0.46102849,0.18028414,0.58956915,0.46796849,0.69627774,0.88158309,0.57812417,0.21840410,0.43951046,0.77244508,0.39937401,0.56456184,0.88121033,0.51567239,0.54094541,0.69917750,0.40717059,0.62397325,0.48415053,1.08505762,0.81122774,0.40924683,1.03563094,0.64973289,0.85657406,0.25799716,0.80616248,-1.01914120,0.87820542,0.40266943,0.84365118,0.80104333,0.61415642,0.73865765,1.18028581,0.55119163,0.50076014,0.69116062,0.48501322,0.64125776,0.63983798,0.68464184,0.41559511,0.57258970,0.66266841,0.35953748,0.70937765,0.49374929,0.59130061,0.96412027,0.73276138,0.65540421,0.76627237,0.90200543,0.42347136,-6.31890774,0.45362139,0.42462116,0.33080447,0.36200199,0.78671360,0.58335412,0.64081180,0.66459006,0.76527911,0.17341939,0.85026562,1.08036315,0.66143274,0.32819143,0.45499039,0.64368862,0.34191123,1.14245665,0.98374867,0.63360941,0.58548284,0.77096307,0.73299551,0.40539330,0.41580075,0.48272812,0.47645229,0.50068849,1.00335336,0.82900840,0.39838409,0.39400712,0.66534483,0.79903561,0.59514165,0.58135653,0.62182564,0.49099663,0.60837185,0.66878462,0.66128933,0.78895330,0.37751749,0.68286610,0.79726011,1.01179028,1.07566476,0.74349833,0.63075882,0.65342546,0.33560675,0.39242560,0.50087601,0.55791593,0.73131311,0.55264097,0.50967741,0.24384160,0.76687753,0.37089023,0.69097370,0.45888621,0.31664938,1.16162014,0.69652367,0.37261605,0.62412560,0.47701561,1.20008278,0.66358542,0.70405936,0.73841941,0.82923603,0.97831976,0.71792507,0.59787107,0.64181983,0.82620698,0.63836455,0.58062029,0.48181841,0.47530603,0.63634562,0.77713382,0.47184598,0.88546383,0.74317503,1.13838065,0.34093750,0.85408705,0.57461286,0.26069033,0.59562743,0.61374432,0.46373534,0.30014282,-0.88446093,0.19969904,0.34090394,0.75176227,0.64999384,0.72252595,0.88207626,-0.07873435,0.62228739,0.65639275,0.39158273,0.31862393,0.69262952,0.59437233,0.44112730,0.88006997,0.45311856,0.68304074,0.51443869,0.58537900,1.08913422,0.89547229,0.90712875,0.92594028,0.84690040,1.06846917,0.75409108,12.57076454,0.56690466,0.52459872,0.63350070,0.72308064,0.59799021,0.62540466,0.48900321,0.51612067,0.58529115,-0.02652854,0.87451667,1.40593147,0.71062458,0.50374246,0.62250471,0.36195880,0.80757332,0.41453344,0.67891085,0.65888757,0.43137711,0.75942504,1.64128995,0.83550632,0.64825076,0.75809979,0.61857527,0.50613743,0.84792447,0.93802881,0.60333765,1.05222869,0.62789452,0.61259884,0.32006577,0.95962173,0.57570589,0.68161321,1.08188164,0.51590919,0.73603845,0.53052211,0.36793080,0.71749675,0.62792003,0.69122332,0.66864026,0.90775633,0.91618103,0.62651598,0.60807848,0.37510166,0.43021464,0.32174540,0.59538490,0.73876262,0.64913619,0.73604310,0.52184176,0.99363726,0.42599884,0.67688096,0.77729851,0.42139113,0.47102809,0.81478667,0.56863356,0.62602031,0.79076087,1.14514709,0.49124506,0.23397404,0.14806047,1.27233911,0.52902400,0.78590214,0.74051243,0.74004787,0.78955817,0.32933855,0.65788341,0.82112426,0.73553073,0.75001854,0.59542012,0.70412934,0.93857455,0.27626067,0.45209259,0.49974394,0.67579007,0.45141244,0.48220229,0.81515229,0.60987282,0.81099975,0.76454878,0.63653743,0.65993106,0.29130018,0.69455916,0.77943671,0.61857694,0.59154832,0.36655703,0.54237753,0.57363373,0.35531282,0.45229754,0.73899323,0.57209581,0.78951532,0.70844185,0.46248412,0.58408427,-0.11828861,0.37067190,0.15768088,0.68083322,0.37138349,0.49554348,0.65100616,0.70838213,0.92290807,0.60264570,0.75110757,0.65181404,0.42593086,0.64983392,0.98456419,0.80226636,0.72623521,0.41407454,0.64972329,0.60190630,0.72701538,0.78693163,0.87788361,0.57889968,0.75579238,0.77720284,0.46047372,0.66663820,0.14790800,0.41527709,0.53645200,0.50049090,1.49069250,0.52921879,0.31088597,0.73967230,0.26496857,0.75167179,0.65212089,0.56562561,0.67226434,0.61337680,0.50628680,0.64056647,0.87071645,0.43426234,0.56683749,0.49385089,0.80271733,0.59636897,0.67053813,0.72298276,0.57385480,0.32363817,0.63258874,0.90252745,0.59121269,0.50450277,0.64705712,0.73136365,0.58885711,0.29235715,0.64108437,0.32414410,0.54058325,0.50982004,0.77847785,0.62564456,0.10619873,1.12290335,0.52331048,0.28366041,0.59522527,0.74185336,0.66462314,1.04450798,0.75175947,0.25698170,0.43810391,0.75825489,0.80892003,0.79081070,0.58501834,0.45059854,1.00342333,0.64833903,0.39545012,0.75466216,1.89341593,0.63500780,0.72417742,0.39626163,0.70098126,0.56373411,0.44476631,0.50794303,0.79110539,0.73334438,0.80509531,0.41009992,0.77726901,0.53327054,0.93492752,0.48721400,0.57205713,0.23606546,0.65783703,0.59934908,0.81750983,0.50563747,0.54753125,0.50195372,0.50327259,0.89851403,0.50694805,0.72766733,0.65131235,0.62408924,0.33189327,0.51563889,0.58190852,0.72844523,0.30093473,1.06443429,0.55297470,0.72811258,0.58215880,0.31491092,0.70941883,0.62498033,0.63225281,0.41015723,0.44628137,0.59595889,0.90659136,0.50496709,0.21733008,0.26824933,0.27115005,0.95679569,0.59304702,0.67601597,1.06004298,0.54031003,0.88758457,0.63780338,0.40997395,-0.22743833,0.58969039,0.85589230,0.62563086,0.53449285,0.87101382,0.59174311,0.27678382,0.70379126,0.41115946,0.81536460,0.54284579,0.20740168,1.05246067,0.34552225,0.86932105,0.38861069,0.47011173,0.54540396,0.66022986,0.94662696,1.65817201,1.42947817,0.47174942,0.29448187,0.39067796,0.73697412,0.65580583,0.71747375,0.60783291,0.37971979,0.81068897,0.99237704,0.55630189,0.48550996,0.37005967,0.40940517,1.05968583,0.78675854,0.80423647,0.90719336,0.60591310,0.99720848,0.71427155,0.62078404,1.06811726,0.48897925,0.34960097,1.05002046,0.97562253,0.74256349,0.67409003,-0.07997933,0.46207273,0.97203702,0.74212968,0.34503180,0.29589406,0.19709100,0.47363335,0.77695715,0.78519928,0.65832973,-0.07051727,0.55013669
DRAGONFLY,0.52319038,0.70769155,0.89419878,0.70609754,0.22409105,0.60806102,0.94085681,0.71899891,0.48732680,0.99497402,0.24297374,0.62770241,0.18838745,0.94058907,0.58890438,0.55357313,0.61420548,0.69426429,0.47137010,0.56158888,0.87314814,0.41324812,0.94692451,0.60928750,0.95712191,0.33165166,0.82238162,0.46541661,0.44589069,0.66183102,0.47260034,0.61130869,0.50432920,0.57607365,0.50958627,0.55962074,0.33924699,0.76008344,0.82187349,0.26683331,0.84264779,0.23800543,0.67392129,0.38179910,0.35006899,0.40320987,0.65377533,0.23461831,0.54454267,0.42955524,0.57036281,0.67984658,0.45996428,0.89827186,0.23873001,0.68327606,0.65230441,0.84985697,0.24384727,0.98560083,1.04234970,0.95288169,0.44739592,0.03119972,0.89043695,0.82372975,0.64177245,0.57740402,0.70651722,0.35221565,0.41080070,1.08021176,0.47533327,0.93252122,0.55979955,1.05586004,0.53225315,0.43677437,0.43577668,0.67790592,0.53464013,0.60368693,0.56641483,0.45137006,0.46670672,0.64659387,0.47620493,0.91983974,0.29771781,0.48995340,0.30009562,0.84793645,0.75895339,0.74478495,0.74297768,0.54347128,0.51410109,0.39017496,1.19643331,0.58493507,0.69991767,0.70187533,0.76086068,0.58551681,0.65009403,0.29054403,0.75183052,0.63539779,0.26710376,0.12805185,0.24626327,0.39242274,0.56934768,0.31965274,0.46999770,0.46505854,0.54423910,0.54073954,0.87124002,0.56800246,0.67932880,0.41257983,0.35757780,0.32971084,0.79139650,0.92389345,0.81757969,0.31824228,0.45703882,0.17987713,0.43563640,0.52735579,0.37871817,0.41536880,0.44306946,0.60910738,0.64727712,0.78754318,0.66822481,0.49707630,0.63216650,0.55671501,0.51417702,0.34032756,0.85110962,0.72435856,0.74445170,0.64388508,0.48825294,0.49470279,0.83527869,0.42858577,0.66370147,0.65439761,0.95142424,0.50698191,0.89530480,0.69607937,0.65114260,0.18753158,0.59854829,0.35477227,0.47861147,0.57121408,0.42483085,0.65893191,0.57628667,0.43271387,0.58020473,0.66267049,0.64274007,0.46701986,0.72708082,0.84264898,0.66409540,0.28144532,0.45527592,-0.23689681,1.37756491,0.46856648,0.29510218,0.16432020,0.62136334,0.50752562,0.36244586,0.46883601,0.88979346,0.29134682,0.24028935,0.33596697,0.43172127,0.54392731,0.83966827,0.72841185,0.41032419,-1.58412886,0.64640552,0.79435998,1.06672180,0.40143621,0.63600093,1.58563662,0.49710935,0.45616278,0.55716932,0.19626772,0.72808647,0.50016558,0.36493134,0.60942626,0.43497419,0.45999533,0.51906103,0.51108783,0.75156915,0.50976288,0.77851105,0.85652745,0.48790970,0.78759575,0.67156702,0.62090659,0.58262420,0.79381382,0.55007130,0.61478555,0.43943459,0.60108685,0.39821208,0.65366066,0.35405207,0.93872499,0.74893886,0.62860584,0.44101554,0.72502875,0.49037540,0.45706910,0.49076757,0.64221936,0.77891415,0.88144588,0.77780497,0.40768048,0.68356866,1.42998552,0.58053017,0.83089513,0.65360898,0.90410489,0.40367037,0.57181692,0.34614131,0.66295242,0.60406041,0.86024201,0.23358661,0.52321267,0.58660090,1.28617716,0.35797620,0.73301435,0.36182737,0.49005359,0.66959047,0.79324722,0.50325942,0.64085716,0.70196772,0.38715720,0.47524136,0.55818903,0.73038608,0.20193952,0.54087293,0.45719945,0.51132977,0.17226945,0.56966734,0.29163289,0.34797698,0.71155375,0.20566195,0.99315661,0.45863259,0.75578845,0.35344911,0.48067823,-0.82920504,0.98728281,0.08868217,0.56393468,0.60277885,0.59129971,0.62082660,0.95611578,0.48332796,0.57526481,-0.02343822,0.27144000,0.30762956,0.42723262,0.89707589,0.87342787,0.23617725,0.69467723,0.15930448,0.39120743,0.31201255,0.63421756,0.58131099,0.46277687,0.41118845,0.76557213,0.49983716,0.42042375,-8.77877045,0.91580945,0.43501973,0.24805221,0.59856158,0.24375361,0.78233922,0.74796402,0.61897951,0.71064115,0.07161319,0.70977294,0.81493795,0.69303834,0.32716760,0.49014777,0.53249246,0.32348526,0.61543751,0.57236391,0.98777270,0.51624757,0.50841999,0.32878706,0.66158074,0.31359491,0.41901410,0.48725921,0.18062589,0.71581042,0.71162605,0.57062405,0.71450096,0.68017018,0.40748438,0.56027293,0.22429395,0.68616396,0.66669887,0.58040357,0.89715195,0.94775015,0.85088938,0.66898960,0.73157066,0.41531429,1.08995485,0.37122184,0.45104989,0.43808311,1.01754999,0.46769726,0.42817235,0.45371690,0.59245718,0.32339412,0.49131450,0.56922603,0.75711995,0.86999327,0.53570795,0.26227391,0.56004250,0.31459343,0.63514888,0.36523980,0.79725724,0.63013184,0.41962737,1.21231711,0.71532875,0.34076008,0.37763977,0.63175559,0.58976966,1.10262215,0.62122208,0.53665787,0.54843330,0.41256779,0.74895763,0.56260610,0.78077650,0.72813952,1.00301683,0.68723673,0.69380438,0.55605018,1.38814747,0.59884948,0.62095618,0.23465209,0.19247961,0.47168928,0.28696471,0.40694141,0.42523271,-1.00819969,0.21389049,0.41850874,0.42846000,0.49346870,0.52637339,0.32506126,0.30486199,0.84944987,0.40511197,0.99730170,0.70426631,0.80573046,0.48714274,0.51770651,1.02780247,0.41584548,0.59644067,0.73112261,0.88167989,0.64056301,0.57717162,1.16791296,0.60818666,0.43181163,0.56536025,0.65184540,12.29247284,0.47700942,0.58317250,0.43340617,0.64707756,0.65165222,0.81164950,0.38398737,0.74002832,0.80566067,0.10996318,0.62124920,1.34847414,0.55564523,0.25487518,0.38755405,0.37368453,0.57776475,0.38756016,0.51976860,0.35685393,0.33955243,0.56367767,1.31972885,0.83918107,0.40619218,0.41316360,0.22344065,0.89072835,0.69589508,0.54423100,0.48345858,0.95666146,0.55952406,0.42100087,0.94795805,0.60493338,0.54025936,0.67335486,0.83112007,0.36819214,0.81860697,0.56119871,-0.06577672,0.73979163,0.43440515,0.52249420,0.59190041,0.91733623,0.83756745,0.77583230,0.41165638,0.30192813,0.55557448,0.64103413,0.76980406,0.32590723,0.32089931,0.62699038,0.57967728,0.85071301,0.68102980,0.86828208,1.02099419,0.45589298,0.94264030,0.84832323,0.68167168,0.65514755,0.70502377,0.52687711,0.43337172,1.05892456,0.40791464,0.68935740,0.91902065,0.55224037,0.28352988,0.74481094,0.79820561,0.59607637,0.66297334,0.37028706,0.59932286,0.68974209,0.65358961,0.78863537,0.50863957,-0.04850607,1.01990485,0.50465918,0.75080985,0.94897193,0.47692513,0.83820629,0.78860724,0.93785548,0.34374744,0.46923020,0.52631575,0.32216722,0.53690141,0.84137803,0.29734707,0.64532274,0.45142177,0.33365482,0.40882713,0.31362644,0.44457257,0.57011616,0.49141955,0.41888705,0.10792914,0.36450326,0.85537606,0.53910965,0.46963516,0.30541936,0.51649755,-0.14072143,0.70162261,0.59281588,0.28979951,1.13103235,0.20148286,1.14277053,0.65630877,0.56763840,0.56805998,0.59231371,0.39651620,0.41462740,0.46355647,0.50081414,0.35553104,0.38749427,0.51311892,0.92515695,0.10189001,0.52131373,0.42848900,1.09210896,0.52002770,0.35222024,0.54206240,0.54747945,0.54192019,1.49178302,0.75517136,0.42972839,0.85195482,0.63213396,0.70405030,0.58183032,0.48843068,0.37634015,0.58272505,0.20045066,0.55466062,1.03148508,0.39453211,0.55383563,0.44273251,0.66156268,1.52921629,0.46221972,0.61301184,0.30994549,0.16091602,0.62506795,0.45329732,0.40701219,0.53767979,0.42664719,0.56702155,0.69105411,-0.07057616,0.72832233,0.45340186,0.53117567,0.56592429,0.71616590,0.53327227,0.58528554,0.91352475,0.51335800,0.14727709,0.48637867,0.64460921,0.74015164,0.74372387,0.72931445,0.53531599,0.45611456,0.64544380,0.72242683,0.80262578,0.46518314,0.42522949,0.35395759,0.37119561,0.35993448,0.60286808,1.86815619,1.11906540,0.75870335,0.33662221,0.33179450,0.52014077,0.35367849,0.53311688,0.54260248,0.32817554,0.79542589,0.40341598,0.80995703,0.78323668,0.59465814,0.67213714,0.30466586,0.74891746,0.33427757,0.63220000,0.69390875,0.80175316,0.71089703,0.52446783,0.47323507,0.30275536,0.86580443,0.20601204,0.79141176,0.32478672,0.56520057,0.33631641,0.44008523,0.73516536,0.14564011,0.62138361,0.70583522,0.72515994,0.47271809,0.33650866,0.77119750,0.76487005,0.48869020,0.60766327,0.70666224,0.37578854,0.62969071,0.78215086,0.18537003,0.16781561,0.49385631,0.69955248,0.61675119,0.71935332,0.73407209,0.42120835,0.67953151,0.64626384,0.61361200,-0.03838618,0.84005380,0.77545762,0.70232671,0.40410241,0.78599352,0.37578094,0.42419401,0.59967238,0.41371703,0.28220803,0.74142331,0.46764216,0.88289726,0.78844905,0.50371391,0.21765360,0.53673577,0.20784897,0.92487943,0.91351473,1.29279661,1.29800630,0.56567490,0.36842358,0.63395405,0.49009615,0.45420992,0.66078186,0.15646149,0.49253911,0.43447420,0.54271257,0.70660448,0.67880607,0.50083625,0.51284415,0.74472672,0.64429015,0.80640483,0.63570750,0.48901463,0.47258553,0.81633496,0.61932451,0.46791553,0.57072109,0.47534189,0.37209696,0.56833184,1.02529979,0.57459235,0.51968074,0.50322473,0.55845267,0.68936360,0.54927230,0.29563501,0.41435695,0.36374137,0.40355968,0.40210932,0.35900503,0.18217820,0.68869758
EARTH,0.70628482,0.65365911,1.39096999,0.55664861,0.50110412,0.58950907,0.65245444,0.80305660,0.64652872,0.91335613,0.47891054,0.71302181,0.45002058,0.85073107,0.42584157,0.24516040,1.05033541,0.62306088,0.45353559,0.50311488,0.42857674,0.70784378,0.99633831,0.84371412,0.72208595,0.44811422,0.70568806,0.47264042,0.79487747,0.56962955,0.51442349,0.90985101,0.40427211,0.42543250,0.49032927,0.27421120,0.45560125,0.76703918,0.85410035,0.62589085,0.70672262,0.30656108,0.66801214,0.68761647,0.58116263,0.41091660,0.27467999,0.50011206,0.84291589,0.49284849,0.28884757,0.60718757,0.43726596,1.15842533,0.60886168,0.57748163,0.42744964,0.58384931,0.55510032,0.56800330,0.46623975,0.90263468,0.69630569,0.27630883,0.48631302,1.04496384,0.60473990,0.87016869,0.54482323,0.13341919,0.54653215,0.80875599,0.25811225,0.55533612,0.45605615,0.67875552,0.67143035,0.63506508,0.34263247,0.37613362,0.49708375,0.63040060,0.38873130,0.71431887,0.98632395,0.40207350,0.75851315,0.61004776,0.39518106,0.41050580,0.29082882,0.65447444,0.70951748,0.32866451,0.44446987,0.55491531,0.38512850,0.53414536,0.71858668,0.51277453,0.52385467,0.88615692,0.91587394,0.57827371,0.64129305,0.30361450,0.93663251,0.60422552,0.63214862,-0.15617417,0.43409941,0.81832600,0.30996823,0.87935114,0.18195510,0.28920209,0.58004618,0.41784221,1.07279527,0.51011693,0.60857838,0.32707840,0.75823617,0.67595422,0.54618263,0.67127842,0.24433035,0.40232915,0.31430852,0.43472481,0.54473543,0.36181891,0.53758645,0.46126130,0.32335705,0.67580485,0.25706482,0.85535103,0.53869349,0.45695227,0.35733187,0.38683027,0.58187407,0.66339797,0.68300068,0.67845488,0.92676342,0.61319649,0.47442698,0.91566181,0.48943859,0.38759083,0.57307667,0.44308388,0.96906203,0.71184373,0.55655831,0.85185421,0.65546548,0.25979787,0.72193199,0.32541007,0.68203604,0.62824035,0.79731464,0.51754874,0.58496535,0.42944849,0.68003917,0.59199810,0.79146695,0.58692330,0.83187449,0.95364004,0.67416793,0.54684961,0.57078671,-0.18414521,1.57274187,0.60725909,0.52977794,0.61642683,0.36207205,0.42430520,0.56427872,0.56999242,0.12215272,0.40481609,0.14275086,0.23155324,0.41297051,0.38681096,0.46126354,0.39475119,0.75868237,-1.77473950,1.00577402,0.86018127,0.79062605,0.48355010,0.47525558,1.99103594,0.44886452,0.45746988,0.32717589,0.66864967,0.82373595,0.53340060,0.40367848,0.56194568,0.14214741,0.25090611,0.62094045,0.66202104,0.46600008,0.21925516,0.68500268,0.55870122,0.26367593,1.00291073,0.66507530,0.65628457,0.52360505,0.43383402,0.62420195,0.52996349,0.45967445,0.46969584,0.77629060,0.44412631,0.27641758,1.16358602,0.68015444,0.45216784,0.30682063,0.72511202,0.40521598,0.24416903,0.46476999,0.78266561,0.87428629,0.56353039,0.75771159,0.34926271,0.70320654,1.16229987,0.36398914,0.49457383,0.80009860,0.70211327,0.71761543,0.54707944,0.35301167,0.58527511,0.45436215,0.82360959,0.67267549,1.17103875,0.73024750,1.63427114,0.66073370,0.57423151,0.34595352,0.88774598,0.49519157,0.91012955,0.39566171,0.97244966,0.26561874,0.48036057,0.54492962,0.69406396,0.41778105,0.35294062,0.99832714,0.38590950,0.52096486,0.36332551,0.15869522,0.08704799,0.82447326,1.22818279,0.28000635,1.02828312,0.69727421,0.18328862,0.59277081,0.40710571,-1.00924492,0.58972836,0.91111666,0.39608368,0.67204916,0.84500867,0.58746672,0.66374016,0.49421611,0.56112552,0.13934191,0.61931211,0.34448412,0.66327298,0.49091351,0.46320924,0.39257026,0.46558550,0.53295851,0.70924085,0.60447967,0.35659623,0.68977749,0.47013456,0.23548862,0.63997579,0.85096180,0.44079256,-9.49147701,0.40783507,0.31723729,0.69925809,0.73526561,0.21666978,0.82258409,0.52014947,0.68017089,0.71406746,0.39987451,0.44334620,0.56933224,0.42745325,0.48854536,0.95688224,0.74100327,0.40637839,0.70798707,0.82525003,0.30523619,0.52800798,0.59027922,0.37329394,0.38820201,0.68857253,0.68146360,0.85193563,0.57869315,0.61950392,0.71328259,0.51387542,0.62579066,0.34479821,0.29391354,0.20115197,0.48398530,0.82556498,0.78118265,0.62952816,0.66730773,0.39622462,0.72420877,0.47197768,0.53206635,0.07892813,1.14267254,0.90653241,0.43599007,0.61838627,0.59572870,0.41230696,0.65265965,0.29556948,0.56529236,0.49895787,0.36459559,0.65386784,0.50103402,0.96382469,0.60357738,0.75021803,0.83415484,0.41233537,0.46138445,0.34566483,0.21530610,0.58818501,0.50975651,0.57896996,0.74494314,0.62306660,0.61041760,0.29299325,0.69861740,0.70134622,0.15285371,0.54336274,0.65435719,0.41108891,0.58962262,0.51748747,0.75212657,0.63134164,1.08464170,0.87439036,0.80983084,0.70755601,1.60823405,0.86608040,0.50183308,0.28614843,0.40726483,0.43040270,0.42205542,0.20812604,1.03479671,-1.08800280,0.26257557,0.62870675,0.62536108,0.52337015,0.63980591,0.62522089,0.68623251,0.40381825,0.18326813,0.57684779,0.49438888,0.61949235,1.08872736,1.02292919,0.65197229,0.51721048,0.69324911,0.58514273,0.52339590,0.49069592,0.63595700,1.65836143,0.76296932,0.46387294,0.36687943,0.55790722,13.63609982,0.43909144,0.59529757,0.86994976,0.84858686,0.44139594,0.52703857,0.56290203,0.51667249,0.87577063,-0.10998297,0.53591490,1.79663491,0.41250074,0.86519647,0.36497784,0.58023173,0.63417423,0.57484722,0.78398085,0.64553291,0.27742091,0.35241348,1.25350320,0.43254426,0.89302456,0.38770083,0.60663724,0.63510382,0.62062418,0.51839453,0.58114886,0.69055003,0.47282529,0.32130712,0.58517039,0.67080224,0.46120730,0.65517032,0.53038764,0.34472406,0.53024065,0.11786026,0.37652099,0.75994772,0.37249109,0.62562281,1.13088787,0.63485235,0.80312681,1.00465906,0.60666513,0.32032433,0.80677933,0.68018603,0.38944578,0.43878812,0.40411058,0.41476378,1.16350007,0.99734235,0.14179578,0.90470374,1.01814413,0.13210911,0.34091803,0.45839918,0.58893037,0.42723787,0.45178112,0.21899176,0.62704188,0.72163665,0.66020793,1.04068100,0.60915411,1.18165433,0.88134450,0.63363665,0.98592108,0.31720710,1.01942205,0.63003695,0.69003898,0.64497191,1.21306825,0.43879533,0.44823158,0.11198216,0.40692741,0.37890065,0.36635721,0.42137966,0.16808407,0.44834927,0.50045741,0.82530856,0.71491051,0.27179852,0.74506438,0.58169311,0.50190938,0.99733663,0.45524684,0.54962516,0.33341104,0.57572567,0.68359029,0.98966050,0.52184057,0.53506935,0.77713704,0.57230127,0.38210100,0.36894926,0.67209423,0.38010329,0.70117313,0.35522062,0.64495838,0.22724891,0.74716967,0.73247284,0.79150099,1.14487207,0.42904153,0.67204183,0.28567401,0.73644072,0.66495013,0.36238515,1.19508791,0.57693821,0.46930897,0.52297163,0.72884744,0.60822213,0.23263055,0.86005205,0.46364990,0.26913869,0.89637005,0.48795927,0.48279023,0.22113350,0.22971117,0.49104053,0.70391697,1.76845336,0.56372160,0.70914537,0.77023822,0.76688850,0.89011186,0.52512342,0.47285539,0.38547966,0.65554494,0.46456295,0.29283434,0.62297153,0.60220230,0.42366311,0.75940078,0.79743516,1.77772808,0.37400064,0.61984545,0.57317251,0.15049317,0.40226513,1.07035923,0.65252167,0.32833144,0.43714643,0.78484738,0.54756105,0.40027428,0.78704309,0.49315274,0.66770256,0.52883786,0.59416091,0.74553561,0.35916114,1.01510048,0.53938347,0.15408181,0.37611607,0.52976000,0.62547177,0.67997372,0.19808516,0.46453637,0.47820276,0.98870397,1.04420567,0.59789932,0.46796969,0.32816491,0.45309550,0.49713084,0.47447750,0.34829792,1.87785447,0.43252760,0.90568376,0.61834490,0.49300608,0.38879475,0.26967186,0.52575910,0.37436542,0.28487647,0.82704914,0.56270880,0.64042675,0.70198214,0.57857746,0.31335020,0.07509801,0.49358711,0.59198958,0.39440870,0.47824311,0.58746225,0.46706769,0.77969545,0.57031220,0.58877003,0.55645370,0.40097919,0.56522053,0.26683807,0.79733318,0.59182531,0.56711185,0.73869681,0.25919399,0.94786489,0.53696144,0.40969107,0.50157917,0.45069796,0.92246890,0.73322242,0.77074397,0.86104298,1.06619763,0.17394900,0.92562270,0.40332535,0.19226162,0.54633534,0.56990308,0.51298249,0.28774312,1.13540471,0.60367000,0.49364153,0.45179325,0.52121776,0.31943515,0.04268333,0.40020096,0.55729353,0.47902414,0.82207185,0.24222082,0.49737275,0.23215653,0.39862719,0.13148491,0.56987607,0.49707425,0.56456500,0.60526514,0.54460669,0.94808853,0.33373985,0.86817276,0.27895561,0.76552629,1.08405995,1.27973509,1.47039723,0.74457955,0.53006232,0.12910597,0.60091078,0.16906963,0.95103753,0.71064544,0.62956846,0.31017864,0.43253613,0.75585806,0.72496676,0.47430912,0.44408685,0.75696635,0.75918704,0.59945238,0.94625497,0.52443600,0.62090826,0.74040198,0.89538014,0.79242367,0.51607794,0.74823487,0.19181326,0.90597916,0.51896125,0.58675557,0.22974779,0.67735428,0.45505503,0.45327491,0.57818496,0.48178965,0.13298705,0.41604185,0.60711658,0.50701857,0.78340983,0.09104136,0.40362507
FEATHER,0.61859721,0.45462942,0.84220457,0.60606378,0.33422694,0.70475352,0.78613448,0.40020639,0.64369714,0.59969229,0.71779966,0.23374262,0.24862495,0.82102418,0.27671102,0.19546324,0.62994635,0.68919337,0.59380710,0.58033359,0.56097341,0.31930256,0.91702253,0.85156548,0.93449336,0.82439399,0.73926497,0.73187435,0.65123242,0.51292276,0.47131497,0.75479984,0.47264218,0.65960670,0.51700747,0.70456761,0.46108836,0.53371823,0.72359109,0.76440805,0.68223327,0.42520916,0.60888106,0.37971935,0.32402319,0.32696778,0.30150133,0.85704255,0.78678775,0.45147145,0.85379571,0.87223405,0.61065745,1.05800343,0.55641276,0.40176278,0.47788826,0.75685012,0.46878052,0.53275961,0.50244272,0.65294254,0.41996586,0.52724743,0.60790259,1.16970456,0.70069140,0.53439832,0.90191239,0.27583045,0.63360023,0.97855633,0.69190538,0.84273481,0.37894073,0.67217666,0.96845680,0.69373775,0.28651908,0.47998214,0.78054345,0.72807050,0.66823250,0.30795684,0.42297018,0.26546359,0.49099091,1.05881286,0.21066481,0.71911556,0.42102075,0.45326781,0.45298293,0.88168985,0.29208931,0.63724375,0.90062809,0.46314830,0.60236228,0.77294910,0.84758765,0.96517813,0.64520431,0.49628097,0.31258881,0.66196251,0.99158657,0.42910802,0.57066029,0.06078148,0.41570896,0.43563920,0.53293389,0.68615210,0.27207720,0.31705311,0.60188639,0.35013348,0.82350558,0.64751971,0.92331636,0.60404217,1.13555956,0.70454943,0.58485258,0.64101851,0.45979500,0.79621959,0.10448134,0.70429528,0.65805721,0.55814481,0.79032433,0.33314186,0.74182194,0.88912886,0.31114268,0.75499427,0.91516888,0.20751536,0.76299793,0.77535152,0.67748761,0.52202678,0.68004900,0.52703995,0.77398372,-0.12431940,0.53422171,0.82864076,0.43153042,0.09338960,0.66176748,0.62166512,0.86196959,0.52134734,0.53605312,0.30934474,0.85016918,0.30795443,0.43285501,0.18589106,0.83896905,0.53960490,0.65614164,0.37089965,0.75138432,0.43716910,0.57937926,0.36493143,0.42420316,0.89389324,0.52517164,0.78265762,0.46912581,0.40740818,0.42080092,-0.28586203,0.67908299,0.48745182,0.49008885,0.58890283,0.49698505,0.78140825,0.60765600,0.97086835,0.28803664,0.50728792,0.39977893,0.42242634,0.39504120,0.50882572,0.27522641,0.48020729,0.81018776,-1.85222101,0.74591649,0.66394007,0.74233186,0.65132403,0.51682210,1.54287469,0.67656946,0.39447713,0.37536338,0.16414197,0.51318955,0.40280858,0.65131795,0.61863488,0.19647473,0.35235703,1.04749203,0.42995590,0.60482967,0.71906179,1.06217098,0.43756977,0.70121247,0.89924949,0.45996565,0.35561627,0.27627027,0.62567431,0.80403972,0.22416003,0.44275969,0.71913016,0.38275957,0.65057695,0.35532463,0.97543174,0.44270158,0.43470037,0.46065024,0.97825354,0.46381143,0.53121907,0.63363260,1.12649035,0.85839629,0.77936882,0.57888180,0.81541216,0.33535764,1.49899435,0.54495049,0.61898482,0.69944698,0.68424195,0.54359937,0.41719598,0.42346367,0.23563763,0.52091008,0.80038029,0.52501684,0.44320577,0.58294547,0.98716366,0.21891686,0.49244016,0.36198518,0.36710608,0.08911463,0.95978242,0.63438773,0.65981871,0.42553788,0.53104514,0.77464056,0.63127083,0.78064716,0.41558921,0.41331708,0.64278710,0.69739175,0.09063181,0.30272102,0.47271019,0.50637293,0.70779437,0.42993182,0.89601326,0.55885112,0.36161786,0.68252790,0.51778769,-1.34273887,0.58770263,0.51987302,0.44262758,0.64234704,0.59462905,0.13695073,0.66664308,0.63094282,0.57544410,0.52949852,0.32716566,0.07497907,0.76368129,0.54242694,0.63409644,0.63185138,0.74520838,0.36470962,0.59521246,0.67576838,0.95265210,0.70353246,0.28260428,0.39469916,0.65790009,0.70164287,0.10236177,-9.33139229,0.75307739,0.62061578,0.41180548,0.30557883,0.56076497,1.01027369,0.53958547,0.40833616,0.84969211,0.35628873,0.83090729,0.97229624,0.45287585,0.22450146,0.59646428,0.41695350,0.48099276,0.52619535,0.73863631,0.93339986,0.33500841,0.49583057,0.47645336,0.21298853,0.52272010,0.34744579,0.87207913,0.39056093,0.60704452,1.00184202,0.74084938,0.83178699,0.23600489,0.69901651,0.30030182,0.72253764,0.82680851,0.67351913,0.39797062,0.73971367,0.81659389,0.88467127,0.65768194,0.49956089,0.56730604,1.17155623,0.68298769,0.44135046,0.44187713,1.14929581,0.37127319,0.29431590,0.34059203,0.76645744,0.74707234,0.68296862,0.62768757,0.50145411,1.09559870,0.47321343,0.36151949,0.76778066,0.34459513,0.94558257,0.39784926,0.55143821,0.88974947,0.35367212,0.36799651,0.70881325,0.36172694,0.31754088,0.37240961,0.50953031,0.40098676,0.45599106,0.71939760,0.61563110,0.80109411,0.45198679,0.42868519,0.62000042,0.46835870,0.95373333,0.76038456,0.62343848,0.58435762,1.59416652,0.54949909,0.63888341,0.37822032,0.65753877,0.60353810,0.35553432,0.41730040,0.51356727,-1.03272808,0.31402397,0.75026596,0.68436444,0.39514124,0.54090726,0.59947175,0.16609176,0.63180923,0.27598125,0.36230779,0.18969963,0.49569765,0.71501815,0.71410394,0.94107878,0.84988862,0.54298186,0.75841022,0.49370247,1.23899889,0.72127998,0.95443267,0.56871021,0.59107375,0.34785718,0.77356607,11.67266369,0.57218826,0.96552634,0.39938816,0.90788603,0.40636140,0.62872469,0.45474422,0.38341954,1.00960469,-0.31814489,0.57472885,1.44017601,0.45689133,0.81443727,0.54478943,0.48504326,0.51482987,0.75472993,0.46965647,0.69799316,0.13058993,0.31525415,1.16248584,0.66936749,0.43213642,0.71266007,0.79406577,0.98488867,0.76007795,0.47884032,0.27451044,0.75194234,0.73882914,0.69426715,0.57809496,0.73822039,0.49373555,0.91946590,0.79374135,0.24201156,1.00564706,0.37169802,0.36265677,1.03196084,0.66167045,0.26212135,0.39393955,0.86462337,0.74631095,0.50537288,0.29387784,0.39673132,0.46949136,0.51747096,0.71721011,0.78028691,0.45327109,0.46162468,0.53253716,0.54847825,0.21156515,0.36293727,0.54009604,0.52291334,0.65460759,0.46728027,0.65113103,0.49268350,0.66818988,0.65442264,0.36841646,0.86569488,0.93365514,0.78668821,0.54623079,0.60310930,1.10373986,0.58592367,0.52944958,0.51027054,0.77048945,0.56044513,0.36661765,0.62803525,1.03606296,0.52742267,0.85694772,0.51765823,0.24868505,-0.05138150,0.58551884,0.50314093,0.48782247,0.49676874,0.59298366,0.62804592,0.59247518,0.46123040,0.39071062,0.32734558,0.40534937,0.99277210,0.31589752,0.75740623,0.53600091,0.13682690,0.41460884,0.45795554,0.38409877,0.66520411,0.79862767,0.47182393,0.67827809,0.32495660,0.80502307,0.38765186,0.74162507,0.20719050,0.51290166,0.18547162,0.53192765,0.42772996,0.62844747,1.20331907,0.44149593,1.02330327,0.75198078,0.89308041,0.42943913,0.61515296,0.39269030,0.55218035,0.44199604,0.55919510,0.50929415,0.47623029,0.80892336,1.12308288,0.25121963,0.29980740,0.12179959,0.36063254,0.34452778,0.50976169,0.46533379,0.49186605,0.72218156,1.52671635,0.75358522,0.55856907,0.64729774,0.92141324,0.71201783,0.63977981,0.33955929,0.62057525,0.50747293,0.24365039,0.49610034,0.80309653,0.40682703,0.57642853,0.28152654,0.58010507,1.19049597,0.23434594,0.74601126,0.49256313,0.41492021,0.65757680,0.79195625,0.73777920,0.46506321,0.27852464,0.57085776,0.25442490,0.01153791,1.06201124,0.64127940,0.75177443,0.37990534,0.85957748,0.38393044,0.57610583,1.14653826,0.73364913,0.24921510,0.53534043,1.08549738,0.55141485,0.37084955,0.22077760,0.75162220,0.34877610,0.61737442,0.76839042,0.16357625,0.42143470,0.38411301,0.62507164,0.90750432,0.62343013,0.32576644,1.87729335,0.61839503,0.96292853,0.30514818,0.70816237,0.34031558,0.83939934,0.23304334,0.48303342,0.40747699,0.86280799,0.35166377,0.51412320,0.95396608,0.49368489,0.27619573,0.04767036,0.66695625,0.99842161,0.79020107,0.68914074,0.66659153,0.55674398,0.65953827,0.76924133,0.33958220,0.70967042,0.43687713,0.63158572,0.49548209,0.43489659,0.49240747,0.74373972,0.78381920,0.43693757,0.79730582,0.51698035,0.75529933,0.13147148,0.57803345,0.79097003,1.05930555,0.55578393,0.52999693,0.57645524,0.38814130,0.94738770,0.55776823,0.02858873,0.14847849,0.22378713,0.58727157,0.74039996,0.61290407,0.83661008,0.47526896,0.82163602,0.45031106,0.82275391,-0.11630546,0.74409103,0.59745598,0.65033007,0.17373097,0.55850649,0.38277027,0.22129177,0.86405003,0.20957488,0.67996740,0.83615047,0.52496332,0.65654254,0.45560396,0.47607642,0.45927566,0.45383832,0.36274558,0.50852394,0.82194626,1.49615407,0.94310796,0.48065224,0.43378425,0.32177317,1.10223401,0.48173535,0.71579498,0.23794930,0.37604448,0.34933326,1.16036749,0.55427498,0.57131922,0.74112427,0.49803209,0.61041260,0.71435153,0.41332442,0.70495307,0.32740521,0.44302434,0.56260467,0.70167840,0.80127150,0.41124099,0.48179680,0.23476121,0.55290771,0.60778153,0.53542221,0.68900353,0.71510184,0.51419669,0.41891244,0.61270285,0.15574881,0.30632639,0.90688652,0.71806216,0.50808507,0.14535645,0.41817996,0.57411444
HORSE TRACK,0.45549074,0.57946849,1.01200247,0.57888490,0.18963586,0.52677512,0.97198999,0.51605606,0.55832398,0.38121924,0.47849926,0.47034943,0.20574695,0.86780268,0.39827657,0.50016594,0.69860685,0.77472925,0.46049228,0.44740823,0.49616945,0.27483362,0.50445879,0.39997554,0.62354958,0.76599550,0.67183304,0.81745434,0.67654181,0.32847044,0.44960737,0.39153051,0.57125700,0.25960070,1.03052449,0.39334106,0.30074400,0.72347617,0.63670897,0.46490031,0.49354601,0.47344190,0.81475782,0.54455829,0.48462227,0.24478629,0.32377747,0.47013023,0.48076704,0.53803170,0.65106452,0.52108902,0.30635524,0.56204361,0.55453467,0.67911875,0.62425983,0.50446951,0.39972714,0.48133177,0.37505114,0.89835954,0.40898341,0.59474289,0.39986852,1.24055934,0.53763562,0.63903713,0.98081183,0.47467318,0.59515363,0.53002918,0.82546031,0.60593259,1.05911875,0.49116626,0.91266710,0.86004591,0.49349138,0.28597486,0.55592132,0.28920582,0.85354328,0.35722691,1.22726178,0.40507960,0.46463126,0.62791646,0.33084190,0.63730395,0.83900261,0.36104360,0.62673581,0.49027523,0.29127991,0.34225005,0.46487185,0.36517268,0.56151921,0.38812476,0.63532662,0.77653480,0.50409800,0.27601534,0.54366934,0.66370952,0.63366008,0.96482491,0.77708310,0.54041898,0.45966363,0.55820310,0.61649466,0.51392007,0.61863309,0.70812887,0.57043606,0.56934053,0.97882056,0.78415132,0.57435811,0.55078000,0.37900099,0.55061400,0.64546835,0.99562073,0.54757750,0.75080776,0.65083742,1.08318746,0.49451709,0.76991338,0.91065568,0.35853481,0.46730050,0.52008098,0.31481704,0.87108862,0.58793581,0.76651824,0.53500766,0.69156873,0.53476787,0.69527745,0.36554664,0.77462083,0.95309150,0.84646845,0.36725748,0.76722550,0.41558185,0.39709711,0.61589336,0.74273640,0.56744754,0.34780437,0.47441119,0.49925640,0.43034118,0.26682830,0.95649576,0.24824056,0.67429900,0.53065860,0.62518132,0.52262342,0.67208827,0.43427882,0.40380371,0.49033695,0.74976075,0.45058954,0.78899884,0.78963590,0.42352626,0.48156473,0.64702976,-0.14054680,1.06799054,1.06540608,0.70869917,0.48549908,0.62812215,0.64360315,0.63858616,0.58338970,0.09762115,0.41120750,0.36311170,0.62880296,0.33134988,0.52884066,0.73468202,0.47546065,0.35468772,-1.59758329,0.89156109,0.92185205,0.50933510,0.46019253,0.66405094,1.78525209,0.56591696,0.31873491,0.83787853,0.50982130,0.64002180,0.58453947,0.26007986,0.36904886,0.27735651,0.30890751,0.55591190,0.56351471,0.46752244,0.89748490,0.80262637,0.46208957,0.33430958,1.11198425,0.52003706,1.02559912,0.54400218,0.62427956,0.62661165,0.69918025,0.50885147,0.74061388,0.59517747,0.53786337,0.13272309,0.75219691,0.36974579,0.71853578,0.26672763,0.55119801,0.56500375,0.42143849,0.38617384,0.59422016,0.91948724,0.51541865,0.77245188,0.89581555,1.06479359,1.49398327,0.98842210,0.51414239,0.40282395,0.61019838,0.69747257,0.70293462,0.51063442,0.74895954,0.77074784,0.77853960,0.49137792,0.62846541,0.56598884,1.02820086,0.41458237,0.50102556,0.64193976,0.62763321,0.55757308,0.33045518,0.32014066,0.69143319,0.31114727,0.32501233,0.76626641,0.60355258,0.25424117,0.21245369,0.73626703,0.72733152,0.38264221,0.20565504,0.35630929,0.47600433,0.99949396,0.57538021,0.30834824,0.55059242,0.52634883,0.18125981,0.85040200,0.40621808,-1.05057180,0.94521618,0.34572589,0.22070742,0.55490506,0.52437687,0.61733711,0.94958282,0.59576029,0.62682247,0.08556183,0.25517461,0.64947367,1.07057452,0.48131093,0.71127462,0.77728844,0.49611297,0.19784318,0.74838942,0.43392831,0.56393135,0.81047130,0.44582838,0.51110166,0.16923198,0.59524626,0.28049588,-8.83778191,0.54032314,0.56727433,0.39058292,0.39798918,0.48088172,0.50689948,0.86623281,0.37225747,0.65787649,0.47033775,0.81685674,0.55911052,0.23604193,0.17973845,0.25334159,0.48264083,0.13677052,0.66365141,0.53439891,0.38848728,0.52925372,0.67073941,0.85400689,0.47669995,0.57838440,0.56925094,0.61770213,0.30405444,0.89244771,0.47100633,0.40754950,0.05793257,0.29591751,0.10344494,0.52525187,0.38854757,0.46319014,0.69375938,0.60105318,0.72688019,0.99309742,0.87688667,0.68023026,0.70193136,0.44072843,1.05293226,0.24174917,0.57643741,0.34711826,0.63742679,0.58660662,0.63373089,0.55976319,0.77884448,0.80529404,0.43119138,0.81032312,0.48460555,0.73369181,0.41841120,0.46711332,0.49900872,0.07883558,0.93542331,0.33140352,0.46382606,0.85550106,0.25366959,0.95510828,0.69152987,0.47519228,0.51345062,0.48095137,0.26133019,0.73022926,0.43799829,0.90854210,0.77428865,0.61995143,0.83036917,0.71929210,0.38142478,0.83413219,0.93762529,0.86021233,0.82952178,0.52244228,1.51485395,0.42215550,1.16221929,0.55099523,0.48555490,0.69532156,0.24335688,0.55915046,1.02855301,-1.06141889,0.08768865,0.70185435,0.68159056,0.67800504,0.56326461,0.56486809,0.40803587,0.55102277,0.32854149,0.42733949,0.39072600,0.48936015,0.34110114,0.64194524,0.99523026,0.64598513,0.46883571,0.64423084,0.53338528,0.79536986,0.67881215,1.28024781,0.46806794,0.47837079,0.46529061,0.46646839,12.08065033,0.70241797,0.54736197,0.38822478,0.88757992,0.55757260,0.88999379,0.48705372,0.55028164,1.09123969,-0.07413074,0.41975790,1.38515079,0.30723664,0.69071174,0.76419967,0.62335777,0.39435476,0.53769928,0.60673255,0.63909650,0.37604979,0.64784968,1.27077293,0.60669702,0.73503762,0.62992382,0.50478387,0.34702513,0.60238433,0.68308336,0.18950056,0.74845731,0.66582698,0.19696388,0.67440486,0.63147515,0.91281939,0.61123753,0.63932294,0.41291994,0.71219212,0.25526631,0.34366143,0.69136900,0.60023934,0.46354207,0.37323427,0.72941124,0.97848856,0.53292191,0.37153235,0.16227937,0.64440459,0.62646931,0.71103549,0.45274422,0.40943503,0.67605960,0.44447091,0.60702598,0.69280243,0.42777026,0.67152894,0.55082339,0.53134358,0.62630785,0.61326331,0.33194989,0.64714074,0.50753719,0.51761138,1.00817335,0.65773273,0.59530884,0.45034885,0.49659300,0.57620001,0.60407662,0.63486195,0.22883853,0.96883684,0.29195887,0.55114633,0.84836829,0.69738042,0.62151760,0.34053192,-0.11519344,0.51835972,0.64671075,0.65305567,0.64134145,0.45624617,0.73860121,0.48280820,0.72032893,0.47863430,0.34516621,0.56366515,0.39105910,0.15263784,0.80043113,0.61484528,0.69822997,0.64190632,0.56866574,0.68516678,0.58676231,0.54312265,0.57939565,0.64240372,0.50317442,0.37000504,0.33669096,0.54009825,0.20953715,0.58364898,0.46113974,0.67764878,0.55627239,0.45361724,0.38421693,0.60662550,1.51001740,0.91515756,1.01836133,0.69366622,0.33101094,1.06525159,0.51408488,0.61857784,0.41162458,0.23326133,0.52063382,0.24128005,0.74695230,0.56233501,0.74659973,0.39825961,0.68693089,0.62328148,0.39246532,0.70477283,0.34959516,0.56400990,0.35550678,0.39937538,1.18165684,0.65600622,0.37781531,0.92966312,0.64517629,0.86395830,0.29834366,0.50024915,0.56475294,0.42772985,0.56979901,0.27568454,0.51725066,0.46010992,0.57566321,0.19449820,0.62973332,1.14685774,0.53004175,0.37229219,0.47393882,0.08776627,0.47255033,0.57848364,0.58505535,0.72292805,0.44525149,0.25827914,0.46000564,0.40449500,0.96202612,0.72158390,0.53390092,0.69972533,0.38874578,0.58105296,0.37111878,0.84567016,0.47603852,0.15274686,0.47794133,0.61950940,0.70112002,0.63526279,0.52419639,0.36079261,0.22321379,0.92219138,0.86602116,0.67644370,0.42533138,0.29593280,0.82154500,0.53224403,0.25565475,0.42752311,1.81264353,0.51053751,0.68196082,0.24608481,0.22403982,0.56712431,0.43422580,0.30086368,0.34349740,0.46758974,0.63738078,0.63186419,0.73248053,0.81340867,0.61629152,0.39775828,0.35604981,0.40268561,0.67594814,0.82716107,0.65581250,0.50138092,0.44544527,0.62863165,0.66676307,0.86662483,0.68192971,0.68758786,0.43889213,0.45640531,0.29241765,0.39192656,0.66232795,0.39603096,0.41786653,0.67211741,0.23058300,0.93767428,0.34766081,0.26005143,0.74247992,0.89370203,0.36408776,0.54386449,0.74296355,0.36622220,1.04179049,0.38993034,0.23732525,0.24852422,0.33462998,0.77985597,0.37475994,0.62689430,0.66840875,0.53943491,0.59473509,0.59399480,0.52494502,-0.05288787,0.46871868,0.97622639,0.69440705,0.48159215,0.75097173,0.39116001,0.51743174,0.67817211,0.13704622,0.50738370,1.30529094,0.55541229,0.81001318,0.15403728,0.63409734,0.48979515,0.44149414,0.52368623,0.57146651,1.26069093,1.06580079,1.88046587,0.59901845,0.45362207,0.31709874,0.53509974,0.87520134,0.66897577,0.32439032,0.32926556,0.64907646,0.51878828,0.72372109,0.43646204,0.65331167,0.47517318,0.60254216,0.50834644,0.87492669,1.00862670,0.55005968,0.92637700,0.67437690,0.64486229,0.49725154,0.20747775,0.43521494,0.54229492,0.54203641,0.54095733,0.75432813,0.41113037,0.85121262,0.54786801,0.59360743,0.46441495,0.41699681,0.02226534,0.73712361,0.99808848,0.21350856,0.28661767,0.38705328,0.65849602
HOUSE,0.74546975,1.05068421,0.69673669,0.16155577,1.26341546,0.73506469,1.02503884,0.41749543,0.71970868,0.46783718,0.45800507,0.73561591,0.19422960,0.86038738,0.77426243,0.51725721,0.72037458,0.66887975,0.49694633,0.62385905,0.77341944,0.85364449,0.71618283,0.86723596,0.95202255,0.64040285,0.98989874,0.97049546,0.98782265,0.98653752,0.75727820,0.54052305,0.81080818,0.37958932,0.76551652,0.52702117,0.29617611,0.37354928,0.46644014,0.71898371,0.96467584,0.45047772,0.74102741,0.67017144,0.49599224,0.28678468,0.18862461,0.58413053,0.36884457,0.60539258,0.32063106,0.41960257,0.23095571,0.80599862,0.27147862,0.46040910,0.73967195,0.79536939,0.47158337,0.62807190,0.37633899,0.75754678,0.79754782,0.33059311,0.59023887,0.88035619,0.65506899,0.85901177,0.61477673,0.26202267,0.49520913,0.95525467,0.75062907,0.44013095,0.39825910,0.42978126,0.47767818,0.98135161,0.67006516,0.33024365,0.33182329,0.64298248,0.70038855,0.46717805,0.59246242,0.51824594,0.50763214,1.16025007,0.18907556,0.55214030,0.37576410,0.39795938,0.93359029,0.67983603,0.34276819,0.56630915,0.48077768,0.44327039,0.66336930,0.69078827,1.21450377,0.98400426,0.70596397,0.61221904,0.42334852,0.39155525,0.79256964,1.02669525,0.60955667,0.08542937,0.67244965,0.68837070,0.50894612,0.45107573,0.58659983,0.72692120,0.41054770,0.34920388,0.77945399,0.78593361,0.55866492,0.29927802,0.33429539,0.72891188,0.52936268,1.10823190,0.49920803,0.51579106,0.28518748,0.49571252,0.55168921,0.19744562,0.43076980,0.25093216,0.64156294,1.03531146,0.49759564,0.70075130,0.35529542,0.38659677,0.63791764,0.64407945,0.31055659,0.39048228,0.54494381,0.37047210,0.72374320,0.58576691,0.76210678,0.73178601,0.31686011,0.41478634,0.59693301,0.48454326,0.54005671,0.75515771,0.78575599,0.81192040,0.61332220,0.43358493,0.75956196,0.67021215,0.97354728,0.59088135,0.58661038,0.44939905,0.64885867,0.62570411,0.44850969,0.93020570,0.51748103,0.37087902,0.78506935,1.17984438,0.83448821,0.36681595,0.61722201,-0.33374253,1.23943329,0.67171645,0.12931255,0.57729864,0.56652856,0.72186077,0.82820767,0.28239250,0.04450408,0.39084113,0.08548835,0.48124602,0.47243777,0.27876696,0.71488345,0.74606758,0.71157253,-1.95316601,0.65130460,0.54319322,0.81145853,0.78527796,0.54517138,1.48506045,0.24772759,0.52476013,0.46920204,0.21376480,0.63643551,0.57474029,0.48701894,0.33557537,0.19218595,0.21821299,0.98142308,0.60228634,0.73699445,0.67776370,0.72720671,0.59858733,0.48371673,1.14640784,0.35006768,0.49431774,0.48154783,0.60751176,0.95790386,0.48359549,0.46840525,0.74771267,0.66915727,0.53801781,0.10863362,1.02109933,0.63682556,0.64726758,0.55605811,0.35913867,0.49206477,0.53797734,1.07289624,0.74398971,0.85129267,0.91041976,0.51248181,0.48470044,0.53307831,1.20746875,1.11977363,0.64510792,0.35248151,0.54214400,0.67819095,0.97320515,0.55686128,0.77648860,0.61648875,0.83395386,0.69730890,0.61439645,0.23057796,1.91349638,0.59333718,0.63853323,0.33964610,0.61832696,0.18512920,0.52973121,0.41739386,0.99798125,0.42606074,0.63105047,0.79651386,0.65501380,0.36128932,0.24990954,0.38820785,0.66480780,0.49698412,0.63183159,0.30017942,0.19550574,0.70844245,0.73063481,0.34553978,1.72356808,0.40548247,0.91617757,0.76438797,0.32941607,-1.50931907,0.44783390,0.45672405,0.29229835,0.92229366,0.50652289,0.59476250,0.92907369,0.21016377,0.77292573,0.33901542,0.19363450,0.56435204,0.77108723,0.45858288,1.12262428,0.46355882,0.90677094,0.69983399,0.55607545,0.74266207,0.43223518,1.37127137,0.47312817,0.45921099,0.37028724,0.43974277,0.41384971,-8.30116463,0.50727695,0.49797183,0.49234623,0.58246517,0.41917580,0.29571617,1.01098740,0.48219395,0.62240505,0.41619241,0.53792161,0.47677884,0.28990138,0.43315539,0.38525006,0.71372151,0.24563757,0.37260985,0.66013312,0.42785513,0.44328505,0.55222559,0.84128404,0.38148868,0.29480281,0.34963995,0.27556658,0.46353829,0.88435382,0.51445562,0.71883303,0.29439646,0.32336920,0.69526625,0.69842702,0.61182559,0.51021063,0.54580927,0.65177727,0.44938689,0.65390259,0.94266570,0.44537365,0.50200397,0.77065843,1.06397510,0.41876850,0.51557022,0.44605595,1.21816492,0.59841388,0.42020208,0.38843718,0.59706795,0.40176484,0.49797145,0.54230547,0.63057947,0.57372153,0.42977005,0.77089578,0.70329994,0.07251733,1.01532555,0.15225841,0.37898642,0.74626625,0.49084991,0.74032164,0.81337976,0.58994550,0.42458540,0.39726374,0.57206380,0.51536578,0.39714062,0.69826937,0.68528587,0.63129300,0.47508073,0.53240240,0.35186708,0.55967557,0.93758160,0.78827751,0.97003406,0.54988074,1.32083893,0.63294208,0.46380976,0.51949352,0.52776599,0.71553326,0.55251938,0.44955316,0.59880137,-1.18116927,0.27515262,0.76931798,0.51291633,0.52424252,0.85565233,0.59893996,0.61041754,0.33175117,0.48554307,0.67861199,0.24334027,0.61787754,0.69825447,0.56318438,0.57178605,0.49448729,0.48730507,0.52619314,0.10765290,0.94708037,0.93358415,1.03400493,0.52190995,0.63661170,0.81626755,0.47686481,12.07730675,0.88756156,0.58993644,0.61010027,0.83480072,0.23427999,0.65325165,1.19544518,0.39871052,1.27051544,-0.01535499,0.27768385,1.38081217,0.52972448,0.83108598,0.57505012,0.15295193,0.52608871,0.60690349,0.60788608,0.49500617,0.48444682,0.37954912,1.51100969,0.32404646,0.83962607,0.47495016,0.74176598,0.52397227,0.55660278,0.84148967,0.33369112,0.56617039,0.48908383,0.43315428,0.41443181,0.39760366,0.54224467,0.48870316,0.50298238,0.42639303,0.69790685,0.53507733,0.06866612,0.72173715,0.70311892,0.51626563,0.50616860,0.65027809,0.73101467,0.77127898,0.47120130,0.10172945,0.61215913,0.64686829,0.39228258,0.71801114,0.13253704,0.52913958,0.42930153,0.91790968,0.26411188,0.50611579,0.73522800,0.32417995,0.54875928,0.18139291,0.73661983,1.17318130,0.55754143,0.87449032,0.27499425,0.70774698,0.42249742,0.83585298,0.58800459,0.80242789,0.56932831,0.73737669,0.59731805,0.65663475,0.80952597,0.55643970,0.59931445,0.41512552,0.63801914,0.64611030,0.64743274,-0.01217186,0.18911919,0.50034350,0.49040467,0.79571688,0.25935391,0.54798865,0.42152244,0.68831295,0.87581986,0.47105169,0.51844096,0.27479702,0.47380698,0.76797986,0.68645084,0.87536865,0.46333942,0.70269716,0.51320684,0.93577367,1.07486618,0.91647494,0.67004961,0.57915926,0.29625520,0.31680101,0.70759070,0.27993512,0.40356064,0.11758792,0.67046028,0.90407610,0.51754928,0.49821377,0.65001810,1.20109844,0.59290439,1.24063718,0.40513566,0.58704698,0.47434860,0.31968665,1.10130858,0.51568592,0.60827577,0.37690353,0.42323151,0.58966446,0.35334402,0.51532841,0.64844620,0.38442466,0.31661960,0.61449832,0.44556874,0.33209363,0.48490143,0.81149876,0.44786042,0.98281187,0.85949397,0.57795101,0.86743993,0.76945543,1.33922148,0.89374679,0.32325652,0.94722176,0.62361050,0.53753519,0.23378406,0.54621285,0.65419823,0.57412100,0.33173597,0.61552757,0.84792352,0.37157321,0.43991601,0.58237195,0.07782310,0.42706913,0.61024261,0.66068900,0.50885975,0.62078315,0.42695451,0.57049912,-0.03393081,0.80496299,0.59625864,0.26211774,0.50854057,0.18380286,0.64490235,0.36899871,0.92033315,0.71071589,0.74664503,0.41531932,0.73743963,0.51599115,0.33074003,0.13505277,0.54810911,0.54604900,1.51219511,0.58977628,0.31815484,0.59495562,0.67316842,0.49173933,0.62218028,0.77023238,0.20894614,1.89891028,0.71168381,0.95202953,0.90396106,0.22739831,0.56078267,0.30752087,0.51469672,0.45269036,0.34107870,0.75602645,0.28163809,0.61325920,1.01717782,0.65336680,0.79128861,0.09885502,0.24475983,0.38148212,0.90568280,0.78415716,0.76783770,0.54276413,0.38957483,0.39553910,0.56612241,0.67842937,0.70112038,0.52891523,0.36335328,0.50417149,0.58731484,0.80100459,0.97609353,0.63739890,1.05572557,0.51212180,0.66346025,0.29258209,0.38398075,0.93285942,0.84056526,0.47735894,0.29917777,0.74810952,0.45701393,0.76950681,0.81269622,-0.25349647,0.51121318,0.28615817,0.35208416,0.60562199,0.84888208,0.37689075,0.62046790,0.69036591,0.80482638,0.64405608,0.07343933,0.45033425,0.45056838,0.74413580,0.39842802,0.72774768,0.23484604,0.25753683,0.46362060,-0.01022729,1.25966239,0.71434158,0.52297986,0.52568012,0.60310221,0.70704496,0.26606238,0.52563852,0.59217644,0.74676526,2.17781496,1.01371896,2.04632425,0.55939615,0.60423672,0.37412789,0.98952073,0.69787902,0.62829649,0.49740797,0.34455568,0.47513136,0.77541870,0.74558222,0.81071913,0.43154159,0.25844446,0.55556446,0.98442793,0.69186538,0.64677960,0.56092626,0.54071170,0.99114585,0.65051997,0.63895798,0.59441686,0.46766952,0.32552457,0.57607001,0.52567255,0.50507593,0.25334448,0.69295406,0.29751197,0.55378330,0.73153353,0.07906213,0.18386602,0.82974839,0.84841180,0.25446272,0.29585707,0.31932518,0.68340480
LIGHTNING,0.66439605,0.17700839,1.09639621,0.54507381,0.67224950,1.06072605,0.98775715,0.81270450,0.57958680,0.64680588,0.37078851,0.30877477,0.18697113,0.86617589,0.65153337,0.29667649,0.74537611,0.41803649,0.42805994,0.55397868,0.62225753,0.63232660,0.87561494,0.54922104,0.62515938,0.49747792,0.78408027,0.92809832,0.68305403,0.39517039,0.56030905,0.38160583,0.70823604,0.40108967,0.56896204,0.54406464,0.25993061,0.82066005,0.36752397,0.65093946,0.80766070,0.46003759,0.52833861,0.44951940,0.38001496,0.05969718,0.55185497,0.30161804,0.77349544,0.36583927,0.58605731,0.60465038,0.20313960,0.98564374,0.54631358,0.48220006,0.67153215,1.19755566,0.42907086,0.49045029,0.38927108,0.92264611,0.81277299,0.40240157,0.70552295,0.65419877,0.78137410,0.64498508,0.86247259,0.55083495,0.60294932,0.72665310,0.49263617,0.76450515,0.49484360,0.75205183,0.76668847,0.65946496,0.37749878,0.40460980,0.43938929,0.47087646,0.80448502,0.57572460,0.57204890,0.38100097,0.56868559,0.58291018,0.11550367,0.79892588,0.57397628,0.52535653,0.62420046,0.53935999,0.61893189,0.77180731,0.71530825,0.19399607,0.59265971,0.19162038,0.80162907,0.77441102,0.67658997,0.76442611,0.28471798,0.46387699,0.62498194,0.46861458,0.60100466,0.19672082,0.76468420,0.38266239,0.70291507,0.52441823,0.45023543,0.63517332,0.45031443,0.88494456,1.40355420,0.37139031,0.62933660,0.53789306,0.54868007,0.95667249,0.56392443,0.69886070,0.87231433,0.48283368,0.36757156,0.49963546,0.54616785,0.24579629,0.79557210,0.46104491,0.87248254,0.91477060,0.37773734,0.84001070,0.65607595,0.42014113,0.75494552,0.62568820,0.49263978,0.44606569,0.48130301,0.35226566,0.68388450,0.98137045,0.66908783,0.83264577,0.60845625,0.43957797,0.94896722,0.81902230,1.50475442,0.53284800,0.69872743,0.55518401,0.61112595,0.36616236,0.38168094,0.38437751,0.67428786,1.04360104,0.81443685,0.44225639,0.55471778,0.39241713,0.93033403,0.28394979,0.75362110,0.73682421,0.84314501,0.56938779,0.59378427,0.23671415,0.33129954,-0.25603276,1.34650064,0.61119127,0.64522678,0.16206393,0.33554107,0.55754304,0.55342007,0.58699447,0.26960385,0.56781983,0.34063548,0.48179755,0.72172177,0.18531848,0.43603447,0.42855078,0.39801744,-1.66739249,0.54372180,0.80811822,0.78352225,0.31598812,0.66144150,1.57272184,0.69298631,0.58670759,0.57703185,0.92598170,0.74772644,0.44820514,0.31181008,0.50129437,0.54854465,0.57505989,1.00493336,0.76174504,0.58108789,1.04672265,0.88766587,0.57117641,0.56341785,1.18706894,0.59354603,0.98566699,0.75984913,0.55993998,0.52404743,0.92885554,0.42783129,0.37715214,0.65537930,0.73733610,0.53701746,0.89512599,0.74253893,0.81689179,0.44426841,0.60924220,0.48146576,0.47433102,0.80754435,0.74673104,0.70098138,0.47367632,0.70147896,0.36907050,0.27755263,1.20765972,0.48338968,0.65402943,0.69441962,0.74641490,0.48947710,0.35391575,0.32677925,0.69361901,0.32513207,0.61319441,0.07125187,0.17122294,0.89326656,1.45378757,0.59508985,0.70796108,0.22579046,0.31050962,0.58881271,0.41647914,0.53359401,0.82260507,1.30844045,0.24857917,0.59976149,0.62087440,0.35670978,0.60554022,0.73173594,0.55465472,0.48265463,0.44822872,0.42735887,0.28093681,0.47364235,0.39807567,0.67091525,0.53843784,0.60159135,0.48372680,0.26611191,0.48183319,-1.17918098,0.67209387,0.35552871,0.70644581,0.93936300,0.84179246,0.63113528,0.79489887,-0.07632746,1.03056037,0.48898625,1.21772575,0.60323995,0.55010015,0.49417800,1.22733724,0.28032669,0.55082917,0.21238661,0.49341911,0.56971431,0.48069197,0.80382049,0.20826307,0.39203727,0.48846209,1.25411332,0.61298889,-7.05728149,0.86108637,0.57928228,0.43421966,0.45139694,0.33489892,0.60288692,0.87725461,0.41947755,1.04967213,-0.16134176,1.20270932,0.55584633,0.49190280,0.55859232,0.24801230,0.37176052,0.29381657,0.84365916,0.78624272,0.46177840,0.54023492,0.54572123,0.48914847,0.53457683,0.56154370,0.57199460,0.45099652,0.18879047,1.07415414,0.75401533,0.45610076,0.57094580,0.62600064,0.84709430,1.31628036,1.09671450,0.81754243,0.72545743,0.63040686,0.66210794,0.49506527,0.53764009,0.65585726,0.60115588,0.63363922,1.10829234,0.73595411,0.57296884,0.48548490,1.03059149,0.51879287,0.77047384,0.33001804,0.65925032,0.33733818,0.32754230,0.56719500,0.69756091,0.67086142,0.54124612,0.76590216,0.98475546,0.46519905,1.35691988,0.47637099,0.77685428,0.62219679,0.50261682,0.58433443,0.98373586,0.35324758,0.37678626,0.97176409,0.79558647,0.43324828,0.58818847,0.59083885,0.86491317,0.65761584,0.64072710,0.67277187,0.27170569,0.60106719,1.17518914,0.92238462,0.65764487,0.31370091,1.61083806,0.54499155,1.05662537,0.57322633,0.24561185,0.85203874,0.53536808,0.27639139,0.42320117,-1.07785034,0.02391937,0.39153922,0.84454179,0.61767530,0.43780434,0.62494910,0.21706973,0.46681297,0.39600909,0.48703200,0.37212235,0.79189736,0.10929459,0.77986801,1.17408562,0.72748828,0.60995960,0.53932309,0.57482576,0.78036165,0.66336799,0.88758093,0.36966693,0.63564718,0.39864591,0.66698498,11.53535271,0.42752498,0.36982059,0.90453053,0.63703418,0.45460483,0.71803737,0.53201687,0.40739280,0.47798449,0.11324494,0.37427062,0.98387814,0.67605698,1.03151226,0.55087030,0.23113455,0.95190418,0.77944660,0.69215649,0.59396535,0.62402964,0.49993467,1.24433994,0.64861006,0.74824435,0.43768132,1.10267270,0.91602683,0.44851249,0.88155288,0.63590449,0.77648383,0.58121479,0.35210899,0.84849107,1.01373410,0.85612029,0.78876382,0.84835106,0.19284728,0.48292229,0.47260046,0.31225932,0.46429357,0.75744605,0.13505447,0.36033458,1.01810801,1.00849509,0.45178610,0.30789787,0.49432886,0.53574413,0.64651388,0.37367588,0.26752442,0.36934003,0.65666425,0.50313008,0.46987772,0.33837783,0.73240829,0.81373322,0.04961857,0.62940907,0.68483233,0.54924905,0.65049529,0.50514424,0.78440416,0.35460714,0.61222249,0.68799198,0.62645215,0.30308986,0.89392287,0.79430842,1.02250135,0.64758331,0.58046645,1.07006526,0.44961914,0.39506984,0.49244684,0.70518416,0.52445263,0.56410986,0.02378262,0.56829059,0.40083560,1.16556060,0.44028285,0.38670766,0.67451763,0.60628641,0.87995708,0.51335108,0.59055454,0.70891488,0.32405904,0.67446434,1.21095538,0.66926575,0.70795602,0.59113276,0.76022184,0.52477437,0.26166707,1.00684440,0.99703521,0.66786778,0.59934777,0.52569902,0.21721727,0.96770263,0.44678932,0.54259998,0.44879964,0.75601000,0.47530392,0.60473955,0.32991177,0.68058395,0.82421321,0.68580449,1.01434660,0.49195999,0.63860726,0.47974187,0.54720807,0.51377457,0.39671060,0.48405224,0.47590032,0.57890463,0.58973813,0.55195045,1.17735457,0.69132328,0.47114021,0.58902788,0.46675873,0.71457672,0.13934857,0.76636803,0.56677270,0.48316991,1.34251893,0.83090222,0.67470920,0.80531907,0.68632239,0.81120199,0.37531620,0.09489317,0.67567301,0.43510637,0.51345545,0.46701235,0.92281544,0.65458059,0.60939127,0.32021967,0.64509672,0.83739948,0.26073992,0.47774613,0.60026258,0.23192903,0.78137708,0.74496174,0.33769384,0.53394830,0.63676685,0.74625337,0.51972717,0.21751569,1.04693389,0.24461403,0.46134788,0.99432200,0.44545162,0.73618233,0.23705116,0.85255086,0.56477433,0.36027452,0.49632993,0.64426780,1.00792503,0.87706459,0.57163692,0.17304419,0.83795387,0.79646951,0.70819801,0.26738477,0.42714679,0.35921043,0.56121337,0.51799643,0.17986566,0.46745634,1.95136642,1.06321502,0.60675949,0.40487501,0.42383552,0.82947540,0.24380583,0.67751300,0.47773552,0.56276381,0.58442914,0.37867141,0.51647568,0.61897516,0.90717125,0.44152188,0.29205960,0.54046148,0.59960759,0.52401459,0.89542043,0.86357284,0.20748094,0.59315336,1.01326275,0.38454050,0.49606964,0.47940558,0.57987541,0.72284979,0.51654238,0.80640072,0.54865235,0.91144007,0.36116090,0.72263277,0.58370042,0.56334937,0.52926213,0.38020095,0.30724740,0.64472109,0.56155771,0.32067847,0.80768818,0.56573260,0.79586488,0.61440659,0.11028065,0.38144374,0.38994932,0.59477925,0.33223212,0.62610269,0.71669459,0.34795403,0.83636796,0.61443764,0.55141789,-0.32397315,0.74420357,0.71847028,0.60885000,0.60346270,0.49298215,0.62460387,0.44182283,0.79122615,0.04954866,0.44539097,0.78916276,0.24662974,0.75417173,0.37028417,0.72680384,0.52967954,0.71542042,0.50602359,0.66802680,0.65142107,1.68909967,1.38512075,0.98571515,0.67859685,0.30781445,0.51247227,0.53346181,0.95278001,0.45976442,0.94689906,0.37266630,0.87092525,0.83222735,0.59552383,0.66333777,0.69094014,0.60677958,0.87123692,0.70924079,0.92051387,0.57783276,0.49144727,0.63234270,0.88884157,0.85879624,0.53528643,0.50828910,0.44125974,0.19787908,0.47955954,0.47211826,0.42024055,0.47374940,0.21866474,0.64117801,0.83865166,0.25076681,0.28567463,0.55441505,0.72836828,0.76475316,0.56337160,0.29623175,1.11552393
STAR,0.65061748,0.57926154,0.98690146,0.99084181,0.58178395,0.83823776,1.10563564,0.30059624,0.98021472,0.82657129,0.58376032,0.98069638,0.09272790,1.00541115,0.63764703,0.40601507,0.67194819,0.46620846,0.35385895,0.50280619,0.45291257,0.36191729,0.34673461,0.29000345,0.73481983,0.46423706,0.81280375,0.61670864,0.49583334,0.65883040,0.56967670,0.49978614,0.38066071,0.64106441,0.86905468,0.46807462,0.33479440,0.47815871,0.34069204,0.58900303,0.47301263,0.62698090,0.86071074,0.52108246,0.73319232,0.42825058,0.71676695,0.23245403,0.44321078,0.17134643,0.56221497,0.32180339,0.42213839,0.86275345,0.32320970,0.77347583,0.51524824,1.08941483,0.34551519,0.48824239,0.40507817,0.84333241,0.55284357,0.78285044,0.60991228,0.87648493,0.68332654,0.55524814,0.66244429,0.13034751,0.64832151,0.84865725,0.54231554,0.48712376,0.56167096,0.67350560,0.81164312,0.55828321,0.86950755,0.99003053,0.90406394,0.44831312,1.01717091,0.63199979,0.65457255,0.65210629,0.62816864,1.18693471,0.27909690,0.35293409,0.44317937,0.21636733,0.35002619,0.40672913,0.33518422,0.49521962,0.65466428,0.34812143,0.79697514,0.67907661,0.78931379,0.66730422,0.55369133,0.43519068,0.77592742,0.50756985,0.92571068,0.52089298,0.54496348,0.97595364,0.31588542,0.71068084,0.71706319,0.42003638,0.72156215,0.61367345,0.58686233,0.79138446,1.26198483,0.62563121,0.66589981,0.56664306,0.71892869,0.65254390,0.99348497,1.43321705,0.55251300,0.56015801,0.24203137,0.59973359,0.48450026,0.82516992,0.40078327,0.47235659,0.98552936,1.79292583,0.64846504,0.75683695,0.48143464,0.42004329,0.34354720,0.50655329,0.19466747,0.41035461,0.70338112,0.78116775,1.11051369,0.12747359,0.80241573,0.74573040,0.80039066,0.32554954,0.69624543,0.45686287,0.70160973,1.08192420,0.57010996,0.60357332,0.92151994,0.42897791,0.60517681,0.33479792,0.73169595,0.61147100,0.47876146,0.30830508,1.10702324,0.51124471,0.32149094,0.62427700,0.57760823,0.76898581,0.83416212,0.92805588,0.88481236,0.54142243,0.55760181,-0.10534181,1.36479676,0.66729319,1.37484777,0.43931296,0.20548564,0.36916029,0.47277677,0.36610487,0.29892576,0.50233257,0.40303543,0.73741543,0.81222630,0.39067841,0.79281151,0.42911103,0.78170109,-0.34408405,0.64364105,0.76651603,0.73912781,0.31871638,0.46722770,1.38110125,0.47196352,0.59862250,0.36112133,0.24475357,0.42993107,0.30674300,0.77207232,0.49560392,0.34318250,0.32533902,0.48228383,0.60000908,0.32334137,0.96110976,0.83193707,0.93176425,0.32273990,0.85351157,0.32560012,0.85752165,0.57716095,0.75447756,0.55550766,0.26233470,0.15563145,0.49902892,0.70729363,0.80927253,0.34930938,0.78154457,0.48713762,0.57869303,0.64115798,0.53340667,0.25711763,0.86403847,0.66152412,0.90867174,0.62008798,0.86836481,0.18878417,0.54038477,0.57188964,1.11530089,0.46402022,0.87490249,0.75543571,0.87192416,0.81752533,0.65578085,0.19849500,0.42703912,0.51171893,0.87636763,0.43842700,0.40752655,0.48175168,1.25922406,0.52966082,0.40771765,0.39184213,0.59076709,0.62892842,0.40059853,0.51738423,1.10248172,0.43436927,0.15768978,0.51710242,0.66136783,0.52100879,0.26061469,0.40900153,0.48439592,0.50893694,0.43566865,0.45346388,0.24726021,0.75599504,0.48362443,0.43733838,0.28759247,0.39370605,0.49680585,0.48947272,0.53489298,-0.37274313,0.86094093,0.42282623,0.73805332,0.27623123,0.52987099,0.49338543,0.81939638,0.29930776,0.46789178,0.58879721,0.37025589,0.55126762,0.69056666,0.64722764,0.34466481,0.43913677,0.29953057,0.26275477,0.61046517,0.77930105,0.27998430,1.11809087,0.27384955,0.64883673,0.56949323,0.70262611,0.76125515,-7.42830276,0.53057063,0.40225357,0.34111470,0.25160384,0.43718302,0.49313200,0.82412696,0.30840644,0.65543234,-0.25844699,0.57910269,0.62923837,0.74513447,0.50516248,0.45330447,0.44087562,0.56202877,1.03884542,0.67076659,0.65520751,0.81530875,0.65885854,0.14306000,0.34735402,0.58578789,0.46463755,0.68775755,0.14419198,0.81460690,0.46381173,0.75880873,0.73932123,0.60618460,0.47747290,0.42780405,0.50118405,0.73015523,0.44949311,0.80627835,0.61687678,0.44980711,0.76342726,0.52572429,0.69088107,0.68742597,0.97836840,1.49066496,0.86746335,0.61591566,0.44508517,0.62436509,0.45616058,0.56739604,0.68840939,0.55391294,0.50717258,0.42798316,1.07821631,0.65482235,0.74413538,0.55889893,0.73983538,0.42247587,0.60199642,0.82978034,0.56722450,0.49881461,0.66139519,0.88611495,0.83415616,0.38315940,0.31618696,0.60360092,0.82304949,0.30684346,0.67990994,0.49961656,0.65812123,0.42068559,0.50763804,0.71427757,0.68460923,0.77039182,1.37405479,0.72544831,1.01662135,0.67563629,1.29404461,0.25857186,0.57550514,0.46839818,0.16113137,0.51253104,0.50192237,0.38694727,0.85178703,-0.84705877,0.12431332,0.50593841,0.61758947,0.30611220,0.72297430,0.64018774,0.16326368,0.71351779,0.31217146,0.83591354,0.33669922,0.45213127,0.68668765,0.55062377,0.80479145,0.92265260,0.89601630,0.85401422,0.81690913,0.66463172,0.69103026,0.84079880,0.24068807,0.77775198,0.43427300,0.51641238,11.89207935,0.31381315,0.53507245,0.59873152,0.65731746,0.48126873,0.57037365,0.65363348,0.33997893,0.80658811,-0.01814982,0.46696156,1.12578559,0.19370124,0.62648422,0.67483974,0.48114771,0.77019000,0.95830029,0.47568309,0.32085067,0.66965610,0.60262686,1.29843485,0.57455719,0.57337630,0.54244637,1.13804126,0.82341790,0.55979049,0.55665034,0.26926392,0.57873911,0.55348408,0.85281676,0.42752200,1.23541188,0.79667538,0.52133965,0.42132753,0.61467814,0.62332273,0.18622924,-0.00148363,0.34876114,0.70219231,0.85199618,0.43654621,0.70622063,0.92070866,0.74513745,0.64024675,0.62065792,0.84018236,0.46262228,0.58061159,0.42501864,0.27946073,0.75856692,0.47819805,0.34370717,0.36807030,0.52804577,0.44317538,0.37331611,0.79074633,0.31416550,0.50988650,0.70534331,0.30272466,0.63148999,0.68354487,0.37503284,0.72647417,1.09714067,0.69799483,0.67782342,0.62079263,0.62943339,1.21099555,0.44309101,0.61121863,0.84221959,0.31970727,0.89860451,0.50271380,0.70020437,0.59908944,-0.18069524,0.16183484,0.47151223,0.51042908,0.48410922,0.34688309,0.70985222,0.80246615,0.57572663,0.04214049,0.98996949,0.43064636,0.67908609,0.58853400,0.79891682,0.62067389,0.85326141,0.55178326,0.54110682,0.86167258,0.49306571,0.47892851,0.33826452,0.31745914,0.70419061,0.23236425,0.54850155,1.02902985,0.71716917,0.38381851,0.08805269,0.59825659,0.47039345,0.39745215,0.26132092,0.83291161,0.85003448,0.63253969,0.89917135,0.53075588,0.95757812,0.84903854,0.45508406,0.78823161,0.51658559,0.31447765,0.61544096,0.41163957,0.84588736,0.53525943,0.67981207,0.14353096,0.55684662,0.48675448,0.47126445,0.91621351,-0.00910081,0.32124987,0.84948021,0.74874341,1.31782055,1.19441605,0.33363572,0.47586805,0.43554685,0.43751389,0.50739598,0.73638439,0.52797842,0.43549734,0.19647336,0.86024272,1.49032664,0.42528844,0.58532977,0.91070378,0.41354764,1.12259507,0.62299484,0.79085481,0.31428316,0.47345173,0.85716861,0.83633858,0.48860621,0.69012833,0.93460047,0.88871318,0.37405163,0.34324691,0.97983193,0.40314281,0.53852952,0.88235950,0.80292141,0.77959228,0.28691274,0.98265326,0.64354903,0.40841985,0.93646365,0.39454436,0.76080179,1.07391632,0.54170138,0.50831419,0.65896475,0.80845726,0.65964383,0.60281861,0.47662002,0.48263225,0.65840477,0.38296980,0.41418320,0.30629584,2.06711817,0.69815582,0.46054065,0.41389674,0.61732924,0.76705223,0.48699963,0.53675348,0.49702254,0.36065504,0.95836508,0.32471788,0.85502052,0.67637378,0.78966653,0.35160130,0.03972184,0.33640978,0.84453261,0.60905361,0.63292938,0.44479933,0.78009355,0.63089061,0.73193687,0.36457300,0.56018054,0.62901902,0.50225139,0.20219928,0.67444879,0.50829887,0.47340298,1.03082633,0.19385375,0.47879139,0.59552330,0.59044063,0.53585815,0.44677311,0.52570426,0.65378875,0.62384009,0.57050365,0.92440522,0.36790672,0.99472129,0.47873044,0.21687630,0.42151952,0.34051999,0.54228097,0.54380131,0.50301051,1.04830420,0.51505220,0.69704390,0.64427042,0.19122884,-0.16955519,0.84289640,0.54093957,0.73199612,0.62555760,0.66892475,0.65064192,0.33378428,0.63560098,0.11671652,0.98126471,0.59144706,0.73489833,0.68916488,0.80673742,0.53179544,0.43873388,0.38588056,0.46989754,0.67172593,0.71669495,1.35154390,1.52421570,0.89490032,0.34946150,0.23972522,0.78903520,0.43834046,0.64231253,0.70915258,0.55961084,0.36731717,0.49483913,0.95573223,0.51508510,0.50713444,0.99738920,0.72018254,0.53271437,0.68307835,0.60576016,0.19451943,0.46204150,0.71897721,0.40949902,0.91736066,0.47802746,0.45078474,0.24330556,0.43767217,0.28757638,0.53084826,0.06652142,0.99000251,0.44968319,0.58163518,0.82678586,0.45040131,0.21172282,0.75272524,0.66206378,0.62038797,0.32138306,0.47300482,0.51568067
THUNDER,0.60792804,0.73546457,0.70132500,0.66662943,0.50793099,0.60208660,0.97966504,0.53415477,0.73082399,0.76440078,0.68466634,0.42613035,0.42041770,0.55062670,0.46282658,0.50360626,0.42885578,0.28013867,0.39258772,0.36163878,0.63162237,0.32157990,0.79321969,0.80197787,0.75090516,0.61708772,1.07001901,0.44071412,0.86183703,0.61398619,0.69613588,0.76593727,0.73415136,0.33642441,1.11305714,0.35323828,0.56072783,0.63573492,0.69622409,0.28571343,0.65499187,0.35171869,0.89788055,0.96761179,0.47908404,0.72668535,0.81007838,0.52857089,0.37874544,0.32610059,0.66438282,0.40227333,0.34301078,0.74114090,0.75410289,0.48094392,0.42008075,0.84119135,0.59200609,0.62519002,0.31364596,0.66884559,0.27206582,0.41784739,0.32987016,0.78161132,0.52326202,0.65102237,0.36494049,0.38511348,0.71728003,1.14329600,0.45027676,0.38730425,0.60294783,0.52513450,0.53581357,0.56577289,0.27808660,0.25584301,0.76807064,0.91647458,0.56183380,0.76426697,0.76376152,0.36152238,0.55331612,0.77372503,0.10778947,0.65954757,0.48316324,0.97591943,0.57977861,0.72600102,0.56871068,0.81904626,0.68147886,0.35464060,0.69160593,0.65728265,0.85223186,0.82809424,0.67592508,0.68938303,0.56273460,0.52921999,0.83511150,0.80750525,0.50876814,-0.09864805,0.66657424,0.88295484,0.25050440,0.44289613,0.52350664,0.32396504,0.77654934,0.90452325,1.96457148,0.36868671,0.88591123,0.17250901,0.22146550,0.45348567,0.89292246,0.69621521,0.48315424,0.32724109,0.88842416,0.72918087,0.82645082,0.71403039,0.56729674,0.39869329,0.63009512,0.74395359,0.48441559,0.45966029,0.52478719,0.37160176,0.55359697,0.81097114,0.46973065,0.61656499,0.74293172,0.43918088,0.67454010,0.33598420,0.59920955,0.62153459,0.28914866,0.46038708,0.51840574,0.82046694,0.73164463,0.62527210,0.62377280,0.62604839,0.51439464,0.48469508,0.36751682,0.46524429,0.45710689,0.67765772,0.49903432,0.65973401,0.46454936,0.77891117,0.92687589,0.59291983,0.54405564,0.54905254,0.49356461,0.89324135,0.47021082,0.61548787,0.42370227,-0.30036438,0.89580858,0.77740890,0.70420837,0.77213502,0.50278455,0.59098387,0.51515985,0.68832773,0.25514945,0.40870377,0.48563540,0.22133949,0.60172784,0.60282362,0.63721991,0.46285838,0.51099420,-0.63639832,0.41027853,0.69390070,0.64281976,0.71652007,1.11320281,1.55645251,0.57710457,0.45786986,0.35032523,0.30502930,0.38632384,0.52122778,0.49432516,0.53557801,0.37145832,-0.02074999,0.33084622,0.35038385,0.44600791,0.80438232,0.68879628,0.53595686,0.50389892,1.09385395,0.72345465,0.54702806,0.42498618,0.33810431,0.72143275,0.57937294,0.43127578,0.53506780,0.80320686,0.46994442,0.62354887,0.59101915,0.72527188,1.14852989,0.39940751,0.65049666,0.64810634,0.61556542,1.11107719,0.57313466,0.75830293,0.74045622,0.50070107,0.61988991,0.68497908,1.21332228,0.39093262,0.62220699,0.43137991,0.99822277,0.48506114,0.34078050,0.07018339,0.75603688,0.52633131,0.83004892,0.65122390,0.53348714,0.30518788,1.24460530,0.46620071,0.47775462,0.56693566,0.62554330,0.38437968,0.28134361,0.35824549,0.54457319,0.48849586,0.48623183,0.62408018,0.87502265,0.34346032,0.17043081,0.48349395,0.36175966,0.48886573,0.37073642,0.19836195,0.31434983,0.62587249,0.65587515,0.41703796,0.45068413,0.69116116,0.54027736,0.42151311,0.39034757,-0.41599649,0.40384632,0.26926017,0.46484488,0.91742575,0.84103411,0.74458188,1.28702581,0.54711670,0.44499877,0.91104341,0.73910356,0.75217640,0.46865761,0.52146327,0.78549200,0.71785283,0.63087738,0.15139890,0.56605625,0.69919646,0.58009470,0.80356956,0.33724070,0.63373804,0.20450506,0.98184574,0.70118517,-1.18309593,0.54540324,0.54100597,0.30614853,0.60295570,0.49433687,0.33525792,0.73943496,0.86668712,0.70117795,0.04421932,0.74590856,0.88212752,0.62336361,0.88186598,0.66042554,0.94703096,0.28679898,0.49261943,0.90276670,0.46730220,0.87845910,0.23842838,0.45029432,0.51018006,0.52594769,0.22975314,0.74275708,0.43937755,0.61574614,0.73551345,0.99698758,0.57377058,0.33560646,0.62704164,0.53115153,0.66311067,0.71696508,0.46276200,0.72050381,0.45974410,0.27825040,0.70517886,0.56604582,0.73216277,0.62891048,0.80703807,0.40170997,0.96072102,0.19379738,0.80288696,0.50190222,0.62960464,0.35040650,0.49084228,0.42093423,0.37567189,0.55263126,0.67352605,0.86561918,0.28175113,0.37027067,1.24098587,0.30751270,0.74844718,0.70593429,0.35549760,0.33616695,0.54345095,0.83062971,0.68372309,0.27266532,0.31016591,0.48792791,0.77304769,0.57538629,0.76241869,0.79503775,0.30838656,0.33893061,0.52347726,0.69378245,0.61370689,0.26995245,1.05545497,0.82614315,1.02047110,0.64164585,1.18908668,0.45101675,0.66550720,0.32343888,0.44223228,0.68058145,0.61426282,0.58085924,0.56241000,-0.78744173,0.20072833,0.43346918,0.41457698,0.68669456,0.57261080,0.60618794,0.96160346,0.43568355,0.37782019,0.75134349,0.58743179,0.95638764,0.21500407,0.83633012,0.72737944,0.75246662,0.52024138,0.46288455,0.67771828,0.72996616,0.96703267,0.76585454,0.53948420,0.66050571,0.44702441,0.48109090,12.36019325,0.76132083,0.48370382,0.39165980,0.80894333,0.52874833,0.62015384,0.67545110,0.81471378,0.65115249,0.53678501,0.54440826,0.79305518,0.48521614,0.83403510,0.75465274,0.75777262,0.70211601,0.50175267,0.42158428,0.54720199,0.51143730,0.67275357,1.39045906,0.54817730,0.75517082,0.87281656,0.77451938,0.57273054,0.39616048,0.55193520,0.24169958,0.52804017,0.62300491,0.52420223,0.47052628,0.62149894,0.41651860,0.79368770,1.12329531,0.17784339,0.34841198,0.34810781,0.29729193,0.52070045,0.58009285,0.31571865,0.43061590,0.96471345,1.29119325,0.63779151,0.75914276,0.51279080,0.44419211,0.43208024,0.80812770,0.63315153,0.60736859,0.50092888,0.48249584,1.09832013,0.59938806,0.62787980,0.47053486,0.41796514,0.51593018,0.45034379,0.38923502,1.17917156,0.56364000,0.50696111,0.25012398,0.55708742,0.58264989,0.65995914,0.40261135,0.51321840,0.73206639,0.57179809,0.89351171,0.73629421,0.64300776,0.39072317,0.52370489,0.86994487,0.70298702,0.42453551,0.78659809,0.12678799,0.46235913,0.82982820,0.32835183,0.47547376,0.38732731,0.75920200,0.45596927,0.49308568,0.40754497,0.71232957,0.71471763,0.26455259,0.29483968,0.81018507,0.56665123,0.51851857,0.43656221,0.51331538,0.59484428,0.57618541,0.63305503,0.71755993,0.73459315,0.67720234,0.61969531,0.95558405,0.87059313,0.43224856,0.60896581,0.30645055,0.72710669,0.17451164,0.53535098,0.52419376,0.82295370,0.77251977,0.47806409,0.84731740,0.93761063,0.51792336,0.52968651,0.50469089,0.55866766,0.63386691,0.64464164,0.23551145,0.35783812,0.93209726,0.45777076,0.71353638,0.08695392,0.59922624,0.45824003,0.32828146,0.47393829,0.46643844,0.53788787,0.52623671,0.43818015,1.31244051,0.54556197,0.81607687,0.46600115,0.70325255,0.84585398,0.92069459,0.42895284,0.41917214,0.55216110,0.78332043,0.41700083,0.64429814,0.80286610,0.53573310,0.48807910,0.64909869,2.06004333,0.45359445,0.54071534,0.87954944,0.45755643,0.42565256,0.80679667,0.55327404,0.55941248,0.64619273,0.80681813,0.48461169,0.16135752,1.08879995,0.54017586,1.17580986,0.63307554,0.81645453,0.84452134,0.31670085,1.35873532,0.34699416,0.21524145,0.50299394,0.77273577,1.38081598,0.74502587,0.47878999,0.80774188,0.27582666,1.07231843,0.67225802,1.70932794,0.60247493,0.25311083,0.58602506,0.51523393,0.45471394,0.28404233,1.89428496,0.91010123,0.65074420,1.15321600,0.67106539,1.18681896,0.33906287,0.29292947,0.48213851,0.58504045,0.61644560,0.34298635,0.59181511,0.66597825,0.45613906,0.86359817,0.86754167,0.45791459,0.62311214,0.81007433,1.09479427,0.56141466,0.61878026,0.48502156,0.73743057,0.49750972,0.34530717,0.49924481,0.68891442,0.73617542,0.88276863,0.70743620,0.74609458,0.83887458,0.48842221,1.00539315,0.36450818,0.65784442,1.05490875,0.44382685,0.75098002,0.62573481,0.65175664,0.33072340,0.86018991,0.73855281,0.63901508,0.48171306,1.15714216,0.65608048,0.45643127,1.09163857,0.35704023,0.58626932,0.46696082,0.55264342,0.79058307,0.67265779,0.62973714,0.52062422,0.48583481,0.67983323,0.46009141,0.45952362,0.51120424,0.48731923,0.35462749,0.40914798,0.43805885,0.80433446,0.59891623,0.42805201,0.27424669,0.44387710,0.76713830,0.27496326,0.64556396,0.52574682,0.75000834,0.50941551,1.16555500,1.32965088,0.79459554,0.73056233,0.68444711,0.64346695,0.60974294,0.68572795,0.48609760,0.80806088,0.54639381,0.51908517,0.60864764,0.78070307,1.01992762,0.37868005,0.72939891,0.65537852,0.76786613,0.76280713,0.72151744,0.80089688,1.02994859,0.36247346,0.40473390,0.47799841,0.34904543,0.44563627,0.46779782,0.69702828,0.53553748,0.44710588,0.47917211,0.39497447,0.70254785,0.60044336,0.23235284,0.27679121,0.35368156,0.83852887,0.49338579,0.61566126,0.26164517,0.64906907
