,dim_0,dim_1,dim_2,dim_3,dim_4,dim_5,dim_6,dim_7,dim_8,dim_9,dim_10,dim_11,dim_12,dim_13,dim_14,dim_15,dim_16,dim_17,dim_18,dim_19,dim_20,dim_21,dim_22,dim_23,dim_24,dim_25,dim_26,dim_27,dim_28,dim_29,dim_30,dim_31,dim_32,dim_33,dim_34,dim_35,dim_36,dim_37,dim_38,dim_39,dim_40,dim_41,dim_42,dim_43,dim_44,dim_45,dim_46,dim_47,dim_48,dim_49,dim_50,dim_51,dim_52,dim_53,dim_54,dim_55,dim_56,dim_57,dim_58,dim_59,dim_60,dim_61,dim_62,dim_63,dim_64,dim_65,dim_66,dim_67,dim_68,dim_69,dim_70,dim_71,dim_72,dim_73,dim_74,dim_75,dim_76,dim_77,dim_78,dim_79,dim_80,dim_81,dim_82,dim_83,dim_84,dim_85,dim_86,dim_87,dim_88,dim_89,dim_90,dim_91,dim_92,dim_93,dim_94,dim_95,dim_96,dim_97,dim_98,dim_99,dim_100,dim_101,dim_102,dim_103,dim_104,dim_105,dim_106,dim_107,dim_108,dim_109,dim_110,dim_111,dim_112,dim_113,dim_114,dim_115,dim_116,dim_117,dim_118,dim_119,dim_120,dim_121,dim_122,dim_123,dim_124,dim_125,dim_126,dim_127,dim_128,dim_129,dim_130,dim_131,dim_132,dim_133,dim_134,dim_135,dim_136,dim_137,dim_138,dim_139,dim_140,dim_141,dim_142,dim_143,dim_144,dim_145,dim_146,dim_147,dim_148,dim_149,dim_150,dim_151,dim_152,dim_153,dim_154,dim_155,dim_156,dim_157,dim_158,dim_159,dim_160,dim_161,dim_162,dim_163,dim_164,dim_165,dim_166,dim_167,dim_168,dim_169,dim_170,dim_171,dim_172,dim_173,dim_174,dim_175,dim_176,dim_177,dim_178,dim_179,dim_180,dim_181,dim_182,dim_183,dim_184,dim_185,dim_186,dim_187,dim_188,dim_189,dim_190,dim_191,dim_192,dim_193,dim_194,dim_195,dim_196,dim_197,dim_198,dim_199,dim_200,dim_201,dim_202,dim_203,dim_204,dim_205,dim_206,dim_207,dim_208,dim_209,dim_210,dim_211,dim_212,dim_213,dim_214,dim_215,dim_216,dim_217,dim_218,dim_219,dim_220,dim_221,dim_222,dim_223,dim_224,dim_225,dim_226,dim_227,dim_228,dim_229,dim_230,dim_231,dim_232,dim_233,dim_234,dim_235,dim_236,dim_237,dim_238,dim_239,dim_240,dim_241,dim_242,dim_243,dim_244,dim_245,dim_246,dim_247,dim_248,dim_249,dim_250,dim_251,dim_252,dim_253,dim_254,dim_255,dim_256,dim_257,dim_258,dim_259,dim_260,dim_261,dim_262,dim_263,dim_264,dim_265,dim_266,dim_267,dim_268,dim_269,dim_270,dim_271,dim_272,dim_273,dim_274,dim_275,dim_276,dim_277,dim_278,dim_279,dim_280,dim_281,dim_282,dim_283,dim_284,dim_285,dim_286,dim_287,dim_288,dim_289,dim_290,dim_291,dim_292,dim_293,dim_294,dim_295,dim_296,dim_297,dim_298,dim_299,dim_300,dim_301,dim_302,dim_303,dim_304,dim_305,dim_306,dim_307,dim_308,dim_309,dim_310,dim_311,dim_312,dim_313,dim_314,dim_315,dim_316,dim_317,dim_318,dim_319,dim_320,dim_321,dim_322,dim_323,dim_324,dim_325,dim_326,dim_327,dim_328,dim_329,dim_330,dim_331,dim_332,dim_333,dim_334,dim_335,dim_336,dim_337,dim_338,dim_339,dim_340,dim_341,dim_342,dim_343,dim_344,dim_345,dim_346,dim_347,dim_348,dim_349,dim_350,dim_351,dim_352,dim_353,dim_354,dim_355,dim_356,dim_357,dim_358,dim_359,dim_360,dim_361,dim_362,dim_363,dim_364,dim_365,dim_366,dim_367,dim_368,dim_369,dim_370,dim_371,dim_372,dim_373,dim_374,dim_375,dim_376,dim_377,dim_378,dim_379,dim_380,dim_381,dim_382,dim_383
BAG,0.05794057,0.12696327,0.07386926,0.09830630,0.07636967,0.07719667,0.22416450,0.04901350,0.11874226,0.06008220,0.09736662,0.06246375,0.03618583,0.11043105,0.03081509,0.05670481,0.11674338,0.07491470,0.01034961,0.08881830,-0.02176895,0.11035643,0.02535228,0.07889389,0.01964141,0.11766732,0.04464113,0.06544365,0.10212798,-0.03078009,0.08625118,0.08752591,0.06488666,0.04392406,0.04888349,0.13071816,0.10618234,0.07894096,0.05171725,0.04291586,0.03641887,0.00057034,0.08835255,0.08102089,0.08058821,0.09897212,0.08403271,0.09235141,0.07635561,0.05628916,0.05009495,0.06862809,0.06480662,0.12408411,0.06743932,0.07216036,0.09183385,0.04546466,0.05908185,0.04185769,0.14475584,0.05879816,0.05923507,0.07859930,0.08716425,0.00799446,0.00731144,0.06424290,0.07424092,0.10121755,0.08855984,0.08603725,0.06806558,0.08391194,0.12332233,0.02327515,0.10290498,0.05502152,0.09996167,0.13805385,0.09677976,0.06873551,0.03260733,0.08603380,0.04539384,0.06933069,0.09434924,0.06502276,0.05817307,0.08407649,0.02810232,0.05971359,0.09048286,0.06892617,0.07078159,0.04895316,0.02470851,0.06144727,0.09404220,0.23873895,0.06788314,0.11269061,0.08078133,0.12619291,0.04941551,0.01875739,0.05573575,0.08458002,0.03882819,0.10665368,0.04830153,0.07880931,0.02684441,0.11808871,0.02628033,0.11771984,0.08444522,0.10149480,0.08887713,0.11875927,0.06415283,0.06497274,0.09996405,0.03660772,0.02080123,-0.01698964,0.13241011,-0.00000000,0.05775024,0.02528164,0.09589349,0.12093620,0.11051747,0.06671894,0.07608428,0.04778358,0.10988613,0.08654869,0.06297774,0.07827207,0.04834659,0.09233484,0.14898778,0.02870715,0.06897525,0.13352571,0.11937723,0.05669004,0.07614857,0.07148280,0.06955893,0.08800866,0.07127811,0.08559083,0.08140841,0.03036073,0.10288931,0.04580895,0.05363406,0.10172659,0.04783612,0.03500427,0.09682532,0.09773442,0.07968874,0.00477861,0.07206956,0.01908156,0.08378839,0.04465001,0.08500379,0.06989346,0.10450502,0.11457694,0.11553038,0.05463465,0.01552650,0.10429322,0.06964748,0.04780491,0.07931539,0.02415846,0.06678411,0.04523766,0.05824416,0.10284626,0.04427377,0.07459433,0.09712815,0.14175995,0.06550778,0.11384606,0.12311153,0.03795961,0.08390239,0.05637873,0.09732400,0.05819134,-0.03205956,0.07061394,0.07670456,0.09212426,0.11091284,0.05282439,0.06327265,0.04394057,0.02468239,0.03810472,0.08012033,0.03109521,0.04717369,0.15060146,0.11944624,0.09203762,0.05734606,0.02193017,0.10239611,0.04883407,-0.01416461,0.08803537,0.11681100,0.07097355,0.02550676,0.00000000,0.10555035,0.09216347,0.09551793,0.14950307,0.11190330,0.03885446,0.06473451,0.07612791,0.09094644,0.15989956,0.08528077,0.03390535,0.13284530,0.08874323,0.10694685,0.09960561,0.13886584,0.07315397,0.05783069,0.06581827,0.08108648,0.08958086,0.06683159,0.07862139,0.01200152,0.09634810,0.10426860,0.03336789,0.04150319,0.02091321,0.08187574,0.05636127,0.06311505,0.06052217,0.01662792,0.19081500,0.10113046,0.13189588,0.06261232,0.05771191,0.12896231,0.08401555,0.07268613,0.16344798,0.07563750,0.05086363,0.07939494,0.09683074,0.09905711,0.04092358,0.08470828,0.07686022,0.03719356,0.06632241,0.07731353,0.11602925,0.03303385,0.03341928,0.03855994,0.04545259,0.06932117,0.09381530,0.00697168,0.08497709,0.03981886,0.09415612,0.07064942,0.05354144,0.02466664,0.07203213,0.11487149,0.08188481,0.06405094,0.07695455,0.01587835,0.11776628,0.08255886,0.07993169,0.06687327,0.09058853,0.06368799,0.02050358,0.02287124,0.10277024,0.11364520,0.10319378,0.12357557,0.05764737,0.04772981,0.06937322,0.06544113,0.08778281,0.08468684,0.07603779,0.07240926,-0.00000001,0.08227089,0.05906552,0.08274758,0.06256070,0.06788663,0.10665823,0.10510738,0.16414426,0.09675092,0.13104570,0.08935987,0.08978549,0.12060945,0.11347286,0.04839337,0.07045422,0.04033677,0.05909580,-0.02804025,0.04317195,0.08705208,0.02516243,0.12709749,0.12350500,0.10125308,0.03341737,0.10156818,0.12869050,0.10567609,0.13028787,0.07629266,0.08312224,0.07545053,0.05669478,0.06808572,0.05255595,0.08464253,0.07998509,0.08015171,0.06861505,0.05610309,0.06718897,0.08784681,0.08151326,0.06143134,0.06126645,0.06706713,0.08002506,0.06327572,0.07320674,0.07215055,0.07629354,0.05890436,0.12290031,0.11529079,0.11045883,0.07708583,0.04125087,0.03420709,0.07755847,0.17240988,0.12225996,0.11733820,0.10132323
CLOUDS,0.15314704,0.08793716,0.06364354,0.09922644,0.06093896,0.05609856,0.17464545,0.08939757,0.17954914,0.04142398,0.06505053,0.07378838,0.03372902,0.04695383,0.06321451,0.03014036,0.04856813,0.06829560,-0.00002483,-0.00469871,0.06996708,0.08991126,0.00658360,0.09840938,0.05543676,0.12026232,0.08107131,0.05720068,0.09906686,-0.02357796,0.10844057,0.11693155,0.06154488,0.05453649,0.09060422,0.14077885,0.04201870,0.06547931,0.08139800,-0.00440113,0.04483794,0.01440666,0.04978070,0.07650530,0.05971889,0.02415210,0.06428062,0.07788321,0.09046424,0.04503727,0.06041707,0.02060368,0.03252979,0.08115059,0.06171902,0.07448357,0.02497317,0.08605763,0.04226906,0.02488677,0.12630017,0.02650572,0.03681692,0.06501425,0.10522355,0.04794908,0.01004691,0.09664463,0.05071861,0.04716173,0.05534314,0.10304271,0.07341656,0.07819993,0.06729418,0.04139702,0.06293456,0.03222168,0.08749808,0.08693954,0.09148669,0.11340145,0.05438999,0.05192479,0.05914531,0.07469455,0.10725112,0.07279322,0.04091178,0.07187527,0.03797386,0.03763543,0.13373245,0.09912528,0.01156689,0.13448940,0.05971711,-0.00726840,0.02381454,0.22335871,0.02929791,0.12962940,0.07521705,0.08313066,0.07155776,0.05848385,0.16592868,0.10134166,0.10409202,0.01518581,0.02078063,0.05722411,0.06612059,0.05752581,0.04770546,0.09086971,0.07503320,0.05648629,0.11970776,0.07684356,0.07673129,0.06462196,0.15160832,0.07379597,0.02955792,-0.02082513,0.09120362,-0.00000000,0.09760216,0.06805379,0.11078749,0.07321394,0.12666380,0.07251749,0.07880531,0.03957102,0.01811820,0.04984639,0.02896791,0.12730245,0.08465035,0.10869590,0.18419373,0.08256669,0.03333498,0.11108090,0.10584723,0.04801958,0.04449964,0.05850139,0.01076937,0.05360684,0.07594308,0.07655223,0.07381017,0.04547887,0.06096730,0.02923703,0.05348815,0.12066490,0.12785250,0.07863042,0.07174280,0.07616145,0.05058466,0.02922681,0.05371023,0.03174929,0.03986572,0.10920612,0.04686181,0.13155024,0.05134950,0.08030242,0.10263766,0.10874370,0.02556165,0.10901224,0.05067638,0.04501949,0.04121847,0.00721599,0.06544124,0.03285208,0.11339131,0.10656335,0.05890987,0.04630143,0.05035919,0.07398790,0.03264567,0.08222864,0.07309739,0.04767244,0.06926753,0.06313492,0.05422760,0.08652747,0.01208582,0.04568691,0.10730794,0.03508202,0.08881130,0.07892976,0.04757006,0.05222173,0.12167767,0.07510639,0.08354804,0.03557000,0.03518986,0.09514128,0.13986582,0.08308800,0.02557735,0.03399959,0.02961097,0.13346578,0.03688509,0.09763972,0.18275125,0.07657748,0.04236682,0.00000000,0.04490449,0.04127687,0.05038487,0.15664177,0.09901746,0.05819065,0.05996670,0.08504091,0.05916772,0.07869667,0.09637883,0.06022800,0.12530696,0.06882040,0.04479675,0.03623016,0.14787717,0.09003747,0.02889366,0.08038771,0.05326114,0.07841475,0.04753106,0.01121442,0.01974839,0.11931124,0.12901178,0.06422455,0.03324956,0.08104634,0.06349612,0.06545589,0.05260003,0.05961187,0.01485249,0.10370102,0.09974297,0.09157106,0.00473406,0.11753076,0.07336546,0.09786502,0.12065472,0.15494537,0.05156825,0.09168246,0.03462951,0.09740569,0.06305726,0.01863526,0.05310344,0.03693543,0.10062920,0.06620801,0.14484049,0.05195885,-0.00902371,0.05797897,0.08552030,0.05367758,0.10331333,0.08315787,0.06776294,0.08486558,0.07915703,0.06618243,0.07812361,0.10444529,0.06063645,0.05479951,0.09003203,0.08852638,0.08188427,0.08367351,0.03687255,0.05113709,0.07488077,0.09342830,0.05484199,0.08656336,0.04793777,0.04542531,0.04920909,0.10981600,0.06276326,0.05277461,0.05814813,0.03080991,0.03556227,0.06076448,0.01471488,0.07048205,0.01767300,0.07756419,0.06504160,-0.00000001,0.03377709,0.03162590,0.09240297,0.01547920,0.10300756,0.06245966,0.10385610,0.13066101,0.07281490,0.13335276,0.02394070,0.04439411,0.04875055,0.11873592,0.09094369,0.06782072,0.04885463,0.04600183,0.01957043,0.08426501,0.09791744,0.06680766,0.07089917,0.08618219,0.05370720,0.04784671,0.05371802,0.13227807,0.02723446,0.11011419,0.12380558,0.14338167,0.12158346,0.06304825,0.11040450,0.03960267,0.06171490,0.09653383,0.05502564,0.10341189,0.04383484,0.07183376,0.07791535,0.09879269,0.05810604,0.04396004,0.09776580,0.07741587,0.03741178,0.08057778,0.09037878,0.08855931,0.06832379,0.11310663,0.09314869,0.05924927,0.07547525,0.08909878,-0.00434933,0.09629343,0.22551231,0.12445253,0.09870055,0.05246520
DRAGONFLY,0.08474597,0.09252610,0.02583923,0.10435029,0.11025918,0.05106258,0.18102674,0.05686642,0.08386301,0.04187969,0.09215033,0.03710015,0.07845116,0.06405585,0.04617836,0.08864675,0.09924585,0.03570025,-0.00435452,0.12856686,0.03409076,0.06601071,0.09394272,0.09814116,0.07087134,0.07470345,0.04825686,0.07388755,0.18792041,-0.03647325,0.05105266,0.11604779,0.14983782,0.06801749,0.08492142,0.16614926,0.08555721,0.02286148,0.07096378,0.02271937,0.07216312,0.05000877,0.05686767,0.03943653,0.05185040,0.10409094,0.04185855,0.06041789,0.11244953,0.10078949,0.08285207,0.00580526,0.00796255,0.06036594,0.07298675,0.07566543,0.06781254,0.09449102,0.06251982,0.06508379,0.10369964,0.08679786,0.03147994,0.08603968,0.08696778,0.03933747,0.04641289,0.06420733,0.10008522,0.06969133,0.06248731,0.06282199,0.04342992,0.09601010,0.05280769,0.06960544,0.09062550,0.01831951,0.09446021,0.08351313,0.13336204,0.09186809,0.02583178,0.05731215,0.06096319,0.07530531,0.06270458,0.07737597,0.09828085,0.07752586,0.06332300,0.09455898,0.12682040,0.06267826,0.04454131,0.07764490,0.10007027,0.04673738,0.08225158,0.26521373,0.04217123,0.05561571,0.06122626,0.07628088,0.02795699,0.02360136,0.07341500,0.05178436,0.08232712,0.07605730,0.00930007,0.03271743,0.04426621,0.08409987,0.04575744,0.11341350,0.06072805,0.12853646,0.07740679,0.08246810,0.11040679,0.08282615,0.13583733,0.06855337,0.03241119,-0.01831541,0.07483199,-0.00000000,0.09670681,0.04716555,0.08239810,0.16255786,0.09723225,0.05288497,0.05404992,-0.00117089,0.00759240,0.06205723,0.09718545,0.05540710,0.08808576,0.04864789,0.13526258,0.05136381,0.05811929,0.09169117,0.13444194,0.06386627,0.04379662,0.11340077,0.02689378,0.07528830,0.05859448,0.04861584,0.05589670,0.03365964,0.06658169,0.07279288,0.12516417,0.09460805,0.07061917,0.05220029,0.05080470,0.16956994,0.06441025,0.03355309,0.06889176,0.09167970,0.08121955,0.09051067,0.04949918,0.04572660,0.14713472,0.06392173,0.11218380,0.03449570,0.04486022,0.09861663,0.04549949,0.03773397,0.10060196,0.02410614,0.04490884,0.03384811,0.06517509,0.10018475,0.04552345,0.05405232,0.14106961,0.05402956,0.05737261,0.06185985,0.18406552,0.09617103,0.05518705,0.06873011,0.09748252,0.08037880,0.02077328,0.05141447,0.12135401,0.04296419,0.08484166,0.01970206,0.09469428,0.05177756,0.11047837,0.04031497,0.04167665,0.08038475,0.04929858,0.10313415,0.13194612,0.05549785,0.06622632,0.04802001,0.04823394,0.08733614,0.04270164,0.09813968,0.14145030,0.09760768,0.01591539,0.00000000,0.03995132,0.03903477,0.05697725,0.22417487,0.10137594,0.03211904,0.09669541,0.11900523,0.08305987,0.08328746,0.07442258,0.05508672,0.14006838,0.09053423,0.09073590,0.04312619,0.10060747,0.09950271,0.07431703,0.05808934,0.06719742,0.07157185,0.05818276,0.07211029,-0.00406502,0.10134438,0.10116626,0.09166142,0.06064907,0.07290892,0.09607659,0.08622886,0.09602672,0.07532739,0.01758632,0.13316175,0.14465602,0.10576768,0.02999366,0.10527305,0.08045104,0.08555254,0.10100280,0.11676531,0.06576370,0.08302332,0.12411729,0.10841913,0.05529256,0.09686947,0.06416237,0.07529866,0.11552574,0.06283437,0.09722967,0.03647190,0.07630976,0.05460200,0.09786498,0.02108960,0.05448603,0.06835636,0.02429326,0.13775976,0.06199475,0.08989605,0.04728609,0.11100323,0.07649282,0.06975278,0.11361133,0.05027810,0.03793017,0.08956663,0.06490120,0.03792652,0.07446052,0.08170965,0.05314322,0.06216542,0.03710194,0.06611279,0.03801018,0.06476386,0.12068065,0.07931263,0.10262508,0.09096710,0.07440171,0.04536265,0.03972031,0.08459278,0.10050927,0.04892441,0.07252706,-0.00000001,0.06316110,0.08274440,0.12478729,0.03594217,0.12467937,0.07539637,0.11530118,0.04972127,0.04203583,0.15616761,0.07823510,0.08101124,0.10970334,0.11166578,0.11353607,0.05725825,0.03935583,0.05244833,0.01295425,0.06008139,0.10606295,0.06649084,0.07584610,0.04651078,0.03861450,0.03304302,0.06300954,0.16962887,0.13582756,0.09504849,0.04298795,0.10015038,0.04634825,0.06275332,0.06753491,0.06412967,0.07063189,0.04931794,0.10880747,0.07794600,0.07509030,0.08181771,0.10634081,0.05018021,0.09283280,0.05548581,0.10067188,0.08653328,0.02794926,0.06041256,0.05958018,0.07330579,0.09219814,0.11414383,0.07973864,0.07018889,0.07986464,0.09980841,0.04792526,0.07353897,0.15178654,0.06779516,0.05934332,0.05519502
EARTH,0.10568133,0.11805788,0.07072410,0.10129561,0.06495625,0.03356986,0.15628882,0.09973601,0.07801192,0.09610894,0.10953876,0.10285284,0.04397402,0.08203577,0.05122485,0.09011217,0.06829752,0.09820235,0.06027949,0.13151453,-0.00328040,0.17373379,0.03026501,0.10523749,0.06449062,0.14864533,0.10958592,0.07368369,0.12676379,-0.01230785,0.07221564,0.14056711,0.12571837,0.03356913,0.05054476,0.11953409,0.12718675,0.07005361,0.10610530,0.04189888,0.03818397,0.00559089,0.09783513,0.04832625,0.07754751,0.07967817,0.09621505,0.06328678,0.09873910,0.06496263,0.08241159,0.02324092,0.02674811,0.08710927,0.07217306,0.08606296,0.09539135,0.04435909,0.09605837,0.05375594,0.17120253,0.07152598,0.08206099,0.06966139,0.13254388,0.07284434,0.07307508,0.08067672,0.05073871,0.05205296,0.04653371,0.09050038,0.04858541,0.06463169,0.10270178,0.06028405,0.08742760,0.05659706,0.08201831,0.11519284,0.12771107,0.04575440,-0.00254058,0.06325426,0.13983352,0.06906926,0.05444662,0.09351058,0.06343089,0.07258590,0.09290099,0.14981082,0.10808135,0.08154754,0.06424350,0.08946328,0.08108592,0.02478570,0.04605290,0.25813815,0.05512074,0.09192465,0.08123884,0.15003520,0.06918770,0.03598446,0.06594197,0.11383148,0.05820533,0.10174813,0.01354783,0.05140186,0.06297015,0.11939751,0.06452014,0.09275346,0.07893528,0.06326406,0.09105083,0.05127431,0.08498340,0.06524022,0.06351689,0.06776883,0.06727594,0.01003507,0.10454057,-0.00000000,0.08750425,0.06826760,0.12597503,0.08035888,0.10251385,0.12453200,0.02500985,0.03572895,0.07940087,0.08904234,0.08700550,0.10685763,0.04353205,0.09160475,0.14762390,0.08136438,0.08520159,0.12330832,0.13329275,0.09065901,0.05829716,0.12416290,0.03836181,0.07809302,0.09449507,0.10042744,0.07222248,0.05200357,0.06036048,0.03138848,0.11197576,0.09671416,0.09961855,0.06326693,0.05980833,0.05116334,0.05914934,0.04793309,0.03545173,0.01776591,0.09870000,0.08637130,0.08204281,0.06563786,0.12089383,0.13424380,0.11769632,0.07399067,0.03033787,0.10850841,0.02747920,0.04392090,0.05794733,0.08734880,0.09649012,0.07156193,0.07149759,0.08183226,0.03313284,0.06952533,0.06671554,0.13123070,0.07796240,0.04319600,0.13919836,0.07721537,0.04291152,0.06301121,0.08238643,0.04623602,0.03588170,0.07037764,0.10217334,0.12272779,0.10316977,0.06995982,0.11363804,0.10161716,0.06369677,0.09689708,0.07156089,0.08303084,0.06510428,0.10894390,0.13582180,0.06561980,0.04313552,0.01086206,0.09545256,0.09288809,0.02591089,0.04835314,0.12187518,0.07813719,0.04127992,0.00000000,0.09815576,0.05528208,0.06216714,0.18312068,0.09742468,0.03202479,0.08157293,0.07891786,0.01320350,0.11166147,0.12486143,0.09499338,0.16080077,0.10530367,0.10071993,0.03443104,0.11751836,0.07361797,0.11426224,0.07971075,0.07227147,0.06519475,0.02490460,0.11589185,0.05024127,0.11830715,0.16555870,0.07747250,0.07571881,0.10139836,0.05428052,0.05358400,0.07429662,0.07168787,0.06833027,0.19504112,0.14850324,0.10499988,0.04308910,0.06672500,0.12320859,0.09310384,0.12363508,0.12893999,0.07784845,0.06261271,0.05009193,0.11526779,0.03341241,0.07878669,0.06775031,0.11838193,0.04183659,0.05862126,0.07108292,0.07694998,0.07365791,0.04310443,0.13774304,0.05433199,0.09342514,0.09063289,0.02123051,0.12557401,0.03255133,0.07708844,0.03458483,0.09838335,0.06023548,0.11467113,0.12047789,0.07032049,0.08358410,0.06218212,0.04689460,0.08525957,0.07093494,0.06217289,0.09682406,0.04553755,0.04031040,0.08866972,0.04962576,0.10906009,0.07495005,0.04163672,0.09665065,0.07453883,0.10057178,0.08217009,0.08478273,0.14415197,0.08524440,0.09118717,0.06864537,-0.00000001,0.11593098,0.10251996,0.07800100,0.07513797,0.13951725,0.09363168,0.15130520,0.10794507,0.08951351,0.15607347,0.05424545,0.06133519,0.07530025,0.11278077,0.12849021,0.05715394,0.05307015,0.06389905,0.02287173,0.09597187,0.06718613,0.06099850,0.07423973,0.05865036,0.02890318,0.04219303,0.11794817,0.10043534,0.09052522,0.13759319,0.10272098,0.10957164,0.00150224,0.05429360,0.08492716,0.04614325,0.05310005,0.09154987,0.09169353,0.07635035,0.03687133,0.13177951,0.07913125,0.06411062,0.09399027,0.07604383,0.09969937,0.07176995,0.07272970,0.08738626,0.06470263,0.04324181,0.06339550,0.11529671,0.12931132,0.10750774,0.08898526,0.07897437,0.01333176,0.11938400,0.15340123,0.05449014,0.12598582,0.08866822
FEATHER,0.05490237,0.14636610,0.01890392,0.04833751,0.05435484,0.06650075,0.14892158,0.04726756,0.08440062,0.05603301,0.10064174,0.03506495,0.08430380,0.06289301,0.02271247,0.06072074,0.06369182,0.08647826,0.01943842,0.04436601,0.03508445,0.08168798,0.03994734,0.07863671,0.06993758,0.10009789,0.02621972,0.07596301,0.08706397,-0.02597356,0.06819535,0.07816339,0.20389061,0.05508547,0.05120931,0.07404719,0.08551303,0.07371290,0.05941209,0.06585159,0.03787027,-0.00673617,0.05278084,0.02813214,0.08933970,0.08009002,0.06103018,0.07489884,0.10423671,0.12207433,0.06944136,0.07040610,0.03867367,0.08050518,0.09194063,0.12570286,0.04520597,0.09947043,0.06038671,0.03594935,0.14864728,0.07443570,0.01714594,0.09805015,0.16911358,0.10321219,0.06444559,0.08897191,0.08305197,0.08944188,0.12776691,0.06071472,0.06127695,0.06593623,0.09258275,0.05754488,0.15731484,0.00705699,0.11832784,0.06952429,0.02324150,0.07212744,0.05386959,0.08374623,0.08964952,0.03507416,0.06219300,0.03091332,0.12512189,0.09089007,0.07529582,0.06693159,0.06838030,0.11607517,0.06725358,0.08623652,0.03636105,0.08092855,0.03363494,0.29957780,0.06452499,0.09380359,0.03897329,0.08396485,0.07540288,0.02330593,0.07686220,0.04941071,0.02899297,0.08749672,0.06241186,0.06344146,0.11090413,0.08244431,0.09131003,0.14257690,0.03130772,0.05803985,0.08159392,0.02702276,0.12764987,0.06238990,0.08921006,0.06294961,0.02149257,0.03300269,0.05357934,-0.00000000,0.07805001,0.03480649,0.11044571,0.11096045,0.07785320,0.06948777,0.05814500,0.03698468,0.04604034,0.13128182,0.07932227,0.10619725,0.04737939,0.06080177,0.19646898,0.10171761,0.01622747,0.08089421,0.08706757,0.10206155,0.06504459,0.14558801,0.05506591,0.06796802,0.04822320,0.05381698,0.11889556,0.06487041,0.02814720,0.06029550,0.14045969,0.08723814,0.13612731,0.04403025,0.08543450,0.05833011,0.07372481,-0.02625944,0.08019947,0.05864341,0.05080960,0.04430990,0.07444210,0.05257389,0.08470644,0.07970664,0.10587155,0.02149200,0.15738745,0.09594984,0.05414352,0.01835746,0.11123348,0.04672542,0.03826687,0.07481940,0.04377194,0.11269342,0.04661808,0.09586266,0.06123541,0.07991070,0.02228700,0.10200314,0.13835637,0.06099052,0.02984640,0.07248013,0.11496939,0.05541916,0.04807710,0.06903713,0.08939165,0.02270897,0.06862044,0.08903725,0.13340132,0.05806610,0.10234360,0.03280852,-0.00605238,0.06624059,0.06801651,0.07455198,0.12203699,0.09327309,0.08121381,0.09312406,0.09325383,0.06865163,0.00659835,0.04873526,0.14704013,0.03614970,0.01149071,0.00000000,0.04583409,0.06491908,0.07102195,0.15810484,0.11858500,0.06050900,0.07114306,0.09044885,0.08116715,0.11503373,0.04186060,0.08614941,0.12041458,0.07863712,0.10339688,0.09097771,0.07372928,0.09713193,0.08682018,0.09274741,0.07760666,0.10893267,0.04211979,0.06603885,0.00856617,0.07610214,0.07812865,-0.00976124,0.09853619,0.06596372,0.09188835,0.08147630,0.05987997,0.09281474,0.06749170,0.11637998,0.09404026,0.08879706,0.00571154,0.12647583,0.07134785,0.06874315,0.08467607,0.12317307,0.08955533,0.04648587,0.07882985,0.07604785,0.11388577,0.04591467,0.04172854,0.09123818,0.06215370,0.08978274,0.07851231,0.08071481,0.00844212,0.05043857,0.07759727,0.08815998,0.10897512,0.06881455,-0.00199865,0.12089589,0.05415149,0.09262329,0.03751568,0.10026201,0.05206936,0.10764646,0.06744654,0.06702229,0.12775414,0.09300359,0.02953396,0.06250261,0.08089299,0.06437745,0.03174785,0.07801283,0.08571959,0.00149931,0.05521695,0.09540942,0.02062233,0.09198265,0.16512960,0.11619762,0.06735321,0.05592410,0.02445017,0.09115443,0.14385022,0.03391540,0.05366225,-0.00000001,0.03129694,0.11398070,0.04131469,0.04070023,0.13526343,0.10313154,0.04998911,0.06042760,0.07960510,0.09124203,0.11347703,0.07252862,0.06641793,0.10849395,0.07559282,0.04121745,0.05007110,0.09695625,0.00057059,0.04561972,0.11227912,0.08159813,0.06058126,0.04978825,0.04256394,0.04351180,0.07039065,0.14399213,0.07262051,0.12767558,0.13173139,0.16266175,0.02907085,0.00671108,0.11220040,0.08992998,0.08501214,0.02343167,0.09734769,0.09423564,0.04744291,0.12451632,0.08994771,0.10846808,0.13162737,0.06226942,0.06491816,0.09822195,0.04157912,0.04030450,0.08440444,0.04858584,0.08921077,0.09963073,0.09304658,0.05930316,0.06462680,0.06804404,0.08735501,0.06591710,0.23836644,0.03687277,0.08688086,0.06858601
HORSE TRACK,0.12672220,0.12382504,0.01302124,0.07107694,0.06320737,0.06683512,0.17554614,0.09510382,0.05928705,0.06261500,0.09687863,0.07714330,0.04671464,0.08292197,0.01180080,0.10507034,0.07575619,0.09056973,0.02083702,0.05487284,0.00666027,0.04182262,0.03697878,0.09505744,0.04410429,0.11766732,0.05670337,0.07547791,0.07783503,0.03045507,0.05481596,0.15828633,0.14511459,0.04326177,0.06322762,0.10684855,0.08025414,0.02048059,0.07839939,0.03131519,0.03658324,-0.00453533,0.07133873,0.04919593,0.14718121,0.10773479,0.08791959,0.07664616,0.09154271,0.07325404,0.08016705,0.02072264,0.01364522,0.10761332,0.08374777,0.09094547,0.05864089,0.07634050,0.05908185,0.03208005,0.15398686,0.08847339,0.00290520,0.12507415,0.16020249,0.00723519,0.02947963,0.11129491,0.04623771,0.04281137,0.09523132,0.05897909,0.07343148,0.08226891,0.09180193,0.03740807,0.06457155,0.05050723,0.12190254,0.00568248,0.12390305,0.03150949,0.06380255,0.10613008,0.09289490,0.05128062,0.06842445,0.10704057,0.08336727,0.04385967,0.06611543,0.05177965,0.09612635,0.06066106,0.02846471,0.08322278,0.04059627,0.07168755,0.04977501,0.27713555,0.08267146,0.08451097,0.09484652,0.10174516,0.05049328,0.05919407,0.06264219,0.11316926,0.05641440,0.10936066,0.02655948,0.07037619,0.03156854,0.06102711,0.05358788,0.05272798,0.12593077,0.04608462,0.03708073,0.12481456,0.09816769,0.05219416,0.07056316,0.04449385,0.03604192,-0.02500680,0.12559126,-0.00000000,0.09575438,0.00236998,0.08093886,0.09924698,0.06721345,0.06352428,0.08305384,0.03974355,0.03522646,0.09490538,0.08843619,0.09617050,0.08457511,0.05567610,0.20796202,0.02160243,0.05324148,0.05469238,0.06990693,0.04796400,0.07614857,0.07148280,0.02726735,0.06842412,0.05666817,0.02692484,0.03313554,0.01848128,0.10976632,0.05204287,0.05196606,0.09831462,0.03849978,0.04794073,0.07270004,0.06586611,0.05691804,0.02013901,0.07206956,0.03643176,0.07012849,0.04603546,0.06554479,0.04891957,0.07657597,0.11457694,0.09555525,0.10729197,-0.00664444,0.10979223,0.04917443,0.01869071,0.04695327,0.06523919,0.06678411,0.04219063,0.06289079,0.08842725,0.02858017,0.04151392,0.12051869,0.10801571,0.03721827,0.06679408,0.09699512,0.05664817,0.05803604,0.05637873,0.05617278,0.09572016,0.05610334,0.06101373,0.09443779,0.10332065,0.08876973,0.09982122,0.09135497,0.07943229,0.08609705,0.06523275,0.00947170,0.05475945,0.07111346,0.11731642,0.12391468,0.07747149,0.02644064,0.03795825,0.08085182,0.06402924,0.01239957,0.03694879,0.06944455,0.11266223,0.03345463,0.00000000,0.04542930,0.05241919,0.10891055,0.11042594,0.07493191,0.06153798,0.07349040,0.04694634,0.10153051,0.12078234,-0.03864746,0.06413935,0.11421537,0.08738355,0.10353384,0.02933941,0.10354012,0.08159430,0.08571105,0.07560161,0.06205556,0.09743205,0.07769297,0.04091920,0.04594315,0.08555170,0.11583724,0.07288184,0.00834429,0.06549416,0.05460960,0.09606841,0.04553152,0.09210769,0.01449930,0.16218409,0.09980752,0.08221219,0.01934048,0.04493025,0.10976643,0.02692254,0.07936057,0.11033330,0.05263547,0.03511660,0.06720030,0.17718899,0.16479754,0.05525529,0.12614454,0.08775078,0.03548348,0.05621559,0.07731353,0.09435280,0.07015327,0.06042832,0.12010062,0.03438789,0.03843946,0.09027307,0.01646463,0.17184630,0.03981886,0.07953013,0.05201774,0.04460927,0.06943481,0.04167260,0.10086971,0.08501787,0.04925156,0.06812382,0.01752658,0.09670331,0.07814409,0.07185500,0.05093024,0.07169577,0.00633457,0.02601862,0.07841258,0.07485798,0.05461421,0.07479642,0.09836222,0.05492301,0.01123032,0.03773252,0.10415078,0.09702054,0.08468684,0.02051812,0.06658044,-0.00000001,0.08525464,0.09739427,0.07470143,0.04317724,0.08033568,0.11089420,0.10703081,0.08786799,0.05440943,0.15145411,0.07975550,0.06749026,0.09204634,0.13133885,0.08036874,0.07976907,0.09126995,0.06987830,0.02166613,0.07191338,0.08912792,0.02776719,0.06533438,0.11164400,0.04669459,0.09843395,0.03857185,0.14169076,0.10953646,0.15121570,0.12098581,0.12284452,0.02121679,0.04536306,0.04630508,0.06388465,0.05222164,0.07312044,0.05230037,0.06822953,0.07430260,0.11192246,0.10365575,0.04122095,0.06056613,0.05127553,0.04524003,0.06146291,0.02383070,-0.00973150,0.02121883,0.01940126,0.11596064,0.12063920,0.06643202,0.09486834,0.06452955,0.04590551,0.05776226,0.10289329,0.17498806,0.03488015,0.06969852,0.05252274
HOUSE,0.04095582,0.15647785,0.02815465,0.09566195,0.10161977,0.10707591,0.17132379,0.04301452,0.05103265,0.04472268,0.07654998,0.03726599,0.07793543,0.09327941,0.08394036,0.02755020,0.06854555,0.02203618,0.07690909,0.05780187,0.02106907,0.07524718,0.05117496,0.07785388,0.10534924,0.14082371,0.05838023,0.07197209,0.09148594,-0.02461745,0.06227880,0.07645416,0.14676473,0.06132123,0.07120346,0.11528604,0.08172302,0.08737950,0.06714974,0.01999429,0.08913971,0.03224538,0.11370230,0.04668635,0.08111110,0.05039531,0.06875240,0.02446423,0.13788380,0.08300091,0.06136178,0.06120504,0.02678108,0.08733289,0.06052964,0.09290082,0.04703047,0.05162833,0.06862716,0.04067571,0.16233660,0.04909771,0.02037843,0.09251472,0.07592791,0.04706066,0.06299329,0.09131078,0.07610374,0.11097349,0.08865443,0.06363451,0.05921255,0.11550347,0.09540167,0.08603638,0.07594843,0.02818063,0.10054409,0.01699232,0.05959954,0.11364843,0.06152159,0.05885938,0.05055570,0.07010110,0.06765938,0.07138389,0.06866483,0.05166094,0.02298356,0.10009088,0.10604957,0.06511232,-0.02122484,0.06690931,0.04833432,0.02314882,-0.00596454,0.33708265,0.05708779,0.11014789,0.05101437,0.07714926,0.01410731,0.04372774,0.05165357,0.12593621,0.04373389,0.05793115,0.02857503,0.04557661,0.03102301,0.05569982,0.06278241,0.07086035,0.09303468,0.04444702,0.07717199,0.20918420,0.09220474,0.09289014,0.07698448,0.08957534,0.08521941,0.00352071,0.05985166,-0.00000000,0.08568597,0.04465292,0.04327849,0.07651098,0.12199668,0.09061900,0.02991949,0.05975601,0.01174380,0.10943729,0.09540897,0.06287552,0.05766684,0.01485838,0.19137880,0.08359274,0.03516744,0.08949650,0.06986281,0.04793443,0.03140971,0.20883249,0.05802589,0.13337877,0.06999286,0.06882017,0.06306260,0.04387099,0.17951019,0.05686087,0.05619629,0.08186104,0.05765809,0.03447150,0.04858828,0.16255403,0.08523840,-0.01380755,0.05162542,-0.00448884,0.06421958,0.05208373,0.14293242,0.06815841,0.09695889,0.12972854,0.15157208,0.04131240,0.01477004,0.11366040,0.03605032,0.04775873,0.10226429,0.07685957,0.01185703,0.05933955,0.06796125,0.08825906,0.04061024,0.05414018,0.12235656,0.12248281,0.02215000,0.06520031,0.06438770,0.02345303,0.05791559,0.02300878,0.13600643,0.07343227,0.02046166,0.07868998,0.09189956,0.10540013,0.04187844,0.09937236,0.10773803,0.08349771,0.02531853,0.04082398,0.09810332,0.04757822,0.07170144,0.12622906,0.14619513,0.04995067,0.02614182,0.07074696,0.06244370,0.13155611,0.00263548,0.05598326,0.13333350,0.10289721,0.02860320,0.00000000,0.04104165,0.02935541,0.03342621,0.09429992,0.07285380,0.04825951,0.04017114,0.00675477,0.07641806,0.10451899,0.03444944,0.01043343,0.14057918,0.06630927,0.06287733,0.02122026,0.08644392,0.03366774,0.06293532,0.07809327,0.04653528,0.11699057,0.02602392,0.08708474,0.04622619,0.06264745,0.05861157,0.10346863,0.09040463,0.06631042,0.05858877,0.01908111,0.05956250,0.09551758,0.06835653,0.12576136,0.12439394,0.06723116,-0.00629609,0.08003145,0.13873212,0.10907935,0.04183491,0.11128699,0.06178925,0.06908996,0.05655038,0.12526666,0.06925094,0.06421950,0.02555958,0.07464682,0.10863585,0.03814349,0.04539141,0.10298849,0.07271620,0.03907257,0.06208112,0.13162687,0.05884741,0.07202508,0.01069779,0.10979368,0.05640299,0.09079362,0.00733436,0.06033262,0.06155850,0.05547807,0.09758358,0.06519575,0.00850211,0.05006544,0.00573282,0.06356271,0.02120221,0.04762436,0.05221499,0.07511813,0.01327234,-0.01402915,0.05800021,0.11955814,0.06676725,0.06492570,0.11940929,0.12843952,0.08286074,0.06715096,0.07982747,0.10579511,0.10251965,0.02586511,0.03838428,-0.00000001,0.10780253,0.03844542,0.06457217,0.04085065,0.08791146,0.06434245,0.07237234,0.07529598,0.07138576,0.14359036,0.08618137,0.10161335,0.09141584,0.06417333,0.06512194,0.04581754,0.04804669,0.06523263,0.03569593,0.05762868,0.06938380,0.04766907,0.08598145,0.07312491,0.04062881,0.02891907,0.05861424,0.13035485,0.05500692,0.11871866,0.09179078,0.14958254,0.03766066,0.05303545,0.05218655,0.07382280,0.10430498,0.03478855,0.06218472,0.06514001,0.04112203,0.07663836,0.11147761,0.06674132,0.07364792,0.06886719,0.12504305,0.05138186,0.11979623,0.06473787,0.05649391,0.07247462,0.04208838,0.14110984,0.09230801,0.03541847,0.05929961,0.10660356,0.05195885,0.13855404,0.14376700,0.06581466,0.10773901,0.09218034
LIGHTNING,0.12672220,0.15703796,0.03701634,0.10030147,0.07955296,0.09967972,0.14635006,0.10125570,0.17954914,0.03813366,0.05047084,0.03973527,0.12387294,0.04237959,0.06321451,0.07050874,0.06483708,0.04336134,0.03787894,0.04991606,0.07160211,0.09324469,0.03117594,0.07559725,0.05658059,0.11111347,0.05670337,0.07547791,0.09315826,-0.04745533,0.06874876,0.04218494,0.07319100,0.08222707,0.05299106,0.14077885,0.08946378,0.07100654,0.08788021,0.05535390,0.02892443,0.03267652,0.05681027,0.04919593,0.08233028,0.06573652,0.10110086,0.07664616,0.10270530,0.09091765,0.08016705,0.02783383,0.02777399,0.10973570,0.07744873,0.09501003,0.09209155,0.07634050,0.05653578,0.03329537,0.08274402,0.02190288,0.07172884,0.07712978,0.09675216,0.01830728,0.06952392,0.09516824,0.06099794,0.04507344,0.08046844,0.04677697,0.08777850,0.11895520,0.07814917,0.03941113,0.05990748,0.01708958,0.07450416,0.07989212,0.12390305,0.11340145,0.05438999,0.10866313,0.07405922,0.06498879,0.10725112,0.05128553,0.05461387,0.07187527,0.05014905,0.02251884,0.12978639,0.07537528,0.02413401,0.05124989,0.05419431,-0.00726840,-0.01638608,0.25767609,0.03801903,0.08787204,0.05644094,0.12249956,0.08806383,0.03718266,0.04977664,0.07972338,0.04625612,0.08700887,0.11057800,0.04526978,0.03899253,0.05535038,0.08319163,0.08769957,0.12593077,0.07702094,0.08993109,0.07264417,0.12542677,0.09683318,0.09711833,0.07269334,0.01750548,0.02605309,0.09466336,-0.00000000,0.09575438,0.02452808,0.09732302,0.05542890,0.12460081,0.06637803,0.06018713,0.06850003,0.02991221,0.12737952,0.08487323,0.12634091,0.10069220,0.08465006,0.12533793,0.05215958,0.03569270,0.06285927,0.10584723,0.01943207,0.03807025,0.11572784,0.06803454,0.09067598,0.06834220,0.05130454,0.09057347,0.03345567,0.08511748,0.08494607,0.03583220,0.10097957,0.09620178,0.05338237,0.10421565,0.05741377,0.08638610,0.00970986,0.05913455,0.07715099,0.04338219,0.02946510,0.01456190,0.11056961,0.11183395,0.08694717,0.16441327,0.04012270,0.01571669,0.07469974,0.05193540,0.04713621,0.05642543,0.05821971,0.05712885,0.06984904,0.06901015,0.09243845,0.10816804,0.02880554,0.11754068,0.10801571,0.10108320,0.13269660,0.13586099,0.00840062,0.07461136,0.03960263,0.05254199,0.02558845,0.05610334,0.05214653,0.09019175,0.10332065,0.04757113,0.07394394,0.04946161,0.07943229,0.03513292,0.05614160,0.03880555,0.06598559,0.07034719,0.10665067,0.08422246,0.03913003,0.05457237,0.01529194,0.02746965,0.12395474,0.05234011,0.09763972,0.15945256,0.05038274,0.02770319,0.00000000,0.05535851,0.03553597,0.04499118,0.09869732,0.08146505,0.02742851,0.04388136,0.10765051,0.06749333,0.09291936,0.07515820,0.05290747,0.09564719,0.08634567,0.12239052,0.05368064,0.11682997,0.08677692,0.06036161,0.05014161,0.07451049,0.07841475,0.05284945,0.03970146,-0.00740634,0.10283045,0.07731000,0.06982816,0.03559731,0.04487588,0.06349612,0.06545589,0.06417566,0.09374648,0.01842195,0.13060056,0.12817195,0.05325200,0.05485298,0.02588602,0.08608314,0.08865822,0.10265404,0.12205922,0.02999895,0.09649983,0.09418259,0.10229237,0.04017532,0.05252235,0.03161182,0.06709347,0.11500311,0.11589564,0.04936159,0.02541464,0.03192186,0.05291426,0.10862073,0.10987807,0.07861257,0.07714296,0.05400021,0.10679442,0.06290682,0.09842197,0.05201774,0.09950175,0.07601491,0.03588062,0.07472158,0.08892079,-0.01063224,0.03611728,0.07427883,0.09681570,-0.00992419,0.05369089,0.07829562,0.07318328,0.00883656,0.04404159,0.01867140,0.09626175,0.06276326,0.05991493,0.13467281,0.09388939,0.06886131,0.06400385,0.05746301,0.05139589,0.03856288,0.02994211,0.06709716,-0.00000001,0.07120055,0.09739427,0.04303202,0.05184701,0.11634524,0.11089420,0.10394510,0.09419718,0.12359458,0.12194217,0.10979294,0.05315014,0.10931300,0.09454105,0.09242292,0.05211240,0.03111845,0.04893246,0.03819451,0.04504764,0.04048697,0.09349141,0.09388632,0.08618219,0.09554547,0.06825425,0.07648347,0.10035335,0.07231590,0.10280548,0.12098581,0.16493008,0.01248895,0.08825731,-0.00206111,0.04380367,0.08987875,0.06201390,0.05786013,0.06957843,0.08377126,0.08709324,0.16234817,0.05046641,0.03113810,0.05549274,0.13994271,0.05032125,0.05380956,0.08224504,0.04131366,0.07672507,0.05023284,0.12718301,0.08761507,0.06839548,0.01692649,0.11714278,0.01961171,0.08572736,0.16479030,0.03334255,0.13134348,0.09953968
STAR,0.09635504,0.05996332,0.04906977,0.10972760,0.05091155,0.05793412,0.17841431,0.12261872,0.10889434,0.03172280,0.10752374,0.09747992,0.08464056,0.03835447,0.04889299,0.04440225,0.06971499,0.09820235,0.05113098,0.09565711,0.06347631,0.09229182,0.07431953,0.10996903,0.04834413,0.10085236,0.07754084,0.08861976,0.18388177,-0.00481667,0.07452054,0.09988022,0.06373956,0.10632633,0.05722590,0.07400629,0.05283394,0.05688929,0.06278054,0.09768447,0.06653281,0.03560310,0.07641462,0.04373433,0.04649811,0.07073406,0.03365127,0.06929006,0.16927168,0.11580795,0.04254719,0.03291941,0.02706899,0.08440174,0.09265197,0.11805730,0.06751054,0.08840870,0.04628062,0.07453401,0.14959802,0.09318790,0.04382022,0.04499254,0.14904329,0.02737869,0.05630631,0.06498425,0.02508406,0.06675076,0.05727066,0.05667599,0.09287860,0.09339037,0.10426310,0.09884757,0.12691033,0.04784475,0.11096471,0.05282933,0.06074820,0.11957579,0.06625828,0.12553677,0.09189717,0.08448676,0.06564933,0.09477615,0.08666800,0.10597952,0.02883089,0.08558752,0.11341429,0.07167397,0.02558337,0.14368898,0.03431069,0.02722277,0.06544115,0.24815370,0.06202870,0.11434893,0.08123884,0.09389380,0.07700673,0.00158776,0.04738767,0.12208362,0.10797834,0.06385110,0.05222867,0.02297429,0.05533337,0.05427474,0.02349531,0.06773061,0.07935629,0.06365661,0.05077785,0.09191503,0.06682999,0.05141924,0.08245196,0.08905470,0.01962924,0.02643788,0.06072588,-0.00000000,0.08979993,0.08489216,0.12316958,0.08892089,0.05821494,0.08817232,0.02591950,0.08748617,0.08044250,0.08495828,0.04093177,0.09178583,0.06010970,0.06686348,0.12640333,0.04293010,0.04538281,0.08432937,0.13329275,0.03813758,0.02898793,0.09353822,0.05066206,0.08202066,0.05442782,0.08175265,0.03014235,0.05200357,0.18875673,0.02418708,0.08258139,0.07709902,0.15162688,0.08719086,0.07197478,0.06274657,0.08871233,0.01471586,0.03262201,0.06380551,0.11789855,0.06792044,0.06121870,0.02849390,0.06577167,0.10015824,0.08983575,0.06427620,0.06332890,0.10850841,0.12254925,0.05888505,0.06958447,0.07519606,0.11644537,0.04621182,0.03442173,0.08406566,0.04132545,0.08479131,0.10496909,0.14152187,0.07093025,0.10653982,0.05183798,0.07721537,0.06872177,0.03247154,0.06511764,0.05192256,0.02736191,0.06798469,0.13131972,0.12272779,0.06517428,0.05094525,0.11972982,0.07619285,0.05227514,0.04470330,0.02345571,0.14036313,0.08489372,0.09622480,0.08701570,0.08891622,0.04302029,0.00562137,0.10513645,0.07786173,0.03805266,0.05010613,0.10856525,0.01869604,0.02308521,0.00000000,0.04782497,0.02109802,0.02343885,0.11035443,0.15375918,0.03987567,0.08278471,0.04999609,0.07110379,0.09034856,0.06067489,0.06111669,0.17922346,0.06008609,0.11702140,0.06091893,0.09178014,0.11221734,0.06373034,0.06969289,0.05705163,0.04877923,0.03521767,0.04455479,0.00847898,0.08160932,0.17212388,0.13061039,0.02248170,0.04702527,0.12163521,0.06587832,0.07429662,0.06355136,0.04497411,0.10616825,0.12139238,0.10092397,0.03643226,0.05671031,0.09669768,0.11832479,0.06966078,0.11502132,0.04902076,0.03394675,0.08664498,0.12940723,0.07046840,0.06239034,0.05922214,0.07279748,0.09613241,0.03308389,0.07018513,0.09006507,0.07365791,0.07672063,0.10868548,0.06923202,0.07509349,0.08234785,0.06078875,0.09013298,0.04730046,0.07821283,0.08319765,0.14443839,0.05491707,0.07428548,0.12003416,0.08908864,0.09329756,0.08806831,0.06479587,0.09823371,0.13016954,0.13153301,0.06885346,0.05305046,0.02794610,0.05707215,0.07562329,0.10206864,0.10127293,0.05776242,0.07133259,0.09054804,0.10851347,0.06505567,0.07430278,0.08360594,0.07522859,0.09105752,0.08465926,-0.00000001,0.09957016,0.09618782,0.09664790,0.06342696,0.08800375,0.06447350,0.07939244,0.09906580,0.05267785,0.15607347,0.06806944,0.09913033,0.11728545,0.10680437,0.10605586,0.09324215,0.06546707,0.05584082,0.00031725,0.16333728,0.01138067,0.10005211,0.06288019,0.06394946,0.06309565,0.10877626,0.04939098,0.13568003,0.11136555,0.06808046,0.09745336,0.12207985,0.02799398,-0.00972259,0.07964031,0.04763503,0.13671972,0.10136382,0.06378290,0.13555345,0.06340328,0.08258668,0.04782556,0.04875587,0.09399027,0.09159409,0.08048619,0.05659514,0.07740423,0.04035121,0.06117019,0.07608696,0.09358101,0.07870861,0.08796658,0.08138491,0.04582282,0.09455882,0.03010949,0.10614967,0.17078102,0.11314275,0.10264871,0.06212234
THUNDER,0.05193449,0.11667348,0.09991011,0.08315501,0.10087724,0.06002967,0.17464545,0.10347002,0.11338709,0.03441660,0.05823916,0.01393024,0.13341278,0.02968808,0.06158556,0.06239738,0.10243920,0.04387854,0.06127945,0.09734931,0.04517065,0.09499202,0.07180862,0.05552736,0.05514570,0.11111347,0.04121323,0.07496291,0.12266832,-0.00335299,0.05785835,0.07764250,0.19735241,0.07399850,0.06083516,0.10742362,0.07527902,0.08270346,0.07589015,0.04474513,0.02506665,0.01054164,0.05413117,0.03142795,0.09504418,0.05211690,0.06248775,0.07788321,0.07717112,0.09807307,0.06041707,0.04768086,0.02414908,0.07906187,0.13327105,0.06719241,0.07693694,0.05517416,0.04764817,0.07548515,0.09447219,0.02492625,0.02549217,0.07712978,0.18208674,0.07821505,0.07314956,0.09516824,0.06099794,0.10464670,0.03186800,0.10304271,0.06215178,0.06012768,0.07506467,0.06389830,0.10372890,-0.02693675,0.08878534,0.06069063,0.08808915,0.00012860,0.01923892,0.04440398,0.08407304,0.05803758,0.09722485,0.09726502,0.12211423,0.08900099,0.04634844,0.12097643,0.11952525,0.07410979,0.03967545,0.13448940,0.05971711,0.04725317,0.01488282,0.26951233,0.05532489,0.10303124,0.05943822,0.05732319,0.09364729,-0.00468613,0.02388849,0.10556927,0.04364093,0.01109759,0.03215964,0.04092905,0.08955442,0.06452037,0.11041794,0.08651534,0.04930767,0.06970689,0.04322270,0.05697364,0.11758560,0.06644340,0.07627892,0.05536326,0.11164292,0.02605309,0.07886469,-0.00000000,0.09760216,0.04958891,0.09457633,0.13651368,0.11631088,0.05261848,0.06482596,0.00287888,0.06338112,0.07608705,0.07137374,0.07223511,0.04134843,0.04228242,0.14792427,0.08686857,0.04350457,0.12909701,0.05267104,0.04961755,0.03659871,0.08695281,0.04789380,0.09601171,0.05898787,0.04003609,0.05470246,0.07200100,0.05688055,0.06833532,0.04468787,0.07634546,0.09717634,0.04751539,0.06499223,0.08707059,0.06460015,0.02188566,0.06949521,0.05796389,0.02647881,0.04606938,0.03057078,0.11433998,0.13555858,0.09559234,0.12653351,0.05957439,0.05509248,0.05847812,0.04261657,0.04713621,0.12122151,0.08206850,0.04692075,0.04970919,0.11339131,0.06166163,0.10953903,0.06381169,0.15331067,0.07789245,0.10108320,-0.01418442,0.10436642,0.00719878,0.05282626,0.05523578,0.08956132,0.06763430,0.08400835,0.04562941,0.15820467,0.07310356,0.08708210,0.02311932,0.10806338,0.07947009,0.05887197,0.06095568,0.04324405,0.06918970,0.06248112,0.08837774,0.11114497,0.08569591,0.07334837,0.00226326,0.03675971,0.11321069,0.01873525,0.06990250,0.16303168,0.02062180,0.04236682,0.00000000,0.08338705,0.10797448,-0.00470219,0.11138476,0.07564986,0.07194874,0.02429053,0.08589646,0.07326446,0.09020905,0.00722688,0.04111072,0.08232611,0.07095094,0.09001528,0.03819718,0.15996578,0.04548532,0.07571045,0.07840600,0.07022808,0.05363172,0.05716226,0.02042837,0.02487538,0.10560651,0.10888508,0.06422455,0.04339740,0.07015685,0.09241131,0.08370457,0.06078935,0.07695413,0.09940413,0.11585306,0.14840662,0.09486572,0.00023312,0.05567471,0.06872760,0.13647872,0.12065472,0.16593145,0.05633076,0.09649983,0.08229760,0.09882743,0.06599305,0.07869995,0.05534278,0.03834946,0.11444943,0.11589564,0.06328604,0.05946798,0.03419869,0.05768790,0.14355895,0.06537214,0.03410601,0.08751753,0.01807849,0.05961023,0.07353487,0.06803583,0.02784969,0.10032893,0.05018920,0.09618159,0.11539782,0.01985717,0.02745158,0.12168345,0.07666580,0.12868264,0.02988529,0.05094362,0.08994609,0.03268410,0.07821076,0.04716416,0.02574047,0.10981600,0.04171860,0.02629263,0.14036547,0.07967327,0.06744671,0.04752361,0.04507433,0.10296091,0.04406294,0.02831010,0.06677394,-0.00000001,0.03809989,0.02812624,0.03845522,0.01075953,0.09586391,0.12557651,0.08876219,0.09419718,0.11503526,0.15467548,0.06519815,0.02974738,0.07647644,0.11873592,0.10179593,0.04843359,0.04540127,0.06973701,0.03857036,0.03300389,0.05591157,0.09584577,0.12282339,0.07764751,0.06260401,0.03580471,0.05203716,0.08105728,0.03223371,0.11011419,0.10616919,0.12685244,0.01995987,0.06395540,0.09202112,0.12407397,0.07168081,0.06857006,0.07934522,0.09312870,0.04364727,0.09806865,0.07663210,0.06387023,0.11165971,0.08058107,0.10770707,0.06429972,0.01793925,0.05751953,0.05115296,0.09153573,0.05290344,0.08093003,0.11831281,0.08868584,0.07787742,0.06985313,0.02054341,0.10087080,0.14871866,0.05498701,0.11082064,0.06157491
