,dim_0,dim_1,dim_2,dim_3,dim_4,dim_5,dim_6,dim_7,dim_8,dim_9,dim_10,dim_11,dim_12,dim_13,dim_14,dim_15,dim_16,dim_17,dim_18,dim_19,dim_20,dim_21,dim_22,dim_23,dim_24,dim_25,dim_26,dim_27,dim_28,dim_29,dim_30,dim_31,dim_32,dim_33,dim_34,dim_35,dim_36,dim_37,dim_38,dim_39,dim_40,dim_41,dim_42,dim_43,dim_44,dim_45,dim_46,dim_47,dim_48,dim_49,dim_50,dim_51,dim_52,dim_53,dim_54,dim_55,dim_56,dim_57,dim_58,dim_59,dim_60,dim_61,dim_62,dim_63,dim_64,dim_65,dim_66,dim_67,dim_68,dim_69,dim_70,dim_71,dim_72,dim_73,dim_74,dim_75,dim_76,dim_77,dim_78,dim_79,dim_80,dim_81,dim_82,dim_83,dim_84,dim_85,dim_86,dim_87,dim_88,dim_89,dim_90,dim_91,dim_92,dim_93,dim_94,dim_95,dim_96,dim_97,dim_98,dim_99,dim_100,dim_101,dim_102,dim_103,dim_104,dim_105,dim_106,dim_107,dim_108,dim_109,dim_110,dim_111,dim_112,dim_113,dim_114,dim_115,dim_116,dim_117,dim_118,dim_119,dim_120,dim_121,dim_122,dim_123,dim_124,dim_125,dim_126,dim_127,dim_128,dim_129,dim_130,dim_131,dim_132,dim_133,dim_134,dim_135,dim_136,dim_137,dim_138,dim_139,dim_140,dim_141,dim_142,dim_143,dim_144,dim_145,dim_146,dim_147,dim_148,dim_149,dim_150,dim_151,dim_152,dim_153,dim_154,dim_155,dim_156,dim_157,dim_158,dim_159,dim_160,dim_161,dim_162,dim_163,dim_164,dim_165,dim_166,dim_167,dim_168,dim_169,dim_170,dim_171,dim_172,dim_173,dim_174,dim_175,dim_176,dim_177,dim_178,dim_179,dim_180,dim_181,dim_182,dim_183,dim_184,dim_185,dim_186,dim_187,dim_188,dim_189,dim_190,dim_191,dim_192,dim_193,dim_194,dim_195,dim_196,dim_197,dim_198,dim_199,dim_200,dim_201,dim_202,dim_203,dim_204,dim_205,dim_206,dim_207,dim_208,dim_209,dim_210,dim_211,dim_212,dim_213,dim_214,dim_215,dim_216,dim_217,dim_218,dim_219,dim_220,dim_221,dim_222,dim_223,dim_224,dim_225,dim_226,dim_227,dim_228,dim_229,dim_230,dim_231,dim_232,dim_233,dim_234,dim_235,dim_236,dim_237,dim_238,dim_239,dim_240,dim_241,dim_242,dim_243,dim_244,dim_245,dim_246,dim_247,dim_248,dim_249,dim_250,dim_251,dim_252,dim_253,dim_254,dim_255,dim_256,dim_257,dim_258,dim_259,dim_260,dim_261,dim_262,dim_263,dim_264,dim_265,dim_266,dim_267,dim_268,dim_269,dim_270,dim_271,dim_272,dim_273,dim_274,dim_275,dim_276,dim_277,dim_278,dim_279,dim_280,dim_281,dim_282,dim_283,dim_284,dim_285,dim_286,dim_287,dim_288,dim_289,dim_290,dim_291,dim_292,dim_293,dim_294,dim_295,dim_296,dim_297,dim_298,dim_299,dim_300,dim_301,dim_302,dim_303,dim_304,dim_305,dim_306,dim_307,dim_308,dim_309,dim_310,dim_311,dim_312,dim_313,dim_314,dim_315,dim_316,dim_317,dim_318,dim_319,dim_320,dim_321,dim_322,dim_323,dim_324,dim_325,dim_326,dim_327,dim_328,dim_329,dim_330,dim_331,dim_332,dim_333,dim_334,dim_335,dim_336,dim_337,dim_338,dim_339,dim_340,dim_341,dim_342,dim_343,dim_344,dim_345,dim_346,dim_347,dim_348,dim_349,dim_350,dim_351,dim_352,dim_353,dim_354,dim_355,dim_356,dim_357,dim_358,dim_359,dim_360,dim_361,dim_362,dim_363,dim_364,dim_365,dim_366,dim_367,dim_368,dim_369,dim_370,dim_371,dim_372,dim_373,dim_374,dim_375,dim_376,dim_377,dim_378,dim_379,dim_380,dim_381,dim_382,dim_383,dim_384,dim_385,dim_386,dim_387,dim_388,dim_389,dim_390,dim_391,dim_392,dim_393,dim_394,dim_395,dim_396,dim_397,dim_398,dim_399,dim_400,dim_401,dim_402,dim_403,dim_404,dim_405,dim_406,dim_407,dim_408,dim_409,dim_410,dim_411,dim_412,dim_413,dim_414,dim_415,dim_416,dim_417,dim_418,dim_419,dim_420,dim_421,dim_422,dim_423,dim_424,dim_425,dim_426,dim_427,dim_428,dim_429,dim_430,dim_431,dim_432,dim_433,dim_434,dim_435,dim_436,dim_437,dim_438,dim_439,dim_440,dim_441,dim_442,dim_443,dim_444,dim_445,dim_446,dim_447,dim_448,dim_449,dim_450,dim_451,dim_452,dim_453,dim_454,dim_455,dim_456,dim_457,dim_458,dim_459,dim_460,dim_461,dim_462,dim_463,dim_464,dim_465,dim_466,dim_467,dim_468,dim_469,dim_470,dim_471,dim_472,dim_473,dim_474,dim_475,dim_476,dim_477,dim_478,dim_479,dim_480,dim_481,dim_482,dim_483,dim_484,dim_485,dim_486,dim_487,dim_488,dim_489,dim_490,dim_491,dim_492,dim_493,dim_494,dim_495,dim_496,dim_497,dim_498,dim_499,dim_500,dim_501,dim_502,dim_503,dim_504,dim_505,dim_506,dim_507,dim_508,dim_509,dim_510,dim_511
BAG,0.29171535,0.39760107,0.09577758,0.50913692,0.76000345,0.34834087,0.22233963,-0.79269218,0.13555792,0.47584456,0.37426201,0.43543926,0.11705035,0.09838143,0.47785276,0.29617783,0.49911800,0.21396911,0.16412255,0.25475895,0.44571206,0.29180130,0.47837746,0.31768373,0.20497793,0.35525313,0.21128601,0.35455921,0.49299553,0.54011357,0.19103941,0.21587086,0.48611972,0.43724912,0.34646550,0.47329968,0.15645440,0.31832692,0.21459426,0.18491834,0.51841742,0.23796812,0.36633968,0.22368127,0.39282599,0.35814664,0.28537136,0.40614262,0.32806832,0.38877907,0.40605778,0.00995930,0.30495244,0.06846520,0.44492230,0.29555649,0.22730492,0.25260296,0.44093245,0.34536225,0.40007025,0.16012640,0.47146267,-0.05493484,0.24806164,0.05008123,0.46325281,0.45999163,0.51489204,0.26095441,0.43081942,0.26929364,0.15033884,0.45338008,0.23865888,0.02116240,0.39436862,0.32031408,0.17039739,0.19779919,0.07202239,0.19259174,0.31498939,0.62475514,0.21390037,0.31977868,0.35915521,0.37143907,0.55952400,0.22250953,0.35674018,0.29357597,-1.42854893,0.61913788,0.09292611,0.39581960,0.48402894,0.62244946,0.31436536,0.35930085,0.48323113,0.38942811,0.59927911,0.23698722,0.47373220,0.46581513,0.35108155,0.22514381,0.35967162,0.30495200,0.47034141,0.95421451,0.20691289,0.87827390,0.22207342,0.11687059,0.23054473,0.57411748,0.21369660,0.13738154,0.36192784,0.59873080,0.24451140,0.55032468,0.52020520,0.14414120,0.23116215,0.24957754,0.50541890,0.51715732,0.47647017,0.55008417,0.15795434,7.57882118,0.40849438,0.34121713,0.17721863,-0.00329046,0.41067031,0.29906502,0.51596618,0.36310112,0.32334331,0.41679150,0.07648336,0.57592738,0.26153454,0.10827649,0.25630727,0.34911415,0.36983755,0.13183476,0.26007316,0.51329583,0.17201215,0.17179051,0.18301076,0.22401550,0.15762185,0.43965316,0.24552943,0.32008353,0.34012890,0.27051193,0.26709878,0.45959464,0.39840555,0.41064376,0.28108445,0.29839942,0.52048653,0.40616775,0.12779893,0.52011985,0.18695064,0.29516548,0.30946270,0.34099787,0.44990066,0.26820773,0.66736317,0.26332510,0.58038098,0.17748429,0.13447934,0.32197902,0.60498756,0.28863186,0.34906670,0.23318639,0.52810770,0.35433006,0.08521854,0.33023667,0.43941173,0.30048433,0.15900037,0.46591905,0.41705212,0.31071332,0.36275697,0.15770528,0.45195347,0.42287120,0.40803784,0.28146818,0.26461145,0.05401485,0.42377794,0.34921250,0.73026693,0.44926462,0.07488223,0.46099478,0.59129339,0.39547047,0.34006283,0.32364455,0.45589399,0.44938239,0.53768802,0.42767492,0.37623957,0.06851060,0.55471456,0.35725296,0.32723382,0.55330205,0.32945126,0.19978189,0.56269431,0.42885110,0.43014154,0.40509745,0.41984978,0.66540158,0.60541004,0.45640135,0.21965367,0.26692995,0.31947890,0.51148272,0.30720538,0.31433547,0.15905033,0.45060420,0.31514111,0.30996439,0.37948170,0.25083527,0.25933456,0.38457581,0.37102443,0.36492309,0.15009779,0.48946482,0.32982472,0.16414116,0.37290895,0.29678825,0.44715592,0.16082831,0.32712832,0.35245427,0.42378375,0.24111825,0.34770346,0.25609952,0.21589439,0.16217238,0.59440213,0.15414964,0.22315396,0.19325225,0.22646683,0.48139399,0.22258376,0.26883522,0.21611521,0.32473990,0.51521415,0.24585880,0.52573627,0.23657946,0.28357372,0.67740005,0.44276714,0.28559828,0.43100396,0.14092888,0.70858425,0.50724328,0.41039777,0.26002088,0.21850727,0.17230931,0.29577586,0.48441714,0.35561693,0.31603056,0.41100225,0.18036707,0.18421988,0.25903910,0.40410283,0.59871727,0.19996330,0.34488389,0.21369867,0.30551139,0.07791094,0.45019835,7.57624912,0.43936726,0.32905993,0.18805529,0.14036945,0.29623824,0.40755361,0.42803529,0.63964093,0.66600770,0.49838254,0.36466435,0.43481350,0.46521753,0.17837237,0.49173295,0.38487470,-1.99157381,0.82941157,0.43782735,0.46856445,0.31329706,0.52163464,0.40881473,0.42751461,0.43318006,0.32361749,0.10215800,0.55145800,0.29503983,0.50858223,0.31769165,0.15770297,0.31685743,0.37895155,0.59472263,0.49773827,0.24780856,0.29862648,0.20050992,0.42322698,0.34306937,0.11766087,0.39021000,0.51037043,0.52353138,0.27732176,0.50887710,0.38005313,0.24793829,0.29790884,0.31820652,0.41789648,0.03010174,0.33572572,0.47408277,0.16343109,0.39789090,0.09182504,0.24596141,0.28842181,0.39833230,0.24555497,0.34182715,0.30667493,0.31147754,0.44519073,0.17767783,-0.00470223,0.30239901,0.10146411,0.11960807,0.39860061,0.52454740,0.39410090,0.52860093,0.29301971,0.38008901,0.30609706,0.27764645,0.50157493,0.38160384,0.40101951,0.53603292,0.39196032,0.08110202,0.13909441,0.80310738,0.17541395,0.34443027,0.54285151,0.34610313,0.11726597,0.16565803,0.38450959,0.38246387,0.50184822,0.13938525,0.42673635,0.50502360,0.35614154,0.55183268,0.46371934,0.36437804,0.23913598,0.25688335,0.31260291,0.48186499,0.40421131,0.39396548,0.35686451,0.53958750,0.32515097,0.51757675,0.18836139,0.14558521,0.37271237,0.35438937,0.43455851,0.27368873,0.48758999,0.28101295,0.38482025,0.19761576,0.14269906,0.32305273,0.29014635,0.19063570,0.13888037,0.28170690,0.28753376,0.27923664,0.47020993,0.02764526,0.14885902,0.04552575,0.37124023,0.48456618,0.16860856,0.43272078,0.50794697,0.65250260,0.53515118,0.41611561,0.39915514,0.21216355,0.30680490,0.29881933,0.38582045,0.37919649,0.30794641,0.51432502,0.67981642,0.42202687,0.51905721,0.19225734,0.15812440,0.11878799,0.34541461,0.11717574,0.13434458,0.16584092,0.32758656,0.43214595,0.24817871,0.31819496,0.71832627,0.58744341,0.52398175,-0.22359093,0.25643784,0.06221633,0.40977672,0.42003068,0.50037271,0.56935215,0.35462740,0.20222555,0.41662729,0.30532500,0.25937891,0.82679445,0.31357011,0.37595356,0.73873538,0.31472144,0.29024473,0.37405759,0.22341278,0.10571650,0.46051955,0.51782286,0.40523458,0.47710383,0.30783722,0.10636814,0.20707846,0.29441866,0.29947430,0.31333050
CLOUDS,0.18968135,0.35251451,0.10350931,0.46897823,0.41452271,0.41074720,0.05885244,0.29532143,0.23738748,0.49308529,0.40546817,0.53328907,0.18811026,0.04203461,0.16004789,0.66932803,0.27624854,0.29564455,0.13616812,0.36209375,0.58914745,0.26669690,0.35381585,0.33248338,0.34589279,0.42885008,0.24681851,0.51636857,0.09487431,0.26657933,0.46140286,0.30986235,0.33482218,0.37269637,0.17943449,0.42912543,0.29298237,0.29159158,0.66688299,0.17952116,0.58119738,0.12899998,0.65254813,0.42368910,0.56531680,0.42232049,0.12793289,0.23927623,0.50652003,0.25370708,0.35485837,0.17001686,0.20296979,0.11066084,0.12123911,0.27529156,0.07550333,0.26178569,0.18950845,0.26982754,0.23487233,0.24606967,0.48583880,0.01154001,0.21128416,0.18799254,0.37073576,0.33795935,0.18644825,0.16884352,0.61152238,0.09137565,0.25696620,0.51742637,0.34261975,0.12289212,0.44032577,0.03706459,0.03747089,0.15231818,0.37267864,0.39832601,0.26399523,0.44357994,0.75241935,0.46909696,0.11673535,0.19244179,0.52387428,0.34745267,0.14415888,0.61021507,-1.29642463,0.33924428,0.39832294,0.45331636,0.25552461,0.57018322,0.29487938,-0.19837044,0.26349956,0.24436727,0.47321835,0.28245327,0.09505912,0.16974863,0.23652731,0.31980988,0.00426322,0.19699851,0.63036859,0.63858533,0.40502107,0.21306406,0.35324112,0.44271648,0.11202762,0.47575563,0.21962376,0.23870081,0.52143455,0.00494494,0.34543258,0.06438939,0.54931962,0.11976211,0.24295235,0.33222985,0.41983438,0.56972921,0.21139160,0.39864039,0.26439109,8.02845478,0.31264791,0.34158722,-0.02329990,0.12112603,0.49373934,0.38131094,0.25847512,0.26542741,0.59303516,0.44781905,0.12270458,0.43128058,0.21064603,0.35546571,0.28063360,0.27903405,0.34482062,0.14926195,0.31414264,0.44274229,0.10603978,0.28817281,0.27591029,0.44684789,0.20475927,0.30923370,0.37620887,0.39848536,0.17389597,0.19675677,0.31814983,0.51581389,0.47383353,0.72625399,0.37189010,0.17274721,0.42395929,0.37202266,0.16734624,0.15513925,0.22739545,0.22559890,-0.07182173,0.32014498,0.16711858,0.25539404,0.49800980,0.24897341,0.13022012,0.04998753,0.25133565,0.31431970,0.48912561,0.56978691,0.26959679,0.08706418,0.25893387,0.16104706,0.16470978,0.14216883,0.41984797,0.55247068,0.22415344,0.24183397,0.34096962,0.05954509,0.35597217,0.33353153,0.18734410,0.68464988,0.59413159,-0.02972780,0.49504879,0.12395154,0.20047553,0.52034378,0.38748887,0.52717203,0.06829434,0.34743264,0.32186025,0.33891228,0.05004840,0.33484268,0.40395609,0.10154151,0.13241644,-0.05277294,0.25368369,0.13322265,0.22017293,0.39393005,0.54398692,0.29446447,0.37128139,0.15485649,0.39185324,0.20946912,0.28795424,0.22317298,0.57168365,0.56289208,0.21635248,0.27244174,0.32084674,0.07568073,0.37109983,0.60315913,0.26482862,0.26873285,0.15802287,0.64367133,0.32418293,0.28978065,0.35233703,0.22950481,0.27378550,0.23186152,0.21048322,0.42182124,0.10070778,0.66052639,0.22704557,0.21453911,0.25200951,0.50673431,0.61137211,0.44081864,-0.05480716,0.36435127,0.22714883,0.32083338,0.43048236,0.34443921,0.09109088,0.20339476,0.55715513,0.27970183,0.41044736,0.15048049,0.36955366,0.21868411,0.23209040,0.33050177,0.57969147,0.39417687,0.35661119,0.14965877,0.34759021,0.22709239,0.13517669,0.34441286,0.32548153,0.39620656,0.21890754,0.07204941,0.29636368,0.23677458,0.33221245,0.17269500,0.11760566,0.16818701,0.35728726,0.39017466,0.40123352,0.16452955,0.34928718,0.38279629,0.16546598,0.38157097,0.32012197,0.63480097,0.21256146,0.28927326,0.33011156,0.30022332,0.20832033,0.19914439,8.02071476,0.19731383,0.10031085,0.26659405,0.21757707,0.36272353,0.51700836,0.18663889,0.45441645,0.66853130,0.88110006,0.44986099,0.31335363,0.24963757,0.25100094,0.24636076,0.18016019,-1.38374162,0.17600676,0.43559939,0.37287784,0.29167208,0.26115456,0.39217937,0.41968712,0.21921276,0.21509761,0.21261203,0.24286522,0.17805536,0.49162659,0.36973971,0.31077948,0.31631982,0.48263624,0.41741291,0.32766750,0.32925439,0.10539877,0.24646418,0.28874695,0.24648216,0.13052802,0.39318135,0.62319493,0.12629952,0.25522506,0.49413162,0.30167648,0.39658752,0.45748371,0.28825092,0.42836922,-0.07861463,0.26667583,0.46657431,0.37242466,0.41477764,0.33804548,0.39630777,0.29212183,0.52778631,0.02927413,0.29572791,0.11166113,0.42585319,0.18290029,0.35017022,0.02654198,0.27491960,0.17944978,0.14525075,0.40456679,0.29451990,0.29110008,0.30801064,0.30769786,0.27715304,0.50232410,0.26979652,0.15509474,0.14830717,0.28017870,0.45381960,0.08835486,0.19431196,0.31233269,0.78819484,0.36764890,0.27335948,0.22822347,0.29247361,0.26477286,0.32293957,0.29634789,0.15995829,0.34322080,0.14605285,0.60274577,0.32026419,0.39486036,0.44862738,0.42128173,0.25723422,-0.00135325,-0.11014260,0.31972677,0.49559760,0.34063295,0.50102967,0.34978369,0.26974872,0.26788589,0.27675647,0.03147914,0.31917974,0.34682384,0.40373302,0.27564901,0.16344221,0.20709598,0.33652490,0.45531392,0.49722272,0.22549166,0.39436617,0.38475814,0.46487144,0.06133346,0.18292376,0.29024822,-0.01152206,0.32192495,0.31173298,0.21665294,0.12094256,0.09767578,0.25814906,0.48229104,0.49986222,0.26263165,0.41748339,0.34613901,0.32737234,0.36233550,0.27913436,0.17713343,0.03137033,0.30131420,0.43114513,0.16868792,0.27841291,0.48944601,0.25954759,0.51188517,0.09945937,0.12498391,0.25007617,0.30929312,0.38617271,0.28015718,0.15105191,0.22873974,0.43999085,0.33653331,0.31181455,0.26791152,0.40855074,0.51254594,-0.30094469,0.25824550,0.28520739,0.31351683,0.23779365,0.47774559,0.11284102,0.48907074,0.33822927,0.33115691,0.31197867,0.42322418,1.04409432,0.43736038,0.59306830,0.48460671,0.27696046,0.19699575,0.24403183,0.24418370,0.25762114,0.37673834,0.41900408,0.59966189,0.14165081,0.12021245,0.02251079,0.02823983,0.19667748,0.13251293,0.06614707
DRAGONFLY,0.26350546,0.22415739,0.11779720,0.52851415,0.16387202,0.13588496,0.26353186,-0.40257180,0.18667418,0.46152389,0.56417620,0.75554842,0.37105301,0.13451892,0.43138772,0.41272101,0.35519961,0.15303794,0.18784153,0.31921589,0.59794617,0.38972685,0.50309384,0.82021028,0.26621079,0.38835439,0.06346583,0.32574949,0.16925453,0.34898442,0.24849766,0.19716235,0.45550865,0.48851556,0.15979975,0.41895077,0.49524340,0.27955565,0.20988870,0.03576134,0.48742297,0.16496828,0.38203838,0.20808218,0.28882825,0.40870091,0.23086987,0.27979934,0.35228157,0.34330091,0.18632738,0.37883922,0.17136805,0.15083201,0.55875564,0.29612768,0.27734619,0.29156554,0.20490056,0.52510077,0.30345991,0.18002144,0.26345652,0.04969174,0.36934051,-0.02426401,0.10969693,0.52035582,0.45765862,0.27311990,0.37294757,-0.02343510,0.32859513,0.71431899,0.20940951,0.16903470,0.31255734,0.18956208,0.08983569,0.17507559,0.30241227,0.43696123,0.43719193,0.59141541,0.11223368,0.19023502,0.20367116,0.06019844,0.59302127,0.28595594,0.17173268,0.55289555,-1.27638793,0.75159508,0.18032318,0.36064762,0.34989834,0.52542526,0.40887257,-0.00893304,0.41054556,0.35159534,0.54025233,0.08602864,0.27541956,0.14177731,0.58373797,0.45382771,0.30691457,0.42114338,0.50538021,0.83912933,0.32594994,0.21008000,0.22068109,0.19814152,0.02170505,0.52385676,0.31302866,0.35269386,0.50420338,0.22974133,0.16080916,0.41071749,0.36899096,0.28515777,0.30946058,0.11911596,0.46858057,0.49065152,0.34802333,0.44181424,0.21546862,8.11844254,0.45416853,0.39403382,0.13107215,0.09709279,0.36396593,0.38138855,0.39688396,0.75267029,0.31963572,0.27545074,0.05030195,0.40830648,0.16461357,0.21380970,0.39873317,0.43595624,0.27030200,0.27200708,0.16530912,0.51807308,0.22647418,0.34032756,0.43998224,0.23487765,0.38400969,0.18868414,0.19792406,0.37583271,0.33616108,0.24410892,0.30169401,0.22750989,0.29719347,0.23789605,0.28980330,0.16052642,0.34689841,0.27518329,0.28779364,0.24043858,0.44581905,0.16974321,0.09311156,0.28812546,0.09824500,0.10342859,0.46890450,0.56214970,0.08104842,0.68918121,0.30605030,0.17937340,0.50086713,0.23914605,0.31655848,0.03690356,0.21081690,0.28775889,0.06327239,0.24211365,0.43344474,0.30692515,0.16302727,0.54352313,0.38965142,0.20756681,0.15772893,0.23072708,0.52475971,0.42127329,0.26478717,-0.02674009,0.32060844,0.08289531,0.25735974,0.30145690,0.43778169,0.33823514,0.36641234,0.45483226,0.34953251,0.14964901,0.16187672,0.20147982,0.10846382,0.26990339,0.23245172,0.15621504,0.12569880,0.23287326,0.51203781,0.46065578,0.50690842,0.44645771,0.36202931,0.29670784,0.33515301,0.23501962,0.38665843,0.15371954,0.41183159,0.54481441,0.54761368,0.26550770,0.22350425,0.47138008,0.19584352,0.20516995,0.37285697,0.24078076,0.10277925,0.20122650,0.11322828,0.44379848,0.33016017,0.24920796,0.06718145,0.32946163,0.41658732,0.38887623,0.08965477,0.29709792,0.47794691,0.31680149,0.40761417,0.22288384,0.15533182,0.26492101,-0.01492212,0.06360212,0.34910879,0.19549099,0.47786847,0.30158231,0.13576521,0.30975387,0.49021810,0.31409422,0.24561822,0.31220239,0.26226452,0.36229843,0.03720289,0.23681171,0.18804008,0.31549317,0.46905261,0.30085716,0.42527092,0.05957831,0.20193551,0.34883788,0.51692533,0.18064426,0.20380609,0.19161206,0.20320593,0.25244758,0.38478568,0.48012558,0.21424958,0.09671424,0.53526181,0.39125416,0.35569084,0.59383011,0.35343489,0.09798461,0.23361279,0.28683683,0.20251420,0.67931968,0.27851737,0.36837193,0.23465925,0.23310363,0.25815320,0.12483234,8.11034107,0.36169657,0.31930888,0.11760933,0.33516192,0.19434831,0.34636939,0.49247596,0.48067600,0.66492885,0.25669467,0.25495943,0.38755569,0.40249446,0.24213825,0.17648387,0.42573300,-1.59181440,0.18841890,0.45924738,0.30346492,0.53534740,0.35030201,0.36775234,0.30481777,0.31510353,0.25684151,0.14800492,0.21852124,0.10248933,0.57134050,0.40307185,0.42738247,0.21601488,0.41016647,0.37807614,0.23892327,0.41709939,0.24720104,0.06631523,0.32741490,0.49987856,0.14292940,0.42196372,0.48727551,0.08532616,0.48930022,0.50797558,0.57485509,0.25294045,0.40815106,0.53517193,0.28552401,0.16045402,0.26075658,0.69012737,0.22322874,0.26111671,0.27099422,0.32355765,0.18602094,0.41472337,0.17768379,0.35067314,0.03627750,0.19105957,0.46952200,0.33939832,0.11782007,0.19571847,0.14569294,0.24927361,0.44138849,0.26014364,0.31098473,0.32226399,0.28995246,0.32366633,0.43798661,0.29112646,0.23347864,0.55718571,0.35045603,0.54861075,0.27438617,0.14587805,0.14844806,0.62680823,0.33435097,0.31717250,0.38624465,0.60126501,0.08898402,0.21524908,0.37470379,0.29366678,0.48850480,0.12540731,0.57820171,0.25136581,0.35774878,0.50092399,0.35710701,0.31896469,0.29832017,0.24939910,0.35426542,0.57234043,0.60715145,0.55752164,0.21517324,0.27905703,0.31019688,0.21324302,0.05909128,0.40088511,0.33384356,0.36413121,0.35663953,0.38579994,0.33373734,0.31678519,0.46433800,0.38407448,0.36053538,0.41359866,0.24821880,0.05161291,0.37472785,0.17017317,0.33169016,0.12232720,0.35129541,0.32822588,0.43537140,0.15475203,0.32680100,0.34193671,0.17619462,0.36446965,0.32288125,0.49888062,0.26039624,0.23322386,0.46803260,0.29275870,0.31859758,0.19524477,0.27480033,0.23579845,0.64328951,0.48247015,0.38267657,0.22497207,0.44325486,0.21599740,0.46960524,0.26385200,0.41381767,0.29276118,0.28699481,0.19425145,0.28670266,0.23992379,0.39876494,0.44157639,0.19728306,0.21400282,0.58639026,-0.23574591,0.22884504,0.21704370,0.46499780,0.23688440,0.43943679,0.46044168,0.20334582,0.27948272,0.23446189,0.37017247,0.25017503,0.80013084,0.24238418,0.25432643,0.33451784,0.21881303,0.25865877,0.31393844,0.34610224,0.27890906,0.29595950,0.46403486,0.51777548,0.34462300,0.24180983,0.19429867,0.17238490,0.36301425,0.35366157,0.06455865
EARTH,0.45030385,0.44305545,0.35582560,0.23105264,0.17416489,0.25124583,0.12518802,-0.61266726,0.25847027,0.56352526,0.62794280,0.42894912,0.35131645,0.13300996,0.46360782,0.37917659,0.36814135,0.36240819,0.03227816,0.50274521,0.75387955,0.28750151,0.63364017,0.31283554,0.27117068,0.38522822,0.17406985,0.32648924,0.19315696,0.39842314,0.46410567,0.17398293,0.11250857,0.47912115,0.34122685,0.50187469,0.38303500,0.41476560,0.35118958,0.08795020,0.22543925,0.24111106,0.32672969,0.26806086,0.28809476,0.44616023,0.41317329,0.34158370,0.53184056,0.55683208,0.29260409,0.15714367,0.26816645,0.20241430,0.26231143,0.39002326,0.18835236,0.41084689,0.20670858,0.38241354,0.29482412,0.13032177,0.32416615,0.11518083,0.29785863,-0.01243130,0.28111967,0.22582287,0.15910952,0.12576723,0.59596825,0.20039944,0.45077991,0.34703627,0.35049546,0.13376543,0.50969493,0.29197952,0.11996636,0.01448145,0.29679912,0.47578460,0.42774546,0.65248019,0.34865439,0.41121832,0.29484236,0.20953047,0.41962725,0.43140846,0.27573857,0.39313167,-1.44873464,0.59863585,0.14418082,0.30915534,0.51695114,0.47871828,0.25060463,0.04616058,0.56478292,0.45418212,0.60929585,0.10791184,0.27343073,0.24954796,0.56879312,0.36549908,0.35094738,0.32729957,0.50569266,0.63504332,0.19919303,0.58252800,0.26346847,0.11039645,0.36086074,0.49291599,0.21484853,0.11095889,0.49385113,0.01304033,0.20104091,0.36772794,0.43528491,0.12126889,0.43881255,0.42581433,0.50462973,0.64285737,0.49821594,0.57370150,0.25613177,8.64844513,0.44425640,0.48758975,0.14016902,0.12360831,0.61897308,0.20705692,0.23906495,0.23335791,0.43188056,0.29697612,-0.04207943,0.42283434,0.19450565,0.37604615,0.16320519,0.21180059,0.40767923,0.26577017,0.56746072,0.49914095,0.33825880,0.25215751,0.26136246,0.46041688,0.21248975,0.58769906,0.25763845,0.19237044,0.19740042,0.22544135,0.45769662,0.45531797,0.22378288,0.39097831,0.36283681,0.34017134,0.34806597,0.29216161,0.33583477,0.31796604,0.20943020,0.67896897,0.04251247,0.39457542,0.30852580,0.26187813,0.52243453,0.32240933,0.37751681,0.24639402,0.24870114,0.29828078,0.47970670,0.38835120,0.26297361,0.17769572,0.36181974,0.30180794,0.24348879,0.56008863,0.07728413,0.44820371,0.16568732,0.39403760,0.48514706,0.23082300,0.42973965,0.22032295,0.39408445,0.40993503,0.43138355,0.26000404,0.22496949,0.24673027,0.30346459,0.40685999,0.75114852,0.57669693,0.67515373,0.30584186,0.45997274,0.36395761,0.16691774,0.59051639,0.26193452,0.14109442,0.48594201,0.18261950,0.27916855,0.33095807,0.37537161,0.14413948,0.41569939,0.37102175,0.63626629,0.24862367,0.40832499,0.36477777,0.35694039,0.10219034,0.56048715,0.70097047,0.81791365,0.49466532,0.30687934,0.02516810,0.65374148,0.51831383,0.49596971,0.20975164,0.35189864,0.41192821,0.23267382,0.57435900,0.30345589,0.21336459,0.23041959,0.22407076,0.43934298,0.48389852,0.32769039,0.48133895,0.29139906,0.25413996,0.43162668,0.59535897,0.51961952,0.33817044,0.27050787,0.60360390,0.50146729,0.37968984,0.35451648,0.26098868,0.33735713,0.25525770,0.45134106,0.17491692,0.50014770,0.18704526,0.35825849,0.40611130,0.33403149,0.37753302,0.45619619,0.28731138,0.60678607,0.34187862,0.41034296,0.44671220,0.17691290,0.29976818,0.33998418,0.20008484,0.13899940,0.10940278,0.51178050,0.17782868,0.37372607,0.41065666,0.37525547,0.22563942,0.34395513,0.29440108,0.33766875,0.39051676,0.40462062,0.27570650,0.07561913,0.31997621,0.20971483,0.49322501,0.23689395,0.24976625,0.27282685,0.52931470,0.37289858,0.27324605,8.64289570,0.50764686,0.42159510,0.40219757,0.26750344,0.50747991,0.48455840,0.54623365,0.45230761,0.64149302,0.62187409,0.47590587,0.35839993,0.40604016,0.29511055,0.31572920,0.36803505,-1.90774632,0.28350693,0.46900266,0.33243275,0.20853715,0.26186016,0.33455259,0.48618889,0.55177057,0.43632606,0.20661549,0.11806209,0.41523176,0.35709980,0.38950714,0.18504313,0.34996840,0.28645045,0.47343183,0.23809582,0.39424723,0.35778168,0.19686082,0.17187032,0.25557294,0.19254443,0.66799790,0.09906232,0.25111121,0.62053382,0.46459749,0.50372189,0.22618906,0.41562113,0.28819031,0.43109137,0.02420485,0.27933604,0.64024043,0.27661183,0.23045467,0.38588893,0.45518389,0.32094127,0.54665363,0.20482126,0.57108128,0.35950133,0.35959905,0.24323790,0.43987545,0.33579347,0.27665925,0.44358015,0.15560241,0.53571612,0.39426270,0.40996876,0.24406524,0.33441055,0.27573720,0.20874427,0.32289064,0.42146894,0.23571208,0.41043186,0.47960120,0.26318488,0.11819686,0.24899888,0.85357946,0.44175440,0.25621089,0.51636076,0.46057951,0.07774342,0.27398023,0.40639848,0.35059816,0.27943376,0.16722019,0.67279077,0.33220768,0.36831459,0.38815615,0.50564760,0.34754273,0.21929164,0.15587802,0.48577926,0.41239572,0.33299041,0.24757676,0.24237645,0.53970295,0.49196830,0.28074646,0.22886504,0.29880726,0.44271010,0.51683152,0.34576941,0.17257914,0.33012795,0.21252233,0.42800924,0.23760824,0.29628271,0.44186279,0.22114360,0.48183328,0.26014850,0.38805485,0.44095317,0.33742267,0.33975804,0.36243191,0.26792613,0.08935038,0.36998859,0.37618941,0.07982168,0.42289519,0.34229317,0.34102711,0.28464425,0.36310709,0.51977396,0.31557679,0.36150464,0.08935481,0.41641155,0.34030628,0.33434984,0.23703235,0.56184286,0.43332425,0.48451686,0.41125545,0.36177814,0.28755847,0.55328190,0.13356195,0.27344748,0.14241718,0.44607854,0.33113536,0.28487787,0.37814170,0.53080261,0.54519445,0.50997186,-0.16325995,0.39859277,0.36914843,0.33862892,0.29474264,0.38935503,0.46183977,0.27598625,0.46471706,0.55968386,0.35070303,0.35206166,0.86611921,0.39062715,0.36897773,0.58155793,0.23604301,0.36854222,0.39394361,0.15375987,0.14404961,0.47605506,0.55713308,0.58971107,0.25892401,0.26045397,0.28494117,0.20598963,-0.00277517,0.21748763,0.32128632
FEATHER,0.23121957,0.28035113,0.33788073,0.37862480,0.20726115,0.10958639,0.11681712,-0.52615666,0.04566223,0.47679615,0.26717141,0.32269874,0.39735287,0.34454757,0.40187955,0.45042649,0.42805818,0.31449559,0.10728166,0.27927318,0.54609483,0.33048105,0.24569744,0.64954138,0.21224761,0.53399020,0.30230537,0.40671206,0.17411964,0.38389325,0.62491250,0.44113579,0.36774400,0.50573540,0.19453681,0.48832363,0.41315544,0.38510668,0.30186626,0.13055454,0.30743229,0.43861249,0.30238524,0.28156391,0.58112001,0.45335430,0.51320791,0.15823352,0.44278607,0.39625394,0.16045147,0.09688711,0.38613272,0.16356573,0.36457255,0.52867848,0.18326846,0.54652244,0.08629272,0.44559044,0.46433949,0.19073744,0.30369943,0.23934288,0.15208003,0.02866129,0.22954966,0.14893842,0.34030297,0.36514437,0.30816290,0.18525930,0.24909987,0.60193717,0.26515332,0.17051432,0.65495527,0.45914042,0.43617210,0.07768441,0.26335660,0.34921452,0.33250919,0.50572670,0.23379350,0.34885350,0.02606240,0.07307805,0.62249160,0.37834406,0.33526763,0.37554529,-1.42380428,0.74942619,0.31254852,0.36501020,0.38376957,0.41147220,0.16998516,0.30666560,0.68048936,0.29990965,0.59110487,0.08789901,0.21502510,0.30688304,0.41566333,0.36365435,0.41440597,0.29097846,0.46250883,0.59956968,0.30061477,0.47912887,0.33847976,0.18776716,0.23656878,0.56383663,0.30566564,0.47303665,0.39528269,0.21729252,0.60883385,0.45508933,0.39323318,0.19088052,0.63817626,0.29829714,0.30922565,0.51837832,0.66287857,0.48574775,0.09691370,7.71605539,0.50800270,0.41217849,0.23925333,0.23250112,0.53952420,0.44203141,0.51738375,0.32844496,0.57009315,0.35706496,0.05479106,0.50690866,0.31439519,0.31310070,0.17168587,0.16037555,0.40038604,0.14049660,0.26270893,0.50413340,0.34730503,0.22347713,0.53602290,0.45778978,0.35159433,0.36940679,0.15261629,0.35572973,0.38260818,0.11752991,0.37982172,0.32930425,0.58920884,0.45695883,0.58843809,0.26422152,0.41443104,0.71246654,0.26407915,0.13266854,0.21257196,0.48147294,0.25008243,0.67106259,0.14653215,0.15868992,0.54851961,0.28949556,0.26761115,0.34145862,0.28655222,0.06016689,0.51496494,0.21601556,0.59898716,0.29569384,0.37143144,0.14806201,0.19279321,0.22748001,0.26272425,0.59331185,0.16449450,0.24344234,0.38389966,0.08948860,0.37286341,0.15602845,0.20884435,0.55050224,0.41956434,0.25737908,0.33028275,0.18318360,0.26303500,0.25494632,0.54183871,0.63059521,0.18309630,0.14836667,0.32526779,0.37964049,0.26257822,0.41213965,0.28828427,0.34583542,0.29675946,0.22502017,0.31150818,0.34042722,0.22157390,0.31162950,0.40146530,0.32626918,0.30474696,0.17711015,0.43279856,0.41337293,0.36040205,0.07514616,0.49700275,0.70871609,0.34613883,0.25806791,0.05891958,0.08546464,0.39697734,0.30310756,0.52214986,0.28175503,0.12756449,0.26794997,0.27235624,0.56268710,0.14335264,0.15458572,0.24347009,0.55125159,0.32560796,0.84433329,0.34979412,0.35209426,0.29323298,0.01010406,0.41324139,0.41957358,0.31637701,0.32284346,0.16391212,0.28749052,0.46616903,0.19789705,0.60767072,0.27329764,0.58326167,0.35562369,0.25087216,0.19864620,0.62810105,0.30242503,0.48975846,0.15045643,0.27446219,0.20394942,0.06953675,0.11833088,0.45518109,0.40493476,0.28363851,0.14821504,0.39654806,0.44930977,0.36856759,0.44202986,0.28822854,0.35729915,0.28596792,0.31207463,0.42096195,0.52688062,0.19520292,0.11268062,0.25786516,0.12331191,0.47200090,0.49755046,0.47660789,0.24394368,0.11192077,0.58092970,0.39718780,0.48630232,0.26887083,0.09936213,0.43779609,0.32780415,0.14159022,0.25081426,7.70794153,0.50988793,0.37147808,0.31318983,0.29596475,0.26612368,0.33235493,0.43150133,0.71437079,0.60654742,0.60302675,0.70420635,0.39911878,0.67760891,0.08610398,0.49922585,0.44556555,-1.94162464,0.23263963,0.50369924,0.17469774,0.30819020,0.44855076,0.42929462,0.68415725,0.25820678,0.48379368,0.28711286,0.33154783,0.12227262,0.26690879,0.27713665,0.11749898,0.40271717,0.39453331,0.48701376,0.23867688,0.36872840,0.32355437,0.38085452,0.22798744,0.38538757,0.31076765,0.28849623,0.29765111,0.08326425,0.24494158,0.64911109,0.38312617,0.22792362,0.39232221,0.43976852,0.13194428,0.03593138,0.17514737,0.47477406,0.34453166,0.32862625,0.16017863,0.46860516,0.21195565,0.30589578,0.15236619,0.45164770,0.18139321,0.18416949,0.09725302,0.37893894,0.35741776,0.22415851,0.49854261,0.15716511,0.62363780,0.20574580,0.31340039,0.36660811,0.13154119,0.24487104,0.34520620,0.16595685,0.27806616,0.71842438,0.31098613,0.51981020,0.31253999,0.26465955,0.10279281,0.70680231,0.20914650,0.24560703,0.60313100,0.56422657,0.08427248,0.13832676,0.49442527,0.29068342,0.35179979,0.21479121,0.42800039,0.32470325,0.35793564,0.43406522,0.36500624,0.42623100,0.30377892,0.25237608,0.41958523,0.34255955,0.50371939,0.34026071,0.30191123,0.40892169,0.47703829,0.37565711,0.17033306,0.21241376,0.30515879,0.32050973,0.30846822,0.17096351,0.42158371,0.38128737,0.55751002,0.44633961,0.23588005,0.30751520,0.46603864,0.33265805,-0.00861660,0.37848949,0.14065742,0.18913624,0.40539709,0.48163670,0.22253989,0.17768639,0.28574932,0.41301709,0.14144357,0.25157046,0.56635553,0.52686197,0.23318785,0.29008323,0.38686937,0.42353714,0.36998051,0.14065458,0.26772538,0.38606298,0.42492324,0.25222042,0.40316391,0.22006766,0.48835328,0.19893149,0.13400556,0.24791411,0.24124761,0.14821497,0.61299992,0.11874819,0.34443113,0.67985559,0.45811999,0.58769256,0.38740045,0.50298458,0.46343818,-0.15136215,0.45228332,0.38174728,0.23863889,0.19444326,0.38720146,0.27173039,0.28710380,0.43019778,0.50373185,0.44142413,0.31782645,0.86523825,0.28119475,0.27332327,0.63024265,0.29565024,0.13833910,0.30487010,0.17387454,0.23378494,0.38690841,0.41701928,0.50971889,0.11843852,0.50910252,0.21314171,0.18233761,0.09375786,0.13679528,0.45740795
HORSE TRACK,0.20604019,0.11181164,0.19518743,0.39777294,0.10524678,0.23165488,0.24069788,-0.97663605,0.27560121,0.48413250,0.40771133,0.21036510,0.12761933,0.12234196,0.31125420,0.30856836,0.46611339,0.10629702,0.19451755,0.10298792,0.60064989,0.23849854,0.24846804,0.48095846,0.24792659,0.33879265,0.19314581,0.39942065,0.29199016,0.44294897,0.32544333,0.16265611,0.15622509,0.25966221,0.24494898,0.57813716,0.33528864,0.39402476,0.42410871,0.29614422,0.43290758,0.25496349,0.44989994,0.34875536,0.59878820,0.39732152,0.00728270,0.20386915,0.53102005,0.25848016,0.30805406,0.21032944,0.27025631,0.56668317,0.17527181,0.34651750,0.33211842,0.20868215,0.16868348,0.14068487,0.44635805,0.24805799,0.54994863,0.13759083,0.41227323,0.14862834,0.21411167,0.41438770,0.30711529,0.26692218,0.32600781,0.11757841,0.26501778,0.73428404,0.25263759,0.19329572,0.39699042,0.43331093,0.12501389,0.02512429,0.38841179,0.09525014,0.41308895,0.64972603,0.15055962,0.47408977,0.24544065,0.36980680,0.46894887,0.31385231,0.35100299,0.58109707,-1.45476604,0.74239379,0.24524564,0.27926064,0.53709775,0.52687657,0.44405234,0.32324508,0.52343106,0.39270511,0.71090287,0.08784609,0.15854427,0.08264150,0.50906515,0.31661293,0.13002607,-0.00195320,0.50473928,0.60886878,0.16832596,0.44735664,0.33891299,0.12178960,0.11008830,0.49565998,0.32104504,0.29413873,0.22071938,0.12527475,0.20738645,0.31409684,0.44767469,0.09312629,0.63887018,0.25626388,0.35058579,0.67579269,0.50153399,0.68612695,0.18214171,7.54339123,0.27694073,0.37385648,0.16290405,0.08703855,0.74851936,0.19418719,0.52648634,0.41179746,0.16901706,0.42605332,0.11123783,0.33291867,0.25167355,0.21979702,0.07820065,0.39167589,0.37173897,0.01189864,0.27620083,0.58864254,0.20401703,0.40197045,0.25490963,0.51015306,0.28182116,0.33435568,-0.06326129,0.43520004,0.34212917,0.14244023,0.31950185,0.47661135,0.36808220,0.40003452,0.35613826,0.16932087,0.33828336,0.59907502,0.12846652,0.38181853,0.35964975,0.44618991,-0.01462253,0.43534124,0.43194863,0.27987835,0.32151908,0.42613447,0.34192652,0.20596702,0.14572671,0.22929576,0.60498756,0.37317798,0.35726300,0.18831374,0.45676789,0.56861758,0.26121029,0.23369327,-0.04218096,0.35036322,0.37361807,0.59560102,0.51562285,-0.00572184,0.33085993,0.28421816,0.35332045,0.28283128,0.35170418,0.09991682,0.24182880,0.00586091,0.13768931,0.34921250,0.67330950,0.44926462,0.24113326,0.51776665,0.21092559,0.30032787,0.26256868,0.33361804,0.22279610,0.12508155,0.10861342,0.25346151,0.44076934,0.21048875,0.72177815,0.22562277,0.32723382,0.29578197,0.10306382,0.25044003,0.37477702,0.20854747,0.20250793,0.21608125,0.39195469,0.61327243,0.46067068,0.29897735,0.07437804,0.23123848,0.40387207,0.33842319,0.16433890,0.32578844,0.22058681,0.40609118,0.20000845,0.16571212,0.16669096,0.28498358,0.15292366,0.54424030,0.33171019,0.30854690,0.18757476,0.37625268,0.52440196,0.10473368,0.50821912,0.37998837,0.29098922,0.34125265,0.19526349,0.50058591,0.16965000,0.32340401,0.33857530,0.19223602,0.12759829,0.23571213,0.27815741,0.22839496,0.53509444,0.23809664,0.43819484,0.21717337,0.19204031,0.29110864,0.27776837,0.25184396,0.48885620,0.22704217,0.50320679,0.19137304,0.29517272,0.48772344,0.47953025,0.16669464,0.13336341,0.32059512,0.40166521,0.37632206,0.41084152,0.44545034,0.33831277,0.20966731,0.27568260,0.08760228,0.20804317,0.31603056,0.35245812,0.18036707,0.09100232,0.36831585,0.14767738,0.77717280,0.61678720,0.57031131,0.42649430,0.50601828,0.31981471,0.36969861,7.53445339,0.17916076,0.03372068,0.27845216,0.23328798,0.68232173,0.37509260,0.55361599,0.60630208,0.71079552,0.35918272,0.27837777,0.31460404,0.23660094,0.15175001,0.39640546,0.25134370,-1.80899060,0.22201930,0.45125213,0.24703355,0.34892893,0.16023619,0.41632986,0.35443881,0.40474221,0.15779118,0.14037332,0.28222954,0.21330473,0.47660330,0.17866351,0.37755451,0.28243247,0.32125100,0.40755746,0.21175101,0.34730971,0.13370852,0.32952610,0.32321537,0.29923099,0.27333641,0.45128644,0.03655488,0.26425946,0.20748456,0.52565420,0.33159158,0.35544091,0.59295285,0.70118880,0.49247575,0.15921836,0.35537446,0.61269647,0.31652954,0.38704252,0.23174080,0.27121910,0.18413486,0.47588965,0.09436761,0.43429598,0.25964019,0.42114845,0.43653324,0.29243675,0.13755025,0.43678668,0.29011992,0.05857827,0.28177586,0.35164598,0.39410090,0.21889174,0.09100653,0.28464249,0.47575328,0.24329427,0.31035674,0.32562783,0.30198944,0.47893888,0.26504323,0.39915407,0.13847020,0.68654925,0.29031307,0.26159373,0.35484469,0.43347675,0.27025667,0.10839917,0.32753742,0.26580274,0.23564301,0.15961707,0.41868079,0.55913621,0.27270442,0.42801279,0.28978062,0.44268546,0.15870298,0.28771278,0.31280547,0.36883506,0.42696947,0.19648050,0.19122718,0.15190807,0.28890020,0.36909679,0.16614605,0.07492224,0.33330816,0.37421945,0.47358507,0.28508553,0.40602407,0.21138893,0.41165662,0.45170906,0.13834293,0.27774921,0.23208156,0.43129101,0.16958334,0.27826643,0.17060937,0.31410667,0.42753321,0.22158816,0.45732024,0.06682943,0.38991857,0.63216388,0.14345156,0.34790671,0.50794697,0.48097759,0.25794858,0.40874824,0.35464776,0.39674291,0.18529640,0.42783943,0.38582045,0.57195777,0.44542918,0.41554102,0.43754250,0.42952266,0.52063638,0.09032515,0.25412393,0.29729921,0.41965729,0.16313358,0.14894390,0.25862390,0.33115104,0.41874003,0.52809346,0.40477660,0.38541672,0.51944828,0.41299370,-0.22193821,0.35143387,0.28454396,0.37850866,0.32942483,0.27716190,0.30372757,0.33592856,0.12522292,0.39515743,0.44140735,0.38353673,0.78433710,0.12160560,0.37489420,0.38271156,0.21303274,0.16053738,0.29363224,0.07040792,0.14250514,0.33849967,0.58827835,0.56321263,0.22999363,0.42401943,0.26253867,0.24407122,0.59906411,0.32976258,0.32512656
HOUSE,0.31470293,0.26085871,0.16761644,0.35417521,0.36839789,0.09812663,0.23314849,-0.48476347,0.40386140,0.44513384,0.33561462,0.50713307,0.24088389,0.13546142,0.46335435,0.12981008,0.36000779,0.20905450,0.03747940,0.23091382,0.72931498,0.36141819,0.24133380,0.43433163,0.26761812,0.38228533,0.13962477,0.21016052,0.20655404,0.50986975,0.25444442,0.12772883,0.43847188,0.41004345,-0.10496826,0.32150513,0.63189691,0.25960729,0.31053099,0.20623760,0.36285174,0.32443845,0.36453506,0.30208069,0.28201407,0.33609450,-0.00276462,0.31763893,0.35145894,0.39367712,0.49207976,0.26750281,0.19470848,0.12319168,0.52964753,0.26061192,0.15902798,0.25983781,0.31121719,0.39941046,0.38437888,0.15379061,0.28276396,0.19098334,0.14601108,0.06492950,0.30678952,0.16486351,0.29325640,0.17536883,0.16986379,-0.02281603,0.19692779,0.35589260,0.24269767,0.16200222,0.34007505,0.23335657,0.18076266,0.11055571,0.25051233,0.04111110,0.22916172,0.61667031,0.33548757,0.24765445,0.20716807,0.12674032,0.34636256,0.26060867,0.48753059,0.31878236,-1.53271949,0.44037306,0.17553568,0.37479559,0.43770254,0.62575281,0.20853934,0.67365664,0.29253367,0.32654223,0.48547038,0.25718427,0.24262133,0.39270514,0.42207363,0.34671959,0.05524459,0.16768262,0.35704571,0.49436414,0.17494436,0.34615812,0.29096308,0.01997715,0.19605830,0.69072604,0.34915885,0.40223193,0.45907360,0.23315105,0.27272853,0.32844967,0.31837702,0.13180853,0.37426072,0.34853351,0.38216630,0.70847976,0.65284526,0.50109136,0.12035293,7.61407518,0.44969323,0.45874667,0.12604335,-0.00225252,0.19470967,0.29383233,0.41294977,0.27876806,0.38156334,0.31380877,0.04058370,0.38353309,0.29640102,0.20676991,0.33821926,0.05224700,0.14950119,0.18229941,0.28594735,0.54467946,0.16143316,0.15439032,0.18889058,0.46773404,0.07474905,0.37767550,0.05567140,0.31820965,0.38910750,0.05681306,0.14001605,0.25120232,0.26071557,0.26678339,0.49113277,0.22623567,0.49241760,0.39515916,0.34024870,0.40755033,0.09829377,0.25465956,-0.11921469,0.11695507,0.50878376,0.36905310,0.31645861,0.37818134,0.22836672,0.08194511,0.19491638,0.15527160,0.31375632,0.44332847,0.19899203,0.17220141,0.39629903,0.28102693,0.09569445,0.12891647,0.30154157,0.30300966,0.22708403,0.44658101,0.43199027,-0.07409766,0.35489851,0.24395669,0.23981629,0.44066116,0.42561123,0.26419935,0.32088926,0.22406460,0.23258469,0.06052690,0.66080320,0.41573629,0.21821646,0.48748013,0.32516691,0.37064028,0.32626805,0.15125851,0.36903244,0.30561745,0.09815733,0.31285515,0.24149255,0.29009926,0.43289381,0.43688861,0.49513796,0.40337005,-0.00124667,0.33604452,0.32890269,0.29612026,0.29479173,0.08639982,0.50712955,0.59880775,0.33943683,0.37066558,0.02312185,0.15392354,0.41775513,0.28887177,0.38144365,0.11874682,0.23231441,0.54115587,0.11880254,0.45044020,0.08787032,0.20777954,0.34599075,0.30540037,0.31243303,0.51378185,0.28841892,0.42025375,0.52489275,0.29459408,0.48178726,0.27597409,0.61666065,0.38441005,0.24249823,0.36403936,0.25156263,0.16979358,0.48466849,0.13602550,0.21826938,0.34945598,0.50509286,-0.08753433,0.56796986,0.12177562,0.40404651,0.39643109,0.13992117,0.30288309,0.19712688,0.29548329,0.45584312,0.26762334,0.34043580,0.25661492,0.27091596,0.40864247,0.46456376,0.21981381,0.30146545,0.14711253,0.37855896,0.27636036,0.28188050,0.39616278,0.09612601,0.05205586,0.43209070,0.23853861,0.27940115,0.29184091,0.21607544,0.00704062,0.09215984,0.28397349,0.12251507,0.41446704,0.31882307,0.18852913,0.41395548,0.29424077,0.37784648,0.32666320,7.60208321,0.25099072,0.36985770,0.38316539,0.33659461,0.42438877,0.41776529,1.03919959,0.57521272,0.70862162,0.56757724,0.29610482,0.37137586,0.30347973,0.22011854,0.28465188,0.20037445,-1.69368446,0.32803974,0.45028058,0.30678171,0.15017690,0.34573153,0.35799548,0.27147976,0.22548877,0.11848692,0.10659770,0.34824082,0.37395862,0.30831507,0.35935727,0.06110670,0.31202224,0.37306297,0.41049436,0.16953954,0.21903902,0.32232222,0.19852544,0.45047164,0.17068215,0.11046109,0.59982789,0.19527373,0.26105487,0.42839754,0.40968847,0.41282013,0.34990385,0.53319532,0.30214283,0.46285293,-0.02957367,0.23025285,0.70589012,0.30182630,0.42411986,0.38545761,0.11731380,0.04147909,0.23270521,0.18365318,0.58454424,0.59782606,0.23967199,0.04055029,0.27826470,0.26782849,0.32854739,0.22930820,0.30741587,0.41415057,0.19446114,0.30026826,0.20913473,0.29409930,0.16303702,0.33263010,0.34432369,0.26507613,0.40334833,0.40229353,0.45950532,0.20588037,0.10872414,0.15865199,0.63595563,0.37815249,0.34567985,0.18805262,0.35432020,-0.12025312,0.32589379,0.30091000,0.42149624,0.23684531,-0.05286859,0.44819441,0.34818035,0.42826539,0.46015504,0.21373540,0.22897252,0.24216057,0.41958594,0.36157522,0.44198096,0.38115132,0.56723112,0.03136841,0.46644175,0.57297188,0.16768271,0.07859702,0.11865248,0.29244518,0.14683166,0.28457552,0.14958408,0.28638721,0.22042577,0.07293478,0.61784977,0.14212270,0.23464748,0.12782104,0.41952404,0.05572134,0.10362061,0.31680322,0.24909830,0.23902938,0.23435824,0.27393532,0.05912378,0.40014726,0.52623492,0.13243072,0.22386675,0.48579577,0.57078934,0.27064592,0.42293805,0.45112348,0.20438159,0.35264656,0.44795573,0.47451478,0.44745117,0.37227473,0.35483751,0.34975246,0.27958378,0.46741536,0.12060617,0.10175833,0.17603874,0.41441223,0.06658524,0.34184429,0.25450012,0.37964439,0.22155714,0.40513062,0.51055974,0.47478914,0.36670330,0.49414954,0.01087788,0.56731439,0.12770529,0.49487436,0.27557668,0.40582126,0.36719304,0.40831715,0.19410774,0.17411651,0.25283885,0.41087577,0.78798348,0.19314258,0.11468215,0.44636071,0.17801563,0.07298478,0.52104229,0.21499011,0.21415611,0.36814135,0.48065236,0.23539791,0.20425476,0.35340670,0.10933573,0.13072275,-0.10247340,0.06700854,0.19157034
LIGHTNING,0.15114813,0.30226555,0.24715094,0.29742309,0.11833974,0.04719681,0.14461441,0.29532143,0.10430039,0.75009799,0.40546817,0.48738164,0.26701251,0.14947791,0.27667868,0.40758556,0.56213808,0.11799459,0.20674977,0.33162785,0.61639506,0.65464526,0.31079340,0.48777011,0.19267327,0.30040756,0.24911690,0.40706173,0.11142715,0.36731797,0.12555745,0.30986235,0.24710634,0.35033676,0.24494898,0.50993651,0.31871408,0.54947257,0.17982407,0.29614422,0.22739898,0.30966276,0.31784549,0.48977515,0.49583316,0.44645610,0.62146580,0.18266098,0.40408856,0.30501103,0.23062995,0.17001686,0.26300579,0.29322147,0.31574288,0.41128504,0.27240613,0.27022180,0.21176434,0.66288692,0.41859847,0.31226280,0.54994863,0.13641255,0.56530017,0.10327518,0.26636904,0.54381782,0.42897388,0.18696412,0.52399153,0.38806316,0.53068417,0.35563689,0.23536979,-0.06339417,0.60229999,0.24386869,0.28062490,0.15231818,0.23207138,0.28223160,0.41308895,0.52954108,0.43941379,0.29854679,0.28003281,0.26340389,0.34750021,0.22099945,0.19208452,0.49849051,-1.39497054,0.40956062,0.22705199,0.45331636,0.43185961,0.40523452,0.28651085,0.23890345,0.32227057,0.17086379,0.37617627,0.40547439,0.19046767,0.30574512,0.35504028,0.33156493,0.49631009,0.39645782,0.75946993,0.65732729,0.27845985,0.30972189,0.41302732,0.04351890,0.29621795,0.47263265,0.21962376,0.36687139,0.52448779,0.09189734,0.38272968,0.43393508,0.37256411,0.35729766,0.33792785,0.40889502,0.43063423,0.67579269,0.43033895,0.27142254,0.08585618,7.79002047,0.21006854,0.34158722,0.24375224,0.15141849,0.34019065,0.28302717,0.52648634,0.24491204,0.21720237,0.28038433,-0.02586629,0.43615338,0.25290897,0.21355039,0.20249061,0.21002904,0.26488686,0.25312456,0.23537362,0.42869371,0.28085038,0.28817281,0.35295761,0.29522181,0.10060400,0.33435568,0.67917001,0.28287888,0.35791412,0.29179034,0.11139240,0.40973794,0.33336449,0.18286103,0.32879105,0.41393903,0.32794467,0.51355356,0.37026972,0.14028777,0.22739545,0.34299320,-0.17760746,0.43534124,0.41606057,0.27097803,0.51550567,0.43443292,0.21670297,0.15434235,0.18745470,0.25639519,0.43069571,0.56978691,0.14548454,0.29431996,0.41740853,0.20064515,0.34625530,0.72357565,0.41984797,0.42210704,0.25189418,0.30583078,0.37697962,0.06392509,0.25343573,0.21673568,0.47410563,0.68464988,0.20707931,0.31095350,0.20555560,0.15689541,0.09275245,0.33584353,0.53922045,0.67859447,0.30203006,0.34122598,0.32182246,0.34037215,0.21811655,0.33484268,-0.02671690,0.18794064,0.05341375,0.07726719,0.07278743,0.31292981,0.32296830,0.22186413,0.37892535,0.39189106,0.29033396,0.33476564,0.37925342,0.31427202,0.32416433,0.05126201,0.69301635,0.61452520,0.25648394,0.29449448,0.17137896,0.07025903,0.38664195,0.70261574,0.13647105,0.10859168,0.09596967,0.29619431,0.42278895,0.27917939,0.35616177,0.37575880,0.27378550,0.47411704,0.39026684,0.49298763,0.11332034,0.42123476,0.37630409,0.16017646,0.33579427,0.40133038,0.30886242,0.44081864,0.19526349,0.03984974,0.28693366,0.26742229,0.47504860,0.34443921,0.13029499,0.30360600,0.55715513,0.21876746,0.49766493,0.41590753,0.59929806,0.24794006,0.28995389,0.33904409,0.44000182,0.37860668,0.31705123,0.27440900,0.31663781,0.34549397,0.53581119,0.48772344,0.44233364,0.32991695,0.13033737,0.24423634,0.18914184,0.29527566,0.37644294,0.27665198,-0.06636986,0.26562232,0.10255058,0.18982349,0.40118062,0.24650623,0.28696057,0.23420051,0.11997350,0.20955493,0.35518605,0.63480097,0.29772145,0.28790331,0.56158811,0.50601828,0.27289984,0.36969861,7.77848864,0.31815845,0.21019773,0.52402288,0.23328798,0.29253420,0.45463887,0.27553245,0.49715713,0.59521228,0.50893074,0.44986099,0.46255103,0.34767976,0.34437379,0.42991385,0.35147882,-1.96932685,0.35967454,0.38392293,0.19862661,0.29587489,0.51742667,0.40521407,0.34762830,0.50081027,0.30895081,0.15866785,0.35187414,0.23904431,0.18371478,0.36973971,0.29662931,0.17413467,0.08793011,0.30009106,0.14319411,0.38011175,0.24167921,0.26518348,0.07998671,0.16930370,0.18631782,0.56460732,0.62319493,0.28293225,0.56879687,0.49413162,0.51156658,0.22346739,0.45484519,0.38296854,0.25312293,0.12578964,0.22771241,0.42851016,0.38876390,0.24798106,0.40390426,0.45298439,0.18218608,0.59250993,0.15215386,0.46529502,0.18242042,0.39488330,0.23622027,0.54555827,0.24049570,0.23750846,0.24471219,0.12324987,0.36037469,0.29451990,0.28888908,0.24141328,0.20395379,0.23468293,0.35782912,0.41689917,0.17203425,0.54602838,0.32172856,0.42270601,0.39416072,0.16670296,0.30846819,0.94163626,0.05307975,0.39203948,0.36773345,0.33465293,0.18314295,0.29145125,0.35793185,0.25728783,0.28432661,0.24350369,0.53707039,0.30082116,0.30368853,0.43531576,0.28191939,0.24901223,0.31884044,0.26749766,0.34846708,0.36623374,0.32878056,0.50102967,0.38255367,0.31919551,0.39753625,0.27171144,0.15281019,0.31917974,0.43377435,0.37421945,0.24848434,0.20069027,0.23747125,0.30708003,0.57037371,0.57373333,0.43746209,0.29851341,0.12245087,0.43129101,0.42099288,0.26927790,0.39134380,0.31186709,0.26960221,0.21700421,0.29273844,-0.00036515,0.34663403,0.11660733,0.31832030,0.32612583,0.21760003,0.42258656,0.34613901,0.63509667,0.37372011,0.23140678,0.31429020,0.22648069,0.33626834,0.31770766,0.61007446,0.17990993,0.57137311,0.28406313,0.47921264,0.05984410,0.19878496,0.29778811,0.29670960,0.19560988,0.33165646,0.13213764,0.33837387,0.41874003,0.52809346,0.55977470,0.30168423,0.36215755,1.00329804,-0.47412613,0.40223229,0.74930102,0.15529838,0.28326020,0.35355860,0.27487019,0.43522555,0.07626994,0.25051957,0.35311806,0.36959508,1.05818975,0.15592825,0.42446870,0.45251775,0.34261072,0.16676107,0.23265904,0.37471992,0.30806553,0.53289467,0.47328120,0.34990415,0.31784278,0.29539388,0.19589598,-0.00057300,0.04406041,0.29251412,0.32440752
STAR,0.45030385,0.53227252,0.46232769,0.45383617,0.32762605,0.41551873,0.18747984,-0.24771796,0.11891855,0.40805167,0.62794280,0.56668735,0.24312469,0.45936480,0.32211533,0.47982681,0.54404140,0.14918149,0.09976858,0.48900211,0.55230856,0.43164471,0.25311038,0.23769414,0.18712024,0.52704662,0.15602773,0.33658671,0.28418633,0.39842314,0.22221427,0.13566354,0.23247992,0.41910830,0.22070533,0.53877139,0.37213433,0.51097560,0.35163936,0.16836409,0.16135162,0.16338852,0.27251285,0.30544788,0.47358799,0.30934817,0.41317329,0.32512102,0.46711975,0.61876160,0.80303681,0.29265133,0.26823422,0.30757535,0.31969675,0.34545264,0.21577971,0.60501111,0.25948700,0.20650750,0.34899098,0.27741513,0.26830736,0.18439096,0.33396131,0.09164084,0.14364086,0.22582287,0.25593749,0.16730572,0.39499027,0.37129593,0.19990194,0.44672668,0.31796089,0.24375860,0.31866118,0.48155993,0.23779051,0.10525577,0.29679912,0.18333919,0.34848297,0.58689439,0.10488377,0.37206918,0.33525336,0.01131562,0.41962725,0.43140846,0.13299732,0.39313167,-1.35640752,0.62528664,0.34658098,0.37789530,0.54969096,0.48892373,0.19272867,0.29302707,0.42422482,0.26097152,0.34514794,-0.08725604,0.11518017,0.30171543,0.52347851,0.61577034,0.09841087,0.48338744,0.60727167,0.60087383,0.32453761,0.12626542,0.19132020,0.39570856,0.12010649,0.52629453,0.43834576,0.50075626,0.43897864,0.16056506,0.26791385,0.44781575,0.43528491,0.43551823,0.34382293,0.19752699,0.32881218,0.61139709,0.41536918,0.44969618,0.05425482,7.67928696,0.44425640,0.18454082,0.19155081,0.18192138,0.34572548,0.43813610,0.41597080,0.25564256,0.17858975,0.33697623,0.14571929,0.48137987,0.56045038,0.34050041,0.23469318,0.16179663,0.23549993,0.61215353,0.32514235,0.63993424,0.26694828,0.15093210,0.29915705,0.20978633,0.04966028,0.32203290,0.40342450,0.23471192,0.45704585,0.23141643,0.24929143,0.18733871,0.15127362,0.10216760,0.43231604,0.34017134,0.20611414,0.21696752,0.32592642,0.47718468,0.32331222,0.58252627,-0.08163312,0.44349587,0.24068360,0.24509159,0.52243453,0.23077370,0.48083875,0.24639402,0.13278611,0.33611643,0.58100265,0.27674526,0.35660836,0.18540210,0.35360232,0.29511833,0.25555843,0.35438144,0.29726851,0.26157418,0.11111300,0.46204439,0.61819780,0.08870675,0.29764670,0.35986516,0.39523044,0.34343770,0.27541152,0.24119945,0.34092036,0.25478217,0.37005493,0.37312937,0.57092309,0.56177014,0.58714873,0.19920872,0.34077403,0.29078093,0.23783237,0.31311983,-0.05578111,0.13198242,0.10910140,0.16232128,0.08248949,0.22061257,0.37750697,0.36872125,0.29073685,0.48723423,0.28367248,0.20401478,0.31419018,0.31003073,0.41415685,0.21784282,0.56335902,0.65042233,0.81791365,0.24823302,0.22706237,0.11375647,0.43891528,0.74842787,0.60731298,0.26865178,0.07166208,0.41192821,0.10733637,0.37252128,0.22196500,0.36881784,0.24342914,0.30110416,0.27194944,0.33667198,0.27461767,0.28218764,0.16988812,0.32171121,0.38372374,0.42795128,0.31728601,0.30639589,0.41127619,0.08493783,0.25740975,0.24467774,0.32033968,0.25621980,0.22218812,0.14041840,0.44085565,0.48388720,0.42865282,0.18461552,0.46443507,0.52857184,0.28226796,0.42591631,0.51189786,0.59188890,0.70494193,0.23187767,0.42888427,0.66947645,0.32973650,0.39247212,0.39364970,0.21525058,0.30790949,0.08034003,0.51178050,0.29866242,0.38090619,0.34819233,0.18487702,0.50803977,0.40652469,0.23299734,0.48582670,0.50516725,0.40752432,0.34419939,0.11707242,0.43232793,0.18213065,0.46322471,0.18068275,0.37104994,0.41661042,0.24824817,0.31957236,0.33141172,7.66645050,0.35792506,0.33898690,0.45076749,0.26030079,0.26961282,0.41718897,0.85246086,0.69687539,0.68873966,0.55428129,0.26385224,0.27710244,0.60867298,0.27952921,0.42009765,0.65467697,-1.50209796,0.17116182,0.66408819,0.47653478,0.37321055,0.33040452,0.21803704,0.53955871,0.34362248,0.25713238,0.33276063,0.09355443,0.51595598,0.47373155,0.53247851,0.16701093,0.09820943,0.29856062,0.39438108,0.11536542,0.44694567,0.26258060,0.12278844,0.33695391,0.31408361,0.32651806,0.54247504,0.42047450,0.38409486,0.60166931,0.51879436,0.66601646,0.22476324,0.41562113,0.37353051,0.28278562,0.23244788,0.16859789,0.28209558,0.19061933,0.49298745,0.13228588,0.54186124,0.39076155,0.36238462,0.19156559,0.21029484,0.02395038,0.44706947,0.29512605,0.18279366,0.14331606,0.18030547,0.28065592,0.17757741,0.36205104,0.24725841,0.21320392,0.31605667,0.35728636,0.41147119,0.11767812,0.38983399,0.50348443,0.25702149,0.43792060,0.48670265,0.40686312,0.25232854,0.36845940,0.94684654,0.49309337,0.37301737,0.22318152,0.43646082,0.14217015,0.45941040,0.52459246,0.28156480,0.22140197,-0.00973355,0.66746163,0.35295328,0.45207837,0.62724060,0.45809066,0.28283638,0.19461134,0.11757679,0.33462641,0.41081914,0.72161138,0.55059981,0.32278094,0.16049156,0.47809801,0.26554731,0.23707202,0.36083183,0.34831676,0.40284440,0.29493600,0.19957364,0.19425681,0.22923100,0.27616790,0.45889843,0.41634029,0.37053356,0.14822105,0.46392876,0.15626654,0.10663436,0.18650867,0.42819560,0.63862997,0.37585437,0.26437563,0.09045634,0.24142356,0.43957368,0.56852895,0.42104253,0.37291390,0.27320832,0.22198233,0.32300884,0.30634144,0.20217676,0.33886781,-0.05474315,0.38905016,0.21809530,0.36805928,0.47330397,0.41163164,0.21877266,0.39296502,0.09371419,0.16755266,0.16862190,0.32664070,0.30231026,0.27680838,0.19933464,0.24200310,0.48702067,0.60458815,0.55944377,0.46378654,0.45793322,0.30101356,-0.02699413,0.66970003,0.29509991,0.45033744,0.05870672,0.34700108,0.28197783,0.38398859,0.20710686,0.47178778,0.53436142,0.39468426,0.68950635,0.40814224,0.38079369,0.39695188,0.27121344,0.12780666,0.24602392,0.36575261,0.14404961,0.38200942,0.46076554,0.28299299,0.35904953,0.27785325,0.20459330,0.14997357,0.25771689,0.24778581,0.31460515
THUNDER,0.24849497,0.17616145,0.16484079,0.35100338,0.51122314,0.12129744,0.24616718,-0.43838242,0.16441102,0.55316573,0.53232092,0.43515074,0.30728346,0.30211183,0.46199128,0.30723414,0.38307035,0.30715895,0.15924662,0.35980842,0.47727826,0.26178852,0.35083175,0.23082896,0.34589279,0.33184800,0.24911690,0.31384686,0.22846687,0.20032966,0.17215016,0.16834930,0.23022439,0.37608060,0.19076471,0.44158432,0.19996367,0.22435758,0.24881701,0.21307024,0.35404167,0.59432012,0.25249028,0.42368910,0.36983812,0.65089869,0.30263719,0.18878688,0.50652003,0.22122662,0.21777149,0.08439325,0.37849188,0.11574658,0.37700281,0.37504143,0.21717326,0.28978023,0.22342280,0.18916331,0.43527076,0.20296513,0.35951346,0.01154001,0.19476680,0.09069529,0.37073576,0.30715260,0.25952083,0.38124552,0.61152238,0.23675951,0.39976725,0.35278368,0.26439556,0.12822136,0.32145897,0.18991369,0.28062490,0.02878740,0.13688284,0.52880448,0.22696419,0.48067856,0.75241935,0.14373392,0.23225275,0.05282640,0.19352913,0.34745267,0.37412852,0.27100611,-1.46560073,0.50702572,0.39832294,0.23943281,0.25552461,0.32668716,0.18583380,0.12834664,0.17717206,0.27805403,0.37617627,0.40547439,0.15807100,0.28817731,0.37891972,0.17834872,0.44186139,0.43510428,0.51184493,1.14208066,0.17964472,0.28511652,0.31315812,0.26467758,0.30410969,0.79492331,0.04230611,0.33791411,0.79643887,-0.13262701,0.28656745,0.24348064,0.56122804,0.34226921,0.54119289,0.40889502,0.24954063,0.52955025,0.40171885,0.39864039,0.15136711,8.25083637,0.24817973,0.42514640,0.03515068,-0.02358723,0.49373934,0.38131094,0.29670894,0.33502570,0.19703437,0.41315669,-0.02708816,0.48460850,0.18368682,0.30025890,0.07340471,0.17289795,0.31769833,0.22811656,0.21463981,0.47797847,0.28487864,0.14870740,0.36568913,0.40190336,0.06797151,0.22672895,0.67917001,0.23050223,0.24222258,0.42344204,0.33838549,0.15674865,0.24648172,0.40425628,0.41020679,0.41393903,0.22864500,0.38562566,0.24491225,0.26440766,0.15140729,0.10793035,0.36804503,0.48695397,0.23635329,0.28173009,0.51261050,0.28926396,0.46008626,0.12836936,0.11603928,0.06585097,0.57687968,0.50493336,0.46162161,0.23542754,0.42297173,0.13707073,0.09629630,0.14433284,0.13479275,0.23290105,0.22415344,0.39643255,0.38140303,0.06226186,0.28116131,0.48700616,0.24544391,0.54521126,0.27028662,0.52942955,0.20555560,-0.00874940,0.17727737,0.39690861,0.53390211,0.67859447,0.12530024,0.30604225,0.24643239,0.17196082,0.13352478,0.24819393,0.14400053,0.05940471,0.26772565,-0.02621135,0.23903205,0.51548171,0.30467194,0.27835467,0.18149111,0.38148639,0.44645798,0.31832278,0.55649173,0.31693697,0.38580289,0.17862140,0.43924102,0.82144129,0.17598169,0.16039653,0.18556611,0.28469786,0.34963652,0.38474873,0.32074061,0.19939782,0.11089966,0.25600380,0.24884187,0.28042153,0.17138749,0.36311138,0.12894724,0.09273272,0.38888004,0.45906097,0.24205178,0.45906392,0.38474533,0.21453911,0.28242722,0.35302231,0.61137211,0.17863677,0.10156322,0.40988985,0.28084102,0.25904021,0.65498561,0.16720532,0.47180972,0.21618567,0.47118264,0.26090994,0.44173449,0.37038457,0.44028515,0.22468874,0.28995389,0.37851238,0.57969147,0.37860668,0.28464007,0.28850287,0.22457156,0.12520431,0.48253402,0.34441286,0.50082040,0.36694348,0.08602849,0.07030831,0.16735490,0.37368512,0.31474456,0.40609410,0.16610804,0.18977097,0.26247293,0.32737076,0.33263871,0.16761512,0.24865665,0.27745113,0.10782266,0.19469510,0.19704442,0.42378148,0.31243929,0.13091879,0.47494963,0.30022332,0.19666699,0.25989106,8.23770237,0.31815845,0.21019773,0.31995508,0.02375696,0.22372241,0.22694293,0.51139045,0.44685483,0.66367596,0.44369176,0.39818785,0.40269017,0.45991179,0.15883803,0.30622417,0.10263015,-1.72513652,0.19336313,0.46059614,0.19059236,0.38946822,0.26075730,0.14430790,0.41968712,0.35103545,0.55375195,0.24852608,0.35187414,0.19147216,0.27411672,0.24055335,0.11088654,0.10684741,0.26548892,0.46206045,0.10640197,0.34164387,0.13634612,0.34780812,0.28933936,0.42670250,0.22208335,0.47626469,0.30445006,0.10768425,0.14746386,0.58730721,0.39915338,0.24766834,0.45484519,0.41691855,0.36178210,-0.04692062,0.31778327,0.42915413,0.38876390,0.41477764,0.22375380,0.38830596,0.15269433,0.62494546,-0.01616492,0.22273520,0.08404329,0.49953502,0.40093955,0.45651227,0.19123189,0.28905159,0.14124776,0.14955452,0.40732539,0.22388121,0.29110008,0.27659494,0.33773202,0.20725343,0.44710279,0.28560954,0.35740790,0.35109121,0.14457719,0.44279602,0.29360291,0.16670296,0.31233269,0.56907862,0.25201488,0.59557438,0.67125195,0.39596897,0.00874786,0.10383563,0.29832420,0.13422391,0.25080097,0.14682771,0.54864603,0.12776710,0.31488156,0.43531576,0.20627405,0.40060440,0.35224932,0.25548306,0.22004247,0.27690914,0.34063295,0.17528239,0.31325918,0.41001529,0.45652223,0.24055846,0.15281019,0.32844391,0.45001483,0.26833293,0.22129041,0.10358790,0.02311522,0.23120259,0.50603265,0.42943686,0.42700624,0.26966703,0.30389428,0.36174875,0.50559962,0.38611066,0.38371396,0.11137515,0.31116167,0.31173298,0.53270096,0.15159765,0.33935139,0.33445716,0.29114932,0.24150869,0.38857058,0.36487120,0.33410573,0.32737234,0.42808893,0.43233776,0.20031998,0.16590707,0.23606806,0.40135521,0.25422078,0.34634459,0.46741441,0.15192428,0.47921264,0.09129003,0.13990229,0.34934515,0.27219534,0.25570953,0.37599298,0.14483882,0.22873974,0.28615299,0.46717459,0.57588148,0.28121892,0.55763757,0.63092315,-0.16340107,0.45877406,0.51037788,0.23160884,0.21247070,0.17459163,0.18457843,0.40621805,0.26881120,0.22431992,0.42860752,0.41384348,1.04409432,0.38256577,0.59306830,0.25530291,0.41267380,0.28138950,0.27845442,0.26380670,0.48265132,0.36054605,0.57312340,0.39821976,0.29816636,0.35484523,0.10237664,0.15235947,0.21155640,0.37262249,0.32732981
