,dim_0,dim_1,dim_2,dim_3,dim_4,dim_5,dim_6,dim_7,dim_8,dim_9,dim_10,dim_11,dim_12,dim_13,dim_14,dim_15,dim_16,dim_17,dim_18,dim_19,dim_20,dim_21,dim_22,dim_23,dim_24,dim_25,dim_26,dim_27,dim_28,dim_29,dim_30,dim_31,dim_32,dim_33,dim_34,dim_35,dim_36,dim_37,dim_38,dim_39,dim_40,dim_41,dim_42,dim_43,dim_44,dim_45,dim_46,dim_47,dim_48,dim_49,dim_50,dim_51,dim_52,dim_53,dim_54,dim_55,dim_56,dim_57,dim_58,dim_59,dim_60,dim_61,dim_62,dim_63,dim_64,dim_65,dim_66,dim_67,dim_68,dim_69,dim_70,dim_71,dim_72,dim_73,dim_74,dim_75,dim_76,dim_77,dim_78,dim_79,dim_80,dim_81,dim_82,dim_83,dim_84,dim_85,dim_86,dim_87,dim_88,dim_89,dim_90,dim_91,dim_92,dim_93,dim_94,dim_95,dim_96,dim_97,dim_98,dim_99,dim_100,dim_101,dim_102,dim_103,dim_104,dim_105,dim_106,dim_107,dim_108,dim_109,dim_110,dim_111,dim_112,dim_113,dim_114,dim_115,dim_116,dim_117,dim_118,dim_119,dim_120,dim_121,dim_122,dim_123,dim_124,dim_125,dim_126,dim_127,dim_128,dim_129,dim_130,dim_131,dim_132,dim_133,dim_134,dim_135,dim_136,dim_137,dim_138,dim_139,dim_140,dim_141,dim_142,dim_143,dim_144,dim_145,dim_146,dim_147,dim_148,dim_149,dim_150,dim_151,dim_152,dim_153,dim_154,dim_155,dim_156,dim_157,dim_158,dim_159,dim_160,dim_161,dim_162,dim_163,dim_164,dim_165,dim_166,dim_167,dim_168,dim_169,dim_170,dim_171,dim_172,dim_173,dim_174,dim_175,dim_176,dim_177,dim_178,dim_179,dim_180,dim_181,dim_182,dim_183,dim_184,dim_185,dim_186,dim_187,dim_188,dim_189,dim_190,dim_191,dim_192,dim_193,dim_194,dim_195,dim_196,dim_197,dim_198,dim_199,dim_200,dim_201,dim_202,dim_203,dim_204,dim_205,dim_206,dim_207,dim_208,dim_209,dim_210,dim_211,dim_212,dim_213,dim_214,dim_215,dim_216,dim_217,dim_218,dim_219,dim_220,dim_221,dim_222,dim_223,dim_224,dim_225,dim_226,dim_227,dim_228,dim_229,dim_230,dim_231,dim_232,dim_233,dim_234,dim_235,dim_236,dim_237,dim_238,dim_239,dim_240,dim_241,dim_242,dim_243,dim_244,dim_245,dim_246,dim_247,dim_248,dim_249,dim_250,dim_251,dim_252,dim_253,dim_254,dim_255,dim_256,dim_257,dim_258,dim_259,dim_260,dim_261,dim_262,dim_263,dim_264,dim_265,dim_266,dim_267,dim_268,dim_269,dim_270,dim_271,dim_272,dim_273,dim_274,dim_275,dim_276,dim_277,dim_278,dim_279,dim_280,dim_281,dim_282,dim_283,dim_284,dim_285,dim_286,dim_287,dim_288,dim_289,dim_290,dim_291,dim_292,dim_293,dim_294,dim_295,dim_296,dim_297,dim_298,dim_299,dim_300,dim_301,dim_302,dim_303,dim_304,dim_305,dim_306,dim_307,dim_308,dim_309,dim_310,dim_311,dim_312,dim_313,dim_314,dim_315,dim_316,dim_317,dim_318,dim_319,dim_320,dim_321,dim_322,dim_323,dim_324,dim_325,dim_326,dim_327,dim_328,dim_329,dim_330,dim_331,dim_332,dim_333,dim_334,dim_335,dim_336,dim_337,dim_338,dim_339,dim_340,dim_341,dim_342,dim_343,dim_344,dim_345,dim_346,dim_347,dim_348,dim_349,dim_350,dim_351,dim_352,dim_353,dim_354,dim_355,dim_356,dim_357,dim_358,dim_359,dim_360,dim_361,dim_362,dim_363,dim_364,dim_365,dim_366,dim_367,dim_368,dim_369,dim_370,dim_371,dim_372,dim_373,dim_374,dim_375,dim_376,dim_377,dim_378,dim_379,dim_380,dim_381,dim_382,dim_383,dim_384,dim_385,dim_386,dim_387,dim_388,dim_389,dim_390,dim_391,dim_392,dim_393,dim_394,dim_395,dim_396,dim_397,dim_398,dim_399,dim_400,dim_401,dim_402,dim_403,dim_404,dim_405,dim_406,dim_407,dim_408,dim_409,dim_410,dim_411,dim_412,dim_413,dim_414,dim_415,dim_416,dim_417,dim_418,dim_419,dim_420,dim_421,dim_422,dim_423,dim_424,dim_425,dim_426,dim_427,dim_428,dim_429,dim_430,dim_431,dim_432,dim_433,dim_434,dim_435,dim_436,dim_437,dim_438,dim_439,dim_440,dim_441,dim_442,dim_443,dim_444,dim_445,dim_446,dim_447,dim_448,dim_449,dim_450,dim_451,dim_452,dim_453,dim_454,dim_455,dim_456,dim_457,dim_458,dim_459,dim_460,dim_461,dim_462,dim_463,dim_464,dim_465,dim_466,dim_467,dim_468,dim_469,dim_470,dim_471,dim_472,dim_473,dim_474,dim_475,dim_476,dim_477,dim_478,dim_479,dim_480,dim_481,dim_482,dim_483,dim_484,dim_485,dim_486,dim_487,dim_488,dim_489,dim_490,dim_491,dim_492,dim_493,dim_494,dim_495,dim_496,dim_497,dim_498,dim_499,dim_500,dim_501,dim_502,dim_503,dim_504,dim_505,dim_506,dim_507,dim_508,dim_509,dim_510,dim_511,dim_512,dim_513,dim_514,dim_515,dim_516,dim_517,dim_518,dim_519,dim_520,dim_521,dim_522,dim_523,dim_524,dim_525,dim_526,dim_527,dim_528,dim_529,dim_530,dim_531,dim_532,dim_533,dim_534,dim_535,dim_536,dim_537,dim_538,dim_539,dim_540,dim_541,dim_542,dim_543,dim_544,dim_545,dim_546,dim_547,dim_548,dim_549,dim_550,dim_551,dim_552,dim_553,dim_554,dim_555,dim_556,dim_557,dim_558,dim_559,dim_560,dim_561,dim_562,dim_563,dim_564,dim_565,dim_566,dim_567,dim_568,dim_569,dim_570,dim_571,dim_572,dim_573,dim_574,dim_575,dim_576,dim_577,dim_578,dim_579,dim_580,dim_581,dim_582,dim_583,dim_584,dim_585,dim_586,dim_587,dim_588,dim_589,dim_590,dim_591,dim_592,dim_593,dim_594,dim_595,dim_596,dim_597,dim_598,dim_599,dim_600,dim_601,dim_602,dim_603,dim_604,dim_605,dim_606,dim_607,dim_608,dim_609,dim_610,dim_611,dim_612,dim_613,dim_614,dim_615,dim_616,dim_617,dim_618,dim_619,dim_620,dim_621,dim_622,dim_623,dim_624,dim_625,dim_626,dim_627,dim_628,dim_629,dim_630,dim_631,dim_632,dim_633,dim_634,dim_635,dim_636,dim_637,dim_638,dim_639,dim_640,dim_641,dim_642,dim_643,dim_644,dim_645,dim_646,dim_647,dim_648,dim_649,dim_650,dim_651,dim_652,dim_653,dim_654,dim_655,dim_656,dim_657,dim_658,dim_659,dim_660,dim_661,dim_662,dim_663,dim_664,dim_665,dim_666,dim_667,dim_668,dim_669,dim_670,dim_671,dim_672,dim_673,dim_674,dim_675,dim_676,dim_677,dim_678,dim_679,dim_680,dim_681,dim_682,dim_683,dim_684,dim_685,dim_686,dim_687,dim_688,dim_689,dim_690,dim_691,dim_692,dim_693,dim_694,dim_695,dim_696,dim_697,dim_698,dim_699,dim_700,dim_701,dim_702,dim_703,dim_704,dim_705,dim_706,dim_707,dim_708,dim_709,dim_710,dim_711,dim_712,dim_713,dim_714,dim_715,dim_716,dim_717,dim_718,dim_719,dim_720,dim_721,dim_722,dim_723,dim_724,dim_725,dim_726,dim_727,dim_728,dim_729,dim_730,dim_731,dim_732,dim_733,dim_734,dim_735,dim_736,dim_737,dim_738,dim_739,dim_740,dim_741,dim_742,dim_743,dim_744,dim_745,dim_746,dim_747,dim_748,dim_749,dim_750,dim_751,dim_752,dim_753,dim_754,dim_755,dim_756,dim_757,dim_758,dim_759,dim_760,dim_761,dim_762,dim_763,dim_764,dim_765,dim_766,dim_767
BAG,0.37327874,0.72654653,1.05700278,0.18759049,0.41951725,0.76388872,0.89557111,0.44933450,0.88704908,0.50957668,0.04339497,0.56879455,0.19835956,0.86673689,0.63428473,0.70695144,0.52642131,0.25684512,0.31644255,0.58040178,0.74970478,0.53630286,0.84353447,0.56194139,0.93384558,0.65140474,0.79425615,0.83033383,0.38683850,0.53532243,0.67170048,0.46794900,0.37752622,0.37028658,0.71488678,0.30062157,0.34878033,0.71942163,0.51474440,0.28716579,0.46458358,0.32099593,0.55913532,0.46464950,0.46168917,0.23094767,0.72763437,0.59520829,0.61201012,0.67840195,0.68739653,0.50568140,0.40393937,0.86262411,0.34265417,0.42199755,0.53922045,0.78396881,0.58516335,0.56610608,0.40804821,0.91046816,0.07133865,0.91015297,0.46899891,0.65303457,0.36740127,0.39934629,0.52833086,0.07547468,0.52807486,1.17190933,0.58207583,0.83328420,0.80166668,0.43470499,0.29005632,0.95429051,0.43715191,0.80035186,0.48218682,0.29172662,0.63521993,0.57829577,0.44889033,0.55187410,0.68085206,0.97906041,0.03137499,0.68769407,0.37186822,0.60840368,0.53148025,0.49790072,0.26411089,0.42050400,0.81294072,0.71187305,0.88705736,0.39538699,1.04312563,0.65087938,0.98474264,1.28948212,0.82700086,0.36745459,0.76358998,0.50975877,0.48920104,0.29060763,0.67328459,0.76231462,0.38902548,0.33219671,0.54273462,0.28013936,0.55909038,0.62363803,0.95025158,0.37417513,0.50962925,0.44075999,0.38215908,0.63700914,0.87522769,0.68366253,0.43884486,0.71232533,0.41843608,0.58178759,0.53085524,0.22578439,0.42771646,0.38368878,0.52563941,0.91277373,0.12127125,0.88657862,0.45522439,0.42184860,0.56097114,0.29800761,0.24825561,0.67987156,0.48105577,0.63716888,1.19190788,0.52093863,0.45438376,0.95330083,0.66250563,0.34055090,0.42385042,0.36794347,0.73946232,0.82525527,0.52041429,0.39322802,0.55936182,0.48755729,0.49844128,0.20381965,0.85231662,0.46822467,0.36407411,0.82342625,0.56559956,0.45912248,0.31702551,0.49910632,0.80425227,0.74752760,0.65693116,1.03922796,0.34818789,0.70246124,0.18372867,-0.02681585,1.14340997,0.83887196,0.52991802,0.24798740,0.38608032,0.56669831,0.76500821,0.41411766,0.16495211,0.43495065,0.54095364,0.32646161,0.40733933,0.36335528,1.12214756,0.21884038,1.02112865,-2.05235791,0.64865291,0.74962878,0.54324710,0.50103503,0.46275318,1.41876936,0.28443381,0.61708397,0.31147799,0.57685953,0.95909911,0.45463502,0.35727304,0.21725014,0.22098033,0.73916316,0.52263248,0.82959008,0.48717865,0.58060086,0.83748335,0.40249532,0.62339908,1.03967297,0.51154310,0.39720261,0.37656137,0.67250061,0.58606863,0.49777007,0.14516091,0.65418386,0.60722208,0.71998191,0.05389921,0.99892908,0.71717572,0.78489971,0.43773168,0.52198863,0.56652933,0.62335706,1.04804635,0.51258051,0.77352607,0.69250172,0.54538012,0.83263463,0.59316862,1.41958618,0.46569818,0.49081433,0.31122535,0.82813013,0.51841462,0.41218567,0.31623688,0.60543346,0.43868005,0.73008156,0.34816685,0.35974881,0.48802906,1.02966714,0.44414240,0.38739818,0.80305743,0.44982556,0.44715941,0.23064131,0.46482211,0.82620662,0.26432529,0.75249457,0.35028020,0.56378531,0.22812320,0.32785350,0.49044600,0.56187797,0.43105567,0.21259813,0.29539621,0.25068435,0.50949466,0.87958002,0.41973138,0.65897924,0.46272632,0.21721774,0.59545052,0.58345872,-1.31470418,0.65475214,0.74212533,0.36161184,0.40308201,0.59367758,0.32602260,0.93408960,0.32474610,0.64605761,0.37215132,0.56515789,0.16060227,0.71652055,0.51041055,0.92340529,0.54547882,0.89688003,0.39382216,0.87866658,0.46052185,0.24650349,0.73626482,0.40219095,0.46994945,0.93608189,0.65394765,0.19031316,-8.75440788,0.40523413,0.78762037,0.51113236,0.34657934,0.42798615,0.64425176,0.50676095,0.78667843,0.75984371,0.93984389,0.35451734,0.42610225,0.15230519,0.45780557,0.34175068,0.32122281,0.19881481,0.68171525,0.71535397,0.78621256,0.39882645,0.39091942,0.38817269,0.61295998,0.35799971,0.57052660,0.77440035,0.47174299,0.83011717,0.78745109,0.81720448,0.85935140,0.80062670,0.15481694,0.51919961,0.64729100,0.48928073,0.56121916,0.58101732,0.80514193,0.65343547,0.91617352,0.76306713,0.61836678,0.35395718,1.28196871,0.02652673,0.40913039,0.69441080,0.87136507,0.37432009,0.61965698,0.30352134,0.58513409,0.64884424,0.23196185,0.37959325,0.51717269,1.05903494,0.25034925,0.65994108,0.58834803,0.45012507,1.30887067,0.00249456,0.53917861,0.87966681,0.41655973,0.86888564,0.86350441,0.46210921,0.32853132,0.37888131,1.41111946,0.49993569,0.50909156,0.58856112,0.48844406,0.76019627,0.55558115,0.56614548,0.54834396,0.47070944,0.52437782,0.96820903,0.79477441,0.47993642,1.00564563,1.03992140,0.59111440,0.27032781,0.76658988,0.29288924,0.67695725,0.57106841,0.46468085,-1.23144650,0.39089912,0.59863287,0.80505329,0.50701821,0.65794265,0.42554381,0.75374985,0.68707955,0.62146127,0.88469416,0.62213475,0.54721105,0.34188497,0.57366347,0.90180540,0.67968869,0.82177085,0.47409081,0.49094141,0.46011674,0.87460625,1.00447667,0.72912979,0.64650965,0.56210268,0.59103411,12.39450073,0.72794330,0.71572667,0.64921534,0.69952130,0.88766068,0.69621849,0.88136739,0.21460080,0.58136767,-0.20013630,0.44335949,1.31023216,0.43574327,0.71768355,0.62639636,0.40043935,0.64106512,0.48513439,0.48210815,0.26129571,0.20238671,0.34194756,1.18182254,0.70546556,0.56127244,0.80116230,0.40977097,0.66943604,0.62683213,0.83175373,0.28335994,0.65300977,0.44615597,0.50701159,0.52704543,0.42978418,0.61584580,0.60450482,0.78251004,0.36934453,0.69699800,0.75226241,0.39781818,0.71081138,0.48062468,0.22484405,0.52139497,0.46240956,0.75781661,0.74883080,0.40238434,0.19418707,0.67111480,0.70391309,0.25923246,0.36298755,0.50630975,0.54761833,0.45690662,0.82280934,0.32630193,0.22746128,0.98561323,0.36297834,0.68793052,0.40823740,0.47870439,1.15430450,0.81104308,0.04033861,0.22938494,0.71090996,0.68117213,0.76616216,0.39735329,0.70686096,0.38817957,0.55581343,0.69223750,0.65895259,0.70963514,0.46555313,0.71629167,0.40454853,0.75983340,0.69834697,0.33641335,-0.01363859,0.47922784,0.17384095,0.23616081,0.40922296,0.49988514,0.24252862,0.50753647,0.89781439,0.58316743,0.10394443,0.55120122,0.63300467,0.42784792,0.76221502,0.77117789,0.40207630,0.38031319,0.54686999,0.23325101,0.70745993,0.56910414,0.56077194,0.54774344,0.80387139,0.45916286,0.59467733,0.78667241,1.39333725,0.99336153,0.09825560,0.45390481,0.06700927,0.69020832,0.39168015,0.71544385,0.67504907,0.46872318,1.13412678,0.39276645,0.65153933,0.43097663,0.69639379,0.71026880,0.63648593,0.46961105,0.39429617,0.13546975,0.31087965,0.45035544,0.40340316,0.05795310,0.64759177,0.74208593,0.08105266,0.60004044,0.56549799,0.22664785,0.79004025,0.67734677,1.65823960,0.82900476,0.32252091,0.77048683,0.81895441,0.74255639,0.71155363,0.09424092,0.50339347,0.74539709,0.47425744,0.32973576,0.43245822,0.23885624,0.83625335,0.39567569,0.45609525,2.09355426,0.50528228,0.39154267,0.39389890,0.14815621,0.64744365,0.51276964,0.82343876,0.49283877,0.43644619,0.71615481,0.63962436,0.22368154,0.42496794,0.83741617,0.59144956,0.43498957,0.56734443,0.35160378,0.50049657,0.46493173,0.70701301,0.11933689,0.30408174,0.45081180,0.70870233,0.45897478,0.61696470,0.67039239,0.56591260,1.16469693,0.19862527,0.32958752,0.75309080,0.29415923,0.49012512,0.37561601,0.41462439,0.63323551,1.82517672,0.35618815,0.75078130,0.41357839,0.42022991,0.34352303,0.37179634,0.36152053,0.57662225,0.26333505,0.99683118,0.36850947,0.61778057,0.76672620,0.76668036,0.53359604,0.28107685,0.44021881,0.39090401,0.75804293,1.06953239,0.51969755,0.41916448,0.77724516,0.49189544,0.69553065,0.72944093,0.55329585,0.54108804,0.51340520,0.52272755,0.66552150,0.89191878,0.60930496,0.29743588,0.83790511,0.27343053,0.30881864,0.44134796,0.30432761,0.43282980,0.84501505,0.48484495,0.02610135,0.77928829,0.44993806,0.65698320,0.90431267,0.22242840,0.33485967,0.68388367,0.48462147,0.20484766,0.49509579,0.81663144,0.65459013,0.68408591,0.45495650,0.69040185,-0.45387319,0.40742579,0.70607805,0.74954903,0.40705046,0.54571068,0.26406312,0.51123577,0.69629598,0.11710896,0.61313391,0.78930259,0.64999175,0.22845095,0.60191506,0.69560266,0.22694215,0.62483346,0.46728939,0.77921116,0.69281411,1.04939079,1.37082362,0.69755393,0.37465656,0.23839583,0.83225799,0.77010775,0.46729925,1.04443431,0.56153256,0.22088054,1.04503536,0.44378147,0.54866749,0.32288694,0.40952721,0.92648470,0.62321079,0.66547430,0.70740372,0.38373286,0.91572785,0.86097658,0.68407929,0.37219149,0.53097010,0.53896439,0.17219807,0.47554031,0.65565860,0.62385428,0.91159517,0.59796149,0.35216540,0.93767655,0.94791365,0.20935902,0.54082173,0.77935565,0.66363072,0.22667578,0.28542832,0.64790100,0.84392679
CLOUDS,0.42531794,0.48645189,0.93247885,0.28344744,0.28681755,0.44099411,0.57350576,0.48695499,0.43635085,0.37338468,0.19224218,0.20219275,0.25750786,0.94311202,0.41840601,0.64242274,0.49021474,0.68373817,0.45776045,0.89656115,0.54959899,0.58442706,0.74586672,0.55844957,0.92802894,0.46538377,0.41762149,0.32063878,0.83687770,0.38878173,0.57685834,0.46630916,0.32700467,0.45604920,0.55187142,0.48768151,0.13801791,0.55799466,0.48099682,0.02330177,0.45726258,0.53247797,0.49712214,0.30800572,0.09001581,0.34342080,0.22754782,0.53533667,0.90267646,0.48213792,0.79202116,0.50877613,0.44943914,0.72623932,0.81967163,0.14630160,0.52457488,1.03143919,0.58376443,0.56182736,0.31220287,0.71832061,0.36492687,0.48423287,0.87540591,0.77264380,0.46022153,0.56861281,0.73637009,0.19148523,0.64600015,0.62560880,0.37256867,0.44535398,0.40737945,0.36643326,0.71946412,0.45375830,0.54187715,-0.06418190,0.54449868,0.38200009,0.39650095,0.56701910,0.82821566,0.02577712,0.41295326,0.63875723,0.32503349,0.44534746,0.57962680,0.34832877,0.76261926,0.49240535,0.54122162,0.40278000,0.56610274,0.21190333,0.66902471,0.32688659,0.50860584,0.95528114,0.67401099,0.59791505,0.35026866,0.43714246,0.69677913,0.73320377,0.30438834,0.01684859,0.33278370,0.34974808,0.60843247,0.43649030,0.69078702,0.17981182,0.83608907,0.69447136,0.86567116,0.50018501,0.46814919,0.74014401,0.31556404,0.59055275,0.58338177,0.75075996,0.52673447,0.40797150,0.04986542,0.49311060,0.59847790,0.44864929,0.16386712,0.10368489,0.51177067,0.68933314,0.16717666,0.83831608,0.45042518,0.33628953,0.45046052,0.12265567,0.07143436,0.55458891,0.73223656,0.52519840,0.47056070,0.03518912,0.82295150,1.14357996,0.46769691,0.36431658,0.52289742,0.31835601,0.43698549,0.61208576,0.35389808,0.76088929,0.24167229,0.15758559,0.34558508,0.45671993,0.60444158,0.66049510,0.32074416,0.30254632,0.44278854,0.40870231,0.02097263,0.43717909,0.49618739,0.32086378,0.61548650,1.09456801,0.23208663,0.42471153,0.19582947,-0.59437287,1.11589527,0.75327039,0.46935722,0.24184069,0.02642222,0.47444329,0.53280920,0.83236432,0.33944103,0.38761202,-0.01643497,0.44038436,0.39490482,0.74518973,0.63362640,0.38008967,0.46133074,-1.26485085,0.27468294,0.80279732,0.55980730,0.94186366,0.26976764,1.42158735,0.27171743,0.51009607,0.46495923,0.30573738,0.88649535,0.78557813,0.13258858,0.83455282,0.25394756,0.12443210,0.30829486,0.63857269,0.32581148,0.30357897,0.52812517,0.66351968,0.60546148,0.73139548,0.43656072,0.58336639,0.57598406,0.53126270,0.65870464,0.55053818,0.25763053,0.53568470,0.58803594,0.71162784,0.29320437,0.61645454,0.36811370,0.51028347,0.21594878,0.78105056,0.42832282,0.42638683,0.60423183,0.86044770,0.31163192,0.55663884,0.42176661,1.13457680,0.89158696,0.73217893,0.73621869,0.43870252,0.28161514,1.00055408,0.70460194,0.35463765,0.63929713,0.54981273,0.52514380,0.89780450,0.05773886,0.38993138,0.36443681,1.26325655,0.51844466,0.46102849,0.19721559,0.58956915,0.14921759,0.69627774,0.66780084,0.62863839,0.13657214,0.22226761,0.77244508,0.32659814,0.56456184,0.15980993,0.51567239,0.54094541,0.15199488,0.13856484,0.62397325,0.48415053,0.45659193,0.89031541,0.40924683,0.54059660,0.51849782,0.36947790,0.25799716,0.24145204,-1.07608223,0.61620796,0.31114855,0.44749904,0.80104333,0.59357721,0.73865765,0.73141688,0.55119163,0.33781797,0.69116062,0.48501322,0.35581571,0.63983798,0.61618447,0.33783877,0.57258970,0.57941896,0.28293139,0.45492068,0.27193257,0.30959523,0.82658452,0.73276138,0.65540421,0.62859237,0.76644444,0.42347136,-6.31890774,0.92700791,0.42462116,0.33080447,0.19477314,0.39562753,0.53644907,0.52062964,0.33161533,0.76527911,0.17341939,0.85026562,0.67595232,0.53933328,0.28131467,0.32806426,0.46511137,0.08622294,1.14245665,0.74453235,0.63360941,0.74123996,0.29752514,0.53737837,0.18170750,0.32477576,0.16806549,0.45786849,0.50068849,0.69744235,0.56093115,0.16209635,0.39707035,0.38249016,0.79903561,0.59514165,0.54519808,0.66311145,0.49099663,0.62108374,0.66878462,0.46214631,0.78895330,0.16655505,0.50139230,0.27192971,0.93836904,1.07566476,0.74349833,0.09050268,0.52377301,0.13505544,0.39242560,0.50087601,0.51890802,0.51665103,0.55264097,0.50967741,0.42560703,0.76687753,0.66424304,0.69097370,0.59638011,0.16762598,0.86555231,0.55044770,0.44566545,0.86609709,0.47701561,1.20008278,0.35209516,0.70405936,0.73841941,0.66222841,1.09924054,0.71792507,0.42255908,0.64181983,0.82620698,0.63836455,0.58349890,0.48181841,0.32326397,0.37166852,0.77713382,0.32536280,0.88546383,0.74317503,1.13838065,0.37909997,0.85408705,0.57461286,0.26069033,0.46678686,0.34118986,0.34022486,0.30014282,-0.88446093,0.04281753,0.34090394,0.62582707,0.64999384,0.72252595,0.44612116,0.10096098,0.51271272,0.65639275,0.42183995,0.02271661,0.56561106,0.23297417,0.43688357,0.88006997,0.45311856,0.68304074,0.40577114,0.36970302,0.73975801,0.42113826,0.90712875,0.46982464,0.84690040,1.06846917,0.65829444,12.57076454,0.33473143,0.52459872,0.63350070,0.56428331,0.59799021,0.62540466,0.38798547,0.51612067,0.54089689,-0.02652854,0.43370959,1.40593147,0.44754416,0.50374246,0.62250471,0.19762266,0.80757332,0.30786297,0.67891085,0.49203712,0.43137711,0.66893685,1.09020555,0.63353652,0.64825076,0.75809979,0.39556053,0.37894279,0.84792447,0.33241567,0.37960720,1.09057641,0.54160470,0.27748737,0.32006577,0.50231624,0.44885203,0.30710357,0.60030991,0.33949351,0.51785809,0.53052211,0.35284689,0.71749675,0.62792003,0.69122332,0.41910219,1.12817240,0.87723196,0.52637804,0.57420272,0.42340401,0.31165904,0.32174540,0.64368254,0.73876262,0.23484012,0.73604310,0.34275720,0.99363726,0.42599884,0.75355607,0.77729851,0.42139113,0.47102809,0.81478667,0.56863356,0.73796523,0.42652807,1.01336551,0.22742365,0.12920126,0.27995518,0.50186390,0.52902400,0.72592646,0.32691136,0.74004787,0.60029447,0.28905967,0.59322393,0.72879565,0.50335139,0.75001854,0.45858818,0.52768940,0.31219503,0.27626067,0.42396495,0.49974394,0.74695790,0.37846154,0.26688978,0.33824536,0.32599145,0.41677988,0.76454878,0.43783000,0.65993106,0.29130018,0.27437532,0.77943671,0.61857694,0.59154832,0.36655703,0.47008905,0.66266572,0.35501900,0.45229754,0.73899323,0.26128989,0.78951532,0.70844185,0.18514892,0.48873624,-0.16439906,0.41045183,0.15768088,0.68083322,0.04272877,0.49554348,0.65100616,0.70838213,0.92290807,0.56766045,0.68892264,0.30740935,0.42593086,0.64595568,0.98456419,0.61021191,0.48670495,0.41407454,0.64972329,0.02287294,0.29552981,0.26285937,0.57213634,0.57889968,0.75579238,0.77720284,0.10647875,0.27242589,0.12185934,0.27247477,0.53645200,0.50049090,1.74457502,0.48029038,0.31088597,0.73967230,0.26496857,0.37093237,0.95194060,0.56562561,0.43140608,0.61337680,0.26208654,0.30345032,0.53984910,0.43426234,0.56683749,0.76758254,0.80271733,0.59636897,0.22825147,0.57718331,0.57385480,0.18678693,0.40153712,0.79770166,0.59121269,0.50450277,0.35753936,0.73136365,0.58885711,0.25568604,0.48822761,0.30996716,0.54058325,0.50143647,0.49706966,0.62564456,0.25132734,0.74640095,0.53271210,0.16103688,0.32399857,0.74185336,0.46440041,1.04450798,0.75175947,0.25698170,0.43810391,0.75825489,0.80892003,0.42631802,0.58488417,0.21026388,0.39508224,0.64833903,0.39545012,0.26179248,1.89341593,0.46250594,0.48564342,0.28046212,0.31948620,0.20886004,0.44476631,0.49961996,0.79110539,0.07941443,0.70183563,0.41009992,0.72692502,0.66032672,0.60161388,0.25316435,0.20847082,0.51528853,0.37204039,0.50343215,0.80839550,0.50563747,0.44372919,0.39840725,0.41507450,0.89851403,0.26956168,0.72766733,0.41903105,0.20466626,0.36237788,0.51563889,0.58190852,0.72844523,0.30093473,0.80288333,0.55297470,0.72811258,0.58215880,0.08440410,0.32809818,0.62498033,0.63225281,0.38089997,0.80197382,0.42728174,0.90659136,0.29991287,0.21733008,0.10899024,0.32297847,0.47114733,0.59304702,0.67601597,0.90922439,0.24133608,0.49083060,0.63780338,0.16013162,-0.29455411,0.56451070,0.82212973,0.62563086,0.37306833,0.47965547,0.26369488,0.27678382,0.70379126,0.41115946,0.04411945,0.54284579,0.42893526,1.05246067,0.34552225,0.86932105,0.02295716,0.47011173,0.49253669,0.66022986,0.81523764,1.01528895,1.23338723,0.41251367,0.20040457,0.21710929,0.73697412,0.94033754,0.68142700,0.60783291,0.38779354,0.47335276,0.99237704,0.26362649,0.28281537,0.35243502,0.40940517,1.05968583,0.78675854,0.80423647,0.35028717,0.59698987,0.38920110,0.71427155,0.43934780,1.06811726,0.48897925,0.11058299,0.40205222,0.97562253,0.63236666,0.60061854,-0.11142020,0.46207273,0.69563633,0.70436287,0.22336933,0.21512467,0.14024433,0.47363335,0.77695715,0.44232309,0.65832973,0.12456778,0.54024845
DRAGONFLY,0.80902946,0.70769155,0.88689101,0.26621062,0.16043529,0.57215691,0.94085681,0.73446792,0.50477111,0.68890506,0.39516053,0.48915815,0.07734802,0.79417008,0.46964762,0.24939972,0.61420548,0.69426429,0.47137010,0.56158888,0.51462090,0.31095356,0.73151040,0.51715124,0.95712191,0.64188141,0.39627421,0.50646704,0.47640568,0.29011673,0.51440966,0.58042437,0.78800309,0.57607365,0.54727829,0.12794995,0.31920221,0.76008344,0.99822092,0.49537966,0.84264779,0.11186320,0.67392129,0.38179910,0.35094482,0.39437664,0.65377533,0.32184976,0.54454267,0.51992995,0.48951334,0.56261069,0.45996428,0.97449923,0.25556406,0.68327606,0.73964536,0.84985697,0.20269075,0.56524980,0.11925878,0.95288169,0.44739592,0.05031187,0.89043695,0.82372975,0.26207337,0.61328638,0.77848589,0.30467933,0.41080070,1.08021176,0.53784436,0.61280227,0.19163437,1.05586004,0.43130362,0.43677437,0.43577668,0.67790592,0.37370172,0.32276064,0.45656037,0.45137006,0.62322909,0.33944654,0.47620493,0.91983974,-0.18087949,0.24941996,0.35645837,0.44562143,0.75895339,0.74478495,0.74297768,0.44767404,0.34905189,0.29334617,0.58162713,0.61896729,0.59580863,0.73896980,0.32898003,0.58551681,0.66751111,0.47784191,0.75183052,0.63539779,0.53066093,0.12805185,0.24897577,0.39242274,0.31523842,0.31965274,0.34295544,0.14652856,0.51481450,0.70833611,0.99423021,0.54626918,0.67932880,0.41257983,0.36955261,0.32971084,0.72872740,0.63551122,0.81757969,0.96392459,0.08100522,0.60554141,0.43699190,0.52735579,0.29008469,0.41536880,0.44306946,0.60910738,0.43786001,0.78754318,0.66822481,0.21528730,0.53925240,0.71292198,0.36022133,0.46737897,0.63312984,0.36093637,0.68815780,0.64388508,0.48825294,0.61008418,0.56408119,0.36279985,0.66370147,0.43889123,0.70229000,0.50698191,0.89530480,0.69607937,0.26478940,0.07987764,0.59854829,0.35477227,0.53938723,0.56246561,0.41308057,0.63758397,0.58864379,0.12589858,0.56830931,0.44366243,0.84432197,0.46701986,0.48528841,0.84264898,0.46473578,0.37883723,0.47708037,-0.46142381,1.25776243,0.37278304,0.27916443,-0.17045349,0.38337779,0.71146584,0.36406970,0.45367190,0.88979346,0.50119340,0.28495872,0.36700514,0.43172127,0.41518477,0.60597396,0.72841185,0.41032419,-1.58412886,0.68430579,0.79435998,1.06672180,0.40143621,0.54826683,1.57820106,0.49710935,0.35898277,0.63253713,0.36223081,0.72808647,0.50016558,0.36493134,0.60942626,0.46735790,0.45999533,0.53303337,0.45431155,0.75156915,0.49119741,0.77851105,0.47276738,0.76317877,0.85405511,0.48793262,0.62090659,0.51497543,0.34774548,0.79836428,0.45993018,0.25897831,0.60108685,0.60319161,0.65366066,0.34141591,0.93872499,0.61791748,0.44964790,0.24818854,0.72502875,0.49037540,0.63046241,0.79588878,0.58784997,0.77891415,0.88144588,0.77780497,0.40768048,0.88222456,1.09297752,0.40448123,0.61555612,0.65360898,0.73548633,0.40367037,0.21899036,0.10554539,0.73645633,0.60406041,0.86024201,0.32152864,0.72671896,0.58660090,0.99053085,0.34746793,0.73301435,0.26066998,0.49005359,0.55508089,0.86091816,0.50325942,0.64085716,0.38109547,0.35674211,0.70199347,0.55818903,0.24948902,0.54187691,0.54087293,0.45333970,0.41011971,-0.02797781,0.56444895,0.05134568,0.59430099,0.71155375,0.17191251,0.75682843,0.34988406,0.75578845,0.41873506,0.31244856,-0.99311578,0.64570260,0.11768396,0.19012138,0.44257152,0.58271039,0.56521732,0.70218050,0.10818601,0.50300741,0.06045048,0.10075992,0.50768661,0.42723262,0.89707589,0.85247231,0.29280549,0.64397204,0.16481644,0.39120743,0.60261977,0.41577649,0.81724888,0.11184190,0.41118845,0.22485922,0.49983716,0.17788109,-8.77877045,0.38321313,0.40991437,0.24805221,0.26424944,0.79101229,0.48324525,0.74796402,0.61897951,0.71064115,-0.23238367,0.70977294,0.58054113,0.56012642,0.08070008,0.49014777,0.19353783,0.32348526,0.61543751,0.57236391,0.98777270,0.51624757,0.58660382,0.32878706,0.41535354,0.31359491,0.36666739,0.67061800,0.14205137,0.68344188,0.68607891,0.57062405,0.71450096,0.68017018,0.40748438,0.22949149,0.22429395,0.71696109,0.56172776,0.58040357,0.89715195,0.49883744,0.81605732,0.66898960,0.73157066,0.50436264,0.99415988,0.82811880,0.45104989,0.37553751,0.56257707,0.42098591,0.37181365,0.45371690,0.59245718,0.47145700,0.74071383,0.56922603,0.97925383,0.73044658,0.14444348,0.26227391,0.46622425,0.34007120,0.62917256,0.36523980,0.57354784,0.71032226,0.50745457,1.21231711,0.23719107,0.59766889,0.37763977,0.63175559,0.58976966,1.10262215,0.62122208,0.57646894,0.54843330,0.41256779,0.74895763,0.85751688,0.42219964,0.59436804,1.00301683,0.55469054,0.82175052,0.64624405,1.38814747,0.59884948,0.76266551,0.72797102,0.26906431,0.58339036,0.63923174,0.34766138,0.93474782,-1.00819969,0.05378285,0.41850874,0.65682071,0.64144039,0.69833302,0.32506126,0.30486199,0.64545774,0.28681895,0.31986856,0.70426631,0.80573046,0.19608867,0.45108056,0.69701183,0.26264399,0.42844835,0.48078054,0.88167989,0.64056301,0.57717162,1.17908013,0.38502866,0.43181163,0.56536025,0.40508729,12.29247284,0.47700942,0.58317250,0.43340617,0.64707756,0.50477898,0.66408390,0.38398737,0.74002832,0.80566067,0.10996318,0.41508710,1.04308271,0.30339170,0.11239058,0.53907245,0.36035284,0.43117863,0.54033029,0.48617759,0.35685393,0.28729099,0.48019168,1.16534615,0.65489554,0.34904644,0.41316360,1.08558095,0.89072835,0.69589508,0.45880181,0.48345858,0.66832089,1.02851689,0.25388348,0.47772735,0.60493338,0.54025936,0.49419886,0.83112007,0.41212118,0.82664049,0.45095754,0.03813754,0.66104579,0.43440515,0.25427121,0.59190041,0.82584625,0.83756745,0.77583230,0.41165638,0.30192813,0.39801186,0.60884082,0.58562481,0.32590723,0.26501882,0.62699038,0.57967728,0.38049927,0.68102980,0.72874570,1.02099419,0.28919512,0.65644491,0.84832323,0.53304166,0.65514755,0.70502377,0.29427308,0.43337172,0.75843048,0.36203974,0.68935740,0.69624013,0.39879611,0.35880649,0.62817693,0.79820561,0.65764022,0.63300914,0.08364426,0.59932286,0.68974209,0.65358961,0.78863537,0.43444377,-0.04850607,0.25239038,0.39858663,0.75080985,0.47938433,0.18407610,0.83820629,0.54926443,0.92216825,0.44092464,0.46923020,0.57046366,0.17795727,0.04675193,0.84137803,0.51862150,0.64532274,0.45142177,0.33365482,0.69655639,0.31362644,0.44457257,0.89458752,0.55891544,0.43698978,0.00483510,0.36450326,0.85537606,0.42162588,0.46963516,0.30541936,0.42037290,0.91585696,0.70162261,0.59149617,0.46113819,1.03790009,0.29469141,0.78106225,0.34564686,0.73819274,0.56805998,0.22553036,0.39651620,0.61359847,0.13342895,0.50814247,0.24561603,0.96254319,0.51311892,0.36880979,-0.05328901,0.39448929,0.26957503,0.13232258,0.52002770,0.35222024,0.54206240,0.63973880,0.53682089,1.49178302,0.75517136,0.30987382,0.85195482,0.33960679,0.59508270,0.47215283,0.15962781,0.32947049,0.58272505,0.22474073,0.36211434,0.84345442,0.39453211,0.55383563,0.44273251,0.61118686,1.52921629,0.38813391,0.77769464,0.51020199,0.20101467,0.85410738,0.45329732,0.40701219,0.52021986,0.42664719,0.63680851,0.69105411,0.33511314,0.53736538,0.51478779,0.51650423,0.56592429,0.71616590,0.51634765,0.46491075,0.73202085,0.49949101,0.08898737,0.48637867,0.64460921,0.64615500,0.74372387,0.38675722,0.53531599,0.62165558,0.82049954,0.81501794,0.80262578,0.45808050,0.25191891,0.65839541,0.37102294,0.35993448,0.36527675,1.86815619,0.48737821,0.58942223,0.13850582,0.33179450,0.52014077,0.24245089,0.68074781,0.33836508,0.34861922,0.57143366,0.40341598,0.55498207,0.78323668,0.54196137,0.23826113,0.30466586,0.15624976,0.23947084,0.59958535,0.55210525,0.55066013,0.31223971,0.52446783,0.50547272,0.19736487,0.69414264,0.44008988,0.67310536,0.27929819,0.56520057,0.51709896,0.44008523,0.74259275,0.39902759,0.59284049,0.90045273,0.31737632,0.32774913,0.33650866,0.29363853,0.83878744,0.60074216,0.14274347,0.87150562,0.24469459,0.80778366,0.78215086,0.35002917,0.20659161,0.49385631,0.69955248,0.38641855,0.87975049,0.79108119,0.33313492,0.67953151,0.64626384,0.61361200,-0.09845759,0.84005380,0.77545762,0.64444506,0.42473316,0.39016628,0.40912306,0.23599216,0.84321237,0.41371703,0.67474657,0.10629920,0.80199957,0.40048611,0.43277135,0.54657704,0.13560477,0.36147016,0.23255332,0.61065698,0.91351473,1.24276435,1.29800630,0.56567490,0.58237875,0.63619971,0.60806501,0.48101014,0.39712024,0.39039534,0.51750052,0.43447420,0.54271257,0.53261590,0.58359963,0.78042042,0.51284415,0.74472672,0.64429015,0.37268567,0.63570750,0.39603081,0.34401327,0.81633496,0.51270992,0.43224123,0.57072109,0.47534189,0.37373555,0.56833184,1.02529979,0.78552055,0.53111410,0.49199697,0.55845267,0.68936360,0.82560623,0.29563501,0.16506699,0.36374137,0.40355968,0.40210932,0.51363808,0.18217820,0.44787240
EARTH,0.70628482,0.65365911,1.39096999,0.32764423,0.50110412,0.58950907,0.65245444,0.80305660,0.37334591,0.91335613,0.47891054,0.37948072,0.45002058,0.85073107,0.50963682,0.33726776,1.05033541,0.62306088,0.40836269,0.49123949,0.63509452,0.70784378,0.64939934,0.65332562,0.72208595,0.29190472,0.70568806,0.47264042,0.74549210,0.56962955,0.42907777,0.72870481,0.40427211,0.42543250,0.42788547,0.23907927,0.45560125,0.37625974,0.69794238,0.62589085,0.70672262,0.30656108,0.66801214,0.28592622,0.58116263,0.41091660,0.27467999,0.50011206,0.84291589,0.49284849,0.28884757,0.60718757,0.43726596,0.84489667,0.60886168,0.57748163,0.42744964,0.58384931,0.55510032,0.56800330,0.46623975,0.90263468,0.69630569,0.59671867,0.48631302,1.04496384,0.45566773,0.93492460,0.54482323,0.17532142,0.54653215,0.80875599,0.25811225,0.55533612,0.45605615,0.67875552,0.67143035,0.63506508,0.34263247,0.40228412,0.44389173,0.61281466,0.38873130,0.71431887,0.77592647,0.54679400,0.77511919,0.68082273,0.39518106,0.41050580,0.32599646,0.65447444,0.70951748,0.51844287,0.44446987,0.46944821,0.38512850,0.50422001,0.71858668,0.51277453,0.52385467,0.72754109,0.91587394,0.57827371,0.64129305,0.30361450,0.93663251,0.52424407,0.63214862,-0.15617417,0.43409941,0.81832600,0.45210907,0.87935114,0.19385800,0.28920209,0.45370162,0.45961469,1.03061318,0.51011693,0.60857838,0.39143074,0.75823617,0.54452157,0.54618263,0.67127842,0.40654778,0.40232915,0.23886470,0.43472481,0.66622734,0.10866854,0.53758645,0.46126130,0.32335705,0.67580485,0.25706482,1.35669088,0.53869349,0.45695227,0.35733187,0.38683027,0.58187407,0.66339797,0.68300068,0.67845488,0.92676342,0.27073207,0.89359939,0.91566181,0.48943859,0.38759083,0.57307667,0.44308388,0.60139078,0.71184373,0.43506587,0.85588801,0.65546548,0.25979787,0.72193199,0.32541007,0.68203604,0.62824035,0.79731464,0.51754874,0.58496535,0.42944849,0.68003917,0.44704086,0.79146695,0.61655080,0.62982059,0.95364004,0.67416793,0.54684961,0.57078671,-0.20406213,1.57274187,0.74777603,0.52977794,0.61642683,0.36207205,0.45770192,0.29840609,0.56999242,0.31465477,0.54036361,0.14275086,0.23155324,0.41297051,0.38681096,0.46126354,0.39475119,0.75868237,-1.77473950,1.00577402,0.86018127,0.66262311,0.48355010,0.47525558,1.99103594,0.44886452,0.34904307,0.32717589,0.66864967,0.82373595,0.53340060,0.40367848,0.56194568,0.33634126,0.25090611,0.62094045,0.50780916,0.46600008,0.56017256,0.48043692,0.44959220,0.24833189,1.00291073,0.60016537,0.43760288,0.29139906,0.43383402,0.62420195,0.52996349,0.45967445,0.66072273,0.77629060,0.44412631,0.22177471,0.59255248,0.50977147,0.45216784,0.30682063,0.72511202,0.40521598,0.24416903,0.46476999,0.78266561,0.87428629,0.77704430,0.75771159,0.34926271,0.70320654,1.16229987,0.65954375,0.49457383,0.80009860,0.70211327,0.71761543,0.54707944,0.35301167,0.55635190,0.45436215,0.67854202,0.67267549,0.64470106,0.73024750,1.63427114,0.49482691,0.48376223,0.34595352,1.02259803,0.49519157,0.91012955,0.39566171,0.97244966,0.26561874,0.35843360,0.54492962,0.69406396,0.41778105,0.14334407,0.99832714,0.30282182,0.52096486,0.36332551,0.15869522,0.08704799,0.82447326,1.04061520,0.28000635,1.02828312,0.69727421,0.43576711,0.59277081,0.40710571,-1.00924492,0.58972836,0.91111666,0.39608368,0.67204916,0.84500867,0.58746672,0.70657748,0.49421611,0.56112552,0.13934191,0.61931211,0.63058352,0.66327298,0.55106962,0.46320924,0.63802898,0.46558550,0.53295851,0.70924085,0.60447967,0.35659623,0.79696685,0.47013456,0.23548862,0.63997579,0.85096180,0.44079256,-9.49147701,0.40783507,0.31723729,0.69925809,0.63235462,0.39745617,0.55881774,0.81692034,0.63826680,0.71406746,0.39987451,0.44334620,0.56933224,0.42745325,0.48854536,0.95688224,0.74100327,0.40637839,0.70798707,0.82525003,0.57895917,0.53045070,0.59027922,0.41006568,0.38820201,0.68857253,0.56170070,0.85193563,0.57869315,0.61950392,0.71328259,0.53296673,0.62579066,0.26962459,0.29391354,0.28788272,0.48398530,0.82556498,0.78118265,0.62952816,0.66730773,0.39622462,0.66739255,0.28399050,0.53206635,0.27568310,1.14267254,0.90653241,0.53842700,0.61838627,0.61029911,0.41230696,0.60381538,0.29556948,0.56529236,0.83762193,0.36459559,0.65386784,0.39736822,0.96382469,0.60357738,0.75021803,0.83415484,0.39780012,0.66057515,0.32366773,0.21530610,0.52149624,0.50975651,0.53753513,0.71434224,0.32834461,0.61041760,0.50220370,0.60772336,0.70134622,0.15285371,0.57704479,0.53225231,0.51091528,0.50737798,0.51748747,0.61684459,0.63134164,1.08464170,0.87439036,0.80983084,0.70755601,1.60823405,0.55469060,0.50183308,0.25379288,0.46188778,0.43040270,0.42205542,0.20812604,1.03479671,-1.08800280,0.26257557,0.62870675,0.62536108,0.52337015,0.63980591,0.62522089,0.68623251,0.44888231,0.18247505,0.46065807,0.49438888,0.61949235,1.08872736,1.02292919,0.71330929,0.55769873,0.69324911,0.58514273,0.88097107,0.68631554,0.63595700,1.65836143,0.58318061,0.46387294,0.36687943,0.43800738,13.63609982,0.43909144,0.61641198,0.86994976,0.77345252,0.44139594,0.52703857,0.56290203,0.51667249,0.87577063,-0.10998297,0.53591490,1.79663491,0.41250074,0.60777891,0.36497784,0.58023173,0.63417423,0.57484722,0.54457682,0.64553291,0.27742091,0.19363281,1.25350320,0.43254426,0.89302456,0.38770083,0.60663724,0.63510382,0.62062418,0.53595555,0.58114886,0.69055003,0.51528627,0.47266036,0.58517039,0.67080224,0.46120730,0.80252039,0.61398953,0.54287517,0.53024065,0.49878106,0.37652099,0.93401623,0.47025764,0.25672454,1.13088787,0.63485235,0.80312681,0.64664006,0.60666513,0.32032433,0.44842774,0.75497186,0.38944578,0.43878812,0.40411058,0.41476378,1.16350007,0.99734235,0.27674907,0.90470374,1.01814413,0.13210911,0.34091803,0.45839918,0.51330000,0.42723787,0.45178112,0.23228252,0.41088659,0.72163665,0.66020793,1.04068100,0.56074297,1.18165433,0.88134450,0.63363665,0.98592108,0.48811832,0.67415905,0.60447931,0.69003898,0.64497191,1.21306825,0.45779899,0.44823158,0.02957590,0.40692741,0.37890065,0.47004455,0.42137966,0.30260640,0.44834927,0.50045741,0.82530856,0.71491051,0.38105920,0.74506438,0.58169311,0.54421926,0.99733663,0.45524684,0.56404436,0.33341104,0.57572567,0.52144068,0.36207348,0.45804024,0.68972969,0.77713704,0.57230127,0.38210100,0.24049681,0.67209423,0.51102149,0.70117313,0.28508362,0.64495838,0.22724891,0.74716967,0.47834903,0.79150099,1.14487207,0.94685996,0.67204183,0.55568480,0.73644072,0.66495013,0.16130149,1.19508791,0.58158541,0.46930897,0.44430372,0.72884744,0.72375447,0.43510461,0.86005205,0.46364990,0.26913869,0.89637005,0.48795927,0.53425938,0.22113350,0.28181776,0.49104053,0.70391697,1.15393746,0.64227867,0.70914537,0.77023822,0.56605226,0.98398113,0.52512342,0.47285539,0.44888493,0.65554494,0.46456295,0.29283434,0.45742637,0.60220230,0.42366311,0.75940078,0.79743516,1.77772808,0.37400064,0.57224256,0.57317251,0.15049317,0.42821658,1.07035923,0.65252167,0.18673995,0.31338146,0.78484738,0.54756105,0.40027428,0.78704309,0.49315274,0.66770256,0.52883786,0.59416091,0.74553561,0.35916114,1.15332937,0.31525624,0.34262466,0.73285121,0.52976000,0.62547177,0.67997372,0.19808516,0.50712395,0.47820276,0.98870397,1.04420567,0.59789932,0.46796969,0.32816491,0.45309550,0.49713084,0.47447750,0.34829792,1.87785447,0.78553927,0.90568376,0.61834490,0.49300608,0.38879475,0.16848177,0.51826489,0.37436542,0.30503911,0.82704914,0.56270880,0.64042675,0.70198214,0.54613119,0.31335020,0.07509801,0.48784050,0.59198958,0.74611861,0.47824311,0.58746225,0.46706769,0.77969545,0.57031220,0.58877003,0.55645370,0.72669637,0.60269803,0.26683807,0.45896268,0.59182531,0.53949606,0.73869681,0.25919399,0.94786489,0.53696144,0.40877649,0.46024483,0.45069796,0.60466886,0.73322242,0.77074397,0.86104298,1.06619763,0.17394900,0.92562270,0.29759645,0.19226162,0.54633534,0.56990308,0.33579892,0.28774312,1.13540471,0.60367000,0.49364153,0.41743326,0.76339126,0.25292620,0.14828773,0.40020096,0.55729353,0.47902414,0.82207185,0.24222082,0.49737275,0.23215653,0.46614504,0.13148491,0.56987607,0.49707425,0.56456500,0.57323176,0.43518025,0.94808853,0.33373985,0.86817276,0.27895561,0.63124931,1.15517378,1.27973509,1.47039723,0.74457955,0.53006232,0.12910597,0.60091078,0.16906963,0.61643028,0.71064544,0.62956846,0.64626300,0.43253613,0.75585806,0.48897845,0.47138512,0.44408685,0.75696635,0.75918704,0.59945238,0.94625497,0.52443600,0.62090826,1.00665760,0.54847991,0.79242367,0.51607794,0.74823487,0.25904533,0.90597916,0.51896125,0.58675557,0.22974779,0.67735428,0.36771685,0.45327491,0.57818496,0.48178965,0.13298705,0.41604185,0.61289907,0.55320477,0.78687203,0.09104136,0.50836760
FEATHER,0.61859721,0.44781387,0.84220457,0.44420025,0.33422694,0.70475352,0.77210438,0.40020639,0.64369714,0.59969229,0.53943050,0.23374262,0.24862495,0.57531267,0.27671102,0.10427594,0.62994635,0.40416950,0.56916201,0.58033359,0.51187050,0.35032424,0.91702253,0.85156548,0.93449336,0.69523156,0.73926497,0.73187435,0.65123242,0.51292276,0.47131497,0.75479984,0.46478292,0.65960670,0.61588234,0.70456761,0.46108836,0.63209021,0.72359109,0.76440805,0.68223327,0.31124687,0.60888106,0.37971935,0.32530063,0.53462809,0.30150133,0.85704255,0.88506627,0.45147145,0.85379571,0.87223405,0.48508286,1.05800343,0.55641276,0.62159181,0.47788826,0.84171784,0.51728976,0.53275961,0.50244272,0.75371701,0.41996586,0.52724743,0.58075011,1.16970456,0.70069140,0.53439832,0.45830941,0.08506638,0.63360023,0.97855633,0.69190538,0.84273481,0.37894073,0.67217666,0.94707966,0.69373775,0.28651908,0.47998214,0.78054345,0.72807050,0.66823250,0.37207556,0.42297018,0.26546359,0.49099091,1.05881286,0.19054869,0.71911556,0.31057459,0.44632638,0.45298293,0.88168985,0.17169237,0.63724375,0.55974221,0.46314830,0.60236228,0.43924358,0.70295620,0.96517813,0.45005536,0.33517134,0.31258881,0.78899133,1.14301753,0.60291123,0.57066029,0.06078148,0.41570896,0.43563920,0.50064504,0.68615210,0.27207720,0.31705311,0.22998378,0.33723602,0.78439355,0.56923383,0.92331636,0.60404217,0.72133315,0.70454943,0.58485258,0.64101851,0.44087958,0.36807629,0.07319677,0.39418378,0.65805721,0.12245217,0.79032433,0.33314186,0.74182194,0.88912886,0.31114268,0.75499427,1.24372673,0.28058457,0.76299793,0.77535152,0.67748761,0.69379598,0.55721951,0.21264532,0.57993913,0.22889556,0.53422171,0.83351302,0.18873221,0.03212929,0.61623967,0.70300555,0.86196959,0.69649220,0.53605312,0.30934474,0.85016918,0.30795443,0.59983408,0.18589106,0.83896905,0.53960490,0.65614164,0.35750163,0.75138432,0.25450340,0.57937926,0.36493143,0.42420316,0.89389324,0.52517164,0.78265762,0.61103249,0.36639702,0.52095538,-0.46129751,0.39402395,0.48745182,0.49008885,0.58890283,0.36225104,0.78140825,0.53257358,0.97086835,0.25003442,0.43875656,0.39977893,0.31263971,0.39504120,0.59455389,0.27522641,0.48020729,0.81018776,-1.85222101,0.74591649,1.03181064,0.74233186,0.65132403,0.51682210,1.54287469,0.67656946,0.13682845,0.37536338,0.31854302,0.24247307,0.43814763,0.65131795,0.61863488,0.16348767,0.35235703,0.92861223,0.59155762,0.46399772,0.76135838,0.76948851,0.43756977,0.70121247,0.89924949,0.45996565,0.45980364,0.39896521,0.62567431,0.80403972,0.41233224,0.44275969,0.71913016,0.38275957,0.45779541,0.27242202,0.97543174,0.44270158,0.33467662,0.53162253,0.72399640,0.46381143,0.53121907,0.54930055,1.12649035,0.85839629,0.77936882,0.62167192,0.59244877,0.33535764,1.49899435,0.41080138,0.61898482,0.69944698,0.66980839,0.54359937,0.49306342,0.51968676,0.82895172,0.52091008,0.80038029,0.52501684,0.44320577,0.58294547,0.98716366,0.21891686,0.63273150,0.28112105,0.36710608,0.04644050,0.33883631,0.52651930,0.65981871,0.18847762,0.53104514,0.77464056,0.63127083,0.78064716,0.41558921,0.61998791,0.41444987,0.13091725,0.09063181,0.62465107,0.47271019,0.50637293,0.86568689,0.44233108,0.89601326,0.55885112,0.36161786,0.68252790,0.38754070,-1.34273887,0.58770263,0.51987302,0.44262758,0.64234704,0.59462905,0.21336856,0.52664936,0.63094282,0.63890851,0.52949852,0.32716566,-0.02882031,0.76368129,0.54242694,0.63409644,0.63185138,0.74520838,0.36470962,0.59521246,0.67576838,0.36497560,0.70353246,0.27154595,0.39469916,0.54945344,0.70164287,0.05352412,-9.33139229,0.58386749,0.21204862,0.41180548,0.30557883,0.61530560,1.01027369,0.53958547,0.28974950,0.78360474,0.35628873,0.22253484,0.39858395,0.24029502,0.07168573,0.59646428,0.44243360,0.48099276,0.68808568,0.73863631,0.44148222,0.38394338,0.49583057,0.47645336,0.56355256,0.52272010,0.34744579,0.87207913,0.39056093,0.66898018,0.69223070,0.74084938,0.87448430,0.16944516,0.69901651,0.30030182,0.72253764,0.82680851,0.44548684,0.57687026,0.74540854,0.81659389,0.57814771,0.65768194,0.80322897,0.37208763,1.17155623,0.59663093,0.30247319,0.57183391,1.14929581,0.27422452,0.15968764,0.51830316,0.76645744,0.74707234,0.68296862,0.56108361,0.07092439,1.09559870,0.51267445,0.53923011,0.76778066,0.39663023,0.94558257,0.39784926,0.55143821,0.88974947,0.35367212,0.20978013,0.70881325,0.12454266,0.48297417,0.49220690,0.71919644,0.40098676,0.28500935,0.70121497,0.61563110,0.80109411,0.45198679,0.38928130,0.62000042,0.46835870,0.95373333,0.76038456,0.52746511,0.58435762,1.59416652,0.20678723,0.46207246,0.41463643,0.65753877,0.60353810,0.10563377,0.41730040,0.51356727,-1.03272808,0.31402397,0.59246814,0.68436444,0.85864317,0.38274387,0.43210375,0.19182947,0.28298575,0.17972550,0.24828425,0.55036288,0.49569765,0.51455498,0.71410394,0.94107878,0.73256505,0.60106570,0.75841022,0.56972528,1.23899889,0.72127998,0.95443267,0.66728234,0.11833198,0.19709158,0.54372877,11.82020187,0.57218826,0.96552634,0.38894802,0.90788603,0.40636140,0.62872469,0.45474422,0.38341954,1.00960469,-0.31814489,0.57472885,1.51189065,0.31443775,0.59398139,0.54478943,0.27727202,0.51482987,0.79541576,0.46965647,0.38996005,0.13058993,0.30275261,1.10155690,0.52530003,0.33819893,0.55179948,0.79406577,0.98488867,0.74695003,0.47324562,0.37731749,0.75194234,0.73882914,0.41712388,0.57809496,0.73822039,0.25486344,0.58964801,0.56986618,0.27900338,1.23362577,0.25613925,0.36265677,1.03196084,0.52112615,0.22962776,0.39393955,0.86462337,0.74631095,0.38179839,0.29387784,0.39673132,0.38653302,0.09576651,0.71721011,0.78028691,0.45327109,0.65028954,0.53253716,1.11923051,0.31367597,0.36293727,0.54009604,0.73501104,0.65460759,0.76891637,0.55059433,0.42048296,0.66818988,0.65442264,0.39982179,0.62099904,0.93365514,0.78668821,0.74654764,0.60310930,1.10373986,0.37205312,0.66554010,0.51027054,0.72925812,0.56044513,0.80599993,0.66051161,1.03606296,0.52742267,0.51817513,0.51765823,0.24868505,0.08690506,0.57491297,0.50314093,0.48782247,0.49676874,0.37398314,0.62804592,0.44752535,0.34352183,0.39071062,0.28548488,0.40534937,0.99277210,0.50445616,0.75740623,0.44514766,0.22705519,0.41460884,0.45795554,0.38409877,0.66520411,0.79862767,0.32392812,0.67827809,0.32495660,0.97138900,0.22273463,0.74162507,0.23501781,0.51290166,0.09110409,0.53192765,0.42772996,0.62844747,1.20331907,0.51386440,0.79645705,0.46389163,0.89308041,0.51555341,0.61515296,0.42917436,0.74756312,0.44199604,0.37458217,0.50929415,0.48918208,0.49080944,0.72268027,0.25121963,0.29980740,0.11753395,0.36063254,0.34452778,0.50976169,0.36321294,0.62929094,0.97137249,1.29561889,0.67918134,0.55856907,0.66934168,0.92141324,0.55471331,0.56942326,0.33955929,0.63486004,0.50747293,0.17911236,0.49610034,0.80309653,0.40682703,0.68910837,0.16118440,0.48982781,1.19049597,0.11559380,0.74601126,0.70064515,0.41492021,0.53615129,0.91940093,0.29751730,0.45268372,0.44177359,0.57085776,0.25498259,0.18203142,1.22751594,0.64127940,0.36611801,0.67613626,0.66308194,1.11813700,0.48661220,1.14653826,0.82623559,0.39475793,0.33992150,0.61601955,0.55141485,0.37084955,0.22077760,0.75162220,0.16548072,0.61737442,0.72458929,0.25802338,0.48477173,0.38411301,0.41328400,0.90750432,0.54569566,0.37992120,1.87729335,0.61839503,0.67661417,0.38613945,0.47192541,0.34031558,0.41866067,0.49443179,0.48303342,0.24905975,0.86280799,0.35166377,0.64773792,0.95396608,0.49368489,0.38329247,0.04767036,0.48786551,0.50237721,0.56494528,0.68914074,0.66657007,0.69133329,0.65953827,0.76924133,0.33958220,0.70967042,0.43687713,0.63158572,0.49548209,0.41791785,0.41333607,0.74373972,0.53489888,0.43693757,0.64459646,0.51698035,0.75529933,0.05829062,0.57803345,0.79097003,1.05930555,0.50032419,0.18557650,0.43164808,0.33048707,0.94738770,0.55776823,-0.03450608,0.33818701,0.22378713,0.58727157,0.74039996,0.75821745,0.83661008,0.47526896,0.46710241,0.45031106,0.82275391,-0.11899179,0.74409103,0.77154356,0.65033007,0.20890093,0.55850649,0.38277027,0.22129177,0.86405003,0.20957488,0.67996740,0.83615047,0.52496332,0.65654254,0.45560396,0.44591856,0.45927566,0.45383832,0.33005798,0.50852394,0.82194626,1.49615407,0.99712753,0.96735919,0.43378425,0.36941883,1.10223401,0.55686021,0.71579498,0.23794930,0.32104513,0.20201033,1.16036749,0.55427498,0.57131922,0.74112427,0.49803209,0.61041260,0.56325132,0.62529218,0.70495307,0.27932188,0.44302434,0.56260467,0.51173681,0.80127150,0.41124099,0.24438515,0.23476121,0.55290771,0.60778153,0.53542221,0.68900353,0.71510184,0.22237857,0.46911520,0.71991593,0.33763880,0.30632639,0.62172514,0.71806216,0.50808507,0.04922684,0.41817996,0.57411444
HORSE TRACK,0.45549074,0.49593014,1.01200247,0.04309037,0.35084087,0.70484352,0.70220828,0.49001896,0.58952576,0.32487339,0.35696977,0.47034943,-0.01732529,0.86780268,0.39827657,0.50016594,0.69860685,0.57545877,0.46049228,0.44397113,0.55374599,0.27483362,0.58741015,0.39997554,0.62354958,0.22131687,0.67183304,0.81745434,0.45825621,0.42580593,0.33072546,0.34729618,0.56173527,0.19627523,0.53349513,0.32416186,0.29515871,0.72347617,0.63670897,0.48946548,0.49354601,0.47707045,0.81475782,0.19373953,0.54231411,0.32570893,0.59955579,0.25962502,0.50325125,0.53803170,0.65106452,0.50568140,0.30635524,0.45214537,0.26286972,0.67911875,0.62425983,0.61893064,0.52947468,0.48133177,0.37505114,0.89835954,0.40898341,0.59474289,0.22697601,1.24055934,0.05045190,0.63903713,0.98081183,0.47467318,0.23271726,0.53002918,0.63357705,0.29634026,0.64772117,0.45928806,0.44617158,0.86004591,0.49349138,0.28597486,0.55592132,0.49834758,0.71241081,0.40660363,0.74878186,0.40507960,0.46463126,0.83871704,0.33084190,0.63730395,0.54673654,0.60840368,0.48334503,0.49027523,0.26411089,0.32217345,0.39959928,0.22336860,0.56151921,0.42422670,0.58979058,0.77653480,0.64090347,0.52621502,0.54366934,0.14395246,0.63366008,0.96482491,0.64804983,0.54041898,0.45966363,0.52421546,0.61649466,0.51392007,0.33018044,0.44463271,0.57043606,0.26556081,1.22790813,0.48403499,0.29947162,0.55078000,0.37900099,0.81190610,0.68599856,0.69578117,0.22601509,0.75080776,0.31568623,0.57526910,0.71444046,0.20760974,0.91065568,0.35853481,0.20131211,0.41241759,0.31481704,0.87108862,0.45956922,0.76651824,0.53500766,0.69156873,0.53476787,0.69527745,0.31577602,0.77462083,0.95309150,0.84646845,0.36725748,0.76722550,0.67413080,0.61030376,0.61589336,0.32292625,0.49367493,0.32143641,0.47359312,0.38018352,0.55936182,0.23390734,0.77244091,0.24824056,0.55956709,0.47033486,0.57213628,0.22517891,0.48159903,0.43427882,0.40380371,0.34652868,0.74976075,0.14571434,0.49091521,0.78963590,0.45641556,0.23432380,0.64702976,-0.14054680,1.06799054,1.06540608,0.13469423,0.48549908,0.62812215,0.76697659,0.34816509,0.58338970,0.16495211,0.22140098,0.36311170,0.48549837,0.24414565,0.33822629,0.80554980,0.47546065,0.42358369,-1.59758329,0.89156109,0.92185205,0.40868551,0.36080250,0.66405094,1.78525209,0.18822640,0.31873491,0.34799194,0.50982130,0.40187693,0.44989595,0.21767154,0.53244621,0.23165557,0.30890751,0.55591190,0.56351471,0.36365080,0.47564238,0.80262637,0.46208957,0.28312576,1.11198425,0.18594185,1.02559912,0.65455198,0.62427956,0.62661165,0.23102596,0.30789036,0.74061388,0.78184927,0.53786337,0.05732684,0.85075206,0.36974579,0.89179766,0.12471168,0.48342925,0.33903742,0.42143849,0.34552562,0.59422016,0.66113311,0.50208735,0.77245188,0.89581555,1.06479359,1.49398327,0.57862264,0.43247846,0.40282395,0.85560012,0.69572699,0.38218975,0.51063442,0.39732265,0.77074784,0.81032932,0.67309928,0.28096056,0.73108792,1.02820086,0.41458237,0.30735570,0.64193976,0.59489310,0.40480703,0.33045518,0.32014066,0.47644913,0.31114727,0.32501233,0.53546160,0.71425414,0.25424117,0.21245369,0.73626703,0.28070894,0.46075773,0.20565504,0.26051214,0.47600433,0.60326761,0.57538021,0.20511986,0.71792668,0.52634883,0.17980911,0.85040200,0.40621808,-1.05057180,0.94521618,0.29956487,0.53344858,0.36843085,0.52437687,0.61733711,0.94958282,0.59576029,0.63228452,0.08402139,0.12654693,0.41697291,0.39818940,0.21671373,0.42552197,0.77728844,0.49611297,0.08567137,0.46268308,0.29441196,0.56393135,0.44911703,0.44582838,0.51110166,0.11995974,0.58471406,0.28049588,-8.83778191,0.41239905,0.56727433,0.39058292,0.39798918,0.39873871,0.35433602,0.86623281,0.26654983,0.65787649,0.16373888,0.34894338,0.55911052,0.21238533,0.19249439,0.25334159,0.48264083,0.13677052,0.77551985,0.25594831,0.38848728,0.52925372,0.46194938,1.33657384,0.47669995,0.54941547,0.39621618,0.57926774,0.24284089,0.32260525,0.60106951,0.32519078,0.50278366,0.28725445,0.10837120,0.58792186,0.38854757,0.46319014,0.69375938,0.38385123,0.72688019,0.80907065,0.87688667,0.68023026,0.55028170,0.11584802,0.99528199,-0.09085549,0.55530429,0.34632730,0.44780982,0.57010114,0.63373089,0.55976319,0.69598949,0.66016287,0.43119138,0.81032312,0.48460555,0.73369181,0.41841120,0.46711332,0.61115289,0.64534312,0.93542331,0.12377326,0.21629539,0.85550106,0.09736492,0.22961539,0.63586146,0.47519228,0.46860680,0.48095137,0.26133019,0.73022926,0.43799829,0.90854210,0.77428865,0.61995143,0.83036917,0.37037295,0.55597866,0.83413219,0.61693871,0.43490604,0.68433434,0.52244228,1.28951359,0.30458024,1.16221929,0.29625422,0.48555490,0.69532156,0.24335688,0.55915046,1.02855301,-1.06141889,0.08768865,0.46523672,0.68159056,0.67594177,0.17913552,0.87273347,0.73719740,0.68707955,0.31623501,0.49645287,0.25077313,0.90623343,0.33961552,0.64194524,0.99523026,0.64598513,0.68791193,0.64423084,0.45560125,0.64568377,0.79273218,1.28024781,0.46806794,0.93069828,0.45017576,0.33491755,11.09419823,0.79245412,0.54736197,0.60822475,0.88757992,0.44228071,0.88999379,0.48705372,0.61783969,1.09123969,0.12298042,0.41975790,1.32455361,0.17335066,0.42268446,0.76419967,0.35929272,0.28684857,0.53769928,0.50122476,0.63909650,0.22614987,-0.07158016,1.27077293,0.45248038,0.73503762,0.40835890,0.33634216,0.57343566,0.60238433,0.57541943,0.18950056,0.61115319,0.65659094,0.16134875,0.75333923,0.38220790,0.77342582,0.61123753,0.55368721,0.41291994,0.69433492,0.25526631,0.34366143,0.63709688,0.60023934,0.46354207,0.37323427,0.72941124,1.13706970,0.74883080,0.31747833,0.16227937,0.64440459,0.65243673,0.00618869,0.25027648,0.40943503,0.64037305,0.62233067,0.60702598,0.40092215,0.25015521,0.67152894,0.33914071,0.34864396,0.68238688,0.50219578,0.38030055,0.64714074,0.68896437,0.27243263,1.00817335,0.65773273,0.59530884,0.45034885,0.51058030,0.57620001,0.55429041,0.73108947,0.33861727,0.96883684,0.29195887,0.71629167,0.58419085,0.58857685,0.62151760,0.41656035,-0.11519344,0.51835972,0.28052038,0.31315351,0.58607262,0.49988514,0.73860121,0.43547845,0.56849146,0.82230127,0.34516621,0.56366515,0.39105910,0.15263784,0.62348789,0.61484528,0.66180372,0.64190632,0.56866574,0.68516678,0.25690287,0.54312265,0.71517134,0.61291176,0.48500413,0.46584302,0.11413896,0.47415882,0.13538891,0.58364898,0.46113974,0.67764878,-0.07966222,0.32162440,0.21338992,0.60662550,0.67504907,0.91515756,1.01836133,0.62755054,0.28635931,0.57126284,0.32014763,0.61857784,0.41162458,0.37668508,0.52063382,0.16809943,0.88283372,0.52662307,0.65026200,0.18476848,0.29407430,0.62328148,0.21431446,0.70477283,-0.03540227,0.56400990,0.49397162,0.46570089,1.18165684,0.84113109,0.41286683,0.92966312,0.42239931,0.86395830,0.35592467,0.26310539,0.39636838,0.42772985,0.56979901,0.21846971,0.51725066,0.34704304,0.44822550,0.18875088,0.32317805,0.57152647,0.21359897,0.37229219,0.16623574,0.08776627,0.62250519,0.69620299,0.44587201,0.53336477,0.44525149,0.29893699,0.51596743,0.52012610,0.86144042,0.72158390,0.47184137,0.28254843,0.67721164,0.73644233,0.23355141,0.84567016,0.44475085,0.15274686,0.47794133,0.45206732,0.68901026,0.58370405,0.52419639,0.33579308,0.29341021,0.92219138,0.86602116,0.67644370,0.25470591,0.29593280,0.61765456,0.75882238,0.50298405,0.14353253,1.89753377,0.54440737,0.39518207,0.24206491,0.26290524,0.56712431,0.23427701,0.30086368,0.56707996,0.36800134,0.51318240,0.63186419,0.73248053,0.91192365,0.51378047,0.39775828,0.24073282,0.25733921,0.67594814,0.82716107,0.65581250,0.76496893,0.44544527,0.62863165,0.59669489,0.86662483,-0.06011522,0.28486443,0.41396999,0.45640531,0.52272755,0.39192656,0.66232795,0.24229400,0.32263869,0.74948436,0.25804988,0.48298910,0.31539887,0.29152775,0.74247992,0.89370203,0.43329436,0.02291909,0.74296355,0.44993806,1.04179049,0.21860819,-0.27511576,0.23276442,0.46366519,0.66430342,0.28944430,0.62689430,0.63598925,0.19600421,0.32854572,0.59399480,0.52494502,-0.27882299,0.46871868,0.97622639,0.65307611,0.35601050,0.20082229,0.39116001,0.19462794,0.43794936,0.13704622,0.56360412,1.30529094,0.40137893,0.81001318,0.09695105,0.49814814,0.48979515,0.44149414,0.31062737,0.48386014,0.83170462,0.89636707,1.88046587,0.97013348,0.45362207,0.40774077,0.59427375,0.33880791,0.45185491,0.48863631,0.44868872,0.24764386,0.51878828,0.40338737,0.28697225,0.65331167,0.77410734,0.49744231,0.62305474,0.87492669,0.74395955,0.55005968,0.92637700,0.43491730,0.52779025,0.27825829,0.20747775,0.32788429,0.22353123,0.54203641,0.54095733,0.34452146,0.41113037,0.95056844,0.43006241,0.59360743,0.46441495,0.26451090,-0.04984460,0.83254468,0.99808848,0.21247710,-0.03143823,0.38705328,0.57348174
HOUSE,0.59772331,1.05068421,0.60546041,-0.00768617,0.73969287,0.73506469,0.94694114,0.41749543,0.45241573,0.46783718,0.24213634,0.73561591,0.19422960,0.54849529,0.77426243,0.51725721,0.72037458,0.29896730,0.49694633,0.62385905,0.60137749,0.85364449,0.50693917,0.86723596,0.95202255,0.64040285,0.98989874,0.97049546,0.98782265,0.98653752,0.48896655,0.54052305,0.81080818,0.37958932,0.66049910,0.52702117,0.29617611,0.33686680,0.46644014,0.71898371,0.96467584,0.45047772,0.50381368,0.67017144,0.45645836,0.28678468,0.18862461,0.58413053,0.31420866,0.43841583,0.32063106,0.19234776,0.23095571,0.55266714,0.27147862,0.37552851,0.61337233,0.79536939,0.26558459,0.36104006,0.37240744,0.75754678,0.79754782,0.33059311,0.59023887,0.87490648,0.65506899,0.85901177,0.61477673,0.10207148,0.49520913,0.95525467,0.51556551,0.38526055,0.39825910,0.42978126,0.47767818,0.64136326,0.33890009,0.33024365,0.33182329,0.52203315,0.70038855,0.46717805,0.45165232,0.51824594,0.50763214,1.16025007,0.08387266,0.36054245,0.07212314,0.39795938,0.93359029,0.67983603,0.34276819,0.56630915,0.48077768,0.17531787,0.66336930,0.69078827,1.00146580,0.98400426,0.70596397,0.61221904,0.42334852,0.39155525,0.79256964,1.02669525,0.60955667,0.08542937,0.53473979,0.68837070,0.50894612,0.45107573,0.34026161,0.37716776,0.41054770,0.34920388,0.77945399,0.78593361,0.55866492,0.29927802,0.33429539,0.72891188,0.51712966,0.54414195,0.12974800,0.51579106,0.19715424,0.26268470,0.55168921,-0.12683192,0.43076980,0.25093216,0.15335765,1.03531146,0.34943146,0.70075130,0.34986913,0.38659677,0.48444128,0.63927108,0.24810338,0.24505046,0.54494381,0.22460097,0.68424916,0.58576691,0.33722347,0.54323196,0.31686011,0.41478634,0.59693301,0.28129947,0.54005671,0.71298718,0.39271593,0.81192040,0.61332220,0.43358493,0.19315875,0.67021215,0.89533603,0.59088135,0.58661038,0.44939905,0.57305908,0.62570411,0.44850969,0.62686938,0.51748103,0.31285575,0.78506935,0.81915998,0.83448821,0.36681595,0.39742357,-0.33374253,1.23943329,0.67171645,0.12931255,0.57729864,0.11921214,0.72186077,0.82820767,0.28239250,0.03939529,0.30660820,0.08323622,0.48124602,0.06744208,0.27876696,0.54582620,0.36748055,0.57473159,-2.09663200,0.60798651,0.54319322,0.81145853,0.54926014,0.26814106,1.48506045,0.20212170,0.52476013,0.46920204,0.20224456,0.63643551,0.50752312,0.48701894,0.21755140,0.19218595,0.08104172,0.38730508,0.60228634,0.73699445,0.67776370,0.72720671,0.59858733,0.24989220,1.14640784,0.35006768,0.25492364,0.48154783,0.60751176,0.73838806,0.48359549,0.31374136,0.74771267,0.66915727,0.34364942,0.00103161,0.79462343,0.63682556,0.64726758,0.44199032,0.35913867,0.36589667,0.53797734,0.88305092,0.74398971,0.85129267,0.49154288,0.51248181,0.48470044,0.53307831,1.20746875,0.40477401,0.64510792,0.31041607,0.48465723,0.67819095,0.77657580,0.55686128,0.77648860,0.61648875,0.83395386,0.46477175,0.61439645,0.21843341,1.91349638,0.59333718,0.63853323,0.33964610,0.44929570,0.18512920,0.52973121,0.41739386,0.99798125,0.42606074,0.22828144,0.67836326,0.65501380,0.36128932,0.16257070,0.38820785,0.54927963,0.49698412,0.49115789,0.24192087,0.18350628,0.60077542,0.73063481,0.19595000,1.72356808,0.40548247,0.18597549,0.49788880,0.11971717,-1.50931907,0.44783390,0.44875282,0.29229835,0.29401267,0.50652289,0.59476250,0.84717584,0.21016377,0.77292573,0.33901542,0.17055266,0.17024519,0.61823869,0.32954851,0.51073015,0.46355882,0.90677094,0.28918028,0.55607545,0.50158823,0.35950160,1.37127137,0.37978715,0.45921099,0.37028724,0.33680424,0.41384971,-10.32112026,0.50727695,0.49797183,0.49234623,0.31903517,0.41917580,0.29571617,0.49911204,0.48219395,0.62240505,0.41619241,0.53792161,0.47097340,0.28990138,0.43315539,0.35561109,0.71372151,0.24563757,0.37260985,0.66013312,0.42785513,0.43305343,0.26366374,0.79184258,0.38148868,0.23830682,0.34963995,0.27556658,0.36821288,0.36461592,0.30827582,0.20600039,0.29439646,0.32336920,0.69526625,0.44500041,0.54243219,0.24123102,0.54580927,0.65177727,0.44938689,0.65390259,0.94266570,0.44537365,0.50200397,0.77065843,1.06397510,0.41876850,0.51557022,0.38803905,1.21816492,0.59841388,0.42020208,0.38843718,0.53255332,0.40176484,0.49797145,0.54230547,0.44514513,0.57372153,0.42977005,0.52773118,0.70329994,0.07251733,1.01532555,0.15225841,0.27791244,0.55321622,0.49084991,0.74032164,0.72477829,0.44320938,0.18474385,0.39726374,0.57206380,0.51536578,0.31710184,0.68445927,0.68528587,0.63129300,0.44529974,0.53240240,0.35186708,0.55050915,0.93758160,0.78827751,0.97003406,0.54988074,1.32083893,0.42305750,0.11740728,0.51949352,0.27493352,0.57386231,0.19102570,0.44955316,0.59880137,-1.18116927,0.18424919,0.76931798,0.51291633,0.40480667,0.65613878,0.07955815,0.61041754,0.19551858,0.26399690,0.67861199,0.21467708,0.61787754,0.69825447,0.56318438,0.48802200,0.34464574,0.48730507,0.36433676,0.09823896,0.94708037,0.93358415,1.03400493,0.52190995,0.35265228,0.81626755,0.47686481,12.07730675,0.88756156,0.58993644,0.61010027,0.83480072,0.23427999,0.65325165,0.59418118,0.39871052,1.08068228,-0.01535499,0.27768385,1.38081217,0.52972448,0.83108598,0.57505012,0.12282796,0.52608871,0.31288332,0.58165288,0.42211491,0.48444682,0.37954912,1.51100969,0.32404646,0.83962607,0.47495016,0.74176598,0.40871572,0.31891489,0.78203046,0.30494887,0.56617039,0.48908383,0.26627585,0.41443181,0.32312584,0.54224467,0.48870316,0.50298238,0.29253742,0.69499439,0.31014758,0.06866612,0.72173715,0.70311892,0.51626563,0.50616860,0.56865317,0.41625932,0.66292065,0.47120130,-0.07164076,0.61215913,0.42632970,0.08758225,0.71801114,0.13253704,0.52913958,0.42930153,0.62325960,0.26411188,0.49361891,0.73522800,0.20720470,0.54875928,0.18139291,0.73661983,1.17318130,0.55754143,0.68789822,0.27499425,0.70774698,0.42249742,0.83585298,0.58800459,0.62818313,0.56932831,0.54848385,0.59731805,0.65663475,0.78181750,0.55643970,0.58638984,0.36426482,0.63801914,0.54307508,0.50363445,-0.01217186,0.18911919,0.50034350,0.27323508,0.79571688,0.25935391,0.54798865,0.33136389,0.68831295,0.60589266,0.18775359,0.49965262,0.27479702,0.36320728,0.76431024,0.68645084,0.87536865,0.46333942,0.70269716,0.30919769,0.93577367,1.07486618,0.91647494,0.67004961,0.41501868,0.29625520,0.30218497,0.70759070,0.27993512,0.34675816,0.11758792,0.49960509,0.90407610,0.51754928,0.49821377,0.48881555,1.20109844,0.57884347,0.79637879,0.37881112,0.56823093,0.37291116,0.31968665,1.10130858,0.29837313,0.60827577,0.37690353,0.42323151,0.58966446,0.35334402,0.51532841,0.64844620,0.38442466,0.07444050,0.32023206,0.44556874,0.13912870,0.11929914,0.81149876,0.44786042,0.98281187,0.85949397,0.57795101,0.83181775,0.45238915,0.92932290,0.40963584,0.32325652,0.94722176,0.46539372,0.53753519,0.23378406,0.54621285,0.65419823,0.57412100,0.24121435,0.37567788,0.84792352,0.04549846,0.43991601,0.58237195,0.07782310,0.42706913,0.38420227,0.21523616,0.41195577,0.62078315,0.15098804,0.57049912,-0.03393081,0.56227100,0.59625864,0.26211774,0.45212406,0.14661071,0.64490235,0.34295431,0.91416109,0.71071589,0.74664503,0.38551870,0.36361650,0.51599115,0.32891101,0.13505277,0.44406846,0.54604900,1.51219511,0.46452594,0.11538766,0.19549742,0.47637644,0.49173933,0.44749466,0.41311377,0.13045530,1.89891028,0.71168381,0.48703957,0.90396106,0.22739831,0.36021554,0.14437407,0.40112522,0.39515436,0.34107870,0.75602645,0.28163809,0.61325920,0.73546505,0.49541968,0.46528357,0.09885502,0.24475983,0.38148212,0.44194636,0.78415716,0.76783770,0.51184148,0.38957483,0.39553910,0.56612241,0.67842937,0.58864498,0.52891523,0.28467172,0.30904865,0.56018943,0.80100459,0.64512658,0.63739890,0.82111120,0.51212180,0.56988144,0.29258209,0.38398075,0.93285942,0.84056526,0.47735894,0.20512122,0.74810952,0.45701393,0.53670126,0.44911605,-0.25349647,0.40558121,0.28615817,0.19489348,0.60562199,0.84888208,0.32832482,0.56306815,0.69036591,0.67623341,0.64405608,-0.19541827,0.07781687,0.42934150,0.74413580,0.33283356,0.72774768,0.21906500,0.25753683,0.46362060,-0.04286208,1.25966239,0.71434158,0.52297986,0.52568012,0.60310221,0.70704496,0.19954115,0.43553215,0.59217644,0.57841849,2.17781496,1.01371896,1.92660463,0.55939615,0.60423672,0.37412789,0.98952073,0.29712546,0.62829649,0.49740797,0.34455568,0.47513136,0.77541870,0.50881243,0.81071913,0.30714306,0.24123093,0.55556446,0.98442793,0.58360839,0.64677960,0.47758538,0.54071170,0.99114585,0.65051997,0.63895798,0.59441686,0.46766952,0.01684032,0.49498600,0.52567255,0.50507593,0.25334448,0.69295406,0.29751197,0.55378330,0.73153353,0.07906213,0.18386602,0.60986692,0.77042520,0.17902654,0.29585707,0.31932518,0.49750948
LIGHTNING,0.66439605,0.49593014,1.09639621,0.54507381,0.67224950,1.06072605,0.70020598,0.41517612,0.57958680,0.58899236,0.40669274,0.29537719,0.11233506,0.78791416,0.65153337,0.37615871,0.58110756,0.41803649,0.16633382,0.55397868,0.31545496,0.63232660,0.87561494,0.49835366,0.92802894,0.49747792,0.78408027,0.58842307,0.55192423,0.44384632,0.56030905,0.29591537,0.36567509,0.40108967,0.56896204,0.36182973,0.25993061,0.65539187,0.51987141,0.65093946,0.80766070,0.47707045,0.43831891,0.45612508,0.38001496,0.07188046,0.55185497,0.16499436,0.77349544,0.24684565,0.61991352,0.42526180,0.20313960,0.98564374,0.54631358,0.64348626,0.62942576,1.19755566,0.37901872,0.42875749,0.30645460,0.92264611,0.65223813,0.59582007,0.76475513,0.62795919,0.64042866,0.64498508,0.69196123,0.13075548,0.38538367,0.83231831,0.46318427,0.57814050,0.42855531,0.84432107,0.57787287,0.36306235,0.54187715,0.40460980,0.32188874,0.23733056,0.61881983,0.57572460,0.32243514,0.38100097,0.72498256,0.83871704,0.09288433,0.79892588,0.57397628,0.52535653,0.62420046,0.64367014,0.35342261,0.53423417,0.71530825,0.36743873,0.41927305,0.19162038,0.80162907,0.95528114,0.64090347,0.76442611,0.25057369,0.05724767,0.69677913,0.46861458,0.64804983,0.10479705,0.76468420,0.52421546,0.70291507,0.59868807,0.16608977,0.37026849,0.49596387,0.87081379,1.06155741,0.50018501,0.60645270,0.22539419,0.27546519,0.52819359,0.68599856,0.48322362,0.27913737,0.48283368,0.43484142,0.45303902,0.47106865,-0.13032733,0.79557210,0.13241020,0.79297829,0.91477060,0.37773734,0.70791399,0.65607595,0.04088393,0.75494552,0.62568820,0.13508713,0.31981474,0.50048345,0.52519840,0.68388450,0.98137045,0.17536987,0.83264577,0.37386185,0.26561722,0.94896722,0.45182863,0.91592085,0.36664188,0.77877223,0.55518401,0.54010689,0.22371233,0.38168094,0.38437751,0.67428786,0.56406194,0.54789841,0.52474070,0.55471778,0.39241713,0.65780938,0.28394979,0.26185474,0.70602643,0.50934917,0.47940198,0.45641556,0.42471153,0.32676262,-0.25603276,1.05958235,0.59916484,0.34048891,0.19438478,0.34467888,0.56598449,0.34816509,0.58699447,0.20233843,0.46629775,0.34063548,0.27813715,0.29821658,0.13838804,0.31462848,0.63127166,0.48741388,-1.66739249,0.78429699,0.85719395,0.78352225,0.35018396,0.66144150,1.49463952,0.69298631,0.49209303,0.60957956,0.92598170,0.74772644,0.46850923,0.31181008,0.70767438,0.22978395,0.57505989,1.00493336,0.44371220,0.29540724,0.78996658,0.88766587,0.44766077,0.60546148,1.18706894,0.59354603,0.35935026,0.75984913,0.53126270,0.89617264,0.92885554,0.42783129,0.35800022,0.59094036,0.49701950,0.46918750,0.60061419,0.74253893,0.81689179,0.44426841,0.51293135,0.48146576,0.47433102,0.65931749,0.59630603,0.67677975,0.35009980,0.70147896,0.39494503,0.17145127,1.20765972,0.73621869,0.62800884,0.69441962,0.85560012,0.54398918,0.31338099,0.35680211,0.69361901,0.32513207,0.81032932,0.48551074,0.38993138,0.89326656,1.45378757,0.22624850,0.70146096,0.37826687,0.57733166,0.50887173,0.49560499,0.70745760,0.61652935,1.30844045,0.24090481,0.62667537,0.71425414,0.35670978,0.60554022,0.36427063,0.54094541,0.48265463,0.25103176,0.27309448,0.14134574,0.70832431,0.39807567,0.67091525,0.53843784,0.48569489,0.29115131,0.48953056,0.28088340,-1.24564946,0.67209387,0.28932005,0.70644581,0.93936300,0.84179246,0.61457920,0.71067941,-0.07632746,0.63228452,0.48898625,1.21772575,0.60323995,0.43441260,0.49417800,0.64977598,0.32737359,0.51453578,0.21238661,0.44054899,0.39864188,0.46519405,0.82658452,0.07972610,0.47991556,0.39482191,0.58471406,0.61298889,-7.05728149,0.40143940,0.57928228,0.51077449,0.45139694,0.33489892,0.60288692,0.87725461,0.34905010,0.72160816,-0.16134176,0.63835436,0.67595232,0.22801739,0.27292451,0.24801230,0.37176052,0.29381657,0.84365916,0.70366496,0.06571920,0.54023492,0.54572123,0.22307728,0.53457683,0.56154370,0.41794771,0.31835037,0.19016619,0.51294756,0.75401533,0.32519078,0.38604164,0.38249016,0.84709430,0.25566030,1.09671450,1.05187821,0.59561718,0.60837185,0.65711612,0.80907065,0.76347566,0.62567389,0.63331294,0.21687265,0.93836904,1.07566476,0.57296884,0.48548490,0.58904779,0.21583049,0.57103741,0.47218305,0.65925032,0.28186393,0.24747095,0.77353466,0.69756091,0.73677653,0.55095136,0.76590216,1.24110079,0.30493075,1.35691988,0.10397069,0.47360316,0.78628516,0.56854093,1.20008278,0.98373586,0.35324758,0.89703816,0.61956877,0.97831976,0.36433041,0.58818847,0.59083885,0.86491317,0.65761584,0.64072710,0.62210155,0.28870073,0.60106719,1.17518914,0.37319922,0.86668611,0.38600430,1.61083806,0.57057506,0.70207036,0.61325139,0.74229503,0.85203874,0.53536808,0.31636676,0.46778750,-1.18804538,0.04253134,0.37834597,0.64541894,0.64999384,0.72252595,0.83178937,0.21706973,0.47146189,0.34097347,0.33708614,0.37212235,0.72680336,0.04192010,0.77986801,1.06158280,0.60528618,0.47103021,0.20915140,0.69351816,0.78036165,0.51110768,0.88758093,0.51352608,0.63564718,0.39864591,0.43574736,11.52922249,0.30664587,0.36982059,0.60822475,0.63703418,0.28053686,0.44582772,0.53201687,0.37286046,0.50749999,0.20925151,0.34209320,1.02913284,0.67605698,0.27787316,0.62250471,0.17667368,0.95190418,0.77944660,0.69215649,0.22956181,0.62402964,0.64269590,0.99143720,0.28610945,0.64517432,0.45652026,1.10267270,0.91602683,0.48429719,0.74616265,0.26382977,0.77648383,0.58121479,0.30035883,0.46105218,1.05282772,0.77342582,0.65878439,0.70278251,0.10384815,0.42783284,0.47260046,0.31225932,0.46429357,0.75744605,0.18115051,0.06193149,0.82942253,1.00849509,0.86578417,0.27449921,0.49432886,0.53574413,0.64651388,0.49032345,0.36624816,0.36934003,0.65666425,0.62233067,0.47442329,0.46400356,0.73240829,0.57741213,0.19525306,0.39242202,0.68238688,0.54924905,0.65049529,0.50514424,0.78440416,0.35460714,0.42818671,0.68799198,0.62645215,0.62102342,0.63600153,0.79430842,0.54094326,0.73108947,0.58046645,0.82416648,0.42531842,0.39506984,0.41458440,0.70518416,0.48176897,0.29941121,0.02378262,0.14974204,0.40083560,1.16556060,0.25144154,0.19827169,0.44265425,0.07081155,0.87995708,0.51335108,0.34021351,0.23087588,0.60805607,0.44770080,1.21095538,0.66926575,0.70795602,0.18559018,0.76022184,0.52355313,0.22259209,1.00684440,0.99703521,0.33075425,0.59934777,0.06747398,0.19758627,0.96770263,0.32324982,0.54259998,-0.01204605,0.62860239,0.47530392,0.45494139,0.25709742,0.72738504,0.71883988,0.68580449,0.82504416,0.52726728,0.56011742,0.57126284,0.43901339,0.51377457,0.34217751,0.42128569,0.64972329,0.56598318,0.88283372,0.21668921,0.49774802,0.69132328,0.32328555,0.60170805,0.46675873,0.26979780,0.13934857,0.39401951,0.42779630,0.50049090,1.54403615,0.60367537,0.53893566,0.80531907,0.68632239,0.81120199,0.39304700,0.15008995,0.67567301,0.43510637,0.22762367,0.52894002,0.50187039,0.65458059,0.60939127,0.34438947,0.46784908,0.80222774,0.26073992,0.77256399,0.29366273,0.01830009,0.62250519,0.69620299,0.59121269,0.53394830,0.63676685,0.60176361,0.51596743,0.52012610,1.04693389,0.45368147,0.45956704,0.99432200,0.33478677,0.86260849,0.23705116,0.83194232,0.49279946,0.25184670,0.49632993,0.64426780,1.00792503,0.55542952,0.57163692,0.15279520,0.83795387,0.79646951,0.46546298,0.35070762,0.42714679,0.21026388,0.56121337,0.14682408,0.50298405,0.46745634,1.95136642,0.63249308,0.89773542,0.57647926,0.42383552,0.72730631,0.14390047,0.42347381,0.50826442,0.56276381,0.52666688,0.29535878,0.63020766,0.61897516,0.59909165,0.44152188,0.23108128,0.05345447,0.27865651,0.44819802,0.89542043,0.86357284,0.20214909,0.50881517,0.63181984,0.73348516,0.21375187,0.47940558,0.37416857,0.72284979,0.29508907,0.80640072,0.39279586,0.65470821,0.36116090,0.85193241,0.55297470,0.56334937,0.29305470,0.38020095,0.30724740,0.62498033,0.78964740,0.31309801,0.68436813,0.36589214,0.42051467,0.61440659,0.22265531,0.30435854,0.46366519,0.59477925,0.23348293,0.18509798,0.90922439,0.34795403,0.67146432,0.61443764,0.45198482,-0.36877632,0.72262025,0.55949026,0.84080935,0.60346270,0.24516238,0.42654085,0.44182283,0.79122615,0.04954866,0.56360412,0.45993620,0.30111128,0.76762927,0.37028417,0.86932105,0.14158227,0.48332939,0.37555078,0.70160103,0.81523764,1.14134693,1.18015039,0.48146898,0.53653765,0.40774077,0.59427375,0.33521813,0.61537063,0.57948482,0.94689906,0.47335276,0.99237704,0.83222735,0.00213043,0.66333777,0.77410734,0.64413458,0.52851802,0.70924079,0.86499131,0.57783276,0.49144727,0.78914118,0.56295741,0.54888701,0.33436692,0.50828910,0.55417264,0.63348472,0.42181489,0.60061854,0.42024055,0.47374940,0.33497548,0.42270076,0.42060339,0.23508628,0.37440035,0.55441505,0.38221800,0.76475316,0.56337160,0.41409031,0.60555327
STAR,0.65061748,0.49346638,0.98690146,0.99084181,0.58178395,0.83823776,1.10563564,0.43708980,0.98021472,0.82657129,0.45131847,0.26113003,0.08507881,1.00541115,0.63764703,0.40697932,0.67194819,0.46620846,0.32520369,0.37767655,0.45291257,0.36191729,0.35657930,0.42820814,0.50767463,0.45254526,0.81280375,0.61670864,0.49583334,0.37362152,0.39810494,0.49978614,0.38066071,0.65790129,0.86905468,0.46807462,0.23320076,0.47815871,0.76099926,0.44111001,0.47301263,0.62698090,0.86071074,0.11744168,0.49868962,0.42825058,0.65996361,0.23245403,0.44321078,0.08632788,0.43872768,0.20000556,0.23121202,0.86275345,0.45597512,0.77347583,0.51524824,1.08941483,0.34551519,0.39795929,0.46623975,0.84333241,0.55284357,0.78285044,0.60991228,0.87648493,0.19425538,0.49247646,0.66244429,0.07701886,0.64832151,0.84865725,0.54231554,0.48712376,0.41050532,0.67350560,0.81164312,0.20943493,0.52797884,0.06290165,0.39031166,0.44831312,0.44526783,0.57830071,0.65457255,0.65210629,0.48794663,1.18693471,0.27909690,0.41050580,0.62416416,0.25078869,0.53112179,0.45265564,0.23292542,0.30297026,0.65466428,0.39336368,0.64392197,0.67907661,0.78931379,0.66730422,0.55369133,0.43519068,0.41633710,0.49450058,0.92571068,0.26268139,0.54496348,-0.09663598,0.31588542,0.71068084,0.43685767,0.37263846,0.21378636,0.61367345,0.49166915,0.79138446,1.20929074,0.62563121,0.63911772,0.49827999,0.71892869,0.65254390,0.99348497,1.43321705,0.55251300,0.56015801,0.11308147,0.48635352,0.48450026,0.82516992,0.09520215,0.29478085,0.64553267,1.07331276,0.64846504,0.75683695,0.36809427,0.42004329,0.30997252,0.41989133,0.49930301,0.41035461,0.70338112,0.78116775,1.11051369,0.10112241,0.80241573,0.90616757,0.80039066,0.38759083,0.49676001,0.36410141,0.59489417,1.08192420,0.57010996,0.85185421,0.92151994,0.42897791,0.60517681,0.33479792,0.73169595,0.82349735,0.39472878,0.30830508,1.10702324,0.51124471,0.25494054,0.77231818,0.25117344,0.76898581,0.70656037,1.24075997,0.41248134,0.58269894,0.55760181,-0.10534181,1.38094258,0.68610382,0.56912822,0.43931296,0.12708797,0.36916029,0.47277677,0.36610487,0.29892576,0.39451051,0.20693013,0.60377032,0.58837116,0.48871350,0.79281151,0.11227946,0.78170109,-1.71078753,0.64364105,0.88542855,0.73912781,0.31871638,0.46722770,1.38110125,0.42063531,0.45161825,0.36112133,0.19580868,0.58067131,0.48089826,0.77207232,0.52031064,0.34318250,0.32533902,0.34950006,0.60000908,0.32334137,0.96110976,0.83193707,0.93176425,0.73333317,0.75737602,0.39642388,0.85752165,0.43762895,0.75447756,0.42029411,0.31585777,0.15563145,0.39291707,0.70729363,0.80927253,0.37511861,0.78154457,0.48713762,0.57869303,0.15304394,0.43116155,0.25711763,0.43816969,0.55650437,0.90867174,0.62008798,0.62356550,0.31321239,0.54038477,0.40218821,1.11530089,0.46402022,0.55831540,0.75536340,0.87192416,0.81752533,0.65578085,0.18663594,0.42703912,0.51171893,0.87636763,0.43842700,0.40752655,0.24418771,1.71794426,0.52966082,0.40771765,0.31411344,0.62535995,0.32990968,0.91012955,0.46242762,0.78132272,0.43436927,0.00701905,0.51710242,0.66136783,0.39203238,0.26061469,0.40900153,0.48439592,0.50893694,0.39101660,0.46860814,0.17615514,0.75599504,0.45082071,0.35516566,0.61749160,0.46178907,0.41691899,0.48947272,0.53489298,-1.23828995,0.86094093,0.42282623,0.73805332,0.27623123,0.47052345,0.49338543,0.81939638,0.29930776,0.46789178,0.13934191,0.37025589,0.41673487,0.54002476,0.64722764,0.35736072,0.35772780,0.29953057,0.26275477,0.51995456,0.67525411,0.39424232,1.11809087,0.47013456,0.60663754,0.55120850,0.85096180,0.44079256,-7.42830276,0.53057063,0.38827196,0.27274275,0.29735157,0.36316457,0.50741321,0.64579999,0.19421506,0.36105639,-0.29780892,0.56273222,0.56933224,0.74513447,0.63333845,0.48543817,0.29761145,0.56202877,1.03884542,0.67076659,0.24967393,0.54242063,0.51126814,0.14306000,0.34735402,0.58578789,-0.02145192,0.63482702,0.55495995,0.81460690,0.64367574,0.75880873,0.73932123,0.59312397,0.20396775,0.42780405,0.50118405,0.82556498,0.44949311,0.80627835,0.49495184,0.44980711,0.53283757,0.52572429,0.69088107,0.68742597,0.97836840,1.49066496,0.54271501,0.61591566,0.72604966,1.12880754,0.45616058,0.56739604,0.68840939,0.55391294,0.50717258,0.42798316,1.07821631,0.63099146,0.74413538,0.55889893,0.73983538,0.42247587,0.41910091,0.44311163,0.53612983,0.24472392,0.66139519,0.88611495,0.83415616,0.34570742,0.27926701,1.03938365,0.70381874,0.35110041,0.67990994,0.49961656,0.65812123,0.26457334,0.61623096,0.71427757,0.30072272,0.63134164,1.37405479,0.73852599,0.79713202,0.67563629,1.60823405,0.39513522,0.66125345,0.29941303,0.16113137,0.51253104,0.41864625,0.38694727,0.85178703,-1.02771068,0.02630711,0.50593841,0.61758947,0.44998071,0.72297430,0.64018774,0.21447042,0.71351779,0.31217146,0.83591354,0.28422213,0.45213127,1.08872736,0.55062377,0.51492846,0.59908175,0.89601630,0.85401422,0.81690913,0.66463172,0.69103026,1.65836143,0.58318061,0.54717630,0.32924351,0.51641238,11.89207935,0.41262585,0.45446235,0.45957628,0.35525030,0.42358094,0.57037365,0.74357480,0.28747249,0.80658811,-0.01814982,0.39890105,1.15000880,0.19370124,0.62648422,0.67483974,0.39365035,0.77019000,0.95830029,0.47568309,0.23243359,0.14878327,0.36004907,1.25302148,0.56086439,0.33736271,0.54244637,1.13804126,0.41734415,0.58042246,0.55665034,0.17799366,0.54694754,0.15142418,0.85281676,0.34037751,0.75292069,0.68060428,0.52133965,0.42132753,0.11240920,0.62332273,0.12802702,0.00988474,0.48943883,0.70219231,0.85199618,0.43654621,0.63485235,0.92070866,0.74513745,0.64024675,0.17342852,0.84018236,0.46262228,0.58061159,0.43878812,0.27946073,0.33497763,0.34306830,0.34370717,0.30908781,0.83776200,0.47108513,0.33667040,0.79074633,0.31416550,0.46172196,0.54710484,0.30272466,0.63148999,0.43797109,0.72163665,0.72647417,0.76758409,0.69799483,0.67782342,0.49532601,0.79664457,1.21099555,0.44309101,0.61121863,0.84221959,0.31970727,0.89860451,1.21306825,0.70020437,0.59908944,-0.18069524,0.16183484,0.47151223,0.51042908,0.35900956,0.34688309,0.81182605,0.80246615,0.57572663,0.03039826,0.98996949,0.59116560,0.67908609,0.48800689,0.83499503,0.62067389,0.83125806,0.55178326,0.63618463,0.86167258,0.32880256,0.47226113,0.33826452,0.31745914,0.65889680,0.15146129,0.49853230,0.48747051,0.71716917,0.27390963,0.12330163,0.45574194,0.37115812,0.30225500,0.28579271,0.83291161,1.01636887,0.41575328,0.79490924,0.50082648,0.46376911,0.84903854,0.45508406,0.78823161,0.49191484,0.31447765,0.61305225,0.21036100,0.84588736,0.53525943,0.67981207,0.18162738,0.27341208,0.48675448,0.09736291,0.55215681,-0.04026483,0.23992626,0.66119432,0.74874341,1.31782055,0.57461739,0.33363572,0.42938012,0.43554685,0.43751389,0.80563766,0.73638439,0.38402233,0.38033292,0.17962396,0.48554170,0.83236182,0.60220230,0.58532977,0.91070378,0.41354764,1.12259507,0.62299484,0.55341703,0.21417712,0.47345173,0.49343005,0.83633858,0.54930693,0.69012833,0.73672676,0.88871318,0.37405163,0.34324691,0.97983193,0.45958209,0.53852952,0.37109166,0.80292141,0.47082958,0.28691274,0.98265326,0.64354903,0.35862118,0.51491451,0.31787610,0.59428161,0.67997372,0.33681482,0.50831419,0.65896475,0.80845726,0.82408541,0.60281861,0.47750849,0.49814624,0.65840477,0.38296980,0.41418320,0.16949853,2.06711817,0.69815582,0.50518012,0.41389674,0.49300608,0.76705223,0.48699963,0.53675348,0.49702254,0.36065504,0.95836508,0.32471788,0.60060513,0.58120108,0.62867773,0.19994247,0.01753648,0.03801336,0.84453261,0.60905361,0.63292938,0.44479933,0.31897295,0.63089061,0.73193687,0.36457300,0.46717897,0.53067464,0.50225139,0.27624348,0.67444879,0.50829887,0.47340298,1.03082633,0.19385375,0.47879139,0.42979506,0.59044063,0.22828446,0.44677311,0.39885432,0.65378875,0.71885926,0.57050365,0.71932924,0.36790672,0.99472129,0.38046309,0.21687630,0.42151952,0.31133941,0.52217805,0.36928290,0.55824119,1.04830420,0.51505220,0.53665775,0.52121776,0.19122884,-0.43422249,0.38034981,0.54093957,0.73199612,0.77005148,0.66592002,0.65064192,0.09000203,0.63560098,0.11671652,0.63698828,0.46861213,0.73489833,0.30442762,0.80673742,0.79456729,0.29365170,0.38588056,0.46989754,0.67172593,0.71669495,1.45945859,1.52421570,0.89490032,0.34946150,0.23972522,0.78903520,0.46219820,0.64231253,0.62293029,0.35646299,0.46395808,0.49483913,0.95573223,0.23560829,0.47036391,0.45517606,0.66139883,0.53271437,0.68307835,0.81660199,0.38773245,0.38508794,0.71897721,0.40949902,0.69358897,0.47802746,0.74823487,0.24330556,0.43767217,0.07969530,0.37003136,0.01273187,0.88487971,0.44968319,0.48580384,0.82678586,0.45040131,0.21172282,0.59869874,0.66206378,0.23812555,0.32138306,0.17750321,0.47541958
THUNDER,0.47823536,0.48645189,0.82610804,0.49663919,0.63311297,0.83365309,0.71746731,0.64990669,0.72690535,0.76440078,0.41622397,0.35005552,0.28665072,0.71592331,0.46282658,0.50360626,0.38579965,0.44078642,0.38596341,0.50176352,0.55702412,0.63570720,0.77041173,0.48010409,0.73438013,0.65693015,0.72718704,0.54800010,0.92586797,0.58254957,0.34245256,0.71087396,0.46042684,0.32259625,1.11305714,0.50936055,0.56072783,0.63573492,0.53184927,-0.08114707,0.65499187,0.31691912,0.78874898,0.62057763,0.35038048,0.72668535,0.46612918,0.53533667,0.54734206,0.32610059,0.56332135,0.50877613,0.33990747,0.74114090,0.75410289,0.50757080,0.53171468,1.03143919,0.29486960,0.33589607,0.31364596,0.81933403,0.23553702,0.59582007,0.55420172,0.78161132,0.52326202,0.73036033,0.69196123,0.38511348,0.38538367,1.14329600,0.34035960,0.39091116,0.18733647,0.77756584,0.71946412,0.56577289,0.20356515,0.28570217,0.76807064,0.40170741,0.56183380,0.56701910,0.70093405,0.32435113,0.72498256,0.77372503,0.72511107,0.96424937,0.57962680,0.45803937,0.57977861,0.55638266,0.24103592,0.34187755,0.56985670,0.35464060,0.78153014,0.45686001,0.85223186,0.78594124,0.84783310,0.68938303,0.30845684,0.23252138,0.48271328,0.80750525,0.58588010,-0.10353513,0.45955139,0.28739208,0.89592636,0.59868807,0.54664111,0.23266132,0.33420694,0.56071579,0.87389815,0.30210787,0.27763855,0.13016129,0.35760880,0.36315161,0.59181285,0.64518827,0.47620600,0.20014676,0.33864790,0.13351297,0.82645082,0.71403039,0.53643173,0.09829377,0.67554951,0.75730979,0.48441559,0.75853884,0.72679591,0.23819813,0.64651716,0.54837602,0.46973065,0.32685983,0.68850780,0.38454348,0.60371846,0.18346450,0.48284104,0.63369739,0.28914866,0.40914583,0.78363925,0.60987723,0.85897207,0.61208576,0.56818616,0.37530151,0.68425316,0.20020801,0.36751682,0.29645896,0.45710689,0.66660517,0.54789841,0.39083210,0.29624176,0.53382993,0.75975490,0.52001494,0.35223377,0.46607161,0.61548650,0.56493986,0.48422101,0.61548787,0.28945690,-0.30036438,0.89580858,0.77740890,0.70420837,0.42012995,0.23463032,0.79585803,0.45990723,0.51808697,0.33722737,0.43187904,0.10627791,0.22133949,0.30889225,0.65241688,0.40173298,0.63127166,0.51099420,-1.92384136,0.41027853,0.85719395,0.64281976,0.45804513,0.32432359,1.68843901,0.26645011,0.45786986,0.36284214,0.49985993,0.13468845,0.78557813,0.45716277,0.83455282,0.32245883,0.04974142,0.49791378,0.35038385,0.25166818,0.80438232,0.59789580,0.35295886,0.39640278,1.09385395,0.32520950,0.54702806,0.57598406,0.44637018,0.72143275,0.70433640,0.40064704,0.40970695,0.78568625,0.37987727,0.34448978,0.61645454,0.72527188,0.65893465,0.59084964,0.65049666,0.42508459,0.49142912,1.11107719,0.57313466,0.61268950,0.42643559,0.54654324,0.92229176,0.62546688,0.81331861,0.38276806,1.12977397,0.43137991,1.00055408,0.48672509,0.32088542,0.53339761,0.21693987,0.52633131,0.47719640,0.43099967,0.74545908,0.83124501,1.29724145,0.40821981,0.47775462,0.56693566,0.62554330,0.23409471,0.31777743,0.47111514,0.74628103,0.48849586,0.19786346,0.34527951,0.57401931,0.34346032,0.17043081,0.48349395,0.47256681,0.30346340,0.20660648,0.45011032,0.42328787,0.70832431,0.65587515,0.65092331,0.62369251,0.55299956,0.54027736,0.17516415,0.43383706,-1.36501884,0.37050056,0.16867512,0.46484488,0.91742575,0.84103411,0.72325528,1.28702581,-0.03692648,0.41762200,0.73785466,0.73910356,0.50279081,0.46865761,0.32596105,0.90672100,0.71785283,0.66747183,0.07760778,0.75759560,0.39731240,0.58009470,0.80356956,0.58541262,0.26202184,0.20450506,0.98184574,0.40194327,-7.96818304,0.45362139,0.69078338,0.30614853,0.26943359,0.49433687,0.66857260,1.02235639,0.35493493,0.76527911,0.04421932,0.48669839,0.88212752,0.73504329,0.42189401,0.62586534,0.48961172,0.28679898,0.72723126,0.74453235,0.63360941,0.87845910,0.58834028,0.33017546,0.02717546,0.32489431,0.34386128,0.52015865,0.50068849,0.83173305,0.37355593,0.53250849,0.57377058,0.48430359,0.62704164,0.53115153,0.38489097,1.05187821,0.21160764,0.13292749,0.68368661,0.56132531,0.45209259,0.33197165,0.63331294,0.29924756,0.94426984,0.53722167,0.66377914,0.26123053,0.56340545,0.46267274,0.39551985,0.54549783,0.54133219,0.54167652,0.37567189,0.63723385,0.30348042,0.86561918,0.28175113,0.40271297,1.06153464,0.30751270,1.03246975,0.02365091,0.21214974,0.27756029,0.54345095,0.68786079,0.78799105,0.32099068,0.38544020,0.49964750,0.43954307,0.57538629,0.42255908,0.79503775,0.47803348,0.38393077,0.52347726,0.38569051,0.23974922,1.07993603,0.94418257,0.60193622,0.86668611,0.42225540,1.18908668,0.35795981,0.58027661,0.63041824,0.36477822,0.41797310,0.61426282,0.58085924,0.12234332,-1.16703939,0.20072833,0.28362209,0.20330749,0.69617116,0.35921073,0.72934484,0.21461383,0.41081142,0.38844854,0.13674730,0.43889910,0.64572370,0.22701156,0.83633012,0.51324522,0.75246662,0.52024138,0.40577114,0.65021181,0.62679428,0.36131042,0.77269650,0.69598651,0.84690040,0.37359816,0.65829444,12.36019325,0.30664587,0.45461249,0.43315253,0.45831081,0.19657116,0.62540466,0.51222044,0.51612067,0.49418828,0.13397695,0.53008449,0.72862959,0.89988184,0.70229131,0.50306690,0.22342062,0.80757332,1.01527703,0.67891085,0.34904420,0.51009542,0.67275357,1.38510799,0.49358502,0.77071381,0.87281656,0.86730850,0.45391285,0.84792447,0.94482422,0.18408693,0.91827595,0.56068641,0.22612852,0.41600031,1.05282772,0.41651860,0.40945619,1.11580551,0.41793218,0.45323777,0.31794724,0.29361290,0.71749675,0.58009285,0.51038468,0.05051574,0.68041235,0.89411235,0.86578417,0.15196496,0.29653245,0.44419211,0.52132183,0.80812770,0.63315153,0.35059208,0.50092888,0.48249584,1.09832013,0.46400356,0.63213730,0.98337793,0.41796514,0.52706069,0.45034379,0.38923502,0.73712444,0.56364000,0.41045350,0.15426466,0.53776503,0.21467781,0.37454867,0.62821168,0.63600153,0.68124914,0.60905141,1.03675890,0.47608843,0.76712972,0.28546578,0.27062267,0.63225412,0.70298702,0.29448941,0.70273805,0.12665972,0.28579342,0.16005328,0.81971490,0.38986439,0.38732731,0.63821375,0.40297228,0.54527587,0.52079272,0.71232957,0.71471763,0.58137757,0.15676884,0.97499609,0.61857694,0.70659196,0.35061634,0.50575960,0.57194090,0.46963748,0.50488544,0.70542532,0.41276139,0.36860424,0.39452446,0.39694554,0.87059313,0.31625423,0.33331612,0.28050768,0.27626461,0.59878755,0.62672520,0.79641479,0.82295370,0.78945047,0.52149886,1.04981053,0.52726728,0.21951690,0.34073392,0.50469089,0.35308433,0.63386691,0.64464164,0.19208962,0.29469556,0.93209726,0.41068602,0.48038062,0.43415377,0.50875223,0.57447833,0.55456704,0.50373769,-0.06917827,0.39401951,0.27914506,0.54993761,1.24364519,0.25886315,0.62578291,0.52492249,0.64990807,0.66066211,0.77997553,0.38402539,0.41917214,0.47882867,0.66112363,0.62440395,0.46482629,0.65206873,0.58573329,0.38953587,0.80271733,2.06004333,0.45359445,0.53877151,0.87954944,0.27110565,0.46554625,0.57045484,0.24606721,0.53251290,0.38591301,0.60323477,0.36273146,0.03440109,0.83586103,0.79746926,0.84637541,0.66556084,0.50547320,0.86260849,0.45585686,1.40024555,0.45792517,0.17980121,0.28968626,0.78083855,0.83713597,0.74502587,0.75175947,0.47065336,0.43810391,1.07231843,0.54360521,1.70932794,0.60247493,0.55783767,0.49976164,0.29114231,0.24160804,0.27459183,1.89428496,0.66784477,0.62947464,0.71603930,0.90358293,0.23052530,0.44476631,0.29024529,0.40605003,0.21306957,0.67778575,0.23183997,0.72692502,0.57592487,0.47647485,0.86359817,0.29716301,0.45791459,0.62311214,0.67575788,0.67181611,0.56141466,0.61878026,0.50742435,0.73743057,0.49022043,0.63521713,0.40648723,0.30359718,0.73617542,0.67592835,0.58212465,0.65033364,0.40801698,0.30093473,0.78253609,0.33533305,0.63630581,0.46093708,0.44382685,0.47479421,0.40187708,0.78964740,0.35876116,0.86018991,0.37564781,0.63901508,0.47133780,0.38863277,0.65608048,0.28076661,0.62704146,0.59304702,0.49802125,0.46696082,0.48109281,0.79058307,0.54186237,0.62973714,0.52062422,0.37306654,0.53321159,0.67399645,0.70629030,0.69720322,0.45724636,0.35462749,0.42735067,0.28596622,0.80433446,0.36238167,0.48458213,0.53570431,0.55095255,0.55287081,0.28987682,0.64556396,0.52574682,0.71821445,0.50941551,1.16555500,1.08215141,0.59665662,0.29701453,0.41920707,0.56856215,0.76740408,0.75680286,0.60783291,0.65895814,0.52333844,0.72546870,0.91157025,0.51494491,1.01992762,0.25996238,0.72939891,0.74672097,0.56883943,0.76280713,0.40824392,0.65560591,0.54669857,0.56295741,0.74325097,0.34229076,0.52431858,0.29925784,0.97562253,0.38727117,-0.06733134,0.05177438,0.47917211,0.12907442,0.69623816,0.93491173,0.23235284,0.25158721,0.78271955,0.59803975,0.49338579,0.30925569,0.23161763,0.82810479
