Label,dim_0,dim_1,dim_2,dim_3,dim_4,dim_5,dim_6,dim_7,dim_8,dim_9,dim_10,dim_11,dim_12,dim_13,dim_14,dim_15,dim_16,dim_17,dim_18,dim_19,dim_20,dim_21,dim_22,dim_23,dim_24,dim_25,dim_26,dim_27,dim_28,dim_29,dim_30,dim_31,dim_32,dim_33,dim_34,dim_35,dim_36,dim_37,dim_38,dim_39,dim_40,dim_41,dim_42,dim_43,dim_44,dim_45,dim_46,dim_47,dim_48,dim_49,dim_50,dim_51,dim_52,dim_53,dim_54,dim_55,dim_56,dim_57,dim_58,dim_59,dim_60,dim_61,dim_62,dim_63,dim_64,dim_65,dim_66,dim_67,dim_68,dim_69,dim_70,dim_71,dim_72,dim_73,dim_74,dim_75,dim_76,dim_77,dim_78,dim_79,dim_80,dim_81,dim_82,dim_83,dim_84,dim_85,dim_86,dim_87,dim_88,dim_89,dim_90,dim_91,dim_92,dim_93,dim_94,dim_95,dim_96,dim_97,dim_98,dim_99,dim_100,dim_101,dim_102,dim_103,dim_104,dim_105,dim_106,dim_107,dim_108,dim_109,dim_110,dim_111,dim_112,dim_113,dim_114,dim_115,dim_116,dim_117,dim_118,dim_119,dim_120,dim_121,dim_122,dim_123,dim_124,dim_125,dim_126,dim_127,dim_128,dim_129,dim_130,dim_131,dim_132,dim_133,dim_134,dim_135,dim_136,dim_137,dim_138,dim_139,dim_140,dim_141,dim_142,dim_143,dim_144,dim_145,dim_146,dim_147,dim_148,dim_149,dim_150,dim_151,dim_152,dim_153,dim_154,dim_155,dim_156,dim_157,dim_158,dim_159,dim_160,dim_161,dim_162,dim_163,dim_164,dim_165,dim_166,dim_167,dim_168,dim_169,dim_170,dim_171,dim_172,dim_173,dim_174,dim_175,dim_176,dim_177,dim_178,dim_179,dim_180,dim_181,dim_182,dim_183,dim_184,dim_185,dim_186,dim_187,dim_188,dim_189,dim_190,dim_191,dim_192,dim_193,dim_194,dim_195,dim_196,dim_197,dim_198,dim_199,dim_200,dim_201,dim_202,dim_203,dim_204,dim_205,dim_206,dim_207,dim_208,dim_209,dim_210,dim_211,dim_212,dim_213,dim_214,dim_215,dim_216,dim_217,dim_218,dim_219,dim_220,dim_221,dim_222,dim_223,dim_224,dim_225,dim_226,dim_227,dim_228,dim_229,dim_230,dim_231,dim_232,dim_233,dim_234,dim_235,dim_236,dim_237,dim_238,dim_239,dim_240,dim_241,dim_242,dim_243,dim_244,dim_245,dim_246,dim_247,dim_248,dim_249,dim_250,dim_251,dim_252,dim_253,dim_254,dim_255,dim_256,dim_257,dim_258,dim_259,dim_260,dim_261,dim_262,dim_263,dim_264,dim_265,dim_266,dim_267,dim_268,dim_269,dim_270,dim_271,dim_272,dim_273,dim_274,dim_275,dim_276,dim_277,dim_278,dim_279,dim_280,dim_281,dim_282,dim_283,dim_284,dim_285,dim_286,dim_287,dim_288,dim_289,dim_290,dim_291,dim_292,dim_293,dim_294,dim_295,dim_296,dim_297,dim_298,dim_299,dim_300,dim_301,dim_302,dim_303,dim_304,dim_305,dim_306,dim_307,dim_308,dim_309,dim_310,dim_311,dim_312,dim_313,dim_314,dim_315,dim_316,dim_317,dim_318,dim_319,dim_320,dim_321,dim_322,dim_323,dim_324,dim_325,dim_326,dim_327,dim_328,dim_329,dim_330,dim_331,dim_332,dim_333,dim_334,dim_335,dim_336,dim_337,dim_338,dim_339,dim_340,dim_341,dim_342,dim_343,dim_344,dim_345,dim_346,dim_347,dim_348,dim_349,dim_350,dim_351,dim_352,dim_353,dim_354,dim_355,dim_356,dim_357,dim_358,dim_359,dim_360,dim_361,dim_362,dim_363,dim_364,dim_365,dim_366,dim_367,dim_368,dim_369,dim_370,dim_371,dim_372,dim_373,dim_374,dim_375,dim_376,dim_377,dim_378,dim_379,dim_380,dim_381,dim_382,dim_383
tulip,-0.01932295,-0.03057693,-0.06003175,0.03733012,-0.01492942,-0.09008220,0.13552465,-0.04243032,0.02477080,-0.06221193,0.03491086,-0.02273744,-0.07590897,-0.05635161,0.02894931,0.02425071,0.02079672,-0.00552597,-0.01253713,-0.09582751,-0.12144715,0.00591636,0.00753344,0.06674229,-0.03031236,-0.01135176,-0.02133382,0.08020964,-0.11655361,-0.11197530,-0.03719227,0.04790780,0.06399760,0.02680568,-0.03364348,0.02340740,-0.04091845,0.02801358,0.04150573,-0.05752202,0.01527708,-0.12220754,0.05291922,0.00366336,0.02481540,-0.03912177,-0.03750591,0.04611359,0.03506681,0.01246994,-0.04080134,-0.06712487,-0.05668556,-0.03777054,0.01306686,0.05030686,0.03298964,-0.03600367,-0.02878338,0.02030770,-0.00204176,-0.02289388,-0.07482511,0.08139803,-0.04591125,-0.06673601,-0.00277500,-0.05442160,0.00182441,0.11586988,0.00160644,0.03325801,-0.00740652,-0.01604910,-0.04356980,-0.01355171,0.07128184,-0.00046096,0.05293826,0.04697515,0.06733248,0.08304433,0.00890123,-0.00753409,0.06195167,-0.01397129,-0.00985930,-0.03501379,-0.05490938,0.02672501,-0.04278999,0.03854238,0.02699761,-0.00683657,-0.05799096,-0.07035400,0.04390899,-0.08174180,-0.12804045,0.15851247,0.04648613,0.03650215,0.10457084,0.01458914,0.06761697,0.01610708,0.03705863,-0.06028887,-0.02012095,0.04965546,-0.03238488,-0.09009927,0.02319212,-0.03602774,0.00560800,0.02610393,-0.08036090,-0.01601958,-0.01634992,0.00865927,-0.02671496,0.01347623,-0.07043385,-0.04249574,-0.06859928,-0.03256430,-0.03126370,-0.00000000,0.03024783,0.07266892,0.04814792,0.01386586,0.00399371,0.02941262,-0.01925591,-0.01920015,-0.09586886,0.05730575,-0.04209975,-0.05208078,-0.02225981,0.01363781,0.11952841,0.06153704,-0.01107808,0.10572762,-0.04831234,-0.03261835,-0.09876464,-0.03548440,-0.10745595,-0.01405027,-0.07596560,-0.04218654,-0.02225907,-0.04777190,-0.02262660,0.05958157,0.10735682,0.06427581,0.07795370,0.04143993,-0.04143263,-0.08296703,-0.02090729,-0.04610227,0.05366911,0.05498401,-0.01566104,0.03283367,0.06913076,0.04184732,-0.05196657,0.01707729,0.05338700,0.01236803,0.04816395,0.01145089,0.01283736,-0.01963592,-0.00183395,-0.04073267,0.05383809,-0.00531601,0.03566410,0.03422383,-0.05146892,-0.02087433,0.01443274,0.01496686,-0.03868607,-0.06693886,-0.06954628,-0.00897343,0.03027644,-0.08656781,0.02203043,-0.00984749,0.00976514,0.02823734,0.04508573,0.00154941,0.01300323,-0.02137851,0.06725509,0.00067847,-0.00196543,-0.02814826,-0.06383979,0.01046749,0.04288355,-0.03809416,0.01837793,-0.02679794,-0.00212832,0.06421217,0.03855278,-0.04999303,-0.04286814,-0.01525822,0.00729806,-0.03126070,-0.01226484,0.00000000,-0.08839954,0.02465308,-0.04506208,0.08525859,-0.03758085,-0.01086179,-0.01292788,0.02101347,0.01758194,0.05589175,-0.02902099,-0.04834054,0.07119484,-0.05654063,0.12408483,0.04290039,-0.02474348,-0.03087992,-0.01552609,-0.02289294,-0.07385024,-0.07323723,0.04875312,-0.04783158,-0.04477854,0.06994196,0.04194851,-0.10992043,-0.01597808,0.03122385,-0.05080342,-0.02297191,-0.04152001,0.09283701,-0.01583875,0.06944382,0.00892529,-0.09664421,-0.03759510,0.05427421,0.06070829,-0.00177625,0.10869282,0.06948431,-0.00593505,-0.07690752,-0.00315002,0.13868383,-0.01305447,-0.01686330,-0.04156987,0.08496892,-0.03540849,0.07811957,0.02381002,0.08205634,-0.04880771,-0.05197490,-0.07854398,-0.07180940,-0.02359713,0.03273835,-0.06664140,0.06726453,0.01091227,0.03831007,-0.07755414,0.06932782,-0.08142336,0.01304959,-0.02286482,0.06579689,-0.06178205,-0.02725501,0.00106780,-0.01851292,-0.04059608,0.01469876,-0.05008438,0.06044295,-0.03407850,-0.03872447,0.05832624,0.07153881,0.01402319,-0.01110290,-0.01675826,0.00089768,0.02529226,0.05228778,0.01105746,0.02398467,-0.01818804,0.08639634,0.04732500,-0.00000001,0.06900664,0.02921555,-0.00574409,-0.04892081,0.04644238,0.02459900,-0.02180674,0.02073450,-0.00815217,0.05299992,-0.12183179,0.03770396,0.02004029,0.04442976,-0.00763211,0.08063696,0.03644872,0.02303939,-0.01376544,0.00944244,0.01882932,0.02233171,-0.00294251,0.00411102,-0.09532777,0.06875039,-0.02238775,0.07730269,0.02920932,0.01423345,0.00448503,0.02907702,-0.09357929,-0.00398238,0.01217045,-0.01393722,-0.01445994,-0.02521955,0.00461449,0.05622312,0.02157452,0.00765712,0.02072551,0.00353846,-0.00396370,0.06237875,0.06722119,-0.02652830,-0.03125050,-0.02024355,-0.08740881,0.00583799,0.05942812,0.06568450,0.06123729,0.00293465,0.04973581,0.09437180,-0.00194604,0.07560693,0.04726666,0.05532994,0.04667054,0.03312160
power,-0.05484506,0.15703794,-0.01952324,0.09120693,-0.01526404,0.00212071,0.09644634,-0.03563622,0.06556480,0.02423795,-0.00487040,-0.01328740,0.00974990,-0.01844444,-0.01136065,0.07050876,-0.01947359,0.00316207,-0.13507369,0.04991605,0.07160214,0.05856735,0.00387188,0.03671795,0.00563703,0.04478087,-0.04329512,0.00071028,0.03073706,-0.09307501,-0.02450093,-0.03062675,-0.00109253,0.00711408,-0.06395393,0.06736279,0.08946375,0.07100659,0.02095936,-0.02131971,-0.02890068,-0.12107854,0.04498992,0.00280516,-0.07261062,-0.01458506,0.02851224,0.02277667,0.00979265,0.02219781,-0.01693800,-0.07080369,-0.07822565,0.02177908,0.05056205,-0.01633200,0.05429811,0.01438812,0.03052998,0.01296904,0.02652047,-0.08925828,-0.06419385,-0.00568557,0.09675215,-0.01804948,0.06952399,0.00423571,-0.09404216,-0.01235281,0.03289464,-0.03723003,0.03275894,-0.05257541,0.04416657,-0.05801455,-0.01048275,-0.06507505,0.07039887,0.02009206,0.04743662,0.00280370,-0.09318438,0.10693412,0.04893788,0.00952554,0.03462313,0.00682195,-0.03427638,0.01585143,-0.06988155,0.02251883,0.06963801,0.03127343,0.00281173,-0.05806351,-0.00045756,-0.10889480,-0.07771280,0.23167343,0.00298101,0.08787207,-0.01094248,-0.02478243,-0.05165573,-0.00702814,-0.10526301,0.07575064,0.01890217,0.02250735,-0.00986358,0.01241607,-0.08407141,0.00847986,0.03114806,0.00682246,-0.03441960,0.05795796,-0.00132130,-0.00379003,0.05467094,0.00341657,0.02543329,0.01179451,-0.05724457,-0.08050085,0.05221892,-0.00000000,-0.01300822,-0.04311665,0.09016598,0.04884236,0.03116344,0.01808812,-0.05746735,-0.03662176,-0.03738747,0.12737948,0.03029357,0.10363416,0.06886809,0.02471129,0.11642700,-0.02007406,0.02325037,-0.02790004,0.01911348,0.00799300,0.03807025,0.05255061,0.02536483,0.06085341,0.01665722,-0.02112523,-0.03312291,-0.01357161,-0.01267580,0.00809755,-0.01510399,0.02606846,0.01824698,-0.05050839,-0.06505872,-0.03688698,0.07420264,-0.09750123,0.05896375,0.00141678,-0.07527650,0.01999502,-0.04176129,0.00216001,0.01446317,-0.03730504,0.09331635,-0.04606112,-0.07732338,0.03605414,-0.02034878,0.00160819,-0.05405268,0.02819650,0.04447016,-0.02490616,0.00004177,0.04530099,-0.00308760,-0.02364622,0.07532431,-0.01700408,0.01687524,-0.01436317,-0.01258014,-0.02634140,0.07461140,-0.05119136,-0.01007699,-0.05122216,-0.02725717,-0.05813125,0.02423744,-0.02500185,0.04757116,0.00711823,-0.03423912,0.03605895,-0.10448093,0.00369024,-0.10011280,-0.01187677,0.07034720,-0.00470034,0.06639005,0.00551435,-0.06190613,-0.03151551,-0.00372451,0.05180438,-0.03486768,-0.01761679,0.08016551,-0.04477039,-0.02824523,0.00000000,-0.11124143,-0.05236948,-0.07185929,0.07562547,0.08146511,-0.05169164,-0.05884324,-0.03236730,-0.00658860,0.00275638,-0.02052495,-0.02907725,0.01926761,-0.00538110,0.10198416,0.05368067,0.07432000,-0.04285619,-0.01698360,0.01980148,0.07451057,0.05270781,0.05210207,-0.01592608,-0.06448656,0.03644771,-0.01117991,-0.06201310,0.03559731,0.02733185,0.00983804,-0.00149667,-0.04348928,0.07334328,-0.09389801,0.04767061,0.02146312,-0.00941920,-0.02588883,0.01326714,0.00339365,0.05036810,0.03464711,0.12205922,-0.08097571,-0.03761177,0.01003863,0.01841954,-0.03423513,0.02738806,0.03161181,-0.01944488,-0.01646327,-0.01186670,-0.05221718,-0.08821869,0.03000367,0.04674713,-0.02378521,-0.00966884,0.00296391,-0.00419828,-0.04256934,0.09079091,-0.08173387,0.06617008,-0.00260154,0.00966176,0.06848610,0.00774050,-0.01486110,0.01005589,-0.05411112,0.03205590,-0.10082508,0.03350331,-0.05448869,-0.02760687,-0.05389891,-0.05056686,-0.05546611,-0.02181635,-0.03380071,-0.09629221,-0.01925602,0.01269723,0.04847007,0.02129380,0.06886134,-0.04262233,-0.03217661,-0.00030763,-0.05014704,-0.01330718,-0.02994997,-0.00000001,0.00407561,0.00477183,0.04303200,-0.03077024,0.07180338,-0.00623959,0.00602722,0.01122384,0.00643006,0.04587547,0.10979301,-0.01121628,0.09963284,0.05754209,0.06122207,0.00322992,0.00150829,0.03807123,-0.05060200,-0.00269475,-0.07941659,-0.02432461,0.01081146,0.02849324,0.00940698,0.02703988,-0.00273440,0.00971251,-0.01299657,0.01531937,-0.01388122,0.04832326,-0.08426669,-0.03242867,-0.08811635,-0.01096800,0.00583331,-0.01857824,0.03005574,0.00953525,0.02153068,-0.04985145,0.02505722,0.01187720,-0.13817835,-0.01767925,-0.03915307,-0.06310997,-0.01922216,0.00972188,0.01393044,0.06516733,0.02543518,-0.00346047,0.06260075,0.06839554,-0.03197964,0.07403144,-0.09389970,0.02534313,0.11656535,0.03299503,0.04427700,-0.02870386
shark,-0.11049029,0.02155051,-0.01060291,0.05466478,-0.07276710,-0.04785422,0.06152041,0.03182247,-0.00007971,-0.02179128,0.03734253,-0.11978177,-0.03759119,0.05270835,-0.03469587,0.05288701,0.03678261,-0.01248758,-0.06392635,0.05712565,-0.01445912,0.07809091,-0.08619194,-0.00102890,-0.03362461,0.03823599,-0.06405725,-0.01386792,0.04947951,-0.01295724,0.01457244,-0.05777875,0.08276729,0.01281930,0.04356727,-0.05872338,-0.01428628,-0.05653726,0.02522510,0.02858014,-0.02519712,0.01610204,0.00852308,0.04522464,0.02928571,0.00755899,-0.04617930,0.04488733,0.01493396,0.05079392,-0.08361931,-0.12235586,-0.04812049,-0.05038624,0.02300452,0.01395984,-0.02162448,-0.02578751,0.02533271,-0.04470579,0.07995609,-0.00112169,-0.03243017,0.08446623,0.00765646,0.02891261,-0.01425914,0.02484640,0.00117476,-0.03561283,0.00889615,-0.00385482,0.02475906,0.05015005,0.00026832,-0.06991764,0.13820477,-0.00722039,0.07045669,0.02237930,0.00627304,-0.10561734,-0.09897797,0.04097484,0.06498616,0.00156933,0.03708036,0.02197176,-0.07048838,0.05348551,-0.07254508,-0.02600911,0.06272038,-0.08265821,-0.03761432,0.01368495,-0.10275607,-0.01564626,-0.04947072,0.20280790,-0.03974214,0.04079841,0.06837751,-0.08262809,0.07631989,-0.01276156,-0.05598269,0.05807735,0.03687791,-0.01456922,-0.03956519,0.00939636,0.00784554,0.04867258,0.04495344,0.03948662,0.00934735,-0.03722954,-0.01831417,-0.04132482,-0.00920027,-0.02600768,-0.00860719,-0.04262704,-0.03733885,-0.04692353,-0.02532857,-0.00000000,0.06893086,-0.08089854,-0.00190140,-0.07042264,0.05461742,0.03047989,-0.01717680,-0.00265135,-0.02928341,0.02436152,-0.04245310,-0.01031999,-0.07189801,0.06107005,0.11137769,0.07998705,0.03937021,0.00273188,-0.07949112,-0.02978191,0.02501808,0.07929955,0.05021567,-0.03730724,-0.01524098,0.00363102,-0.01158311,-0.12638552,0.00728293,0.04522520,-0.01312978,-0.03398965,-0.02795178,-0.00621986,0.02931078,0.00646645,0.03561244,-0.06688864,-0.03628879,-0.00552286,-0.00087254,-0.01576975,-0.00919915,0.03370584,-0.00769687,-0.01329532,0.01035414,0.01167120,0.01414835,0.03123624,0.03041931,-0.01555387,-0.09229194,0.04509017,-0.06956612,-0.00788483,0.04265343,0.03669858,-0.07100308,-0.02860538,-0.02757301,-0.00258322,0.01203009,0.06359448,0.09142743,-0.01417807,0.08268647,-0.00895089,0.03013579,-0.06891672,-0.04601040,-0.05879963,0.02410973,-0.03742420,-0.06203273,-0.02437243,0.04290815,-0.00735905,-0.04688358,-0.00675371,-0.00313659,0.06623878,0.04177415,0.00634956,-0.06224257,0.05372525,0.02192714,-0.01751587,0.08238489,-0.01596946,-0.06070340,-0.08511034,0.09842899,-0.03052397,-0.03936869,0.00000000,0.00131625,-0.05443501,-0.02455888,0.07465982,0.03516277,0.00440125,0.00239920,0.09208997,-0.06161561,-0.00292420,-0.06332128,-0.05384717,0.08485564,0.03583612,0.12685162,0.09487687,0.00827015,-0.00555096,-0.00276830,-0.01874963,0.01940055,-0.04328739,0.02079490,0.10333120,0.01481445,0.07911094,-0.01841910,-0.06605223,0.02868142,-0.01116252,-0.07479466,0.12104918,0.03978968,-0.05820654,-0.06607445,0.14089693,-0.01850432,0.00690374,-0.01942401,0.06039923,0.05411072,-0.06219160,0.01972463,0.05569673,-0.01854895,0.07463346,0.04002576,0.01695158,-0.08566245,0.03311495,-0.04072516,0.04400951,0.00276416,-0.01847000,-0.02592451,0.02360166,-0.02238950,-0.04141326,-0.02302790,0.00595575,-0.04357847,-0.01120698,-0.05474807,0.02684321,-0.07323198,0.06905550,0.00536719,-0.01219659,-0.06680951,-0.08040753,0.02633861,0.03604148,-0.06105513,0.01522955,-0.03346597,-0.02525150,-0.13532068,-0.02782332,-0.00004114,0.03021814,-0.03627558,0.03587814,0.03973509,0.08601500,-0.01079296,-0.08022453,0.06227737,-0.01882203,-0.02314183,-0.07356278,-0.03735171,0.02425873,-0.03481624,-0.02295493,0.00948007,-0.00000001,0.01791380,0.07637720,0.04191171,0.02793238,0.02805268,0.00839642,-0.04764124,0.08194339,-0.00602669,0.03870365,-0.00622733,-0.02039684,-0.00431981,0.02146045,-0.00862607,0.02197565,-0.01217228,-0.05315288,-0.00872816,-0.04205651,-0.03400097,0.01287498,-0.00587456,0.02226054,-0.04342438,-0.03808802,-0.07395440,0.11522655,0.02652545,0.05433261,-0.02811595,0.10224990,-0.11746942,0.00479333,-0.00770167,0.03405822,0.08067141,-0.06552245,-0.02177556,0.03438787,-0.02118962,0.09486657,-0.02923365,0.00700170,-0.03030146,0.04353479,0.10185011,-0.04463764,-0.01951227,-0.05892589,-0.00295122,0.00634733,0.03113551,0.03472737,-0.00887314,0.07869644,-0.02023242,-0.02969041,-0.06421196,0.09736171,0.11786189,-0.04207946,0.04928815,0.05910941
table,0.03143245,0.00130031,-0.09157121,0.01659197,-0.06161977,0.03028340,0.09818552,0.03129932,0.00850208,0.02831614,0.04408326,-0.06863854,0.02038177,0.00843683,-0.09239798,0.00056189,-0.03002031,0.02700809,-0.03336900,-0.00321960,-0.05718779,0.02907069,-0.01959590,-0.02534068,-0.01100933,0.07687296,-0.01362495,0.05385273,-0.01522091,-0.12471955,-0.10529911,0.00863598,0.00599821,0.05421735,-0.04725441,-0.10336057,0.01064313,0.01987654,0.02459472,0.02540520,-0.08670784,-0.13111828,0.03545754,0.01766137,0.00043373,-0.01444249,-0.04839977,-0.01098572,0.01125420,0.02030018,-0.07923800,0.09143957,-0.00315886,0.01671367,0.02553119,0.07628908,-0.03232692,-0.03397198,0.00627524,0.02114651,-0.01558936,0.01342325,0.04342554,0.02544504,-0.01835131,-0.00107033,-0.05283116,-0.02582711,-0.01869572,0.01670846,0.03765675,0.05533011,-0.02741237,0.00758692,-0.00025773,-0.10144214,0.01800856,-0.04466432,0.05455358,0.01739640,-0.05718551,0.03039684,-0.03717699,0.00487525,-0.01458598,-0.00682516,0.02948305,0.04917410,-0.09238110,-0.05064820,-0.01006261,0.07683811,0.02683100,0.00766001,-0.14259167,0.06127660,0.11068401,-0.07521442,-0.00311634,0.19892643,0.01564528,0.04071669,-0.05695757,0.07442442,-0.11391373,-0.07828166,0.03899683,-0.00113000,0.02662617,-0.05122815,-0.06816553,-0.00187029,-0.11326925,-0.04138769,-0.08495608,-0.01547942,-0.08583500,-0.05241791,0.03705704,-0.00497063,0.02872048,0.04714819,-0.06209340,0.08442286,-0.07304045,-0.00256031,0.04198408,-0.00000000,-0.05711707,-0.03504558,0.09546208,-0.01927982,0.09042063,-0.00198634,0.04698197,0.05537362,-0.00855430,0.06922089,-0.06184792,-0.03626655,-0.00111994,-0.00446203,0.08844324,0.06715729,0.00824454,0.02096318,-0.06069802,-0.03715419,-0.03762904,0.03479584,0.05068712,0.09296018,0.00541722,0.01684914,-0.01250514,0.01245990,0.04373623,0.03535468,0.08995559,0.01382736,-0.06978161,-0.10347749,-0.00641849,0.00112724,-0.00810136,0.00875886,0.08662538,-0.00839498,0.00680160,0.03147405,-0.04799093,-0.03580178,0.01070315,0.02681201,0.09123100,0.01246715,-0.03105586,-0.01180812,0.02005910,-0.04103587,-0.06482951,0.05081582,0.02216480,-0.01746779,-0.04042607,0.01375964,0.05485919,0.05330986,0.04832404,-0.00874391,-0.02009372,0.04573492,-0.04559606,0.08614832,-0.05308778,-0.06349212,0.12404434,-0.05129510,-0.06738409,-0.04852642,0.12335377,0.04410592,-0.02903530,-0.00363846,-0.00479516,-0.06108963,-0.03117632,-0.05758604,0.02778691,0.05720283,-0.10023554,-0.03413665,-0.10010649,-0.04197686,-0.03361292,-0.05943895,0.00677173,0.01648437,-0.04693789,-0.03186118,0.03486397,0.00736441,-0.02137291,0.00000000,-0.00221704,0.06240881,-0.08516836,-0.00079618,0.06343388,-0.02913812,0.04666752,-0.06413747,0.00193321,0.06301337,-0.00794443,-0.05430236,0.03109471,-0.03893032,0.04428506,0.06573345,0.03750543,0.01813399,-0.10744567,0.03307758,-0.00648554,0.01598585,-0.01788049,-0.00154220,-0.01254340,0.01647371,0.00670360,-0.03551118,-0.01053457,0.07099660,-0.01613090,-0.09464978,0.01619086,0.07977726,-0.02233646,0.00040279,0.04849453,-0.06153166,0.02244431,0.00198570,0.03507244,0.02230242,0.06889002,0.13633780,0.02285152,0.03168725,0.00008381,0.00069060,-0.00117842,-0.00070241,-0.08214023,-0.04988977,-0.00836201,-0.11372267,0.06998868,0.02110926,-0.02957184,0.00617222,-0.00758941,0.03216147,-0.04802461,0.15119055,0.05477537,0.11050568,0.04073094,-0.00371780,-0.01953293,0.01037055,-0.04057872,0.06896175,-0.08739838,0.02662990,-0.00751145,0.02168012,0.00574103,0.00601066,-0.11729519,0.04691191,-0.05098956,-0.03891728,-0.04269120,-0.02546766,0.03095706,-0.06310066,-0.02513789,-0.02721332,0.08493753,0.03504867,0.01291083,0.03439326,-0.00378825,-0.01569880,-0.05061618,-0.01154707,0.00024250,-0.00000001,-0.00678166,-0.04936418,0.00577233,0.00480889,0.07613851,-0.09651449,0.09550237,0.08896422,0.02788152,-0.00428472,0.07246532,0.02655871,-0.00554059,0.01629771,-0.00077346,0.03358506,-0.03641288,-0.02155359,0.00465918,-0.00023646,0.01453204,0.02008999,-0.02929066,0.00332263,0.03955451,-0.03980825,-0.07201464,0.05638995,0.02987052,0.02067343,0.07084665,-0.00715869,0.02179644,-0.00165044,0.13675515,0.00218022,-0.01490319,-0.04500985,-0.02591330,-0.03402550,-0.01225026,-0.01989587,-0.00491248,-0.03953457,0.04313371,0.05905435,-0.07159192,-0.01328709,-0.01869056,-0.06571139,-0.02769067,-0.04419692,0.01089092,0.03821632,-0.02128981,0.07838263,0.03486515,-0.00910289,0.01581155,-0.00876312,0.06787837,0.04105310,-0.03963290,0.04705774
wave,-0.06772502,0.01921308,0.00218825,0.01545607,-0.06964051,-0.01964955,0.04865992,0.02016569,-0.06906836,-0.03459027,0.05984154,-0.04495684,-0.08476176,-0.01350923,0.07700168,0.05283635,0.00802491,-0.08541990,-0.07104032,-0.02074803,0.01353838,0.03216369,-0.05944632,-0.04870494,0.06177460,0.04754519,0.04986168,0.04970597,0.07734681,-0.05813505,0.02374313,0.07685680,0.00258216,0.00716668,-0.05321469,0.04059751,-0.00539397,0.01231133,0.02794714,-0.03232233,-0.05650690,-0.06068578,-0.03285639,0.03045190,0.00915549,-0.00231404,0.00222163,0.02372170,-0.01100272,-0.01883002,0.02383759,-0.04749265,-0.08492924,0.06819065,0.01510699,0.04704783,-0.01818257,0.04218572,0.04464095,-0.02755043,0.04122179,0.03355385,-0.02928159,-0.00577717,0.06481105,-0.02090279,-0.00215632,0.02339355,0.02007323,0.01252238,0.05190099,-0.02141261,0.10531440,0.04987431,0.04561117,-0.08503886,0.02414814,-0.00662731,-0.00008870,0.06866829,-0.07404661,-0.14310622,-0.10132364,-0.02119937,-0.01875460,0.05990895,0.02673225,-0.01592404,-0.06109056,0.03235784,-0.09526636,-0.01842019,0.00417367,0.00681086,-0.00723659,-0.00618639,-0.03209729,-0.03254680,-0.01931993,0.19188464,0.02923784,0.00731723,-0.03640166,0.07012092,-0.05909121,-0.09586321,-0.05470379,0.07235958,0.01065944,0.00878301,-0.01316105,0.00619134,0.01291638,-0.03369648,0.04251764,-0.06879579,-0.03339737,0.03142761,0.02405809,-0.00980507,0.04722785,0.00035979,-0.04110870,0.10287558,-0.02518356,-0.04161792,0.02815570,-0.00000000,0.08357770,0.05368002,0.03517108,-0.03942230,0.03720118,0.02942854,-0.01473300,0.00637063,-0.00534841,-0.02214117,-0.08130911,0.09122633,-0.04351981,0.01759819,0.07224428,-0.03026041,-0.02635771,-0.00311452,-0.05962335,0.01649081,-0.04234856,0.07522984,0.00089714,-0.04521278,-0.05417252,-0.02678623,-0.01346206,-0.06583110,-0.01138687,0.02631064,-0.01588729,0.07025409,0.00674528,-0.02690532,0.04285533,-0.00471428,0.02386349,0.00117208,-0.02356174,-0.03760495,-0.07855616,-0.03035737,0.03573586,0.02601892,0.05714437,-0.07353924,0.04179417,0.04571481,-0.00370167,0.03645672,0.03590985,-0.08675134,-0.04245840,0.07271347,0.00497915,0.01800244,0.04710057,-0.04067527,-0.08348049,0.00728305,0.02109479,-0.01104416,0.09204794,0.01224655,0.01758634,0.02037371,-0.02251565,-0.04811539,0.02540979,-0.01593918,-0.11438821,0.03474358,0.01535934,-0.01752014,0.00762326,-0.05093703,-0.02362135,0.07082918,-0.01723096,0.04322246,-0.04602895,-0.02208920,-0.01307089,-0.00838867,0.01535686,0.06764931,-0.01810450,-0.15833214,-0.04497559,-0.03008783,-0.17001571,0.05002648,0.13095409,-0.02468689,-0.01921579,0.00000000,-0.01051091,0.03318423,-0.07446701,0.07333010,0.08312839,0.07752758,0.06198536,0.02005700,-0.02566977,0.02757367,0.05682343,-0.07489559,0.03328086,0.04175816,-0.07420028,0.01879806,0.09759221,-0.02363653,0.02393087,-0.01470357,-0.00376468,-0.06072703,0.02648552,0.01910916,-0.04586309,0.02865212,0.05875517,-0.07444869,-0.01940953,-0.01610104,-0.02564862,0.02063022,0.04508225,0.00639976,0.01502076,0.14987342,0.13652699,0.01602375,-0.05358341,-0.08226690,0.03792735,0.04068856,0.12026604,0.03973645,-0.09746033,0.07599176,0.07082693,0.06124730,-0.15899862,0.02252668,0.00641283,-0.00288046,0.05385805,-0.01209586,-0.02058170,0.01502621,-0.02401542,0.01049352,-0.03594313,0.05035180,-0.02177355,-0.02981388,-0.03152828,-0.01255424,0.01003028,0.02834616,-0.05335490,-0.01433688,0.02037290,-0.04522612,0.01358560,-0.01869925,-0.07864279,-0.03475710,-0.02645723,-0.10937005,-0.07186033,-0.01723733,-0.07765274,0.03122924,-0.04022745,0.04028914,-0.02392951,-0.00861493,-0.03636914,-0.05296956,0.01179987,-0.06489340,-0.02553437,0.00555356,0.02403010,0.10022576,-0.07280384,-0.06098408,0.04831733,-0.00000001,0.02026248,0.03788059,-0.00412059,-0.06965274,0.07428187,-0.00658519,0.04609611,-0.03126731,-0.01212902,-0.05866341,-0.00131237,-0.02891563,-0.04540926,0.00868271,0.04874958,-0.05896036,-0.07585279,-0.00304376,-0.00769224,-0.03380351,0.00203992,0.00676613,-0.02024282,0.06351924,0.05038569,0.01808359,0.01468462,0.02871500,0.03454010,0.08406234,-0.01469966,0.04620709,0.01013461,-0.01183559,-0.07410588,-0.04179957,-0.01188204,-0.00587055,-0.01011161,0.07202866,-0.01644539,0.09366398,0.01088501,0.01728973,0.01435771,-0.02801929,0.04797133,-0.05159185,0.00157207,0.04702062,0.01534231,0.09317463,0.04198300,-0.01797781,0.05015702,0.06814300,-0.06843343,-0.07353868,-0.10480843,0.06909556,0.10756813,0.04058829,0.02884506,0.08176805
heel,-0.10959600,0.04416005,0.02177561,0.04230407,-0.01308593,-0.01950007,0.03764438,0.01550358,0.00855580,-0.00671424,0.02374126,-0.03742362,-0.00345725,0.01233586,-0.04290745,0.02895816,-0.02434763,0.05701591,-0.01371873,-0.03016497,-0.04212703,0.03936991,-0.02530494,0.03310020,-0.07636014,-0.01011575,-0.02914148,0.02932427,0.00285954,-0.06862809,0.03010169,-0.06826370,0.02098276,0.05072192,-0.09435336,-0.03442512,0.01296319,0.04148931,-0.00911001,0.06534651,-0.00875943,-0.07719428,-0.00470194,-0.03143655,0.06867988,-0.02539700,0.02664995,0.01726327,-0.05165878,0.07174782,-0.03730209,0.01442706,-0.04847244,0.06825291,0.03609497,0.04616035,0.02750541,-0.00087974,0.04762020,-0.03492396,0.16030304,0.03532900,-0.04921381,0.03919461,-0.04938363,-0.07056564,-0.01526782,-0.02133265,-0.00522281,0.09615780,-0.03010518,-0.02688472,0.06562196,0.00990684,-0.02025934,-0.02964746,0.01899990,-0.09781255,0.04646383,0.06050935,0.04673719,-0.03479061,-0.05174251,-0.00897315,-0.01642612,0.00198000,0.00130243,0.05433777,-0.02681254,0.00922217,-0.06288273,-0.02789556,0.04175606,0.01606699,0.01737957,0.01648907,-0.05758890,-0.04693984,-0.09100044,0.23854187,-0.01808710,0.00303067,-0.05855047,-0.01878475,0.00465745,-0.04713311,0.01099119,0.06225402,-0.00737259,0.05411598,0.03957691,-0.01023747,-0.08549126,0.00930800,-0.00014483,-0.00598360,-0.00909554,0.01819958,0.03142140,0.06457097,0.00340618,0.03815421,-0.00346770,-0.00859397,-0.08233857,-0.01210207,-0.05751790,-0.00000000,0.00854875,0.02679193,-0.06024100,-0.11961216,0.00947024,0.05767896,0.03941666,-0.03270217,-0.06086357,0.09949873,0.00854830,0.06205926,-0.00659871,-0.07789055,-0.01127243,0.05569974,0.00956430,0.07980393,-0.06138186,-0.05839504,0.06124873,0.10475273,0.03680662,0.00019553,0.00772607,0.00810390,-0.00559533,-0.10971013,-0.00869280,-0.01555227,-0.00303985,-0.01188559,0.08763952,-0.00590424,0.03134233,-0.02081671,0.03120348,-0.08078026,0.00712236,-0.05822956,0.00804531,-0.00369925,0.07931016,-0.01511330,0.00719283,0.06220037,0.01874463,0.04237881,-0.05244736,-0.01663672,0.05395671,0.02588301,0.03974481,0.00190546,0.05119820,0.00078364,0.07799110,0.04263526,-0.00469229,-0.00303540,-0.04627138,0.01204236,0.03170633,-0.09623700,-0.06068027,-0.06405040,0.00387254,0.03607273,-0.05613166,-0.05199745,-0.03726328,-0.05488339,0.00973062,0.01327572,-0.04094217,0.01163045,0.01729128,0.01722172,-0.06895537,-0.08178902,-0.14616145,-0.06230924,0.00272227,-0.00440173,0.02396213,0.01136766,-0.06949017,-0.02765101,0.02050772,0.07050204,-0.08854733,0.01046938,-0.02573837,0.03133447,0.02703057,0.00000000,-0.04867723,0.05488118,-0.03144540,0.05870097,-0.00698159,-0.06359066,-0.02328661,0.03517011,0.00447225,-0.03702791,-0.00441330,-0.04926713,0.01253655,0.01268034,0.03686692,0.01983372,0.08166986,0.01845389,0.03877523,0.04273685,-0.00920078,0.01689043,-0.05158042,0.06244559,-0.03618371,0.05387671,0.19288401,-0.00356497,-0.11719668,0.00092228,0.08160920,-0.04524645,0.00443527,-0.01644978,-0.07083647,0.20895754,-0.14648007,0.04100791,-0.00618800,0.00171687,0.06891507,-0.04456807,0.02858895,0.10963479,-0.03085966,-0.01464425,-0.01018537,0.04007721,0.04662228,0.00326511,-0.02520330,0.01572038,0.00915360,0.03937726,-0.02955585,0.02677217,-0.07418227,0.01714488,-0.04334081,-0.02471130,-0.00624046,0.01174057,0.01776566,0.03084863,0.00285385,0.04096305,-0.01031271,-0.08403219,-0.10781601,0.02922323,-0.01297837,0.05829439,-0.05225281,0.05297716,-0.04959121,0.02422063,-0.06916111,-0.01562902,-0.00504482,0.01718827,-0.09089988,-0.08016396,-0.02550930,-0.02265964,-0.01352112,0.04211302,0.01054982,0.07461198,0.08503311,-0.06012317,0.07151674,0.04069627,-0.02509884,-0.06638826,-0.00444565,-0.00000001,-0.00185339,0.01646284,0.00119484,-0.04818709,-0.02219169,0.06926177,-0.00955201,-0.03243951,0.04066958,0.01351516,-0.03512510,0.06138782,0.02866670,0.04854426,0.07413888,0.04369498,-0.02524495,0.04762559,-0.00905320,-0.01637615,-0.07474079,-0.04960091,0.03827271,0.05514799,-0.00714020,-0.07697266,0.05966127,0.04012637,0.01979891,0.11160077,0.03232389,0.00520510,-0.01196151,0.01445552,0.01020052,0.09882824,0.02743406,-0.02726213,0.02302927,0.03535644,-0.03782073,-0.00551676,0.01204907,-0.03036696,-0.16311398,-0.00362183,-0.00350153,0.03699525,-0.00630834,-0.02330414,0.00871402,-0.02173373,-0.01499875,0.07088956,0.08815466,0.02768890,0.02835847,0.01549695,-0.03659176,0.06186083,0.08214996,-0.11676136,0.04279781,0.02524033
toucan,-0.07764971,-0.01646245,-0.06726343,0.08287933,-0.01433701,0.09003515,0.06767218,-0.02450914,0.02734846,-0.00061988,0.03314737,-0.05936170,-0.06460449,0.06221780,-0.13341048,-0.01200552,0.04803232,0.01423854,-0.00772172,-0.11080594,-0.09134208,0.01924563,0.09300596,0.03381305,-0.00388687,-0.01523148,-0.03697161,-0.00569907,-0.03956221,-0.11164771,0.00429886,0.04813707,0.02740645,-0.00276940,-0.06094288,0.01982076,0.04822541,0.00388445,0.05760046,-0.03706482,-0.01600691,0.00923420,-0.01383505,0.01390255,0.08224522,-0.04000485,-0.00563056,0.02733500,0.05790907,0.05238713,0.01008922,-0.08182192,-0.00339466,-0.07956371,-0.00352380,0.01478873,-0.01713338,0.00851346,-0.01097023,-0.00291305,0.02984310,-0.01585511,-0.09487911,0.08133454,0.00848164,0.00173969,-0.01026876,0.04812631,-0.02406793,0.03337715,0.10391632,-0.02690626,-0.01752669,0.09202383,-0.03521749,0.01901363,0.10537417,-0.03802692,0.02597098,-0.06451887,0.05999478,0.01944213,-0.04417480,-0.04432509,0.02842297,-0.07150550,-0.06299792,0.07325199,0.02542451,-0.02505836,0.01038876,0.05088587,0.06262702,0.01629497,0.00398365,0.01220018,-0.01547855,-0.01448246,-0.08611337,0.14363688,-0.00177699,-0.05006519,0.01186428,-0.03622666,0.02632213,0.00324951,-0.01566577,-0.07083834,0.13025618,0.01805706,0.01539135,-0.04854534,-0.03465093,0.01625343,0.00945164,-0.02677254,0.00765480,0.00502438,-0.00074601,0.04072464,0.01184795,-0.00361089,-0.05785645,0.02080975,-0.02185356,-0.07350074,-0.01455459,-0.00000000,0.06292760,-0.03186085,-0.04172153,0.02179590,0.02750036,-0.05744491,0.10560477,-0.01733561,-0.09926549,-0.01216019,-0.08452237,0.01251075,-0.11403916,0.05560980,0.02230202,0.00223956,-0.01465216,0.05747210,0.00204624,0.03541684,-0.07591401,0.10277933,-0.03676772,-0.01287493,0.09650363,-0.07844773,0.01343015,-0.02142149,0.05020838,0.03628143,0.02986403,-0.05996757,-0.02667858,-0.01417442,0.01671983,-0.04984631,0.03513703,-0.00658953,-0.02344426,0.08181086,0.04627071,0.02323853,0.03107308,0.10592442,0.05602296,0.04114112,0.04093359,0.04418596,-0.02699349,0.00595779,-0.02469070,-0.03368009,0.01432565,-0.02883038,-0.03544223,0.02602021,0.04517350,0.11790595,0.06036885,0.01485738,0.01388793,0.04906549,-0.00050668,0.04173922,0.01253743,-0.06627244,-0.00258292,-0.02033217,0.03923601,-0.11300946,-0.04646479,0.02183239,-0.00322496,0.03773777,0.01053032,0.00016820,0.01527973,-0.01570182,-0.08721355,-0.05562470,0.01911785,-0.00289409,0.00622317,0.08132569,-0.03019123,0.11318457,0.01637335,-0.01127502,0.00032236,-0.06033426,0.04537131,0.04887966,0.01454423,-0.04764879,0.06007641,0.00000000,-0.05724617,0.02351132,-0.05218568,0.06996458,-0.05875759,0.03340156,0.02704160,0.08167123,-0.02662880,0.01142191,0.08558986,-0.11328162,0.07798909,-0.09111509,0.01766890,0.05996966,0.08958108,0.08100902,-0.05396670,-0.05641573,-0.08211749,0.03499369,-0.03942945,-0.02567658,-0.07986101,0.02943030,0.00086774,0.05675687,-0.09002385,0.03780448,0.01427890,-0.06355405,-0.04133937,-0.05920383,0.02703859,0.06456688,0.03496997,-0.02276937,-0.10083367,0.03359399,0.09932420,-0.02453706,-0.01995394,0.06732089,-0.02996008,0.06089266,-0.05559742,-0.00304584,0.03697301,0.02879053,0.02039387,-0.05046730,0.02003985,-0.03748184,0.07961243,-0.10385688,0.05572065,-0.03487941,-0.01870621,0.01709155,-0.02871923,-0.03087021,-0.00189056,-0.04168658,-0.00534244,0.05624162,-0.11754071,-0.00154221,0.00616087,-0.07715038,0.06074715,-0.06620540,0.02934160,0.03061003,-0.10580804,0.07586657,0.03497156,-0.08172247,0.01659436,-0.10256385,-0.03050420,-0.08655285,0.00271985,0.05616876,0.10511398,-0.00858111,0.06210070,0.02902143,0.05358190,0.03103801,0.06156646,0.00826710,-0.00945277,-0.06795886,-0.02581899,-0.00000001,0.04643133,-0.07053830,0.02306787,-0.01969020,-0.01459631,0.05791432,0.07246035,-0.02036401,0.01595245,0.01370571,-0.03536865,0.04685462,-0.03264451,0.06948254,0.05384651,0.00868111,0.02433827,0.08169407,-0.02191781,0.03590173,-0.05869927,0.03477968,0.04681579,-0.09269759,-0.00146555,-0.03749114,-0.06354667,0.07794911,0.12944834,-0.04516653,-0.01362822,-0.01763556,-0.09365027,-0.00430090,0.01233898,0.02110526,-0.05065328,-0.00730380,0.02159454,-0.01873623,-0.00910833,-0.02538851,0.02648396,0.00708226,-0.07464626,-0.04410413,0.06670371,0.03787609,0.01788077,-0.04873111,-0.07333347,-0.03800861,0.02743619,-0.02318763,-0.02513348,-0.04846875,0.01408027,0.00673802,-0.05788977,-0.04383569,0.03011958,-0.01649148,-0.04691279,0.01322849
spine,-0.01447613,-0.03346219,-0.06224502,0.02885817,-0.09689903,-0.08603784,0.00959113,0.05846509,0.05150325,0.03067829,0.07000332,0.05190557,0.03276195,0.00189883,-0.08957400,-0.01158537,0.01626793,-0.02379092,-0.03564041,0.09835488,-0.11411660,0.07930199,0.00909940,-0.02716364,-0.07841054,0.01157898,-0.02068834,-0.02698729,0.01121939,-0.10156814,0.05415810,0.01916233,0.03286888,-0.04864679,-0.02312867,0.06604232,0.03614715,0.00130970,-0.05804421,-0.04132288,-0.06767187,-0.04882133,0.00851377,0.00917506,0.05395950,-0.01970970,0.01461673,-0.03446093,0.03128076,0.07366273,-0.02985011,-0.05962054,-0.07603949,-0.01734345,-0.02748999,0.07918108,0.01265563,0.09363490,-0.01820999,0.05777853,0.10254186,-0.01708884,-0.01555578,0.01920852,0.03581433,-0.03233302,0.06101058,-0.05237113,-0.07341583,0.00205074,0.02948128,-0.05109006,0.02606978,-0.02873613,0.02855152,-0.01371534,0.05206849,-0.06636957,0.07804592,-0.05268404,0.02386381,0.03657453,-0.07179981,0.03379974,-0.00477840,0.06281073,0.01992207,0.04629701,-0.08629056,0.04283536,0.04984552,-0.02427534,-0.00954909,0.01530174,-0.08050906,0.04097822,-0.02149863,-0.01991047,-0.05501091,0.15440334,-0.01759106,0.00801937,0.11866041,0.03055187,-0.03927600,-0.06342607,0.00550240,-0.04658632,-0.03264057,0.00099364,-0.03206792,-0.00576863,-0.06137302,0.03595864,0.08246312,-0.03135932,0.04404521,0.00826981,0.05193563,-0.01465921,0.01831152,0.00740691,0.00101456,-0.05533261,-0.07325359,-0.13735747,-0.08341741,-0.00000000,0.05849341,-0.00110938,0.01163394,-0.09199655,0.01457016,0.01080999,-0.02486284,-0.03323018,0.00588386,0.10722139,-0.02346905,0.03131569,0.05392410,-0.06898339,0.06106620,0.02251056,-0.07192937,0.06355207,-0.09793654,-0.06124642,-0.00927619,0.14544433,0.04649497,-0.00001273,-0.02074246,-0.09956674,-0.00554850,-0.10618090,-0.02486604,-0.00311293,-0.03937222,0.00818717,0.00122215,-0.06059646,0.00954413,0.07526373,0.02174793,-0.07249016,-0.00860631,0.06486516,0.00420808,-0.00070549,0.06786353,0.03898616,0.03021153,0.00437656,0.06956962,0.00365631,-0.11899322,-0.04284561,0.00122816,0.02378550,0.06325093,-0.03606862,-0.01998909,0.01764825,0.05017693,-0.01921041,0.00897277,0.00715552,0.07145178,-0.01432099,0.01069837,-0.00097226,-0.07038324,-0.06142313,-0.02911851,-0.03365280,0.03265293,0.02002512,-0.01158777,0.02915209,0.04784767,0.05030704,-0.06137704,0.04238608,-0.03676769,0.03286290,-0.06258930,-0.05527066,-0.07425879,0.03807308,-0.04961718,0.01549811,0.11931393,0.06162411,-0.03718659,-0.07169145,0.00244362,0.00057890,-0.07770482,-0.07038470,0.03266530,-0.08385250,-0.01407441,0.00000000,-0.03658567,-0.02280967,-0.00428927,0.08260635,0.05234289,-0.04861991,-0.00082611,0.05625632,-0.12452133,-0.06653699,-0.00476257,-0.01796502,0.04566951,0.01014790,0.11529068,0.03322986,-0.01384923,-0.01745983,-0.00560550,0.01472059,0.08880285,-0.00238507,0.03580686,0.09120643,0.00904019,0.03891899,0.05234354,-0.07692436,0.01440423,0.04611850,-0.01444265,-0.03875167,0.02773449,-0.03832654,-0.05522477,0.17787729,-0.06971084,-0.03355893,-0.06852628,-0.01332949,0.06295235,-0.02515917,0.09724721,0.10103642,-0.00386606,-0.01984313,-0.05555310,0.09956272,0.00156603,0.01174356,-0.02123230,0.08686717,0.02404471,0.00328361,0.08250864,-0.01004797,-0.04616814,-0.04981053,0.00657581,-0.00752936,0.03157433,0.02918845,-0.04347413,0.00375755,0.03795825,0.09241931,-0.00903849,-0.06331187,-0.12328042,0.01780079,-0.03347195,0.05050301,-0.01802642,0.02631595,-0.04218834,-0.00075486,-0.03555077,-0.01659783,0.01006274,0.03596088,-0.05854640,-0.06040370,0.03830930,0.02153337,-0.01919320,-0.00315741,-0.00351876,0.01213797,0.05785293,-0.07048785,0.07164747,0.03725737,-0.05418487,0.04353831,0.04126025,-0.00000001,-0.02778476,0.03515708,0.06003027,-0.02260146,0.00133997,0.01220099,0.05025815,-0.00135292,-0.02044887,0.00379172,-0.04004115,0.00392055,0.03394582,0.02141301,0.03257594,0.06069666,-0.03840835,0.04903376,-0.02841281,-0.02081884,0.02017244,-0.04914716,0.05852379,0.04360202,-0.02232387,-0.03960768,-0.05682183,-0.02011381,0.02756809,0.03747518,0.06430012,0.00933392,0.00509469,-0.04231356,-0.07641596,-0.00524951,0.06770516,-0.03395522,-0.02993344,0.07118634,0.01866912,0.00471698,0.07580567,0.03704065,-0.07053991,-0.04706679,0.00518399,0.03716340,0.04356826,-0.05788857,0.01633240,-0.02172791,0.02717231,0.04913612,0.01628876,0.07285791,0.03607674,0.07427127,-0.05274869,0.07586910,0.11790477,-0.01264170,0.05167354,-0.00958797
key,-0.01577566,-0.00003598,-0.04067739,0.03330444,-0.04223720,-0.00043070,0.08600189,0.03036829,0.02640156,0.00100339,0.03385570,-0.05903577,-0.00074136,-0.00914591,-0.01510718,0.02741494,-0.02729626,-0.00966975,-0.13805221,-0.05865547,-0.04959595,-0.01503308,0.01386296,-0.04931228,-0.06718074,0.03028901,0.02325578,0.09011869,0.03291200,-0.06942339,0.01102116,0.01103817,0.06080091,0.04478830,-0.02167550,0.03078268,-0.00983571,0.02889298,-0.00348587,-0.01297530,-0.00557078,-0.09085477,0.00211388,0.01268368,0.04352488,0.04999577,-0.05181060,-0.01947012,-0.00790162,0.03926193,-0.03454423,0.05617065,-0.03972210,-0.00121359,0.00893079,0.03365938,-0.05220276,0.03553838,0.06158573,-0.00007066,0.07858209,-0.00515507,-0.09280058,-0.00769952,-0.01289552,0.05256046,-0.03465875,-0.11059504,-0.02789355,-0.01173615,0.02725330,-0.02616239,-0.00991828,-0.11735386,0.00751897,-0.00434358,0.02894062,-0.06454568,0.04335845,0.07169086,-0.03544283,-0.01615473,-0.04643784,0.04218432,0.01918817,0.04885281,0.00750662,-0.00439243,-0.07187448,0.07697979,-0.02563568,0.00934345,0.06316495,0.01341859,-0.00248738,0.01081721,0.01195809,-0.04883806,-0.05844445,0.24528401,-0.01296144,0.03698739,-0.03642970,-0.05352069,0.04922736,0.00692475,0.00770190,0.05022548,-0.02680811,-0.02345663,-0.05953036,0.04203215,-0.01420933,0.03771736,-0.02669516,-0.00228833,-0.05029220,0.05005515,0.08901485,0.00290824,0.06106728,-0.05106898,-0.06558270,-0.02103258,-0.15238689,-0.06465644,0.01186820,-0.00000000,0.00297018,-0.00474812,0.01547999,-0.03654676,-0.02282840,0.08029428,0.06343310,0.01327545,-0.08255975,-0.00688442,-0.08984612,-0.01726361,-0.04753924,-0.02694705,0.09184493,-0.00465489,0.04231151,0.13206153,-0.03064496,-0.02498566,-0.02789023,0.03236162,0.03233369,0.04923500,-0.03007645,-0.01028741,0.00790425,-0.09214940,0.00228752,0.01895510,-0.02556256,0.00251326,-0.04953590,-0.04663181,0.01605373,-0.03142144,0.04801738,-0.02572178,-0.01709447,-0.06888556,-0.03399713,0.03013601,-0.10131250,-0.00582541,-0.03913328,0.01512227,0.11849523,-0.03097708,0.03404616,0.06029465,-0.03494230,-0.02181334,-0.08489471,0.02752900,-0.03902268,0.01431120,0.06532211,-0.01084559,-0.01165484,-0.02393924,0.04151240,0.02403070,0.05669673,0.04147543,0.05699733,-0.04217952,0.04895623,-0.01375489,-0.00522353,-0.01340780,-0.03365830,-0.02527504,0.06782588,0.02033925,-0.03635598,-0.01034159,-0.03064850,0.01094390,0.02286343,0.01772149,-0.05062216,0.00474674,-0.03472902,-0.03887244,-0.01683693,0.08179536,-0.07866643,-0.09481323,0.02146701,0.01776705,-0.07163744,-0.00701043,0.01260343,-0.02706550,-0.05176262,0.00000000,-0.03800206,0.02152548,0.01130854,0.07744721,0.04720305,0.04268583,-0.02089600,-0.04450488,-0.01298358,0.06173977,0.02182543,-0.00954122,0.12687650,-0.03321304,0.08769449,0.04037770,0.06331545,0.05662976,-0.05026403,-0.02719331,-0.08654501,-0.08616755,-0.08004364,0.00226582,-0.04323387,0.07461057,0.02587686,0.08664552,-0.00216086,0.04876022,0.06234392,0.03503100,-0.08879289,0.01443705,-0.04075111,0.01050387,0.05716075,0.01587017,0.00432909,0.09146544,0.07897294,-0.02557702,0.08124020,0.10334246,-0.04681030,0.00624829,0.10213421,0.08740059,0.01937149,0.04564312,0.07342446,-0.02195781,-0.02735466,-0.04894051,-0.05655103,0.06422605,-0.03103961,0.06180398,0.01197024,-0.01691814,-0.00865175,0.03062709,0.04000161,0.12457976,-0.01702316,-0.06058301,-0.00009715,-0.00817111,-0.04983735,-0.04173920,0.02435223,0.01198154,0.02439510,0.03896978,-0.00263944,-0.11009558,-0.08791906,0.04919991,-0.02086671,-0.01695778,0.01689839,-0.02230396,-0.02088253,-0.04800726,0.03658777,0.00372661,0.03364235,0.05472616,-0.03907660,0.02254555,-0.01177262,0.04099799,-0.00626270,-0.07365347,0.04153924,-0.00000001,0.02408867,0.15730391,-0.01592923,-0.03907733,-0.01126010,-0.02779836,-0.02728204,0.01572361,0.03760669,0.06288563,0.07113566,-0.00769553,0.07623778,0.02698757,0.03713317,-0.05073936,-0.10743849,0.03480958,0.02280402,0.01521660,-0.05935978,-0.05272027,0.02136636,0.00961971,-0.01349441,-0.00164448,-0.02023493,0.17145373,0.06888379,-0.00542857,-0.02971121,0.01045577,0.03319857,-0.04974639,0.00114045,-0.02960713,-0.02660041,-0.03141451,0.02120611,0.05821500,-0.01164140,-0.07925539,-0.04371911,-0.02414028,-0.16669969,0.03309735,0.00792407,0.00827431,-0.03483452,0.01529225,-0.01153243,-0.02600274,0.01031509,-0.00894085,0.00777990,0.11573707,0.02914324,0.01629417,-0.03314573,0.01878098,0.14671327,-0.03179948,-0.08998577,0.02986497
fox,0.01100534,-0.02719840,-0.04234773,0.02686906,0.01247526,-0.00815263,0.04801368,-0.02427973,-0.00233287,-0.05917019,-0.02499408,0.01639727,0.00221031,0.03521013,-0.06221753,-0.02458977,-0.04416557,-0.09534755,0.00782249,-0.05377937,-0.13392457,-0.02806528,0.03922684,0.02025629,0.01938438,-0.01975392,-0.01838013,0.01112746,0.04365639,-0.16191497,0.03241793,0.07765207,0.01564894,0.01428484,-0.10912402,-0.03614112,0.04341438,-0.03681307,-0.02025668,0.06560317,-0.01886520,-0.04230351,-0.01206224,0.04056942,-0.06231829,-0.03296157,-0.04266151,-0.01310640,0.06307956,0.05938357,-0.03971662,-0.01182141,-0.05472525,0.06315105,0.06425258,0.00826244,-0.00480823,-0.01555177,-0.01958798,0.02200506,0.03079745,-0.01799534,-0.04255182,0.06295511,0.00849924,0.03496091,-0.04491118,-0.03665534,-0.08102729,-0.10355819,-0.03926061,0.00939690,0.01378010,0.01703127,0.01236344,-0.02717808,0.09796824,-0.06987557,0.08301315,-0.01481974,-0.00624837,-0.02879901,-0.07696737,0.05105525,0.06913877,0.00745992,-0.01108245,0.03875451,-0.03148740,0.08972192,-0.09311917,0.05088266,0.05602150,0.06756055,-0.03638757,0.09012696,0.01852816,-0.05908413,-0.07645077,0.21485618,0.01785609,-0.06787154,0.02635282,0.00921571,-0.01263295,-0.06030851,-0.01653129,-0.00485724,0.03521508,0.02124018,0.00830323,0.02894417,-0.11148264,0.06000615,0.04294300,-0.01438344,0.05636540,-0.00217259,0.03353086,-0.08440456,0.00690232,0.11602610,-0.07210690,-0.02617961,0.00020800,-0.04188956,-0.02082615,-0.00000000,-0.01722207,0.00017209,-0.04919295,-0.09662831,-0.02256390,0.02597413,0.01250724,0.01612261,-0.04797625,0.00457676,-0.04158049,0.07525657,-0.07477847,-0.00549202,0.07329326,-0.04872375,0.03936747,0.03622020,-0.05901537,0.02062411,0.06963140,0.14348185,-0.02234507,-0.02315653,-0.01373916,-0.09015233,-0.06009014,-0.03027734,-0.01865447,0.03248945,0.01756907,-0.00819165,-0.01820469,0.05426738,0.02271406,-0.10697044,0.01190794,-0.07156263,0.00615693,0.03576386,0.03000061,0.01488400,0.00773405,0.02769770,-0.01008864,0.01819345,0.01537844,-0.04923836,-0.07506157,0.04624222,-0.04469247,0.00470085,-0.01356073,-0.02013110,-0.00304322,0.03706630,0.04663522,-0.00958607,-0.01751518,-0.01792067,-0.03260542,0.05993493,0.01056690,-0.00856628,0.04707318,-0.02356747,0.08678599,0.00396401,-0.01322120,0.03014913,-0.02486425,0.04688649,0.03768096,-0.07537623,-0.01556682,-0.02447626,-0.03816221,0.04696416,0.00656078,-0.04949979,-0.00772102,0.03595860,0.02044718,0.06431673,-0.00435388,0.06333185,-0.00994628,0.02162488,0.04022970,-0.02836350,-0.06229856,-0.00570794,0.08691243,-0.03680393,0.00461340,0.00000000,-0.03489080,-0.04941951,0.00108088,0.04545465,0.01622958,0.00342064,0.05671024,0.02605096,-0.00295955,-0.00420716,-0.02301734,-0.03270349,0.00805431,-0.02204258,0.02186061,-0.04780369,0.05443090,-0.00205033,0.02999930,-0.04731917,-0.06152645,0.01405504,-0.12163655,0.06229664,0.05448530,-0.00915754,0.10941879,-0.05314323,-0.11188757,-0.05583084,-0.03500116,-0.06384932,0.01814581,0.01982025,0.05398816,0.12049102,0.10310307,-0.01219418,-0.05727657,-0.04688794,0.07941427,0.00966213,-0.02944790,0.11941245,-0.03141548,0.00802878,-0.07881026,0.07578003,-0.00959065,0.10066631,-0.05767690,0.04296241,0.01313440,-0.02955193,-0.06941093,-0.02510978,-0.00010415,-0.01760885,0.06009319,-0.00046810,0.00599127,0.00517481,-0.06916400,0.01488236,-0.00776871,-0.00675789,-0.07448045,0.03167412,0.01560412,-0.00752427,0.09522122,0.05261697,-0.02442096,0.02512581,-0.00192248,0.05585026,-0.00136528,0.03876923,0.03376079,0.09199444,0.06358542,-0.02502980,-0.01879551,0.09237151,0.03353595,0.05030035,-0.00952118,0.01965040,0.00896551,-0.07471709,0.07185981,0.01530169,-0.03294136,0.01828366,0.02940936,-0.00000001,-0.07304914,0.01900440,-0.08099950,0.02823217,0.07788214,0.00495166,-0.03484007,-0.05938782,0.06896839,0.03137692,-0.01094006,0.00214272,0.01794256,0.02549911,-0.01273626,-0.03819669,-0.03318869,0.00507160,0.03918898,0.12372108,-0.02267367,-0.06576948,-0.04003739,0.03494325,-0.01112495,-0.07632943,-0.03988692,0.05783296,0.06809212,0.04496939,-0.04410739,0.08195904,-0.09457830,-0.02426920,-0.00499241,-0.01467619,0.00704706,0.01926767,0.02930034,0.05912898,0.09091397,0.01586775,0.08484112,-0.06209344,-0.05876373,-0.03154067,-0.03000363,-0.12710804,0.11871241,-0.11412615,0.02141334,0.01916768,0.03683484,0.09176987,0.02325045,-0.00686268,0.01071982,-0.05481115,-0.06183143,0.01518560,0.07193951,0.00421619,0.09079213,0.02717343
curiosity,0.06147058,-0.00134718,0.00954695,0.05227746,0.04936692,-0.02944572,0.13942830,0.04113403,0.06043911,-0.00110532,0.02181885,0.00609527,-0.02667984,-0.02269790,0.01825263,-0.00801820,0.08331293,-0.07861332,-0.17550096,-0.01497600,-0.04982386,-0.01291527,0.04669105,-0.03471487,-0.02916308,0.04269494,0.01631731,0.00296781,0.07954033,-0.08783753,-0.02459597,0.03224056,0.09810163,-0.01145176,-0.00787359,-0.00641319,0.01098980,0.01054840,0.02048802,-0.07588641,0.00805843,-0.06983815,0.08561607,-0.03318150,0.04694495,0.05361526,0.01391320,-0.01494045,0.03541799,0.02392212,-0.04238077,-0.06280633,-0.07200229,-0.00075242,-0.02265244,-0.05710101,-0.08957157,0.05244255,0.00188655,-0.00230885,0.07631157,0.03147683,-0.06512729,0.02577581,0.02107262,-0.07784034,-0.02025086,0.00424320,0.05921717,-0.13859047,0.04863138,0.02472570,-0.00616636,0.02297880,0.01686394,-0.03384626,0.04192326,-0.06614403,0.05081402,-0.04103433,-0.03921588,-0.00781035,-0.03484090,0.03656792,-0.02595533,-0.02264588,0.09163943,-0.07458201,-0.01404485,0.04175494,-0.02653475,-0.02822069,0.00164768,-0.01894580,-0.10359418,0.03564464,-0.05739544,-0.05804875,-0.05659703,0.21392454,0.04724125,0.03085972,-0.03084318,0.05746087,-0.05557144,0.03576878,-0.05189662,0.00953994,0.00983326,-0.00147098,-0.08737279,-0.00871076,0.01646871,0.00480893,-0.00105463,0.08985893,-0.03083225,0.06944874,0.00472356,-0.06944917,0.04522884,0.03121293,-0.03457746,-0.04992913,-0.00114557,-0.15523358,0.01768083,-0.00000000,0.05063534,-0.04715662,0.06186254,0.06026899,0.01171504,0.01740231,0.02504276,0.01302644,-0.00070354,0.06939169,0.06638590,-0.01104789,-0.02836768,-0.04138162,0.03371556,-0.01718094,-0.08668065,-0.01192680,-0.01630066,-0.00605331,0.03076253,0.01344021,0.01015821,0.08982101,0.01721060,-0.04560934,-0.01359933,-0.05365741,0.00052693,-0.01090511,-0.06640019,0.04913467,-0.07410295,-0.02061088,-0.05454271,0.00561622,0.03668323,-0.05178262,0.00747291,-0.04780840,0.09391885,-0.02138306,0.06722187,-0.01047311,-0.01553161,-0.05280960,0.00079942,-0.06135502,-0.14206666,0.00266861,-0.03500597,-0.00611030,-0.05501978,0.00561740,0.03870802,0.01822046,0.05112132,0.03962504,-0.03353006,0.07249299,-0.02874265,0.05749638,0.04296595,-0.01418973,0.02015472,0.05205042,0.06423219,-0.06182895,0.00010901,0.03170157,-0.04814152,-0.01908571,-0.03732079,-0.08494774,-0.01065097,0.00744163,-0.03296469,0.03984053,0.14358059,-0.04654973,-0.00219016,-0.05050067,0.06127929,0.02782242,-0.01904211,0.01680291,0.02078619,-0.08144684,0.03427543,-0.00184905,-0.02962962,-0.02323617,0.04508101,-0.03173824,-0.03146022,0.00000000,-0.05177820,-0.09689493,-0.01328794,0.13686262,0.04569834,-0.00685622,0.01246212,-0.00632152,-0.03848084,0.05654590,0.00961611,-0.02771638,0.04244624,0.01455952,-0.01065468,0.04376671,0.05141353,0.00711956,-0.01224224,0.00741179,-0.08933412,0.02478297,-0.06428705,-0.05082959,0.01475540,0.05752208,-0.00681760,-0.06259415,-0.00700856,0.01639230,0.01862371,-0.03262427,-0.02693561,0.04417938,-0.04819372,0.11505762,0.06755476,0.02053800,-0.00676253,0.05303875,0.01667813,0.00973209,0.03540036,0.13674958,-0.01906251,0.03495993,0.05521975,0.05809107,0.02891473,0.04647402,0.04592352,0.07675950,-0.02757778,-0.01617769,0.01210436,0.00057473,-0.09975602,0.07016950,0.06365310,0.00342876,0.03153155,0.05220078,-0.05783922,0.00675338,-0.08842052,0.06243911,-0.05867523,0.03331479,-0.05220364,-0.05534621,0.07193674,-0.05563217,0.07001112,-0.04838641,-0.03924068,-0.00102201,0.02461529,-0.02613873,-0.10770866,-0.00936432,-0.06691457,-0.08434750,0.04178428,0.03258907,0.04190309,0.04261957,-0.04988493,0.06181633,0.07450671,-0.03882018,-0.01143560,-0.01187196,-0.00135454,-0.01388059,0.05001926,-0.00000001,-0.01975746,0.06339280,-0.06904943,0.00456441,0.09726709,0.01844546,-0.05653011,0.09715642,0.00587075,0.05273474,0.01118664,-0.06291619,0.01167257,0.07836629,0.06012414,-0.00242565,-0.01292624,0.00585464,-0.01924886,-0.01050017,0.02698183,0.01208535,-0.01902675,-0.01390726,-0.03429108,0.06891951,0.01820320,-0.03853252,0.08597955,-0.04369830,0.02265392,0.03560395,-0.02779439,-0.01114455,0.05969193,-0.03470064,0.00614965,-0.05622053,-0.01791590,-0.08758340,0.03224803,0.01213363,0.00354289,0.07968715,-0.10386201,-0.00767795,0.06376623,-0.03771303,-0.00744297,0.03010798,-0.04314093,-0.00363065,0.05126441,-0.02746798,0.05564068,-0.03272774,0.02328117,0.04628089,-0.11068039,0.00829628,0.13052392,-0.03718095,-0.03904712,-0.03524173
attachment,0.00521123,0.05264714,-0.00556466,0.03939285,0.02292733,-0.03594379,0.04673337,0.06739586,0.02430521,0.05548020,0.08091416,0.03848240,-0.04461851,0.11073009,-0.06621691,-0.00208084,-0.03746513,0.02260838,-0.09980959,0.06038551,-0.05848490,0.05735482,0.06509786,-0.06572106,0.02671288,-0.05318726,-0.06553572,-0.01465893,0.05452656,-0.11016509,0.06907211,-0.07330611,-0.01452912,-0.02754373,0.00602346,0.05463029,-0.03262744,-0.01503358,-0.01984861,-0.00135458,0.02103023,-0.05192031,0.01022894,-0.01878609,0.01244521,0.00465149,0.03116276,0.00327292,0.02461708,0.02770496,-0.05022680,-0.08247066,-0.02282407,0.02905760,-0.02791187,-0.00403375,-0.01264629,-0.01112444,-0.05473552,0.05207013,-0.01103114,0.02634671,-0.03650863,0.04831232,0.07836948,0.01971772,0.02093340,0.06062621,-0.08597944,-0.09601356,-0.01908085,-0.03661934,-0.10012617,0.08008901,0.03639640,-0.06988016,0.04216715,0.05668960,0.01824027,-0.02177477,0.05107735,-0.06686899,0.02943672,0.03906963,0.00932016,0.08561676,0.01332900,0.00406873,-0.09079114,-0.03499743,0.01581242,0.00732799,0.04648009,0.00131881,-0.02608859,-0.03476429,-0.04870851,0.02850231,-0.06233376,0.18063876,-0.00153993,0.04436007,-0.01820667,0.00555261,-0.07342492,-0.03292978,-0.08137237,-0.08804742,-0.00047070,-0.04337759,-0.05389264,-0.05407260,-0.08868114,-0.10608943,0.01252606,-0.07482018,-0.04223166,0.01745187,0.03633258,-0.07860179,0.07957011,0.03806800,-0.02895934,0.01843869,-0.02994477,-0.12708926,0.04006193,-0.00000000,0.02662198,-0.02006668,0.03430232,0.07473228,-0.07411260,-0.03850966,-0.00953411,0.03146579,-0.06594512,-0.00034375,0.01193655,0.07040383,-0.03169103,0.06677949,0.05351325,-0.00426707,0.00496833,0.05153581,0.05456857,0.03980233,-0.09955821,0.05558286,-0.06651079,0.03885460,0.03990394,0.04962504,0.02024028,-0.00897043,-0.04747768,0.02404958,-0.01558290,0.02298792,0.01290266,-0.06733461,-0.00989125,-0.02666894,-0.07287578,-0.05133898,0.03687713,0.00160480,0.06489405,-0.00281209,-0.04104389,0.01700855,-0.00983603,-0.01386624,0.08557838,0.01023000,-0.05009685,0.07854310,0.12076669,-0.04327890,0.03923810,0.00700649,-0.02769939,-0.00868125,-0.00808008,0.01392058,0.00575271,0.02052911,0.05447979,0.04289403,-0.05765550,-0.01986196,-0.00636233,-0.02152424,0.05777250,0.00913858,0.05082957,0.01865126,-0.14251678,0.03774036,0.00755766,-0.06596053,-0.00149197,-0.03104503,-0.05170891,-0.02869651,-0.01275497,-0.00344535,-0.06177101,-0.04142001,-0.01781323,-0.04526018,-0.07373942,-0.02663087,0.04805513,-0.02532230,0.01179895,-0.02848162,0.01509645,0.10526607,-0.00774054,0.05784213,0.11255649,0.00000000,0.09005468,-0.00659277,-0.06545392,0.06523804,0.04383172,0.05482065,0.08248388,-0.02715149,-0.06941050,0.05051037,-0.04443801,-0.00095043,0.01845796,-0.03574366,0.01796068,0.01870732,-0.01932710,-0.01416693,-0.06376712,0.00312772,-0.02018674,0.09878526,0.22199675,-0.03606010,0.00425414,0.03052947,0.00499978,-0.02396250,0.02821727,-0.01925046,-0.03932215,-0.08109221,0.02381482,0.02011846,-0.03063896,0.04368747,0.09229307,0.03832836,0.05568039,-0.04369908,0.02706164,0.00753070,0.01323553,0.10789362,-0.00601333,0.00149482,-0.06901447,-0.00345193,0.03453836,0.03046915,-0.08222952,0.00881078,-0.00363128,-0.04405937,0.02587950,0.02510695,0.03559030,-0.11342392,0.00152567,0.02150097,-0.00795887,-0.01352601,-0.06266473,-0.02012738,0.01930380,0.01275561,0.00403247,-0.03647755,-0.10835747,0.08342598,-0.03352174,0.06527214,0.03851905,-0.06090579,0.02591284,0.01367956,0.00612410,-0.01870426,-0.06956789,-0.02121896,-0.05775555,0.00847932,-0.01425757,0.02654966,0.02615217,-0.04450159,-0.00015457,-0.01722638,-0.05585068,-0.08358680,-0.03944332,0.08140470,0.08689144,0.07845467,-0.05369885,-0.00000001,-0.00921946,-0.02418964,0.03996056,-0.02839271,0.04075601,0.04686053,-0.06843511,0.07376153,0.02877231,0.02548253,0.08133221,-0.02124815,-0.03383262,0.07583930,0.04200406,-0.05523599,-0.01080931,-0.01529512,-0.03780602,-0.05309327,0.06635956,0.01745067,0.05492464,0.00306746,-0.01224331,-0.06294621,-0.06125555,0.08624051,-0.00821704,0.00633638,0.04379292,0.00703346,0.04077735,0.04226628,-0.08758397,-0.01196096,-0.03222563,0.01402691,-0.04544152,0.05484312,0.09663569,0.02621342,0.02047117,0.01338292,0.07736641,0.05600296,0.03314164,-0.10430440,-0.04047295,0.04443639,-0.02729840,-0.08133675,0.01775656,0.09896263,-0.03550140,-0.03916688,0.07685206,0.00892913,0.02652652,0.06752034,0.02152882,0.05174757,-0.00248025,0.04742168
maple,-0.06632616,-0.04455883,-0.04354988,0.03314394,-0.02887093,-0.09336263,0.06263527,0.05155320,-0.00794841,-0.02675975,-0.00575685,0.01665708,-0.06766817,-0.01757518,-0.01541894,0.01325128,0.00123936,0.04275753,0.00192556,-0.03792881,-0.07555412,-0.07461404,-0.03210387,0.01106320,0.11474185,0.03172387,-0.01886893,0.05493395,0.03247007,-0.07899045,-0.01629495,0.00966171,-0.03146708,0.03230904,-0.03540207,0.01756085,-0.05487672,-0.07152366,-0.03033704,-0.02587355,-0.05326422,0.02704781,0.03995705,0.04644526,-0.03365496,0.01245138,-0.04340461,0.01134874,0.05564180,0.06284451,-0.06829806,-0.10778222,-0.05236091,-0.06785506,0.06297395,-0.04197924,-0.01967393,-0.08082871,0.08776849,0.00756475,-0.02902375,0.01561241,-0.04883265,0.06187502,-0.02209818,-0.00000139,-0.02923142,0.01093971,-0.06733946,-0.01089051,-0.00013363,0.00505369,-0.09592713,0.03109783,-0.02434865,-0.01103596,0.04669230,-0.07803978,0.03761450,0.03492398,0.02464436,0.07847276,-0.08354555,0.08494691,-0.05048383,0.02966905,0.02863782,0.11751704,0.04301523,0.00045909,0.02241539,0.01494612,0.02709789,0.01570040,-0.11688660,0.04001828,0.07345411,-0.03870522,-0.03778894,0.17817870,-0.02526530,0.04062092,0.07772931,-0.03347810,-0.07905809,0.00467033,-0.09250081,0.03423756,0.02762795,0.03046003,0.00470490,-0.06262615,-0.05885354,-0.01147915,0.01394515,0.06023344,0.08558597,-0.03254623,-0.01143975,-0.01349767,0.01928693,0.04050670,-0.00674904,0.07496095,0.00062294,-0.00101634,-0.00103821,-0.00000000,-0.05843430,0.02126854,0.01269206,0.03740186,0.07017133,-0.09371278,0.03565851,-0.09026498,-0.04002788,0.09840700,-0.05574014,0.04535069,-0.01263087,0.02224100,0.04623006,-0.00419619,0.11663071,-0.00907996,-0.04622783,0.04122077,0.00454793,0.08089072,0.05963011,0.01382778,-0.03284246,-0.04031881,0.01675983,-0.00610960,0.08350528,-0.00876170,0.08304410,-0.00646769,-0.06835873,0.01501290,0.11017862,0.02341853,0.00272663,-0.08648272,-0.01514584,0.00787250,-0.00953489,0.02151389,0.00492976,0.04437735,0.05207394,-0.07010733,0.02022415,0.02669873,-0.03948409,0.00241529,0.00377311,0.11741809,-0.02759147,0.03230527,-0.10726400,0.03293191,0.09462348,0.04544406,-0.01228596,0.05525002,0.01533881,-0.01622680,-0.01351413,-0.02794019,-0.01509984,-0.02556474,-0.02096303,-0.05033704,0.01017918,0.00628104,-0.01428298,-0.07950715,0.07168670,0.02133698,0.03953825,0.00458342,-0.01012090,0.01402212,-0.00350199,-0.08973121,-0.15005770,0.03715727,-0.01093079,0.02339217,-0.01238038,-0.04489763,-0.06332947,0.01437338,0.01212835,-0.07047884,-0.07639871,-0.03253176,0.09564239,0.03655557,-0.08315691,0.00000000,-0.10945763,-0.08021693,-0.03263163,0.07256447,0.00279485,0.02071816,0.01746795,-0.02419744,0.02372471,0.05898774,0.05699150,0.03378681,0.00312345,0.04857982,0.10359985,0.04658581,0.01800561,0.13883060,-0.08207665,-0.04703818,-0.03351961,0.08520718,0.02106935,0.05561269,0.04321425,0.04165920,-0.01171253,-0.03629933,-0.03275435,0.01439762,-0.02112492,-0.00684538,0.02451504,-0.08589102,-0.00256612,0.05046296,0.07862030,-0.03206651,-0.03046879,0.11088501,0.02320229,-0.01443072,0.04951153,0.11490352,-0.01769270,-0.00046065,-0.04700144,0.06718206,0.03723251,0.11754668,-0.04249742,0.02322154,-0.01176443,0.00437140,0.00533470,-0.01122307,-0.00598923,0.00093311,-0.04556610,-0.02914823,-0.05922557,-0.03516094,0.01492624,0.02832136,0.06074385,0.00566181,-0.09740367,-0.06294756,-0.04960405,-0.06015262,0.02223363,0.08965743,-0.07314827,-0.00170402,0.00102054,-0.05874436,-0.03265021,-0.03807000,-0.01081497,-0.01852817,-0.02451544,0.03470423,-0.02115065,0.11756675,0.03294365,-0.09926712,0.06904742,0.04071810,0.01259935,-0.04971379,0.04890544,0.02528098,0.02251883,0.01595443,0.01751990,-0.00000001,-0.02172712,0.11363564,-0.07436475,0.01466637,0.06069816,-0.02845846,-0.02521868,0.04717265,-0.02828070,0.05506626,-0.00987131,0.05643462,-0.01413156,-0.00207759,0.01628247,0.02526158,0.00087687,-0.01160061,-0.03624684,0.00762153,0.03926324,-0.02543902,-0.04247142,0.08731844,-0.06545605,-0.11697428,-0.00517605,0.06401564,0.03167726,0.03081380,-0.02341076,0.05296830,-0.05373524,-0.04355757,-0.05134381,0.02895403,0.04092674,0.03171714,0.03271489,0.10078207,-0.08378408,-0.03747920,-0.02207792,-0.05791694,-0.07912449,0.04412171,-0.05705867,-0.05602560,-0.02612307,-0.02632222,0.00784652,-0.00844193,-0.00746967,0.01912349,0.02541535,-0.03453764,-0.02815186,-0.03059206,-0.00205535,-0.00582995,0.05687773,-0.02300795,0.08444089,-0.02179782
mirror,-0.03638989,-0.04087147,0.04113486,-0.00993457,-0.05736064,-0.06362574,-0.00150206,-0.01572829,0.03131163,0.00630807,-0.00140780,-0.02896889,0.00197908,-0.05410579,-0.03543986,-0.00376280,0.07585928,0.04338244,-0.00862299,-0.02393084,-0.05411233,-0.10196915,-0.04054005,-0.03257604,-0.00504981,0.03859458,-0.05052357,0.01969570,-0.05697079,-0.08107778,0.03887545,-0.02859947,-0.08346069,-0.05080691,-0.06307872,-0.01162008,-0.00047351,-0.03283763,0.05539878,-0.12139956,-0.05800276,-0.11810344,-0.00661202,-0.01502061,-0.00775422,0.03284765,0.05717983,0.01633767,0.08394411,-0.02492894,-0.05743475,-0.04709898,-0.06646508,-0.03388526,0.04071085,0.05074804,0.02655259,0.04768396,0.00951699,0.04569798,0.10471519,-0.00149422,-0.02714169,0.07657652,0.05302722,0.05310869,-0.00246081,-0.02091139,-0.01234587,-0.02088094,-0.03390524,0.01424340,0.02851768,0.00821857,0.04233603,-0.02272068,0.05393237,-0.07363398,-0.02236047,0.03692788,-0.00769075,0.02669685,0.00651010,0.05748081,-0.02935270,-0.01625340,0.02478100,0.01254904,-0.00440995,0.00078573,-0.04225298,0.05360091,0.02904214,0.00261427,-0.01501494,-0.04593084,0.03201823,0.00816642,-0.03476591,0.25882071,0.01988813,0.08583928,0.03764182,0.05473062,0.02971142,-0.04555490,-0.02733116,0.03078010,-0.00786488,-0.00722352,-0.02717275,-0.00939486,-0.00972017,-0.03692091,-0.00773075,-0.08736441,0.05197786,0.00409608,-0.01282055,0.04188640,0.09292664,0.01561771,0.01168116,0.03113352,0.00902507,-0.07363781,0.01643752,-0.00000000,0.06114104,0.01482636,0.06635860,-0.06433965,0.06685417,0.05088590,0.03757245,0.02383112,-0.05817042,-0.03538366,-0.01040168,-0.01998505,-0.02999849,-0.00430048,0.01984740,0.05988140,0.00524009,0.11149551,0.02380907,-0.03341499,-0.05192686,0.00674156,-0.00275221,0.01835383,-0.01657639,-0.02407132,0.01226306,-0.02773892,-0.01931577,0.01880575,-0.05768890,0.01513134,0.06585940,-0.03419096,0.01316810,-0.08483245,0.01118500,-0.05306686,-0.01546356,-0.02835344,0.04128418,0.01420536,0.01433336,-0.02054151,0.00622209,0.06261744,0.00050545,0.05600358,-0.06800674,0.04169031,0.03139606,-0.04192409,-0.13587676,-0.05199203,-0.07530761,0.00686851,0.01188492,-0.00972400,-0.04735027,0.02396480,0.01502032,0.05548537,-0.01082666,0.00581317,-0.00323792,0.01843518,0.00099543,-0.05524883,0.05658489,0.09858897,-0.11676946,0.02613835,-0.05666028,0.00765733,0.01205244,-0.00259232,-0.06305085,-0.03103268,-0.05406381,0.02815494,-0.05792413,0.01365996,-0.07667495,-0.03763597,0.05785983,-0.01181551,-0.03835473,-0.12936132,-0.02902275,-0.02460478,-0.02940050,-0.00437361,-0.00552274,-0.04238321,-0.04847536,0.00000000,0.00712075,-0.06492422,0.00535344,0.06810195,0.05895716,-0.02234058,0.03697474,0.01972311,-0.06098530,0.10647012,0.00060515,-0.08467362,0.02153699,0.08125094,-0.02401770,-0.04291132,0.14264016,-0.07147659,-0.08506516,0.06164161,0.02899192,0.00443343,0.06202810,0.00827995,-0.04336274,0.01875556,0.07726374,-0.07897032,0.04110588,0.03125229,0.03982539,-0.02011312,0.04211472,0.00963456,-0.00181274,0.19281098,0.04344237,0.02207414,-0.09613173,-0.04938642,0.01224059,0.00849305,-0.03633324,0.03391451,-0.04851522,-0.04824319,-0.04233900,0.12465580,-0.07836148,0.05420809,-0.01903442,-0.02151092,0.01332156,-0.01084252,0.01250596,0.02586581,0.01052373,0.06466279,0.06154316,0.06866622,0.03029013,0.01431333,-0.06842782,-0.00199814,-0.00329353,0.04203402,0.01293618,-0.00182245,-0.01217102,0.06792720,0.05199504,0.01365581,0.00924241,-0.01277649,0.02193153,0.02064905,-0.06764492,0.05888082,-0.06526969,0.01598058,-0.06530236,-0.04699839,0.07989591,0.14952785,0.01128165,-0.09613230,0.04299944,-0.00063753,0.00810301,0.01810323,-0.03692875,0.03490669,-0.05970271,-0.02075341,0.03047035,-0.00000001,-0.01960745,-0.01806088,0.02067846,0.02997519,-0.02204148,0.01905289,0.02394407,-0.04806910,-0.04481151,0.04235115,0.02959267,0.01220444,0.01419471,0.10406429,0.03836015,0.00898935,-0.01104142,-0.05650052,-0.05347612,-0.01199793,-0.05033998,-0.05497015,0.00122954,0.00039258,0.06217500,-0.04363004,-0.03736289,0.05684288,-0.00287903,0.02117685,0.06178698,-0.03429413,0.01566632,-0.06607775,0.05043298,-0.02953088,-0.02435035,0.01099899,0.02627656,0.02947517,0.01409558,0.02622280,0.05740777,0.03238849,0.03092931,-0.01938687,0.03456645,-0.02507549,-0.06833437,-0.02291853,0.04205212,-0.06682364,0.03547224,0.04379292,0.02432567,0.04668729,0.08062643,0.00798855,-0.07842848,0.12616692,0.23517364,0.12428980,0.05140285,-0.04270766
aspen,0.05991303,0.01120505,0.05054887,0.07226503,0.06842781,-0.07152446,0.00926756,-0.02679626,-0.00595360,0.03269640,-0.01757027,0.01202352,-0.07491683,-0.01215474,-0.06353325,0.04923850,0.01890209,-0.02517751,0.04325311,-0.03590874,0.01407075,0.06425288,-0.02099786,0.06925220,0.03809560,-0.02135630,-0.13877262,0.06217594,0.04875535,-0.07165363,0.00298481,0.00727244,0.06169721,0.02627252,-0.01547243,0.08325851,-0.02087350,-0.10421696,0.00905194,0.03731132,0.02267326,0.03190257,-0.00168665,-0.02447999,-0.06754763,0.09508936,0.02222430,0.01831028,0.06379028,0.03657926,0.08616173,-0.13514973,-0.07552727,-0.01708321,0.00294762,0.04500060,-0.04187682,-0.09517715,0.06022110,-0.00337883,0.05279829,0.01743522,-0.08205355,0.06559370,-0.00619971,0.04417611,-0.09250398,0.03848621,-0.02474055,-0.13261400,0.08976401,-0.00850722,-0.04034538,0.02621341,-0.00524129,-0.01479466,0.05036460,-0.02718888,0.02117461,0.03719957,0.00323787,0.06197560,0.05402143,-0.00619954,-0.02630859,-0.02541996,-0.00733846,0.06390058,0.04093453,-0.09924256,-0.05560859,-0.01422721,-0.03461238,0.06921577,-0.06709341,0.04890402,0.08088870,-0.07663288,-0.06786297,0.17820409,-0.00221897,0.01808110,0.05372249,-0.10295922,0.04667104,0.04711396,-0.07415533,0.03624720,0.00064719,0.11433399,0.00434392,-0.03156129,-0.02572411,0.05222372,0.03555860,-0.05969093,0.03467836,0.02710147,-0.06399646,0.00599422,-0.05293875,0.02229522,0.00170944,0.05031366,0.03061408,-0.06916954,-0.04498642,-0.00000000,0.02125104,-0.04331712,-0.03077430,0.02030153,0.06324494,-0.02749718,0.06632075,-0.05589383,-0.01692622,0.11331527,-0.10801274,-0.00104963,-0.03343656,0.01325516,0.09511442,0.07037708,0.02518923,0.00679628,-0.08095574,0.02504760,-0.04700378,0.05682484,-0.04369423,0.03759868,-0.01251668,-0.02536274,0.01308708,-0.06970835,0.03371850,-0.01418437,0.09523138,-0.04766737,-0.02654084,0.01642479,0.08071207,0.01359855,0.01801642,-0.02808999,-0.06065842,0.02623489,0.02679758,0.00499536,0.02270681,-0.01001775,0.07894903,0.05513272,0.06907359,0.05347072,0.00537630,-0.01103470,-0.01372371,0.06818443,-0.08564671,0.02352810,-0.06323844,-0.00522163,0.03405319,0.04136613,0.03335752,0.07345614,-0.03539017,-0.03282925,-0.03532377,-0.06696760,0.00529084,-0.04769648,0.01616766,-0.00524583,0.03397984,-0.01073039,-0.04838056,-0.04014321,-0.02004088,0.02506096,-0.04092221,-0.04519265,0.01070124,-0.01601588,0.00893142,0.05951131,-0.05955942,0.01227933,-0.03265113,0.03956284,0.01263411,-0.05853292,-0.05034281,0.01572314,0.01319026,0.00535915,-0.05677803,0.01403257,0.06267476,0.01410986,0.01875055,0.00000000,-0.04856016,-0.12722459,0.01945930,0.05304907,-0.02672814,0.05230083,-0.03696107,0.01783569,-0.04822104,-0.00975605,0.00798847,0.00180798,0.06064511,0.07669185,0.01539342,-0.00475729,0.02828828,0.07317191,-0.02089389,0.03637227,-0.01426254,0.06034983,-0.10367946,0.00535177,-0.02379670,0.04810506,-0.03825442,-0.02262321,-0.01575690,0.03352904,-0.05192273,0.01765896,0.00943640,0.02723155,-0.01043196,0.08695633,-0.02626457,-0.05042828,-0.06850539,0.05091894,0.09737261,-0.00107043,0.02776933,0.04418439,-0.01006561,-0.02649818,-0.05689359,0.06289696,0.01082055,0.05958358,-0.06201787,-0.04149055,-0.04242478,0.03265680,0.03581839,-0.04492766,-0.02350442,0.04088166,-0.00325923,-0.02713238,-0.01907934,0.00191474,-0.04335293,0.01624252,-0.00795133,0.02762509,-0.07658125,-0.07673950,-0.03809972,0.06364990,-0.01129432,0.07351659,-0.04709537,-0.05182113,-0.01455836,0.02035376,0.05835389,-0.07777072,-0.03053585,-0.08573837,0.00020885,0.03094847,0.00942334,0.09327912,0.04383743,0.03730361,0.09474777,-0.03166019,-0.03404639,-0.01839382,0.04717651,0.05206838,-0.05850576,-0.02001006,-0.08854788,-0.00000001,-0.02658693,0.14502838,-0.08500875,-0.03035127,0.02659396,0.03529570,0.03972291,0.04258567,-0.09328464,0.06163485,-0.03006945,0.03695186,0.01523975,0.00863608,0.05973142,-0.02090109,-0.02963921,0.02667367,-0.00312701,0.00780367,-0.03104782,0.00153844,0.01156712,0.09665313,-0.00936120,-0.07807469,0.08047751,0.08083931,0.09090247,0.00585631,0.00431784,0.11933275,-0.09272333,-0.03559653,-0.02165082,0.01487403,-0.01059696,0.02685914,-0.03792691,-0.03031545,-0.01906858,0.02645426,0.02266579,-0.09070008,-0.07461651,-0.01616136,0.07203355,-0.01020920,0.02209525,-0.00023395,-0.00318517,-0.04984132,0.00839105,0.06398554,0.01320564,-0.03216256,-0.02551857,-0.11362115,-0.05991263,-0.06461687,0.04468462,-0.13006051,0.04530784,-0.02148943
memory,0.05739965,0.04583278,-0.07541288,0.04868669,-0.01248034,0.01617406,0.09979621,0.03984909,0.04683222,0.00031194,0.02641025,0.04958964,0.00238652,-0.02893169,-0.01868864,0.03664526,-0.01331097,0.00204294,-0.11979909,-0.03748849,0.01734227,-0.04160388,0.02021312,0.04153699,-0.04687249,0.10964149,-0.04667610,0.01272630,0.07872579,-0.14680032,0.10899135,0.04156053,0.02226462,0.01109627,-0.00383096,0.07086743,-0.05738039,-0.02779760,0.00281500,-0.09624406,0.00130375,0.03688769,-0.00232949,0.03320532,0.03379609,0.02655298,0.02324932,-0.01069222,0.02190647,-0.02720907,-0.02982409,0.05720025,-0.10247512,0.03943888,-0.00373452,0.02853854,0.01283746,0.05135455,-0.08076085,0.06536583,-0.02499807,-0.07162490,-0.03174693,0.00703196,-0.02039463,-0.05692786,0.04948457,0.01223755,-0.00074171,0.02019890,-0.00183241,0.03855566,-0.03864743,-0.00636524,0.03390848,0.00382887,0.02179554,-0.03660183,0.04843777,-0.06999176,0.01399965,-0.01961894,-0.01453215,0.00365996,0.06810917,0.02094805,0.04247754,0.04044799,-0.06164813,-0.01472496,-0.02528922,-0.03620860,0.01257734,-0.00217641,-0.03451487,0.01897319,0.02212413,-0.06710739,-0.04454983,0.20903978,0.07882257,0.10434534,0.02969725,0.04344634,-0.04261317,-0.05584801,0.02399338,0.09393092,-0.02257077,0.00815878,-0.02042718,-0.00545382,-0.01351750,0.04910349,0.05247655,-0.05394209,-0.04222856,0.00810834,-0.00169945,0.05232877,0.02219069,-0.02151564,-0.04232301,0.03311925,-0.13701715,-0.10469082,-0.02107971,-0.00000000,0.00195584,-0.05397929,-0.02229246,0.05938318,-0.00048602,-0.00731165,-0.00020353,-0.01431261,-0.03553908,0.00539004,-0.02203445,-0.02791230,-0.02189041,0.07742072,0.14330366,-0.00012673,-0.09229940,0.10606313,0.01160875,-0.05430780,-0.01928827,0.06552299,-0.00766385,-0.00330907,0.02248359,-0.02028547,0.00100246,-0.01558262,0.01277567,0.00281003,-0.07184135,0.03202898,-0.03388202,-0.04353486,0.08526137,-0.00356092,0.03559097,-0.09302469,0.03108221,-0.06984522,0.02249696,0.03958005,0.01440034,-0.04163815,-0.09100064,-0.07319449,0.04713178,-0.00629649,-0.08938538,0.07647986,0.00558683,-0.01025025,-0.07739058,-0.00698239,0.00892547,0.00044498,0.02264028,-0.00355172,0.05418570,0.08900113,0.03459245,0.03057414,0.02096656,0.05380640,0.01217105,0.03777717,0.02697134,0.07888529,0.01286730,0.00729308,-0.05308189,-0.08736221,0.06141864,-0.02062349,-0.02707168,0.03308326,0.02941888,-0.03047611,-0.12065319,-0.00161153,0.02066576,-0.04090177,0.00388132,0.02092148,-0.03140304,-0.05614333,0.09603501,-0.07163724,-0.02700718,0.01613131,-0.03684869,-0.03471952,0.04243491,-0.04012966,-0.11078119,0.00000000,-0.07122134,-0.04367293,-0.05617068,0.08780552,-0.02593018,-0.04527885,-0.03184042,-0.00640305,-0.11186422,-0.06173161,-0.05883828,-0.00856432,0.06065664,0.04300398,-0.02461746,0.00318263,0.09038305,-0.00706977,0.03115745,-0.00321623,-0.01651973,0.06590380,0.07352006,-0.05088847,-0.07599953,0.07062144,-0.04992288,0.00080104,-0.03373165,-0.00665739,0.04670667,-0.06559945,-0.01509886,0.04674433,-0.04219836,-0.00476285,0.09164537,0.01704102,-0.04115929,-0.02784456,0.10516562,0.02467386,-0.04062739,0.09343204,-0.00746730,-0.00764723,-0.07890272,0.04230253,0.08355635,0.03469307,0.00869601,0.05849943,-0.01521829,-0.05546699,-0.04802938,-0.01817279,0.01223412,0.00123209,0.11155990,-0.04172916,0.03742895,-0.01529066,-0.09551368,-0.05731626,-0.01866853,0.02072926,-0.00881633,-0.07261927,-0.05112349,0.05176826,0.06287050,0.01594644,-0.03420627,0.01636934,-0.08759654,-0.00674604,-0.11667483,0.01316532,-0.03488085,-0.04510646,-0.09039620,-0.00136912,0.00384578,0.01897302,0.00285634,0.02278619,-0.01684681,-0.01784018,-0.04550974,-0.07529166,-0.00635954,0.03520771,-0.03567328,0.07083824,-0.03948298,-0.00000001,-0.01923398,-0.02189030,0.07373231,0.01736040,0.07203920,-0.10543351,-0.04753003,0.10658733,0.05648374,0.04353470,0.09082597,0.00133707,-0.08674005,0.06345087,0.06382577,0.04266213,-0.00380129,0.00020268,0.00544717,0.00074003,0.04212501,-0.00123893,0.03127778,0.01513345,0.06813858,-0.04672882,0.10462677,0.12549004,0.03082372,0.01693728,0.04438594,0.01488637,0.01983934,-0.05065061,0.05381257,0.00656606,0.01726513,0.03292105,0.02941628,-0.03594243,-0.02451302,-0.04321735,0.00811200,0.04889785,0.02924719,-0.05118296,-0.06012638,-0.00485456,-0.02621762,-0.02376465,-0.05814471,0.08894859,0.01362401,0.05524567,0.07470631,-0.02549744,0.04035484,0.00238838,-0.05581580,0.07564449,0.05893511,0.05101171,-0.04195085,-0.01775731
schema,0.03745274,0.03385737,-0.05221888,-0.00119310,-0.02957432,0.02318776,0.06044091,0.00078609,-0.03140125,0.01001255,0.05259300,-0.10041171,0.05031879,0.04086453,-0.01769377,0.07952769,0.00618975,-0.02265082,-0.03285351,-0.01839837,0.00212624,-0.00047479,-0.04555991,0.04371820,-0.02050287,0.07391508,-0.00496119,0.04978305,-0.04426678,-0.05616286,-0.04214763,0.03349432,0.05699594,0.02397963,-0.01063117,-0.00173088,0.02624433,0.05247154,0.01897382,-0.01789677,-0.09351105,-0.10227523,0.03242244,0.04086979,-0.03914024,-0.00714408,-0.03874067,0.03864314,-0.03616440,0.03819408,-0.11174466,-0.00226858,-0.08306907,0.04759017,0.04761957,0.15823887,-0.08748974,0.00289698,-0.10183037,-0.07257129,-0.00704113,-0.00105125,-0.01259168,0.10236982,0.07924909,0.02823475,-0.07001545,0.02458993,-0.02110478,0.00189165,0.03655085,-0.02135529,-0.04813305,-0.02675146,0.07000639,-0.02060688,0.04894324,-0.01409333,0.04416878,-0.06031126,-0.05578742,0.00845954,-0.03884863,0.05825390,0.00790531,0.00137028,0.05264549,-0.06805734,-0.04104738,0.00058108,0.04465543,-0.04282053,0.08217192,-0.01426407,-0.04555107,0.07285254,0.02025729,-0.06773830,0.05310254,0.17386158,0.05580083,0.03059269,0.02023408,-0.03449124,-0.08011676,-0.04367227,-0.01837251,0.03540925,-0.05347409,0.02453346,-0.03018774,0.01587923,-0.06283242,-0.05024656,-0.04072480,-0.00456982,-0.07932688,0.02546787,0.01244273,-0.05589570,0.05836875,0.05931588,-0.00070821,0.04119464,-0.06528867,0.00309245,-0.01711285,-0.00000000,0.00755630,-0.00411543,0.03616641,0.05104524,-0.01717104,0.01167359,0.04464876,0.08218495,-0.10853627,0.06142958,-0.04862385,0.06558210,-0.03917401,0.00465287,0.08559892,0.03477912,-0.06375966,0.09065688,0.01082250,0.02201571,-0.01790965,-0.00347541,-0.03540448,0.05540529,0.06031775,0.04404913,-0.05438781,0.00185138,-0.05516026,0.03252439,0.05979429,0.06274305,-0.02243292,-0.01231946,0.03481992,0.04018226,0.00524119,-0.06158432,0.03298237,-0.05528609,0.02751429,0.02174937,-0.02744758,-0.05067335,0.00043034,0.04583469,-0.00907056,0.00609791,0.00887915,-0.00677703,0.04767025,0.01248225,0.08149566,0.09466610,0.05058631,0.00721469,-0.03246264,-0.01046836,0.02596580,0.00502581,-0.01842812,0.05523347,-0.02008082,0.02321788,-0.07497334,0.01416010,-0.08016843,-0.10361164,0.13294385,-0.03244005,-0.06082574,0.06805211,-0.02791598,0.04362816,-0.05866805,-0.07278745,-0.01428562,-0.06786405,-0.08655598,0.05247754,-0.06675521,-0.03169352,-0.06372900,-0.00757032,-0.03366414,-0.00113065,0.05030115,-0.04732000,-0.00544702,-0.06562537,-0.02157344,-0.00361378,-0.03468509,0.00661033,0.07369671,0.00000000,-0.09952442,-0.07474180,-0.00575887,0.02916572,0.03872914,-0.03357019,0.02367710,-0.05447702,-0.00750883,0.07129247,0.03820392,-0.02470242,-0.00019205,-0.07190363,0.02479418,-0.00455884,0.05676622,-0.09723975,0.00167142,0.07402269,0.03142947,0.09133268,-0.10525072,-0.00521101,0.04025252,0.02873611,-0.04103644,-0.00337241,-0.05698275,0.01397058,0.02371987,-0.11460868,-0.03080054,0.01268880,-0.06401001,-0.06662955,0.04309681,0.00171569,0.00328048,0.01114484,0.01874094,0.05275289,-0.02418637,0.10581316,0.03188848,0.01663668,-0.06070368,0.05820135,0.05364082,-0.04604727,-0.06400903,-0.03889754,-0.00947232,-0.10751341,0.03593544,0.05605949,0.00885495,-0.05993830,0.04759218,0.03956820,0.01384458,0.05767222,-0.01997768,0.13904740,0.06437940,-0.08900766,-0.08763953,-0.03301194,-0.08097404,-0.03313960,-0.05339543,-0.02264613,-0.03708824,0.04210688,0.02669102,-0.06680593,-0.13916089,0.02622721,0.01180196,-0.03486161,0.00377238,-0.07415945,0.11078734,0.07524188,0.02388540,-0.08308042,0.02864267,0.01400262,-0.00694599,0.04451301,-0.06182468,0.04870699,-0.06104090,0.03291414,-0.01616617,-0.00000001,-0.04622336,-0.03370380,0.04708137,-0.02403289,0.01307752,0.00380219,0.04949940,0.05187672,0.04066291,0.02318682,-0.00721018,0.03491528,-0.05174308,0.07617669,0.08162754,0.01153199,-0.01211719,-0.00500122,-0.08219108,-0.02322054,0.09492116,0.01557768,-0.02645624,0.02508564,0.08257639,0.00334723,-0.01891284,0.08000780,-0.00896160,0.01517025,-0.00537054,-0.04530830,0.07157961,0.05401371,0.09428851,0.05189111,0.00901697,0.02271960,-0.03524288,-0.03567462,-0.00989951,-0.09741832,-0.04351440,-0.02234984,0.07097489,-0.01129016,-0.00433316,0.00417696,-0.02438113,0.00963091,-0.07239407,-0.00976141,-0.01186793,0.03351747,-0.01589197,-0.00240107,0.09283100,0.04085119,0.00974873,-0.05143239,0.06938020,0.09848299,-0.00040864,0.00669325
mint,-0.13008907,0.02424983,-0.06361572,0.03403953,0.00962950,-0.02139853,0.02025774,0.06971677,0.00275588,0.01163181,-0.00965936,-0.06146238,-0.01165748,0.01535912,0.03314018,0.00647835,-0.00297284,-0.04191318,-0.01354376,-0.03345545,-0.04344681,-0.06514034,-0.03101821,-0.00912052,0.02622624,0.14610502,-0.02430503,0.01779320,-0.01835562,-0.07039837,0.06403881,0.03961021,0.02803011,-0.02667617,-0.05639454,-0.00829042,-0.02454032,0.04783212,0.10863204,-0.06043238,-0.06874172,0.00964037,-0.03436177,-0.02887640,0.01408082,0.02935912,0.04667169,0.05997692,0.04465168,0.00831412,0.10210413,0.02637224,-0.02880908,0.05169316,-0.02751446,0.02122628,-0.00961038,0.00851573,0.02789029,0.07020682,-0.01147931,-0.00412163,-0.08123429,0.04738722,0.00496003,0.03028717,-0.09854458,-0.01592492,-0.01217985,-0.00741943,0.03128189,-0.04639129,-0.00815878,-0.02854840,0.01252947,-0.09530227,0.10134061,-0.04019865,-0.04915868,0.00538643,-0.04594428,0.03117958,-0.04728008,0.06240825,0.02507571,0.02456186,-0.01730223,0.05437852,-0.05767582,-0.04045994,0.00754548,0.05292556,0.06872474,0.01078381,0.01832100,0.01610748,0.05941586,-0.00729327,-0.05098363,0.21416275,0.07722436,0.05215526,-0.04561616,-0.04798580,0.07597242,0.05070216,-0.04186689,0.01803175,0.05463662,0.02317945,-0.03288261,-0.01961106,-0.03155708,-0.05038477,-0.04244436,-0.04019913,-0.01435333,0.01592033,-0.04506745,0.04974900,0.09644823,-0.03223949,-0.06609521,-0.07848980,-0.12655616,-0.01120759,0.03416025,-0.00000000,-0.07278618,-0.02794981,0.01280828,-0.05911808,0.01973812,0.08416838,0.03913094,0.02117746,0.02245762,0.08711942,0.02530374,-0.02966355,-0.05352885,0.04339826,0.01180118,0.01532962,-0.05621481,-0.00334405,0.05402455,-0.05192820,-0.05116672,-0.00648114,-0.08493648,0.09784491,-0.06331208,0.02909824,0.05487161,-0.08873273,0.04404433,0.02493272,-0.00489626,0.00290848,-0.02364297,-0.05801384,-0.06430686,-0.00379788,-0.04641423,-0.05849251,-0.01018318,-0.06723385,0.04494649,0.07503048,-0.06998089,0.05537930,0.00087004,0.06250817,-0.00393791,0.07011621,0.03994070,0.01615491,-0.03002101,-0.00839305,-0.02392083,0.07748894,-0.02069303,-0.02265392,0.03127727,0.00819485,0.00830373,-0.07427225,0.05971398,-0.00776279,-0.06392935,-0.01792788,0.00782536,0.08209787,-0.02059806,0.02082025,-0.05699197,0.03599282,-0.06645889,-0.01898118,0.01134051,0.03270134,0.01964792,-0.01731870,0.09790495,0.02891057,0.01304763,-0.04356950,-0.04995806,0.04636769,-0.01801007,0.07949992,0.03731726,0.03989269,-0.09933808,-0.05090375,-0.01732309,-0.05231642,-0.01788297,-0.08599749,0.07190783,0.04313190,-0.16708687,0.00000000,-0.06897206,-0.03018289,0.04223367,0.04748566,0.04987090,0.05543320,-0.07018057,0.01842420,-0.02349521,0.06332106,-0.01259547,-0.02663392,0.02265700,0.03784923,0.03740831,0.12177043,0.02840658,0.09621068,-0.04223479,0.01823755,-0.01721460,0.05570818,0.01589054,-0.01154676,-0.02579653,0.05955337,-0.01044729,-0.02834084,0.04302237,0.04428684,0.06933019,-0.06371461,-0.05441508,-0.02677613,0.02305943,0.05415265,0.08088802,-0.05082497,-0.08298531,0.04986198,0.01549873,0.02613159,0.06157861,0.17315483,0.03291484,-0.00162362,-0.08298034,0.03652035,-0.01221834,0.12804975,-0.00037890,-0.03492912,-0.02175520,0.04369651,-0.06599326,-0.04403077,-0.02841710,-0.01908306,0.05787192,-0.09749790,0.01355820,0.05578114,-0.02514331,0.06258745,-0.05689834,-0.04197332,-0.01535428,0.05577970,-0.02237524,0.02369886,0.03892738,0.01049170,0.05543298,-0.02816611,0.06463950,0.02385946,0.01093776,-0.04111820,0.00440853,0.02308259,-0.04377978,0.05663237,0.01932635,-0.00558489,-0.02965089,-0.08542763,0.04018125,0.04506640,-0.00115980,0.00580083,0.02149875,0.08077223,0.01883821,-0.02146897,0.03876725,-0.00000001,0.05997251,-0.02659738,0.01883894,0.01410718,0.06333726,0.00442827,-0.08755249,0.01287343,-0.01733569,0.05134011,0.04514211,0.01363594,-0.06880378,-0.06334430,-0.09187025,-0.02906462,-0.02175932,0.06359193,-0.01797336,0.01541515,0.01990848,0.05312163,0.05465464,-0.05418903,0.01644945,-0.10554405,0.01337008,0.02428263,0.01172602,0.00534768,-0.02999585,0.13342114,0.01729033,-0.08586919,-0.05972338,-0.05651185,0.02194632,0.00246514,-0.04314204,-0.07350782,0.00377311,-0.08185606,-0.06035850,-0.05951088,-0.04197020,-0.05330996,0.00865170,0.03834307,0.00031953,-0.03877956,-0.04901124,-0.02012949,0.02468539,0.00257685,0.00999634,-0.01401199,-0.09423665,0.06484926,0.03332714,-0.08572701,0.06605031,0.00918202,0.00104073,0.02797749
particle,-0.01972980,-0.01813927,0.01896581,0.12645669,-0.02490187,0.01501203,0.13179418,0.00296040,0.00933053,0.00584423,0.07113316,-0.03099247,-0.06334327,-0.00120483,0.02187916,0.03006680,-0.00208653,-0.02656352,-0.08695152,-0.01579091,-0.03741646,0.01811023,-0.00764284,0.05106408,0.02099132,0.05174446,0.03304286,-0.01432669,0.03800978,-0.10963498,0.08126774,0.00942697,-0.09168964,-0.01336545,0.01501927,-0.01293421,-0.00201974,0.03332360,0.04251272,-0.03701424,-0.02639001,-0.05036607,0.00889249,-0.04871241,0.09886099,0.02014164,0.07198739,0.00751073,0.10456953,0.03284725,0.02153398,-0.04673302,-0.09419144,0.05725762,-0.01375829,0.03106067,-0.01301041,0.00427135,-0.01331434,-0.06221949,-0.06633217,-0.01762606,-0.01344023,0.06062909,0.10350973,-0.05069632,-0.01546621,-0.02494338,0.07129154,0.01952728,0.03178929,0.03731563,-0.01023899,0.05619484,0.03228800,-0.07314067,-0.01994731,0.00083119,0.11381159,0.07621793,-0.02893905,-0.07401363,-0.05899564,0.05639258,-0.03826111,0.11897216,0.02452250,0.02119806,-0.03760383,-0.03322088,-0.09340000,-0.03821708,0.06267049,0.04070173,-0.01522019,0.04205511,-0.01782407,0.00593376,0.02040702,0.20775376,0.03485788,0.00753159,-0.00822430,0.02760610,-0.01715172,-0.02186631,0.01404983,-0.00413498,0.03706630,0.05538451,0.01232226,-0.06466191,-0.02987947,-0.00120216,0.02936169,0.00197912,0.03626363,-0.03150216,-0.08820597,-0.04107257,0.04010196,-0.01005259,-0.12341590,0.01447984,-0.04675490,-0.02006020,0.06481969,-0.00000000,0.02478339,-0.03954767,0.08888894,-0.00803209,-0.06260015,0.03893444,0.01893677,-0.04137703,-0.07061104,0.00676128,-0.05575742,-0.03104918,0.01215971,-0.01175012,0.02355984,-0.03304806,-0.00184920,0.04128138,0.03281472,-0.02262410,-0.02595267,0.05045979,-0.09353858,0.02541853,-0.01754020,0.00082549,-0.06393908,-0.05881148,-0.07538035,0.01062113,0.07742541,0.09389740,-0.02339750,0.11219135,-0.00941255,-0.06066079,-0.05036095,-0.05296809,0.02488440,-0.05906318,-0.02741031,-0.05527420,0.00125457,-0.02877324,0.00541787,-0.01723788,0.03120043,-0.06701642,-0.02873287,0.03615906,0.02026601,-0.00424120,0.04878129,0.03762174,0.05237803,-0.00727457,0.05628170,0.02528950,-0.02856154,-0.04262650,-0.00064134,0.09569366,0.00693198,0.00201329,0.03409795,-0.04546124,-0.04261665,-0.02381584,0.04864553,0.06711091,-0.05732649,0.00678720,-0.03172343,-0.04597160,0.04184057,-0.00564846,-0.04659817,0.05363040,-0.03383480,0.04692725,-0.08563701,-0.08891260,-0.06519748,0.00530901,-0.06262108,0.03865332,0.00212549,-0.05423710,0.01949485,-0.01064027,-0.00805253,-0.01049127,0.03840448,0.04024259,-0.09190490,0.00000000,-0.08925301,0.04401450,-0.10416380,0.12518929,0.01744607,0.03791277,-0.07520165,-0.04887712,0.01855031,0.04663656,-0.04594375,0.01812305,0.03033381,-0.01363164,0.02712593,0.08973806,0.00160266,-0.02001747,0.04157228,-0.00410148,-0.08479422,-0.00406185,0.05592058,-0.09511567,0.00924717,0.04919774,0.11569015,-0.10328876,0.03867513,-0.00210741,-0.02306885,-0.05542935,0.01843512,0.03363788,-0.05298641,-0.03840441,0.11535409,0.00265677,0.04355995,-0.08865130,-0.01412560,0.05437261,0.10864916,0.04666458,-0.01199691,0.02201433,0.06051132,0.09417363,-0.02153210,0.03621517,-0.06534031,-0.00944513,0.01223580,0.00612099,-0.01486343,0.08373608,-0.07028090,-0.01202628,-0.00845314,-0.05119871,-0.06054894,-0.02737905,0.03949695,0.02496525,-0.07177413,0.00648797,-0.09585761,0.06989652,0.02307420,-0.12352476,0.09412257,0.03872630,0.03732233,-0.00917506,-0.02715043,-0.08191001,0.05477893,-0.02272717,0.01598942,-0.04941825,-0.05492836,0.02465456,-0.00690547,-0.05238627,0.02284885,-0.07315503,-0.07682607,0.02811245,-0.00590034,-0.01876158,0.00678670,0.05605261,0.05965323,-0.01612221,0.01586352,-0.00000001,0.02982768,-0.00365531,-0.05476182,-0.05866054,0.11814434,0.06332163,0.02001316,0.06090048,-0.03570061,0.06098930,0.05619695,0.00827057,0.00796248,-0.00256184,0.06926470,0.01124557,-0.08544192,-0.03286376,-0.08627107,-0.03700728,0.03919620,-0.00594447,-0.01480111,0.07228782,-0.02379970,0.03819458,-0.01005109,-0.05668731,-0.01050601,0.04750579,-0.04314374,0.08622375,-0.07543325,-0.06238810,-0.02921207,-0.04745103,0.02768264,0.02006256,0.02827342,0.04746671,-0.00009906,0.04044272,0.00709497,-0.01975234,-0.00772117,0.00742533,-0.03733702,-0.13104609,-0.01020609,0.02841896,-0.00473882,0.04899997,0.01013449,-0.00099383,-0.00494919,0.04985314,-0.02402198,-0.07847204,-0.07333448,-0.02291035,0.09198347,-0.00089913,0.06380822,0.03926826
calf,-0.06058329,-0.00010089,0.03178332,-0.00639720,-0.04717542,-0.04694000,0.05408696,0.10091475,0.01217846,0.03074682,0.00180482,-0.05102276,-0.03562415,0.04042080,-0.00442529,0.02767999,0.01663125,-0.01471968,0.01549978,-0.05012747,0.01978030,0.05528833,-0.03978760,0.05557194,-0.01486128,0.00781786,-0.03903960,0.00673389,-0.00062636,-0.07945091,-0.08547424,-0.02849666,0.00729876,-0.02561237,-0.09131022,-0.03359228,0.05019564,-0.03771653,0.01305809,0.06499321,0.03443017,-0.10808698,-0.04958041,-0.01423388,0.04859340,0.09571213,0.07449896,0.04546204,0.03426236,0.10928621,-0.01155145,-0.04130694,-0.04997384,0.00397610,0.04593913,-0.05241561,-0.04556168,0.01855552,-0.01619574,-0.03738636,0.08085780,0.06672211,-0.03912019,0.04103209,-0.00615652,-0.04107482,-0.01725640,0.02377827,0.05198936,-0.00765712,0.01317703,0.00441682,-0.02220544,-0.01159075,-0.03617011,0.04702831,0.11973359,-0.01563248,0.10393115,-0.04016309,-0.00948134,-0.06332953,-0.03724050,0.00122065,0.04194877,0.03635178,-0.00445021,0.01701249,-0.04925597,-0.02238634,-0.08887925,-0.04849331,0.02435963,-0.01767930,-0.04684716,0.05088671,-0.02411841,-0.04936526,-0.07566556,0.21798071,-0.00898261,0.01368695,0.08804552,0.03228393,-0.03268672,-0.03736424,-0.07257173,0.04918718,0.06507884,0.07164806,-0.03047600,-0.00000021,-0.01927910,0.10374828,0.00159891,0.05031246,-0.04724792,0.00744899,-0.00366358,0.06817845,0.00920171,-0.01691801,0.02251944,0.01336960,-0.07018967,-0.03317738,0.03301115,-0.00000000,-0.01811101,-0.07270889,0.01778812,-0.12415487,0.00832246,0.08869314,-0.03532360,-0.00249210,-0.02117965,0.04362869,0.02921801,0.01751991,0.08239758,0.05162906,0.00019967,-0.01044680,0.01670296,-0.02754827,0.00979724,0.01679701,0.00975353,0.13319679,0.05549567,0.04598320,-0.01484268,-0.07630090,-0.04486062,-0.05026562,-0.07126863,0.00646182,-0.02110479,-0.08112547,0.08872792,-0.04839117,-0.03085093,-0.15863444,0.00443955,-0.10251406,0.00636299,0.01723252,0.09126250,-0.03151213,0.05539042,0.07270694,-0.02159488,0.08068921,0.09650420,-0.02325685,-0.12007038,-0.08382279,0.01034567,0.06123396,0.03092946,-0.06272433,0.05450918,-0.04676253,0.06280482,0.04821379,-0.10316458,-0.01056792,-0.00359425,0.13096242,0.05871445,0.00958835,-0.07270951,-0.08972165,-0.01287876,0.00086075,0.05477894,-0.02473087,-0.06195822,0.02540261,0.03552019,-0.05910331,-0.00174488,-0.02605574,0.05686989,0.02155140,-0.06311686,-0.04748769,-0.07079801,-0.03984018,-0.00355557,0.06895187,0.02834092,0.06429695,0.00976480,-0.08456544,0.00992230,-0.07275429,-0.06896412,-0.00830903,-0.00582749,-0.00603200,0.12032536,0.00000000,0.01606514,0.03048501,0.07847038,0.08402465,0.02543631,-0.04844088,0.08327648,0.04331730,-0.03715703,0.05040141,0.00967159,-0.06608709,-0.05981655,-0.02028939,0.08480793,0.07640469,0.02895887,0.02405644,0.01431932,-0.00365653,-0.00421432,0.01989614,0.06221816,0.03080186,0.03203369,0.06795386,0.00102258,-0.03735410,-0.05921164,-0.05316435,-0.00425225,-0.01612055,0.02521185,-0.04482033,-0.01570186,0.12691642,-0.00198106,0.03894325,0.01227590,0.02430435,0.11480746,-0.01708871,0.02571617,0.10769833,-0.02611293,0.01471909,-0.03019806,0.07025731,-0.04328553,0.04847550,-0.05228682,-0.01247117,0.00946749,-0.02072841,0.04994576,-0.00895481,0.00490237,0.02689075,-0.02716202,-0.00220248,0.00829729,0.00477531,-0.02539822,-0.04478711,0.01687254,0.03517028,-0.00873332,-0.02953615,-0.02895620,0.05479144,-0.00024262,0.03004239,-0.03047368,0.03931664,-0.03408462,0.05920023,-0.02666768,-0.01874129,-0.01098066,-0.04214395,-0.12600376,-0.09584831,-0.01142572,0.05083729,0.05948846,0.02498336,0.02269036,0.09229511,0.07960973,-0.01091199,0.04113121,-0.00134966,-0.02371471,-0.03683002,0.05575365,-0.00000001,0.02191013,-0.01847624,-0.04771055,-0.02862823,0.04730184,0.01396505,-0.04688926,-0.05058651,0.01476106,0.03521872,-0.00247233,0.04358471,0.03940952,0.02864910,0.05078773,0.00032020,-0.03709133,0.02876269,-0.03310456,-0.02842242,-0.04466005,-0.07564815,-0.04103506,0.02253993,-0.04336857,-0.14330213,0.00417427,0.05033949,-0.02066022,-0.00691481,0.02808032,0.00031725,-0.02589635,-0.04811208,0.07232410,0.04572429,0.03403427,-0.02884093,-0.03557660,-0.01349997,-0.04315073,0.00152272,0.04758110,-0.00112961,-0.01728651,-0.08612479,0.05201970,0.00268721,0.02292787,-0.10377256,-0.04968172,-0.00400714,0.01314698,0.06364667,-0.00883837,-0.00846261,-0.03040558,-0.04258836,-0.02789745,0.06747718,0.06350831,-0.04484940,0.05083756,-0.06673408
mass,0.03668607,0.03043726,-0.02219089,0.14752668,-0.01839672,-0.02288360,0.10140671,-0.00138366,0.01513573,-0.00501668,0.06264602,-0.08094072,-0.06906112,-0.00238902,-0.00648577,-0.04612139,0.03874049,0.04526840,-0.06119658,0.07454563,0.01055890,-0.00675174,-0.02797393,0.05143394,-0.03155911,0.05358329,-0.06576705,0.03096553,-0.02768056,-0.11491508,-0.01383464,-0.00174002,0.08461761,-0.01707015,0.03356074,-0.01338960,-0.05772211,-0.04682044,0.01834928,-0.00398586,-0.00695055,-0.07335546,0.06786568,-0.00348389,0.06127600,-0.00531013,-0.00455243,0.04263624,0.05685063,0.07854717,0.01747167,-0.04117789,-0.13038309,0.09917320,0.05628788,-0.08456770,0.05389826,0.00354815,0.00485634,-0.01213514,0.01697458,0.01621153,-0.09817925,0.04249648,0.08547977,-0.00919952,0.01425794,-0.00880449,-0.01478526,0.06458943,0.08139232,0.01349778,-0.00123042,0.05285946,0.07807679,-0.11372219,-0.04500443,-0.01424774,0.07252085,0.11027469,-0.04203653,0.01955691,-0.07144484,-0.05324409,0.01184580,-0.02916172,0.06049677,0.09965637,-0.02123226,-0.00388390,-0.07269518,0.00516172,-0.01484505,0.04342105,-0.04495984,0.03709265,-0.07776742,-0.03692520,0.03418344,0.18016820,0.04544371,0.12670964,0.00978995,0.05809646,-0.02531432,0.00712107,-0.02001414,0.02960598,0.05379721,0.07537185,0.01003777,0.00851483,-0.02458751,0.00942015,0.00623943,-0.03038761,0.10046735,-0.01012534,-0.07957322,-0.00984005,-0.03888714,-0.02437999,-0.02875284,-0.06366578,-0.07559256,0.03199508,-0.04425309,-0.00000000,-0.04143760,-0.16903688,0.08503655,0.07652716,-0.01932950,-0.03347435,-0.01837993,0.02927494,0.02010433,-0.01407711,-0.05983904,-0.00894014,-0.04622108,0.03427653,0.00186102,-0.10988452,0.05526283,0.09004535,-0.00232785,-0.02145957,-0.07536961,0.06154246,-0.00854339,0.00013325,0.02566762,0.05030739,-0.05575400,-0.03203508,-0.02601413,-0.00368421,0.03487999,-0.01967946,0.00043697,-0.00613976,-0.01592245,-0.01274464,-0.02781812,-0.04886840,-0.00867258,-0.10253146,0.00047771,0.00730428,-0.02946282,0.02590713,-0.05596485,0.04196877,0.06817814,-0.03355121,0.01851578,-0.02981368,0.06104933,-0.01553939,-0.09260508,0.04885485,0.00573499,-0.00442460,0.02761567,0.04721949,-0.06275592,-0.01867677,0.03782564,0.11155057,0.06511377,0.11247344,0.01311267,-0.05488120,-0.05068998,-0.01606559,-0.01871492,0.01155385,-0.03226460,-0.01590113,0.07372219,-0.01223043,0.02435980,0.01990263,0.03650296,-0.03604865,-0.06770596,0.02651251,-0.03637023,-0.00053928,-0.04400302,-0.04890573,-0.07898286,0.09011733,-0.01995800,-0.08144446,0.07694232,0.02031158,-0.02409883,-0.04726016,-0.00842835,-0.02803772,-0.07702847,0.00000000,-0.08293447,0.04787476,-0.01666795,0.10732342,0.04472566,-0.01229865,-0.02665207,-0.07256180,-0.05294822,-0.00357891,-0.05448198,-0.03685077,0.02818101,-0.04801100,0.05349612,0.02017906,0.00887393,0.01767122,-0.01683773,0.00004193,-0.00973556,-0.00002723,0.02829096,-0.03447298,-0.01124419,0.01134611,-0.01142183,-0.05597493,0.01038088,-0.02332585,0.05868094,-0.02846191,0.03834400,0.04357466,-0.04478871,0.08851083,0.09340460,0.05001403,-0.04184987,-0.00484992,0.02239878,0.05887933,0.06199382,0.09973632,-0.02060274,-0.01276893,0.07851547,0.04417139,0.03886256,0.03329239,-0.09151761,-0.03952289,-0.04482339,-0.09467540,-0.02389300,0.02333548,-0.10329293,-0.02137201,-0.06471137,-0.01248981,0.00866384,-0.03822449,-0.02380840,0.03494893,-0.06900381,0.05131726,-0.03645151,-0.03570342,-0.08405784,0.05942275,0.06822768,-0.02318799,0.02981081,0.03387324,-0.05900038,-0.03133294,0.05028602,0.00989789,0.01716656,-0.04898203,-0.00529016,-0.00207066,-0.01258881,0.00215826,-0.02868142,-0.03788548,0.01301542,0.01407480,-0.06838357,0.06356123,-0.07027718,0.01974683,0.01446652,-0.04958325,-0.00489124,-0.00000001,0.03917444,-0.00652264,0.02793388,-0.01372944,0.07360602,0.02520509,-0.00736051,0.04923987,0.03141808,0.08042262,-0.01744923,-0.00425300,-0.00170207,0.01915026,0.00386359,0.01334652,-0.04917515,-0.04697832,-0.04489158,0.01143652,0.00047611,0.02421553,0.00958762,0.00497544,0.07599448,-0.01688598,-0.04005729,0.13999033,-0.05632371,0.04555388,0.05707548,0.06657279,-0.11326288,0.01323501,-0.00486484,-0.01709299,-0.05577786,0.04479367,0.04257593,-0.06595154,0.02930933,-0.00632325,0.03611943,0.01014282,-0.03311500,0.09398912,-0.15562287,0.01770405,-0.03909225,-0.00819636,0.00113562,0.01317249,0.00644773,0.04966963,-0.02410716,0.08115894,-0.02232492,0.05196626,0.00134118,-0.00892719,0.10534269,-0.03694765,0.05665972,-0.03050887
