,dim_0,dim_1,dim_2,dim_3,dim_4,dim_5,dim_6,dim_7,dim_8,dim_9,dim_10,dim_11,dim_12,dim_13,dim_14,dim_15,dim_16,dim_17,dim_18,dim_19,dim_20,dim_21,dim_22,dim_23,dim_24,dim_25,dim_26,dim_27,dim_28,dim_29,dim_30,dim_31,dim_32,dim_33,dim_34,dim_35,dim_36,dim_37,dim_38,dim_39,dim_40,dim_41,dim_42,dim_43,dim_44,dim_45,dim_46,dim_47,dim_48,dim_49,dim_50,dim_51,dim_52,dim_53,dim_54,dim_55,dim_56,dim_57,dim_58,dim_59,dim_60,dim_61,dim_62,dim_63,dim_64,dim_65,dim_66,dim_67,dim_68,dim_69,dim_70,dim_71,dim_72,dim_73,dim_74,dim_75,dim_76,dim_77,dim_78,dim_79,dim_80,dim_81,dim_82,dim_83,dim_84,dim_85,dim_86,dim_87,dim_88,dim_89,dim_90,dim_91,dim_92,dim_93,dim_94,dim_95,dim_96,dim_97,dim_98,dim_99,dim_100,dim_101,dim_102,dim_103,dim_104,dim_105,dim_106,dim_107,dim_108,dim_109,dim_110,dim_111,dim_112,dim_113,dim_114,dim_115,dim_116,dim_117,dim_118,dim_119,dim_120,dim_121,dim_122,dim_123,dim_124,dim_125,dim_126,dim_127,dim_128,dim_129,dim_130,dim_131,dim_132,dim_133,dim_134,dim_135,dim_136,dim_137,dim_138,dim_139,dim_140,dim_141,dim_142,dim_143,dim_144,dim_145,dim_146,dim_147,dim_148,dim_149,dim_150,dim_151,dim_152,dim_153,dim_154,dim_155,dim_156,dim_157,dim_158,dim_159,dim_160,dim_161,dim_162,dim_163,dim_164,dim_165,dim_166,dim_167,dim_168,dim_169,dim_170,dim_171,dim_172,dim_173,dim_174,dim_175,dim_176,dim_177,dim_178,dim_179,dim_180,dim_181,dim_182,dim_183,dim_184,dim_185,dim_186,dim_187,dim_188,dim_189,dim_190,dim_191,dim_192,dim_193,dim_194,dim_195,dim_196,dim_197,dim_198,dim_199,dim_200,dim_201,dim_202,dim_203,dim_204,dim_205,dim_206,dim_207,dim_208,dim_209,dim_210,dim_211,dim_212,dim_213,dim_214,dim_215,dim_216,dim_217,dim_218,dim_219,dim_220,dim_221,dim_222,dim_223,dim_224,dim_225,dim_226,dim_227,dim_228,dim_229,dim_230,dim_231,dim_232,dim_233,dim_234,dim_235,dim_236,dim_237,dim_238,dim_239,dim_240,dim_241,dim_242,dim_243,dim_244,dim_245,dim_246,dim_247,dim_248,dim_249,dim_250,dim_251,dim_252,dim_253,dim_254,dim_255,dim_256,dim_257,dim_258,dim_259,dim_260,dim_261,dim_262,dim_263,dim_264,dim_265,dim_266,dim_267,dim_268,dim_269,dim_270,dim_271,dim_272,dim_273,dim_274,dim_275,dim_276,dim_277,dim_278,dim_279,dim_280,dim_281,dim_282,dim_283,dim_284,dim_285,dim_286,dim_287,dim_288,dim_289,dim_290,dim_291,dim_292,dim_293,dim_294,dim_295,dim_296,dim_297,dim_298,dim_299,dim_300,dim_301,dim_302,dim_303,dim_304,dim_305,dim_306,dim_307,dim_308,dim_309,dim_310,dim_311,dim_312,dim_313,dim_314,dim_315,dim_316,dim_317,dim_318,dim_319,dim_320,dim_321,dim_322,dim_323,dim_324,dim_325,dim_326,dim_327,dim_328,dim_329,dim_330,dim_331,dim_332,dim_333,dim_334,dim_335,dim_336,dim_337,dim_338,dim_339,dim_340,dim_341,dim_342,dim_343,dim_344,dim_345,dim_346,dim_347,dim_348,dim_349,dim_350,dim_351,dim_352,dim_353,dim_354,dim_355,dim_356,dim_357,dim_358,dim_359,dim_360,dim_361,dim_362,dim_363,dim_364,dim_365,dim_366,dim_367,dim_368,dim_369,dim_370,dim_371,dim_372,dim_373,dim_374,dim_375,dim_376,dim_377,dim_378,dim_379,dim_380,dim_381,dim_382,dim_383,dim_384,dim_385,dim_386,dim_387,dim_388,dim_389,dim_390,dim_391,dim_392,dim_393,dim_394,dim_395,dim_396,dim_397,dim_398,dim_399,dim_400,dim_401,dim_402,dim_403,dim_404,dim_405,dim_406,dim_407,dim_408,dim_409,dim_410,dim_411,dim_412,dim_413,dim_414,dim_415,dim_416,dim_417,dim_418,dim_419,dim_420,dim_421,dim_422,dim_423,dim_424,dim_425,dim_426,dim_427,dim_428,dim_429,dim_430,dim_431,dim_432,dim_433,dim_434,dim_435,dim_436,dim_437,dim_438,dim_439,dim_440,dim_441,dim_442,dim_443,dim_444,dim_445,dim_446,dim_447,dim_448,dim_449,dim_450,dim_451,dim_452,dim_453,dim_454,dim_455,dim_456,dim_457,dim_458,dim_459,dim_460,dim_461,dim_462,dim_463,dim_464,dim_465,dim_466,dim_467,dim_468,dim_469,dim_470,dim_471,dim_472,dim_473,dim_474,dim_475,dim_476,dim_477,dim_478,dim_479,dim_480,dim_481,dim_482,dim_483,dim_484,dim_485,dim_486,dim_487,dim_488,dim_489,dim_490,dim_491,dim_492,dim_493,dim_494,dim_495,dim_496,dim_497,dim_498,dim_499,dim_500,dim_501,dim_502,dim_503,dim_504,dim_505,dim_506,dim_507,dim_508,dim_509,dim_510,dim_511,dim_512,dim_513,dim_514,dim_515,dim_516,dim_517,dim_518,dim_519,dim_520,dim_521,dim_522,dim_523,dim_524,dim_525,dim_526,dim_527,dim_528,dim_529,dim_530,dim_531,dim_532,dim_533,dim_534,dim_535,dim_536,dim_537,dim_538,dim_539,dim_540,dim_541,dim_542,dim_543,dim_544,dim_545,dim_546,dim_547,dim_548,dim_549,dim_550,dim_551,dim_552,dim_553,dim_554,dim_555,dim_556,dim_557,dim_558,dim_559,dim_560,dim_561,dim_562,dim_563,dim_564,dim_565,dim_566,dim_567,dim_568,dim_569,dim_570,dim_571,dim_572,dim_573,dim_574,dim_575,dim_576,dim_577,dim_578,dim_579,dim_580,dim_581,dim_582,dim_583,dim_584,dim_585,dim_586,dim_587,dim_588,dim_589,dim_590,dim_591,dim_592,dim_593,dim_594,dim_595,dim_596,dim_597,dim_598,dim_599,dim_600,dim_601,dim_602,dim_603,dim_604,dim_605,dim_606,dim_607,dim_608,dim_609,dim_610,dim_611,dim_612,dim_613,dim_614,dim_615,dim_616,dim_617,dim_618,dim_619,dim_620,dim_621,dim_622,dim_623,dim_624,dim_625,dim_626,dim_627,dim_628,dim_629,dim_630,dim_631,dim_632,dim_633,dim_634,dim_635,dim_636,dim_637,dim_638,dim_639,dim_640,dim_641,dim_642,dim_643,dim_644,dim_645,dim_646,dim_647,dim_648,dim_649,dim_650,dim_651,dim_652,dim_653,dim_654,dim_655,dim_656,dim_657,dim_658,dim_659,dim_660,dim_661,dim_662,dim_663,dim_664,dim_665,dim_666,dim_667,dim_668,dim_669,dim_670,dim_671,dim_672,dim_673,dim_674,dim_675,dim_676,dim_677,dim_678,dim_679,dim_680,dim_681,dim_682,dim_683,dim_684,dim_685,dim_686,dim_687,dim_688,dim_689,dim_690,dim_691,dim_692,dim_693,dim_694,dim_695,dim_696,dim_697,dim_698,dim_699,dim_700,dim_701,dim_702,dim_703,dim_704,dim_705,dim_706,dim_707,dim_708,dim_709,dim_710,dim_711,dim_712,dim_713,dim_714,dim_715,dim_716,dim_717,dim_718,dim_719,dim_720,dim_721,dim_722,dim_723,dim_724,dim_725,dim_726,dim_727,dim_728,dim_729,dim_730,dim_731,dim_732,dim_733,dim_734,dim_735,dim_736,dim_737,dim_738,dim_739,dim_740,dim_741,dim_742,dim_743,dim_744,dim_745,dim_746,dim_747,dim_748,dim_749,dim_750,dim_751,dim_752,dim_753,dim_754,dim_755,dim_756,dim_757,dim_758,dim_759,dim_760,dim_761,dim_762,dim_763,dim_764,dim_765,dim_766,dim_767
BAG,-0.06833361,0.02280679,0.44182733,-0.18396349,-0.00632116,0.08970460,0.32184076,-0.03264540,0.20807476,-0.03421113,-0.32482916,-0.03011344,-0.23656143,0.32014641,-0.16517852,0.35912949,-0.11423881,-0.21121225,-0.09119964,0.14071910,0.23945253,-0.03507065,0.22764170,-0.02007000,0.14564607,0.02325206,0.06628014,-0.05000297,-0.10545106,-0.07699152,-0.16463874,0.09786740,0.01007164,-0.20038804,0.06617957,-0.22374639,-0.10828554,0.04959946,0.18269113,-0.02724669,-0.04666381,-0.07332496,0.15738060,-0.08370250,-0.08427507,-0.14636338,-0.13166711,0.00987526,0.08560488,-0.15194820,-0.01521105,0.03165664,-0.22824262,0.12206980,0.02305355,0.05925002,0.06343935,0.12751943,-0.07906969,-0.05015813,-0.03451899,0.35829192,-0.35821044,-0.09803639,-0.06451039,0.34364465,-0.12311116,0.06216161,0.18857923,-0.31747860,-0.13385618,0.31863302,0.13484648,0.14051123,0.01263818,0.11660181,0.04299597,0.04865877,-0.03715669,0.02310226,0.03935141,-0.16381730,0.14008443,-0.06631391,0.09138681,-0.04232995,0.11001024,0.37397993,-0.49547553,-0.13508992,-0.08389439,0.06073867,0.14795202,0.02098624,-0.07323571,-0.01935891,0.10753104,-0.13215205,0.11415876,-0.12783085,0.32619137,0.21637571,0.10944021,-0.09269720,0.07940214,-0.02069988,0.26223689,-0.04376132,0.07131255,-0.42819822,-0.08063851,-0.00328446,-0.15114117,0.07352676,-0.05307350,-0.10639845,-0.00908212,-0.07255651,0.21612723,0.02806753,0.09206168,-0.09211160,-0.16514513,0.19254912,0.20488617,0.15001740,0.00861011,-0.12776986,-0.13674109,-0.12197459,0.01919455,-0.32850865,-0.05141929,-0.05848278,-0.05706270,0.12670369,-0.19646937,0.15515319,-0.08079924,-0.00276442,-0.02327980,-0.04624730,-0.20952278,-0.05662556,0.09615500,0.19164968,0.34818271,-0.25609514,-0.07655597,0.23375580,-0.16117582,-0.11915091,0.07156375,-0.04249087,0.18930690,0.17687348,0.05134299,-0.05151412,-0.01403299,-0.13320792,0.00759127,-0.43226632,0.08947658,-0.00857755,-0.05262682,0.17433980,0.16392431,-0.03159720,-0.09507471,0.03719294,0.13599032,0.17504202,0.18650004,0.39509115,-0.04956120,-0.00785668,-0.19461083,-0.64316553,0.29138815,0.26041460,-0.19392596,-0.10406096,0.02595466,0.05819689,-0.02350358,-0.02335719,-0.22228687,0.01196008,-0.26046488,-0.20117834,-0.07946180,-0.08739340,0.34793243,-0.11002812,0.15844738,-2.72761941,0.18363380,0.18434168,0.04863142,0.10199782,-0.00304691,1.05046010,-0.02250530,-0.15219115,-0.23447272,0.15950027,0.06078921,-0.00581075,-0.03578063,-0.20102088,-0.18628855,-0.10006261,-0.05013963,0.18193123,-0.03167146,-0.20223238,0.00367798,0.01301116,0.03955541,0.21176684,-0.08479403,-0.07549830,-0.13736574,0.11350884,0.10962995,0.05029491,-0.23902874,0.14560865,0.08815937,0.09397083,-0.31965774,0.31398076,0.24085450,0.09430560,-0.32704443,0.06084792,-0.02753619,-0.11035506,0.24030150,0.10537001,0.30263546,-0.03322156,-0.04506314,0.00407064,0.07680874,0.53902739,-0.01153007,-0.04655537,-0.11335584,0.13518813,0.16958222,0.04110903,-0.04049731,0.03040766,0.00034071,0.36320594,-0.12187989,0.04701715,-0.03814980,0.53771389,-0.13083002,0.03479761,-0.06453897,0.10162358,-0.02301196,-0.25415334,0.01116462,0.30946955,-0.23660828,0.03220330,-0.10705706,0.15646145,-0.11016649,-0.38293436,-0.03254972,0.15153718,-0.05963456,-0.19745897,-0.19301985,-0.18284243,0.06120105,0.18040168,-0.02239850,0.12383272,0.02420979,-0.19498801,0.14245552,-0.10872495,-2.49863911,0.15191829,-0.03965446,-0.06534138,-0.20997547,0.09736405,-0.07382206,0.30722994,-0.32639480,0.03511829,-0.41332263,-0.11202436,-0.24136692,-0.02391530,0.01419970,0.08989646,-0.00051048,0.20912586,-0.30943739,0.18259780,-0.04177181,-0.18968973,0.18295321,-0.16535816,-0.06876052,-0.14822131,0.16257530,-0.28896049,-11.31007957,-0.13934857,-0.03373683,-0.07034186,0.01800500,0.00202274,0.13762614,0.03595319,0.13163212,0.19774796,-0.28832009,0.05016784,-0.05715397,-0.39934698,-0.24066980,0.03282727,-0.20233822,-0.26990196,0.25780517,0.25810307,0.06526420,0.00945137,-0.09536830,-0.16816333,0.01926040,-0.06005274,-0.19880421,0.15374424,-0.09036866,0.12951177,0.12664106,0.00110377,-0.11827302,-0.07664548,-0.36785191,-0.15029076,-0.09495150,0.03846367,0.18891594,-0.02916475,0.01480420,0.02665276,0.29588807,-0.04477580,0.06721676,-0.18321165,0.55164856,-0.39951304,-0.06849992,-0.01350622,0.15928465,-0.26317313,0.02027227,0.00839118,0.25801754,0.02167022,-0.00845978,0.00079067,-0.08929973,0.22939089,-0.15042502,0.20612276,0.13894288,-0.27752167,0.37442082,-0.36910394,-0.03494214,0.14509863,0.00486320,0.05292990,0.09580918,0.10964681,-0.24089357,0.04694223,0.06475169,-0.06372430,-0.16559599,0.22151376,0.09212729,0.27377558,0.12450520,0.15962844,0.11755488,0.03207215,0.11193881,0.47145325,0.23943883,-0.05846450,0.60696453,0.22603296,-0.01833336,-0.10500547,-0.05941038,0.12810923,0.03246777,-0.02289462,-0.15514132,-1.53827524,-0.32354456,0.07327631,0.11387239,-0.13011293,0.02626211,-0.15862550,-0.06589102,0.11693411,-0.09354228,-0.06636922,0.05687732,0.00202740,-0.04357613,0.22939691,0.21720515,0.08751346,0.03481090,-0.17434628,0.06059476,0.11349747,0.19120546,0.23869681,-0.03593191,0.16677803,-0.02074121,0.04194281,9.96561909,0.06051709,0.23745473,0.01040850,0.02369043,0.01155459,0.22266626,0.01750454,-0.03965999,0.24810509,-0.57457000,-0.12660734,0.79746151,0.04077106,0.09521991,0.15346870,0.06560002,0.19748490,-0.00447797,-0.01827659,-0.14465819,-0.24957965,-0.17393453,0.56797755,-0.01185209,0.07272656,0.11762380,-0.07725885,-0.06089941,0.07474214,0.12087869,-0.14031340,0.07240507,0.15676036,0.06689185,0.11285865,0.12202877,-0.19844958,0.13281523,0.07521506,-0.15894343,0.37254226,0.03561155,-0.33898723,0.14446624,-0.08045842,-0.13306384,0.15082574,-0.05573489,0.28322527,0.19656932,-0.08738892,-0.37846804,0.06565984,0.07000742,-0.14649624,-0.05007775,-0.07757301,0.09908845,-0.07793535,0.01816739,-0.01740009,-0.20982486,0.12966961,-0.09686171,-0.16190529,0.02011899,0.03130902,0.09620031,0.08153865,-0.41753340,-0.29797155,0.28777313,0.16451193,0.31467879,-0.16055243,0.18607914,-0.08015386,0.04279254,-0.13786715,0.01766150,0.20994574,0.07471208,0.07999437,-0.03418502,0.24318039,0.07638567,-0.01683253,-0.61650503,-0.14204094,-0.28036547,-0.42702073,-0.07362971,-0.10399136,-0.13634828,-0.04127474,0.30292979,0.07415892,-0.19142205,0.02889746,-0.01563168,-0.20685589,-0.03844378,0.07234617,0.00969683,0.06707677,0.09779973,-0.09318592,-0.00218134,0.14342049,0.21539240,0.00483349,0.18515426,-0.15495989,0.01302024,0.06034567,0.06427755,0.26231003,-0.33165404,0.07867841,-0.53933585,0.08615824,-0.03505814,0.25650600,0.25400728,-0.07558207,0.23585153,0.04508048,0.01035929,0.00956897,0.01496212,0.05852563,-0.06865502,-0.11065852,0.01788018,-0.20529726,-0.15954925,-0.05585544,0.00455209,-0.41275901,0.09392597,0.09936871,-0.28332558,-0.01314200,-0.30665106,-0.17646614,0.02934613,0.00208076,0.34454596,0.15705369,-0.07534850,0.29740235,0.16943502,0.33129540,0.16436629,-0.23025808,0.12119742,-0.14723697,-0.11170315,-0.12670878,-0.08116495,-0.13835165,0.18897355,-0.25582343,0.14687547,-0.13019934,-0.09267979,0.03701850,-0.09074763,-0.34719491,0.05166341,0.11777403,0.22565573,-0.20139253,-0.08944026,0.17276891,0.03322059,-0.42990386,-0.09393357,0.14620322,0.21184058,-0.08560935,0.06519853,-0.04574978,-0.36810753,0.01240454,0.23316300,-0.31058085,-0.16963096,-0.04423970,0.17668045,0.01407390,-0.13882217,-0.03161835,0.01807270,0.55895811,-0.01853843,-0.15533809,0.00478269,-0.24407810,-0.09004436,-0.10913917,-0.10284577,-0.10546155,1.54144025,-0.10982375,0.21889049,-0.10835487,-0.12602848,-0.15493882,-0.11261035,-0.11058820,0.03413948,-0.21297212,0.41387147,-0.04481969,0.01522785,0.31965762,0.34554869,0.02942321,-0.27907562,-0.09338918,0.01123126,0.32464999,0.39260751,0.22430730,-0.04344872,0.02839817,0.08193196,0.05499855,-0.11205873,-0.01888059,0.08524212,-0.20910668,-0.04056325,0.04656984,0.23808390,0.09844925,-0.27695677,0.34589937,-0.15017040,0.00491341,-0.15063539,-0.25951704,-0.08723260,0.29496482,-0.04650298,-0.24001992,0.19612122,-0.17907670,0.23783764,0.04599820,-0.46596062,-0.06445345,0.12867425,-0.05567890,-0.18859680,0.03645194,0.11102211,-0.00845334,0.00862730,0.12050264,0.04237077,-0.94031727,-0.19440728,0.08870700,0.14128686,0.00532164,-0.04857693,-0.20473263,-0.03953499,0.11083171,-0.30963773,0.03584226,0.22172734,-0.00576294,-0.11102349,-0.07548937,0.28026617,-0.21565954,0.14790019,-0.04049315,0.10566956,0.19188312,0.33607253,0.66414756,-0.00396747,0.02542371,-0.30643085,0.34809598,0.09173885,0.08934918,0.18160985,0.04964110,-0.09488602,0.11601722,-0.02034912,-0.04266733,-0.14700186,-0.19575772,0.12995653,0.03977105,0.18087791,0.32120946,-0.02425913,0.15581593,0.30788854,0.09316467,0.05334611,-0.12562485,-0.20016724,-0.34245029,-0.26203662,0.27503034,-0.00443436,-0.19795953,0.08733626,-0.11295329,-0.15264779,-0.05088314,-0.10253394,-0.13182934,0.07447259,0.21650663,-0.18600038,-0.27161846,-0.14792779,0.21257672
CLOUDS,0.12689340,0.15419458,0.30277613,-0.18879786,-0.06998091,0.04629030,0.18562593,-0.03906873,0.08002912,0.00291413,-0.16820946,-0.13739790,-0.10912403,0.19553427,-0.11356659,0.01188065,0.00417962,-0.03252462,0.12416031,0.29187089,0.13523495,0.06296556,-0.06159367,0.11435547,0.37031353,0.18569674,0.06124078,-0.21094036,-0.11505160,0.13759317,-0.03023744,0.03638925,-0.06876564,0.03337807,0.07555581,-0.13750558,-0.24681479,0.00832613,0.18465482,-0.34072623,0.08295935,0.07309955,0.04746141,-0.01963816,-0.13732187,-0.12123540,-0.10690301,-0.19222695,-0.05291933,-0.18537591,0.05916839,-0.15894791,-0.20654301,0.30620706,0.07749856,-0.20678097,-0.01066612,0.30587706,-0.12830284,-0.17593092,-0.13317853,0.26955447,-0.06126362,-0.00264224,0.25539473,0.39530599,-0.00324541,0.07243517,0.13501121,-0.16417444,0.26415759,0.25507432,-0.00509744,0.10896414,-0.07272000,0.10957031,0.21084875,-0.01261773,-0.21084732,-0.41607237,0.09345020,-0.11906025,-0.04450189,0.02602376,0.13803750,-0.31092525,0.09078625,0.00218821,-0.44163960,0.08876897,0.03263012,0.05730388,0.22954382,0.12403104,-0.11463657,0.05416602,0.07523708,0.05487527,0.16683723,-0.01758420,0.09486447,0.22172174,-0.03905638,0.18610243,-0.12551254,0.00746081,0.16093755,0.04793788,0.07640892,-0.55991215,-0.03289832,0.00738889,-0.00752634,0.01640452,0.13494085,-0.08128507,-0.09633892,0.28280458,0.37477845,0.07408292,-0.00278858,0.11904893,-0.03349018,-0.07136604,0.03519454,0.09402315,0.17056055,-0.15789694,-0.30879045,-0.10798016,0.03085083,-0.20132485,-0.27888715,-0.16277477,0.00659066,0.30361488,-0.30406803,0.28151113,0.10942950,-0.28465706,-0.00948566,-0.09887078,-0.27665746,0.01790753,0.03608940,-0.04966474,0.11303038,-0.17577869,-0.11611731,0.38752720,0.09068057,-0.15567096,0.09336311,-0.12347323,0.11634467,0.14649433,0.05114241,0.14056765,-0.06845716,-0.23621607,-0.06282341,-0.18543425,0.13647693,0.03306504,0.07320236,0.02596241,0.02016741,0.04393473,-0.18886496,-0.07496232,-0.06322620,-0.03353342,0.00554785,0.30535796,-0.20469776,-0.00401335,-0.18600902,-0.91553110,0.52974582,0.17656961,-0.15567032,-0.33882362,-0.24827591,-0.04351329,0.10861230,-0.05662431,0.01077401,-0.08607540,-0.39016864,-0.15776993,-0.03399696,0.06286805,0.02688472,-0.14642046,0.07568675,-2.53836155,0.08362437,0.35684147,0.19389850,0.22211446,-0.02203713,0.83981204,-0.18435206,0.04166779,0.04813075,-0.08036139,0.12549497,0.17922573,-0.14768423,-0.11588127,-0.14241260,-0.24759918,-0.26653874,0.11482012,-0.06555644,-0.10222363,0.21172315,0.06496833,0.01684731,0.30143324,0.01800558,0.06705575,0.10538296,0.02865885,0.25999230,-0.00017980,-0.19663720,0.03321465,-0.00553501,0.16560619,-0.18030721,0.17434675,-0.04511392,-0.17103353,-0.16739783,0.22693864,0.06985413,-0.05331028,0.15553619,0.22365838,-0.06429716,0.17116736,-0.17925821,0.14503752,0.09841382,0.38472071,0.21643816,0.15067606,-0.13224219,0.18616694,0.14367618,-0.07328589,-0.17236950,0.07800844,0.01124676,0.36439982,-0.24772525,-0.11987217,-0.03284698,0.60853302,-0.08190512,0.15252556,-0.15075998,0.21524905,-0.23771282,-0.01960970,0.08171093,0.04709607,-0.17666541,-0.16689418,0.15412469,0.11988109,-0.08373828,-0.19422327,-0.02018036,0.09818175,-0.12062056,-0.18900107,0.02450007,-0.21289252,0.12914534,0.13919297,-0.06322461,0.07933629,0.19388743,-0.11384644,-0.08674595,-0.15008724,-2.40366268,0.24512957,-0.06361017,-0.11198302,-0.27135560,0.04617358,0.07792389,0.40165871,-0.22161064,-0.02310116,-0.09874137,-0.26236773,-0.14564955,-0.05900142,0.09282494,0.00032369,0.11092989,0.11315031,-0.13397488,-0.07544187,-0.07554815,-0.04125557,0.18134931,-0.06999233,0.16492037,0.20596348,0.48087883,-0.07639509,-11.15044022,0.00414967,-0.11432221,-0.20941964,-0.15625741,-0.00705426,0.19000751,0.02978480,0.02497700,0.21997103,-0.41415694,0.03814074,0.31943598,-0.00515308,-0.07364270,-0.07442164,-0.02796824,-0.40114668,0.38650981,0.19663130,-0.03312644,0.21790910,-0.13186349,0.04863137,-0.14295946,-0.15296215,-0.27908987,0.10330071,-0.10398304,0.21536955,0.17568035,-0.19515742,0.04386149,-0.20151548,0.17274345,-0.04794433,-0.00834707,0.19768958,0.13686778,0.11285977,0.13165790,0.14639749,0.30510899,-0.07364299,0.24233155,-0.10103407,0.48724717,-0.29021296,0.05997558,-0.14838403,0.30960155,-0.17411342,-0.04889372,-0.12293212,-0.02811973,0.07641334,-0.05636986,0.13149101,-0.08011097,0.25238469,-0.04159350,0.14131595,0.03509516,-0.35378540,0.01068509,-0.09247907,-0.18401709,0.23386446,-0.02608032,0.07323845,-0.02544828,-0.10060931,0.14097188,0.22407623,0.23357910,0.15863132,-0.15910153,0.10230546,0.12563919,0.21340522,0.07970875,-0.17276737,-0.15351750,-0.08762769,0.30662620,0.22782685,0.38580573,0.11761244,0.61886716,-0.08566868,0.06045631,0.04949629,-0.07067566,-0.02056587,0.04312523,-0.07772784,-0.15903126,-1.43072045,-0.28615275,0.10439894,0.09410468,-0.07264231,0.04691986,-0.10316526,-0.23454843,0.13936050,-0.02032658,-0.07804865,-0.18732166,0.12978840,-0.16406824,0.04059554,0.27168825,-0.02557087,0.11726334,-0.11583026,0.13109757,0.25365600,-0.03004077,0.44640338,0.08548532,0.13008232,0.17422694,0.06091750,9.85309315,-0.10734067,0.11829443,0.07742328,-0.00784233,-0.11226022,0.17255113,0.02957213,0.00302474,0.17980839,-0.33606395,-0.13170837,0.70729250,0.04573513,0.13698672,0.15702647,-0.16499504,0.18906684,-0.13612162,0.04600736,-0.03895026,-0.00508388,0.20078970,0.64186966,0.22870341,0.05247175,0.00404587,-0.12475619,-0.02128367,0.07685722,-0.00733877,-0.10453961,0.11964149,0.07802486,-0.06328946,-0.06368377,0.08671869,0.16189580,-0.04498317,0.05500399,-0.20660782,0.17035665,-0.07020957,-0.18885101,0.18375708,0.19200502,-0.00177758,-0.08147495,0.58149093,0.21211980,0.08338773,0.10504317,-0.15229556,0.02293422,0.01959382,0.12752484,0.06583808,-0.21076423,-0.10716205,0.11018760,0.22176871,-0.08989614,0.17734851,0.09178813,-0.12525372,0.06617022,0.08410732,0.01713962,-0.06468118,0.09685294,-0.03016835,-0.31888866,-0.40167853,-0.15173435,0.19239293,-0.07204314,0.21635653,-0.02000681,-0.00201343,0.22790718,-0.05274000,0.06632815,0.00701320,0.07428538,0.17727670,0.13757880,0.01075683,-0.20456542,-0.74840027,-0.05473631,0.00869390,-0.00201805,0.06184130,-0.09361467,-0.03988683,-0.06604021,0.10421867,-0.16437615,-0.10643416,-0.09117984,-0.10245901,-0.02424117,0.27910897,-0.04470198,0.05627539,0.05318277,0.03925797,0.16101676,-0.04928101,0.19021063,0.18727933,-0.24739833,0.07619080,-0.25348225,-0.18516093,0.08205874,-0.53620201,0.04722243,-0.33765385,0.11750171,-0.53176117,0.01973437,-0.03650161,0.27104688,0.39973643,0.19599581,0.36290133,0.05426104,0.03014150,0.08847762,-0.23496515,0.06159070,0.00960861,-0.01507535,0.00731829,-0.22624113,0.02516476,-0.06543583,0.10081153,-0.11608748,0.09449637,0.05594337,-0.37703305,-0.18485507,-0.41477108,-0.14975327,0.19756675,0.19547200,0.77898067,0.06512412,-0.18798794,-0.03374857,-0.10036861,0.12362143,0.13379017,0.04092297,0.00237654,0.02902002,-0.09738979,-0.04635224,0.02927667,0.02439237,0.03924556,0.08012646,0.13307482,-0.19922137,-0.22125791,0.12194331,0.05411223,-0.43927747,0.11215097,0.34182209,-0.02843034,-0.08847130,0.05526443,0.06568433,-0.07103527,-0.26338246,0.08310337,-0.02487979,0.08856669,-0.00030296,0.04823428,0.22466317,-0.35215780,0.27577898,0.22404920,-0.30027950,-0.13526598,0.24012180,0.05346066,0.16330329,0.05305021,-0.17706923,0.06210029,0.27466318,0.08596386,-0.03814790,0.23476464,-0.22665010,0.04513627,-0.19369286,-0.17378201,-0.12537211,1.43323278,-0.00962014,0.19440116,-0.10794253,-0.08229733,-0.13802354,-0.20437340,-0.11565989,-0.00803322,-0.19912936,0.37583554,0.04253763,0.13609973,0.11278027,0.26623309,-0.30672595,-0.27939641,-0.18269673,-0.10120008,0.08564898,0.19185366,0.04532260,-0.04930543,0.10643607,0.17350370,-0.36823490,-0.09458046,-0.15505897,0.02697923,-0.12571703,-0.01591152,0.07079682,0.12946086,0.25290430,-0.40865240,0.39061034,0.00391438,0.09411447,-0.05577226,-0.29547709,0.07468147,0.07536753,0.03109740,-0.10802192,0.28266755,-0.00201396,0.28843269,-0.02292242,-0.43083599,-0.26589081,-0.05818790,0.01922565,-0.23173457,-0.05540905,0.18498875,-0.02069044,0.18471131,0.10863206,-0.08706590,-0.72084856,0.08472823,0.12311477,0.09058129,0.05305255,-0.01347414,-0.03851390,-0.32048252,0.12798661,-0.27271393,-0.26321045,-0.16355306,-0.13879798,0.03450044,0.00424432,0.28195456,-0.30918458,-0.02573463,0.10104012,0.32140726,0.07773169,0.47631052,0.59658396,0.07522089,-0.07114691,-0.24021131,0.20549279,0.14606102,0.28718123,0.02385955,-0.06829991,0.03798302,0.12747413,0.03706937,-0.22910835,-0.01791850,-0.07555812,0.09203425,0.17899360,0.12346482,0.06102073,0.06737293,0.04636467,0.27603960,0.00882800,0.20127505,0.08635530,-0.13959622,-0.07868794,0.14318579,0.19241570,-0.03819853,-0.44200069,0.06279517,0.06445439,0.30283907,-0.12092996,-0.10780089,-0.32189748,-0.05303039,0.25710592,-0.08886174,-0.01411136,-0.30785128,0.04306034
DRAGONFLY,0.08867539,0.15869345,0.39899179,-0.21497697,-0.15160349,0.15393189,0.36453187,0.10156282,0.23945889,0.18230580,-0.09789809,-0.02700616,-0.23229899,0.20638567,-0.06918199,-0.06332253,-0.04018958,-0.01538703,-0.08983720,-0.07566566,-0.00963821,-0.21259959,0.23787616,0.02373823,0.26837543,0.05627759,0.03512023,0.03435216,-0.08210026,-0.06860963,0.04322185,0.06977650,0.11948306,-0.04811474,-0.01312576,-0.28575036,-0.18552366,0.10321184,0.14103743,-0.15318659,-0.00282810,-0.12594038,0.09768471,-0.05676819,0.01740890,-0.04069965,-0.00326627,-0.18412597,0.01481050,0.03145551,0.04786092,0.06326316,-0.08772654,0.23752554,-0.08152737,-0.14095494,0.17412768,0.18501377,-0.13548222,-0.02944393,-0.14533067,0.23911999,-0.05920465,-0.19006374,0.23101607,0.28800645,-0.00544605,0.04877145,0.00278195,-0.07295436,0.06297412,0.31915501,0.11156707,0.10628652,-0.10514041,0.28664008,0.11942201,-0.07414412,-0.09620994,-0.22553083,0.08527017,-0.09266102,0.07218488,-0.06413835,-0.02207951,-0.14196104,0.06516232,0.12825574,-0.48466036,-0.05266859,-0.02534052,-0.11965629,0.19030462,0.05171796,-0.11013783,0.09267917,0.11880290,-0.19071643,0.08068727,-0.06135670,0.28889561,0.29623097,0.01003765,0.00150756,-0.05887028,-0.04217084,0.33051431,-0.06193507,-0.08766624,-0.52385128,-0.17420803,0.04331173,-0.09753369,-0.04095374,-0.16628259,-0.18074702,0.08826049,0.17325768,0.50684261,0.08260787,-0.00897672,-0.08549473,0.02004967,0.06349853,0.13349801,0.02312202,0.26203912,0.05910813,-0.31815293,0.02461717,0.04417193,-0.22197063,-0.14569713,-0.16324656,0.09380125,0.28894550,-0.21144655,0.18482301,0.05257550,-0.13592921,-0.10506300,0.03432728,-0.01492897,-0.03306659,0.06780044,-0.03649495,0.11845645,-0.25315207,0.01362795,0.24926670,-0.16641830,-0.07074465,0.08950404,-0.12686177,0.18089420,0.03960451,0.20802003,-0.14517744,-0.13480206,-0.20247592,0.02465787,-0.22515406,-0.01465450,0.11795259,-0.02763069,0.11296575,0.10109694,-0.24638401,-0.09584712,-0.10000624,0.09594493,0.12261796,0.02869325,0.26883832,-0.03274505,0.00217254,-0.05593113,-0.81930488,0.21035282,0.04595874,-0.32539603,-0.44515473,-0.04537035,-0.08035248,0.01437403,-0.13526413,0.06194663,0.04237543,-0.24216057,-0.18174830,0.05542227,0.01364872,0.20109867,-0.24133380,-0.04899184,-2.90849304,0.31409171,0.25326264,0.10296649,-0.05291147,0.00864071,1.02635610,0.17181200,-0.12287632,0.00991217,-0.08350876,0.17411107,-0.02386755,-0.17079161,-0.03742168,-0.01042573,-0.09570430,0.00267769,0.10284428,0.20637250,0.03946967,0.06910753,-0.14456013,-0.08850846,0.32263115,-0.05756196,-0.00317852,0.05762040,0.11836725,0.19942981,0.03789452,-0.24949749,0.03604814,0.01671235,0.04278649,-0.23649740,0.29959598,0.01446783,-0.28704432,-0.17070803,0.18036510,-0.05749796,0.04560917,0.15983725,0.17409109,0.21332823,0.14346169,0.12630297,-0.07066654,0.14158651,0.48022789,-0.00687188,-0.02297416,-0.02716508,0.19111164,-0.05217449,-0.07300219,-0.17946663,0.11573529,0.03564763,0.31488508,-0.11270789,0.09771255,-0.08283018,0.50218290,-0.25797060,0.14691848,-0.21280798,-0.09640802,-0.14225119,-0.11882934,0.00023682,0.13878967,-0.05213713,-0.07968622,0.01286200,0.16650058,-0.04742316,-0.17548400,0.08036757,0.03140591,-0.16507444,-0.35308886,0.04081742,-0.32014465,0.03667812,0.20638783,-0.11576544,-0.00767689,0.00525756,0.03279012,0.00784616,-0.12477466,-2.88790369,0.15728998,-0.10962840,-0.21356559,-0.15676159,0.16554919,0.13970900,0.24635340,-0.29407290,0.04055442,-0.36783025,-0.19269976,0.01381559,-0.03979246,0.02841089,0.13704322,-0.20848881,0.18705963,-0.17226665,-0.05549864,0.00312736,-0.02979568,0.30338782,-0.05459294,0.03063261,-0.09031225,0.17948586,-0.10311642,-11.83269691,-0.16650653,-0.13072099,-0.06423353,-0.02904266,-0.02680568,0.15393573,0.27893886,0.05915640,0.16321141,-0.52507627,0.11350242,0.30741209,-0.10448457,-0.14749061,-0.08266130,-0.14375433,-0.09258325,0.12926556,0.15218304,-0.00753136,0.07378841,0.10730178,-0.10882347,0.06542554,-0.22615148,-0.14491305,0.11006964,-0.25864762,0.10227604,-0.09452747,0.02245318,0.10477818,-0.02612552,-0.15314299,-0.10192570,-0.13821767,0.34519285,-0.00759406,0.16262695,0.04945678,0.11002619,0.28664511,0.18604460,0.26830947,0.06207021,0.41187337,-0.36117890,0.01253013,-0.02000713,0.16559769,-0.05263787,0.01244108,-0.33158302,0.00425255,-0.04033013,0.02413469,0.15692186,0.12925032,0.22085014,-0.14895552,-0.11178131,-0.05226156,-0.15697406,0.05874616,-0.12038977,0.20803584,0.13892576,-0.13815211,0.02650139,-0.08212049,-0.05980014,-0.04239492,0.02951906,0.02469758,0.25813210,-0.00379960,0.26154998,0.07567275,0.04440914,0.17655128,-0.01073274,-0.22088550,-0.08344408,0.47071949,0.05084469,0.28052169,0.23069014,0.75726569,0.03424146,0.11675318,0.00418984,-0.09999875,0.11365854,-0.08302184,-0.14110641,0.07402262,-1.56815016,-0.35057169,-0.07504361,0.21298186,0.09457631,0.13281326,-0.02813037,-0.22356558,0.04934674,-0.15979311,-0.06884038,-0.02686540,0.07864109,-0.07045525,0.12466817,0.37656865,-0.03092827,0.04997268,-0.09678869,-0.05859251,0.11394592,0.10871933,0.33310235,0.01120749,-0.05193770,0.05767316,-0.07668883,10.35384178,0.07483640,0.13123633,0.08011287,0.22429968,-0.10568393,0.10941936,-0.13397865,0.18179360,0.31168842,-0.52448589,-0.10466469,0.56026906,-0.05848964,-0.13070008,0.12543260,-0.04706234,-0.04232301,-0.11206376,-0.09432028,-0.19197354,-0.23231785,-0.02309540,0.63546360,0.20858809,-0.01414104,-0.01494874,-0.09360312,0.05406474,0.08360749,-0.13953258,0.01393543,0.22710572,0.14092351,-0.06338436,0.06504659,0.10025918,0.05451307,0.18673952,0.13438648,-0.07798893,0.22663668,-0.21488442,-0.31400380,0.22700211,-0.02021868,-0.12463439,-0.25200236,0.36633492,0.30229390,0.01790590,0.01022999,-0.31662443,-0.00936657,0.03490280,-0.04326827,-0.12922572,-0.08508623,0.11690973,-0.06421089,0.10457679,-0.07178326,-0.00899665,0.28384522,-0.27743730,-0.01259212,0.20069931,0.02852720,-0.02471071,0.09658170,-0.04035958,-0.02916383,-0.03866104,0.06196820,0.10045771,0.02375882,0.08256751,0.00006144,0.06239945,0.14108905,0.00440848,0.10573716,-0.20917577,0.00650495,0.17834602,0.15625685,0.04502622,0.02198252,-0.65766495,-0.02367058,-0.08729969,-0.09206854,0.03004022,-0.18924339,0.09488961,0.09504893,0.26266235,-0.07743060,0.00420850,0.00628341,-0.20143405,-0.20329633,0.24654612,-0.10982891,0.17472854,0.01817885,0.03023115,0.25531274,-0.11342938,0.01296810,0.08554237,-0.04978793,-0.00234398,-0.23995407,-0.19275984,0.12322041,-0.17971963,0.01182812,-0.16984989,0.09267891,-0.72964704,0.06787516,-0.06470193,0.06755032,0.37259403,-0.09343156,0.32912236,0.00005405,0.13036524,0.00612859,-0.10814828,0.02248400,0.10880775,-0.16709806,0.05937523,-0.10305475,0.04912028,0.08380295,0.06664987,-0.36883053,-0.07023560,-0.21588351,-0.11751921,-0.18671797,-0.23215386,-0.08003792,0.16983980,0.12609403,0.75454491,0.07201050,-0.13332345,0.07226955,-0.00529903,0.16096248,0.01200227,-0.25742462,0.05759244,0.04955877,-0.07105562,-0.12441747,0.08305771,0.01473615,0.08614641,-0.01806992,0.07654437,0.27443174,0.04373579,0.15613243,0.04588363,-0.29671666,0.09151249,0.15022966,-0.10556082,-0.08470122,-0.07555978,0.23955165,0.02109957,-0.37719554,0.08606800,-0.00830574,0.02407629,-0.06611597,0.21998098,0.07083729,-0.19843125,0.26546332,0.10400168,-0.18148136,0.05443046,0.26946649,0.11621965,0.07531080,-0.11359766,-0.18658866,0.12300692,0.31807077,-0.03750821,-0.01290267,-0.01127064,-0.23883441,-0.01429002,-0.09752158,-0.19888295,-0.04237804,1.57155395,0.07497886,0.23085824,-0.22196181,-0.32975075,-0.05414727,-0.11394197,-0.01286180,0.01454529,-0.13259882,0.20374592,-0.11424483,0.20525837,0.25163221,0.04341672,-0.34378904,-0.31880543,-0.20660426,-0.09585052,0.18948816,0.12262822,-0.04339292,-0.06758060,0.05269422,0.11508005,-0.17090052,0.13794678,-0.08606797,0.29430148,-0.37073448,0.01094696,0.02171304,0.02932212,0.18540376,-0.10748431,0.17786622,-0.01620732,-0.09821513,-0.24091649,-0.23425820,0.00419008,0.20631018,-0.00261346,-0.18118683,0.18083756,-0.14845344,0.15389305,0.24930474,-0.50758898,-0.20900558,0.13518372,0.11422201,-0.09764798,0.27953893,0.17193486,-0.08382077,0.17827179,0.15586402,0.01004259,-0.65705955,0.17332719,-0.01053255,0.03187574,0.08150171,0.00152034,-0.02239652,-0.22741367,0.09284869,-0.29244637,0.00973557,-0.14265297,-0.04613228,0.05473633,0.15462114,0.21257520,-0.13590726,0.05107703,-0.15101358,0.15523261,0.24251758,0.54164308,0.59043908,0.11361655,-0.06647320,-0.08871850,0.10485363,0.10265554,0.11297508,-0.00837004,0.07431287,-0.02119817,0.15322948,-0.04589145,-0.17979576,-0.08881310,-0.14797474,0.20031081,0.06439049,0.15253974,0.23785020,0.02405652,-0.04499098,0.24278292,0.09841344,0.04045167,-0.03517181,-0.14686692,-0.17820232,-0.14670148,0.13024318,0.06600316,-0.11935680,-0.09988324,-0.13902155,0.14077891,-0.14458789,-0.21670598,-0.20341495,0.02488788,0.08490331,-0.10996031,-0.13388732,-0.23868343,0.13327378
EARTH,0.07676349,0.08029940,0.50092846,-0.17314394,-0.09136961,0.07839759,0.26354298,-0.00272144,0.02203258,0.01989208,-0.01141343,-0.06249874,-0.05646189,0.19436888,-0.06349934,-0.01554047,0.16599382,-0.00310286,0.00635835,0.02766502,0.01218170,-0.16729692,0.08805560,0.08365248,0.19414856,-0.05357745,0.07716081,-0.13498898,0.09491900,-0.09008557,-0.06001986,0.17976573,0.01117128,-0.13466069,0.02975070,-0.12969732,-0.27027640,-0.03647504,0.19010022,0.06340796,0.07985911,0.01393425,0.09241039,-0.17060053,-0.05874400,0.05549515,-0.13760571,-0.12652799,0.02918325,-0.02920146,-0.19774561,-0.15861419,-0.06666461,0.31093583,0.00753631,-0.06660196,0.04253997,0.04597593,-0.09164888,-0.12580925,-0.12292822,0.39258295,0.09052848,-0.10671868,-0.10410345,0.41570500,-0.02553145,0.19834252,-0.08421859,-0.23491628,-0.09550122,0.16967879,-0.10451157,0.19522573,-0.26880804,0.06993849,0.10997092,0.11476090,-0.03594877,-0.15955780,-0.01692856,-0.04445239,0.02837155,0.08285806,0.15375923,-0.07154015,0.19725558,0.17290938,-0.28927144,-0.17260937,-0.05164792,0.16845511,0.09609769,0.01115890,-0.14138834,0.08550086,-0.01056597,-0.09461296,0.08538480,-0.06682946,0.14681040,0.11526515,0.17514940,-0.01243658,-0.09143026,-0.16059111,0.30506825,0.11514361,0.11611190,-0.63922304,-0.08855393,0.15493894,-0.03819856,0.14429700,-0.18249689,-0.20244822,-0.15790029,0.00716263,0.38194090,-0.04613741,0.11540649,-0.07990903,0.04253170,0.16560039,0.04586015,0.07967889,0.01997188,-0.17026630,-0.26307347,-0.08621635,0.08778354,-0.32624942,0.06395406,-0.03396044,-0.14648697,0.23251438,-0.24010985,0.31280813,-0.06608782,-0.19809510,-0.10641743,0.03249571,-0.03175293,0.04997979,0.21851401,0.13991557,0.20732908,-0.38213027,-0.00969459,0.29808739,-0.13396025,-0.06551328,0.14098909,-0.06193842,0.08136227,0.13377152,0.04589032,0.06017274,0.00542553,-0.11463416,-0.01886706,-0.16855477,0.07591040,0.08654238,0.17570984,-0.00008958,0.11140491,-0.11800776,0.07901984,0.12761754,0.07233233,-0.01948083,0.24238594,0.55411261,-0.09698985,0.05766352,-0.03852276,-0.83198506,0.67529470,0.14061336,-0.20471211,-0.05671385,-0.14605257,0.11448928,-0.11295541,-0.01114542,-0.29806697,-0.05114920,-0.26354861,-0.19591796,-0.00592385,-0.10894475,-0.01064481,-0.14218675,0.06642344,-2.73917270,0.22575793,0.30388865,0.14276049,-0.11333240,0.13224304,1.07492590,-0.16371875,-0.10297465,-0.12379269,-0.06129189,0.01401127,-0.00349585,-0.17070153,0.09834415,-0.22986951,-0.14598596,-0.02238187,-0.08275124,-0.05449250,-0.14522263,0.13232513,-0.11598454,-0.09847146,0.40029171,0.03550094,-0.04341156,-0.11679634,-0.07566451,0.08129755,-0.05496602,-0.11462543,0.11978954,0.06466146,-0.06592350,-0.33901653,0.23706950,0.15197654,-0.10957140,-0.12995231,0.16865374,0.05096520,-0.30361184,0.17748973,0.14153260,0.37937477,0.15018374,0.09637422,-0.07613275,0.06762109,0.65712142,0.02301690,-0.02897942,-0.06214131,0.28841287,0.18599689,0.10325407,-0.14309792,-0.02578751,0.04405573,0.14274564,0.04250228,0.09015953,-0.04285485,0.41766527,-0.08028406,0.16789606,-0.09371247,0.17382038,-0.21029079,0.08264937,-0.06676238,0.15859804,-0.21468382,-0.05882387,0.00942470,0.15507066,-0.15607187,-0.28252286,0.17386927,-0.09668055,0.02156189,-0.24150497,-0.22337562,-0.33217824,0.10342006,0.31095105,-0.19366942,0.17473312,0.04000394,-0.13966930,-0.03780136,-0.18946390,-2.62724662,0.08130115,-0.07827904,-0.07978461,-0.01010782,0.17306800,0.09235117,0.21696098,-0.16947940,0.02508724,-0.31757411,-0.09168170,-0.27108121,0.09316934,0.04154053,0.03162060,0.03658585,0.10232303,-0.29297423,0.02483377,-0.07369891,-0.07223274,0.09376220,-0.08532400,-0.11487440,-0.01519545,0.19792560,-0.05980930,-11.85076714,-0.09487924,-0.11185298,0.03492293,-0.04223502,-0.15338235,0.13967775,0.16070850,0.03598347,0.16015613,-0.23854323,-0.09544522,-0.04363203,-0.14268908,-0.04808377,0.11024895,-0.11422925,-0.14008251,0.20498550,0.21857068,-0.00155492,0.07987051,-0.04926936,-0.02138103,-0.16262315,-0.00898912,-0.05039168,0.11493368,-0.09200627,0.04366381,0.01722210,0.16401725,-0.00403859,-0.14285512,-0.09260253,-0.17447688,0.07313727,0.02032653,0.30629361,0.05876663,0.03092225,-0.05744107,0.28905255,-0.07747997,-0.00081110,-0.23456614,0.41119525,-0.37310874,-0.01640905,-0.07660049,0.04730318,-0.12580161,0.02882535,-0.04747227,0.16601217,0.07150370,-0.20273834,0.10446242,0.03980618,0.37482509,0.07377588,-0.08460347,0.21264668,-0.21279511,-0.05007289,-0.15178192,-0.22549562,0.08868515,-0.09974593,-0.14111724,0.23547125,-0.09052531,0.04759621,-0.00413933,0.05356121,0.01833265,-0.26226854,0.16645038,-0.00744485,0.14041381,0.04277928,-0.31103927,0.04275442,-0.05160662,0.42363015,0.24475567,0.23900875,0.17066562,0.78502423,0.15363671,-0.14199276,-0.14226565,0.02884899,0.02880063,-0.05412298,-0.26746738,0.14548020,-1.60692656,-0.21335015,-0.01738158,0.05234158,0.09637067,0.10754742,-0.06289631,-0.01063785,-0.06363414,-0.23649180,-0.09540694,-0.13421400,0.10329694,0.03557698,0.01880812,0.20090872,0.14209670,0.14626133,-0.17274842,0.05662606,0.12431984,0.15238798,0.49596858,-0.09833596,-0.02380150,-0.27564615,-0.07911143,10.42755508,0.13120171,0.04876439,0.16773441,0.20733938,-0.24568252,0.10096551,-0.01444731,0.02574879,0.22820550,-0.63872170,-0.17674871,0.93972731,-0.08543444,0.04957537,-0.03559757,0.04973913,0.03662589,-0.20159212,0.04180235,0.00806518,-0.23660529,-0.19449021,0.74482393,0.07501499,0.08522806,-0.12489522,-0.19739813,0.10830120,0.09533934,0.09051651,0.02646078,0.00951955,0.15304317,-0.06072039,0.13121827,-0.00466188,-0.07602785,0.09000938,0.09001222,-0.12286278,0.13291411,-0.09588803,-0.35861948,0.22379556,0.06451742,-0.09200037,0.06224122,0.06401075,0.35378185,0.18066896,0.14303817,-0.20294729,0.16479968,0.21553057,0.00312637,0.02336408,-0.28553376,0.01319702,-0.04940318,0.20364720,-0.07287361,0.03509176,0.19894509,-0.28350142,-0.17883003,0.08236947,0.16023986,-0.08407504,0.00122911,-0.15286416,-0.13061719,0.09456821,0.14783151,0.13130280,0.05917229,0.21690881,0.01943276,0.10394818,0.11846437,-0.10391389,0.12406126,0.01174389,-0.11768069,0.12267169,0.25518289,0.02230562,-0.00206744,-0.63010180,-0.17838395,-0.07403126,-0.09309050,-0.01731615,-0.09638229,0.02881883,-0.03245857,0.16463377,0.07030245,-0.20737654,0.21022689,-0.04033914,-0.03842432,-0.03382874,0.02752076,0.09758256,-0.08066083,0.06264747,0.05221316,-0.10725586,0.10068681,-0.02242879,0.03620851,0.03077709,-0.29559472,-0.15400867,0.19458556,-0.26182833,-0.00317066,-0.15546858,-0.10887096,-0.37734988,0.10972009,0.01099745,0.25345421,0.33576846,-0.00433841,0.23871705,-0.00193132,0.05099062,0.08934978,-0.20957346,0.18450168,-0.00219614,-0.14288312,-0.01664508,-0.06133100,0.22217707,-0.13751881,0.05905876,-0.23767261,-0.16678011,-0.07805447,-0.08109027,-0.07533561,-0.38083005,-0.24938326,-0.05334079,0.07954392,0.32845509,0.26823854,-0.08127499,0.10467555,-0.18082324,0.28245816,0.00526933,-0.24364567,0.00714349,-0.04398025,-0.17532647,-0.18705551,-0.01406931,-0.12096498,-0.12976998,0.10860521,0.12419354,-0.05334410,-0.05936448,0.21781600,-0.10348932,-0.20992394,0.12429179,0.31240162,-0.01160477,-0.21880652,-0.05922423,-0.05208320,0.00286024,-0.46695733,0.25298500,-0.11150191,0.15183000,-0.10277201,-0.11503343,0.09124962,-0.21191993,0.41571099,-0.05397797,-0.14861664,-0.02001743,0.06026406,0.15747099,0.04784526,-0.09491540,-0.06290922,-0.05130418,0.43177757,0.33510020,-0.04674051,0.12325180,-0.28883508,0.04265470,0.06908093,-0.05258789,-0.12181909,1.60919464,0.16714044,0.30421174,-0.04909918,0.01377601,-0.08735725,-0.14178413,-0.13595100,-0.04764910,-0.12475894,0.18841922,-0.06705018,0.10725355,0.11165144,-0.00508150,-0.19707417,-0.40174785,-0.12906125,-0.07757796,0.07142279,0.04942849,0.08290574,-0.08644038,0.00070629,-0.01080145,-0.04368926,0.00923872,-0.12361456,0.09602611,-0.18145007,-0.03517625,0.11196160,0.13471247,0.17125854,-0.21468107,0.17291488,0.04373014,0.19448331,-0.17127816,-0.09680786,-0.03818049,0.25836694,0.03132477,-0.10690040,0.20869936,-0.33825660,0.44443697,0.03073323,-0.58283389,0.09860905,-0.17330232,0.00859230,-0.09246872,0.14679821,0.02172443,0.01207928,-0.10189465,0.02850507,0.01355960,-0.59056556,-0.08670320,0.09823439,0.11175618,0.02561199,-0.07442613,-0.13655873,-0.15750039,0.06384099,-0.28271410,0.04484909,0.02163938,0.04078456,-0.02665823,-0.12735225,0.20889668,-0.19962221,0.15362538,-0.16756392,0.14625213,0.46567976,0.30362871,0.80103260,0.25479758,0.00289108,-0.36434099,0.16510053,-0.08511038,0.19151942,-0.03545214,-0.12536864,-0.02216749,0.01205880,0.17151944,-0.08152307,-0.04732671,-0.01487644,0.19527569,0.06866020,0.04379579,0.28592998,0.03881564,0.02212864,0.32912126,0.12697047,0.22952813,-0.11583374,-0.09135685,-0.12070733,-0.07347877,-0.05308552,0.08031025,-0.37972829,0.12280656,-0.06945898,0.05945979,-0.13284822,-0.13270123,-0.41346088,-0.02173867,0.17608623,0.04450562,-0.14596994,-0.44275415,0.01219019
FEATHER,0.06755773,-0.09078504,0.41157076,-0.21304536,-0.07522234,0.23021150,0.35680717,-0.13186878,0.07648975,0.03713801,-0.06364544,-0.12174856,-0.37241107,0.16004865,-0.21043338,-0.27379748,-0.11674041,0.04479577,-0.01276450,0.09218581,-0.00015096,-0.11204220,0.10847063,0.17155811,0.15378024,0.33369753,0.23379356,0.16108574,0.12007112,0.05175697,-0.05201148,0.00100762,0.17466511,-0.00879071,0.07025927,-0.06262516,-0.05243781,-0.08377632,0.08748920,-0.06552396,0.09703905,-0.15338674,0.13646242,-0.07890458,-0.12762050,-0.09658301,-0.24231976,-0.10181819,-0.08308828,-0.11465284,0.03185993,0.12279078,-0.16350962,0.31877300,0.01123014,-0.03769280,0.07607601,0.20717901,-0.05926830,0.06926057,0.04338694,0.35136998,0.07671672,-0.00564501,0.09362082,0.45059744,-0.03270449,0.09276293,0.04100077,-0.24845143,-0.05871178,0.53435516,0.08656255,0.05667776,0.14264567,0.05676979,0.16820870,0.13206360,-0.04152338,-0.06496251,0.29854956,-0.09709865,0.13555834,-0.14779520,0.06854142,-0.10517817,-0.05826522,0.23768628,-0.56183243,0.08846614,-0.10587550,-0.03022586,0.13256846,0.11469650,-0.14033383,0.08357541,0.08522633,-0.01213929,0.27725634,0.12233556,0.33049861,0.35033143,0.18312232,-0.05034410,-0.06079340,0.08047459,0.14029628,0.07485187,0.09723568,-0.47704238,-0.11509722,0.17685553,0.06166026,0.17933147,-0.24944574,-0.06753719,-0.20533653,-0.06180645,0.15830787,0.08803461,0.09599625,-0.01307277,-0.09418187,0.11814238,0.30010459,0.10281539,0.02155869,-0.16558310,-0.38311291,-0.06406157,0.14083126,-0.39045930,-0.07285002,-0.11118080,0.09367574,0.19774416,-0.27217013,0.20438813,0.27609593,-0.20982270,0.08832263,0.15064076,-0.21526164,-0.01237444,-0.06346349,-0.17284316,0.19972026,-0.54202718,-0.02937486,0.34146437,-0.04484852,-0.24051325,0.22171369,-0.01073925,0.13685274,0.03504411,0.14959736,-0.29056156,-0.16256034,-0.12277405,-0.01305571,-0.24724716,0.14442873,0.10482241,0.25445640,0.01621964,0.05440093,-0.10202464,0.05463312,-0.23046793,0.09291242,0.11923461,0.12671447,0.40811861,0.05085952,0.01122321,0.11207862,-0.90597248,-0.04688254,-0.02591194,-0.32786560,-0.17964385,0.00577307,0.02008091,0.05551798,0.17966478,-0.33032203,-0.10211509,-0.14590436,-0.12814113,-0.12928374,-0.25558791,-0.06110674,-0.21381207,0.18797962,-2.78482938,0.09816140,0.19346870,0.08677818,0.19218947,-0.09544093,0.99351919,0.08132119,-0.29211983,-0.06319483,-0.21491437,-0.11182088,0.03068313,0.07285085,0.05385717,-0.20275775,-0.23739015,0.03164652,0.07628405,0.14066681,0.24903880,0.32967329,-0.06328794,-0.05487020,0.44683459,-0.13190100,0.04284229,0.08009765,-0.04113969,0.19327155,-0.12387078,-0.05812319,-0.01291262,-0.05624214,-0.06450560,-0.15992393,0.37615073,0.01369355,-0.20053124,0.20565160,0.07011850,-0.06958526,-0.12136289,0.07460636,0.03683144,0.29124948,-0.00462142,0.27230403,0.19681983,-0.01584322,0.45027357,0.07183554,0.13748413,0.19178095,0.16397022,0.02278617,0.04421278,-0.13765946,0.06387580,0.06457460,0.33988631,-0.04296864,-0.11081730,0.01325733,0.52329177,-0.27987617,0.09645106,-0.22509135,0.02723040,-0.19381030,-0.14898258,-0.14463365,0.22678134,-0.17636555,0.06437799,-0.06978170,0.10959398,-0.06838287,-0.11259176,0.12705547,0.11731129,-0.17664832,-0.23952819,-0.01126043,-0.02274041,-0.14313850,0.20928471,0.02634165,0.14739776,0.09630129,-0.06152441,0.16976170,-0.13811079,-2.58106184,0.01874807,-0.01353916,-0.13861991,-0.22331685,0.12510112,0.03303683,0.03604002,-0.24911883,0.03018302,-0.12966800,-0.08018138,-0.35648161,0.13661945,0.00483502,0.20069975,0.02485340,0.22157899,-0.09376352,0.16033015,0.17663437,0.01816539,0.07035989,-0.02386832,-0.08827069,-0.43729138,0.12085579,-0.24595541,-11.25058079,-0.29382509,-0.04753787,-0.09242836,0.04240400,-0.05660583,0.01050529,0.15191549,-0.07176423,0.12565900,-0.45690933,-0.11281328,-0.03041376,-0.34210798,-0.30248943,0.05779826,-0.02352574,-0.18445578,0.15138777,0.15298343,-0.07970636,-0.01773480,0.00157010,-0.06819765,-0.08299853,-0.07667490,-0.30296499,0.27414119,-0.12326284,0.18914327,0.20487559,0.15969421,0.10118210,-0.06305245,0.16197920,-0.02179708,0.18848023,0.29060781,0.11049482,0.15234554,0.15624945,0.07595579,0.04348904,0.07552492,0.19135278,-0.01592758,0.56912124,-0.33795589,-0.34961417,-0.06726140,0.48311791,-0.28368253,-0.31377411,0.02045057,0.06000756,0.10399342,-0.14545968,0.05134360,-0.12997474,0.34720474,0.01118554,0.04029765,0.16185221,-0.18776506,0.21043724,-0.08899610,-0.18526351,0.20261993,-0.16358790,-0.40586755,0.06674981,-0.07686146,-0.09264904,-0.04268349,0.08165800,0.06695924,-0.11857311,0.20316342,0.04230899,0.27705109,0.09110413,-0.00687225,-0.00145261,-0.01124114,0.51596606,0.21594910,0.10034901,0.25949493,0.88525170,-0.20411743,0.05135153,-0.04125622,-0.06576551,0.11592725,-0.11642991,0.08278929,0.01665049,-1.52341056,-0.26550093,0.15572095,0.13913751,0.05512914,-0.03568123,0.14117971,-0.46172240,-0.11474985,-0.29704884,-0.13756567,-0.05175348,-0.02600719,-0.21417183,0.21395603,0.27249575,0.12545340,0.20279819,0.02300366,-0.02812073,0.26931679,0.02544029,0.31589618,0.21432215,-0.19780520,-0.10358370,0.16252793,9.92965412,-0.04742567,0.32404149,0.07708934,0.24473865,-0.19763677,0.05528891,-0.00729029,-0.02426329,0.43214357,-0.69390738,-0.04434973,0.48172140,-0.19758449,0.12745373,0.13059983,-0.14142305,0.08589691,0.18436344,-0.17015231,-0.09948462,-0.37836987,-0.04342573,0.35610723,-0.11623026,0.01193324,0.11181711,0.11650977,0.13952760,0.13946444,0.04577160,-0.07107604,0.30704725,0.25104147,-0.11158291,-0.03469625,0.11477169,-0.05451593,0.03193502,-0.00219811,-0.15771721,0.34228027,-0.11149926,-0.22312835,0.30954802,0.04185286,-0.12781101,-0.15170881,0.38516644,0.11407992,0.05758729,-0.11015923,-0.22682545,0.07170196,-0.22502738,0.01568044,-0.05269763,-0.22609402,0.11472595,0.04382789,0.20707950,-0.12304569,-0.12062529,0.15561518,0.04003346,-0.05074640,0.00207942,0.04396746,-0.01241411,0.09196406,0.11211771,-0.00560317,0.24445620,0.04191692,0.32508633,0.01834369,0.15560560,0.24374862,0.07102367,0.09264180,0.04443873,0.06300768,0.00864256,0.06664181,0.22091933,0.27872980,0.00464378,-0.02438828,-0.49129030,-0.06844332,-0.45273647,0.14620590,-0.15922405,-0.07802334,0.17982212,-0.08282474,0.11523695,-0.20470975,-0.09206657,-0.06449755,-0.12484719,-0.13733196,0.41279459,-0.15329188,0.17544715,-0.00338187,-0.16127256,0.05590523,0.05777368,0.08650859,0.16692221,0.19739798,-0.12812194,-0.06947315,-0.22324452,0.30465561,-0.17015097,-0.09998042,-0.15398458,0.04608598,-0.48015028,0.02319418,-0.21359545,0.21816078,0.65309536,0.00856932,0.30713686,0.13952997,-0.01319531,-0.13302994,-0.00354549,-0.15214624,0.26846886,-0.10711080,-0.03546110,-0.17339464,0.12112986,0.10314864,0.07162561,-0.07503106,-0.01584383,-0.27942601,-0.05617508,-0.04281539,-0.22489691,-0.06123776,-0.01674708,0.25908080,0.50301695,0.09233470,-0.01421372,0.27123758,0.03952909,0.20664056,-0.00946530,-0.14643720,0.18573801,0.06650688,-0.12871782,-0.09359847,0.16619684,-0.02879071,0.10198472,-0.21048583,0.09728485,0.07263379,-0.28350759,0.14852320,0.10904752,-0.16403756,-0.02021785,0.15563114,-0.14222093,-0.03773420,-0.22331412,0.02951037,-0.07370706,-0.54850483,0.42942235,-0.11593622,-0.03882468,0.06326354,0.14620207,0.10027484,-0.19474158,0.37110144,0.12344535,-0.22086342,0.03715407,0.31065467,0.12154485,-0.06355088,-0.24174511,-0.09843746,-0.17414545,0.02726333,0.18247098,-0.33519718,-0.02107677,-0.41169190,-0.07199552,0.15331994,0.04138839,-0.02523494,1.52781725,0.14449990,0.21160756,-0.05532192,-0.07741922,0.05125394,-0.09101886,-0.25149000,0.06467571,-0.02902732,0.27436748,-0.10619344,0.12953271,0.41698819,0.07048885,-0.32506859,-0.38587171,-0.16915147,0.00159838,0.12252182,0.26766399,0.15987083,0.17227267,0.18049487,0.07955405,-0.29637283,-0.09736755,0.04463871,0.14864729,-0.13766736,0.01774686,-0.14818786,0.24380484,0.12164190,-0.30341905,0.00097848,-0.08253546,0.16183354,-0.33924541,-0.14012603,0.24170157,0.22597614,-0.15689886,-0.18257508,0.19934915,-0.23861095,0.36362445,0.21298496,-0.62985235,-0.02835587,-0.12811461,-0.02799864,0.03640120,0.26029444,-0.01538623,-0.09657773,-0.03561080,0.13602924,0.19541544,-0.65084386,0.06235183,0.21131915,0.17157963,-0.13031875,0.08614489,-0.14222541,-0.18686630,0.14212754,-0.66795802,0.07784308,0.10290778,-0.04869333,0.07691409,0.06703405,0.16561902,-0.08043873,-0.17187849,-0.04467514,0.09951890,0.31793150,0.70446777,0.46193719,0.21428673,-0.04125025,-0.10585767,0.23808059,-0.02777331,0.23176326,-0.11205575,-0.09094082,-0.32262117,0.31275341,0.09519076,-0.00705848,0.21305048,0.00298303,0.18803118,0.22397047,0.12031291,0.11660322,-0.16776836,-0.00125325,0.16745026,0.10029548,0.20392731,-0.20251028,-0.16495085,-0.16811194,-0.11112992,0.11160234,0.08969183,0.01435426,0.02714984,-0.10607801,0.07420007,0.00142825,-0.20860390,-0.36789495,0.09534293,0.25756896,0.02368880,-0.28068668,-0.17193709,0.04929393
HORSE TRACK,-0.01377671,-0.04153152,0.28728309,-0.34735265,-0.04016586,0.14658655,0.37216920,-0.16506632,0.19879246,0.06920043,-0.14891118,-0.01107190,-0.37052539,0.32520086,-0.12503688,0.06337580,0.03995002,-0.24760924,-0.08306253,0.05992650,0.14202935,-0.17353337,0.17678767,-0.00785735,0.26504338,-0.06809510,0.18504208,-0.01317933,-0.08646345,0.03141171,-0.07839909,0.09269628,0.12548096,-0.41183126,0.30462393,-0.32107812,-0.16072980,0.07705089,0.11523347,-0.03229566,0.06506705,-0.21732005,0.16413823,-0.21803655,-0.01202820,-0.01559210,0.07568521,-0.27125242,-0.05378342,-0.22190651,0.10647309,-0.09483632,-0.13509026,0.08206496,-0.12660684,0.02437990,0.23051423,0.17451037,0.00218306,0.17163372,-0.03159237,0.28606248,-0.06161081,0.01090056,-0.12548836,0.43914890,-0.25546098,-0.09917149,0.15246263,-0.12285144,-0.05451366,0.16735724,0.10388073,-0.04404214,0.04749637,0.13495785,0.17256016,-0.04359655,0.00535949,-0.06323831,0.04356043,-0.19755116,0.06901789,-0.06373654,0.07874390,-0.15347379,0.10110958,0.25757501,-0.26754397,-0.15122990,-0.06471647,0.04064837,0.05016508,-0.14594020,-0.14364238,-0.04347257,0.10600868,-0.31774813,-0.01616577,-0.00202660,0.17632882,0.38058183,0.14164540,-0.00761193,-0.11025611,-0.15820798,0.19478504,0.16431452,0.09662862,-0.12829359,0.07995636,0.06373362,0.10227752,0.02753336,-0.10340162,0.06345169,-0.00701363,-0.18224975,0.28931704,0.03052281,-0.06199291,-0.22608134,-0.03965683,0.15449628,0.01886790,-0.06703568,-0.18976855,-0.24105190,-0.16645743,-0.13215238,0.04498468,-0.16102077,0.12926394,-0.05505373,-0.11435147,0.02244995,-0.22957362,0.31056881,0.00247009,-0.01860128,0.04849885,0.13952582,0.00098995,-0.05378262,-0.11498383,0.17573118,0.31545618,-0.13239382,-0.06803598,0.13196976,0.01244311,-0.01778690,0.16421039,-0.06490099,0.09353209,0.00740059,0.07142645,-0.07435961,0.03662055,-0.29528630,0.09493869,-0.08784035,0.11730082,0.20314556,-0.01442126,-0.11160942,0.07134841,-0.11014091,-0.02401487,-0.10379779,0.14752436,-0.10965203,0.09702170,0.15521134,-0.13321860,-0.10014142,-0.00454387,-0.79105878,0.50230211,0.03030297,-0.41176522,-0.09337029,0.17319061,0.07346093,0.01470690,0.07363108,-0.18649857,-0.11800674,-0.18239990,-0.00175695,-0.20602347,-0.10764087,0.20248629,0.06741694,0.06979769,-2.62844992,0.31574494,0.36505634,-0.13385567,0.07497387,0.10487951,1.22969627,-0.13242231,-0.10969687,-0.17116238,-0.05518923,0.10593195,0.02780333,-0.05123052,0.03207526,-0.17023364,-0.17493099,-0.02510609,0.25490120,0.05651734,-0.13476381,0.11239453,0.03223125,-0.10253151,0.22961013,-0.15503716,0.00199968,-0.10061252,-0.00567178,0.24246985,-0.02017209,-0.22693433,0.20958574,0.09455415,0.12354256,-0.40100428,0.27977329,-0.07725041,0.25322607,-0.23332740,0.04409740,-0.04355212,-0.13439664,0.08266918,0.14716420,0.26394275,0.06737446,0.09726796,0.09961886,0.20423119,0.60545403,0.05784301,-0.01470072,-0.03670097,0.28713199,0.12634665,0.03570926,-0.15715633,-0.07262076,0.08785618,0.39176175,0.04688408,0.07359213,0.02859228,0.51513314,-0.18121481,-0.06870009,-0.05493338,0.08117267,-0.16474560,-0.23945731,0.03055182,0.13495710,-0.32612512,-0.06415700,-0.07924728,0.09589184,-0.20532773,-0.28973681,-0.00259068,0.05310271,-0.03597641,-0.21967877,-0.15152878,-0.15120357,0.09816646,0.10569166,-0.10269244,0.06319898,0.23885086,-0.11036941,0.27405253,-0.13408324,-2.50517702,0.14438874,-0.19285375,-0.23472215,-0.21192485,0.18073933,0.13510141,0.30635527,-0.14570615,0.10728507,-0.36604831,-0.26018977,-0.24289669,0.10365118,-0.20876844,0.06745630,0.00400579,0.03977115,-0.27639955,0.03721887,-0.01828086,0.14704916,0.12067208,-0.10754503,-0.07265122,-0.34888062,0.19719775,-0.19719857,-11.35699368,0.02062524,-0.02864385,0.05036345,-0.03795384,-0.07780118,0.08703469,0.23829009,-0.04557251,0.21788612,-0.43200043,0.02302662,-0.03113839,-0.40493280,-0.52451676,-0.18807648,-0.18530631,-0.19481182,0.13330561,-0.03848240,-0.09922574,-0.13149625,-0.04125992,0.17831673,-0.04031777,-0.10838949,-0.08185900,0.15395333,-0.12251811,-0.05772344,0.09078307,-0.02145294,-0.10709328,-0.16107430,-0.12988099,-0.05603240,-0.10329536,0.14016612,0.21107690,-0.03730411,0.04885230,0.01001275,0.29259047,0.00568452,0.20096892,-0.21670015,0.41601700,-0.49407724,0.08707675,-0.10562980,0.19731118,0.00742949,-0.01842596,0.09258337,0.14343180,0.07074164,-0.16586703,0.07825066,-0.06574873,0.26032457,-0.18986045,0.08973312,0.01745111,-0.19141099,0.09829224,-0.26354939,-0.15700401,0.13711831,-0.11058713,-0.41664502,0.07805479,-0.07402220,-0.02050026,-0.03573611,-0.22972950,-0.03915816,-0.14854239,0.38497183,0.07344076,0.19179922,0.12173077,-0.12524632,0.07719088,-0.08664832,0.22547938,0.16707508,0.24086799,0.13863294,0.73077708,-0.07012044,0.16979291,-0.13320026,-0.06472115,0.10120149,-0.12134264,0.02845760,0.13080496,-1.56041837,-0.43897206,0.08167911,0.14086887,0.13115428,-0.11602965,-0.02977816,-0.02746779,0.01848171,-0.19738697,-0.14447135,-0.19532837,0.22723112,-0.12500757,0.05976338,0.37872583,-0.05632328,0.08640688,-0.03657823,0.08234571,0.26304314,0.19067249,0.47828388,0.07236750,0.07968672,-0.25158727,-0.05727577,10.00364113,0.11823295,0.10322323,0.04230536,0.29906625,0.04166047,0.14257199,0.05557047,0.09804165,0.27005821,-0.59304041,-0.03179213,0.93229431,-0.23035818,-0.00030852,0.24086618,-0.00787662,0.00221478,-0.15157463,-0.15712065,0.02643542,-0.19172668,-0.22996195,0.64007986,-0.00925057,0.08137666,-0.06488358,-0.15713470,-0.05766668,-0.09087726,0.23850353,-0.10312894,0.03038955,0.11102748,-0.10815769,0.15511261,0.12075505,0.11478862,0.14733359,0.05936783,-0.22389664,0.30795237,-0.29135242,-0.37411037,0.17915528,0.03515422,-0.10659610,0.12828587,0.22395083,0.44020891,0.26727426,-0.09893573,-0.29571798,0.16764429,-0.04862958,-0.37682712,-0.06261174,0.03296213,0.16126412,-0.13789842,0.10490179,-0.01752276,-0.22800654,0.16959728,-0.20141602,-0.10095275,0.09060008,0.15484366,-0.02547808,-0.09103164,-0.15545656,-0.10318717,0.31023353,0.17255211,0.22746192,-0.05586326,0.13730547,0.08969855,-0.03201391,-0.01096338,-0.02271840,0.32616603,-0.03078454,0.10487779,0.01960607,0.17255738,0.02490802,0.11372840,-0.75560659,-0.05981427,-0.25676873,-0.32339847,0.00833210,0.11888350,-0.02014484,0.10226955,0.30739221,0.02329257,-0.02490569,0.14584687,-0.21646835,-0.25062144,-0.11320250,-0.08693859,0.04950371,0.03003206,0.07606543,0.14945331,-0.27258202,0.12981743,0.25991243,0.19212309,-0.04953045,-0.06880017,-0.13282222,0.02547428,-0.05221954,0.30032951,-0.29020512,0.08590102,-0.66726750,0.06427845,-0.05244396,0.16156779,0.25637677,0.07154302,0.38723370,0.20291939,0.05277059,0.13060749,-0.27704290,0.18191651,0.01603771,-0.12604626,0.06428511,-0.18262617,0.10866474,-0.00121643,-0.08035915,-0.34667712,-0.06939442,0.03191086,-0.22159456,0.00499204,-0.44454131,-0.04513082,0.05870321,0.13204847,0.41495067,0.22822858,0.06626569,0.09988510,-0.03423933,0.29317153,-0.04862239,-0.11196692,0.04825522,-0.12052678,-0.15014905,-0.15622155,-0.01995072,0.05924039,0.01040418,-0.34925219,0.02954838,-0.03682572,-0.16780847,0.05923664,-0.12896180,-0.31470397,0.03362625,0.18614870,-0.20213915,-0.07754575,0.01681215,-0.06039056,-0.04830271,-0.31638578,0.28153822,0.12021066,0.12488998,-0.09618621,0.14160369,0.02307195,-0.33104646,0.06299718,0.02411822,-0.25710332,-0.04365508,-0.00398058,0.22854851,0.14196309,-0.36969420,-0.01456356,0.01363518,0.34200782,0.10049716,0.07526466,-0.19391559,-0.28635964,0.03416673,0.10974541,-0.16165121,-0.22698998,1.56626570,-0.04945350,0.09347939,0.00143013,0.01628595,-0.08240213,-0.19774887,-0.08517207,0.09305114,-0.07931381,0.09938994,0.05744300,0.20782559,0.23015581,0.22354320,0.04637635,-0.18186487,0.01776112,-0.00104420,0.24557535,0.28044355,0.14993024,0.02326273,-0.04787810,-0.01426986,-0.02035414,-0.31973743,-0.01188937,0.01719063,-0.09428628,-0.07464845,-0.08286948,0.13373378,-0.01340862,-0.18895446,0.12492053,-0.03735466,0.11759862,-0.06494384,-0.30037159,-0.09186769,0.24657455,0.05691012,-0.23547433,0.19770426,-0.26372769,0.26733124,-0.01846169,-0.73891819,-0.15336375,0.02915034,0.04559511,-0.05689722,0.14714661,0.01980365,-0.07853867,-0.08137241,0.15906407,0.05301017,-0.62666076,0.03397870,0.31012103,0.02266892,-0.08107814,-0.15744945,-0.12278867,-0.33095682,0.08687501,-0.35287490,0.05073237,0.44315454,-0.14466770,0.08549241,-0.18417290,0.10569043,0.00398445,-0.05918258,-0.07440726,0.16184324,0.34262973,0.28792202,0.88760352,0.15032576,-0.02160848,-0.09724168,0.15716659,0.02295431,0.17245071,-0.23008130,-0.12366375,-0.07274879,0.00208127,-0.11408766,-0.04596695,0.08064426,-0.13493077,0.10370418,0.07421015,0.25797275,0.17547734,0.03147744,0.23164657,0.06445939,0.13938428,0.05142872,-0.24345256,-0.01511168,-0.21623312,-0.16410454,0.01611513,-0.02036900,-0.15573181,0.19990700,-0.17686573,-0.15062799,-0.18691555,-0.22052057,-0.35270798,0.16085118,0.48685831,-0.10446276,-0.40868837,-0.25855091,0.17229599
HOUSE,0.02250929,0.26256087,0.31102020,-0.33264077,0.15077780,0.29771864,0.46082747,-0.12625974,0.05158318,0.04884528,0.01276604,0.12709238,-0.26743743,0.24851924,-0.05535706,0.13460229,0.02617846,0.03126306,0.10588336,0.10341852,0.00121231,0.05722451,0.16229512,0.04994592,0.22321565,0.09529738,0.23033920,-0.00120272,0.32463124,0.06056393,0.06201681,0.08999880,0.03446814,-0.22454098,0.02577192,-0.10017756,-0.34689686,0.04659691,0.10538164,-0.01117529,0.15695253,-0.08133059,-0.04172371,-0.24995723,-0.02120595,-0.08896539,-0.16398612,0.03469972,-0.21693566,-0.03787018,-0.04019210,-0.15902260,-0.12780450,0.20500667,-0.17193915,0.02643262,0.21112603,0.17364813,-0.12174170,-0.19677036,0.01884919,0.39852107,0.14628138,-0.11129450,0.04574173,0.27251121,-0.03525998,0.19515014,0.19859363,-0.20598465,0.06818778,0.45329982,0.12918088,-0.02437329,-0.07122089,0.02199776,0.23867747,0.05293471,-0.01786955,-0.13633636,-0.03578395,0.02081888,0.01054474,-0.02586475,0.13579434,-0.05762126,0.04592888,0.39338034,-0.27972880,-0.00330329,-0.24684906,0.04341364,0.18238664,0.07609120,-0.15564156,0.03203841,0.12528422,-0.30952910,0.13682944,0.11226488,0.45629409,0.12027325,0.08243968,-0.19068190,-0.18415594,-0.06534160,0.30079016,0.21392706,0.00508664,-0.41437143,-0.08674912,0.09483489,0.05082810,0.02724440,-0.17814225,-0.00219292,-0.03412072,-0.07837919,0.04515872,0.32873595,-0.10707784,-0.12866320,0.05157011,0.28121340,0.24606177,-0.13669205,-0.11587625,-0.16732223,-0.25640923,-0.20087980,-0.04713449,-0.48642972,-0.09582389,-0.21546499,-0.28369850,0.15845188,-0.10858846,0.35877630,-0.07928544,-0.04116332,0.05391495,0.07682469,-0.01893150,-0.12005311,0.17695461,-0.05740225,0.20992742,-0.38105619,-0.14181839,0.05375526,-0.14964014,-0.21433398,0.14967270,-0.09145328,0.16339189,0.10026923,0.07185797,0.10642907,0.09838592,-0.12294261,-0.12672284,-0.15020645,0.44771117,0.08213659,0.07205249,0.00811972,0.00794720,-0.06240736,0.02001737,0.16987361,0.18959643,-0.05520915,0.24481972,0.30170700,0.28637379,-0.13337146,0.14617786,-0.72710735,0.53104866,0.14698301,-0.45809728,-0.16180946,-0.22944070,0.27597818,-0.18246947,-0.05660770,-0.38138306,-0.05740181,-0.26273683,-0.12786414,-0.27477080,-0.00743493,-0.02583400,-0.04613823,0.13636030,-2.76101398,-0.02841760,0.07577015,0.13940808,0.05019459,-0.05389983,1.11472785,-0.11844283,-0.04045904,-0.17479767,-0.22482754,0.11750881,0.04508100,-0.15089837,-0.13715881,-0.19478783,-0.16189712,0.03871514,0.11013585,0.19413361,0.00426163,0.24981345,-0.00790446,-0.05252113,0.46100214,-0.08203463,-0.16204935,-0.18229476,-0.03960551,0.27600738,0.06863656,-0.19429566,0.21287291,0.20462428,0.05385879,-0.31396177,0.29650587,0.18472150,-0.11247866,-0.17341194,0.10407520,-0.16890571,-0.16513777,0.29204282,0.17042336,0.25883162,0.17838423,0.09285863,-0.01748065,0.09298129,0.43147257,0.02837034,0.14232053,-0.08177081,0.17327282,0.19776902,0.15619777,0.06897040,0.01705684,0.06179536,0.34748146,-0.09233996,-0.03470677,-0.12813836,0.62991482,-0.12880138,0.18858187,-0.27911890,0.12841240,-0.05724514,-0.15621923,-0.08080980,0.34923297,-0.11436582,-0.03657975,-0.08510883,0.23792423,-0.08320138,-0.17586173,-0.04917657,-0.05441257,-0.05419884,-0.08507816,-0.06310130,-0.09217246,0.00041668,0.20981765,-0.19684997,0.26606756,0.02947090,-0.14090177,0.05635972,-0.21518956,-2.61083269,-0.05096948,0.06242114,-0.27120888,-0.18054646,0.15042399,-0.02520270,0.23611546,-0.23494326,0.06568469,-0.36803013,-0.07465155,-0.40134892,-0.16427341,-0.08266638,0.09699547,0.03302968,0.26319340,-0.12784387,-0.21441852,0.02711630,-0.10419263,0.20069076,-0.14140669,-0.13294178,-0.20669416,0.04792641,0.04655088,-11.82865906,-0.30212939,0.15150878,0.05347798,0.00586957,-0.07049751,-0.05298436,0.11860899,0.01324645,0.17803957,-0.13236164,-0.11730460,0.03944935,-0.48797566,0.17773853,-0.00067677,-0.06412064,-0.19796406,0.07064435,0.01055019,-0.13815330,0.05339829,-0.19720690,0.13789913,-0.09966975,-0.14765304,-0.13667335,-0.13761806,-0.07796546,0.00690117,-0.08655306,-0.03591079,-0.04424782,-0.08997687,-0.05985002,-0.21048588,-0.02702858,-0.05232627,0.18019494,0.24640806,0.08387494,0.03572781,0.14985463,0.03933278,0.17341267,-0.11204707,0.51731217,-0.33484930,-0.06475793,0.12503542,0.29045311,-0.16743976,-0.02383623,-0.13022543,0.16361731,0.01327379,-0.11935870,-0.02361303,0.07031463,0.34425277,-0.06834003,0.14869811,0.20207992,-0.33876559,0.29957023,-0.34670183,-0.20052059,0.21313183,0.00995360,-0.06461057,0.29225814,-0.00058785,-0.18037763,-0.19621322,0.00244125,0.08929713,-0.10599147,0.26093051,0.04863503,0.20201021,0.12313855,0.10059401,-0.01176849,-0.07275665,0.40939432,0.34915683,0.21568401,0.03638772,0.79339540,-0.08059626,-0.07154630,0.03060694,-0.22214378,0.06415524,-0.14945666,-0.25198027,0.10298190,-1.59456885,-0.21994676,0.12639216,0.02457035,-0.09141277,0.15633605,-0.22181204,-0.14609829,-0.16017216,-0.12248451,-0.01698402,-0.13370115,0.18899907,-0.02230498,0.25232017,0.17752601,0.11798884,-0.09710220,-0.12241057,-0.28211072,0.13826212,0.17165233,0.07265106,0.03435110,0.13154693,0.00892829,0.07709932,10.49128246,0.18299636,0.09562340,0.06589331,0.37102765,-0.31905940,0.19730513,0.05097836,-0.09036374,0.23343444,-0.74633634,-0.14553243,0.61239094,0.02373935,0.31299239,0.04897946,-0.14873080,-0.01835542,0.06469011,0.12229082,-0.18673982,-0.18963304,-0.13138135,0.48549554,-0.27836400,0.12573591,-0.03620145,-0.00514102,0.12402488,-0.03833310,0.34004080,-0.12669618,0.16646396,0.10877382,-0.05705979,0.06289127,-0.03742882,-0.10728347,-0.09158680,0.02549972,-0.07729366,0.30509236,-0.09191047,-0.34012106,0.18950799,-0.08136944,0.12176176,0.07813729,0.09844673,0.16094197,0.28051454,0.14921726,-0.34665629,0.28749162,-0.17548944,-0.13348863,0.02850105,-0.19039580,0.22217420,-0.12278417,0.24841364,-0.26824850,-0.07283559,0.19998442,-0.19460924,0.11320810,-0.27432996,0.08910303,0.14792848,0.04063900,-0.06153737,-0.17302719,0.27912357,0.07578973,0.30471691,0.01992264,0.20611779,0.07977437,-0.05009647,-0.15361065,0.10349257,0.41526589,0.08616792,0.00012902,0.05739892,0.16985585,0.10998878,0.13346389,-0.93795615,-0.16440631,-0.03268061,-0.16429052,-0.01739976,-0.13535951,-0.05445149,-0.05833137,0.19158778,0.11382906,-0.23495443,-0.01863008,-0.20509526,-0.07964762,0.14150822,0.11695350,0.03916534,-0.07147468,0.02207183,-0.00673455,0.31541136,0.19836472,0.07313333,0.06440187,0.02610277,-0.31250507,-0.14935079,0.25962999,-0.11994211,0.04445119,-0.18031374,0.20917447,-0.11780213,0.10020859,-0.07223042,0.18875147,0.37158683,0.06572840,0.44632563,0.06277388,0.05239602,-0.01108219,-0.04453679,0.41466343,-0.02439506,-0.13161381,-0.09505856,0.02875547,0.11600982,-0.10053062,-0.01100456,-0.15902403,-0.18529497,-0.20553777,-0.12590565,0.09112249,-0.31871426,-0.26167116,0.16125335,0.07770562,0.28272992,-0.02986708,-0.05885290,0.11218581,0.05566673,0.52294672,0.05377101,-0.10024380,0.04663990,0.01798627,-0.06467891,-0.19770843,-0.05744644,0.13677481,0.00410196,-0.14668630,0.13658661,0.11005794,-0.18615982,-0.01901136,-0.00879742,-0.23871896,0.14164145,0.06138593,-0.21945223,-0.07442365,-0.09368786,-0.15667430,0.06887190,-0.55948001,0.04673878,0.02769238,-0.15879938,-0.15327320,-0.11627913,-0.02268993,-0.11188376,0.22564664,0.01274918,-0.19814517,-0.08005966,0.08645146,0.04569573,-0.01136255,-0.21372518,-0.23280706,-0.03182885,0.55103439,0.09033652,-0.21379873,-0.11308001,-0.10741043,0.19615562,-0.03300232,-0.02245037,-0.07748007,1.59821153,0.06447823,0.18300523,0.07339516,-0.08299872,-0.15767671,-0.31963253,-0.05745061,-0.03581498,-0.22528225,0.12022577,-0.15139446,0.04445238,0.40456417,0.00011677,-0.29164457,-0.22118303,-0.23919493,-0.02946562,0.08558654,0.11426496,0.23815948,0.02268529,-0.02265402,-0.02410978,-0.20895776,0.00438099,0.14870259,0.12581466,-0.07013746,-0.08623734,0.24737014,0.20970069,0.04613592,-0.03604687,0.27335364,0.01905898,0.12413012,-0.25070316,-0.05312687,0.21308033,0.31080395,-0.01001802,-0.20427512,0.27194610,-0.29638129,0.20094050,0.12524439,-0.74799281,-0.29433766,0.00699520,-0.23720680,0.07552182,0.24760531,-0.07385518,0.06685895,0.03662061,0.10857696,0.15871382,-0.65792406,-0.20653430,0.09140045,0.04641020,-0.00024732,0.19389531,-0.27744234,-0.05531129,0.11194614,-0.37442288,0.26539749,0.15968519,0.04603197,-0.09646935,0.10147595,0.27633935,-0.17527451,0.03207215,-0.09576070,0.09368618,0.73245347,0.32163063,0.97784233,0.05905734,0.00895114,-0.18820021,0.14452404,-0.15488389,0.18669163,0.08034424,0.03215809,-0.23622885,0.14508857,0.01372152,0.18803102,-0.09480880,-0.28928906,0.00344381,0.22906373,0.12646893,0.24912387,0.07230166,0.22367452,0.36894715,0.18981610,0.30168799,-0.01700088,-0.35865638,-0.36963594,0.13835162,0.17681950,0.06425858,-0.33268297,0.03973280,-0.29846483,-0.00324950,-0.23089053,-0.26694143,-0.30638069,0.24956648,0.37806299,-0.22057797,-0.21967213,-0.43683529,0.08842404
LIGHTNING,0.21400784,-0.08575732,0.44115883,-0.20244387,0.12129496,-0.02346420,0.40759566,-0.09636183,0.12158438,0.17285007,0.04397781,-0.11327386,-0.27683285,0.31487104,-0.32234526,-0.10531321,0.04293638,0.00996650,-0.12233320,0.23600219,-0.10730582,0.03184838,0.08487248,-0.05325562,0.15265955,0.09395460,0.17602681,0.07139365,-0.03797951,0.06034275,-0.14606269,-0.09405988,-0.03747362,-0.03871459,0.15952857,-0.24650396,-0.07477628,0.07722512,0.09352864,-0.19099785,0.06149238,0.03567616,0.01201996,-0.06908789,-0.01384080,-0.25656307,-0.07652907,-0.22478795,-0.02959369,-0.12878408,0.19621846,0.01511572,-0.13416967,0.45580432,-0.06638300,0.12896609,0.12954205,0.36068943,0.02533317,-0.08177732,0.01793043,0.42128807,0.03744059,0.06274078,0.16844027,0.11199523,-0.05226633,0.10092297,0.11896002,-0.25501537,-0.06819575,0.34506744,0.07592130,0.01887528,0.05716459,0.29285365,0.04913990,-0.00552377,-0.29766560,-0.26412514,-0.01340856,-0.09167797,0.28061521,0.00624776,0.06939941,-0.26104242,0.17662510,0.15387137,-0.46648645,0.03152311,0.13925943,0.00926840,0.04877023,0.10750676,-0.19452113,-0.08484142,0.20123962,-0.17496245,-0.05490627,-0.03562767,0.18394431,0.14902037,0.28788012,0.17786008,-0.17272528,-0.22709706,0.20019788,0.00773292,0.22594412,-0.43739653,0.00489339,0.03802132,0.03390704,0.04300578,-0.17290568,-0.07267686,-0.16161758,0.20639981,0.36776888,-0.04135142,0.09975822,-0.08148224,-0.03739918,0.22239865,0.07175943,0.09037729,-0.04363729,-0.17980669,-0.12788351,-0.05113425,-0.04289452,-0.36437601,-0.04932405,-0.28150246,0.02015057,0.30681697,-0.08564662,0.13992928,-0.04256774,-0.27832797,0.00779010,0.13218988,-0.12218983,0.07409716,0.11031390,0.04546637,0.30376375,-0.37385383,-0.07793321,0.19163762,-0.00003801,-0.20171684,0.12708853,-0.08353516,0.16143063,-0.02461241,0.20895627,-0.06111775,-0.12709965,-0.07044904,-0.08791126,-0.24859779,0.13781580,0.14002322,0.21786040,0.05663854,0.12493423,-0.10290304,0.12233647,0.01188590,-0.00214285,0.15073313,0.09129667,0.15726617,-0.18256055,-0.16338855,0.02146570,-0.91092265,0.56258070,0.28789279,-0.50808549,-0.26491436,-0.16394208,0.03394943,-0.03745462,-0.17326094,-0.13955392,-0.03913705,-0.34304333,-0.14161810,-0.01059029,-0.24453749,0.09524416,-0.12964356,0.04536222,-2.60768414,0.09160097,0.26200321,0.17194486,-0.13916555,-0.04392852,0.94214809,0.04278332,0.18958156,0.12170354,-0.02260956,0.10613678,0.08293130,-0.13638003,-0.00671072,-0.23588604,-0.19744635,0.05291441,0.12246069,0.03655767,0.12955767,0.28996956,0.04604920,0.08324718,0.39157236,0.01879328,0.06910303,0.09186593,0.03179452,0.28011584,0.22728941,-0.20713362,-0.10426556,0.15351650,0.01598866,-0.06864914,0.20227078,0.17389025,0.09000412,-0.06128925,0.07369041,-0.15845662,-0.18224111,0.23921750,0.29132789,-0.06508906,-0.01272353,0.01718923,0.07400279,-0.13458158,0.40250051,0.02511309,0.33277529,0.13786742,0.18005842,0.16072284,-0.17436337,-0.21411793,0.03775308,-0.04465086,0.22033280,-0.14855710,-0.20327452,-0.00167988,0.63055140,-0.07013178,0.17673454,-0.10348874,0.13957754,-0.10721544,-0.07431250,0.06688099,0.21267071,-0.13641685,-0.20832753,-0.00179271,0.08675008,-0.11671296,-0.09792495,0.04115744,0.05697661,-0.06702022,-0.30506352,-0.16619523,-0.16406591,-0.13224883,0.04752785,0.10351202,-0.09358084,0.08962010,-0.18307580,-0.17195794,-0.09878038,-2.24226665,0.21118590,-0.00117626,0.20321290,-0.00432264,0.19556676,0.08934215,0.14170133,-0.38477290,0.00315306,-0.16859159,-0.02506045,-0.22449610,-0.01430436,0.13086729,-0.03125586,0.04006476,0.01133391,-0.11967035,-0.04427516,-0.08349644,0.04177067,0.05582941,-0.19539429,-0.13610162,0.00366158,0.30032137,0.14470164,-10.97977066,0.07469897,-0.03608497,-0.13875762,0.18086337,-0.21582833,-0.02301649,0.30494288,0.03134201,0.33960578,-0.62980962,0.08017837,0.12112020,-0.13336077,-0.02263487,-0.12834467,-0.05293811,-0.21701099,0.34715778,0.10316125,-0.20886435,0.03568445,-0.01458840,-0.10784880,-0.11294568,0.07729165,-0.17709398,0.01806274,-0.16193581,0.13316825,0.20853303,-0.10040057,0.02561055,-0.00130888,-0.10736031,-0.08969370,0.12240098,0.29445943,0.03501212,0.17312095,0.13018182,0.14811867,0.24881861,0.04756321,0.18726093,-0.22835517,0.22225672,-0.34397760,-0.10359110,0.02852936,0.31906810,-0.05252934,0.02149021,-0.05768003,0.05406165,-0.04528122,-0.17025171,-0.02853940,-0.10797175,0.18523480,0.04182536,0.20415187,0.39169601,-0.16260917,0.04483204,-0.33285809,-0.05366671,0.09347987,0.02917686,-0.25963211,0.20326693,-0.13320188,-0.00663704,0.12766132,0.02731781,-0.01696401,-0.06358732,0.23163515,0.15257788,0.17003544,0.16556509,0.11921100,-0.34144416,-0.03086459,0.60339427,0.09977721,0.34016848,0.12754402,0.87819946,0.16350421,0.04000944,0.23210928,-0.07959457,0.17097090,0.12025290,-0.16657606,-0.07661639,-1.49185073,-0.13043423,0.08231120,0.03896766,0.12005341,-0.06618105,0.16320404,-0.34413496,-0.06417132,-0.01213406,-0.06179011,-0.12861812,0.06610882,-0.41871741,0.08545974,0.32420233,0.12909201,0.02917119,-0.10405270,0.14851461,0.08525797,0.12930308,0.36700678,0.07385421,0.08009223,0.00203341,0.02429740,9.70374107,-0.07786773,-0.09604291,-0.03397489,0.14527249,-0.17616692,-0.00747903,0.00157878,-0.06155800,0.06337241,-0.40605274,-0.16781594,0.39526045,-0.06218730,-0.05636075,-0.06150820,-0.15588456,0.24326745,0.15297320,0.06177142,-0.15697661,0.03894504,-0.04211462,0.67380852,-0.03055398,0.04025490,-0.11730053,0.39199731,0.21942517,-0.02506964,0.09917264,-0.12896034,0.04170497,-0.03266973,0.01012260,0.02517338,0.23662783,0.14307989,-0.04806534,0.13256972,-0.25503170,0.09585703,-0.28674045,-0.16155368,0.11136158,0.16825438,-0.13193180,-0.20309998,0.37967366,0.42519569,0.01613384,-0.06425725,-0.03588945,0.20811415,0.18399511,-0.11150520,-0.11750434,-0.04697108,0.01591395,0.03916749,0.00305386,-0.10482324,0.07347249,0.22155562,-0.38816759,0.20164005,0.06108816,0.04531033,0.04409158,0.14815791,0.08413666,-0.16377479,-0.19381005,0.13277498,0.25377086,-0.09801422,0.16157015,0.15187494,0.14740585,0.25784528,0.02089836,0.28443339,-0.02653097,-0.21666715,0.03181018,0.13457622,0.06528919,-0.11133913,-0.83916086,-0.13027355,-0.10961171,0.07965433,-0.00407622,-0.13361910,0.11906840,-0.31893951,0.19683284,-0.01770387,-0.13209754,-0.07288514,-0.13736333,-0.05054335,0.32636374,0.06838744,0.22952978,-0.05034745,0.19631004,0.00174151,-0.22815467,0.17989241,0.27875978,-0.12861796,0.03621203,-0.27897817,-0.39895967,0.17642671,-0.19646123,0.04469543,-0.34798607,0.18385972,-0.49393857,-0.09192485,-0.08645234,0.19649047,0.37710422,0.15158342,0.40617043,0.16448194,0.08976764,0.21679781,-0.08509909,-0.05741683,0.00450865,0.04749513,-0.05488759,-0.05174172,0.23722941,-0.06727639,0.23314789,-0.19617854,0.03641538,0.04064348,-0.09876823,-0.30497292,-0.31108120,-0.20727386,0.05655141,0.27956545,0.39602593,0.05456397,0.09096140,0.05138461,0.07571211,0.21178871,-0.03294317,-0.09071858,0.17873342,-0.00774228,-0.10249764,-0.05380638,0.00164874,-0.02280597,0.23700175,-0.22494411,0.12043340,-0.04327398,-0.06004130,0.27067426,-0.18615331,-0.22835971,0.06578267,0.21987894,-0.10841543,-0.07740741,0.02584341,-0.01161784,-0.09840736,-0.34100562,0.38460177,0.01507837,-0.00622772,0.22486542,-0.03386205,0.28859299,-0.40384689,0.23966739,-0.00291698,-0.28438839,0.00805553,0.19690387,0.15378015,-0.01221162,0.11508676,-0.25753161,-0.08620737,0.01571033,0.04166738,-0.19711779,0.04090456,-0.41113582,0.00902447,-0.23245618,-0.16609329,-0.08030821,1.49834573,0.14963254,0.30432263,-0.11615292,-0.14134218,-0.16466437,-0.18163568,-0.02183479,-0.08659024,-0.12853414,0.11604711,-0.27879715,0.04383222,0.18392578,0.13665746,-0.10521853,-0.37912512,-0.28939846,-0.10551675,-0.12607500,0.26473826,0.32871464,-0.22649232,0.07222514,0.12339815,-0.11561108,-0.04401914,-0.22946721,0.09003542,-0.10301702,-0.08486839,0.19352961,0.08675177,0.20856097,-0.14238092,0.30430123,0.05128846,0.11711938,-0.05113933,-0.10189290,0.07126644,0.21856229,0.04273282,-0.09648968,0.28272319,-0.19858010,0.16684446,0.09954156,-0.51292384,-0.33008778,-0.18004432,0.12027793,-0.20962064,-0.13535547,0.20129354,0.05438175,0.01914227,0.25701082,-0.07365820,-0.92722100,-0.04282844,0.19783424,0.21216673,0.17356624,-0.08698205,-0.03796913,-0.06609978,0.07170718,-0.33760178,-0.09385040,-0.08949410,-0.17941907,0.11537918,-0.17836572,0.06557919,-0.14348496,-0.00068563,-0.02952537,0.16594578,0.21725504,0.73956883,0.65691787,0.12971294,0.02161430,-0.19540349,0.11941124,0.00514494,0.33059379,-0.20652707,0.08930063,-0.20015952,-0.01440289,0.19335403,-0.22001736,0.12037539,0.00848027,0.15253657,0.17145005,0.24579866,0.24796170,-0.01199757,-0.04274428,0.32823211,0.05514631,0.10338092,-0.14033666,-0.01271627,-0.01460257,-0.02473442,0.01350211,-0.24611823,-0.12131739,0.12061632,-0.17524561,0.08069225,-0.16421486,-0.10268101,-0.34897026,-0.03029927,0.21480553,0.08326661,-0.08599501,-0.29523757,0.06395378
STAR,0.14457680,-0.01715640,0.43470332,0.03121098,-0.05376426,0.03069461,0.43409315,-0.04163481,0.30681032,-0.02999215,0.08142692,0.00806197,-0.34659880,0.43165940,-0.04476407,-0.06631933,0.06719424,-0.08586480,-0.11227328,0.08852337,-0.07626338,-0.11957628,-0.01402953,-0.03489858,0.08609622,-0.06559332,0.10255755,0.07897209,0.00080807,0.00178707,-0.06341258,-0.16740961,-0.25087994,0.00773570,0.19602111,-0.19697483,-0.10395513,-0.11539229,0.01507086,-0.18858962,0.05136908,-0.02795135,0.13842607,-0.20331022,-0.01187928,-0.15830052,0.12641852,-0.10865291,0.07234460,-0.31735626,-0.08839455,-0.26203531,-0.17303927,0.38675585,-0.16809866,-0.01945801,0.04941710,0.22307089,-0.07942136,0.08787300,0.09743929,0.22706178,-0.03581538,-0.09432869,0.18234466,0.41119942,-0.27506343,0.21683280,0.22509341,-0.16955893,0.14114739,0.15172283,-0.08908467,-0.01245978,-0.03019840,0.22724478,0.08651543,-0.14554180,-0.04209819,-0.44191095,0.05558341,-0.00090234,0.13707797,0.05724258,0.25194961,-0.10147035,0.08162744,0.08375756,-0.40594676,-0.01612864,-0.01017125,-0.12250949,0.03752055,0.06330099,-0.13746504,-0.09565461,0.04320413,-0.16472912,0.06869008,-0.09113402,0.18164141,0.18303560,0.09765687,-0.05958202,0.02097974,-0.09046941,0.20892514,-0.16115496,0.10940336,-0.72444099,-0.14465514,0.21442971,-0.06464626,-0.19427298,-0.12456074,-0.10710914,-0.07426888,0.22922648,0.63460559,0.02813818,0.03227460,0.06464314,0.00050592,0.03647850,0.26047772,0.23607866,0.09092331,-0.11254315,-0.33535099,-0.18784548,0.10021199,-0.14835763,-0.16781721,-0.15142298,0.13181897,0.22765863,-0.08384027,0.36152980,-0.08796655,-0.01116600,-0.02764707,0.05391997,-0.18541180,-0.03063677,0.16397838,0.22129203,0.15419252,-0.29682234,0.01524916,0.29145762,0.15149704,-0.13718328,0.10192738,-0.20448436,0.14753731,0.22656430,0.01556144,0.19238378,0.04564684,-0.08623119,0.00308439,-0.21982540,0.23878071,0.15960957,-0.00781002,0.03524859,0.28919384,0.04794339,-0.15199853,0.17342876,-0.25428551,0.06212264,0.19028151,0.47844008,0.05329103,0.08814386,0.19001381,-0.91021764,0.72090334,0.27366808,-0.31373411,-0.20236559,-0.28536800,-0.12323136,0.07448681,-0.14877519,-0.12363673,-0.02398375,-0.18697034,-0.02581645,0.00530405,-0.12076856,0.19315302,-0.17389296,0.05123667,-2.57803226,-0.05099022,0.30400133,0.04285941,-0.15610889,0.13648191,0.62669992,-0.09034836,-0.06669109,-0.01254768,-0.13841416,0.03720113,0.00035955,0.00261055,0.02353564,-0.10391220,-0.18991041,-0.03820746,0.04610903,-0.05216160,-0.00277624,0.22693221,0.03784857,0.02225412,0.26633048,-0.06310097,-0.06233778,0.01555270,0.15509994,-0.02539935,-0.12516084,-0.17058180,-0.11329383,0.24561240,0.11615270,-0.15208091,0.11449683,0.21713075,-0.09562860,-0.14661422,-0.03046429,-0.09316189,-0.10676531,0.24568775,0.35693440,0.16586241,0.18616535,-0.03973881,0.08730840,-0.05047832,0.51903743,0.05279311,0.07106157,0.22484733,0.21432434,0.22372296,0.01214414,-0.23925202,-0.05620638,0.10520978,0.41114542,-0.00578599,-0.05377375,-0.14368415,0.62057698,-0.06760394,0.16640164,-0.09025700,0.00136806,-0.10358330,-0.03160999,0.12643611,0.14031552,-0.13296804,-0.29043874,-0.00918861,0.06782684,0.03415541,-0.27755576,-0.04911855,-0.04846197,-0.00914302,-0.13819300,-0.05690851,-0.24077933,0.15657987,-0.02405492,-0.02295335,-0.02051070,-0.08021685,-0.06287578,0.21398635,-0.06243626,-2.40724373,0.19246697,-0.01032124,-0.02665832,-0.10971068,0.05779669,0.09784905,0.26783520,-0.26730204,0.03809305,-0.41617316,-0.08657165,-0.23549542,0.05081378,0.09670881,-0.03034863,0.01924460,0.01148760,-0.25596318,-0.04509174,0.00224062,-0.04044754,0.07346629,-0.11824691,-0.10024803,0.12977296,0.31473783,-0.09299033,-11.13982201,-0.03897478,-0.15092126,-0.11760686,-0.08799253,-0.10289170,-0.05946049,0.11203958,-0.11967687,0.00809755,-0.63488919,0.14245448,0.12937264,-0.03690881,0.02823892,-0.03096157,-0.13222702,-0.12849048,0.36512366,0.10125454,-0.09769706,0.12243505,-0.00302226,-0.31954485,-0.22109400,0.06032820,-0.30700061,0.26690212,-0.24103472,0.11880995,0.12063069,-0.02177137,0.01147076,-0.04054632,-0.13180506,-0.10739826,-0.08734598,0.17970717,0.12643598,0.14548481,0.03874572,0.12799928,0.16333233,-0.11865360,0.16584344,0.06363039,0.27739188,-0.07864191,0.08455837,-0.08007456,0.16788223,0.03445526,-0.00878932,-0.00441515,0.08527707,0.16351511,-0.19531907,-0.12001490,0.00563690,0.09931303,-0.01889005,-0.03997519,0.16882157,-0.12558694,0.01194801,-0.09009923,-0.02887079,-0.09250357,0.01393306,-0.15754829,0.25637701,-0.07310897,-0.22341131,0.16702561,0.16504328,-0.11859886,-0.12176352,0.10682489,0.11676723,-0.07466347,0.18666889,0.08749183,-0.19113834,0.10807806,0.54342520,0.32312816,0.25123057,0.13752884,0.62353992,0.07421683,0.14905515,-0.08679211,-0.21698156,-0.06468595,-0.00084543,-0.28104079,0.15225029,-1.46768439,-0.24528362,0.04993526,0.02711317,0.06666630,0.04671037,-0.11415426,-0.25300500,0.02087471,-0.17969917,-0.03657769,-0.19177549,0.00042268,-0.09969573,0.08170106,0.20389612,0.11475025,0.08418680,0.03280818,0.10495464,0.22552650,0.23231456,0.54638636,-0.05931445,0.14647567,-0.12074124,0.04605282,9.81321716,-0.01440638,-0.17235318,-0.01682896,0.02654447,-0.19271162,-0.13678572,0.19505869,-0.03707549,0.15674771,-0.64477777,-0.23007450,0.53813392,-0.15894829,0.13031538,0.14959359,-0.11285508,0.16554110,0.17434995,-0.01089258,-0.11849882,-0.25134724,-0.10043920,0.71487051,0.04636734,-0.00334533,-0.17191103,0.10881091,0.09824064,0.03195850,0.00927011,-0.11515253,0.04515551,-0.05578616,0.01883793,-0.08598705,0.26954907,0.24042810,0.12088038,0.06424998,-0.25566378,0.12736097,-0.32394448,-0.31946307,-0.03027244,0.10674272,-0.07638877,-0.17389452,0.28278309,0.42994890,-0.00119548,0.08033605,-0.22463587,0.16452882,0.07897944,-0.07168821,0.07181478,-0.20454656,0.00644944,0.03011405,0.02077241,-0.12011520,0.17701450,0.10432403,-0.29421681,0.20810989,-0.03835556,-0.02237301,-0.00583398,-0.04893834,0.01757940,-0.13911049,-0.15957935,0.04596825,0.08868271,0.14198522,0.28124103,0.12323080,0.14260067,0.32449010,-0.00043710,0.09904019,0.06143616,-0.19311702,0.06914122,0.07932197,0.03402909,0.05961072,-0.93336499,-0.31322286,-0.16030835,0.03237342,0.05008361,-0.14301912,0.04825144,-0.02533397,0.15067585,-0.29803735,0.17106199,0.16816290,-0.05678978,0.08535457,0.18825696,0.08923844,0.31412509,-0.09650721,0.15947072,0.16333134,-0.19415855,-0.11181807,-0.07033539,-0.19590068,0.09647955,-0.24408452,0.00052452,-0.00101367,-0.17356133,-0.09295321,-0.28419796,-0.04324345,-0.43843105,-0.16730979,-0.22865792,0.25478017,0.40703818,0.02778090,0.32324409,0.07439767,0.09247292,0.13667718,0.01454884,0.03498956,0.05827298,-0.11681013,0.19213787,-0.13832065,0.23533806,-0.07205110,0.14325072,-0.15961583,-0.10552049,0.01344488,-0.17978720,-0.01274316,-0.43634143,-0.28784648,-0.09005661,0.16048546,0.53265774,0.10457043,-0.05685646,0.04168003,-0.07474364,0.11682189,0.09240401,-0.09255270,-0.00008205,-0.09154052,-0.12663376,-0.11612397,-0.11577548,-0.06831297,0.02394965,0.02446449,0.02705436,0.03927195,0.04770045,0.15321597,-0.20122945,0.05599240,0.17566638,0.17042187,0.05685776,0.02822650,0.04335054,0.23913503,-0.07061303,-0.22280982,0.08634292,-0.09933195,0.01513838,-0.00488039,0.03228063,0.09507054,-0.45265880,0.36477035,0.13584790,-0.34731653,0.01739852,-0.10727286,0.18821914,0.22083637,-0.13225845,-0.22196503,0.01572162,0.06436746,0.13018103,-0.08905295,0.15899540,0.03570439,0.10828155,-0.01562603,-0.11329461,-0.15282349,1.47544563,0.15267937,0.16627905,-0.22051020,-0.00532523,0.06405794,-0.05694002,0.12566037,-0.00245776,-0.13135768,0.40853792,-0.07790581,0.24984789,0.00966346,0.10321423,-0.24034253,-0.40837839,-0.25301811,0.01547996,0.10648428,0.13798638,0.09075420,-0.05368638,0.04973486,0.12809192,-0.13084213,-0.03826785,-0.16891257,0.01952026,-0.17432830,0.00692395,0.13663633,0.01837826,0.14918084,-0.19273631,0.00970929,0.03483953,0.09554847,-0.20114028,-0.14116834,0.02080075,0.18271351,0.22158158,-0.08132404,0.16861272,-0.13937101,0.28133184,0.12270986,-0.46203953,-0.01368111,-0.04938911,0.06615859,-0.17490055,-0.04072306,0.17855057,-0.12127087,0.04950759,0.07226404,-0.23554817,-0.80951029,0.07441641,-0.04491699,0.19948645,0.12308203,0.12351249,-0.09696133,-0.28365114,0.13466620,-0.21790245,0.15649028,-0.04277057,-0.15457360,-0.10702688,-0.01537226,0.15303019,-0.14119932,-0.05262301,-0.02946213,0.11857390,0.13807929,0.73096001,0.86634177,0.16233160,-0.19539644,-0.27626729,0.22472908,0.08806243,0.21989569,0.03427251,-0.07626899,-0.01792694,0.08958820,0.16100816,-0.19054414,-0.08357932,0.03055153,0.19412504,0.03291336,0.06670079,0.29768872,-0.12051272,0.00388813,0.22043522,0.03894704,0.19676574,-0.05239877,-0.01051412,-0.11519097,-0.10802669,-0.14434767,-0.09310373,-0.51627797,0.17783038,-0.01095486,0.04901544,-0.07116545,-0.18111689,-0.32834664,0.01232257,0.17162859,-0.12888484,-0.12638198,-0.24022427,0.18957664
THUNDER,0.24940161,-0.05159480,0.29655102,-0.21652023,0.19628859,0.14590287,0.14910074,-0.11142867,0.17337905,0.15061361,0.01594554,-0.07720479,-0.21794426,0.05764451,-0.15228449,-0.00714700,0.01729330,0.00876583,-0.12457649,0.07717519,0.00335348,0.04182950,0.10379964,0.09578267,0.28098354,0.16544980,0.17979878,0.21836154,0.15721487,-0.06559224,-0.05248265,0.04733173,-0.01795155,-0.14177056,0.18389122,-0.00928708,0.00921496,0.08373667,0.04371271,-0.38121247,0.08935203,0.01246992,0.04206956,-0.07616299,0.09683423,-0.15138902,-0.06757673,-0.03520344,-0.17181802,-0.14546779,0.11667106,-0.00183151,-0.19173844,0.38665521,-0.08884362,-0.02158623,0.19316302,0.26699451,-0.09763352,-0.07500428,0.03604307,0.26733723,-0.06284878,0.06868514,0.10059831,0.18454964,-0.13332440,0.10523853,0.06480344,-0.19593263,-0.07159504,0.42256045,-0.00870176,0.02836467,-0.08006053,0.11886802,0.13936715,0.11773457,-0.26328963,-0.39782730,-0.03849347,0.09993973,0.20213880,0.10908496,0.00255360,-0.20679355,0.06407488,0.19994564,-0.34503603,0.14401095,0.24914928,0.10530778,0.04619915,0.12989919,-0.20597284,-0.15418100,0.08723929,-0.15470716,0.21047898,0.12248767,0.25167176,0.18741943,0.16156839,0.00249608,-0.22593808,-0.06586356,0.08993358,-0.00025992,0.08065906,-0.60400748,0.01836900,0.02791517,-0.05628732,0.18000031,0.04442800,-0.11416469,-0.10977184,0.06547952,0.42620179,0.01290394,0.09198438,-0.15131076,-0.17899722,0.12083447,0.10402668,0.15164065,0.06825931,-0.26601434,-0.14893812,-0.13972902,-0.00621454,-0.25225875,0.09116125,-0.25705978,-0.00566394,0.45297146,0.03514394,0.17898346,-0.00013130,-0.17688352,-0.00666328,0.10039423,-0.08773476,0.04595090,-0.01348071,0.01608692,0.27463612,-0.54432726,-0.11512818,0.28663069,-0.04222976,-0.16952677,0.23438729,-0.00582521,0.25378868,0.06842715,0.19357152,-0.27610669,0.01873626,-0.11088258,0.09674559,-0.19597219,0.09646186,0.09052696,0.06309097,0.00978189,-0.18271911,0.00727065,0.03440199,-0.04471201,0.00282712,-0.11038753,0.28657198,0.25980651,-0.11566219,-0.10801319,-0.05098931,-0.84652251,0.13155529,0.08836246,-0.39025268,-0.01558218,-0.09899139,0.27230439,0.17977226,-0.00991656,-0.07952039,-0.02132026,-0.17178510,-0.24531101,-0.07524563,-0.05965110,0.01157099,-0.00990348,-0.03903831,-2.71359277,0.16953515,0.30273375,0.08443091,-0.11856848,-0.17069907,0.99055618,-0.00709892,-0.04783069,-0.10934552,-0.01393823,0.02908109,-0.02261680,-0.12987013,0.09762473,-0.29447228,-0.18127368,-0.00812933,0.02688172,-0.04498179,0.32601506,0.15424718,0.07204012,0.15914853,0.41376349,-0.05142852,0.01828882,0.13284267,-0.04165681,0.34282121,0.12104478,-0.21364062,0.04085450,0.12398186,-0.07454243,-0.20738035,0.24111031,0.18934686,0.04483986,-0.05496466,0.07340196,-0.19113958,-0.12503608,0.27007741,0.11023074,0.19528913,-0.00205157,0.00469870,0.18489702,0.12500174,0.35239038,0.04587583,0.46672639,0.02507704,0.20601541,0.02161732,-0.21933068,-0.23764269,-0.08051943,0.02102630,0.10844418,-0.19793184,0.08588018,-0.08787077,0.56723893,-0.27604547,0.07662164,-0.07503236,0.05219795,-0.06373688,-0.05639542,0.09235560,0.01773584,-0.17126901,-0.09243707,0.02504802,0.12137270,-0.19374074,-0.15891536,-0.10254470,0.05253947,-0.11634851,-0.22895299,0.13680167,-0.15549688,-0.15031482,0.07199472,-0.01270333,-0.15152518,0.07275192,-0.02319349,-0.05371167,-0.03871483,-2.55012202,-0.02696445,-0.19825999,-0.25044015,0.04868217,0.18446231,0.12891965,0.35372737,-0.45034871,0.06207131,-0.10431442,-0.01611903,-0.21915706,0.03499856,0.00082007,0.23657446,0.21037757,0.24381989,-0.15925913,-0.09423098,0.02511430,0.01318116,0.10769374,0.03200571,0.03134377,-0.19670944,0.21706538,-0.01830245,-11.32385159,-0.07681471,0.08547857,-0.06062262,-0.02557749,-0.19747187,0.06278839,0.30490896,-0.02061019,0.35597524,-0.77799803,-0.00644010,0.14435139,0.10844111,-0.02721751,0.13625805,0.03344556,-0.16540821,0.06837226,0.18105690,0.10146284,0.02098211,-0.10243971,-0.05163262,-0.33331862,-0.23012932,-0.07453156,0.09695832,0.08556115,0.04880841,0.00434864,-0.04175688,0.05943504,-0.08410452,0.14201896,-0.17521514,0.06344339,0.25155067,-0.06847276,-0.04310773,0.07679937,0.03036643,-0.04540313,-0.16610038,0.03644820,-0.22670543,0.30429366,-0.37048838,0.12422088,-0.05889714,0.16723198,-0.01662360,-0.04152035,0.22661883,0.05598849,0.16452706,-0.13773528,0.08657239,-0.11941707,0.21121711,-0.20137787,0.01966349,0.26466858,-0.00614384,0.09540195,-0.43695357,-0.09557801,0.03758276,0.12673636,-0.12069637,0.00850836,-0.15489082,0.07446571,-0.01673345,-0.09481066,0.08205330,0.07317555,0.28849217,-0.02919852,-0.02428733,0.12922503,0.00577547,-0.09141735,0.19026934,0.43825185,0.19274046,0.20119835,0.12568800,0.83384132,0.03696979,0.18430986,0.06404612,0.03784958,0.23669778,0.02011990,0.08602783,-0.17355098,-1.45963287,-0.21053804,-0.06670421,-0.10174111,0.18870002,-0.07646041,0.02801900,-0.36377954,-0.08661855,0.11130733,-0.24369945,0.00644758,0.13562423,-0.22930877,0.06468096,0.19111846,0.13729095,0.01501604,-0.05376284,0.11205532,0.21484095,0.02175467,0.25176948,0.19955020,0.14635994,-0.02805098,0.16104308,10.05660534,-0.01110478,-0.06758010,-0.01824569,0.11447319,-0.30587077,0.11641907,0.08048476,0.04253043,0.11750054,-0.55507612,-0.10940409,0.38970661,0.11774904,0.11533251,0.00136897,-0.05727215,0.02626134,0.11020602,0.07745921,-0.22189315,0.04741124,0.03440204,0.76280403,0.11849894,0.09018401,0.26129925,0.19418772,-0.02186888,0.18129855,0.04712673,-0.16248791,0.07627711,0.19497550,-0.04635426,-0.06044014,0.37677181,-0.04659345,-0.08635627,0.21865408,-0.13682026,0.10572001,-0.20427360,-0.24610423,0.12290411,0.07703239,-0.08252285,-0.28237870,0.39753476,0.39169660,0.10038605,-0.11330342,-0.31054929,0.07067049,-0.09842791,-0.02300441,-0.05154173,-0.25415325,0.09170125,-0.12696989,0.24752797,-0.12204608,0.02512880,0.33217123,-0.21672313,0.06736807,-0.06222756,0.12049638,0.03830215,-0.01565245,0.00465332,-0.24159156,-0.04747852,-0.09280955,0.11381427,-0.08717033,0.16711791,0.25100353,0.18454118,0.10416380,0.06085038,0.08703956,-0.05668868,-0.00033629,0.18870132,0.14439459,0.06585983,-0.03412027,-0.78544283,-0.20964004,-0.15907185,-0.04026816,-0.06547723,0.03220106,0.08542543,-0.09542713,0.24193454,-0.00688642,-0.01659766,-0.04944311,-0.18820627,-0.13741747,0.49480811,-0.03851142,0.03293608,-0.01221018,0.03920828,0.03194545,-0.11312208,0.07291954,0.31693229,-0.08204041,0.00964647,0.05494602,-0.20619339,0.24714983,-0.34622824,-0.02288578,-0.19812220,0.07335027,-0.36597109,0.02219602,0.08348317,0.31151900,0.15766032,0.07262103,0.40535617,0.17678452,-0.05602023,0.00173391,-0.20006891,-0.07471018,-0.01382307,-0.02844810,-0.12946880,-0.06048409,0.19644798,0.04096337,0.06774410,-0.17843455,0.22165827,-0.03267384,-0.11191327,-0.08388737,-0.34036529,0.05793788,-0.02858414,0.05053706,0.22752923,-0.05969456,0.02817897,0.17668425,0.02111028,0.15580054,0.08873224,-0.07587615,0.02042665,-0.03463340,-0.05883807,0.16229810,-0.03520839,0.17030720,0.11736811,0.07012325,0.30035904,0.17880817,0.01169488,0.28054962,-0.01868896,-0.20103663,-0.12293760,0.02139260,-0.07485288,-0.05088059,-0.01414292,-0.01513828,-0.05108727,-0.61671859,0.24182820,0.04434657,0.24971606,0.13742952,0.06658327,0.35339785,-0.31780949,0.52421290,-0.02682994,-0.17222194,-0.13693802,0.32309306,0.05085493,0.03465131,0.11570109,-0.01461972,-0.02562089,0.10132548,0.10575443,-0.11942756,0.02919211,-0.23708372,-0.00799833,-0.10097083,-0.14817561,-0.10730521,1.46448863,0.24448146,0.23854333,-0.20820235,-0.03047961,-0.11948321,0.00475885,-0.12101963,0.09737936,-0.14013277,0.32984626,-0.18806611,0.08154682,0.09430599,0.06161694,-0.25982308,-0.32215685,-0.31296736,-0.07561949,-0.04274252,0.21641608,0.15704644,-0.07907261,0.01438999,0.16481115,-0.08503906,-0.08228425,-0.04315160,0.02698340,-0.09237057,-0.07977119,0.05084312,0.22078569,-0.04410142,-0.36469397,0.18014169,-0.06096613,0.22047894,0.02552163,-0.18326049,0.14755021,0.05348780,0.08459432,-0.04505929,0.13231735,-0.16682041,0.31350353,0.19988631,-0.38228431,-0.22685678,-0.08091477,0.10664392,-0.02783804,0.09431732,-0.11067484,-0.18345535,0.23203762,0.13629879,-0.08114306,-0.73120356,-0.07440753,-0.01628151,0.07186348,0.04371780,0.03939190,-0.16557047,-0.09351412,0.08563653,-0.27109662,-0.10223693,-0.06245892,-0.09203729,0.10202657,-0.09276231,0.08339310,-0.17366326,0.05063784,0.10482034,0.32555261,-0.05627524,0.47736037,0.38109577,0.00498848,-0.11830173,-0.14594780,0.04434310,0.15580438,0.29118860,0.00594569,-0.02020306,0.09649687,0.15443185,0.20507330,0.12716293,0.09509430,-0.14608192,0.26844403,0.27697006,0.11708746,0.22536127,-0.00800970,-0.04574485,0.30069867,0.08691321,0.21232305,-0.20661645,-0.12997155,-0.02465451,0.20976739,-0.03144342,-0.28784049,-0.11903492,0.12923174,-0.09191186,0.03806487,-0.07649758,-0.13422011,-0.35325065,0.13339899,0.29502821,0.01493684,-0.09401730,-0.46223918,0.26375392
