,dim_0,dim_1,dim_2,dim_3,dim_4,dim_5,dim_6,dim_7,dim_8,dim_9,dim_10,dim_11,dim_12,dim_13,dim_14,dim_15,dim_16,dim_17,dim_18,dim_19,dim_20,dim_21,dim_22,dim_23,dim_24,dim_25,dim_26,dim_27,dim_28,dim_29,dim_30,dim_31,dim_32,dim_33,dim_34,dim_35,dim_36,dim_37,dim_38,dim_39,dim_40,dim_41,dim_42,dim_43,dim_44,dim_45,dim_46,dim_47,dim_48,dim_49,dim_50,dim_51,dim_52,dim_53,dim_54,dim_55,dim_56,dim_57,dim_58,dim_59,dim_60,dim_61,dim_62,dim_63,dim_64,dim_65,dim_66,dim_67,dim_68,dim_69,dim_70,dim_71,dim_72,dim_73,dim_74,dim_75,dim_76,dim_77,dim_78,dim_79,dim_80,dim_81,dim_82,dim_83,dim_84,dim_85,dim_86,dim_87,dim_88,dim_89,dim_90,dim_91,dim_92,dim_93,dim_94,dim_95,dim_96,dim_97,dim_98,dim_99,dim_100,dim_101,dim_102,dim_103,dim_104,dim_105,dim_106,dim_107,dim_108,dim_109,dim_110,dim_111,dim_112,dim_113,dim_114,dim_115,dim_116,dim_117,dim_118,dim_119,dim_120,dim_121,dim_122,dim_123,dim_124,dim_125,dim_126,dim_127,dim_128,dim_129,dim_130,dim_131,dim_132,dim_133,dim_134,dim_135,dim_136,dim_137,dim_138,dim_139,dim_140,dim_141,dim_142,dim_143,dim_144,dim_145,dim_146,dim_147,dim_148,dim_149,dim_150,dim_151,dim_152,dim_153,dim_154,dim_155,dim_156,dim_157,dim_158,dim_159,dim_160,dim_161,dim_162,dim_163,dim_164,dim_165,dim_166,dim_167,dim_168,dim_169,dim_170,dim_171,dim_172,dim_173,dim_174,dim_175,dim_176,dim_177,dim_178,dim_179,dim_180,dim_181,dim_182,dim_183,dim_184,dim_185,dim_186,dim_187,dim_188,dim_189,dim_190,dim_191,dim_192,dim_193,dim_194,dim_195,dim_196,dim_197,dim_198,dim_199,dim_200,dim_201,dim_202,dim_203,dim_204,dim_205,dim_206,dim_207,dim_208,dim_209,dim_210,dim_211,dim_212,dim_213,dim_214,dim_215,dim_216,dim_217,dim_218,dim_219,dim_220,dim_221,dim_222,dim_223,dim_224,dim_225,dim_226,dim_227,dim_228,dim_229,dim_230,dim_231,dim_232,dim_233,dim_234,dim_235,dim_236,dim_237,dim_238,dim_239,dim_240,dim_241,dim_242,dim_243,dim_244,dim_245,dim_246,dim_247,dim_248,dim_249,dim_250,dim_251,dim_252,dim_253,dim_254,dim_255,dim_256,dim_257,dim_258,dim_259,dim_260,dim_261,dim_262,dim_263,dim_264,dim_265,dim_266,dim_267,dim_268,dim_269,dim_270,dim_271,dim_272,dim_273,dim_274,dim_275,dim_276,dim_277,dim_278,dim_279,dim_280,dim_281,dim_282,dim_283,dim_284,dim_285,dim_286,dim_287,dim_288,dim_289,dim_290,dim_291,dim_292,dim_293,dim_294,dim_295,dim_296,dim_297,dim_298,dim_299,dim_300,dim_301,dim_302,dim_303,dim_304,dim_305,dim_306,dim_307,dim_308,dim_309,dim_310,dim_311,dim_312,dim_313,dim_314,dim_315,dim_316,dim_317,dim_318,dim_319,dim_320,dim_321,dim_322,dim_323,dim_324,dim_325,dim_326,dim_327,dim_328,dim_329,dim_330,dim_331,dim_332,dim_333,dim_334,dim_335,dim_336,dim_337,dim_338,dim_339,dim_340,dim_341,dim_342,dim_343,dim_344,dim_345,dim_346,dim_347,dim_348,dim_349,dim_350,dim_351,dim_352,dim_353,dim_354,dim_355,dim_356,dim_357,dim_358,dim_359,dim_360,dim_361,dim_362,dim_363,dim_364,dim_365,dim_366,dim_367,dim_368,dim_369,dim_370,dim_371,dim_372,dim_373,dim_374,dim_375,dim_376,dim_377,dim_378,dim_379,dim_380,dim_381,dim_382,dim_383
BAG,0.05794064,0.12696330,0.07386926,0.09830631,0.07636961,0.07719667,0.22416452,0.04901345,0.11874224,0.06008215,0.09736660,0.06246376,0.03618579,0.11043108,0.03081504,0.05670480,0.11674333,0.07491466,0.01034962,0.08881834,-0.02176893,0.11035644,0.02535229,0.07889392,0.01964136,0.11766725,0.04464108,0.06544369,0.10212790,-0.03078007,0.08625118,0.08752590,0.06488668,0.04392407,0.04888346,0.13071816,0.10618234,0.07894097,0.05171722,0.04291586,0.03641887,0.00057031,0.08835253,0.08102091,0.08058826,0.09897214,0.08403267,0.09235138,0.07635557,0.05628913,0.05009495,0.06862806,0.06480660,0.12408411,0.06743929,0.07216033,0.09183390,0.04546466,0.05908185,0.04185772,0.14475578,0.05879818,0.05923507,0.07859930,0.08716425,0.00799445,0.00731147,0.06424300,0.07424089,0.10121749,0.08855983,0.08603728,0.06806561,0.08391197,0.12332232,0.02327511,0.10290494,0.05502153,0.09996168,0.13805377,0.09677976,0.06873550,0.03260733,0.08603378,0.04539380,0.06933074,0.09434924,0.06502279,0.05817308,0.08407647,0.02810234,0.05971361,0.09048288,0.06892616,0.07078155,0.04895316,0.02470854,0.06144732,0.09404214,0.23873897,0.06788322,0.11269060,0.08078132,0.12619287,0.04941551,0.01875737,0.05573575,0.08458003,0.03882818,0.10665372,0.04830148,0.07880928,0.02684436,0.11808869,0.02628034,0.11771993,0.08444523,0.10149485,0.08887713,0.11875929,0.06415283,0.06497276,0.09996404,0.03660773,0.02080125,-0.01698963,0.13241012,-0.00000000,0.05775025,0.02528162,0.09589348,0.12093621,0.11051747,0.06671900,0.07608432,0.04778361,0.10988611,0.08654869,0.06297778,0.07827205,0.04834658,0.09233484,0.14898778,0.02870718,0.06897523,0.13352574,0.11937720,0.05669003,0.07614860,0.07148276,0.06955894,0.08800867,0.07127807,0.08559087,0.08140838,0.03036075,0.10288931,0.04580893,0.05363408,0.10172661,0.04783609,0.03500422,0.09682532,0.09773444,0.07968883,0.00477863,0.07206959,0.01908156,0.08378840,0.04465006,0.08500381,0.06989346,0.10450505,0.11457691,0.11553044,0.05463460,0.01552654,0.10429320,0.06964745,0.04780488,0.07931539,0.02415846,0.06678408,0.04523767,0.05824415,0.10284623,0.04427374,0.07459433,0.09712815,0.14175990,0.06550780,0.11384607,0.12311149,0.03795967,0.08390243,0.05637877,0.09732400,0.05819130,-0.03205956,0.07061394,0.07670457,0.09212420,0.11091286,0.05282442,0.06327263,0.04394055,0.02468235,0.03810472,0.08012038,0.03109516,0.04717369,0.15060146,0.11944613,0.09203760,0.05734608,0.02193014,0.10239608,0.04883409,-0.01416456,0.08803537,0.11681101,0.07097357,0.02550677,0.00000000,0.10555033,0.09216344,0.09551791,0.14950301,0.11190330,0.03885447,0.06473450,0.07612795,0.09094650,0.15989958,0.08528076,0.03390538,0.13284530,0.08874325,0.10694686,0.09960561,0.13886589,0.07315399,0.05783070,0.06581829,0.08108641,0.08958083,0.06683159,0.07862141,0.01200152,0.09634811,0.10426854,0.03336785,0.04150321,0.02091319,0.08187571,0.05636130,0.06311502,0.06052219,0.01662792,0.19081506,0.10113049,0.13189591,0.06261238,0.05771184,0.12896226,0.08401552,0.07268618,0.16344801,0.07563751,0.05086365,0.07939492,0.09683077,0.09905707,0.04092358,0.08470829,0.07686020,0.03719356,0.06632244,0.07731352,0.11602926,0.03303383,0.03341926,0.03855994,0.04545255,0.06932117,0.09381527,0.00697169,0.08497708,0.03981886,0.09415610,0.07064938,0.05354147,0.02466667,0.07203216,0.11487149,0.08188479,0.06405094,0.07695458,0.01587829,0.11776627,0.08255889,0.07993174,0.06687325,0.09058855,0.06368799,0.02050357,0.02287120,0.10277021,0.11364516,0.10319376,0.12357558,0.05764740,0.04772983,0.06937325,0.06544113,0.08778282,0.08468685,0.07603777,0.07240928,-0.00000001,0.08227086,0.05906552,0.08274758,0.06256072,0.06788657,0.10665823,0.10510741,0.16414429,0.09675092,0.13104568,0.08935984,0.08978548,0.12060952,0.11347283,0.04839341,0.07045420,0.04033668,0.05909581,-0.02804023,0.04317198,0.08705205,0.02516241,0.12709756,0.12350498,0.10125303,0.03341741,0.10156817,0.12869051,0.10567613,0.13028786,0.07629268,0.08312229,0.07545050,0.05669480,0.06808570,0.05255590,0.08464257,0.07998508,0.08015172,0.06861503,0.05610315,0.06718896,0.08784681,0.08151327,0.06143134,0.06126644,0.06706710,0.08002508,0.06327576,0.07320672,0.07215054,0.07629358,0.05890431,0.12290030,0.11529084,0.11045881,0.07708583,0.04125087,0.03420715,0.07755850,0.17240991,0.12225994,0.11733820,0.10132321
CLOUDS,0.15314701,0.08793715,0.06364356,0.09922643,0.06093893,0.05609857,0.17464545,0.08939761,0.17954908,0.04142400,0.06505051,0.07378832,0.03372903,0.04695380,0.06321453,0.03014039,0.04856812,0.06829557,-0.00002480,-0.00469876,0.06996711,0.08991128,0.00658366,0.09840941,0.05543673,0.12026228,0.08107131,0.05720066,0.09906690,-0.02357798,0.10844056,0.11693155,0.06154486,0.05453653,0.09060425,0.14077887,0.04201870,0.06547935,0.08139801,-0.00440115,0.04483795,0.01440665,0.04978073,0.07650531,0.05971891,0.02415209,0.06428058,0.07788319,0.09046428,0.04503726,0.06041709,0.02060365,0.03252980,0.08115061,0.06171907,0.07448356,0.02497315,0.08605761,0.04226910,0.02488677,0.12630020,0.02650583,0.03681694,0.06501421,0.10522355,0.04794902,0.01004692,0.09664460,0.05071864,0.04716172,0.05534312,0.10304271,0.07341646,0.07819993,0.06729421,0.04139704,0.06293451,0.03222163,0.08749807,0.08693951,0.09148669,0.11340144,0.05438998,0.05192486,0.05914534,0.07469457,0.10725113,0.07279323,0.04091169,0.07187530,0.03797384,0.03763545,0.13373244,0.09912532,0.01156691,0.13448945,0.05971712,-0.00726837,0.02381457,0.22335857,0.02929790,0.12962937,0.07521706,0.08313064,0.07155780,0.05848388,0.16592868,0.10134170,0.10409216,0.01518581,0.02078062,0.05722414,0.06612057,0.05752585,0.04770548,0.09086969,0.07503326,0.05648629,0.11970779,0.07684355,0.07673126,0.06462193,0.15160830,0.07379595,0.02955791,-0.02082515,0.09120365,-0.00000000,0.09760210,0.06805384,0.11078751,0.07321397,0.12666377,0.07251754,0.07880528,0.03957101,0.01811816,0.04984640,0.02896789,0.12730245,0.08465034,0.10869589,0.18419373,0.08256669,0.03333489,0.11108092,0.10584723,0.04801957,0.04449963,0.05850140,0.01076941,0.05360686,0.07594307,0.07655223,0.07381015,0.04547885,0.06096718,0.02923702,0.05348818,0.12066494,0.12785251,0.07863045,0.07174282,0.07616142,0.05058463,0.02922679,0.05371023,0.03174925,0.03986569,0.10920610,0.04686189,0.13155030,0.05134948,0.08030244,0.10263765,0.10874367,0.02556171,0.10901225,0.05067642,0.04501949,0.04121845,0.00721595,0.06544122,0.03285210,0.11339131,0.10656337,0.05890985,0.04630143,0.05035920,0.07398787,0.03264565,0.08222867,0.07309742,0.04767248,0.06926757,0.06313489,0.05422762,0.08652742,0.01208581,0.04568692,0.10730793,0.03508206,0.08881131,0.07892980,0.04757006,0.05222172,0.12167768,0.07510636,0.08354806,0.03556995,0.03518986,0.09514128,0.13986582,0.08308803,0.02557739,0.03399962,0.02961094,0.13346581,0.03688505,0.09763971,0.18275124,0.07657745,0.04236681,0.00000000,0.04490446,0.04127688,0.05038491,0.15664175,0.09901745,0.05819065,0.05996669,0.08504102,0.05916773,0.07869666,0.09637889,0.06022800,0.12530699,0.06882039,0.04479672,0.03623017,0.14787717,0.09003747,0.02889370,0.08038772,0.05326113,0.07841484,0.04753099,0.01121446,0.01974843,0.11931124,0.12901174,0.06422452,0.03324954,0.08104635,0.06349614,0.06545598,0.05260005,0.05961187,0.01485254,0.10370101,0.09974296,0.09157106,0.00473405,0.11753080,0.07336549,0.09786503,0.12065475,0.15494539,0.05156828,0.09168245,0.03462952,0.09740566,0.06305727,0.01863527,0.05310342,0.03693545,0.10062916,0.06620801,0.14484049,0.05195881,-0.00902367,0.05797897,0.08552030,0.05367755,0.10331333,0.08315787,0.06776290,0.08486557,0.07915705,0.06618237,0.07812364,0.10444531,0.06063649,0.05479950,0.09003201,0.08852638,0.08188433,0.08367353,0.03687255,0.05113703,0.07488077,0.09342832,0.05484200,0.08656338,0.04793769,0.04542528,0.04920910,0.10981598,0.06276321,0.05277465,0.05814819,0.03080993,0.03556230,0.06076446,0.01471488,0.07048208,0.01767298,0.07756419,0.06504155,-0.00000001,0.03377705,0.03162593,0.09240296,0.01547921,0.10300756,0.06245966,0.10385603,0.13066106,0.07281487,0.13335277,0.02394071,0.04439413,0.04875047,0.11873592,0.09094370,0.06782072,0.04885459,0.04600183,0.01957040,0.08426498,0.09791738,0.06680766,0.07089917,0.08618215,0.05370718,0.04784667,0.05371804,0.13227810,0.02723446,0.11011414,0.12380561,0.14338167,0.12158349,0.06304821,0.11040452,0.03960268,0.06171488,0.09653386,0.05502566,0.10341190,0.04383481,0.07183376,0.07791542,0.09879269,0.05810603,0.04396003,0.09776576,0.07741593,0.03741179,0.08057777,0.09037875,0.08855928,0.06832378,0.11310660,0.09314869,0.05924930,0.07547526,0.08909878,-0.00434928,0.09629344,0.22551231,0.12445254,0.09870054,0.05246519
DRAGONFLY,0.08474598,0.09252611,0.02583917,0.10435037,0.11025912,0.05106254,0.18102670,0.05686643,0.08386303,0.04187976,0.09215033,0.03710018,0.07845119,0.06405585,0.04617837,0.08864671,0.09924585,0.03570025,-0.00435446,0.12856686,0.03409076,0.06601072,0.09394271,0.09814113,0.07087129,0.07470344,0.04825682,0.07388754,0.18792041,-0.03647323,0.05105269,0.11604781,0.14983784,0.06801748,0.08492149,0.16614923,0.08555724,0.02286151,0.07096379,0.02271936,0.07216319,0.05000875,0.05686763,0.03943654,0.05185042,0.10409094,0.04185851,0.06041789,0.11244953,0.10078955,0.08285201,0.00580529,0.00796252,0.06036596,0.07298684,0.07566538,0.06781254,0.09449101,0.06251980,0.06508382,0.10369961,0.08679785,0.03147997,0.08603972,0.08696786,0.03933746,0.04641289,0.06420736,0.10008520,0.06969145,0.06248729,0.06282196,0.04342991,0.09601008,0.05280774,0.06960546,0.09062552,0.01831945,0.09446017,0.08351305,0.13336198,0.09186804,0.02583180,0.05731209,0.06096317,0.07530531,0.06270452,0.07737602,0.09828077,0.07752584,0.06332297,0.09455902,0.12682039,0.06267829,0.04454139,0.07764494,0.10007020,0.04673743,0.08225153,0.26521376,0.04217124,0.05561566,0.06122630,0.07628090,0.02795698,0.02360132,0.07341506,0.05178433,0.08232713,0.07605729,0.00930010,0.03271742,0.04426619,0.08409994,0.04575748,0.11341353,0.06072805,0.12853649,0.07740678,0.08246811,0.11040684,0.08282609,0.13583733,0.06855340,0.03241123,-0.01831546,0.07483204,-0.00000000,0.09670679,0.04716552,0.08239810,0.16255791,0.09723227,0.05288505,0.05404994,-0.00117087,0.00759237,0.06205720,0.09718538,0.05540708,0.08808577,0.04864790,0.13526255,0.05136379,0.05811925,0.09169114,0.13444193,0.06386631,0.04379657,0.11340073,0.02689380,0.07528831,0.05859441,0.04861588,0.05589662,0.03365961,0.06658157,0.07279290,0.12516418,0.09460805,0.07061917,0.05220031,0.05080471,0.16956981,0.06441029,0.03355310,0.06889176,0.09167974,0.08121961,0.09051067,0.04949921,0.04572663,0.14713471,0.06392171,0.11218378,0.03449574,0.04486015,0.09861660,0.04549944,0.03773404,0.10060197,0.02410612,0.04490883,0.03384808,0.06517511,0.10018475,0.04552348,0.05405231,0.14106968,0.05402957,0.05737263,0.06185985,0.18406560,0.09617102,0.05518701,0.06873009,0.09748252,0.08037885,0.02077330,0.05141446,0.12135399,0.04296408,0.08484159,0.01970208,0.09469428,0.05177755,0.11047845,0.04031501,0.04167667,0.08038475,0.04929857,0.10313414,0.13194613,0.05549777,0.06622631,0.04802002,0.04823397,0.08733610,0.04270168,0.09813970,0.14145035,0.09760766,0.01591537,0.00000000,0.03995131,0.03903482,0.05697731,0.22417480,0.10137599,0.03211903,0.09669548,0.11900523,0.08305983,0.08328743,0.07442264,0.05508671,0.14006841,0.09053423,0.09073585,0.04312614,0.10060751,0.09950269,0.07431702,0.05808933,0.06719740,0.07157187,0.05818278,0.07211030,-0.00406504,0.10134437,0.10116620,0.09166141,0.06064911,0.07290889,0.09607659,0.08622889,0.09602674,0.07532740,0.01758630,0.13316169,0.14465600,0.10576768,0.02999365,0.10527304,0.08045106,0.08555256,0.10100281,0.11676534,0.06576371,0.08302335,0.12411721,0.10841902,0.05529255,0.09686945,0.06416237,0.07529863,0.11552573,0.06283439,0.09722968,0.03647189,0.07630976,0.05460197,0.09786503,0.02108957,0.05448600,0.06835634,0.02429328,0.13775979,0.06199477,0.08989596,0.04728612,0.11100325,0.07649294,0.06975280,0.11361140,0.05027811,0.03793011,0.08956666,0.06490122,0.03792652,0.07446052,0.08170971,0.05314317,0.06216534,0.03710191,0.06611282,0.03801027,0.06476391,0.12068068,0.07931263,0.10262509,0.09096706,0.07440172,0.04536267,0.03972029,0.08459273,0.10050929,0.04892446,0.07252701,-0.00000001,0.06316109,0.08274441,0.12478727,0.03594214,0.12467940,0.07539637,0.11530118,0.04972126,0.04203586,0.15616764,0.07823506,0.08101122,0.10970334,0.11166579,0.11353604,0.05725827,0.03935580,0.05244844,0.01295423,0.06008140,0.10606293,0.06649081,0.07584611,0.04651076,0.03861450,0.03304303,0.06300960,0.16962883,0.13582757,0.09504846,0.04298795,0.10015039,0.04634828,0.06275330,0.06753487,0.06412967,0.07063190,0.04931795,0.10880746,0.07794607,0.07509030,0.08181768,0.10634077,0.05018020,0.09283284,0.05548584,0.10067189,0.08653331,0.02794926,0.06041251,0.05958019,0.07330577,0.09219818,0.11414384,0.07973870,0.07018889,0.07986464,0.09980839,0.04792525,0.07353897,0.15178651,0.06779512,0.05934333,0.05519502
EARTH,0.10568132,0.11805788,0.07072406,0.10129560,0.06495623,0.03356987,0.15628883,0.09973606,0.07801191,0.09610889,0.10953869,0.10285281,0.04397402,0.08203577,0.05122483,0.09011218,0.06829748,0.09820234,0.06027948,0.13151456,-0.00328037,0.17373370,0.03026494,0.10523753,0.06449061,0.14864536,0.10958589,0.07368364,0.12676379,-0.01230781,0.07221563,0.14056706,0.12571838,0.03356911,0.05054476,0.11953411,0.12718673,0.07005359,0.10610525,0.04189891,0.03818392,0.00559091,0.09783509,0.04832625,0.07754759,0.07967818,0.09621504,0.06328681,0.09873910,0.06496266,0.08241155,0.02324091,0.02674810,0.08710925,0.07217302,0.08606289,0.09539132,0.04435912,0.09605832,0.05375594,0.17120253,0.07152598,0.08206096,0.06966135,0.13254389,0.07284430,0.07307509,0.08067669,0.05073871,0.05205296,0.04653367,0.09050039,0.04858544,0.06463167,0.10270180,0.06028404,0.08742760,0.05659704,0.08201836,0.11519279,0.12771112,0.04575441,-0.00254058,0.06325429,0.13983347,0.06906928,0.05444662,0.09351059,0.06343094,0.07258590,0.09290104,0.14981078,0.10808139,0.08154754,0.06424350,0.08946331,0.08108594,0.02478569,0.04605291,0.25813818,0.05512074,0.09192462,0.08123886,0.15003517,0.06918775,0.03598441,0.06594201,0.11383148,0.05820542,0.10174814,0.01354786,0.05140187,0.06297018,0.11939748,0.06452018,0.09275350,0.07893527,0.06326410,0.09105081,0.05127436,0.08498336,0.06524027,0.06351687,0.06776881,0.06727597,0.01003512,0.10454061,-0.00000000,0.08750424,0.06826758,0.12597503,0.08035888,0.10251386,0.12453204,0.02500979,0.03572899,0.07940082,0.08904237,0.08700552,0.10685765,0.04353208,0.09160470,0.14762397,0.08136443,0.08520162,0.12330832,0.13329272,0.09065899,0.05829714,0.12416290,0.03836181,0.07809301,0.09449509,0.10042745,0.07222244,0.05200354,0.06036048,0.03138847,0.11197575,0.09671413,0.09961858,0.06326687,0.05980830,0.05116336,0.05914937,0.04793312,0.03545170,0.01776586,0.09869998,0.08637132,0.08204286,0.06563789,0.12089384,0.13424376,0.11769630,0.07399067,0.03033792,0.10850844,0.02747923,0.04392090,0.05794729,0.08734880,0.09649014,0.07156193,0.07149758,0.08183227,0.03313285,0.06952535,0.06671555,0.13123068,0.07796238,0.04319594,0.13919838,0.07721538,0.04291152,0.06301124,0.08238642,0.04623603,0.03588168,0.07037764,0.10217334,0.12272777,0.10316973,0.06995980,0.11363799,0.10161713,0.06369676,0.09689710,0.07156087,0.08303086,0.06510431,0.10894383,0.13582176,0.06561984,0.04313553,0.01086211,0.09545255,0.09288804,0.02591094,0.04835310,0.12187520,0.07813719,0.04127993,0.00000000,0.09815573,0.05528209,0.06216715,0.18312064,0.09742472,0.03202478,0.08157293,0.07891790,0.01320353,0.11166151,0.12486145,0.09499337,0.16080073,0.10530367,0.10071991,0.03443106,0.11751839,0.07361797,0.11426225,0.07971070,0.07227145,0.06519476,0.02490457,0.11589190,0.05024127,0.11830717,0.16555874,0.07747254,0.07571880,0.10139834,0.05428055,0.05358398,0.07429656,0.07168788,0.06833030,0.19504113,0.14850324,0.10499986,0.04308911,0.06672503,0.12320862,0.09310386,0.12363508,0.12893997,0.07784849,0.06261274,0.05009193,0.11526783,0.03341241,0.07878665,0.06775034,0.11838190,0.04183655,0.05862129,0.07108293,0.07695002,0.07365787,0.04310440,0.13774309,0.05433199,0.09342512,0.09063292,0.02123056,0.12557401,0.03255140,0.07708842,0.03458484,0.09838332,0.06023546,0.11467117,0.12047789,0.07032049,0.08358414,0.06218212,0.04689451,0.08525953,0.07093491,0.06217287,0.09682405,0.04553756,0.04031041,0.08866971,0.04962578,0.10906015,0.07495003,0.04163672,0.09665071,0.07453883,0.10057177,0.08217010,0.08478273,0.14415205,0.08524443,0.09118719,0.06864540,-0.00000001,0.11593090,0.10251997,0.07800097,0.07513801,0.13951725,0.09363163,0.15130518,0.10794511,0.08951352,0.15607344,0.05424546,0.06133518,0.07530022,0.11278080,0.12849025,0.05715394,0.05307008,0.06389903,0.02287169,0.09597193,0.06718609,0.06099855,0.07423972,0.05865042,0.02890320,0.04219298,0.11794817,0.10043527,0.09052521,0.13759319,0.10272103,0.10957164,0.00150225,0.05429357,0.08492719,0.04614323,0.05310005,0.09154986,0.09169354,0.07635032,0.03687130,0.13177954,0.07913125,0.06411062,0.09399024,0.07604387,0.09969939,0.07176995,0.07272971,0.08738625,0.06470264,0.04324180,0.06339552,0.11529666,0.12931135,0.10750775,0.08898526,0.07897431,0.01333172,0.11938400,0.15340129,0.05449016,0.12598585,0.08866824
FEATHER,0.05490241,0.14636610,0.01890394,0.04833750,0.05435487,0.06650076,0.14892156,0.04726749,0.08440064,0.05603302,0.10064171,0.03506491,0.08430383,0.06289303,0.02271253,0.06072067,0.06369183,0.08647830,0.01943844,0.04436602,0.03508447,0.08168799,0.03994732,0.07863673,0.06993752,0.10009787,0.02621967,0.07596302,0.08706395,-0.02597353,0.06819542,0.07816339,0.20389056,0.05508550,0.05120934,0.07404715,0.08551300,0.07371286,0.05941208,0.06585158,0.03787027,-0.00673622,0.05278083,0.02813216,0.08933967,0.08008995,0.06103017,0.07489885,0.10423668,0.12207432,0.06944136,0.07040606,0.03867373,0.08050519,0.09194063,0.12570286,0.04520597,0.09947045,0.06038675,0.03594932,0.14864725,0.07443572,0.01714595,0.09805016,0.16911353,0.10321222,0.06444561,0.08897192,0.08305202,0.08944183,0.12776689,0.06071474,0.06127702,0.06593620,0.09258278,0.05754486,0.15731482,0.00705702,0.11832787,0.06952424,0.02324148,0.07212736,0.05386962,0.08374620,0.08964951,0.03507417,0.06219302,0.03091333,0.12512189,0.09089006,0.07529582,0.06693162,0.06838027,0.11607517,0.06725357,0.08623652,0.03636108,0.08092856,0.03363497,0.29957774,0.06452499,0.09380361,0.03897326,0.08396480,0.07540290,0.02330596,0.07686219,0.04941070,0.02899293,0.08749676,0.06241186,0.06344145,0.11090415,0.08244428,0.09131005,0.14257684,0.03130776,0.05803986,0.08159389,0.02702272,0.12764987,0.06238991,0.08921006,0.06294961,0.02149262,0.03300274,0.05357941,-0.00000000,0.07805006,0.03480653,0.11044575,0.11096045,0.07785320,0.06948777,0.05814502,0.03698469,0.04604033,0.13128179,0.07932224,0.10619724,0.04737942,0.06080174,0.19646898,0.10171763,0.01622744,0.08089423,0.08706756,0.10206152,0.06504456,0.14558800,0.05506588,0.06796801,0.04822318,0.05381693,0.11889561,0.06487039,0.02814713,0.06029549,0.14045969,0.08723818,0.13612728,0.04403024,0.08543451,0.05833009,0.07372482,-0.02625941,0.08019949,0.05864340,0.05080961,0.04430993,0.07444213,0.05257389,0.08470646,0.07970666,0.10587156,0.02149197,0.15738751,0.09594984,0.05414347,0.01835746,0.11123347,0.04672547,0.03826687,0.07481938,0.04377196,0.11269338,0.04661810,0.09586263,0.06123543,0.07991068,0.02228701,0.10200313,0.13835636,0.06099047,0.02984640,0.07248011,0.11496931,0.05541915,0.04807710,0.06903712,0.08939170,0.02270897,0.06862049,0.08903727,0.13340133,0.05806609,0.10234351,0.03280853,-0.00605233,0.06624059,0.06801648,0.07455204,0.12203702,0.09327310,0.08121383,0.09312411,0.09325387,0.06865159,0.00659836,0.04873531,0.14704014,0.03614973,0.01149072,0.00000000,0.04583411,0.06491907,0.07102203,0.15810484,0.11858507,0.06050900,0.07114306,0.09044891,0.08116713,0.11503370,0.04186069,0.08614939,0.12041461,0.07863709,0.10339694,0.09097773,0.07372931,0.09713198,0.08682011,0.09274743,0.07760665,0.10893262,0.04211977,0.06603887,0.00856621,0.07610215,0.07812861,-0.00976123,0.09853622,0.06596374,0.09188832,0.08147631,0.05987997,0.09281474,0.06749171,0.11637993,0.09404022,0.08879704,0.00571151,0.12647589,0.07134786,0.06874314,0.08467609,0.12317303,0.08955532,0.04648589,0.07882984,0.07604787,0.11388574,0.04591468,0.04172852,0.09123816,0.06215369,0.08978278,0.07851225,0.08071486,0.00844215,0.05043852,0.07759728,0.08816000,0.10897510,0.06881463,-0.00199863,0.12089586,0.05415154,0.09262328,0.03751574,0.10026208,0.05206939,0.10764644,0.06744651,0.06702230,0.12775409,0.09300356,0.02953398,0.06250259,0.08089304,0.06437743,0.03174783,0.07801282,0.08571956,0.00149920,0.05521690,0.09540945,0.02062227,0.09198276,0.16512966,0.11619766,0.06735321,0.05592413,0.02445020,0.09115440,0.14385025,0.03391543,0.05366223,-0.00000001,0.03129697,0.11398058,0.04131471,0.04070024,0.13526344,0.10313151,0.04998911,0.06042760,0.07960512,0.09124202,0.11347705,0.07252861,0.06641788,0.10849395,0.07559285,0.04121744,0.05007111,0.09695626,0.00057058,0.04561972,0.11227903,0.08159812,0.06058127,0.04978822,0.04256396,0.04351182,0.07039065,0.14399214,0.07262047,0.12767553,0.13173142,0.16266175,0.02907087,0.00671108,0.11220040,0.08992998,0.08501215,0.02343173,0.09734771,0.09423563,0.04744291,0.12451631,0.08994770,0.10846808,0.13162735,0.06226942,0.06491818,0.09822191,0.04157916,0.04030453,0.08440447,0.04858586,0.08921079,0.09963074,0.09304660,0.05930315,0.06462681,0.06804404,0.08735509,0.06591716,0.23836645,0.03687273,0.08688078,0.06858603
HORSE TRACK,0.12672225,0.12382502,0.01302123,0.07107695,0.06320733,0.06683515,0.17554615,0.09510381,0.05928706,0.06261496,0.09687862,0.07714327,0.04671463,0.08292197,0.01180079,0.10507037,0.07575621,0.09056976,0.02083700,0.05487284,0.00666029,0.04182261,0.03697875,0.09505744,0.04410435,0.11766725,0.05670340,0.07547789,0.07783506,0.03045510,0.05481596,0.15828632,0.14511456,0.04326180,0.06322759,0.10684848,0.08025414,0.02048060,0.07839935,0.03131521,0.03658316,-0.00453536,0.07133874,0.04919594,0.14718123,0.10773481,0.08791955,0.07664616,0.09154271,0.07325403,0.08016711,0.02072263,0.01364526,0.10761336,0.08374780,0.09094546,0.05864094,0.07634047,0.05908185,0.03208002,0.15398680,0.08847336,0.00290519,0.12507413,0.16020253,0.00723516,0.02947967,0.11129486,0.04623767,0.04281137,0.09523130,0.05897907,0.07343151,0.08226892,0.09180202,0.03740812,0.06457157,0.05050725,0.12190252,0.00568249,0.12390306,0.03150949,0.06380253,0.10613008,0.09289490,0.05128061,0.06842446,0.10704058,0.08336724,0.04385968,0.06611539,0.05177969,0.09612636,0.06066105,0.02846472,0.08322275,0.04059626,0.07168759,0.04977498,0.27713558,0.08267142,0.08451097,0.09484652,0.10174517,0.05049325,0.05919405,0.06264219,0.11316929,0.05641441,0.10936065,0.02655947,0.07037617,0.03156854,0.06102709,0.05358785,0.05272802,0.12593076,0.04608462,0.03708068,0.12481461,0.09816773,0.05219418,0.07056316,0.04449382,0.03604190,-0.02500675,0.12559128,-0.00000000,0.09575438,0.00236997,0.08093885,0.09924699,0.06721344,0.06352431,0.08305386,0.03974361,0.03522648,0.09490545,0.08843621,0.09617051,0.08457514,0.05567611,0.20796202,0.02160245,0.05324144,0.05469241,0.06990694,0.04796401,0.07614860,0.07148276,0.02726730,0.06842413,0.05666816,0.02692489,0.03313557,0.01848125,0.10976632,0.05204287,0.05196605,0.09831464,0.03849981,0.04794076,0.07270003,0.06586608,0.05691801,0.02013901,0.07206959,0.03643170,0.07012852,0.04603546,0.06554487,0.04891961,0.07657599,0.11457691,0.09555525,0.10729201,-0.00664445,0.10979224,0.04917442,0.01869070,0.04695324,0.06523918,0.06678408,0.04219066,0.06289076,0.08842728,0.02858015,0.04151395,0.12051875,0.10801572,0.03721824,0.06679408,0.09699506,0.05664825,0.05803597,0.05637877,0.05617280,0.09572014,0.05610333,0.06101379,0.09443776,0.10332073,0.08876964,0.09982125,0.09135499,0.07943227,0.08609708,0.06523277,0.00947169,0.05475942,0.07111347,0.11731642,0.12391464,0.07747151,0.02644068,0.03795828,0.08085182,0.06402928,0.01239962,0.03694883,0.06944460,0.11266222,0.03345463,0.00000000,0.04542927,0.05241923,0.10891049,0.11042590,0.07493189,0.06153802,0.07349039,0.04694638,0.10153048,0.12078234,-0.03864742,0.06413937,0.11421540,0.08738353,0.10353386,0.02933942,0.10354011,0.08159431,0.08571104,0.07560157,0.06205554,0.09743205,0.07769296,0.04091913,0.04594318,0.08555168,0.11583723,0.07288187,0.00834424,0.06549415,0.05460959,0.09606844,0.04553150,0.09210766,0.01449940,0.16218407,0.09980758,0.08221222,0.01934043,0.04493025,0.10976639,0.02692253,0.07936056,0.11033325,0.05263543,0.03511662,0.06720028,0.17718892,0.16479757,0.05525533,0.12614454,0.08775074,0.03548350,0.05621560,0.07731352,0.09435276,0.07015330,0.06042832,0.12010068,0.03438791,0.03843941,0.09027310,0.01646460,0.17184633,0.03981886,0.07953008,0.05201768,0.04460930,0.06943478,0.04167261,0.10086972,0.08501785,0.04925154,0.06812382,0.01752655,0.09670331,0.07814407,0.07185502,0.05093022,0.07169574,0.00633453,0.02601863,0.07841256,0.07485802,0.05461418,0.07479644,0.09836229,0.05492303,0.01123034,0.03773254,0.10415078,0.09702052,0.08468685,0.02051813,0.06658037,-0.00000001,0.08525468,0.09739428,0.07470140,0.04317721,0.08033568,0.11089423,0.10703077,0.08786801,0.05440939,0.15145409,0.07975549,0.06749021,0.09204634,0.13133885,0.08036874,0.07976905,0.09126998,0.06987830,0.02166612,0.07191335,0.08912790,0.02776721,0.06533440,0.11164403,0.04669461,0.09843400,0.03857187,0.14169073,0.10953639,0.15121572,0.12098581,0.12284452,0.02121677,0.04536305,0.04630505,0.06388465,0.05222168,0.07312043,0.05230040,0.06822953,0.07430258,0.11192239,0.10365574,0.04122096,0.06056609,0.05127560,0.04524002,0.06146289,0.02383070,-0.00973150,0.02121881,0.01940124,0.11596069,0.12063916,0.06643204,0.09486835,0.06452957,0.04590553,0.05776226,0.10289332,0.17498803,0.03488014,0.06969848,0.05252277
HOUSE,0.04095579,0.15647782,0.02815471,0.09566197,0.10161978,0.10707588,0.17132382,0.04301450,0.05103266,0.04472270,0.07654998,0.03726600,0.07793547,0.09327940,0.08394037,0.02755026,0.06854558,0.02203618,0.07690907,0.05780185,0.02106908,0.07524721,0.05117499,0.07785392,0.10534925,0.14082369,0.05838022,0.07197208,0.09148593,-0.02461741,0.06227873,0.07645419,0.14676476,0.06132122,0.07120347,0.11528596,0.08172299,0.08737954,0.06714977,0.01999428,0.08913971,0.03224533,0.11370227,0.04668633,0.08111107,0.05039530,0.06875241,0.02446418,0.13788384,0.08300090,0.06136179,0.06120502,0.02678109,0.08733295,0.06052960,0.09290081,0.04703050,0.05162831,0.06862715,0.04067568,0.16233660,0.04909776,0.02037844,0.09251472,0.07592793,0.04706063,0.06299330,0.09131075,0.07610374,0.11097352,0.08865442,0.06363451,0.05921250,0.11550348,0.09540166,0.08603639,0.07594837,0.02818064,0.10054406,0.01699233,0.05959953,0.11364840,0.06152157,0.05885939,0.05055574,0.07010107,0.06765933,0.07138389,0.06866486,0.05166097,0.02298355,0.10009082,0.10604961,0.06511231,-0.02122485,0.06690931,0.04833429,0.02314882,-0.00596454,0.33708262,0.05708782,0.11014792,0.05101440,0.07714922,0.01410736,0.04372777,0.05165360,0.12593621,0.04373391,0.05793109,0.02857501,0.04557668,0.03102299,0.05569983,0.06278241,0.07086041,0.09303465,0.04444706,0.07717197,0.20918418,0.09220476,0.09289011,0.07698445,0.08957533,0.08521939,0.00352069,0.05985167,-0.00000000,0.08568600,0.04465288,0.04327852,0.07651099,0.12199669,0.09061901,0.02991945,0.05975597,0.01174383,0.10943727,0.09540898,0.06287558,0.05766684,0.01485835,0.19137876,0.08359272,0.03516745,0.08949652,0.06986284,0.04793444,0.03140972,0.20883246,0.05802592,0.13337876,0.06999286,0.06882017,0.06306259,0.04387099,0.17951019,0.05686087,0.05619634,0.08186107,0.05765804,0.03447145,0.04858828,0.16255401,0.08523845,-0.01380748,0.05162540,-0.00448885,0.06421971,0.05208372,0.14293246,0.06815837,0.09695891,0.12972853,0.15157208,0.04131243,0.01477007,0.11366043,0.03605027,0.04775872,0.10226426,0.07685953,0.01185703,0.05933957,0.06796122,0.08825902,0.04061018,0.05414015,0.12235656,0.12248281,0.02215001,0.06520036,0.06438773,0.02345301,0.05791561,0.02300875,0.13600647,0.07343231,0.02046163,0.07868998,0.09189956,0.10540007,0.04187836,0.09937234,0.10773802,0.08349776,0.02531851,0.04082400,0.09810331,0.04757820,0.07170148,0.12622902,0.14619514,0.04995065,0.02614179,0.07074699,0.06244374,0.13155608,0.00263545,0.05598329,0.13333353,0.10289723,0.02860322,0.00000000,0.04104167,0.02935544,0.03342622,0.09429982,0.07285380,0.04825951,0.04017115,0.00675473,0.07641806,0.10451904,0.03444945,0.01043343,0.14057918,0.06630930,0.06287736,0.02122022,0.08644394,0.03366777,0.06293534,0.07809333,0.04653522,0.11699054,0.02602389,0.08708476,0.04622619,0.06264745,0.05861154,0.10346859,0.09040458,0.06631052,0.05858882,0.01908113,0.05956247,0.09551759,0.06835656,0.12576135,0.12439399,0.06723115,-0.00629614,0.08003143,0.13873215,0.10907934,0.04183495,0.11128695,0.06178927,0.06908997,0.05655036,0.12526672,0.06925089,0.06421952,0.02555957,0.07464686,0.10863587,0.03814348,0.04539137,0.10298850,0.07271618,0.03907251,0.06208114,0.13162687,0.05884747,0.07202508,0.01069774,0.10979373,0.05640301,0.09079362,0.00733435,0.06033261,0.06155847,0.05547806,0.09758359,0.06519574,0.00850208,0.05006545,0.00573280,0.06356273,0.02120215,0.04762437,0.05221497,0.07511812,0.01327234,-0.01402923,0.05800024,0.11955815,0.06676720,0.06492569,0.11940929,0.12843955,0.08286072,0.06715093,0.07982745,0.10579511,0.10251966,0.02586513,0.03838425,-0.00000001,0.10780249,0.03844547,0.06457220,0.04085062,0.08791144,0.06434244,0.07237231,0.07529601,0.07138576,0.14359035,0.08618137,0.10161337,0.09141588,0.06417337,0.06512193,0.04581754,0.04804669,0.06523266,0.03569594,0.05762864,0.06938375,0.04766906,0.08598147,0.07312496,0.04062882,0.02891911,0.05861422,0.13035482,0.05500690,0.11871870,0.09179082,0.14958251,0.03766065,0.05303542,0.05218657,0.07382277,0.10430498,0.03478855,0.06218474,0.06514007,0.04112201,0.07663836,0.11147767,0.06674131,0.07364793,0.06886718,0.12504305,0.05138187,0.11979624,0.06473788,0.05649391,0.07247460,0.04208837,0.14110984,0.09230804,0.03541847,0.05929964,0.10660356,0.05195883,0.13855405,0.14376704,0.06581464,0.10773898,0.09218030
LIGHTNING,0.12672225,0.15703794,0.03701635,0.10030147,0.07955296,0.09967972,0.14635006,0.10125570,0.17954908,0.03813362,0.05047084,0.03973523,0.12387294,0.04237955,0.06321453,0.07050876,0.06483709,0.04336133,0.03787903,0.04991605,0.07160214,0.09324468,0.03117597,0.07559727,0.05658054,0.11111349,0.05670340,0.07547789,0.09315828,-0.04745531,0.06874871,0.04218496,0.07319100,0.08222709,0.05299104,0.14077887,0.08946375,0.07100659,0.08788018,0.05535392,0.02892441,0.03267655,0.05681025,0.04919594,0.08233031,0.06573655,0.10110085,0.07664616,0.10270524,0.09091761,0.08016711,0.02783386,0.02777400,0.10973565,0.07744871,0.09501001,0.09209153,0.07634047,0.05653576,0.03329541,0.08274399,0.02190288,0.07172889,0.07712979,0.09675215,0.01830731,0.06952399,0.09516823,0.06099795,0.04507344,0.08046841,0.04677695,0.08777848,0.11895524,0.07814915,0.03941120,0.05990743,0.01708954,0.07450412,0.07989211,0.12390306,0.11340144,0.05438998,0.10866309,0.07405926,0.06498882,0.10725113,0.05128550,0.05461387,0.07187530,0.05014909,0.02251883,0.12978642,0.07537528,0.02413398,0.05124989,0.05419438,-0.00726837,-0.01638608,0.25767604,0.03801902,0.08787207,0.05644095,0.12249953,0.08806391,0.03718267,0.04977660,0.07972341,0.04625612,0.08700883,0.11057802,0.04526979,0.03899253,0.05535042,0.08319169,0.08769956,0.12593076,0.07702091,0.08993100,0.07264414,0.12542677,0.09683316,0.09711834,0.07269336,0.01750554,0.02605309,0.09466335,-0.00000000,0.09575438,0.02452810,0.09732302,0.05542890,0.12460082,0.06637806,0.06018710,0.06850001,0.02991218,0.12737948,0.08487320,0.12634088,0.10069218,0.08465005,0.12533790,0.05215956,0.03569271,0.06285927,0.10584723,0.01943209,0.03807025,0.11572784,0.06803450,0.09067596,0.06834222,0.05130448,0.09057343,0.03345560,0.08511744,0.08494608,0.03583220,0.10097960,0.09620181,0.05338236,0.10421566,0.05741376,0.08638611,0.00970984,0.05913457,0.07715100,0.04338219,0.02946510,0.01456189,0.11056963,0.11183397,0.08694715,0.16441332,0.04012273,0.01571671,0.07469973,0.05193538,0.04713627,0.05642536,0.05821970,0.05712882,0.06984907,0.06901015,0.09243844,0.10816809,0.02880550,0.11754068,0.10801572,0.10108321,0.13269663,0.13586096,0.00840061,0.07461140,0.03960266,0.05254201,0.02558845,0.05610333,0.05214654,0.09019181,0.10332073,0.04757116,0.07394391,0.04946161,0.07943227,0.03513292,0.05614160,0.03880555,0.06598563,0.07034720,0.10665070,0.08422252,0.03913001,0.05457236,0.01529193,0.02746960,0.12395480,0.05234011,0.09763971,0.15945256,0.05038271,0.02770318,0.00000000,0.05535850,0.03553597,0.04499119,0.09869736,0.08146511,0.02742852,0.04388140,0.10765046,0.06749336,0.09291928,0.07515816,0.05290740,0.09564721,0.08634566,0.12239058,0.05368067,0.11682999,0.08677689,0.06036156,0.05014160,0.07451057,0.07841484,0.05284947,0.03970142,-0.00740633,0.10283042,0.07730994,0.06982812,0.03559731,0.04487590,0.06349614,0.06545598,0.06417567,0.09374647,0.01842203,0.13060054,0.12817192,0.05325199,0.05485292,0.02588601,0.08608317,0.08865828,0.10265400,0.12205922,0.02999897,0.09649985,0.09418255,0.10229231,0.04017527,0.05252240,0.03161181,0.06709347,0.11500319,0.11589568,0.04936153,0.02541463,0.03192187,0.05291422,0.10862074,0.10987806,0.07861251,0.07714297,0.05400019,0.10679441,0.06290688,0.09842194,0.05201768,0.09950171,0.07601485,0.03588056,0.07472158,0.08892083,-0.01063219,0.03611729,0.07427887,0.09681561,-0.00992413,0.05369090,0.07829566,0.07318330,0.00883651,0.04404162,0.01867143,0.09626183,0.06276321,0.05991494,0.13467282,0.09388935,0.06886134,0.06400386,0.05746301,0.05139589,0.03856293,0.02994210,0.06709716,-0.00000001,0.07120052,0.09739428,0.04303200,0.05184699,0.11634521,0.11089423,0.10394504,0.09419720,0.12359454,0.12194224,0.10979301,0.05315009,0.10931298,0.09454101,0.09242297,0.05211238,0.03111846,0.04893246,0.03819450,0.04504761,0.04048694,0.09349141,0.09388634,0.08618215,0.09554551,0.06825425,0.07648350,0.10035331,0.07231591,0.10280552,0.12098581,0.16493006,0.01248898,0.08825731,-0.00206111,0.04380371,0.08987873,0.06201388,0.05786016,0.06957839,0.08377130,0.08709330,0.16234821,0.05046640,0.03113812,0.05549275,0.13994268,0.05032128,0.05380956,0.08224503,0.04131366,0.07672511,0.05023278,0.12718296,0.08761505,0.06839554,0.01692653,0.11714279,0.01961174,0.08572735,0.16479038,0.03334256,0.13134350,0.09953966
STAR,0.09635501,0.05996331,0.04906974,0.10972758,0.05091152,0.05793410,0.17841429,0.12261873,0.10889431,0.03172280,0.10752378,0.09747994,0.08464055,0.03835449,0.04889297,0.04440222,0.06971493,0.09820234,0.05113102,0.09565713,0.06347635,0.09229181,0.07431956,0.10996900,0.04834406,0.10085239,0.07754084,0.08861977,0.18388170,-0.00481664,0.07452051,0.09988024,0.06373952,0.10632627,0.05722587,0.07400622,0.05283393,0.05688927,0.06278049,0.09768449,0.06653284,0.03560307,0.07641464,0.04373430,0.04649810,0.07073408,0.03365123,0.06929008,0.16927177,0.11580796,0.04254723,0.03291942,0.02706903,0.08440175,0.09265193,0.11805724,0.06751050,0.08840875,0.04628063,0.07453398,0.14959805,0.09318793,0.04382022,0.04499254,0.14904325,0.02737869,0.05630625,0.06498424,0.02508404,0.06675073,0.05727065,0.05667594,0.09287862,0.09339036,0.10426307,0.09884765,0.12691031,0.04784471,0.11096474,0.05282933,0.06074819,0.11957574,0.06625832,0.12553675,0.09189723,0.08448674,0.06564928,0.09477610,0.08666803,0.10597955,0.02883092,0.08558756,0.11341426,0.07167404,0.02558343,0.14368896,0.03431066,0.02722272,0.06544118,0.24815370,0.06202867,0.11434890,0.08123886,0.09389383,0.07700673,0.00158777,0.04738763,0.12208363,0.10797834,0.06385112,0.05222861,0.02297425,0.05533341,0.05427470,0.02349529,0.06773059,0.07935630,0.06365658,0.05077783,0.09191502,0.06683005,0.05141925,0.08245197,0.08905469,0.01962923,0.02643790,0.06072587,-0.00000000,0.08979993,0.08489216,0.12316959,0.08892085,0.05821497,0.08817237,0.02591944,0.08748616,0.08044250,0.08495829,0.04093178,0.09178580,0.06010969,0.06686351,0.12640335,0.04293007,0.04538280,0.08432937,0.13329272,0.03813760,0.02898794,0.09353825,0.05066206,0.08202067,0.05442781,0.08175266,0.03014228,0.05200354,0.18875670,0.02418708,0.08258139,0.07709903,0.15162691,0.08719087,0.07197479,0.06274652,0.08871233,0.01471583,0.03262200,0.06380559,0.11789859,0.06792043,0.06121865,0.02849386,0.06577163,0.10015829,0.08983572,0.06427623,0.06332889,0.10850844,0.12254929,0.05888503,0.06958444,0.07519600,0.11644539,0.04621182,0.03442174,0.08406562,0.04132546,0.08479127,0.10496908,0.14152184,0.07093025,0.10653982,0.05183798,0.07721538,0.06872173,0.03247149,0.06511761,0.05192254,0.02736193,0.06798469,0.13131970,0.12272777,0.06517425,0.05094526,0.11972979,0.07619283,0.05227511,0.04470326,0.02345568,0.14036314,0.08489375,0.09622479,0.08701572,0.08891617,0.04302023,0.00562136,0.10513645,0.07786170,0.03805273,0.05010616,0.10856523,0.01869600,0.02308522,0.00000000,0.04782502,0.02109797,0.02343884,0.11035438,0.15375923,0.03987573,0.08278475,0.04999615,0.07110386,0.09034855,0.06067488,0.06111666,0.17922340,0.06008603,0.11702143,0.06091895,0.09178015,0.11221742,0.06373034,0.06969290,0.05705166,0.04877917,0.03521770,0.04455482,0.00847896,0.08160936,0.17212382,0.13061035,0.02248175,0.04702524,0.12163527,0.06587832,0.07429656,0.06355137,0.04497409,0.10616820,0.12139233,0.10092396,0.03643227,0.05671026,0.09669765,0.11832478,0.06966079,0.11502133,0.04902076,0.03394670,0.08664504,0.12940721,0.07046841,0.06239040,0.05922212,0.07279748,0.09613240,0.03308390,0.07018513,0.09006503,0.07365787,0.07672057,0.10868547,0.06923204,0.07509346,0.08234787,0.06078875,0.09013294,0.04730044,0.07821283,0.08319765,0.14443846,0.05491708,0.07428546,0.12003411,0.08908872,0.09329750,0.08806830,0.06479586,0.09823370,0.13016960,0.13153312,0.06885344,0.05305048,0.02794610,0.05707216,0.07562329,0.10206856,0.10127293,0.05776236,0.07133253,0.09054811,0.10851347,0.06505565,0.07430276,0.08360591,0.07522855,0.09105749,0.08465922,-0.00000001,0.09957018,0.09618777,0.09664788,0.06342694,0.08800375,0.06447347,0.07939243,0.09906580,0.05267783,0.15607344,0.06806942,0.09913025,0.11728544,0.10680439,0.10605589,0.09324220,0.06546708,0.05584078,0.00031722,0.16333726,0.01138062,0.10005213,0.06288015,0.06394946,0.06309565,0.10877624,0.04939102,0.13568014,0.11136556,0.06808049,0.09745342,0.12207981,0.02799399,-0.00972259,0.07964031,0.04763506,0.13671973,0.10136379,0.06378295,0.13555345,0.06340329,0.08258665,0.04782552,0.04875582,0.09399024,0.09159409,0.08048616,0.05659511,0.07740416,0.04035124,0.06117024,0.07608693,0.09358101,0.07870863,0.08796661,0.08138490,0.04582278,0.09455882,0.03010952,0.10614959,0.17078102,0.11314270,0.10264868,0.06212236
THUNDER,0.05193447,0.11667348,0.09991009,0.08315504,0.10087720,0.06002966,0.17464545,0.10346994,0.11338707,0.03441657,0.05823915,0.01393027,0.13341273,0.02968813,0.06158559,0.06239739,0.10243917,0.04387851,0.06127946,0.09734927,0.04517067,0.09499201,0.07180864,0.05552736,0.05514565,0.11111349,0.04121327,0.07496291,0.12266831,-0.00335300,0.05785834,0.07764249,0.19735245,0.07399853,0.06083515,0.10742359,0.07527900,0.08270340,0.07589013,0.04474517,0.02506668,0.01054168,0.05413117,0.03142799,0.09504417,0.05211686,0.06248775,0.07788319,0.07717115,0.09807311,0.06041709,0.04768079,0.02414912,0.07906194,0.13327104,0.06719237,0.07693686,0.05517410,0.04764819,0.07548516,0.09447213,0.02492628,0.02549216,0.07712979,0.18208665,0.07821503,0.07314955,0.09516823,0.06099795,0.10464668,0.03186800,0.10304271,0.06215183,0.06012769,0.07506463,0.06389832,0.10372894,-0.02693681,0.08878535,0.06069064,0.08808911,0.00012865,0.01923891,0.04440398,0.08407306,0.05803763,0.09722484,0.09726498,0.12211421,0.08900099,0.04634848,0.12097640,0.11952517,0.07410976,0.03967546,0.13448945,0.05971712,0.04725321,0.01488281,0.26951236,0.05532489,0.10303127,0.05943827,0.05732317,0.09364735,-0.00468612,0.02388849,0.10556932,0.04364095,0.01109761,0.03215961,0.04092903,0.08955444,0.06452038,0.11041798,0.08651534,0.04930772,0.06970689,0.04322262,0.05697365,0.11758560,0.06644338,0.07627898,0.05536330,0.11164292,0.02605309,0.07886465,-0.00000000,0.09760210,0.04958894,0.09457639,0.13651365,0.11631087,0.05261847,0.06482591,0.00287885,0.06338110,0.07608707,0.07137377,0.07223511,0.04134843,0.04228242,0.14792429,0.08686856,0.04350459,0.12909696,0.05267101,0.04961752,0.03659877,0.08695276,0.04789380,0.09601165,0.05898786,0.04003612,0.05470248,0.07200103,0.05688053,0.06833530,0.04468784,0.07634551,0.09717630,0.04751536,0.06499219,0.08707061,0.06460018,0.02188565,0.06949528,0.05796389,0.02647883,0.04606937,0.03057076,0.11434001,0.13555858,0.09559239,0.12653345,0.05957438,0.05509250,0.05847810,0.04261656,0.04713627,0.12122154,0.08206851,0.04692075,0.04970923,0.11339131,0.06166168,0.10953900,0.06381167,0.15331067,0.07789242,0.10108321,-0.01418448,0.10436645,0.00719878,0.05282627,0.05523584,0.08956131,0.06763431,0.08400834,0.04562942,0.15820467,0.07310353,0.08708209,0.02311935,0.10806336,0.07947007,0.05887195,0.06095572,0.04324402,0.06918968,0.06248109,0.08837775,0.11114495,0.08569594,0.07334834,0.00226325,0.03675969,0.11321074,0.01873524,0.06990252,0.16303171,0.02062183,0.04236681,0.00000000,0.08338705,0.10797449,-0.00470215,0.11138474,0.07564984,0.07194877,0.02429052,0.08589647,0.07326440,0.09020907,0.00722688,0.04111073,0.08232618,0.07095088,0.09001526,0.03819717,0.15996584,0.04548536,0.07571045,0.07840599,0.07022811,0.05363170,0.05716218,0.02042836,0.02487541,0.10560650,0.10888509,0.06422452,0.04339737,0.07015686,0.09241126,0.08370462,0.06078936,0.07695407,0.09940413,0.11585307,0.14840662,0.09486570,0.00023313,0.05567473,0.06872755,0.13647878,0.12065475,0.16593143,0.05633076,0.09649985,0.08229762,0.09882735,0.06599305,0.07869996,0.05534272,0.03834943,0.11444940,0.11589568,0.06328607,0.05946800,0.03419868,0.05768785,0.14355896,0.06537215,0.03410606,0.08751754,0.01807847,0.05961026,0.07353484,0.06803586,0.02784968,0.10032891,0.05018916,0.09618160,0.11539775,0.01985718,0.02745160,0.12168345,0.07666580,0.12868261,0.02988528,0.05094364,0.08994610,0.03268417,0.07821074,0.04716413,0.02574050,0.10981598,0.04171858,0.02629267,0.14036539,0.07967325,0.06744667,0.04752367,0.04507437,0.10296088,0.04406291,0.02831011,0.06677397,-0.00000001,0.03809988,0.02812621,0.03845523,0.01075955,0.09586390,0.12557656,0.08876216,0.09419720,0.11503521,0.15467547,0.06519819,0.02974741,0.07647639,0.11873592,0.10179586,0.04843358,0.04540123,0.06973712,0.03857036,0.03300390,0.05591157,0.09584581,0.12282342,0.07764755,0.06260403,0.03580473,0.05203717,0.08105729,0.03223371,0.11011414,0.10616928,0.12685239,0.01995976,0.06395540,0.09202115,0.12407397,0.07168083,0.06857008,0.07934521,0.09312869,0.04364730,0.09806868,0.07663211,0.06387024,0.11165974,0.08058107,0.10770702,0.06429970,0.01793926,0.05751960,0.05115300,0.09153573,0.05290348,0.08093004,0.11831283,0.08868588,0.07787743,0.06985311,0.02054344,0.10087086,0.14871864,0.05498708,0.11082050,0.06157492
