,dim_0,dim_1,dim_2,dim_3,dim_4,dim_5,dim_6,dim_7,dim_8,dim_9,dim_10,dim_11,dim_12,dim_13,dim_14,dim_15,dim_16,dim_17,dim_18,dim_19,dim_20,dim_21,dim_22,dim_23,dim_24,dim_25,dim_26,dim_27,dim_28,dim_29,dim_30,dim_31,dim_32,dim_33,dim_34,dim_35,dim_36,dim_37,dim_38,dim_39,dim_40,dim_41,dim_42,dim_43,dim_44,dim_45,dim_46,dim_47,dim_48,dim_49,dim_50,dim_51,dim_52,dim_53,dim_54,dim_55,dim_56,dim_57,dim_58,dim_59,dim_60,dim_61,dim_62,dim_63,dim_64,dim_65,dim_66,dim_67,dim_68,dim_69,dim_70,dim_71,dim_72,dim_73,dim_74,dim_75,dim_76,dim_77,dim_78,dim_79,dim_80,dim_81,dim_82,dim_83,dim_84,dim_85,dim_86,dim_87,dim_88,dim_89,dim_90,dim_91,dim_92,dim_93,dim_94,dim_95,dim_96,dim_97,dim_98,dim_99,dim_100,dim_101,dim_102,dim_103,dim_104,dim_105,dim_106,dim_107,dim_108,dim_109,dim_110,dim_111,dim_112,dim_113,dim_114,dim_115,dim_116,dim_117,dim_118,dim_119,dim_120,dim_121,dim_122,dim_123,dim_124,dim_125,dim_126,dim_127,dim_128,dim_129,dim_130,dim_131,dim_132,dim_133,dim_134,dim_135,dim_136,dim_137,dim_138,dim_139,dim_140,dim_141,dim_142,dim_143,dim_144,dim_145,dim_146,dim_147,dim_148,dim_149,dim_150,dim_151,dim_152,dim_153,dim_154,dim_155,dim_156,dim_157,dim_158,dim_159,dim_160,dim_161,dim_162,dim_163,dim_164,dim_165,dim_166,dim_167,dim_168,dim_169,dim_170,dim_171,dim_172,dim_173,dim_174,dim_175,dim_176,dim_177,dim_178,dim_179,dim_180,dim_181,dim_182,dim_183,dim_184,dim_185,dim_186,dim_187,dim_188,dim_189,dim_190,dim_191,dim_192,dim_193,dim_194,dim_195,dim_196,dim_197,dim_198,dim_199,dim_200,dim_201,dim_202,dim_203,dim_204,dim_205,dim_206,dim_207,dim_208,dim_209,dim_210,dim_211,dim_212,dim_213,dim_214,dim_215,dim_216,dim_217,dim_218,dim_219,dim_220,dim_221,dim_222,dim_223,dim_224,dim_225,dim_226,dim_227,dim_228,dim_229,dim_230,dim_231,dim_232,dim_233,dim_234,dim_235,dim_236,dim_237,dim_238,dim_239,dim_240,dim_241,dim_242,dim_243,dim_244,dim_245,dim_246,dim_247,dim_248,dim_249,dim_250,dim_251,dim_252,dim_253,dim_254,dim_255,dim_256,dim_257,dim_258,dim_259,dim_260,dim_261,dim_262,dim_263,dim_264,dim_265,dim_266,dim_267,dim_268,dim_269,dim_270,dim_271,dim_272,dim_273,dim_274,dim_275,dim_276,dim_277,dim_278,dim_279,dim_280,dim_281,dim_282,dim_283,dim_284,dim_285,dim_286,dim_287,dim_288,dim_289,dim_290,dim_291,dim_292,dim_293,dim_294,dim_295,dim_296,dim_297,dim_298,dim_299,dim_300,dim_301,dim_302,dim_303,dim_304,dim_305,dim_306,dim_307,dim_308,dim_309,dim_310,dim_311,dim_312,dim_313,dim_314,dim_315,dim_316,dim_317,dim_318,dim_319,dim_320,dim_321,dim_322,dim_323,dim_324,dim_325,dim_326,dim_327,dim_328,dim_329,dim_330,dim_331,dim_332,dim_333,dim_334,dim_335,dim_336,dim_337,dim_338,dim_339,dim_340,dim_341,dim_342,dim_343,dim_344,dim_345,dim_346,dim_347,dim_348,dim_349,dim_350,dim_351,dim_352,dim_353,dim_354,dim_355,dim_356,dim_357,dim_358,dim_359,dim_360,dim_361,dim_362,dim_363,dim_364,dim_365,dim_366,dim_367,dim_368,dim_369,dim_370,dim_371,dim_372,dim_373,dim_374,dim_375,dim_376,dim_377,dim_378,dim_379,dim_380,dim_381,dim_382,dim_383
BAG,-0.01141778,0.03921508,-0.00319014,0.04291807,0.00502461,0.01007868,0.12814488,0.00070408,0.00959087,-0.00749012,0.03050873,-0.01383672,-0.01203563,0.01815585,-0.02940332,-0.00995601,0.00129698,0.00865661,-0.07093556,0.00823834,-0.06560211,0.03168012,-0.01186212,0.02615352,-0.03547936,0.07499421,-0.02430801,-0.01688949,0.02857345,-0.08772343,0.00732852,0.01126364,-0.02859960,0.01245922,-0.04185691,0.05716158,0.02374511,-0.01477883,-0.00170753,-0.01994154,-0.01704492,-0.06701934,0.00363506,0.00734134,0.02069849,0.00393316,0.01750297,0.00421487,0.03745799,0.01007372,-0.03122351,-0.01439344,-0.03745203,0.05302805,0.01755629,0.00712615,0.00963522,0.00170705,-0.03729600,-0.00466292,0.05479163,0.00525642,-0.02962652,0.03432771,0.03001107,-0.03579761,-0.01282462,0.01515373,-0.00600543,0.01775887,0.01173368,0.00821660,-0.01352715,0.01648747,0.03310179,-0.04488445,0.01079938,-0.04226963,0.04303373,0.00490478,0.00308666,-0.01959044,-0.02379543,0.03566359,-0.03190845,0.01121157,0.01596421,0.01092929,-0.03267536,-0.01718369,-0.01798627,-0.01335860,0.02745836,0.01405194,-0.04949871,-0.00116221,-0.03238530,-0.02794312,-0.03007575,0.18344432,0.02462710,0.04080676,0.01198557,0.02571443,-0.00535412,-0.03632817,-0.00627602,-0.01371200,0.00836099,0.01854218,-0.01016029,0.00223586,-0.03372147,0.02865402,-0.01679348,0.02912598,-0.02517465,0.02089715,0.00661027,0.01038347,-0.01283588,-0.02011571,0.02519666,-0.00638656,-0.03410102,-0.06720015,0.02488581,-0.00000000,-0.01803326,-0.04861513,0.04800893,0.03705302,0.02059651,-0.00319994,-0.01459602,-0.04434906,-0.00057300,-0.00312768,-0.01675650,0.03321652,-0.01009912,0.00736379,0.05017298,-0.04311234,-0.02932050,0.03245572,0.02501128,-0.02495998,-0.00702505,-0.00872515,-0.00446079,0.01023594,0.00468443,0.00279766,0.00179255,-0.03357046,0.02930028,0.01709647,-0.01548599,0.04216777,-0.01873225,-0.02956806,0.00006143,0.00283076,-0.00075223,-0.04421410,0.01237955,-0.03994768,-0.00460855,-0.01254841,-0.00202692,0.01632291,0.00056784,0.01679324,0.02880223,-0.01190226,-0.07288113,0.02857449,-0.01433947,-0.01638024,-0.01903250,-0.04333222,-0.01910131,-0.02976670,0.00891249,0.02661169,-0.00355032,0.01405225,0.02767923,0.06179002,-0.00042954,0.02087938,0.01382369,-0.01247567,-0.00939295,-0.02831139,0.03041469,-0.01058435,-0.07249629,-0.00202511,0.03373036,0.01224826,0.00994004,-0.00087089,-0.00954772,-0.01395994,-0.04223663,-0.02896168,-0.05299854,-0.02325089,0.00021666,0.05850952,0.02506260,-0.01827295,-0.01383024,-0.04948185,-0.00971554,-0.00817449,-0.06069549,0.00321990,0.03326705,-0.00975016,-0.02879480,0.00000000,0.02026289,-0.00964768,-0.00661773,0.08532076,0.04621483,-0.02842214,0.01036697,-0.01586922,0.01646203,0.02086750,-0.05630083,-0.02534361,0.04612584,0.02371153,0.01216635,0.01224112,0.04189112,-0.00096908,-0.00829624,0.01534048,-0.01335224,-0.00305984,-0.00310258,-0.01107072,-0.04939590,0.05494368,0.01352789,-0.01744341,-0.04650948,-0.01175807,0.01565836,-0.02382434,0.00264062,-0.01036227,-0.04080090,0.05072866,0.04115254,0.04338699,-0.02768429,-0.02045576,0.04584287,-0.01272758,0.01497504,0.08669257,-0.00859165,0.00130532,-0.00875651,0.02551247,0.00873085,0.00615765,0.00455410,-0.00081068,-0.02788218,-0.01237052,0.02471255,0.03077745,-0.05912039,-0.01530892,-0.02301278,-0.01999827,0.00941680,0.03594457,-0.02977542,0.01597366,-0.02103317,0.01885664,-0.00705953,-0.00571244,-0.03712714,0.00814265,0.01694463,0.00705752,-0.00359980,0.03103524,-0.02083152,-0.01688035,-0.00452568,0.00427340,0.01046947,0.01701476,-0.04204006,-0.04635966,-0.01840951,0.01437309,0.01907615,0.00416380,0.02895467,-0.00736380,-0.01443345,-0.01769816,-0.00331766,0.02651854,-0.03342788,0.00201031,-0.00854405,-0.00000001,0.00814461,0.00145306,0.00902628,-0.01528204,0.01242740,0.02508406,0.04354633,0.03050320,0.00609381,0.06527261,-0.01485435,0.03886042,0.01450715,0.05570887,0.00666781,0.01628953,-0.02338973,0.00909638,-0.06205524,-0.01462463,0.01699049,-0.01205765,0.05350894,0.03981101,-0.00170604,-0.02086764,0.00964845,0.01173118,0.03454750,0.02033588,0.02665632,0.02748885,-0.00308231,0.00496584,-0.00343395,-0.01975680,-0.00014203,0.00897721,0.00795990,0.00602050,-0.00663847,0.01193646,0.02609366,0.00162772,-0.01589376,-0.00897293,-0.02083703,0.01636626,-0.03305224,0.00904253,0.00807672,-0.00493245,0.02406351,0.05097896,0.01918850,0.04703213,-0.00268276,-0.00459654,-0.04246028,0.03529639,0.05461426,-0.00068805,0.02038032,0.01773953
CLOUDS,0.02273978,0.02913937,-0.01424117,0.03354957,-0.00590184,0.00046764,0.10292825,-0.03164519,0.05121556,-0.00658896,0.02025290,-0.01072424,-0.01248595,-0.00381520,0.00087501,0.00020296,-0.02156451,-0.01911004,-0.06526744,-0.03013219,-0.01725824,0.03098815,-0.03558806,0.02323653,-0.00343945,0.05711488,0.00276922,0.00772685,0.05414142,-0.08342915,0.02755191,0.03595196,-0.00827346,0.00725152,-0.00735272,0.04812473,0.01270997,0.00474952,0.00552672,-0.04274753,0.00118855,-0.03937373,-0.01136938,-0.00411589,0.01039350,-0.01104064,0.00981631,0.00379796,0.02505276,-0.00708053,-0.05535299,-0.03768745,-0.04838450,0.02244901,0.00582981,0.01786174,-0.01385716,0.00769022,-0.00126751,-0.03744167,0.04505916,-0.02235942,-0.02570412,0.02394766,0.04673757,-0.00574516,-0.02494370,0.02280185,-0.01985524,-0.06490361,-0.00101277,0.01870962,0.00914406,-0.01041710,0.01691826,-0.02211112,-0.00505098,-0.06650790,0.00786618,0.00441570,0.05500795,0.01590141,-0.01486091,0.02227566,0.00178814,0.01465524,0.01507537,0.00904612,-0.02290567,0.01256803,-0.01493479,-0.04729887,-0.02629966,0.02663180,-0.04157567,0.01043858,-0.00601822,-0.08043493,-0.01671845,0.17433988,-0.00521282,0.03993397,0.00380419,0.02280603,0.02562131,-0.00236127,0.00476232,0.01018236,0.02421298,-0.01764442,-0.02773011,-0.01448389,-0.02278371,0.01130998,0.00755599,0.01804715,0.00345952,0.03223799,-0.00982128,-0.02147310,0.00843304,0.00770723,0.04333224,0.03839476,-0.01495857,-0.06397503,-0.00539932,-0.00000000,0.02792785,-0.01896389,0.03580311,0.02440568,0.04415189,0.01349161,-0.00992495,-0.03229819,-0.02956279,0.00027248,-0.03926197,0.03992185,0.00662250,0.00255548,0.08444341,-0.00603306,-0.03470432,0.04003808,0.00556792,-0.01817987,-0.03623194,-0.00120936,-0.02541240,-0.00221717,-0.00228874,-0.00795224,0.02372313,-0.01021975,-0.00389350,0.01305385,-0.00763551,0.05255580,0.03888684,0.01122703,0.01197202,0.02105980,-0.00975713,-0.03278676,0.00677319,-0.03216641,-0.03294480,0.01127236,-0.01099429,0.00477229,-0.00516083,0.02180853,0.03280527,-0.00970236,-0.06023487,0.01979210,-0.02688085,0.00258382,-0.02649937,-0.03275445,0.00412189,-0.00413243,0.01649815,0.03497311,0.01759079,-0.00287609,-0.00102783,-0.00828022,-0.01483276,-0.01570413,0.00413834,-0.03369728,-0.02018501,-0.01391367,0.01418966,0.00557476,-0.06216538,0.00004963,0.03552100,0.00334987,-0.00664668,-0.01979165,-0.01428523,-0.00595703,-0.01930739,0.01701820,-0.04889888,-0.02076700,-0.00602884,0.02315134,0.03025807,0.00823053,-0.00269156,-0.04717264,-0.02189416,-0.01647016,-0.04674049,0.02230927,0.09641442,-0.05124000,-0.04415601,0.00000000,-0.00772103,-0.04179602,-0.02163039,0.07654338,0.04353723,-0.02672451,-0.01700511,0.03704409,-0.03792727,0.03378154,0.02110397,0.01852078,0.03350768,0.00021910,-0.01075360,-0.01040026,0.06207167,0.00346151,-0.00022161,0.01526950,-0.00155928,-0.00336767,-0.03551571,-0.04866190,-0.03663488,0.05281172,0.01231482,-0.00994776,-0.05437334,0.01704529,0.01399996,-0.00554726,-0.02676490,0.01222239,-0.01656178,0.06320908,0.04148030,-0.01919000,-0.05466086,-0.01225900,0.01874251,0.00812244,0.01716928,0.03688963,-0.01035652,0.00920785,-0.00364138,0.05944267,0.00661894,-0.01442740,-0.02607189,-0.00336794,0.00066239,-0.01568495,0.00904844,-0.00702476,-0.04496046,0.01522615,0.00827970,-0.01397518,0.02936013,0.01196154,-0.01067552,0.04476452,-0.00948437,0.01082517,-0.01600142,0.04970051,-0.02781326,0.02260313,-0.02011758,-0.01578154,-0.02560497,0.00835042,-0.01942102,0.00706571,-0.01731363,-0.01328531,0.00083440,-0.01404058,-0.03514431,-0.02205114,0.00184852,0.01515764,0.03661210,-0.01258778,0.01215070,-0.02745496,-0.00219705,-0.00995716,-0.03318735,0.01798480,-0.03854607,-0.00609901,-0.01046954,-0.00000001,-0.01455889,-0.01102151,-0.01224651,-0.02294832,0.03849333,-0.00028144,0.04256097,0.03927176,-0.02027412,0.05093791,-0.00268378,0.00460679,0.00309966,0.06239554,0.04104230,0.00109273,-0.01063684,-0.01045551,-0.02171834,-0.00958188,0.01045267,0.01353099,0.03574846,0.00112559,0.01266744,-0.02558037,-0.01717251,0.03403107,-0.00762000,0.03297722,0.04310657,0.05487126,0.00071741,0.01119221,0.00233704,-0.00751500,-0.02667969,0.01400283,-0.00515484,-0.00254881,0.00821752,0.02159762,0.03535492,-0.00341589,-0.00473579,-0.01720445,0.03415055,0.02148583,-0.02799103,0.00255166,0.00248155,0.02770721,0.02528908,0.02243650,0.04104545,-0.01689437,0.00665809,0.01949019,-0.06362417,0.01159499,0.09308896,0.00952684,0.00928186,-0.02062170
DRAGONFLY,-0.00827484,0.02736042,-0.01936010,0.03603449,-0.00965645,-0.01521442,0.08957060,-0.00468246,0.00710789,-0.01698633,0.02955819,-0.02405326,-0.01041831,0.00335742,-0.02327016,0.01600112,-0.00215362,-0.02753990,-0.08306062,0.00641171,-0.06671484,0.01640240,-0.00645434,0.01548466,-0.00643758,0.03011783,-0.00686323,0.01686183,0.06035264,-0.08055131,0.00322208,0.02216266,0.00369890,0.01787717,-0.01144440,0.06106354,0.01546462,-0.02190803,0.01913939,-0.02403336,-0.01508938,-0.02760792,0.00446427,0.00051040,0.00352684,0.00771234,0.00664375,0.01487576,0.03343038,0.00906042,-0.02242841,-0.03557220,-0.03197348,0.00176003,0.02120792,0.02340892,-0.01196297,-0.00437998,-0.01450679,-0.01782608,0.02349265,0.01174072,-0.03564562,0.03766959,0.02823540,-0.00932351,-0.01721045,0.00039935,-0.00352385,-0.01930400,-0.00469940,0.01917091,-0.01949911,0.02828756,0.00834016,-0.00936446,0.02565133,-0.04791509,0.01488109,0.00367117,0.02135805,-0.00485865,-0.01711749,0.00425029,0.00113037,-0.00347355,0.01395191,0.00046725,0.00774872,0.00975116,-0.00214715,-0.00238465,0.04094977,0.01801270,-0.06690924,0.03132308,-0.01888315,-0.03881948,-0.04268022,0.19429684,-0.00326426,0.01819419,0.00846748,0.00903733,-0.01540851,-0.01914117,-0.01183207,-0.01646015,0.00209842,0.00200172,-0.03337035,-0.00589576,-0.00967183,0.02067077,-0.02111224,0.01848882,-0.04071651,0.01432511,0.02966799,-0.00762722,0.01589163,0.00434136,0.02655110,0.00472615,-0.03270062,-0.05658424,0.02224991,-0.00000000,0.03091088,-0.01710748,0.02608083,0.04356704,0.02417826,0.01179816,-0.03274941,-0.04038477,-0.04975626,-0.00853051,-0.01484416,0.00984691,-0.00943002,-0.02632269,0.04279548,-0.01906266,-0.01838687,-0.00716690,0.03467586,-0.01080254,-0.02668212,-0.01333020,-0.00888096,0.00065601,0.00630802,-0.02215761,0.01649983,-0.02520492,0.01187939,0.01950983,-0.02454830,0.02890858,-0.01908887,-0.01678936,-0.00999242,0.02762250,-0.00854298,-0.05484376,-0.00061145,-0.00914831,-0.02120799,0.00831359,-0.03093783,0.00685066,0.01003710,0.02302390,0.04028084,-0.00877359,-0.03317373,0.01904515,-0.03974980,-0.00528299,-0.01876492,-0.03494312,-0.02569645,-0.03054774,0.00690332,0.03086890,-0.01876505,-0.00496557,0.04382737,-0.00008748,-0.01376684,-0.00874691,0.04843193,-0.00885049,-0.00263047,-0.01221970,0.01119331,-0.01759672,-0.04708826,-0.00509394,0.04528014,-0.00618137,0.01283193,-0.03836238,0.00298834,-0.00448568,0.00810689,-0.01846017,-0.03359371,0.00821622,-0.02735145,0.05516020,0.05267698,-0.00481731,0.00241909,-0.05712081,-0.01406263,0.01882767,-0.04629308,-0.00310536,0.08119620,-0.02399619,-0.04761656,0.00000000,-0.01936527,-0.02119233,-0.02235208,0.06267079,0.02824093,-0.01062038,0.00061796,0.03343412,-0.03847747,0.02324526,-0.02471921,0.00999539,0.06059223,0.00525751,0.01809347,-0.01250760,0.05233362,0.02045150,0.00568818,0.00128632,0.01498952,0.00466561,-0.04657478,-0.01539080,-0.02958858,0.04559757,0.02501294,-0.00693187,-0.04910763,-0.01292869,0.03088749,0.02527264,-0.00408844,0.01584163,-0.02296196,0.08358220,0.04651748,0.01605451,-0.03350281,-0.00522691,0.02551858,0.01511957,0.00578646,0.04465651,0.00092582,0.02953491,0.01393524,0.02728539,0.00875969,0.01880533,-0.02388704,0.01076146,-0.00560850,-0.01713317,0.01680485,-0.00300674,-0.01160159,-0.02285260,0.01488712,-0.01679156,-0.01439501,-0.00240085,-0.01469748,0.02933147,-0.00339081,0.01675410,0.00077857,0.03939250,-0.01409210,0.00843579,0.01405068,0.01114492,-0.04129096,0.01760304,-0.01749971,-0.02285687,-0.01208680,-0.00244436,-0.01121967,0.00048514,-0.02847078,-0.02773256,-0.00580535,0.01257491,0.00785956,-0.00775572,0.01507135,0.01683325,0.00261469,-0.00770427,-0.01590745,0.00326226,-0.01011024,-0.01375540,0.00011897,-0.00000001,0.00679661,0.01634398,0.00882035,-0.01834189,0.04705215,0.03203440,0.01307611,-0.00068798,-0.02641099,0.04403330,-0.00079061,0.01431562,0.04146327,0.05373705,0.03830070,0.00900038,-0.01329283,0.00137693,-0.04446240,-0.01176876,0.00403040,0.02087233,0.02748040,0.00106946,-0.01721272,-0.00428600,-0.00109792,0.04909400,0.02192983,-0.00722026,0.00095111,0.03406700,-0.01431292,-0.01732568,-0.02861458,-0.01457281,-0.00375296,0.00239200,0.02071089,-0.00575855,0.00500793,0.01643689,0.03098511,0.00017958,-0.02162458,-0.00620083,0.03022414,-0.00335919,-0.02591937,-0.01537948,0.00031516,-0.00294854,0.00626473,0.03010693,0.02177665,-0.00830386,-0.00244781,0.03473187,-0.03692707,0.02110071,0.09092181,0.01008175,-0.00066424,-0.01759702
EARTH,-0.02109081,0.02974061,0.00065599,0.02879285,-0.01209179,-0.02485878,0.06325807,-0.00590622,0.01974488,0.01512135,0.03046041,-0.05361618,-0.00757260,0.01066251,-0.01532958,0.01272241,-0.03500663,0.00447848,-0.06245807,-0.00465567,-0.05870166,0.02160429,-0.01866888,0.03748168,-0.02786446,0.05373674,-0.02457957,0.01276273,0.02306704,-0.08557526,0.00563552,0.03663107,0.03910583,-0.00847598,-0.03809344,0.05222134,0.02274466,-0.00700185,0.01271041,-0.01191755,-0.01673652,-0.05954003,0.02799121,-0.02849861,0.00879564,0.01026459,0.01193047,-0.01871684,0.02456240,0.00022282,-0.01217387,-0.01999722,-0.06084159,0.01997622,0.00915014,-0.00110005,0.01249274,-0.00594006,0.01758852,-0.01547574,0.07787481,-0.01123175,-0.03020635,0.03601517,0.07040201,-0.00267283,-0.00243223,0.03223725,-0.01862753,-0.01570503,0.00468381,-0.00170621,-0.01123861,0.00192259,0.02532915,-0.01632148,-0.01344615,-0.02941203,0.03033122,-0.00085450,0.02789043,-0.01172676,-0.05056303,0.01432905,0.00926687,-0.00648952,0.01342688,0.02029709,-0.01253316,-0.00094223,-0.03638555,-0.01294915,0.03515507,0.01247551,-0.07065278,0.02842471,-0.01447983,-0.06022122,-0.02256200,0.19707489,0.01409142,0.02559920,-0.00456088,0.02378447,0.01985094,-0.02506571,-0.03902404,0.02218836,-0.00411548,0.02281514,-0.04249126,-0.00814115,-0.04926452,0.02800145,-0.00591225,-0.00191131,0.03418209,-0.00470556,-0.00982710,-0.02262163,0.00981435,0.01647747,0.00894913,0.00568390,-0.01104299,-0.06398308,0.00098020,-0.00000000,0.02917107,-0.05403319,0.04457121,-0.00042319,0.00488993,0.01046444,-0.02859962,-0.00773351,-0.00431669,0.03418839,-0.03005594,0.03002150,-0.00797337,-0.00606809,0.06978456,-0.01470130,-0.02474319,0.00797659,0.00136756,0.01775681,-0.03065236,0.03177667,-0.01853183,0.01765270,0.01201649,-0.02541566,0.01965736,-0.02820238,-0.02025901,-0.00441351,0.02623155,0.02990733,-0.00638105,-0.02253267,0.00199614,-0.01172579,-0.01410560,-0.03408962,-0.00907795,-0.02323003,-0.00815494,0.00471646,0.01520288,0.00640159,0.02994453,0.03775286,0.04961033,0.02721431,-0.04815159,0.03862621,-0.01515277,0.00546118,-0.02496055,-0.00074449,0.00899390,-0.00025431,0.01464031,0.01127304,-0.03821121,0.01427120,0.01980665,0.03234240,-0.00163095,-0.01870637,0.03526939,-0.01123601,-0.00887404,-0.00183710,0.01136570,-0.00012927,-0.03788952,-0.01232274,0.02657648,0.01917429,-0.00858501,-0.00911132,0.01094088,-0.00189653,-0.04953101,0.02472396,-0.01928528,0.00117666,-0.01314415,0.00279846,0.00795963,-0.00423604,-0.01366213,-0.05494738,0.01236691,0.01911972,-0.06296749,-0.00807357,0.04721303,-0.01181537,-0.02739743,0.00000000,-0.02138101,-0.01565221,-0.04023433,0.07331183,0.01510451,-0.02287993,-0.01815591,-0.00002738,-0.03304509,0.04429541,-0.04339964,0.00277046,0.06676511,0.01646411,0.01939479,-0.00960631,0.03852648,0.01605557,0.00670503,0.02424147,-0.01667585,-0.01464860,-0.04448278,-0.01527585,-0.02155389,0.05329245,0.00234174,-0.01499501,-0.03596065,0.00617757,0.00763721,-0.00872980,-0.02343962,-0.00474662,-0.01586715,0.05753865,0.01773243,0.00389686,-0.01737048,-0.01777118,0.03450882,0.01747890,0.01609135,0.06706730,-0.01779373,0.00251252,-0.00506583,0.03765639,-0.01554475,0.02386770,-0.03308978,0.01016654,-0.01595077,-0.03262123,0.02203108,-0.00594128,-0.02783364,0.00003452,0.00044098,-0.00060327,0.01682982,0.02931628,-0.02948832,0.04703498,-0.04293486,0.01765842,-0.01415629,0.01043789,-0.03540764,0.00744964,0.02123170,-0.00088745,-0.03589302,-0.01908335,-0.02696235,0.01843471,-0.01855250,-0.01081761,0.01483443,-0.03210712,-0.02003769,-0.02774563,0.00879795,0.02969057,-0.01047035,-0.01725305,0.00232591,0.00283394,0.01894455,0.00113804,-0.00418894,0.02190851,-0.04458932,-0.00532144,-0.02320002,-0.00000001,0.01358040,0.01178388,-0.00905643,-0.00155188,0.02978456,0.02520809,0.05668039,0.01027376,0.00477212,0.06235834,-0.01453412,0.01892523,0.00628598,0.04792626,0.05259141,-0.00309687,-0.01577202,-0.00437931,-0.03792790,0.02169815,-0.00361418,0.00989487,0.01645770,0.00140021,-0.02170230,-0.02709970,0.01763332,0.01967138,0.02445117,0.02902487,0.03068266,0.04318454,-0.03913262,-0.01124030,-0.01492796,-0.02778859,-0.00118744,0.00259498,0.00627145,-0.01901822,-0.02063457,0.02270621,-0.00457443,-0.01315248,0.01224153,-0.00896218,0.01108978,-0.00555117,-0.01048269,-0.00777958,-0.02888376,-0.00822019,0.02461711,0.03517247,0.02636197,-0.00616933,0.01323293,0.00757826,-0.04079148,0.04335473,0.06732140,-0.01264484,0.02804446,0.01883177
FEATHER,-0.02406977,0.08648162,-0.02502593,-0.00133803,-0.03116226,0.01203009,0.09922042,-0.02729692,0.01074907,-0.00349309,0.02022828,-0.03023745,0.02101513,-0.01585293,-0.02011451,0.01721676,-0.00062875,0.01076605,-0.07456768,-0.02566510,-0.06171064,0.01783581,-0.00140785,0.02830169,-0.02131221,0.04126088,-0.02530078,0.01734976,0.03174926,-0.08140545,0.01034151,-0.01560400,0.05435055,0.01146153,-0.05255173,0.02992662,0.02299235,0.00451913,0.01487266,-0.00750032,-0.01976438,-0.06230118,-0.00000376,-0.00847712,0.02276726,0.01100439,0.00957561,-0.00091380,0.01968274,0.00917531,-0.01240827,-0.01541784,-0.07554833,-0.00428813,0.04237674,0.04411701,-0.00704532,-0.00268813,-0.01155948,-0.01303065,0.01565941,-0.00286071,-0.04226399,0.04082306,0.02784374,-0.00884200,0.00435292,0.01973130,-0.02138191,-0.02324428,0.03496568,-0.00944750,0.00713906,-0.01005179,-0.00115734,-0.02209496,0.01293875,-0.06479486,0.04668185,0.00230566,-0.01946304,-0.02848295,-0.04522777,0.03653346,0.01371354,-0.01803696,-0.00054790,-0.02881401,0.00820039,0.01009652,-0.02918945,-0.01298140,0.01699545,0.02860944,-0.04982511,0.02274010,-0.02396440,-0.06331532,-0.07584508,0.23127997,0.01057890,0.04557325,-0.02997127,0.00310117,0.01776426,-0.01450243,-0.01061998,-0.01586686,-0.01898552,0.00095471,-0.02364360,-0.00555444,-0.02243926,0.01651279,0.02360598,0.04164687,-0.02547212,0.01194121,-0.00232494,-0.03019677,0.04163545,0.01529617,0.01245279,0.00080177,-0.03842928,-0.05350737,-0.00872994,-0.00000000,0.02257619,-0.01779159,0.04421744,0.01936937,0.00585244,-0.00120738,0.00371687,-0.01825707,-0.04081255,0.02593349,-0.00771559,0.03294918,-0.00957346,-0.01726804,0.06583063,0.01848936,-0.02543833,0.01878234,0.01481922,0.00329558,-0.00372323,0.03172057,-0.01186693,0.01390549,-0.01383757,-0.01960909,0.01702426,-0.02252136,-0.03607104,0.02199038,0.02530525,0.01832571,0.02546749,-0.02277089,0.00113638,-0.02297795,-0.01084033,-0.07727227,0.02721624,-0.01030826,-0.00776974,-0.01613227,0.00663513,0.00825470,-0.00763434,0.03333917,0.04187576,-0.02060085,-0.00049214,0.04421386,0.00376527,-0.02257664,-0.00583159,-0.00999195,-0.01311912,-0.00059898,-0.00064808,0.03100433,-0.02874883,-0.03106994,-0.00354852,0.01367601,-0.03913428,0.00573792,0.00757312,-0.01445433,-0.02738746,0.00436963,0.02763746,-0.00533687,-0.02396886,0.00754534,-0.00279480,-0.03332567,-0.01019574,0.01652569,0.03734715,-0.00242609,0.02396154,-0.01617522,-0.05162854,0.02022032,-0.00542870,0.00219844,0.05364316,0.01689171,0.00612657,-0.05719019,0.01258858,0.01549874,-0.03124470,-0.00341129,0.05001772,-0.03019478,-0.05237517,0.00000000,-0.01603715,-0.01304258,-0.02099787,0.09196099,0.05940980,-0.00888398,-0.01299435,0.01772266,-0.03278643,0.03126959,-0.02436453,-0.00964180,0.04308881,0.00661941,0.02591981,0.00049380,0.02823096,0.00751149,-0.00084553,0.01977360,0.00158326,0.01128296,-0.01445044,-0.00927176,-0.04011057,0.02095601,-0.01651086,-0.04918993,-0.00683136,-0.01657868,0.04366091,-0.01791953,-0.03492430,0.02271117,-0.00321403,0.05776779,0.04594696,0.01014941,-0.03304376,0.03230231,0.00732556,-0.00906343,-0.00783694,0.04903313,-0.00317176,0.00115769,0.00696475,0.02222290,0.01234719,0.00279169,-0.04188879,0.00021568,0.00683046,0.02517333,0.01572580,-0.00181862,-0.02199395,0.00375384,0.01436913,0.01744141,0.00051568,0.02331010,-0.04368584,0.05721774,-0.00339728,0.02239715,-0.03634249,0.03385386,-0.05735505,0.01436562,0.02120683,-0.00294446,-0.02984000,0.00836058,-0.05331883,-0.00851433,-0.03692439,0.01509994,-0.00701574,-0.01416875,-0.04000761,-0.04245029,-0.01825095,0.00266712,-0.02905926,0.01173492,0.05946425,0.01848333,0.02227535,-0.00926488,0.00224597,0.02827612,0.00476855,-0.02338819,0.00465964,-0.00000001,-0.02417106,0.02080124,-0.02516504,-0.01282673,0.03475261,0.01872720,-0.02132926,-0.02570121,-0.00232565,0.03420767,0.01205082,-0.00851385,0.01105914,0.02847516,0.02407175,-0.00639014,-0.00332776,0.01224657,-0.02461175,-0.01751409,0.01880748,0.01111059,0.01850436,-0.02590180,-0.03007614,-0.01157036,-0.00666018,0.04310981,0.01928347,0.05341177,0.01836191,0.04181335,-0.02292337,-0.04161003,0.00575753,0.02633597,0.01030712,-0.03461625,0.02171015,0.01402318,-0.01318831,0.03275596,0.03585356,-0.00024859,0.01113370,0.00396288,0.00671300,-0.00032700,-0.01719624,-0.03982223,0.02567459,-0.00828338,0.00376088,0.03015150,0.02396453,0.01383491,0.01582995,0.01352003,-0.03034444,0.00275675,0.11319555,-0.02046497,0.02754321,-0.00216628
HORSE TRACK,0.02095794,0.02427259,-0.01515555,0.02704763,-0.01545265,0.01816948,0.09021534,0.00008334,0.00072886,0.00043550,0.04619146,-0.01320258,-0.01004275,0.01396740,-0.02290574,0.01323139,0.00393300,0.00551209,-0.04952424,-0.00581244,-0.04915190,-0.00752327,-0.00912861,0.03425998,-0.01792367,0.04468168,-0.02181696,0.00699723,0.01644236,-0.06886701,-0.00538845,0.04280433,0.00077624,0.00469869,-0.05063103,0.02411188,0.01997567,-0.01170688,0.01800219,-0.00713304,0.00218761,-0.05322948,0.02660931,-0.00911730,0.02182695,0.01096470,0.02835770,0.02439308,0.02691047,0.02099077,-0.01287987,-0.03026736,-0.04923310,0.03230141,0.00838702,0.01221214,0.00435554,0.01665182,0.00445469,-0.02654901,0.06087104,0.00660801,-0.03493782,0.03245785,0.03633777,-0.02645038,-0.01753927,0.02562446,-0.01758876,-0.01346199,0.02999686,-0.01723656,-0.01881451,0.00066772,0.01754642,-0.03861634,0.02126260,-0.01519253,0.03603597,-0.03533116,0.00160773,-0.03489069,-0.01920805,0.03286096,0.01157900,-0.00928443,-0.00502282,0.01229430,0.01937305,-0.00391587,-0.02248133,-0.01439029,0.00245877,-0.01292055,-0.05389852,0.01617787,-0.01932332,-0.02938226,-0.01882963,0.19822046,0.02234088,0.03542893,0.02119243,0.02873962,-0.00248754,-0.00920762,-0.02266122,0.01584708,0.00456772,0.02134360,-0.03931036,-0.00915885,-0.01117530,0.03168028,-0.00344290,-0.00168798,-0.04097396,0.00675142,-0.01697681,0.02277782,0.00505361,0.00416835,-0.00198135,-0.00104734,-0.02237051,-0.08853365,0.01892731,-0.00000000,-0.00763647,-0.06177053,0.04440453,0.02449214,0.01934229,-0.01108210,-0.02708295,-0.02764432,-0.02022800,0.02112827,0.01727779,0.01862043,-0.00271004,0.00535392,0.09892201,-0.04597044,-0.00088268,0.00057148,0.00825691,0.01002703,0.01151020,0.00032836,-0.01163373,0.00538697,-0.01073678,-0.02928823,-0.01018533,-0.04050351,0.02570630,0.02055273,-0.00101448,0.02388242,-0.02944155,-0.02977083,-0.00305638,-0.01513189,-0.02643806,-0.05185376,0.00081286,-0.02007516,-0.01537881,-0.01698083,-0.00673053,-0.00835448,-0.00517974,0.04255975,0.06324084,0.02553879,-0.06826517,0.05634020,-0.02352298,-0.01926969,-0.03121959,-0.04190030,0.00546001,-0.02259453,0.00931560,0.01693765,-0.03259179,-0.01029435,0.04747055,0.03181753,-0.01309441,-0.00846641,0.00976195,-0.03326503,-0.00157112,0.00629510,0.02645852,0.02062914,-0.02802081,0.00075426,0.03795831,0.01756484,0.01926636,0.01121189,-0.00305590,-0.00645215,-0.03783540,-0.02612266,-0.08593205,-0.00260121,-0.00483507,0.04617653,0.05174006,0.02460926,-0.01583504,-0.08265492,0.00287103,0.01111888,-0.04077683,-0.01267825,0.00575829,0.00414791,-0.01711550,0.00000000,-0.01455239,0.00620045,0.01098451,0.06033340,0.02679766,-0.00492317,0.02844640,-0.01670612,0.01921100,0.05028247,-0.08124027,-0.02480524,0.06597748,0.02937561,0.03944481,-0.02583993,0.06328153,0.01751309,-0.00436208,0.01160261,-0.01392782,-0.00478898,-0.00237071,-0.03077785,-0.00930721,0.05412659,-0.00522249,0.00063055,-0.05218929,0.00374164,-0.01440228,-0.00811419,0.00186570,-0.00632808,-0.04605753,0.08763667,0.01869170,0.02427247,-0.01979640,-0.02070288,0.03401053,-0.01298143,0.03131844,0.08135878,-0.00028181,-0.00681185,-0.01894404,0.05921367,0.01382721,0.00890530,0.01635544,0.03573480,-0.00064823,-0.01573299,0.01626311,0.02540630,-0.01933197,-0.02796532,0.00618631,-0.02327022,-0.00970122,0.03848486,-0.04821237,0.05287257,-0.03851473,-0.00088161,-0.02256878,-0.01241311,-0.02659510,0.00042936,0.01376502,0.00624554,-0.01431945,-0.00487640,-0.02769241,0.00315978,-0.00282277,0.01350585,0.00395793,-0.00793140,-0.03311133,-0.03538634,0.01292807,-0.00082148,-0.03647915,0.00293281,-0.01829173,-0.01399864,-0.01195992,-0.01458965,0.00035967,0.02551815,-0.00755150,-0.03291568,-0.02063028,-0.00000001,-0.02145963,0.02289359,-0.00110420,-0.02317110,0.02610197,0.03126105,0.03785850,0.03629699,0.00460076,0.06546246,0.01131522,0.01611761,0.03397993,0.06199754,0.01718088,-0.00168159,-0.00475395,-0.01555097,-0.06006539,0.00737064,0.01339862,-0.01378115,0.01205519,0.02710803,-0.01341413,-0.02333723,-0.01955854,0.01768379,0.02921913,0.01772721,0.02605818,0.04933548,-0.02635472,-0.02823387,-0.02487608,-0.01307152,-0.01293702,0.02077618,0.00274166,-0.02124624,-0.00121196,0.03510229,0.01598998,0.00310580,-0.00319472,-0.02410832,-0.00753484,-0.00405479,-0.02176919,-0.04645083,-0.02379286,-0.02246968,0.02845651,0.03475774,0.03521818,0.02371349,0.00331466,-0.01684766,-0.04825569,0.03625050,0.05394683,-0.00133949,0.01454463,-0.01362579
HOUSE,-0.02162877,0.04131069,-0.02389166,0.02692210,-0.00136131,0.01092442,0.08684413,-0.01422577,0.00207873,-0.00233070,0.03321958,-0.02380598,0.02864504,-0.00559384,-0.00955075,-0.01478515,-0.01178651,-0.01289549,-0.06541632,-0.02540478,-0.05378899,0.00253192,0.00981589,0.01990990,-0.03257067,0.06521869,-0.02726445,0.00151709,0.01524597,-0.07043586,0.00061092,-0.01495736,0.04930568,0.01234660,-0.03129134,0.02445065,0.02865412,-0.00017355,0.02782728,-0.02969087,-0.01672254,-0.03446241,0.03106645,-0.01271061,-0.00371648,0.02831337,0.02609322,-0.02436921,0.03963713,-0.01057587,-0.00528858,0.00520920,-0.03156455,0.03254988,0.02219929,0.01630524,-0.01567165,-0.00634409,-0.01024540,-0.01280773,0.04772449,0.00865862,-0.04128731,0.02142192,0.02111083,-0.03229882,0.00313177,0.05052677,0.02518220,-0.01636921,0.01188381,0.01071844,0.01243209,0.02348500,0.03191402,-0.01014500,0.02484909,-0.04759546,0.04447173,-0.03682667,0.01267932,0.00406138,-0.00728128,0.02664376,-0.01124078,0.00255890,0.01918135,-0.00249650,0.00751984,0.00666642,-0.02657471,-0.01246430,0.04375618,0.01594428,-0.07488397,-0.00648392,-0.00774615,-0.03636619,-0.04973603,0.23542452,-0.00654895,0.00735635,-0.00321499,0.01156830,-0.01711622,-0.01601692,-0.01938429,0.03584044,-0.02042907,0.01081968,-0.04406730,0.00958306,-0.04353157,0.02189363,0.00193617,-0.00644790,0.02586669,-0.00998182,0.02394710,0.01466550,0.01858087,0.01161312,0.02283172,0.00657356,-0.00616263,-0.06625473,-0.01012575,-0.00000000,0.01303848,-0.03215563,0.00149609,0.02003614,0.01558880,0.02413016,-0.02854604,-0.00632328,-0.03026357,0.04844882,0.01803464,-0.00692702,-0.01900127,-0.02763274,0.07652864,0.01638247,-0.05166805,0.02262613,-0.02038111,-0.00379954,-0.02608295,0.03681307,-0.01085346,0.04494540,-0.02171042,-0.04925892,0.00626582,-0.02658887,0.03221986,0.02558768,-0.00785800,0.03453708,0.00400067,-0.04063332,-0.00507586,0.01405523,-0.01056111,-0.07597820,-0.01187094,-0.03857612,-0.01492495,-0.01449369,0.03360062,0.01692926,0.01404515,0.02412750,0.03408473,-0.00368250,-0.05588891,0.03947705,-0.02423798,-0.01047416,-0.04485533,0.00814132,-0.02575594,-0.01020227,0.02026436,0.01277926,0.00366903,-0.01154049,0.05169538,0.01898363,-0.03018136,0.00745811,0.00180265,-0.05163942,0.02677027,-0.01880930,0.04170413,-0.00804132,-0.06012183,-0.01234795,0.02149865,0.02685316,-0.03055140,0.01724574,0.01356280,0.00965375,-0.03088184,-0.01853604,-0.01031096,0.01158833,0.00242428,0.04975649,0.04508882,-0.00547583,-0.02211028,-0.02323871,-0.02370446,0.04101040,-0.05138930,-0.01253728,0.09198617,0.01980114,-0.02190443,0.00000000,-0.02473646,-0.03001503,-0.02706080,0.02646702,0.00900766,-0.02844089,-0.02567738,-0.03788998,-0.00073494,0.04011772,-0.04627130,-0.03097809,0.09048022,0.02639293,0.01568265,-0.02272376,0.04816063,-0.00789818,0.00240588,0.00267214,-0.01492215,0.02625524,-0.02031616,0.02610522,-0.01182105,0.02812677,-0.02134079,0.02366992,-0.00350862,0.00979649,-0.00801534,-0.02980560,-0.00516379,0.01859696,-0.02127528,0.05415649,0.04311071,0.01586266,-0.05387294,-0.01095741,0.04428902,0.00497329,-0.02271134,0.06156585,-0.02430090,0.02255957,-0.01314647,0.03177598,-0.00217963,0.02471776,-0.04983466,-0.00275779,0.00963433,-0.03007645,0.00483223,-0.00365371,0.00217480,-0.00686146,-0.00238961,0.03636404,0.01673230,0.02188630,-0.05457131,0.06525133,-0.03616041,0.02019961,-0.05802821,-0.00377380,-0.00739817,0.02056034,0.01190749,-0.00190977,-0.05442679,0.00661696,-0.05679561,-0.00553505,-0.03270467,-0.00821420,-0.01092873,-0.01723550,-0.01968855,-0.04967008,-0.02937974,0.02210287,-0.00390515,-0.03638694,0.06016074,0.02700126,0.00691196,-0.03287395,0.00572791,-0.00165766,-0.02102387,-0.02081622,-0.02280915,-0.00000001,0.02114942,0.01075257,0.00611472,-0.03497332,0.03493499,0.00370149,0.00212595,-0.01205575,0.01371864,0.06163416,0.01769832,0.01935655,0.02127091,0.00633423,0.02050740,-0.01166109,-0.01648212,0.02352821,-0.03595479,0.00634542,0.01940181,-0.01587391,0.00542124,0.03384178,-0.02761084,-0.01992324,0.01842652,0.05347560,0.00629238,0.04227551,0.01256993,0.04487823,-0.03081064,0.01201432,-0.02717328,0.00093784,0.01508978,-0.01763632,0.01569957,-0.01527071,-0.00953015,-0.01057403,0.03404194,-0.01829027,-0.01238694,0.01299098,0.01927513,-0.01600269,0.00009793,-0.03388820,-0.01390941,0.00576449,-0.00242577,0.06828734,0.02627167,-0.00369191,0.00786703,0.02124397,-0.03132073,0.04550498,0.06644136,0.02195134,0.03579247,0.00537246
LIGHTNING,-0.01528891,0.05590688,-0.00997261,0.04016129,-0.00631183,0.00980044,0.09530986,-0.02511833,0.05826205,-0.02028719,0.00336985,-0.02220094,0.02151441,-0.02482784,-0.02332872,0.02110879,-0.02054617,-0.02079765,-0.05864670,-0.01996920,-0.05343601,0.02408508,-0.01323040,0.02217373,-0.00676891,0.05609352,-0.02335774,0.02247608,0.01240960,-0.07252420,0.00113212,-0.01929251,-0.01875596,0.01182758,-0.04674347,0.00806997,0.01961225,0.02594602,0.02483077,-0.00484286,-0.00884489,-0.04290207,0.00635283,-0.02383417,-0.00720986,-0.00081698,0.01409627,-0.01119217,0.03252580,0.00738636,-0.01282957,-0.03061270,-0.04713707,0.03073956,0.03356077,0.01009159,-0.00626544,0.00432511,0.00168458,0.00594718,0.02903499,-0.01233266,-0.03499766,0.02739880,0.03619703,-0.02713290,-0.00491520,0.02665312,-0.00594307,-0.04042783,0.01471649,-0.00927503,0.00939659,-0.02636385,0.01371284,-0.00958211,0.02499522,-0.06250136,0.01881203,0.00071573,0.05845228,-0.00088824,-0.02591025,0.02292115,0.02010877,0.01754778,0.03073771,0.00496895,-0.01920586,0.01833295,-0.02927953,-0.03781466,0.01600525,0.04237820,-0.03182109,0.01486264,-0.00812261,-0.07864356,-0.06653904,0.20799714,0.00400504,0.02571752,0.00353009,0.00290407,0.01708565,-0.02301579,-0.03881013,0.00846589,-0.01073718,-0.00574810,-0.00271719,-0.01596479,-0.05526397,0.01054593,0.01616483,-0.00367514,-0.00188493,0.01879388,-0.00743556,0.01365164,0.01950861,0.01698520,0.00803518,0.03263629,-0.02572422,-0.04860954,-0.00349587,-0.00000000,0.01870269,-0.04012739,0.05283880,0.00757039,0.04492408,0.01385023,-0.00880180,-0.01701999,-0.04180408,0.03243349,-0.00553729,0.03889073,0.00787473,-0.00280146,0.06438426,-0.00893403,-0.03325285,-0.00874159,0.01157286,-0.02932561,-0.02775464,0.03047196,-0.00618125,0.02614252,-0.00356541,-0.01527829,0.01763472,-0.02224014,0.00518361,0.03581528,-0.00953797,0.04525744,0.01399224,-0.00670287,-0.00041678,0.01510863,-0.02001689,-0.05519665,0.00936068,-0.02648217,-0.02640212,-0.00122104,-0.04321388,0.03284606,0.00286921,0.01562839,0.04374645,-0.02233909,-0.06233020,0.01367595,-0.02846760,-0.01731709,-0.01291900,-0.00024696,-0.00225100,0.00038262,0.02168481,0.02677653,0.01317460,-0.02079001,-0.00206041,0.01525023,-0.00254546,-0.02369305,0.03372920,-0.03869016,0.02617951,-0.03379807,-0.00437545,-0.02796937,-0.02700598,-0.03943716,0.03503845,-0.00518321,-0.00027229,-0.01326891,-0.00778018,0.02998437,-0.02535518,-0.01447202,-0.04584818,-0.00317721,0.01947231,0.03696446,0.04246435,-0.01550171,-0.01532108,-0.03169481,-0.02739979,0.02900911,-0.02570698,0.01923778,0.09837222,-0.01371073,-0.04306452,0.00000000,-0.02022870,-0.03874709,-0.04566244,0.05578464,0.02788987,-0.02616171,-0.00733529,0.02370412,-0.01095402,0.03482561,-0.02731333,-0.00292939,0.04169372,0.01642967,0.03911614,-0.00778016,0.04756997,0.03576973,-0.00868127,0.00589974,0.01333071,0.01225535,-0.03161126,-0.01647135,-0.04074668,0.03628828,0.02294599,-0.00445280,-0.03495732,-0.00861101,0.00007390,0.01499786,-0.00020473,0.02563092,-0.04217566,0.06130147,0.04018863,-0.00303713,-0.00863838,-0.02534761,0.02634856,0.03233406,0.03973764,0.04566336,-0.02483062,0.01413804,0.00075018,0.05403034,-0.01031334,0.01686345,-0.03580045,-0.00441353,-0.00813571,0.00810233,-0.00031871,-0.02239504,-0.02504899,-0.00638860,-0.00492232,0.01132490,0.01025414,0.01627917,-0.00847890,0.04423426,-0.01751464,0.03385653,-0.02766862,0.01752043,-0.00212512,-0.00921859,0.01747881,0.00976979,-0.04283627,-0.00612874,-0.02889600,0.00649649,-0.04273458,-0.00819354,-0.00970672,-0.03132231,-0.03077537,-0.01483978,-0.03131958,0.00741162,-0.01356701,-0.02753543,0.04624166,0.02193759,0.00196670,-0.00720137,-0.00311684,0.02066391,-0.02311401,-0.01133672,0.00149008,-0.00000001,0.00980357,0.01489651,-0.00222784,-0.02555701,0.05599472,0.02966562,0.04055273,0.01606220,-0.00653929,0.03413174,0.02856015,-0.01001740,0.04036186,0.04481055,0.01665439,-0.00536936,-0.00548869,-0.01377496,-0.02620804,-0.01138087,-0.00734653,0.01666453,0.03178233,0.02407628,0.02722370,0.00065423,0.00726207,0.03101934,-0.00132006,0.02369423,-0.00523867,0.04996853,-0.05528758,-0.01397206,-0.06337385,-0.01455166,-0.00096135,-0.02563025,0.00492306,-0.01272357,0.02032742,-0.00239535,0.04156156,-0.01087870,-0.05081392,-0.00277814,0.02528271,-0.01673001,0.00034804,0.00510674,0.00063625,0.00864059,0.01325094,0.02335716,0.02720502,0.01252833,-0.00619981,0.01956097,-0.05717040,-0.00707286,0.08805229,0.00439143,0.01307600,0.00298256
STAR,-0.02723671,0.02076123,-0.00746086,0.02521149,-0.02864648,-0.01720836,0.09144359,0.00095326,0.02155979,-0.00533367,0.01670001,-0.03764000,-0.00723734,-0.01921255,-0.02800277,0.00344535,0.00555202,-0.02250654,-0.05605892,0.00686867,-0.04074028,0.02169194,-0.00515470,0.03339785,-0.01744856,0.04895493,0.00387950,0.02405505,0.03595709,-0.08232287,0.02961179,0.04803268,-0.01764021,0.00629346,-0.03358356,0.01388102,0.00313407,0.00296322,-0.01085828,-0.00720782,0.00784648,-0.05840829,0.01290245,0.00642777,-0.01093212,0.00138550,-0.01533491,-0.02075960,0.05260439,0.03366240,-0.02278196,-0.02340827,-0.03707590,0.03208967,0.02502453,0.00997718,0.00487376,-0.00635890,-0.00408547,-0.01825942,0.06104880,-0.00169532,-0.03165178,0.01199440,0.05289951,-0.02623634,-0.01914512,0.00433784,-0.02777908,-0.03720379,0.00620822,0.00438482,-0.00833352,-0.00748516,0.01384089,-0.00763435,0.04893818,-0.04101007,0.02886951,-0.01180543,0.00389846,0.01184255,-0.03665710,0.03004895,-0.00216182,0.00291284,-0.00365061,0.02236529,-0.02886624,0.01530833,-0.02228138,-0.00768868,0.01337961,-0.00670079,-0.03705183,0.03935718,-0.01954411,-0.04972379,-0.00950438,0.16675413,0.01353303,0.02992302,-0.01787911,0.01769786,0.01438822,-0.02789567,-0.00175277,0.00928929,0.01413740,0.01146635,-0.00133452,-0.02410703,-0.04177282,0.00763418,-0.01242216,0.01180112,0.01401891,0.01680159,-0.01695127,-0.00585895,0.00670848,0.01852231,-0.01311716,0.01835370,-0.02841314,-0.04736137,-0.02079563,-0.00000000,0.02432333,-0.01487694,0.06332783,0.01181478,0.01015512,0.00638244,-0.03320054,0.00245494,-0.02179894,0.01089771,-0.04083817,0.00892574,-0.00333558,0.00032256,0.04293733,-0.01570952,-0.02495177,0.00244921,-0.01027772,0.00077851,-0.02877233,0.02459431,-0.01623378,0.00437984,-0.01214778,-0.01102574,-0.01212777,-0.03763578,-0.00251891,-0.00043979,0.01465388,0.02529867,0.01776413,0.02780768,-0.00467971,-0.00068522,-0.00864003,-0.03989794,-0.01516463,-0.01741453,0.00259065,0.01258869,-0.00596176,-0.00289145,0.01280236,0.01547635,0.02832426,0.00660664,-0.01022352,0.02060076,0.00439289,0.01589944,-0.02951477,-0.00095007,-0.00073579,-0.00152690,-0.01203006,0.01182648,-0.01824238,0.01770664,0.02524178,0.04504227,0.01645616,0.01454294,0.00859253,0.00276579,0.00463418,-0.01620032,-0.00493287,-0.00047324,-0.05488529,0.00080537,0.04969652,0.02353634,-0.01937666,0.00135898,0.01409912,0.01674672,-0.01999840,-0.00777234,-0.05113678,0.00400899,-0.00456883,0.00736657,0.00711266,-0.00128430,-0.03383119,-0.04890874,0.01872719,-0.00491341,-0.03825070,-0.02231129,0.03152480,-0.04766140,-0.08238003,0.00000000,-0.01799427,-0.02380790,-0.01843268,0.03214004,0.05600620,-0.00566324,-0.00044975,-0.01144258,-0.02049347,0.04289127,-0.02279915,-0.00220516,0.06385137,-0.02519638,0.05209321,0.00104093,0.03616146,0.03808277,-0.01108872,0.01599982,-0.00644176,-0.00110826,-0.02910322,-0.01121633,-0.03788783,0.03226672,0.03438853,-0.00652543,-0.05179811,-0.00113918,-0.00039030,-0.01107776,-0.01466009,0.00674395,-0.02950034,0.05907159,0.01604913,-0.00202529,-0.03527766,-0.01192211,0.01612042,0.02922821,0.01253596,0.08304099,-0.01608052,-0.01516551,-0.00748697,0.04223125,-0.01770172,0.02974911,-0.02192543,0.00057515,-0.00947717,-0.00762050,-0.00142279,-0.00300108,-0.01657080,0.00723572,0.03364870,0.00296897,0.00948292,0.01255898,-0.00833635,0.02911594,-0.02054111,0.00433935,-0.00301816,0.03594526,-0.04276217,0.01122539,0.04200175,0.00425391,-0.04343469,0.01784725,0.01222206,0.02904633,-0.00828957,-0.01410224,0.00178404,-0.02685887,-0.05496518,-0.02812851,0.00249174,0.03728390,0.02542226,-0.00048492,0.00904183,0.00979087,0.00192226,-0.02042554,-0.00815984,0.01902310,-0.01506802,-0.01258211,0.00652883,-0.00000001,0.00230900,0.02813385,-0.00367245,0.00651222,0.03137462,0.00919018,0.03512420,0.02010662,-0.01032975,0.04922518,0.00358363,0.02142097,0.03826922,0.01151126,0.04549429,-0.00163926,-0.01801512,-0.00322963,-0.04028805,0.01678296,-0.01903465,0.02559288,0.02971044,-0.02164108,-0.01254706,0.01214143,0.00963833,0.04897240,0.02672994,-0.00353760,0.02099522,0.04602008,-0.03331280,-0.04231008,-0.01588514,-0.01679040,-0.00008881,0.01583576,0.01045493,0.02749402,-0.01890027,0.02125371,0.00296222,-0.01427407,-0.03267627,0.00131651,-0.00776748,-0.01956252,-0.02032220,-0.01758327,-0.00377049,0.02120233,0.00759266,0.02052371,0.01687130,0.00163914,-0.01998039,0.02070620,-0.03898969,0.02973375,0.07993298,-0.00057391,0.01441769,0.00986676
THUNDER,-0.01353544,0.03899622,0.00367892,0.03432259,0.02108175,-0.00191499,0.10756313,-0.01104254,0.03355333,-0.02859714,-0.01220360,-0.04294933,0.01632790,-0.01818546,-0.03832233,0.01918012,0.00458527,-0.02309980,-0.04285297,-0.00196037,-0.04433116,0.03700751,-0.03052615,0.03160906,-0.02540018,0.04889252,-0.01873820,0.01846077,-0.00003513,-0.07169589,0.01505721,0.01550110,0.03653016,0.00085986,-0.03925456,0.01146644,0.03441974,-0.00115149,0.01552070,-0.02582093,-0.01281959,-0.05309209,-0.00199404,-0.02667076,0.01992089,-0.01730565,0.00144440,-0.00823729,0.01647948,0.00988445,0.00277518,-0.03205323,-0.03672247,0.01109464,0.02052726,0.00129600,0.00875880,-0.00652473,0.00488922,-0.00503821,0.02449668,-0.00846233,-0.03802458,0.03736281,0.05201887,-0.01212829,0.00181829,0.03051285,-0.00451934,0.00705083,0.00157806,0.01085864,0.02215057,-0.00705140,0.01438743,-0.00357526,0.00815445,-0.07986605,0.04142606,0.00732147,0.01731887,-0.03936591,-0.03336829,0.00487471,-0.00455499,0.00536126,0.02736673,0.01083753,-0.00016211,0.03074367,-0.03675805,-0.03124107,0.00444538,0.04344986,-0.04090898,0.01774501,-0.01815938,-0.06839304,-0.05567091,0.20150401,-0.00836997,0.03066605,-0.01104636,-0.03035995,0.03739055,-0.04022758,-0.04497634,-0.00873987,-0.02047207,-0.01904798,-0.02728545,-0.00825559,-0.01558820,0.00832471,0.03830547,-0.00158637,-0.02199604,0.00377546,-0.01761813,-0.00186144,0.03885660,0.01184252,-0.00759041,0.02109919,0.00838046,-0.05658270,-0.01333888,-0.00000000,0.04010859,-0.01383598,0.03831134,0.04136569,0.03781323,-0.00853135,-0.01683849,-0.03606870,-0.03084047,0.00971882,-0.01891568,0.01717858,-0.01051382,-0.03958128,0.05176688,-0.01006642,-0.03112657,0.04180748,-0.00159918,-0.02197370,-0.03587290,0.00947978,-0.00656716,0.02155761,-0.00112812,-0.00179641,0.01321739,-0.02412618,0.00951346,0.02309870,-0.00324769,0.03335461,0.03714366,-0.00182848,0.00347935,-0.00695579,-0.01808274,-0.02969774,0.00863648,-0.03179744,-0.02336782,-0.00008552,-0.04557507,0.00868681,0.01770809,0.01069237,0.04247674,-0.00642747,-0.03682424,0.00387674,-0.00181596,0.00419085,0.00367449,0.00313940,-0.00965455,-0.00041181,0.03308032,-0.00228865,0.01705145,-0.01662127,0.01482103,0.01175838,0.01884782,-0.06803323,0.02401030,-0.03829366,-0.01152450,-0.01971678,0.01574502,-0.00380913,-0.02442197,-0.02494239,0.02435058,-0.00098940,-0.01075632,-0.00840895,0.02642515,0.00564284,0.00256604,-0.03263311,-0.03599795,-0.01209309,-0.00317441,0.03471435,0.02727852,0.01399944,0.00560051,-0.04762520,-0.05408181,0.04511386,-0.04515483,0.00513975,0.09719735,-0.03537229,-0.03293939,0.00000000,-0.01349077,-0.01475308,-0.06549436,0.06113678,0.01477442,-0.00069956,-0.00014140,0.04892054,-0.01761263,0.04188219,-0.04396776,-0.00803927,0.04366240,0.02290828,0.01505233,-0.00653899,0.07247379,0.02125181,-0.00400499,0.01676061,-0.00334422,-0.00989481,-0.01066680,-0.01877013,-0.04334439,0.04508683,0.01871657,-0.02153698,-0.03076809,-0.03188191,0.00866437,0.01252173,-0.00268172,0.01797886,0.00438718,0.06182827,0.06291781,-0.00363149,-0.04093738,-0.01162848,0.02319030,0.03191103,0.00708310,0.04405996,-0.00593291,0.02823788,0.02729610,0.04153753,0.00942079,0.01460857,-0.02657678,-0.00098820,0.00771619,0.02427013,-0.00836502,-0.00916941,-0.01598664,-0.03503695,0.00218837,0.01192052,-0.02849608,0.00917944,-0.02702833,0.00886582,-0.00243294,-0.00410606,-0.03075307,0.01251731,-0.01188711,0.00639162,0.03521600,-0.00929409,-0.03872405,-0.00826033,0.00619461,0.00433227,-0.05190149,-0.01134435,-0.01695077,-0.03905608,-0.03889453,-0.01596897,-0.02906432,0.04158874,-0.02797756,-0.02347361,0.06599946,0.00360936,0.00912706,0.00158991,-0.01282060,0.04929836,-0.01422681,-0.00439313,0.00148344,-0.00000001,-0.00477877,-0.00848244,-0.00569540,-0.02632269,0.06097742,0.03642259,0.02497944,-0.00574437,0.00552989,0.02612046,-0.00028467,0.00070514,0.04484590,0.05048572,0.02866547,0.00707283,-0.01593907,-0.02450645,-0.04838877,-0.02589616,-0.00278093,0.03161814,0.00615161,0.00340670,0.02105128,-0.00926174,-0.01346764,0.02394461,-0.02331001,0.04209009,0.00972739,0.05592498,-0.05180572,-0.01538327,-0.03831497,0.02609116,0.01191898,-0.00813369,0.02688255,0.01644902,-0.01535415,0.02520274,0.02809257,-0.01763547,-0.02638906,-0.00735184,0.01743639,-0.00509575,-0.02245339,-0.01712401,-0.00257871,0.00786073,0.01364778,0.03349444,0.05238324,0.01322105,0.00576775,0.00682693,-0.03858351,0.00979670,0.09091204,-0.01138222,0.00369758,0.01482653
