,dim_0,dim_1,dim_2,dim_3,dim_4,dim_5,dim_6,dim_7,dim_8,dim_9,dim_10,dim_11,dim_12,dim_13,dim_14,dim_15,dim_16,dim_17,dim_18,dim_19,dim_20,dim_21,dim_22,dim_23,dim_24,dim_25,dim_26,dim_27,dim_28,dim_29,dim_30,dim_31,dim_32,dim_33,dim_34,dim_35,dim_36,dim_37,dim_38,dim_39,dim_40,dim_41,dim_42,dim_43,dim_44,dim_45,dim_46,dim_47,dim_48,dim_49,dim_50,dim_51,dim_52,dim_53,dim_54,dim_55,dim_56,dim_57,dim_58,dim_59,dim_60,dim_61,dim_62,dim_63,dim_64,dim_65,dim_66,dim_67,dim_68,dim_69,dim_70,dim_71,dim_72,dim_73,dim_74,dim_75,dim_76,dim_77,dim_78,dim_79,dim_80,dim_81,dim_82,dim_83,dim_84,dim_85,dim_86,dim_87,dim_88,dim_89,dim_90,dim_91,dim_92,dim_93,dim_94,dim_95,dim_96,dim_97,dim_98,dim_99,dim_100,dim_101,dim_102,dim_103,dim_104,dim_105,dim_106,dim_107,dim_108,dim_109,dim_110,dim_111,dim_112,dim_113,dim_114,dim_115,dim_116,dim_117,dim_118,dim_119,dim_120,dim_121,dim_122,dim_123,dim_124,dim_125,dim_126,dim_127,dim_128,dim_129,dim_130,dim_131,dim_132,dim_133,dim_134,dim_135,dim_136,dim_137,dim_138,dim_139,dim_140,dim_141,dim_142,dim_143,dim_144,dim_145,dim_146,dim_147,dim_148,dim_149,dim_150,dim_151,dim_152,dim_153,dim_154,dim_155,dim_156,dim_157,dim_158,dim_159,dim_160,dim_161,dim_162,dim_163,dim_164,dim_165,dim_166,dim_167,dim_168,dim_169,dim_170,dim_171,dim_172,dim_173,dim_174,dim_175,dim_176,dim_177,dim_178,dim_179,dim_180,dim_181,dim_182,dim_183,dim_184,dim_185,dim_186,dim_187,dim_188,dim_189,dim_190,dim_191,dim_192,dim_193,dim_194,dim_195,dim_196,dim_197,dim_198,dim_199,dim_200,dim_201,dim_202,dim_203,dim_204,dim_205,dim_206,dim_207,dim_208,dim_209,dim_210,dim_211,dim_212,dim_213,dim_214,dim_215,dim_216,dim_217,dim_218,dim_219,dim_220,dim_221,dim_222,dim_223,dim_224,dim_225,dim_226,dim_227,dim_228,dim_229,dim_230,dim_231,dim_232,dim_233,dim_234,dim_235,dim_236,dim_237,dim_238,dim_239,dim_240,dim_241,dim_242,dim_243,dim_244,dim_245,dim_246,dim_247,dim_248,dim_249,dim_250,dim_251,dim_252,dim_253,dim_254,dim_255,dim_256,dim_257,dim_258,dim_259,dim_260,dim_261,dim_262,dim_263,dim_264,dim_265,dim_266,dim_267,dim_268,dim_269,dim_270,dim_271,dim_272,dim_273,dim_274,dim_275,dim_276,dim_277,dim_278,dim_279,dim_280,dim_281,dim_282,dim_283,dim_284,dim_285,dim_286,dim_287,dim_288,dim_289,dim_290,dim_291,dim_292,dim_293,dim_294,dim_295,dim_296,dim_297,dim_298,dim_299,dim_300,dim_301,dim_302,dim_303,dim_304,dim_305,dim_306,dim_307,dim_308,dim_309,dim_310,dim_311,dim_312,dim_313,dim_314,dim_315,dim_316,dim_317,dim_318,dim_319,dim_320,dim_321,dim_322,dim_323,dim_324,dim_325,dim_326,dim_327,dim_328,dim_329,dim_330,dim_331,dim_332,dim_333,dim_334,dim_335,dim_336,dim_337,dim_338,dim_339,dim_340,dim_341,dim_342,dim_343,dim_344,dim_345,dim_346,dim_347,dim_348,dim_349,dim_350,dim_351,dim_352,dim_353,dim_354,dim_355,dim_356,dim_357,dim_358,dim_359,dim_360,dim_361,dim_362,dim_363,dim_364,dim_365,dim_366,dim_367,dim_368,dim_369,dim_370,dim_371,dim_372,dim_373,dim_374,dim_375,dim_376,dim_377,dim_378,dim_379,dim_380,dim_381,dim_382,dim_383,dim_384,dim_385,dim_386,dim_387,dim_388,dim_389,dim_390,dim_391,dim_392,dim_393,dim_394,dim_395,dim_396,dim_397,dim_398,dim_399,dim_400,dim_401,dim_402,dim_403,dim_404,dim_405,dim_406,dim_407,dim_408,dim_409,dim_410,dim_411,dim_412,dim_413,dim_414,dim_415,dim_416,dim_417,dim_418,dim_419,dim_420,dim_421,dim_422,dim_423,dim_424,dim_425,dim_426,dim_427,dim_428,dim_429,dim_430,dim_431,dim_432,dim_433,dim_434,dim_435,dim_436,dim_437,dim_438,dim_439,dim_440,dim_441,dim_442,dim_443,dim_444,dim_445,dim_446,dim_447,dim_448,dim_449,dim_450,dim_451,dim_452,dim_453,dim_454,dim_455,dim_456,dim_457,dim_458,dim_459,dim_460,dim_461,dim_462,dim_463,dim_464,dim_465,dim_466,dim_467,dim_468,dim_469,dim_470,dim_471,dim_472,dim_473,dim_474,dim_475,dim_476,dim_477,dim_478,dim_479,dim_480,dim_481,dim_482,dim_483,dim_484,dim_485,dim_486,dim_487,dim_488,dim_489,dim_490,dim_491,dim_492,dim_493,dim_494,dim_495,dim_496,dim_497,dim_498,dim_499,dim_500,dim_501,dim_502,dim_503,dim_504,dim_505,dim_506,dim_507,dim_508,dim_509,dim_510,dim_511
BAG,0.01534016,-0.00232334,-0.13303062,0.21521708,0.04858549,-0.02258340,-0.08528101,-1.21234608,-0.06811597,0.11827340,0.12529197,0.05871820,-0.03322776,-0.15410103,0.02672074,0.04981316,0.08548292,0.05886503,-0.05817247,-0.02886462,0.08554402,0.08997506,0.14778924,0.05747079,-0.09538037,0.05543027,-0.05885592,0.10876178,-0.04050723,0.15389538,-0.17501990,-0.06600090,-0.04305846,0.01091680,-0.22099821,0.19701660,-0.05640053,0.05270629,0.00926264,-0.10835415,0.06837098,-0.04810853,0.07626209,0.04134968,0.08857585,0.12736160,-0.04525359,0.05857811,-0.00480152,-0.03247120,0.11658296,-0.17433882,-0.02265095,-0.12882663,-0.00937487,-0.07750177,-0.10578971,0.07208952,-0.07318778,0.07629839,0.14851512,-0.17549396,0.00325948,-0.30475149,-0.01306336,-0.25327536,0.02751621,0.10330261,0.04596825,-0.05040019,0.09624238,-0.16977106,-0.07568707,0.11194918,0.03767833,-0.14872089,0.09905668,0.01482972,-0.11705729,-0.12430847,-0.10993756,-0.06643101,-0.00181825,0.24792485,0.00258951,0.02752876,-0.07664783,-0.16004343,0.15173072,-0.03357510,-0.08525948,0.03001615,-1.71085715,0.32326239,-0.13895886,0.11621708,0.20830528,0.23874401,0.00317889,-0.13086398,0.17685884,0.10158386,0.31226289,-0.03141817,-0.05011949,0.02408190,0.00764001,-0.07880237,0.02801050,-0.05960560,0.14240785,0.17984730,0.00468820,0.12482737,-0.03709365,-0.13717638,-0.06326718,0.23898417,-0.03048260,-0.08261835,0.00376850,-0.13644259,-0.05840905,0.04857549,0.14855677,-0.09324227,-0.05854547,-0.04757075,0.18478782,0.12227359,0.09560825,0.19554180,-0.02419489,6.57793236,0.00611389,0.03383404,-0.11203624,-0.28920367,-0.01684547,0.08071612,0.03873908,0.02158093,-0.08045466,0.19074956,-0.13282631,0.14652014,0.03448743,-0.13975210,-0.06596377,0.02530076,0.14113215,-0.04569324,-0.08494329,0.21880606,-0.08318898,-0.08064743,-0.10265639,0.01047682,-0.11104140,0.18429077,-0.05485742,0.10156627,0.04386263,-0.05263260,-0.04949414,0.04225621,-0.03299143,0.11081635,0.13518530,0.06022338,0.11868928,0.12172704,-0.12613878,0.00065186,-0.14292766,0.07343557,-0.19880705,0.08548263,0.13305584,0.01419202,0.11612623,0.02956115,0.02763548,-0.12804821,-0.07974687,-0.09450345,0.12743349,-0.04849342,0.01011669,-0.05090466,0.11271492,-0.03233377,-0.14417163,-0.02125836,-0.12683798,0.01097615,-0.16389492,0.21350817,0.11457162,-0.20252548,0.01100111,-0.06690168,0.00727337,0.07365699,0.14857620,0.00996008,-0.03676347,-0.11643491,0.01629897,-0.07723393,0.36199313,0.09686465,-0.10325290,0.10775627,0.11492629,0.01409160,-0.02652399,0.00020629,-0.19487248,-0.08941763,-0.16470517,-0.17531274,0.04365784,-0.17044787,0.18591295,0.08498804,0.12143379,0.10707469,0.05893972,-0.08703245,0.14131303,0.01182009,0.12090402,-0.07775536,0.07537039,0.24220000,0.09994847,0.07279854,-0.12319152,-0.02920552,-0.04911035,0.09967925,-0.01605638,-0.03931556,-0.14865209,-0.08578930,0.05897500,-0.00120716,-0.05874339,-0.03809563,-0.05387788,0.05445808,0.03971579,0.14451967,0.01003862,0.12005545,0.09805690,-0.02820660,0.11534572,-0.02716232,0.08264308,-0.00582208,-0.13738340,-0.03420129,0.00935424,-0.02439356,0.09232738,-0.04354398,-0.03664770,-0.02290251,0.18922020,-0.18674301,-0.02740687,-0.15513037,0.02975880,-0.02469655,-0.03294618,0.00040059,-0.05537060,-0.02127015,0.18361242,0.00038696,0.04790275,-0.05985969,-0.13403383,0.25581449,0.11602325,0.02720387,0.03061743,-0.09275576,0.18250562,0.01389237,0.19358754,0.07235539,-0.02807658,-0.14962557,0.02478930,-0.01435692,0.07482755,0.07238338,0.08504452,-0.08528122,-0.05377665,-0.01661427,-0.01134498,0.25573674,-0.00108315,0.02611163,-0.07750957,-0.04356555,-0.05399917,0.04493206,6.57087135,0.02392078,0.09081120,-0.09360383,-0.12620766,-0.24208502,0.13398811,0.01618361,0.38144416,0.44769922,0.14513656,0.02314647,-0.05240526,0.06701808,-0.13519102,0.03839345,0.02420059,-2.59227252,0.15578622,0.14289822,0.11755043,0.00000023,0.06785447,0.04568133,0.03178785,0.00810404,0.02278345,-0.25364468,0.05958951,-0.05203276,0.12986402,-0.04904055,-0.06085885,0.02155743,0.11668096,0.15429574,-0.00925305,-0.00257158,-0.07271071,-0.06349928,0.11337908,-0.06125248,-0.03071369,0.11930564,-0.15769568,-0.03131966,0.04977645,0.22554037,0.10984178,-0.05223548,0.01874684,-0.06362221,0.12462763,-0.23792678,0.02121627,0.13675965,-0.16194651,0.14333513,-0.10692798,-0.01980425,-0.08664116,0.09585929,-0.11207671,0.06111101,-0.04360680,-0.01607871,0.03740393,-0.01255691,-0.18440081,0.04195126,-0.04691100,-0.14099793,0.13465950,0.09672051,0.01308083,-0.04648241,-0.11235669,-0.00730130,-0.14049572,-0.02559162,0.00947428,0.08503056,-0.01138324,0.28834900,-0.02885995,-0.05751032,-0.22724193,0.45330450,-0.04854161,-0.01938994,0.11374532,0.08269362,-0.19763570,-0.05651918,0.08951186,0.08502910,-0.04442509,-0.06994963,0.12517641,0.08733776,0.08144552,0.12569255,-0.00648000,-0.01676422,-0.21448289,-0.03082109,0.07289270,0.13499857,-0.01875577,0.06174691,0.04818745,-0.01353070,-0.01342962,-0.04331532,-0.14467552,-0.12370114,0.05173904,0.11714248,0.05706843,-0.08801054,-0.04083812,0.03278352,0.03641241,-0.05869626,-0.08232012,0.06646981,-0.05805103,-0.08366100,-0.18428370,-0.08137386,-0.11961505,-0.01673003,0.07017927,-0.17371312,-0.11276356,-0.20828216,0.01240890,0.23158386,-0.12776892,0.03724317,0.11784866,0.25094557,0.00992937,-0.05741929,0.05349299,0.00525389,-0.03559522,0.00463585,0.05854650,0.08982976,0.06357846,0.07950605,0.29642558,0.10078052,0.06318713,-0.15794335,-0.03446532,-0.10984909,0.03248986,-0.17859112,-0.08278298,-0.11946891,0.02720650,0.07088705,-0.05718919,0.08536505,0.27647552,-0.00628082,0.16497894,-0.54730976,0.03103980,-0.14346564,0.17924206,0.12962675,0.09214950,0.09967992,-0.01772601,-0.12397347,0.06934909,0.08723926,0.00128633,0.43575034,-0.12416390,0.04447436,0.18147342,0.02245060,-0.07411718,0.01947230,-0.10710003,-0.19526567,0.13099006,0.16761968,0.07660753,0.06104415,-0.02735651,-0.10376453,-0.07936207,-0.23100874,-0.00923765,-0.03969792
CLOUDS,-0.07752615,0.03639403,-0.05692856,0.17130552,0.00115610,-0.14953001,-0.14870948,-1.16521478,-0.03952328,0.19076747,0.04667430,0.05697463,-0.07113856,-0.21897615,-0.09364846,0.04333338,0.10507233,-0.00123363,-0.02959904,0.02292476,0.26951027,0.07148510,0.11605668,0.06022749,-0.04480524,0.12485456,-0.02417668,0.11829869,-0.09020397,-0.03661810,0.03404587,-0.13457525,0.03666194,0.08645005,-0.09811290,0.22056800,0.02648063,-0.04260443,0.09709496,-0.10212969,0.16389848,-0.04830333,0.10905940,0.06882249,0.11755366,0.16034018,-0.08705915,-0.01015605,0.14862329,0.05453509,0.03179918,-0.05384910,0.04407889,-0.13766797,-0.08664981,-0.02151638,-0.19622512,-0.00449611,-0.06658073,0.09364138,0.09868446,-0.03627696,0.13751812,-0.18567985,-0.07596923,-0.16668586,-0.00999610,0.01821389,-0.05322863,-0.16095532,0.15325747,-0.13858451,-0.08285421,0.16784132,0.14448904,-0.06609538,0.16594245,-0.09804285,-0.15244293,-0.18613563,-0.07292571,0.00245865,0.09455199,0.24053892,-0.04133734,0.01914664,-0.16026276,-0.19310661,0.17332332,0.12289494,-0.01105470,0.16587171,-1.67999649,0.13866854,-0.03032162,0.18692870,0.11159167,0.14644612,0.00908079,-0.37261373,0.00916895,0.08270658,0.27068081,-0.12132814,-0.14614160,-0.00475550,0.05762126,0.03583591,-0.17278932,-0.03940686,0.15131611,0.11447135,0.13094838,-0.00452012,0.06165734,0.00086891,-0.09160987,0.23452130,-0.02885851,-0.01420606,0.07813427,-0.25728139,-0.01249421,-0.10004275,0.15403655,-0.20155789,-0.04398920,0.07796878,0.01305959,0.13740617,-0.05002144,0.18553270,-0.08827021,6.69246674,0.05006476,0.09156840,-0.17542787,-0.22090779,0.00303330,0.04876940,-0.03675118,-0.02452013,0.01345093,0.08974484,-0.25353205,0.06216755,0.04408602,0.11570937,-0.03601956,-0.03966922,0.04077595,-0.05604770,0.03188511,0.15042335,-0.14047474,-0.06564017,-0.06073065,0.09367626,0.01011561,-0.00038595,0.10330052,0.04161768,-0.03978917,-0.00259778,0.00115631,-0.01272662,-0.06617940,0.03827209,0.17079206,-0.00178474,0.10366886,-0.03405797,-0.01524158,-0.11803722,0.01464727,0.03846144,-0.35808361,0.09603585,-0.10582384,-0.01976880,0.15282516,0.07178740,-0.11787926,-0.13411292,-0.04615678,-0.11516581,0.15419470,0.02800095,-0.04542563,-0.14940086,-0.02603582,-0.07522008,-0.07851604,-0.04083921,-0.04619295,0.08247204,-0.05410461,0.05039346,0.13712732,-0.11516261,0.05429688,0.06660815,-0.03389016,0.19525604,-0.01205295,-0.19304608,0.02330055,-0.11832520,-0.06851267,0.05011506,0.19527382,0.18794256,-0.14759140,0.07105228,0.04021203,0.07739158,-0.08928218,0.07479228,-0.16073450,-0.13874973,-0.08164982,-0.23974206,-0.00662241,-0.04817267,0.04354193,0.05499478,0.17814381,0.06745987,0.03855097,-0.04512808,0.13399042,-0.03492413,0.05287440,-0.01018570,0.17870802,0.26324606,0.07071768,-0.00244191,-0.04031349,-0.20613556,0.07076669,0.08075225,-0.01291401,-0.00256209,-0.12949985,0.05434960,-0.01284998,0.00380147,-0.07973652,0.03106573,-0.15822181,0.06207037,0.01915382,0.14050023,-0.05459291,0.19246545,-0.00617623,-0.05511240,0.11395705,0.09911850,0.03845247,0.04748683,-0.14000286,-0.06159965,-0.00559473,-0.01057813,0.11983352,-0.11108232,-0.15253223,-0.01764671,0.19357543,0.10544436,0.09139974,-0.08437233,0.05439304,0.01090454,0.01390856,0.05357125,-0.07932010,0.05693886,0.08991907,0.03278499,0.13240719,-0.01802578,-0.06237720,0.19216791,0.01714906,-0.02995253,0.00568503,-0.12995069,0.08168271,-0.06273651,0.05053619,-0.01952551,-0.17047583,-0.12609714,-0.04820942,0.13006249,0.06352007,0.00071053,0.02104690,-0.04141219,-0.14783026,0.00715480,-0.00333273,0.20090452,-0.03908093,0.07517345,0.14940439,0.04257343,-0.08282623,-0.06616378,6.68472433,0.02755417,-0.04876307,0.09621832,-0.01240116,-0.13961437,0.11581988,-0.09826922,0.20254435,0.48159921,0.08110566,0.05279374,-0.00916243,0.04897308,-0.04603033,0.01976179,-0.01135742,-2.48297238,-0.10292962,0.16055006,0.10704691,-0.04114392,0.00209510,0.06934888,0.12912497,0.09010741,-0.07215177,-0.18884420,-0.12504286,-0.06019822,0.08830050,0.12695497,-0.02701540,-0.06414015,-0.04011815,0.13752760,-0.01651664,0.00506649,-0.11122615,-0.00892582,-0.04130903,-0.02488322,-0.08858875,0.15168709,0.12933783,-0.11343200,-0.06470957,0.18185462,0.09867179,0.03592019,0.08676577,0.10815910,0.02451711,-0.34452102,0.06069243,0.01490517,0.00868086,-0.05903716,0.02103252,-0.00085623,-0.05439022,0.15386027,-0.16633219,0.10216052,-0.24804050,-0.01556370,-0.12130965,0.16216248,-0.15536128,-0.02824290,-0.08595719,-0.08515019,0.08431662,-0.03934127,-0.03583311,0.01857815,0.06539505,0.12006894,-0.05679427,0.07313973,-0.01775130,-0.02684763,0.00264255,0.26538563,0.01222257,-0.06314253,-0.06504637,0.41763687,-0.02892951,-0.04919629,0.01233987,0.10577188,-0.03554960,-0.00612701,0.11186614,-0.11370173,0.02030413,-0.04067865,0.23561810,0.05661302,0.13494934,0.07240311,-0.07661302,0.00925068,-0.20817146,-0.21998629,-0.02938681,0.17583407,0.04776296,0.11466057,-0.04640511,-0.13653915,0.06560635,0.11800106,-0.10786232,-0.05644974,0.12424281,0.16548774,-0.03971041,-0.02084622,-0.10077414,0.06544276,0.06341089,0.18194255,0.03747978,0.08986700,0.00947081,-0.03103984,-0.18329224,-0.11176073,-0.02115837,-0.21552877,0.11956013,0.03306735,-0.07502424,-0.19948053,-0.05445807,0.02257325,0.15163426,0.12959677,0.02609436,0.23283824,0.09266228,0.12142745,-0.01365044,-0.07495391,-0.04005684,-0.13929687,0.08686270,0.02436026,-0.00758817,0.06567386,0.16765504,0.04883633,0.12423666,-0.11605716,-0.07896908,0.07877775,0.05018982,-0.06221470,0.01870621,-0.16354129,-0.01652761,0.00792277,0.14384368,-0.05481423,0.02589678,0.03499820,0.23287106,-0.65696216,0.02301438,-0.02762731,-0.03759043,0.05781505,0.11105952,-0.06745759,0.08220463,0.00437452,0.12546487,0.13809271,0.14718945,0.35986602,-0.05485200,0.10454028,0.14101493,0.07274371,-0.02981947,0.05167912,-0.05360906,-0.14021240,0.02657675,0.15282740,0.23407912,-0.02570925,-0.09462752,-0.12057486,-0.17441675,-0.31108448,-0.09175377,-0.05947465
DRAGONFLY,-0.00706182,-0.04838942,-0.09254301,0.16650763,-0.08019266,-0.17951110,-0.14182848,-1.28545070,-0.07791639,0.16920708,0.10765273,0.18636537,-0.06006186,-0.11686219,-0.03609298,-0.01975486,0.03832366,-0.09041762,-0.09168787,0.01263812,0.30583513,0.09849016,0.09136725,0.12150709,-0.06529390,0.14410549,-0.16084035,0.06664874,-0.10707422,-0.02782189,-0.08928541,-0.02299080,0.00299603,0.12332198,-0.16652223,0.14319271,0.03740365,0.02216989,0.05008650,-0.14691378,0.17137219,-0.05624908,0.04466560,0.03444167,0.05353554,0.17055242,-0.03781084,0.00433477,0.00287011,0.11071594,-0.00390606,-0.09282439,0.02879996,-0.12245826,0.12214248,-0.02483493,-0.08296303,-0.03437924,-0.02686683,0.15973558,0.10926514,-0.09748852,-0.02895697,-0.16652872,0.01617642,-0.20458840,-0.03194771,-0.05819707,0.01909995,-0.10078394,0.05367445,-0.17444728,-0.05162987,0.15606597,-0.01221353,-0.15288600,0.05170164,-0.14582676,-0.08183444,-0.07855867,-0.07812747,-0.05141682,0.04841990,0.27761897,-0.09887099,-0.05455759,-0.10740319,-0.22222470,0.16657439,0.06373828,-0.03094543,0.18970439,-1.75317109,0.16285165,-0.02658962,0.08877811,0.12728593,0.26520270,-0.06668354,-0.25595477,0.14179498,0.08083025,0.13619383,-0.10481218,-0.17507192,-0.08260385,0.10892847,0.03051122,-0.00424178,0.03499305,0.19568160,0.31621677,0.07937742,0.01172016,-0.05635462,-0.13426679,-0.19627351,0.24222681,0.04243716,-0.02808833,0.06688444,-0.24393383,-0.11498961,0.06949475,0.15169121,-0.07894056,-0.04933219,-0.04821504,0.00861041,0.24070078,0.02497011,0.18392254,-0.10080083,6.72860813,-0.02066976,0.10479267,-0.10013478,-0.20433776,0.11193291,-0.07142190,0.01935784,0.07194965,-0.03284075,0.03462631,-0.23578736,0.12001251,-0.05559035,0.08509675,-0.03226904,0.13261893,0.04847277,-0.02977365,-0.13380732,0.15413107,-0.03447980,0.00832327,-0.01851012,0.07400699,-0.10395838,-0.00734242,-0.06367996,-0.01116978,0.03720650,-0.01236567,-0.01661814,-0.03863741,-0.02682766,-0.01816420,0.10508236,-0.06589199,0.07494434,0.05739885,-0.14328779,0.04528157,-0.01990912,-0.01195273,-0.26809001,0.08772629,-0.12404287,-0.06452735,0.18272623,0.07930528,-0.06779043,0.01855825,-0.00136183,-0.16877510,0.18289486,0.03264049,-0.00021380,-0.11035864,-0.05503199,-0.01038979,-0.09143260,-0.00014679,-0.03852826,-0.03219931,-0.10540740,0.11745335,0.10772787,-0.18117970,-0.01110894,0.04209075,0.03702772,0.21358964,0.02327440,-0.14204046,-0.02919499,-0.08288436,-0.06392794,0.00445068,0.20915963,0.17985494,-0.07740013,0.12490562,0.03124318,-0.00114343,-0.12258356,-0.04796641,-0.22304207,-0.13663909,-0.14823236,-0.18063214,-0.07906126,-0.01272274,0.18144271,0.09089924,0.14453603,0.19189636,0.05088065,-0.00126071,0.13084672,0.03339709,0.12168626,-0.16985728,0.13263926,0.27724776,0.12743801,0.00947333,-0.00971888,-0.02145150,-0.03347714,-0.01335327,-0.00495593,-0.13269340,-0.19200492,-0.10600904,-0.11657557,0.00562371,0.02477773,-0.04060541,-0.22240891,0.08692885,0.06631602,0.09532197,-0.14425619,0.06112912,-0.03281060,-0.08837216,0.15550008,0.02833127,-0.09666426,0.01140469,-0.12718943,-0.11849225,0.03077209,0.02168640,0.13154128,-0.09924422,-0.05408933,-0.09570220,0.16393639,-0.06950462,-0.00817126,-0.13284171,0.06603841,0.03227793,-0.12168634,0.02346759,-0.01054562,0.00187352,0.12350357,0.05599942,0.13370050,-0.15161924,-0.09354886,0.11236525,0.05045567,-0.04805665,-0.04537436,-0.10887964,0.02065500,-0.05221703,0.03502478,0.07249329,-0.23060578,-0.19943012,-0.03378769,0.05375110,0.10360139,-0.00167036,0.08353543,-0.14528845,-0.05396769,-0.02006210,-0.04402032,0.31762046,-0.02824879,-0.05189935,0.10726626,0.00209768,0.00727529,-0.13637137,6.71883488,-0.00841342,-0.01984124,-0.01357350,-0.06936002,-0.18320180,0.01683011,0.07161605,0.33005115,0.42810017,0.08265615,-0.01352184,0.02337623,0.13068247,-0.10553127,0.01962394,0.12663183,-2.80149198,-0.10342804,0.13363124,0.04738326,0.06685156,0.04472254,0.01421164,0.04736635,0.11814657,-0.01215852,-0.10995284,-0.05658651,-0.15287618,0.14741658,0.08521456,-0.05704708,-0.05276801,0.01807173,0.13442382,-0.07248423,0.09250850,-0.12109680,-0.14729437,-0.01994117,0.03115376,-0.03712491,0.12777869,0.09191585,-0.21673559,0.07125219,0.26872432,0.19334027,0.01415184,0.11923038,0.14516559,-0.05357533,-0.18199795,-0.07277375,0.02893972,-0.05973749,0.07504405,-0.05784563,0.05549510,-0.08078930,0.15731414,-0.08054448,0.04337426,-0.18351910,0.06206393,-0.11543327,0.10807807,-0.09469798,0.00110168,-0.01244745,-0.09198017,0.08034447,-0.08747181,0.02532922,0.00806097,0.07398073,0.09791339,0.02575348,-0.02801785,-0.06469076,0.05186429,0.09553507,0.23034897,-0.00638091,-0.12630598,-0.10610911,0.43500277,-0.02750914,0.00690040,0.19311325,0.16581751,-0.13435674,-0.04167548,0.16765173,0.02232379,0.09366640,-0.09248731,0.20357609,0.05781674,0.15171137,0.03712091,-0.08564869,0.06680358,0.00038254,-0.14471041,0.02981387,0.21679251,0.08223994,0.11333310,-0.02003369,-0.03956475,0.02425089,0.02156292,-0.17457511,-0.03685709,0.09850849,0.15558881,-0.02395831,0.08210564,-0.08157310,0.02214990,0.04996331,0.07975213,-0.08139749,0.01884506,-0.10281920,-0.16832796,-0.04526623,-0.10544030,-0.01384088,-0.24912283,0.07696845,-0.04663863,0.03242473,-0.17480077,-0.01635654,0.10477488,-0.03376020,0.07501920,-0.00200725,0.18508130,0.01575695,-0.01482798,0.05010428,0.05355205,-0.06667875,-0.08179175,0.08806082,0.08800374,0.11651982,0.07447075,0.14460738,-0.02634932,0.09454902,-0.04251821,-0.01428877,-0.06318676,0.08059521,-0.05151098,0.03676202,-0.08963858,0.03780217,-0.05556198,0.01987134,0.10681840,0.02493270,-0.01864972,0.23526689,-0.66369760,0.00913816,-0.05474211,0.08867065,0.00206783,0.01180448,0.13203579,-0.07775404,0.03411595,0.02057625,0.14541708,-0.00126002,0.29546174,-0.05697690,0.04169179,0.17799185,0.00092737,0.03652444,-0.00299973,-0.11044802,-0.11598188,0.07831471,0.10207225,0.15479709,-0.08680547,-0.04523408,-0.14173160,-0.03750103,-0.28877455,-0.01471129,-0.09665315
EARTH,-0.01185608,0.00541715,-0.02115819,0.05509280,-0.08642267,-0.12752667,-0.12975842,-1.32670116,0.04671448,0.21806842,0.07784475,0.07202306,-0.10024836,-0.07922834,0.05322922,0.08508593,0.06667779,0.00300158,-0.16838941,-0.01265945,0.31512919,0.04951265,0.16950075,0.06362407,-0.13710138,0.10478292,-0.05009064,-0.00472814,-0.19255245,0.12961513,0.09832618,-0.13424225,-0.08341110,0.12392825,-0.10157878,0.21124518,0.11306704,-0.00450879,0.07969095,-0.12152674,-0.01919257,-0.06140410,0.01298951,0.00407443,0.06244295,0.16277571,-0.10464857,0.05807371,0.04879541,0.11095287,0.03137134,-0.14057970,0.01283915,-0.06617315,0.05477372,0.03572996,-0.18324614,0.06387891,-0.06442876,0.08426327,0.02750231,-0.25954652,0.03710387,-0.07017091,-0.01170907,-0.19427446,-0.00498022,-0.01441781,-0.02871614,-0.15452588,0.13655967,-0.20092404,-0.08939026,0.10222557,0.06294175,-0.15586635,0.09594902,0.00304059,-0.10104181,-0.29659989,-0.11158857,0.07407986,0.05575291,0.37203130,-0.07680909,0.00991125,-0.04200279,-0.17755947,0.17543924,0.06044544,0.00521371,0.04427055,-1.75320995,0.26121044,-0.07902149,0.07481105,0.23455448,0.13427687,-0.20540169,-0.23111832,0.19286479,0.16237487,0.11408749,-0.12322854,-0.22162998,-0.03967716,0.13577333,0.00288700,-0.12693930,-0.02433878,0.16438739,0.14641578,-0.11366287,0.15012649,-0.00993655,-0.17724235,-0.02696489,0.22234997,-0.07027101,-0.05662565,0.11344258,-0.26277053,-0.09373981,0.10152297,0.13356619,-0.13354699,0.11340209,-0.02252316,0.05997140,0.17045201,0.15069515,0.12301920,-0.13062449,6.77015305,0.03384835,0.15120894,-0.05728828,-0.21172340,0.03991457,-0.00203560,-0.00628695,-0.00559805,0.07571698,0.03705250,-0.24020782,0.16239075,-0.00840300,0.01122833,-0.06529400,-0.07459597,0.15970933,-0.14108242,0.04296790,0.10602599,-0.10605913,-0.03085753,-0.10681143,0.10907683,-0.12094952,0.15526132,-0.11692978,-0.02917678,-0.04593863,-0.02824527,-0.03468074,0.01661837,-0.08361078,0.02679363,0.10256510,0.00746763,0.07689886,0.06225265,-0.10215992,0.02172424,-0.12541750,0.22892520,-0.33118367,-0.00009645,-0.06404096,-0.00757692,0.17292178,0.05133689,0.02801723,-0.02530489,-0.02282684,-0.02144845,0.14163405,0.01532122,-0.00614842,-0.04498095,-0.00943708,-0.06588775,-0.06172521,0.00227050,-0.16464992,0.20379767,-0.09436733,0.12339744,0.23837127,-0.23528071,0.03174111,-0.09133980,0.01923626,0.08106876,0.03920786,-0.11165235,-0.08426256,-0.12078160,-0.07293657,-0.02964507,0.34208298,0.26916525,0.03231866,0.05063942,0.04612593,0.10020540,0.01120593,-0.06602535,-0.14835568,-0.15726227,-0.18213211,-0.13624427,-0.03434244,-0.02042864,0.08300362,-0.05496678,0.06570745,0.02077079,0.00571748,0.00028592,0.14474796,-0.02193244,0.01657653,-0.22627938,0.11681940,0.22423998,0.17270023,0.04453931,-0.08413557,-0.18337813,0.11577628,0.09282842,0.06721730,0.01361127,-0.10662765,0.01815642,-0.09140886,0.05202373,-0.05879327,0.01984211,-0.09019883,-0.02205193,0.00308825,0.14854415,-0.08479528,0.14972493,0.01354748,-0.04588475,0.15076059,0.09490448,0.00703940,-0.01621700,-0.09681316,0.02951394,-0.06648181,-0.00927550,0.04752612,-0.03755541,-0.02209724,-0.09871235,0.10490146,-0.11545485,-0.01497729,-0.13956721,0.10630895,0.03355169,-0.02888102,0.02413640,0.07474997,-0.08089189,0.13844427,-0.05263060,0.12453867,-0.02027807,-0.10877024,0.08563361,0.06905130,-0.06513046,-0.11089712,-0.07580853,0.08017205,-0.14350486,0.06613610,0.17573278,-0.08598419,-0.14209972,-0.01398617,-0.08861160,0.00068149,-0.04508413,0.09592929,-0.11347882,-0.20479122,-0.00895155,-0.11632611,0.26648989,-0.00805402,0.03945867,-0.00268256,0.00437268,0.05937675,-0.10545979,6.76058960,0.02229867,0.05908941,0.05545342,-0.03819336,0.02635797,-0.00213123,0.05765894,0.20357376,0.47457725,0.12504321,0.04800842,0.06352905,0.16229965,-0.08781514,-0.01939519,0.04049226,-2.57027054,-0.06035316,0.16837481,0.03429652,-0.04198121,-0.06901047,0.00800482,0.14413708,0.04041936,0.00759749,-0.11291856,-0.13698924,-0.05209977,0.08153119,0.03428444,-0.09762330,-0.01182577,0.01461320,0.13368762,-0.07272767,0.12240194,0.03245490,-0.06429034,-0.03107746,-0.01317055,0.00750561,0.22952233,-0.07971736,-0.11844934,0.08573143,0.17458150,0.14340794,-0.05206120,0.05325375,0.03632199,0.05728758,-0.30674735,-0.01006074,0.14946483,-0.05135063,0.02926988,-0.03598598,0.08476184,-0.05010003,0.13555571,-0.12457734,0.09221854,-0.13530286,0.05873153,-0.04570101,0.02442041,-0.01349002,-0.08087893,-0.05301711,-0.09579910,0.13802861,-0.08633159,0.04337298,0.00398817,-0.06360444,0.01975904,-0.18925898,0.03458753,0.04304933,0.03813683,0.02757007,0.12131095,-0.02832405,-0.15905745,-0.08503751,0.51370490,-0.04845533,0.05010961,0.07674590,0.09833902,-0.27626270,-0.02058117,0.13688718,-0.01585214,0.09187251,-0.10026217,0.22151390,0.05366283,0.03603086,0.19675623,0.05710217,0.01234967,-0.02733178,-0.20497443,0.17182083,0.13426846,0.02684831,0.06341048,-0.01131661,-0.11608353,0.09085506,0.03935121,-0.07371793,-0.03479694,0.15430970,0.12364641,0.04622577,-0.08470267,0.00872628,0.00409313,-0.01468687,-0.09083591,-0.14924930,0.06283455,-0.06941579,0.00111751,-0.16572745,0.00325620,0.00114965,-0.08376763,0.05318537,0.01165375,-0.06861889,-0.21639252,-0.02734915,0.06937874,-0.14073955,0.06463069,-0.01172450,0.07955284,0.00647857,0.01345691,0.10539439,-0.01407836,-0.06818677,-0.07712229,0.07154164,0.01148237,0.09563138,0.06213551,0.13634536,0.07600687,-0.02187195,-0.10925913,-0.00807698,-0.12019412,0.03745996,-0.14341149,0.01614468,-0.13937962,0.10615009,0.06976020,-0.06206804,0.14480177,0.11090375,-0.00268553,0.21631113,-0.49877492,0.10268389,0.00935674,-0.03310027,-0.01793396,0.10875993,0.12160394,0.09873392,-0.03288575,0.05097039,-0.01581060,0.02220457,0.40314788,-0.05111125,-0.00228969,0.12730013,-0.05931867,0.01898689,0.00253029,-0.07556354,-0.10885698,0.11682217,0.20912407,0.07723719,-0.08626816,0.05412353,-0.08249348,-0.04833112,-0.24121575,-0.09461067,-0.02218045
FEATHER,-0.06157613,-0.05772065,-0.04584488,0.04346109,-0.09009443,-0.11460998,-0.19670880,-1.35813498,-0.16815534,0.19229794,0.01571089,-0.03202818,0.05169064,-0.05707617,0.08257882,0.10788529,0.15592061,-0.05683837,-0.16200379,-0.04469956,0.35586300,0.08673174,0.00046305,0.09855784,-0.04042429,0.25532308,-0.02806156,0.07580239,-0.07207398,0.10735145,0.09799007,0.00834103,0.08216877,0.18964902,-0.15671273,0.20737959,-0.00253865,-0.02348737,0.00897009,-0.08969722,0.02116554,0.05851847,0.02245717,0.01346015,0.10861497,0.22423095,0.00805959,-0.04132019,0.13446164,0.08424396,-0.06542125,-0.15979514,0.08292457,-0.24010466,0.06277484,0.05138908,-0.05471239,0.10464050,-0.12015955,0.16417846,0.25990054,-0.13494563,-0.03045059,-0.09980235,-0.15241106,-0.24617878,-0.08506686,-0.15113795,0.00038669,-0.02378848,0.02819178,-0.11840967,-0.02112241,0.19197465,0.01628353,-0.14109026,0.20463431,-0.02891602,0.10618585,-0.15674494,-0.16291218,0.02216040,0.02517373,0.23789574,0.06108673,0.09046935,-0.25216228,-0.17580500,0.20006363,-0.06728791,-0.00769463,0.11226811,-1.73171961,0.24730504,-0.00558488,0.03445185,0.05869998,0.19544250,-0.11476178,-0.04540505,0.18101172,0.06426133,0.13093057,-0.07595611,-0.10676461,0.02621330,0.04999157,0.06697683,-0.06885024,0.00369365,0.11834948,0.20941743,0.01673434,-0.00732632,-0.01846988,-0.14014170,-0.14434932,0.21736497,0.05296941,0.06473618,0.19787057,-0.16872263,0.02141897,0.11618014,0.11875256,-0.10444027,0.13010611,-0.05211962,0.05848543,0.20288906,0.10898548,0.10072622,-0.13251583,6.63310003,0.11469669,0.03868420,-0.19741985,-0.12980443,0.05685755,0.09270867,0.00881110,0.00587794,0.05243915,0.09572351,-0.17911887,0.16892704,-0.03866589,0.08995327,-0.06217916,-0.03623500,0.05605725,-0.06217647,-0.03982119,0.06011816,-0.05852460,-0.09814036,0.12404855,0.09484176,-0.09058514,0.05902773,-0.16490796,-0.10782994,-0.02693688,-0.18800755,0.11895846,0.05183542,0.02824009,-0.11193674,0.23086663,-0.05090743,0.00990681,0.14895339,-0.07419993,-0.07605720,-0.10727102,0.13072586,-0.38427994,0.11656837,-0.06276463,-0.03891313,0.15943034,-0.00655683,-0.00013377,0.01199612,-0.01963392,-0.11129443,0.12825954,-0.09729289,0.11143711,-0.05972047,-0.05996698,-0.04991133,-0.03692633,-0.00127244,-0.13930216,0.01293893,-0.05310950,-0.00387066,0.06663247,-0.25168416,0.01108638,-0.07209493,-0.13677557,0.16712333,0.19511919,0.01079308,0.04915625,-0.13790765,-0.16097565,-0.02098727,0.31722912,0.22266546,-0.12155130,-0.05176455,0.00655526,0.02927567,-0.04616960,-0.00486901,-0.19122031,-0.16764422,-0.09820402,-0.20650291,0.01537710,-0.04701470,0.03100200,-0.05161458,0.10045886,0.14082833,0.05277361,-0.04102565,0.15070829,0.05380023,0.08606196,-0.12580661,0.06658530,0.17909081,0.09651187,0.06527695,-0.11590336,-0.09252048,0.07939631,0.13237239,0.04694771,0.06030002,-0.09146020,-0.05816879,-0.10038746,0.03222091,-0.10582474,-0.09471948,-0.14055151,0.24825448,0.06194595,0.26005980,-0.10907724,0.06287701,-0.01053043,-0.16643031,0.07329889,0.03763491,0.04346440,-0.02091582,-0.09155660,-0.18216264,0.10015643,-0.06229346,0.00386083,-0.09916613,-0.01770681,0.10558350,-0.00885222,-0.11364523,0.17667980,-0.13692999,0.15309180,-0.14502494,-0.09408462,-0.06196561,-0.16744785,-0.08351852,0.14240851,0.09705736,0.01139416,-0.12502217,0.06020240,0.20099311,0.03004657,-0.03246085,-0.13445257,0.04422245,0.02449116,-0.00993719,0.05622085,0.18074855,-0.15310144,-0.15487739,-0.20033434,-0.14366136,0.08924825,-0.02516029,0.05635500,-0.03581819,-0.08885252,0.05975782,0.01693930,0.10538675,-0.07655715,-0.09795545,0.15692960,0.00909790,-0.07104782,-0.03025759,6.62260199,-0.01561773,-0.05208721,0.09034179,-0.11334153,-0.07935904,-0.02999628,0.10610651,0.25366974,0.26444626,0.18588570,0.12330197,0.11401903,0.22304052,-0.15202172,0.02824100,0.03808255,-2.76308417,-0.00635955,0.15713574,-0.06405134,0.09198718,0.05530723,0.01844457,0.20601737,-0.01604903,0.05554238,-0.11488301,0.02825194,-0.05017361,-0.04366467,-0.01178494,-0.11640406,0.01410582,0.12705167,0.23108478,-0.05822895,0.10649005,0.00873461,-0.02820137,-0.04272210,0.03746697,-0.00704982,0.08739466,-0.15323177,-0.26086378,-0.01190501,0.32332543,0.07033018,-0.01895778,0.14561118,0.11716344,-0.07060924,-0.24827889,-0.11658709,0.17382219,-0.11017381,0.05815217,-0.14800821,0.05671813,-0.01773345,0.14307725,-0.05062363,0.04724956,-0.12401639,0.02092432,-0.17605391,0.12584274,-0.11925299,-0.03478102,0.01627979,-0.06631055,0.06496948,-0.11278035,-0.00006490,0.16809365,-0.04673496,0.03649969,0.01350984,-0.05332249,-0.02982565,0.07794199,0.08256062,0.14828855,-0.02412049,-0.07877532,-0.15452538,0.42599630,-0.05155899,0.03572614,0.25662592,0.10583554,-0.26359719,-0.03331471,0.11622204,-0.04952678,0.15757319,-0.18892598,0.23186919,0.06428137,0.05982134,0.14805591,0.02422176,0.20086269,-0.08802652,-0.08434337,0.05855084,0.13708121,0.09396923,0.02941560,0.00336500,0.07231423,0.02211037,0.08807664,-0.11622792,-0.09787772,0.11090917,0.08233653,0.06257510,-0.02946765,-0.03759471,0.01249642,0.06004870,0.09473441,0.00616845,0.04512258,-0.12421565,-0.06436983,-0.23991890,-0.02861812,-0.02883230,-0.12361152,0.13295545,0.08072650,-0.06082913,-0.13745071,-0.04085114,0.16677585,-0.11527653,0.02785280,0.09973942,0.15495357,-0.00428861,0.09916690,0.09595840,0.15166025,0.03937201,-0.10936146,0.06912710,0.17868897,0.09260838,0.07523198,0.14908764,-0.02560503,0.10763594,-0.11767981,-0.07274824,0.01456803,0.07407518,-0.09191138,0.05705423,-0.12523077,-0.04906189,0.06522561,0.09653850,0.20599918,0.04765293,0.04790432,0.21593918,-0.53357649,0.06987853,-0.02720375,-0.06760257,-0.03286962,0.03333808,0.04759685,0.03582419,0.02795411,0.04375112,0.06194484,0.03778606,0.35105518,-0.03901029,0.02852047,0.23246214,0.01584927,-0.09330717,-0.01044995,-0.19722481,-0.00676504,0.09002663,0.18500210,0.10705851,-0.06094360,-0.00617123,-0.01622499,-0.00946493,-0.37500328,-0.07294589,-0.03654320
HORSE TRACK,0.00148990,-0.08883954,-0.04230435,0.09583851,-0.05725461,0.03275206,-0.06075604,-1.31651032,0.04773233,0.22682530,0.03638919,-0.07639499,-0.14164434,-0.10656773,0.02561818,0.03770913,0.15293637,-0.06397665,-0.09784281,-0.10915773,0.21348533,0.01236422,0.09054266,-0.03160807,-0.15418527,0.08461689,-0.09224948,0.04362031,-0.03400574,0.11562951,-0.00729938,-0.08148480,-0.10414160,-0.03753515,-0.16893981,0.22249110,-0.01838947,0.04223448,0.06360000,-0.02652094,-0.01312073,0.00328643,-0.00440087,-0.03974814,0.18214951,0.09445410,-0.12289656,0.01320474,0.23358065,0.02082978,0.08304219,-0.09362447,0.00287879,0.00974149,-0.03132659,0.06173015,0.02588064,-0.02928400,-0.16990353,-0.03041032,0.11357272,-0.22371568,0.05306390,-0.10670856,-0.05904092,-0.23720337,-0.11773796,0.00158345,-0.02692021,-0.03550007,0.16273361,-0.22040285,0.04757817,0.25859594,-0.00534907,-0.19735935,0.12614982,-0.04039409,-0.13422684,-0.19970638,-0.16449626,-0.18546242,0.02906156,0.37664860,-0.09089120,0.06700429,-0.14286728,-0.17583574,0.14427431,-0.04714527,0.04672582,-0.06508067,-1.73587775,0.25267994,-0.01078286,0.11635728,0.17263713,0.18253605,0.00027815,-0.20139049,0.26427615,0.07503536,0.26259592,-0.12267575,-0.08520119,-0.10566434,0.06353949,0.12148238,-0.18452677,-0.11878549,0.11259476,0.22571661,-0.06257312,0.07290864,-0.05486853,-0.18999434,-0.16415991,0.16878548,0.10257726,-0.02038984,0.05938559,-0.14143227,-0.18033479,0.10537748,0.11373221,-0.18976532,-0.03765547,-0.03197323,0.02660208,0.22883815,0.06761972,0.13360067,-0.06613956,6.68429899,0.03827295,0.12122016,-0.12276736,-0.16257122,0.07303198,-0.02347366,0.00065211,-0.08693396,-0.11200929,0.20128371,-0.18141487,0.05730325,0.04905450,0.01106889,-0.18258609,0.09255458,0.08788320,-0.22121598,-0.04262665,0.26449144,-0.07265525,-0.05509027,-0.06336157,0.10353953,-0.13578977,0.12007998,-0.19247706,0.01845885,-0.08146100,-0.10949727,-0.09835013,0.07549413,0.01381946,-0.00730928,0.15645808,-0.06803360,0.10054818,0.06873976,-0.19249576,0.08485183,-0.12608469,0.14951588,-0.24619886,0.04492950,0.06754847,0.10202508,0.11084127,0.05160030,-0.04315388,-0.09597807,-0.07490803,-0.16849758,0.15523645,0.05468424,0.03061456,-0.04936314,0.01958732,-0.09375492,0.02300805,-0.04383302,-0.27363971,0.09091152,-0.18190095,0.21819195,0.16764456,-0.17059518,0.05295843,0.01652778,0.11197520,0.00751848,0.05573509,-0.06910826,-0.07271542,-0.18569337,-0.06157279,0.02941030,0.39788085,0.04067351,-0.15519221,0.10588782,0.02386478,0.05360601,0.00686300,0.02444152,-0.19630226,-0.09243154,-0.15457231,-0.17942539,0.06704028,-0.13577901,0.23713788,-0.02100812,0.09888279,0.08426619,-0.08746220,-0.04270855,0.24135163,-0.04718784,-0.00868548,-0.13991889,0.01150007,0.20653687,0.14138159,0.06790932,-0.19587468,-0.06956641,0.14601256,0.06337085,-0.00310597,-0.01917575,-0.14047590,-0.05998694,-0.07689541,-0.09122216,-0.01061019,0.07593585,-0.21706435,0.21299551,0.08174189,0.08254560,-0.07254720,0.04493174,0.13957480,-0.14739296,0.25702223,0.17951518,0.09004435,-0.01987334,-0.11477350,0.00906010,-0.10433914,0.02881701,0.09794399,-0.07472181,-0.17463014,-0.03480477,0.02946674,-0.06940497,0.10830188,-0.11260711,0.12330317,-0.19558279,0.02010851,0.11685919,0.08131231,-0.08711871,0.21152751,-0.09179142,0.14459814,0.00214176,0.00599459,0.15643433,0.24051882,-0.02189806,-0.11978467,0.02944958,0.10122662,-0.00605343,0.07906833,0.09246358,-0.08247773,-0.06661441,-0.09613209,-0.12188215,0.00614934,0.14186373,0.12912354,-0.06665396,-0.06876083,0.03331842,-0.15443431,0.28327352,-0.01230583,0.07865277,0.00840444,0.02808095,-0.01550697,0.00184680,6.67377901,0.03339306,-0.10719910,-0.02246393,-0.03634730,-0.12981066,0.03702777,0.12918441,0.30242786,0.46490112,0.16751462,-0.01890395,0.05545314,0.03992001,-0.06540884,0.02068998,0.09136573,-2.53065705,-0.01436235,0.21144986,-0.00497009,0.00855247,-0.08373705,0.08215035,0.13897589,0.05253591,-0.01494705,-0.10617389,-0.03595913,-0.06119135,0.06233742,-0.07119901,-0.07275008,-0.00686811,0.10851192,0.19421577,0.00238946,0.02448514,-0.16665091,0.00625996,0.08182518,0.03190128,-0.01102750,0.07354167,-0.15823048,-0.07018318,-0.03021228,0.26941922,0.15360877,0.01852513,0.16623260,0.10153075,0.13197857,-0.28247136,-0.02299187,0.09838874,0.01549326,0.15217921,-0.01469716,0.02112059,-0.01629758,0.14545080,-0.11111227,0.10598668,-0.08910820,0.04839610,0.14730112,-0.00190042,-0.15073857,0.12212463,-0.01727394,-0.20483366,0.06649233,-0.04229029,0.12891550,-0.05076102,-0.08442684,0.06688906,-0.12743720,-0.01552675,0.02548370,0.06622210,0.03494059,0.19331042,-0.00328437,-0.04358066,-0.13152328,0.32933432,-0.00506526,-0.03551143,0.07579896,0.10236102,-0.19959408,-0.08828691,0.07713221,-0.13932976,-0.06478555,-0.13519391,0.12206690,0.22910430,0.10458171,0.23487090,0.06655963,-0.01917155,-0.17815559,-0.10451403,0.12919657,0.06602918,0.00517375,-0.02940715,-0.04632395,-0.08949675,0.03865218,0.04586562,-0.14363234,-0.13480879,0.11644997,0.08776342,0.04509236,-0.04369672,-0.03027374,-0.08327040,0.00145009,0.04106149,-0.23437406,0.04499127,-0.12047125,-0.00060697,-0.15475401,-0.05551228,-0.00480236,0.03128560,0.16362451,-0.02371524,-0.05853727,-0.15935914,0.05254527,0.16938485,-0.14755704,-0.04066953,0.11917987,0.22241624,0.04025730,-0.01485180,0.13419162,0.08037956,0.02720969,0.02081483,0.15183455,0.15261182,0.13596083,0.13587557,0.18001333,0.20101865,0.05709244,-0.12777080,-0.08234718,-0.05272476,0.03898663,-0.08280870,-0.03035184,-0.13308947,0.05634912,-0.01852135,0.10816140,-0.00328529,0.16620684,0.08797155,0.17717263,-0.60728425,0.08595279,-0.04246285,0.06458372,0.00443721,-0.05891172,-0.01591569,0.01216029,-0.10136874,0.00282138,0.16255444,0.08644473,0.33490369,-0.08732498,0.06226600,0.08875832,-0.05743231,-0.13837023,0.07823490,-0.13705060,-0.18360892,0.06490624,0.25036356,0.03023786,0.01442341,0.09937298,0.02695982,-0.06993023,-0.18079270,-0.06248711,0.09242834
HOUSE,-0.03118083,-0.04649693,-0.03348159,0.11225924,-0.00439750,-0.16375300,-0.01471968,-1.37373173,-0.05352381,0.21733825,-0.00721315,-0.09986870,-0.03203909,-0.05327262,0.07940730,-0.10289877,0.08834921,-0.01478258,-0.21025027,-0.06215778,0.35946620,0.18540381,0.06554890,0.13292322,-0.07665022,0.07888751,-0.05442662,-0.03966999,-0.02042293,0.14462247,-0.00802713,-0.11938615,0.11229957,0.12433507,-0.33750963,0.14383514,0.15023640,0.02559566,0.03532562,-0.15693749,0.01133231,0.06975292,0.02814118,-0.03516259,0.03774627,0.16229528,-0.17498568,0.09864616,0.09419891,0.03592971,0.03827703,-0.10240539,-0.04985380,-0.11151819,0.03609367,0.00038027,-0.12321321,0.07362833,-0.08954505,0.15004246,-0.01252014,-0.16221628,0.07692734,-0.26373553,-0.07398778,-0.21637776,0.10645080,-0.05763222,0.06614773,-0.17198855,0.03342759,-0.16666330,-0.04348427,0.07590910,0.04578958,-0.13311563,0.17573522,0.02671153,-0.05493110,-0.18726760,-0.13653861,-0.09974133,-0.00544716,0.28935578,0.06541022,0.01117545,-0.12253554,-0.16847436,0.15570791,-0.04233857,0.02449544,0.02292075,-1.77124429,0.23694383,-0.08689268,0.00654819,0.13293974,0.29952514,-0.10954570,-0.00546307,0.03203864,0.04147567,0.24578652,-0.05161912,-0.06202829,-0.07978911,0.11813886,0.03778847,-0.13158384,-0.06184123,0.08044679,0.19868901,-0.06403075,0.07058940,0.02472919,-0.18650559,-0.01096215,0.19919902,0.03270156,0.05938844,0.21454909,-0.11646257,-0.02634157,0.10235561,-0.00798696,-0.11208679,0.05024210,-0.00900956,0.14316000,0.28107214,0.23714286,0.16459650,-0.05392231,6.89427948,0.05962152,0.10437293,-0.10408239,-0.28259873,-0.05498642,0.01035309,0.10909180,0.03086596,0.06099178,0.05321054,-0.20166032,0.10040308,0.00674769,-0.05017569,-0.04348536,-0.22330689,0.03161247,-0.10845215,-0.05228287,0.12109243,0.00160863,-0.01145619,-0.09091182,0.16689464,-0.11553700,0.15462352,-0.19985610,0.04347061,-0.01328779,-0.15072075,-0.01174773,0.04434673,0.01755916,0.02670810,0.10104181,-0.14219707,0.10702089,0.16398433,0.04127951,0.04800607,-0.11140712,0.03056547,-0.34928849,-0.04787944,-0.00542245,0.05666741,0.07946316,0.13510653,0.05817398,-0.15003949,-0.13456199,-0.00002480,0.14448430,-0.08682661,-0.00493690,-0.02699312,0.12645735,-0.07264951,-0.17926961,-0.06825312,-0.12245151,-0.00596975,0.06051059,0.17856716,0.03374509,-0.24622260,0.03881213,0.03934753,-0.07923169,0.13314687,0.16162024,-0.06294347,-0.06867372,-0.06988779,-0.04976238,-0.11431848,0.35801741,0.21734260,-0.06751862,0.04177365,0.10533129,0.07145563,0.06234226,-0.09220555,-0.00211240,-0.07451507,-0.22444122,-0.12659448,-0.06182099,-0.07195152,0.11606988,0.08501359,0.13955443,0.05182660,-0.12385011,-0.01527796,0.06219741,0.01541694,0.05271316,-0.12266881,0.12949230,0.34460974,0.12365745,0.09600143,-0.17204092,-0.10189606,0.06449050,0.01464366,0.09151684,-0.00705576,-0.22999977,0.09107102,-0.03352713,0.09017210,-0.10659730,-0.11360062,-0.02890931,0.05848623,0.04810653,0.10203309,-0.15921244,0.19029704,0.17567137,-0.06748939,0.22311686,0.10811683,0.14136814,-0.08629353,-0.20778534,-0.03859963,-0.02371192,-0.11212429,0.01948133,-0.12241489,0.03005420,0.01156615,0.08843827,-0.30976731,0.17771843,-0.12574266,0.10869026,-0.00024983,-0.10855222,0.00100719,-0.09232207,0.07289960,0.15935089,-0.03586395,-0.01258739,0.02603150,0.02499091,0.19049390,0.10569859,-0.04015528,-0.06383234,-0.04407348,0.14482093,-0.04318000,0.12333724,0.07240918,-0.13619885,-0.15546896,-0.04649319,-0.12579675,0.06530500,0.04884752,0.04700011,-0.17209660,-0.15284562,0.06233170,-0.08076609,0.16308066,-0.02820375,-0.10176555,0.04068779,0.04980488,-0.00490192,0.05129402,6.88442135,-0.03023575,0.13829206,0.03554281,-0.04525182,-0.10391518,0.02900621,0.30214784,0.20558411,0.31125146,0.15491670,0.05784012,0.18166362,0.02685734,-0.01806053,-0.01816915,-0.00098925,-2.77302885,0.12819213,0.18193790,0.07828116,-0.05274579,-0.00101676,0.02122838,0.08095626,0.05182067,-0.19595331,-0.06484998,-0.03845939,0.00777453,0.04914695,0.04855805,-0.19287729,-0.06498620,0.07745858,0.21858804,-0.09040117,0.06335519,-0.08442882,0.00501936,0.12616269,-0.07373190,-0.07592925,0.28604850,-0.04040024,-0.09943836,0.07059021,0.16050212,0.02646986,-0.00238135,0.18607308,0.09234621,0.04847343,-0.22419927,0.03220707,0.27752048,-0.12186690,0.13085777,-0.07861454,-0.08779339,-0.19168764,0.03983209,-0.13121659,0.15717371,0.13908148,-0.00481351,-0.17789176,0.00279248,-0.05652795,0.02954911,-0.07544322,0.03534298,0.06800196,-0.14678037,0.08684824,-0.09375532,-0.03110313,-0.05262335,-0.14821285,0.01199059,0.02293147,0.06941415,0.13596319,0.28667551,-0.04493890,-0.07229236,-0.15464027,0.49065664,-0.04375380,0.09416234,0.02685448,0.14418656,-0.31776565,0.03042950,0.06741501,0.08949162,-0.01694946,-0.27803895,0.12506993,0.01084525,0.01081676,0.21327028,-0.12235768,0.04570555,0.00613319,0.05127580,0.15966168,0.20263971,-0.05971039,-0.00109095,-0.10281662,0.10412601,0.15729731,-0.04741484,-0.23433089,-0.10770600,0.16761921,-0.01369612,0.05405329,-0.17667380,-0.02211698,0.07572825,-0.06312494,0.07141316,-0.17530775,0.02806815,-0.09495480,-0.02382463,-0.10029617,-0.06154307,-0.02583608,-0.10749474,0.02730905,-0.04987016,-0.01099703,-0.18941595,-0.00911486,0.07448287,-0.10066858,-0.03395492,0.10733574,0.27580425,-0.01709105,0.05552809,0.15155984,0.03317805,-0.00612386,-0.04097875,0.18427922,0.13743955,0.14311571,0.05560246,0.12953147,0.07080073,0.12469835,-0.10676397,-0.13528003,-0.02357928,0.04454292,-0.16457127,-0.02330158,-0.04084829,0.18720739,0.00649629,0.04388531,0.22646743,0.22410370,0.06711405,0.13539614,-0.51550382,0.13228424,-0.13448361,0.06149784,0.09515682,0.14207233,0.12130563,0.09618633,-0.03399687,-0.04488030,0.00200115,-0.01473347,0.45111558,-0.03147062,-0.03649634,0.21419023,-0.06831444,-0.11012789,0.15115279,-0.08789576,-0.12954055,0.07623956,0.21422961,-0.01805665,-0.03374599,0.03566885,-0.10184513,-0.08129696,-0.41623956,-0.14466533,-0.09752162
LIGHTNING,-0.11227854,-0.01544932,0.01859022,0.08252645,-0.03027819,-0.24224228,-0.16433236,-1.13638544,-0.16645278,0.28669879,0.17065594,0.12819007,-0.06054407,-0.09977933,0.01291688,0.06737953,0.25368273,-0.08036669,-0.06225548,-0.10777834,0.31870076,0.13326667,0.03324663,0.12891111,-0.08167858,0.09723591,0.04301333,0.02417303,-0.17293048,0.07833639,-0.11211460,-0.00646291,0.05333192,0.10311261,-0.11777219,0.20642529,0.04094671,0.02281070,-0.09588948,0.02770056,-0.05457626,-0.05226980,0.11370136,0.07018116,0.12165573,0.23266195,0.02851897,-0.11742440,0.04210539,0.04836932,0.03784327,-0.10333120,0.02162395,-0.08553795,0.04892973,-0.00517945,-0.08234210,-0.00023523,-0.04212445,0.02361346,0.19783862,-0.12345044,0.08566998,-0.14547761,0.09530546,-0.19935295,-0.04865004,-0.04082827,-0.00216525,-0.16168441,0.14801368,-0.00690823,0.02969131,0.11343458,0.00860615,-0.24231006,0.18047641,-0.06063674,-0.02523484,-0.27419016,-0.22674884,0.02416813,0.04210864,0.28843319,0.01603630,-0.02864869,-0.11771815,-0.12702483,0.10472130,-0.02774604,-0.01460836,0.00698214,-1.69452167,0.07901296,-0.08127353,0.04206349,0.04576423,0.07195494,-0.01609900,-0.19924603,0.12339135,-0.03518304,0.19080360,-0.03499050,-0.10324743,-0.03087821,-0.02937138,-0.03686513,-0.02807303,0.02827726,0.21223482,0.10830460,0.05290747,0.04203368,0.03812689,-0.14810331,-0.20588851,0.19674852,0.00610039,0.05484343,0.23902562,-0.42070478,-0.06220915,-0.00515106,0.09168936,-0.05235718,0.07513123,0.00114493,0.02832223,0.23068339,0.05682328,0.05014889,-0.13744542,6.58629560,-0.00721174,-0.04323306,-0.13670050,-0.31720024,0.07055352,0.04632851,0.04018294,-0.08285967,-0.00384264,0.03105549,-0.19616479,0.07342698,-0.02041608,0.04789470,0.00842974,0.02204897,0.01057490,-0.11094419,-0.04053918,0.16340640,-0.05615335,0.02406817,0.06447278,0.09761147,-0.11132500,0.02484573,0.08546179,-0.00422868,-0.00320070,-0.06584609,-0.17391279,-0.00618638,-0.02072757,-0.04270431,0.13896282,-0.01177885,0.03233845,0.03120289,0.06259237,-0.02701323,-0.09518649,0.07014626,-0.33710840,0.08128639,-0.02149508,0.09585142,0.15084706,0.07509405,-0.02578040,-0.08439240,-0.12957147,-0.10176404,0.16550446,-0.02852303,-0.00454409,-0.04287714,0.10183568,-0.09476913,-0.11006160,-0.00732138,-0.02546367,-0.00079840,0.00626578,0.14087850,0.14478955,-0.16379882,0.09070961,0.00228897,0.08298918,0.12738417,-0.05590192,-0.07822825,-0.02462953,-0.13162874,-0.12044059,-0.00548482,0.23740888,0.20195900,-0.07134993,0.07440631,0.02869942,0.04584943,-0.01230466,0.03075724,-0.26013985,-0.08957104,-0.09964132,-0.17931244,-0.09615733,-0.00751303,0.05419310,-0.03683021,0.13662349,0.04888113,0.06248576,0.01767913,0.07625419,-0.05187714,0.09901713,-0.12204098,0.22450723,0.24357258,0.12900114,0.07286137,-0.12667082,-0.12888210,0.13929710,0.26384717,-0.07118962,-0.06069886,-0.22279750,-0.07550529,-0.01291498,-0.15986624,-0.00659855,0.06988509,-0.10396507,0.05535825,0.04510756,0.26572740,-0.15451090,0.17012697,-0.02294473,-0.10973608,0.07900175,0.02195438,0.01417205,0.06134183,-0.06105914,-0.19444585,0.08188362,0.00151233,0.19792935,-0.07036557,-0.15192653,0.00197778,0.16013017,-0.08364549,0.09722693,-0.06102912,0.22556435,-0.02144547,0.00655603,-0.03026436,0.08876606,0.04993842,0.06231569,-0.00027321,0.04459846,0.05291723,0.08131022,0.15149374,0.13234101,-0.02412581,-0.07929517,-0.14154103,-0.05316933,-0.08193441,0.18842503,0.04810175,-0.26239282,-0.13066278,-0.22470532,-0.02694566,0.10771142,-0.11931264,-0.03989132,-0.05138797,-0.19074805,0.05027926,-0.03994167,0.04117383,-0.11524458,-0.06956001,0.25633124,0.00930771,-0.03775543,0.02257145,6.57687378,0.00782677,0.02200793,0.13184080,-0.11429246,-0.16005319,0.09888691,0.04919576,0.22185738,0.39092022,0.21081504,0.10825613,0.01924543,0.04590986,0.00998781,0.00155873,0.03742548,-2.58243966,-0.01716621,0.07495776,0.02890438,0.07779495,0.02693292,-0.03371790,0.04171554,0.06116856,0.06293278,-0.15632668,-0.09543784,-0.14277507,-0.01215842,0.02743055,-0.01278404,-0.06209223,-0.09043569,0.06041229,-0.20124507,0.00194487,-0.01340192,0.08390655,-0.12167088,-0.05512951,-0.04256111,0.15550353,0.06707280,-0.03993021,-0.02310196,0.18684962,0.21458560,-0.05764607,0.11570691,0.15611346,0.03755013,-0.23391859,0.00155288,0.05613701,-0.06650917,0.01384688,0.03941914,-0.01312809,-0.00875305,0.19507520,-0.15377747,0.05303053,-0.20320003,0.07517816,-0.10403171,0.07207468,-0.16626307,0.01803505,-0.15698284,-0.08704155,0.04883594,-0.07003833,0.07261167,0.03915548,-0.02467614,-0.03497540,-0.12250900,0.13982199,-0.22850277,0.06354059,-0.01998802,0.17089956,0.00706948,-0.10282665,-0.03423371,0.48498625,-0.10644819,-0.05206193,0.01948947,0.05951766,-0.16660921,-0.05847143,0.13055603,0.00266400,0.03171279,-0.10666856,0.15292212,0.01794082,0.04984053,0.17496720,-0.01184478,0.02098248,-0.01890431,0.05010647,0.07069060,0.03253917,0.09307685,0.02378779,0.04822912,0.02211995,0.11173072,0.11194675,-0.18162872,0.00795674,0.17508966,0.11987075,-0.01678521,-0.06401154,-0.20368235,0.05869203,0.17943226,0.17469817,-0.00014508,0.02211802,-0.06746392,0.00550344,-0.01700321,-0.07717112,-0.01851854,-0.10722435,0.09492914,0.04444653,-0.11346305,-0.21692961,0.07315527,-0.06274447,0.09529202,0.00944228,-0.01094191,0.18315656,0.13038059,0.21588245,0.02616914,-0.03885468,-0.02461763,-0.09328702,0.04456415,0.06368609,0.06548777,-0.08399996,0.17755379,0.00506962,0.14432336,-0.19296287,-0.05127299,-0.01529069,-0.00714429,-0.11864355,0.06708977,-0.15263627,0.06691386,-0.00959121,0.14912648,0.27945024,0.04506969,0.05872613,0.14724256,-0.71874201,0.16021040,0.08967822,-0.06052070,-0.04299818,0.04906048,-0.03757955,0.11913700,-0.08771171,-0.07142705,0.12711491,0.10189985,0.45513412,-0.08488095,0.02394117,0.16774940,0.06566506,-0.06242869,-0.03413937,-0.02241764,-0.19331490,0.14031650,0.14227468,0.03212089,-0.07583828,0.05415180,-0.05271029,-0.17548421,-0.33536932,-0.03369359,-0.00083284
STAR,-0.04672182,0.00161311,0.03728160,0.19952019,-0.08719143,-0.08382338,-0.15505695,-1.13714421,-0.02889887,0.17789818,0.08084413,0.04749485,-0.03490668,-0.11194710,-0.03152247,0.16368039,0.17321463,-0.05462386,-0.06301923,-0.02909245,0.29766312,0.13968311,0.00859345,0.05764592,-0.11860713,0.10605486,-0.13417329,-0.01116687,-0.13940968,0.02353182,-0.09964257,-0.05731365,0.02883695,0.14642896,-0.07334341,0.23173365,0.05949650,0.08873589,0.07960258,-0.06795996,-0.01549064,-0.03453474,0.07047854,0.04240159,0.10009288,0.12344039,-0.08036669,0.10203578,0.00084682,0.20711951,-0.03629678,-0.13009228,0.04937882,-0.00708345,0.05721212,-0.00326673,-0.18610372,0.01996194,-0.08481760,-0.00168433,0.08162538,-0.14395630,0.00651520,-0.19276981,-0.00945363,-0.24246787,-0.12234498,-0.09958410,0.01312211,-0.11234307,0.11013440,-0.13137256,-0.14426278,0.19055860,0.04206347,-0.07436092,-0.05065867,0.01381559,0.00468498,-0.15229174,-0.07262783,-0.05582862,0.02229734,0.23340093,-0.11369557,0.00749286,-0.01521554,-0.17321035,0.22309180,-0.01242726,-0.09778191,0.06487302,-1.68758297,0.13009267,0.02208319,0.15316042,0.12032051,0.11796924,-0.06345170,-0.18848228,0.10483658,0.06345432,0.15668198,-0.24162558,-0.21359101,-0.04272563,0.04714249,-0.04352853,-0.11503581,-0.01187725,0.12970184,0.02800796,-0.00021760,-0.14124280,-0.05682595,-0.11540387,-0.15055434,0.23368703,0.04182553,0.02203785,0.06467195,-0.29194236,-0.07101329,0.04714923,0.11905273,-0.09200424,0.00217889,-0.04269401,-0.04240751,0.16028412,0.12400831,0.12603305,-0.12816067,6.40072632,0.08407855,-0.00774184,-0.09036807,-0.35379383,0.05072574,0.15613683,0.01948613,-0.07506149,-0.05616557,0.01271393,-0.18946910,0.23397909,0.06942626,0.05993872,-0.05948500,-0.05577371,0.07212991,0.07884364,-0.10064561,0.04546754,-0.07204217,-0.08187380,-0.02613497,0.00287420,-0.13973556,0.05474520,-0.00142234,-0.01190442,0.04187926,-0.09526278,0.01382491,-0.03419995,-0.08496352,-0.14937787,0.15148811,-0.02912067,-0.00119141,0.01088121,-0.11888980,0.00003916,-0.08624014,0.14931260,-0.39837819,0.09281552,-0.06731401,-0.02470020,0.18895514,-0.03671174,0.09519399,-0.00790517,-0.08735109,-0.09565365,0.19271277,-0.11939599,0.02571308,-0.09540814,0.00145322,0.04524933,-0.14463100,0.03645369,0.06279904,-0.03926950,-0.10105281,0.12521057,0.14708202,-0.16049185,0.02027811,0.05358490,0.04630751,0.12790458,0.03563277,-0.03329919,0.00479250,-0.16757663,-0.02404610,0.03237335,0.21656823,0.26011875,0.01440992,-0.01987253,0.07510632,0.00797842,-0.05080637,0.03394100,-0.24632856,-0.21738382,-0.27528960,-0.17186277,-0.16392043,-0.10592705,0.16763483,0.03035195,0.05450967,0.07105017,0.07686301,-0.09057702,0.08228721,0.09548324,0.07453146,-0.10725512,0.16527472,0.31751135,0.13834237,-0.01670868,-0.03969252,-0.23071870,0.10782087,0.16648333,0.09980481,-0.09421040,-0.22164188,-0.01785941,-0.07478983,0.03072686,-0.05874103,-0.01255645,-0.00534431,0.07538600,-0.05282045,0.13678107,-0.01570457,0.12424980,-0.08568253,-0.09170209,0.07591933,0.04375334,-0.05345253,0.03028918,-0.00239977,-0.15560181,0.00219401,-0.06661323,0.05746380,-0.13103990,-0.13463303,-0.12155370,0.00699385,-0.01239026,0.06756966,-0.15044856,0.00571546,0.10723401,0.01376338,0.11673100,0.05430577,0.10341255,0.13785942,-0.00481408,0.12481422,0.07526576,-0.01732309,0.10349907,0.12925412,-0.16371810,0.05540651,-0.14465055,0.08041050,0.00173335,0.00659347,0.01246452,-0.23246458,-0.01814963,-0.21230192,-0.01454557,0.05058734,0.03802855,0.08955576,-0.14393769,-0.06327128,0.03701045,-0.02010825,0.12609936,-0.06536894,0.01892463,0.16697480,-0.11650065,0.02072403,0.05376585,6.39153671,0.04118174,-0.01989354,0.18695207,0.00551136,-0.05784581,-0.00407581,0.18079033,0.26226348,0.46380875,0.14300680,0.05366962,0.02286696,0.18402788,-0.02401417,0.13595963,0.06937245,-2.41903949,0.00492679,0.20532170,0.12465864,0.05397338,-0.07901329,-0.05298010,0.03108843,-0.00444277,-0.04393684,-0.09573067,-0.06411801,-0.05913774,0.12712015,0.15212491,-0.04222306,-0.16331032,0.01787193,0.20590515,-0.17246851,0.14588311,-0.02083728,-0.05237160,0.01516597,-0.04996537,-0.05987192,0.12582181,0.05783314,-0.07342272,0.11160620,0.15005611,0.13118967,-0.01797392,0.08351020,-0.00483165,0.00978499,-0.25275677,-0.08601660,0.04162953,-0.06633734,0.13278586,-0.10713029,0.00817833,-0.01148854,0.04433719,-0.15459959,-0.04890201,-0.22564639,0.05686813,-0.05248520,-0.05998309,-0.13684830,-0.12197597,-0.04433783,-0.18080053,0.09500486,-0.11425798,-0.10402832,-0.01711065,0.06860152,0.14584343,-0.22638081,0.11198701,0.02128497,0.01849579,-0.05108318,0.18365678,-0.05301111,-0.20436251,0.03532836,0.60257429,0.00864512,0.06429484,0.00471884,-0.03017259,-0.04521840,-0.00319773,0.14480117,-0.05046007,0.05095972,-0.19131450,0.17884783,0.01681599,0.06516912,0.04082813,0.04973640,-0.00363554,-0.14630257,-0.07832306,0.03014537,0.10595695,0.22243729,0.12611184,0.01134934,-0.14003158,0.04399763,0.00120510,-0.16547322,0.00517948,0.15609689,0.16551422,0.02831643,-0.05677414,-0.04005012,0.04922977,-0.02728774,0.04768170,0.01600412,0.11332608,-0.12080599,0.01021921,-0.02167638,-0.16687408,-0.00851274,-0.15286641,0.03362051,0.03322590,-0.04068955,-0.20558342,0.03934307,0.06747530,0.17971078,0.04264243,0.04577614,0.14092442,0.06401207,0.05368264,-0.02777027,0.04278836,0.00778623,-0.20959735,0.06072621,0.01070065,0.16365397,0.08342780,0.10586693,0.04539118,-0.01246841,-0.17629346,-0.12213973,-0.05481492,-0.08498995,-0.01528267,0.03237881,-0.09281784,-0.03624925,0.16570093,0.02737223,0.21331139,0.08448844,0.12997179,0.01321980,-0.65988666,0.15732075,0.00565272,-0.00842908,-0.09849459,0.03003734,0.06688611,0.03179822,-0.00494698,0.03792156,0.09856503,0.02927512,0.37252578,0.09628995,0.08691865,0.15233718,-0.02945581,-0.12713948,0.05234867,0.02071449,-0.22575924,0.15196672,0.13810743,-0.00462327,-0.03564990,0.03423136,-0.06397121,-0.22389236,-0.31168398,-0.10301358,0.01549318
THUNDER,-0.04522187,-0.02371580,0.01992439,0.10162791,0.04652422,-0.15418759,-0.10450262,-1.31808507,-0.11808565,0.17438281,0.06742304,-0.00895433,-0.07301461,-0.04287982,0.02084760,0.05968560,0.08725166,-0.09225980,-0.10670187,-0.07934137,0.22588716,0.02786543,0.01502495,0.06955077,-0.01697676,0.12883681,0.01751839,0.07245595,-0.14102276,0.08178080,-0.04405037,-0.16340974,0.05580089,0.11434972,-0.06220360,0.14783956,0.07634454,-0.13419352,0.02628964,0.01712956,0.00233370,0.05325240,-0.00423259,0.10609102,0.09083743,0.26517639,0.07960776,-0.12061140,0.12203784,0.02812362,0.03317302,-0.08985972,0.07987026,-0.17617714,0.09652358,0.07458205,-0.05722360,0.09739169,0.01615107,0.05097462,0.24052101,-0.10461701,0.02182333,-0.12128502,-0.07082015,-0.17421812,0.02225414,-0.16663736,0.05775714,-0.02585609,0.17066292,-0.03860543,0.08968205,0.09517524,0.06780963,-0.19770749,0.18102141,-0.03376442,0.03367138,-0.29282561,-0.11635440,0.03956287,0.05838993,0.25025102,0.13654089,-0.06445565,-0.08758966,-0.11343811,0.03375699,-0.10319903,0.06126911,0.09409795,-1.75828314,0.14467756,0.02359894,0.10365149,0.10733452,0.10650492,-0.09598386,-0.21688409,0.00275287,0.01125070,0.07726189,0.05241112,-0.25715470,0.04522611,0.06630643,-0.11983678,-0.08183523,0.07894378,0.10840241,0.25612742,-0.02177365,0.08274165,0.03127909,-0.09244411,-0.17704649,0.19567375,-0.08016884,0.04047484,0.15970130,-0.30288640,-0.05025837,-0.04714381,0.02249754,-0.14212240,0.02500049,0.05220924,-0.02068848,0.17842752,0.13705860,0.05250883,-0.07480789,7.01591301,-0.02847911,0.10514561,-0.12185317,-0.22171342,0.09004848,0.12146049,0.00199218,0.01038426,-0.04984165,0.14094821,-0.22073905,0.07194238,-0.00316585,0.08299603,-0.12014461,0.01984502,0.02726872,-0.02734250,-0.01101749,0.13225488,-0.04233123,-0.03094685,0.01038987,0.08964153,-0.13791963,-0.02601779,0.05466976,-0.03062552,0.00752936,0.07334093,-0.05319192,0.00155534,-0.08413101,-0.04849988,0.19075318,0.03062293,0.07016441,0.08580472,-0.09424395,-0.03755053,-0.11997519,0.00577397,-0.21646209,0.19619356,-0.03715052,0.07131299,0.22611944,-0.00226330,-0.03556253,-0.09494246,-0.07037964,-0.04327120,0.10038348,-0.01636256,0.01686426,0.01951038,0.10319334,-0.13982293,-0.09904350,-0.11633513,-0.07588059,0.02183612,-0.00779155,-0.02433085,0.14320822,-0.14618646,0.06854396,0.01778226,-0.00228847,0.16912258,-0.07467581,-0.03826456,-0.09408582,-0.09029239,-0.03974717,-0.00537843,0.33847949,0.29321066,-0.13412137,-0.01081196,-0.02389771,0.00217859,-0.05075678,0.02753366,-0.09894627,-0.10608506,-0.08868042,-0.22068639,-0.02346581,0.07614656,0.11879531,-0.07527231,0.04091020,0.08428829,0.12143902,0.06403952,0.10396126,0.07679341,0.05097045,-0.20592040,0.16304360,0.20971508,0.04828946,0.00387127,-0.11178812,-0.10951721,0.06280053,0.14461066,0.03893236,-0.02241975,-0.09820006,-0.09467515,-0.02219815,-0.06263763,-0.03605045,0.05316380,-0.15485547,0.01496530,-0.03206268,0.11576622,-0.09766687,0.13380401,-0.05938516,-0.00261499,0.08226644,0.01001864,0.02431877,-0.03371349,-0.10969979,-0.11133778,-0.02845915,-0.04002700,0.11626687,-0.16778392,0.04051875,-0.01655273,0.14667684,-0.03272549,0.10921357,-0.08391286,0.15174155,-0.11408744,-0.00810587,0.06184615,0.10273319,-0.03573916,0.10920078,-0.03259531,0.00653959,-0.12907177,0.04323020,0.17663665,0.07763120,0.00978902,-0.13513495,-0.16542591,-0.03776580,-0.02635568,0.14644401,0.15076838,-0.12832819,-0.16566262,-0.22260261,-0.09225508,0.01025310,0.00407001,-0.02503278,-0.00223070,-0.20510858,-0.10339189,-0.00599637,0.15395764,-0.05026330,-0.03922910,0.13970540,0.03359196,-0.01961497,0.06248811,7.00640059,0.01924818,-0.04045152,0.07645657,-0.20475161,-0.11703873,-0.00344265,0.08365295,0.20182492,0.36602569,0.11903141,0.04148019,0.02100438,0.07484643,0.01214285,0.06814615,-0.00019735,-2.84174752,0.01956237,0.12099659,-0.03766896,-0.03167348,0.01815703,-0.01606500,0.07551001,0.05466510,0.04871920,-0.14953905,-0.04757772,-0.00933614,0.03106735,-0.00988638,-0.12624590,-0.04963419,-0.00235837,0.06514233,-0.11088660,-0.04914536,-0.02167802,0.10888454,-0.03477160,0.05787486,-0.10440756,0.15980093,-0.05016873,-0.11755055,-0.14493977,0.07874507,0.20125215,-0.07629769,0.14352435,0.20702623,0.00855500,-0.24459332,0.06391114,0.06663429,0.00208036,0.06013326,-0.10264591,-0.02207068,-0.02323531,0.17392857,-0.13835700,0.08394995,-0.13316028,0.02219465,-0.34376708,0.10960700,-0.09191755,0.07474609,-0.08064047,-0.08635134,0.06022045,-0.07993726,0.04043316,0.07349832,-0.03005616,-0.02564971,0.03752870,0.00627253,-0.12513813,0.08555645,-0.04852986,0.16287079,-0.06625342,-0.07464274,-0.04511381,0.36515710,-0.03130785,0.06387859,0.03690602,0.08868184,-0.19359724,-0.09922107,0.15192507,-0.14037885,0.02578131,-0.11095769,0.28659680,-0.07580788,0.08076572,0.15828215,0.02145997,0.11811507,0.08180179,-0.04984462,-0.11327472,0.14262639,0.13093112,-0.04846331,0.01672045,0.04148804,0.05209723,0.01989736,-0.18520111,0.01878614,0.17943221,0.09374175,-0.01235240,-0.05704542,-0.25745919,0.01752935,0.08671782,0.07043032,-0.00068313,-0.01545736,-0.19006111,-0.05330605,0.05265469,-0.00339379,0.06403535,-0.12504794,0.11235606,0.03276770,-0.00520007,-0.07521117,0.04301105,0.15882738,0.02876415,0.00636669,0.02901038,0.18946044,0.01612991,0.12786148,0.14249268,0.04576537,0.02558569,-0.07732045,0.03227171,-0.01109055,-0.00513871,-0.03617775,0.14391921,-0.00387598,0.20516197,-0.20393884,-0.05240534,0.06450833,-0.02146811,-0.03125348,0.13339686,-0.14877047,-0.02072965,0.00517024,0.11573153,0.14830919,0.00900664,-0.04338237,0.20168202,-0.58491379,0.06327739,-0.04745094,-0.06461188,-0.00768608,-0.00365842,-0.10276336,0.10555724,-0.08104029,-0.01999049,0.06440333,0.05622798,0.34709772,-0.00547227,0.07973912,0.09476765,0.00550300,-0.04939843,0.00226793,-0.09036896,-0.06178709,0.11201939,0.19540279,0.07371480,-0.00599252,0.05378414,-0.17354840,-0.11863801,-0.31388363,-0.01559535,-0.04545044
